102
-63
-8
0
88
-45
-22
26
80
-31
71
74
31
84
17
34
61
46
7
-36
-19
-2
-78
129
-26
54
8
39
43
-35
-3
2
54
-9
-22
15
-79
-26
90
-71
37
51
-40
8
-148
-119
-46
7
-6
35
20
31
41
-92
51
-78
54
-25
104
-25
-20
78
116
4
-76
-78
65
13
32
28
107
-53
-15
4
-23
-48
36
-28
17
49
-53
26
3
-25
11
28
5
84
-9
-59
0
6
-100
-40
-87
-55
-7
-64
-20
-9
-15
-1
60
23
-39
-26
-17
7
-30
-46
-111
68
78
25
0
100
39
12
6
-19
-4
37
61
-65
-20
75
2
87
33
7
-35
-21
30
-10
14
-28
37
-43
29
31
9
9
40
-107
51
-1
-34
-44
-2
-12
31
-2
54
-34
-31
-36
38
-18
-42
64
-11
8
6
35
-55
-28
-14
-42
-23
27
0
-13
38
-36
-92
-27
59
-31
-2
11
8
-40
18
-17
-96
-13
22
-34
25
-11
48
24
18
4
-55
-12
-20
87
21
11
-31
-17
13
-73
-38
-4
-29
74
15
14
20
-18
-16
-20
-1
-13
11
-60
70
14
0
-30
39
83
-101
11
32
14
-23
-10
-28
-6
11
1
-32
41
37
5
58
4
19
28
-42
25
43
23
55
41
-64
-10
25
-62
2
-115
-16
-10
-17
-42
7
-35
25
-16
-31
-12
7
37
27
16
30
60
-9
31
-66
-54
54
17
-25
-21
50
-33
10
44
7
23
17
-9
-26
69
-26
4
31
60
-43
41
-51
31
-37
48
12
-17
-10
1
65
-47
-19
-57
39
-13
48
-58
36
36
11
8
-24
47
56
16
-46
14
-14
20
-47
-36
8
35
38
-10
-9
67
-67
-31
14
11
-56
-84
114
-86
-31
1
24
139
40
-21
23
25
19
-20
84
19
67
-18
55
-10
37
-65
-104
12
62
10
-11
43
50
-53
15
34
-85
-61
22
-38
25
-46
1
12
25
-83
74
43
-34
-56
23
50
25
66
51
54
-11
-164
-33
-22
-83
-106
-40
-20
0
-94
28
126
38
0
-19
-24
117
3
73
70
16
-29
-63
34
5
78
79
38
-165
44
31
168
-56
-7
-118
-22
120
18
-35
-5
-79
-113
71
-35
7
-147
-22
-32
-69
46
140
-29
42
-44
-67
-50
-94
-58
-126
-41
51
69
51
-25
101
-8
-37
61
-7
51
1
39
19
20
-19
3
-12
77
19
11
44
-41
-17
-25
-1
-51
-30
-73
71
89
57
29
68
8
72
-37
14
42
-12
-1
-8
-58
-16
-27
-55
-16
5
-33
-19
73
-86
71
81
19
63
50
20
15
-103
-10
21
50
18
-6
93
-33
-12
-10
-17
-17
23
32
25
25
-19
25
10
21
-17
24
-15
10
10
9
4
4
-24
-36
-30
2
-27
-25
3
2
-28
-25
6
0
-28
-14
12
-34
21
6
-10
15
-4
-39
4
26
-25
29
7
-43
-4
65
-25
35
-25
-26
10
15
-35
-22
-12
29
5
18
-2
41
78
200
-50
-200
-70
-67
-81
0
49
56
94
47
55
-123
-135
-7
144
-100
95
-71
-86
32
-169
91
15
101
-126
79
93
23
3
137
5
-36
-8
-39
-57
-44
60
43
-202
-177
151
-83
34
19
8
-404
-54
-2
27
65
-151
89
37
-23
-85
26
8
32
-27
-61
-34
121
32
-71
-1
62
-32
-44
-3
58
-73
-15
73
-47
-39
-59
74
-47
-21
-52
-67
65
-150
36
-65
-30
99
106
-15
-20
-95
-37
-41
-17
-89
-10
30
40
30
-74
79
42
61
44
54
106
-2
85
-62
94
24
69
-33
-78
42
15
86
-17
119
57
-42
104
-36
-59
23
-53
52
-54
28
-71
10
123
-18
-39
-9
-9
-23
115
-52
59
-84
-26
7
11
-9
-103
10
-28
-64
98
-103
3
-45
-17
20
28
27
21
-9
-78
-15
0
-3
-6
22
-82
-112
19
26
-106
-71
-1
-81
29
15
27
20
-59
-13
81
97
-34
-105
24
-6
9
-26
-34
-57
-26
