-35
21
5
1
28
22
10
-29
-12
-52
-51
26
-38
43
30
62
6
1
14
-18
11
-4
3
7
15
-3
28
32
-9
-10
-1
24
18
-39
12
-14
-16
-4
12
-30
-3
-10
-22
4
25
25
-46
37
-53
-42
2
29
40
1
-12
31
-15
32
18
22
-9
-14
35
-4
-12
-29
27
37
16
24
-1
15
-21
-42
55
-34
23
12
26
44
38
-18
13
5
1
-33
-47
-16
-8
49
-39
-3
43
27
20
-77
6
3
43
-17
-33
-21
0
-2
-71
-41
-31
-38
-42
-48
-13
12
-47
7
-27
6
21
24
-22
-18
26
74
20
-3
22
18
26
-12
-9
-40
-6
33
3
-3
-7
-41
20
7
44
-18
-26
-21
-61
18
34
3
-40
-53
-48
60
-35
36
4
-1
-24
45
-4
17
-7
13
23
-4
27
-19
1
14
15
-10
22
16
-36
-2
-13
-29
-14
-6
-1
-2
-38
-5
-83
1
-18
-30
-32
12
27
-12
39
10
23
-52
27
-1
31
-40
9
20
32
22
-47
-13
25
-49
10
66
11
15
19
10
5
-28
-4
5
51
-43
-13
-61
20
-46
22
21
0
1
4
27
12
-18
23
-49
-30
11
17
13
23
37
-8
17
59
12
70
1
10
48
-48
-6
27
-1
-13
9
-6
-31
-1
-26
-3
-18
-42
-25
26
56
-39
-15
-15
-10
26
-4
-39
-25
27
45
40
7
4
-67
13
48
3
-6
-27
-13
3
11
1
-7
-36
-17
37
-43
-33
43
22
-8
-12
52
17
4
0
36
-26
-2
1
24
-5
7
11
-43
-39
-39
-294
-32
-44
-10
22
-14
-6
-8
-16
17
-29
22
-22
4
20
32
-43
-20
18
57
-7
-28
-7
-17
2
6
-33
-5
-38
-13
-21
0
14
-40
35
-3
10
-17
20
12
-25
-2
0
-35
13
14
6
-15
-12
37
-33
-20
26
-2
6
-1
-31
6
18
39
-7
34
21
-20
33
10
28
-7
48
-30
-3
-30
8
-59
-11
-7
-13
-20
-11
25
-60
15
55
41
4
-21
22
-53
1
18
9
-12
2
-23
42
7
4
-47
-10
-29
2
-15
15
-33
-43
-23
18
42
13
-37
25
-9
-20
-28
36
-30
-35
14
11
7
-23
15
-49
15
-9
29
-6
13
-27
-4
20
-7
16
-72
-13
-56
-23
5
-6
9
18
9
21
28
28
36
5
-16
-4
8
23
-8
40
-18
-6
-42
39
1
-7
-7
-6
-32
-24
-11
-10
8
-28
-23
-6
-3
27
-31
-18
15
-6
-11
-23
28
27
22
27
0
12
38
5
-8
-18
-10
-22
19
36
1
0
47
-35
-11
-31
1
-22
-7
-30
-21
-92
6
-11
-17
55
47
-9
-12
-37
-18
1
13
19
2
-15
-11
37
-76
28
-15
-44
-37
-18
22
-5
-53
10
-1
23
-52
23
29
70
-16
-8
32
-10
47
26
-11
-4
-9
-39
-4
1
-33
-4
42
23
-1
-6
12
-10
44
5
7
8
18
26
-2
-30
7
14
49
-16
-21
13
21
11
-27
-7
37
13
-21
0
-13
14
6
63
18
-11
45
24
-7
13
7
-9
37
-14
31
-8
-6
-24
-45
25
55
-29
-4
-10
18
10
22
15
-23
27
-24
-27
-9
32
-76
3
2
-30
5
14
-8
-3
10
5
-11
4
-26
35
20
-4
-13
20
30
34
-8
-33
11
-36
-50
-1
-64
-16
7
2
21
15
1
6
19
-31
-14
-11
5
17
-33
-31
-67
-5
-19
20
-12
9
-41
8
46
46
-1
-13
-15
38
26
3
40
-29
24
27
-14
27
15
-10
-7
20
15
36
-14
-30
-47
-4
-36
5
37
-30
-34
49
-36
32
25
-35
16
27
39
-6
38
64
43
-16
-9
-36
31
-10
3
-2
34
70
-21
-18
11
7
32
38
2
-35
-24
-1
-26
0
-4
13
20
34
-18
16
48
10
-5
8
-22
-30
-12
9
-12
-17
-49
-42
-15
14
27
-99
-30
-47
4
-22
43
11
-26
-25
8
19
0
-35
29
16
23
