-20
43
-21
10
66
-18
5
53
-2
-13
-28
52
35
4
-14
17
42
-15
-19
-4
4
-64
-18
-32
-24
37
-21
15
-119
4
42
-7
41
6
4
29
1
18
-13
-28
-5
8
8
12
-5
-16
9
49
19
-78
-26
-30
30
-85
15
20
43
-91
1
-37
27
81
-85
-57
31
61
-38
-23
8
-4
-94
32
-4
8
12
-8
-13
44
7
24
9
-9
-3
23
23
-84
-19
21
0
38
1
-47
62
-35
53
-39
43
-29
-25
-56
13
12
2
4
60
-88
3
-24
-32
-51
-6
13
-62
-5
-36
21
-30
-1
-16
3
-31
32
-21
-4
86
-122
-6
25
-36
-19
4
-26
-18
-29
14
-11
20
47
-25
31
-22
28
24
-16
-19
-55
50
30
-40
106
2
61
-106
14
-22
-55
37
50
-2
-74
-2
4
-12
28
-8
81
19
-70
-41
-26
17
48
-53
46
25
5
-3
-9
8
-11
9
3
-11
-5
4
-4
-7
58
1
-18
11
3
-15
-54
103
54
-8
81
-8
1
-55
-1
72
-13
-6
7
10
-14
-9
16
7
-38
24
17
53
70
-74
-10
39
-36
21
31
-27
5
18
-7
25
30
4
17
29
0
13
4
-10
9
-34
47
-42
-26
-3
-29
-13
-2
-4
-11
-86
-41
-3
-92
-17
13
-3
37
18
-10
-75
22
11
-2
6
-39
17
64
-24
-20
4
18
36
12
-2
-15
-44
70
2
-23
-59
16
21
-24
31
4
-37
-53
-6
15
24
47
17
4
-21
-63
-75
-41
31
-62
24
48
26
-1
22
32
10
50
-6
-23
-53
26
-310
2
-8
8
10
34
-5
9
6
-33
-32
75
-35
-2
35
-57
16
-11
6
-14
-3
38
27
-95
12
37
11
1
-70
-63
-9
22
15
-23
-4
30
-15
42
-10
-1
26
25
-20
-28
-13
-49
9
-26
17
-6
20
23
33
-19
-11
6
26
40
-60
-19
-14
-61
-50
52
-37
37
3
14
8
-36
-44
30
19
-95
0
-23
4
17
-37
29
-66
-59
30
-29
30
-69
46
-12
-36
-76
7
2
-16
50
-18
-11
-5
-24
8
-37
-1
10
-7
41
-1
21
-51
25
-77
11
13
43
15
-44
11
13
-8
50
20
-15
-27
12
1
-56
-26
39
-42
21
-43
-39
-6
-76
-49
5
44
8
-15
13
10
32
-22
-83
-3
-7
66
8
3
24
24
0
-69
-26
-8
-131
-27
-11
41
26
-51
-30
-34
60
-17
-29
46
-23
-6
-59
-66
-5
-58
-47
50
-15
-72
-84
-3
-25
28
-9
-49
20
-27
9
-10
35
-20
-4
-3
19
22
25
27
-14
-25
30
1
23
0
-1
-52
29
-5
-20
64
-23
-21
83
-29
-81
-37
-6
25
9
18
28
-65
4
-50
-3
20
17
42
1
-9
-19
14
-23
-33
16
-47
-53
-53
0
-15
-3
-26
18
21
-12
36
21
14
-20
32
0
-5
14
7
-9
13
12
-25
44
-20
-9
8
8
14
3
31
39
2
12
26
46
-19
-5
-9
-98
8
19
-137
29
78
-61
-20
-10
59
0
-23
20
-23
-8
12
84
-19
-39
-5
36
11
-7
18
30
-26
40
23
14
-1
54
8
23
-6
4
4
-33
-100
-8
-38
12
-8
-29
48
45
-8
24
-26
74
45
-22
-26
21
61
3
25
67
-26
12
-13
32
25
22
14
8
7
-9
-1
19
26
-4
-5
37
20
56
24
65
-66
-23
18
-11
-8
-69
17
1
4
-16
8
-4
32
19
-30
13
-41
14
6
-20
26
-76
24
32
15
-26
-3
-29
60
17
-24
11
27
6
12
2
22
-36
12
30
6
45
-40
-24
-38
-19
17
-29
54
41
17
22
-41
-43
38
53
-25
72
5
73
-32
38
-9
-11
-2
4
-6
-21
13
-11
33
17
15
-23
22
20
22
45
18
10
80
-62
-3
41
18
31
1
-17
18
47
-42
37
-33
-53
72
2
28
-6
-12
61
-64
75
-97
-29
52
-4
8
41
-6
-28
-44
-18
18
14
