-23
-56
62
44
-87
61
24
-12
41
44
25
-25
56
-45
3
38
85
-18
-20
-20
61
-3
-6
-48
-15
-35
31
-27
-20
34
50
21
-20
-44
-82
21
90
-2
-95
-76
3
123
59
86
36
14
84
-3
-17
-46
-104
98
27
63
24
-19
51
-24
-54
-1
-55
78
-50
-33
-31
3
30
1
13
52
25
-5
-4
49
-8
27
-24
-16
52
0
-17
25
24
57
13
-14
-18
21
-1
-10
-50
30
31
-89
0
13
53
-23
-21
34
27
38
-21
16
155
-39
10
30
-7
26
-3
-49
3
12
-9
9
42
8
47
1
-5
45
24
11
20
46
10
-19
69
43
-30
11
42
22
-12
-13
30
-59
20
21
126
-13
-3
-39
-8
14
-54
-38
-16
39
38
-43
-67
77
0
-10
9
-17
-1
2
66
-39
-56
-32
-87
48
-25
17
-145
3
46
-18
-50
18
-17
-13
-76
-36
28
-25
-55
7
11
4
-12
5
-38
44
79
-18
16
14
-3
-10
70
11
-17
-1
13
-95
-28
-124
24
-34
-97
34
-45
-13
-31
101
81
-44
-17
74
-150
64
65
-15
-8
106
12
-20
-58
-91
-78
-18
1
106
-29
-122
5
-2
-48
-14
92
222
4
-83
-104
-28
-15
-28
68
-24
20
-22
-103
4
25
-55
206
-13
57
-20
-1
76
3
-5
-14
15
2
-7
4
-20
-46
-37
0
2
27
-34
14
-16
4
-23
-11
15
-25
-38
-26
-8
-11
-7
-17
-14
-20
-51
-4
-20
49
-37
-50
-21
15
15
-16
-72
13
-1
6
-3
-19
32
-12
56
-32
22
-7
-11
9
-16
-7
38
-40
44
-36
-30
-22
13
-28
-21
-52
-108
-43
9
-16
124
22
-11
-16
-25
31
25
95
-74
-28
-112
-10
-25
-74
-109
-6
-103
30
-40
51
15
-40
39
47
-76
-4
-48
-104
27
47
-52
97
-13
-73
16
-17
-135
16
27
-87
-28
31
-76
0
-17
-8
70
54
-4
53
17
57
24
51
50
8
30
-36
60
-27
-10
5
1
40
32
7
30
43
-14
4
-12
-4
27
-20
14
-7
13
-1
0
-20
-29
19
47
24
-5
4
8
-2
5
-27
10
-13
32
-14
43
56
-55
14
39
42
-1
-25
7
18
3
8
-61
47
-3
-27
38
4
11
-57
-8
52
-25
-34
5
-11
-9
19
22
39
-17
51
-71
43
62
88
-7
-30
-47
27
-28
61
16
-55
4
-167
-5
-45
15
3
-54
-20
24
-39
26
6
-49
-25
-71
36
95
-101
40
19
46
-26
67
-95
-96
-100
-54
-29
52
36
-18
-137
63
56
37
-42
-83
-11
-58
-34
-28
8
50
-12
80
45
40
25
7
25
-53
58
-34
70
34
-16
-61
2
18
28
-10
43
-80
-8
6
5
-31
2
135
-13
-34
-53
57
-31
-29
-18
61
6
42
-1
-40
23
15
-16
-2
-73
40
33
15
-14
19
16
83
28
7
56
5
16
16
56
59
18
-18
15
-2
-24
-39
-38
25
22
73
50
-42
2
-32
5
50
76
18
34
34
3
-26
-22
16
-5
-52
-25
22
63
-110
5
0
-10
-45
-40
-28
24
-26
0
65
-66
-140
-2
-62
-29
-36
-27
31
-12
3
-27
48
-30
-53
-19
24
-39
8
-19
-25
-55
-25
-34
0
31
45
34
-63
31
-32
-101
-5
-31
-6
34
1
-29
-34
4
-61
-14
-4
-35
20
3
23
-22
10
-21
-32
-44
59
53
10
-20
-13
-18
-42
25
11
-23
-10
58
-68
-18
-6
-27
26
-36
30
20
-23
21
-46
-49
15
31
9
10
35
41
18
-25
-19
-42
4
-27
-42
13
-12
55
21
-59
-31
-16
31
-65
-58
89
-9
-6
18
52
-88
21
5
60
-31
-152
157
12
342
-84
-43
26
150
66
107
288
-49
22
-10
-36
-1
-90
3
7
-64
-54
-200
10
-27
52
-37
15
-139
40
174
118
3
19
122
-165
-37
-220
-77
-188
-30
-133
192
27
-330
24
-40
26
92
-101
48
15
-183
93
-89
-103
120
