0
30
1
19
34
-1
24
32
-19
4
2
5
-22
51
6
10
8
18
2
5
17
3
20
-25
8
56
23
8
-73
24
35
2
-6
-31
5
-6
-7
-12
-14
7
-1
-17
12
-12
1
12
23
32
10
-43
-2
-12
12
-24
29
40
22
-61
5
-32
-10
78
-35
23
14
32
-19
20
-14
-35
-52
7
3
-11
4
46
0
-26
-9
1
50
6
1
10
35
-37
-2
31
-18
11
10
-19
35
-22
65
-45
99
-48
-24
-34
-27
-5
2
-14
14
-25
18
-20
-47
-30
-37
-7
-15
2
-36
19
-17
-2
-14
23
-28
-19
-11
12
56
-38
-10
60
-2
-23
13
6
-9
-15
44
1
35
50
-42
0
-28
40
29
-7
-1
-34
38
10
-64
53
-29
23
-103
17
-22
-47
21
12
-5
-61
32
0
20
16
-24
54
0
15
-35
20
21
45
-41
2
7
-18
6
9
-4
-34
5
7
-37
10
-3
-34
-9
13
11
-21
-3
-8
5
-19
53
23
18
37
-27
-9
-24
-16
24
27
5
6
15
-10
3
30
-5
-26
58
33
17
20
-63
0
37
10
37
32
-3
-2
-1
41
-8
38
17
5
4
-11
0
13
-25
-23
0
11
-8
-11
32
-40
-31
25
26
16
-22
-26
4
-32
-21
7
-5
3
17
-22
-16
-19
23
1
3
-16
-18
33
11
-27
-8
-14
15
-18
-1
1
-40
18
-4
-48
-38
-15
6
-40
31
-7
-15
-41
-1
11
13
36
25
21
7
-5
-48
-42
7
30
53
20
15
1
32
13
-4
71
23
-14
-31
3
-314
18
-13
-32
25
18
-22
0
-18
-4
-28
13
-23
28
25
-64
3
-27
-6
15
11
-8
27
1
-7
21
-3
10
-45
-31
-19
-22
8
17
-17
46
5
0
6
-15
0
19
-8
-9
7
-45
22
-5
14
-8
13
3
17
-13
29
33
11
31
-49
5
5
-7
-16
35
-17
4
8
3
12
-47
-46
4
11
-139
-11
-25
14
-6
-33
26
-29
-55
14
-8
6
-36
32
6
-34
-59
-1
-10
-42
-7
-20
8
30
-15
-3
-1
-9
-3
20
16
0
8
-44
31
-54
12
10
50
4
-34
30
-15
-47
18
8
-25
-28
-1
3
-51
-9
-3
-53
1
-40
-24
9
-34
-37
1
40
-7
-7
-7
-13
0
-11
-42
7
-15
31
-29
-1
51
-18
-20
-57
-32
-4
-79
-19
-21
56
23
16
-59
-16
34
-6
-3
-12
-35
8
-40
-37
-1
-23
-64
31
4
-10
-48
-45
11
28
19
-49
-7
-7
-19
-16
29
8
18
30
-7
17
3
-9
-22
-9
-5
7
39
9
0
0
24
-41
-24
13
16
-4
53
-40
-44
-38
34
-16
47
18
7
-30
39
-11
-25
5
-14
-15
16
-29
-9
58
17
-26
39
-21
-51
-2
-43
-18
17
-33
-14
-18
54
38
11
3
-13
12
4
-7
2
-9
42
-11
12
-13
49
-20
-16
-13
-7
-12
19
3
0
-7
6
8
-1
-36
8
41
13
-9
16
-74
39
39
-16
-4
-10
70
2
-3
6
10
-22
7
17
-16
-31
-2
66
21
18
25
27
-22
-29
-1
8
10
10
6
28
3
-9
18
-35
-76
-13
-37
11
20
-28
36
35
-15
24
-9
21
10
-8
-36
-10
42
3
6
56
-14
-4
-5
33
58
7
-51
38
-2
-38
-16
4
12
35
-24
25
9
5
-6
24
32
-2
33
17
21
-64
37
-8
1
-1
-1
0
22
63
7
-23
14
7
27
-33
18
-5
19
7
4
-19
-5
-26
67
-9
-4
-13
33
22
-11
-11
21
-4
19
8
3
20
-41
16
-32
-2
8
-49
39
37
8
47
16
-41
41
28
-10
26
6
27
-30
27
-18
-8
0
25
4
-8
0
-15
12
7
3
-36
-3
49
21
37
26
-17
30
-57
1
31
6
-3
7
-12
-17
39
9
14
-1
-30
57
-1
-4
-28
-14
43
-47
41
-77
1
67
-19
-40
15
-24
-19
-30
-9
-18
12
