-413
-11
193
390
-427
325
-764
-364
-88
-174
-167
-414
568
-851
-491
75
587
311
-322
-1058
-509
262
-725
-510
252
-550
-707
115
171
-95
-128
-76
-648
249
-406
163
-73
-115
-321
614
-17
252
-128
-302
156
151
76
185
-205
-264
241
-206
-1013
1360
-268
20
-289
576
-26
107
84
-204
713
535
98
149
-224
-320
-131
20
-266
-215
405
226
-319
-618
-351
-242
-129
154
-229
-196
-362
86
-349
-442
47
-93
-351
-108
-290
169
-1693
-299
-94
-226
59
200
-195
49
25
-360
23
31
-387
-68
371
-74
-522
-252
176
-636
883
433
-403
-153
-477
-406
-33
-225
95
888
16
-326
-304
-43
22
-244
-338
147
72
-648
235
-334
129
267
561
183
473
952
-67
-138
-36
-214
-543
1720
71
185
-282
-315
-327
-451
85
-198
-155
-124
-603
-562
-297
-730
351
-485
-91
-170
-353
-319
125
297
533
174
-328
-438
-554
-545
-174
-1204
-110
-465
-508
-99
-15
111
-871
-673
-536
-185
-562
-1027
-269
-77
398
502
-1264
432
195
-162
38
-424
30
-310
-147
-855
-608
-615
-79
-480
-622
200
48
123
11
30
-553
-451
-227
664
29
55
-930
-455
-467
-691
-446
540
-330
-315
12
328
-89
-296
-358
-2
-371
-63
-319
-389
-384
-535
-328
386
131
-242
-296
-619
-23
-792
423
-232
293
-146
-633
-1013
128
-1
-98
168
535
144
-354
-178
-442
-93
-376
-290
-1066
-511
-128
-299
-158
-167
-378
66
-109
-48
-47
-414
-122
248
-108
163
-369
-227
-119
-245
85
437
-18
-289
-281
-203
-134
-792
261
-53
-121
-67
-34
-1224
-47
40
-248
275
-41
-413
-992
-272
-553
193
-5413
115
-304
-240
132
146
-601
174
-328
229
-162
102
-189
5
-359
-82
-391
-583
-255
-190
-117
-327
33
-407
315
-194
-149
-411
-104
-513
-138
-483
-308
-413
166
-451
252
-290
-187
355
360
211
-4
-234
-101
-697
42
270
219
277
161
15
-525
130
-64
-157
-12
-427
-43
-154
-177
-680
336
-152
-365
-375
27
-8
-30
34
41
-184
-288
598
-371
364
124
-41
222
-288
-186
235
-104
-135
-827
-690
-417
-381
-369
-122
-210
50
-488
251
-203
-72
-501
62
-346
95
-228
-180
336
17
-27
-89
153
-55
-293
-112
-322
-71
417
206
-393
195
113
-256
-330
5
-315
-11
-288
-43
-38
-195
-279
-325
-190
-155
173
63
-237
-196
-13
1142
4
-356
297
58
127
-191
-9
-263
-724
189
-237
-54
-234
-221
181
164
-490
390
-430
-465
-608
583
332
-739
-488
-44
-306
67
58
6
-343
-525
444
33
197
-5
296
-399
-830
-198
-103
-236
-218
-490
260
96
153
379
-543
341
633
13
1031
-255
196
-133
48
-356
-207
-260
-299
11
-618
-35
338
-267
53
349
-842
-256
260
-532
69
-92
387
-79
187
-409
-252
-19
202
-229
-235
-153
-237
75
52
-1
-423
100
-13
-27
213
-532
-279
-571
-654
1010
87
-443
-211
-145
597
499
-471
-806
-270
80
-284
-323
-263
-82
-411
-489
-275
64
-244
451
483
124
-288
-239
-270
-129
259
-122
-330
-15
-83
444
-452
-135
-266
293
-100
-267
-293
248
-819
-412
-105
-434
-924
-226
199
47
-210
390
-395
-314
-528
-197
-301
-330
-254
-277
-302
-448
-7
-58
-232
-547
-640
-398
-263
-158
-208
-321
-186
-259
-793
-173
-472
-67
-384
-696
-212
90
-343
-202
-116
20
-148
49
-240
-30
-283
-190
-38
-157
-400
-100
-232
-279
-409
-425
68
30
-381
-188
306
34
-710
-160
-159
-421
122
-128
133
-384
1570
-283
136
39
-146
-418
-110
41
-384
-347
-328
292
-196
689
-301
46
532
-678
-145
36
-140
-517
-926
-502
30
476
-393
-155
-827
-118
-199
235
-409
227
-56
-252
-317
-771
-50
-22
100
-681
74
-46
-262
-81
-560
-300
673
-550
215
-373
-402
-605
-89
255
90
-494
241
-106
-31
-573
102
-165
-112
-349
-97
233
-467
-291
-572
-134
2
-259
339
-299
29
-361
132
-272
-890
-328
-182
331
250
-235
86
97
-685
132
-346
-184
-153
-226
146
-402
-101
148
27
-824
-58
-367
525
-451
320
-499
-389
-174
63
173
-274
-429
20
124
