-57
101
167
85
1231
239
-109
-129
-58
-84
162
161
9
362
-101
-322
-45
29
51
-49
-393
-163
104
66
-69
234
190
-242
474
-27
-268
-86
152
-113
-311
-153
235
169
-283
176
248
32
-114
-79
110
139
-234
87
-530
339
375
114
-76
-56
-190
-17
86
-22
-206
-67
80
-91
-55
147
17
-16
57
-27
11
-22
17
-28
29
-1
-24
26
-55
2
-14
12
25
32
-38
-5
-12
26
-6
-18
-42
37
31
-16
26
-40
7
13
-115
61
-45
94
0
0
-64
40
46
35
-43
-37
13
34
10
97
-46
-41
73
11
-124
-27
12
33
47
-5
-34
14
73
-50
-19
46
41
52
27
3
-79
36
15
-19
-16
54
5
-3
-48
-73
-39
-62
-18
-32
19
59
34
-5
-14
-5
28
-139
-25
-25
-20
51
-62
50
-26
-9
-36
-6
50
-7
-3
19
51
-125
97
4
-92
-8
60
50
27
-48
15
-4
-6
-13
-19
-59
39
-156
11
6
-7
19
-39
-161
28
31
30
63
-59
-68
4
27
17
-15
-12
-35
9
59
22
-32
8
-25
-80
-8
29
-46
21
-34
-32
5
-19
-38
-68
15
-32
-5
81
48
-3
-19
-29
0
-8
58
-10
11
44
40
18
-22
-50
36
-51
-9
7
-10
24
63
52
-18
-2
-30
51
25
-3
71
9
31
111
139
31
-15
2
-25
29
35
12
-94
53
9
-24
17
24
47
-6
-29
-97
-27
169
-62
-60
-33
9
80
28
21
-26
45
-23
-20
-12
-41
-7
-23
25
18
7
17
-20
-3
-89
15
61
-3
22
54
20
43
2
-75
120
-66
-18
73
55
28
24
-3
-7
7
31
71
-35
60
1
63
11
5
21
-37
-31
9
-30
-84
-72
-137
59
120
-1
-17
2
7
21
18
45
129
31
-52
-31
31
62
39
36
-11
-14
35
-11
16
-49
69
47
-13
39
-7
3
-45
-16
-26
-37
-38
20
22
-41
-9
20
30
69
-24
-11
-72
-64
33
-25
12
29
39
-106
-2
116
139
46
-29
-102
85
57
-81
168
-63
61
173
-51
-177
11
256
30
-37
15
-8
154
-29
59
-22
-122
-78
-112
-280
-123
90
64
32
-241
221
-97
-244
148
-18
92
90
-10
-152
72
285
93
24
232
176
-160
27
196
-240
145
207
49
44
-73
64
214
-193
123
-42
-69
-18
-21
-58
16
-13
-25
-36
-103
20
-32
-36
54
-56
-63
14
-2
16
-76
-14
-38
69
-14
-54
-31
23
-49
-49
21
14
1
-1
20
-16
5
-15
-44
14
-44
21
-35
26
17
-29
23
-9
33
23
57
17
-2
24
-10
44
42
-29
14
9
-13
36
58
-10
-32
2
7
-14
-4
-2
10
20
25
-35
-32
10
7
3
40
-31
2
-19
-70
-5
13
-42
10
-39
16
56
24
0
-3
6
-18
3
-83
-11
-27
43
-23
-28
-10
-9
-61
92
-5
14
-10
-83
28
-21
-77
26
-75
-53
15
33
-33
-9
-100
0
-8
7
-63
-8
38
-62
-48
-58
246
245
125
-16
-283
229
168
404
103
-140
259
508
1019
-331
127
-99
-109
94
-305
174
205
156
-119
12
2
188
253
514
-178
-59
-128
184
164
-237
312
-218
-221
194
210
-306
521
144
-86
56
-397
-577
120
-301
-74
-111
252
-249
413
-21
228
-3
176
-36
24
390
-221
-10
-139
-124
3
-49
9
28
-19
6
15
41
35
-4
29
-27
47
-27
2
-15
-16
-17
-31
9
-41
-10
-29
51
235
90
66
3
23
-13
-8
7
-7
81
107
-13
-37
44
-30
-24
19
-71
33
35
6
-6
27
-77
-18
16
-76
-24
-41
-34
-42
6
-15
-12
-27
-21
34
11
-106
-27
11
-28
-30
3
27
-17
-24
-3
-5
42
31
-16
-94
-54
-31
-15
19
35
46
98
36
25
-9
-31
-36
3
50
-5
38
-36
-29
53
-17
6
26
-23
26
-24
-40
-7
14
29
44
4
-27
10
-1
-45
22
-58
-20
-73
-11
9
29
-24
14
5
13
9
34
45
-35
-56
