-6
75
-169
69
24
48
-160
60
-159
-22
37
-22
335
-202
-2
98
236
14
-38
-252
-228
82
-203
-174
261
-94
-272
136
34
-38
189
57
-130
-53
-156
112
224
-113
-109
-142
-36
-41
64
-175
231
-69
-10
65
-28
-162
194
-71
-159
222
140
8
-115
-119
26
-109
72
-41
271
37
-139
-131
5
8
-129
27
104
14
194
139
-157
235
227
-192
-260
-230
165
-73
-20
172
43
-148
102
-78
-87
33
2
-115
-389
189
155
211
-129
265
73
70
-18
-126
-79
111
-92
183
6
-21
-102
-13
-110
60
-26
66
-8
15
26
14
7
-248
-114
353
163
-212
-21
50
129
-47
86
372
139
-124
-124
-211
-35
18
57
-170
-76
71
41
203
-80
47
-153
542
134
110
-186
-50
-114
46
-210
-58
48
-24
-26
-155
-146
-353
-135
2
251
116
-30
0
-138
102
627
122
-11
54
-29
-141
-33
201
60
-31
224
-114
-191
-2
122
-164
-89
17
-145
-110
-168
-117
6
130
-90
147
141
-33
-87
-336
-156
273
82
-307
-331
-293
-76
-85
116
-14
-44
42
-116
142
35
-229
-58
55
59
64
-448
50
44
-37
-68
-13
-51
-303
-106
146
-38
26
-44
56
-34
5
-61
-73
-142
67
-80
111
-168
-146
159
50
90
191
-258
-158
130
214
-61
-182
15
22
-157
-51
48
135
82
116
270
69
-104
185
-94
-34
-20
15
-12
59
-98
32
66
-30
77
-205
38
202
163
101
-86
-111
-74
105
133
-93
-58
-97
88
30
-125
-38
107
31
-15
-65
-171
-63
-47
-175
34
131
58
-42
-408
-118
80
51
3175
-152
-37
-291
-5
-18
-41
227
-72
-182
-51
-254
-17
-119
-10
182
149
-202
-331
123
-76
-132
200
-464
65
-62
162
-58
50
-31
48
26
55
-132
-238
38
-33
54
-145
-45
14
63
110
-96
65
-446
36
37
-1
110
-56
-196
81
-131
-40
-26
-124
111
-248
-254
-95
3
38
114
-136
78
-41
59
58
99
158
-44
9
277
-189
222
-58
156
82
-103
76
-224
72
-227
12
-189
-93
1
127
189
33
58
170
123
-2
81
-12
112
18
-112
32
63
89
84
59
85
-183
33
-69
43
103
-377
180
306
-73
13
230
-148
-114
-178
37
-317
122
54
110
16
-66
-39
57
115
-5
-219
131
-35
47
231
77
92
62
-48
164
160
-48
65
-28
-32
30
129
79
-125
-63
49
-64
249
-12
-3
237
-140
14
122
-82
280
-25
12
15
146
-28
31
-163
-127
169
-44
28
-163
314
-109
80
-94
-98
-121
165
-264
-30
24
-283
59
53
64
-393
61
-36
-40
8
-83
51
-206
92
-65
-107
11
62
-62
-60
-11
165
-3
82
-206
18
-32
21
-13
-12
-161
56
93
-55
156
-1
-105
-54
-91
209
72
-109
-171
4
-20
-126
-119
38
35
20
64
100
-52
20
306
178
69
14
-51
13
355
110
3
127
54
52
121
-82
11
-35
98
86
96
-121
-80
-16
159
-8
90
-19
159
211
281
88
-5
81
-10
-26
128
77
14
-95
-88
137
22
-280
3
165
153
-117
57
-44
71
129
83
-69
102
-98
-89
0
40
165
12
-187
-436
-105
322
-13
216
-120
232
84
-213
-91
111
76
-12
175
99
-150
-22
-9
-96
-74
-52
-116
-174
-21
-28
-296
-264
257
-147
-46
101
18
18
-289
92
22
-146
56
-374
156
-108
37
-7
323
112
60
-64
-71
235
-21
-157
198
47
81
190
-212
29
-125
155
-101
-40
-79
3
-128
60
-419
-152
83
-5
39
-29
-126
-70
42
72
-112
25
-33
28
70
209
-263
-56
73
36
-16
-113
11
41
154
-79
10
-104
99
-42
-64
-47
96
-131
-130
-148
-81
14
134
-1
330
6
74
126
57
-41
-89
-1
24
-30
132
-119
-184
43
207
16
236
-8
188
28
-2
-65
-168
-90
-131
103
-132
-20
42
-105
15
-188
-11
147
12
-213
-144
-229
0
33
-92
-63
-100
-23
225
71
175
8
154
26
-174
62
-82
-70
165
-20
-26
-98
