-25
101
12
15
23
20
-28
28
10
44
-6
19
21
-56
-63
36
119
-27
-25
-20
-33
-48
-7
-30
9
9
-77
45
-56
-25
25
-10
21
-2
1
62
8
31
-24
9
-13
21
-6
-17
14
-26
18
57
30
-57
-40
-11
49
74
2
-17
-19
-17
22
-85
-28
24
-127
-62
-5
31
-55
-13
-2
55
-72
23
-15
-13
36
0
10
57
43
44
25
-24
-6
47
25
-70
-6
21
-26
27
-19
-23
-127
-38
41
32
87
6
19
-16
-9
4
4
-5
42
82
-13
10
-41
-64
14
-64
8
35
-50
26
-34
23
-23
-5
-26
172
-40
14
36
-25
21
15
-2
65
9
-45
65
-10
24
16
35
-37
4
166
-4
34
39
22
-32
-100
36
74
-18
41
-13
26
-31
40
-5
-40
16
13
29
48
47
-18
10
36
-7
49
47
-39
136
27
9
19
-13
13
12
78
-1
-44
-32
-33
22
11
-36
8
-25
32
-3
9
-10
-29
-15
23
-32
4
24
22
-12
-7
-41
4
10
-21
12
-19
23
-44
-13
33
14
42
70
-8
0
-22
-10
-26
-94
-9
-18
-30
-12
-2
-27
-10
62
-82
10
80
-20
-25
21
-29
41
25
10
3
-4
-7
-14
82
-9
-18
8
9
-9
-229
-66
-3
41
-93
1
22
-31
32
19
16
-7
39
-11
-12
-9
-39
48
2
-33
23
-23
13
27
7
14
-26
12
54
-11
-49
-28
24
16
19
-33
-12
-26
-136
1
38
0
-17
2
17
-15
-29
-26
3
49
-33
-56
-20
-4
-5
27
48
64
8
-35
39
-47
3
33
17
-48
68
-16
48
-43
25
-2
3
-30
78
22
30
24
-73
2
-42
-23
-18
-27
-7
34
-270
20
48
-23
-4
-4
-40
7
7
-85
-24
-34
36
-22
121
-13
11
96
-3
43
12
-21
-131
3
46
4
-6
-3
-36
20
-4
-41
-9
12
-18
-47
-18
2
-54
-19
68
-20
41
2
41
5
-46
-22
0
9
20
0
-30
40
30
-43
26
-49
-5
-19
-29
-6
-91
22
-7
-24
-41
56
47
-28
67
-37
-36
-30
-33
-6
-25
-25
-52
-4
34
28
45
-12
-6
13
55
20
58
12
-63
15
32
49
26
-41
-16
0
11
20
11
-35
-65
-25
5
-42
-12
-15
-8
-12
-10
39
38
22
17
1
45
13
-65
-34
0
14
5
9
25
-10
-16
-14
-5
-13
23
-53
-13
-7
19
-13
-71
-50
60
-6
-4
9
9
-24
-40
-47
-1
-14
-14
19
-30
-204
-76
-51
3
29
-14
-62
24
0
10
-30
58
1
-52
-58
-13
25
43
-19
15
-8
-8
48
-18
1
-5
-68
-9
8
-2
6
4
-40
5
-67
43
10
-10
40
-28
13
52
-27
24
-26
-23
2
78
25
-27
-1
-45
-16
-19
14
16
-7
-55
-11
24
9
41
-35
-74
15
0
3
-7
-26
-11
-7
4
-5
-6
-41
4
-17
7
-8
11
1
17
-17
-8
4
-5
-5
18
65
50
16
14
4
12
5
-108
17
31
-89
51
30
-76
12
-51
-3
29
9
93
-2
18
-29
26
-2
-51
6
9
17
-30
2
27
20
49
0
8
-38
131
11
27
14
49
50
-59
-170
27
8
4
-49
-52
21
38
-37
-3
-44
65
52
-28
24
37
18
-67
-25
28
-54
-9
-31
45
-67
49
-4
-46
35
-76
34
19
-13
-49
-1
23
59
36
49
39
61
-66
-47
-25
32
-40
-6
20
-29
20
-4
6
10
-1
0
-22
-114
1
1
-51
29
-72
-4
13
8
3
-32
-18
-5
7
33
-5
-21
23
-10
-42
0
-44
28
32
63
-1
-31
-3
-94
-103
11
-52
-7
32
0
-36
-4
-80
19
27
60
22
-34
35
-70
17
41
-29
28
8
-24
2
-26
-37
24
-5
21
-58
51
-13
-4
13
37
52
14
-21
18
10
24
-32
33
10
6
38
-12
20
-30
-99
35
-18
48
-29
-44
34
-37
31
-34
-15
107
-57
8
70
7
-22
-28
17
-6
-5
