-367
-257
288
-406
345
382
664
699
-490
-663
46
57
-821
267
14
1000
821
279
-364
-197
815
-87
-137
382
12
369
284
-517
-391
-140
552
-4
558
-594
-358
210
-671
-364
-192
-664
-405
-699
-365
356
135
-74
646
353
-128
-93
-1197
-130
816
-318
403
514
-232
-569
-655
-650
-261
352
-143
-445
56
600
-130
79
-740
-209
-393
268
-375
-263
445
-82
-535
253
195
137
-131
380
-157
328
-57
-458
285
-428
-756
472
-515
-607
354
-355
323
-39
358
-241
229
-518
-448
-325
448
-314
-330
148
-354
-725
-433
150
-315
-62
-280
-707
-315
172
-146
-443
-323
-227
-232
-329
8
4270
106
-1128
-145
271
-468
104
-42
104
-297
-320
-669
-92
109
-269
-293
-334
-427
24
-41
447
587
-223
-341
-1125
-426
369
-254
465
-407
-246
-508
226
-62
115
115
-692
-86
-424
-176
-58
760
194
313
434
-520
-168
-340
-595
-266
-328
-151
223
391
-81
202
226
-1843
434
-158
-180
88
-20
1148
-275
375
77
-610
-15
580
-600
113
-419
-370
-176
-73
-94
14
55
-112
-609
-375
161
-199
-390
58
138
-670
-165
-15
456
-114
-171
-828
-204
487
-541
51
625
-305
217
-193
1684
208
-698
396
-265
-669
-303
1332
-559
-371
-158
-214
-63
390
-1249
198
312
-864
547
-225
-377
259
20
-417
-295
-780
596
-195
-441
49
-372
-266
-560
-191
426
489
-32
-174
-118
-83
-1010
22
3
137
118
-107
243
-520
168
-178
-364
-2
-4
-311
-354
11
447
-147
-423
-1154
-259
627
-209
-137
-466
-257
-23
-755
-113
744
134
-292
34
472
-270
-457
528
-65
294
368
-195
-413
-552
-4227
-16
-613
-422
523
312
-550
364
-198
-281
-223
-348
-109
682
258
-1145
-324
-490
-55
753
-105
-355
277
328
217
701
-212
-428
-578
-108
20
-556
54
426
280
208
-164
-710
-51
-941
-369
-1076
-253
-418
941
-288
-69
-269
-407
528
99
27
-80
-866
452
76
239
66
-420
24
-675
-438
-1126
-216
-119
-823
-1080
-91
479
-667
-879
46
-259
-6059
-453
-704
1015
-203
-378
316
-219
-721
-567
-33
13
-716
-416
-249
-763
-623
731
-309
-138
-514
413
-396
-560
-236
118
-781
341
-250
-213
28
-71
-358
-199
210
110
-494
-43
-111
-81
-322
89
-580
-41
70
-415
-802
-574
357
-558
-618
-311
379
-327
136
195
-748
-149
-232
222
61
46
-689
-424
-1437
-785
384
155
-393
248
-451
546
-454
746
478
-181
224
-1426
-1122
-74
-728
71
500
862
-355
569
-1329
-8
-213
62
-265
-394
430
-488
-696
-252
157
-666
-322
-197
-255
-481
393
-653
-463
-202
534
-94
-184
-679
-446
10
79
-187
-435
-712
-119
79
462
169
465
-364
-595
-194
-17
-624
177
-881
-310
-430
-281
-141
-379
-144
707
-93
-454
-792
62
-211
255
135
-362
-77
-430
-439
-245
68
150
50
-130
-611
-35
184
-604
-79
-553
49
-1380
127
-189
177
-273
-629
-436
-404
-18
530
365
-403
-383
420
-115
27
-218
-301
524
-47
-349
-530
-344
601
-439
-536
43
-78
237
-219
105
-521
-16
635
-94
-461
228
130
-1226
81
-1087
-296
229
255
112
-621
-571
820
-318
-546
-276
-274
-451
121
-277
-171
205
-551
-127
88
251
-2
-211
-501
443
214
579
-91
82
-824
33
219
-466
-224
86
-148
-564
-760
-192
-409
-734
778
-62
177
-117
22
280
629
-263
70
74
506
-18
500
1038
-155
44
432
154
418
-67
-480
821
-644
-991
-175
-1291
32
932
306
784
432
293
598
338
-283
-415
340
422
-35
-419
82
-365
382
-318
-40
55
-143
837
566
721
525
-237
-665
-285
769
-383
319
109
-134
-254
119
-346
295
-282
-139
-173
128
618
-667
-127
-365
-384
-214
0
171
-101
-819
-281
-244
252
703
-34
-427
-36
705
162
1109
306
-90
119
-367
287
219
166
-381
-41
-859
105
193
-176
-2755
-50
-378
234
403
-631
-335
-552
-364
-283
202
53
-350
288
966
-258
-440
870
-465
204
-143
-115
-952
-579
167
320
75
-862
279
324
-346
-348
-325
620
-675
-189
-1211
283
-367
-636
258
-566
228
-661
-685
-209
-290
-279
