124
28
-110
-131
-22
216
-161
-132
-148
94
-41
-208
236
-242
-60
238
16
157
13
-151
-441
-9
-193
-54
157
-118
-83
81
184
102
101
-154
-71
-73
35
148
216
-128
162
-36
-102
75
104
-240
38
-9
-27
-25
-104
-98
253
-20
-139
185
266
-64
-163
-31
-109
-252
-69
-82
127
243
-273
-123
-25
-47
-197
64
141
-38
399
28
-162
97
202
-442
-69
-415
14
79
-205
-83
-120
-121
152
-339
-74
-106
70
3
-242
283
77
-9
145
74
156
131
-129
-191
-43
114
-159
-5
-36
-24
-60
2
-226
-54
150
172
93
-117
18
-6
133
-97
-185
484
102
-115
98
152
55
-147
242
279
72
-254
-288
-89
-11
59
39
-107
71
-215
-11
-40
-121
153
-102
260
-39
173
122
-264
-120
50
464
-58
-29
137
-48
-224
-52
-273
-22
-56
260
18
-98
-152
-103
-33
667
50
34
-134
-154
-122
-107
-125
17
-12
144
-107
-107
29
11
8
-168
132
-72
-160
-89
-113
-3
162
-179
-183
-98
-89
-6
-125
-167
123
88
-169
-121
-92
75
-101
-102
12
-143
-12
-27
197
-146
-270
-50
193
11
133
-377
257
8
-42
-32
63
-61
-399
-190
52
-71
-34
-188
-137
-193
-25
61
33
-86
140
13
220
-232
-42
236
133
-225
264
-33
9
316
531
86
-151
-27
26
-193
-109
128
-37
122
72
85
183
-48
38
-303
111
-60
-1
8
21
-170
85
72
-52
123
-280
68
126
180
115
-40
-70
-83
250
114
-44
40
-69
-22
83
-29
-29
179
68
101
-248
-454
5
-21
-191
16
90
99
65
-372
2
199
23
2154
-111
107
-279
-135
-204
54
98
-97
-29
42
-590
116
-9
-106
238
-101
-144
-225
52
-100
-29
102
-123
3
-140
97
-178
56
143
-74
-45
201
-134
-367
0
7
-314
-70
-59
-28
-76
23
-222
145
-270
104
-162
133
-21
-159
-152
-133
-114
32
-159
-73
37
-153
-145
-83
209
112
-1
1
-171
-53
77
-113
193
394
107
15
242
-130
143
-41
200
-131
20
74
-39
47
-53
61
-15
-28
-93
-161
196
-82
-39
43
-137
-2
135
123
121
-51
99
2
114
154
-124
36
-48
163
-252
84
-33
44
-386
172
286
-47
-139
271
-45
-197
125
-100
-271
152
97
-30
21
6
-102
-37
261
84
-53
286
-174
73
-3
140
-114
-90
-197
191
284
29
82
-303
43
63
25
103
-87
27
219
66
376
-98
-64
8
-340
96
-74
-21
163
-63
-27
92
51
284
98
190
-194
43
140
-224
-57
173
68
35
64
-39
-101
254
-90
70
-59
-368
-149
30
105
-103
80
-55
10
124
-17
-93
-208
297
-75
-173
42
134
-75
-38
176
76
77
64
-228
237
210
184
-10
58
-118
4
106
-147
52
-163
70
-25
332
138
349
80
-233
-68
11
-110
52
199
75
112
191
112
-29
0
400
64
77
103
-123
-87
201
-63
19
92
54
-247
203
-11
76
41
39
345
114
-17
-72
-4
76
-242
70
104
39
-166
220
-13
-4
97
211
-74
106
196
-2
-168
-145
127
23
-187
75
227
164
-94
96
-107
150
-64
154
68
6
49
-147
-148
4
186
95
128
-216
-14
144
-41
201
-11
181
55
-188
-5
100
-82
-18
127
-131
-201
117
51
65
-228
-35
-142
-223
-127
-15
-323
-170
19
-208
58
-26
32
21
-219
106
-11
-144
-3
-89
7
14
33
-24
59
-24
71
-133
-141
-23
186
-91
181
23
88
258
-158
-128
-145
2
-41
249
-37
91
-81
37
-148
-37
160
48
54
110
-102
-80
-95
325
-3
-98
-107
97
56
354
-155
-74
-60
153
-201
0
94
3
295
-318
217
-56
30
-542
-68
16
67
-110
-125
-66
67
34
106
0
407
-184
21
-47
27
51
-173
-23
47
-93
-201
81
-78
-58
84
-32
4
145
303
52
-151
-92
-79
13
-127
-110
-120
-80
63
51
203
-104
-104
227
54
-367
-105
38
32
45
-6
133
-220
176
-19
-195
481
2
17
-196
-96
80
-51
18
104
-151
87
-84
