55
-219
-251
18
101
-302
-120
17
-57
-118
169
1
120
-113
87
-426
-295
-312
107
-115
-327
95
-253
-220
46
-158
137
-115
160
-224
7
-53
-346
220
4
106
10
228
-131
-19
101
73
82
-127
173
-7
-26
-171
254
-44
212
-65
-391
12
184
-63
-166
166
31
294
-82
39
88
-339
-125
-43
71
-58
-37
194
99
-246
-60
193
-324
467
259
-344
-280
-217
-261
98
1
-206
-237
-24
16
49
30
144
-7
121
-630
-142
188
27
56
14
-135
60
94
-40
-352
256
-7
33
32
-91
345
-40
11
226
21
21
93
-98
-14
204
-136
-282
-110
267
65
-426
-195
94
-12
-60
137
368
25
-50
-303
-319
67
58
-446
-113
-89
-409
84
-18
-97
20
-249
207
-50
211
-38
-195
389
90
53
29
94
-130
-139
-153
-69
-352
-131
5
82
207
-7
75
-246
26
315
7
-133
116
141
-14
-60
-141
-116
109
247
174
-19
-96
114
-3
-31
221
-172
119
-422
38
114
485
-247
166
-152
-489
-168
-417
-195
229
295
-277
-57
396
101
238
176
-189
-28
-136
-202
210
40
-256
-68
-25
421
236
-250
275
124
-160
-159
-315
-54
-373
-107
283
-262
98
272
-65
-222
258
9
-104
-195
240
-368
160
-117
-334
471
81
267
-62
-233
232
199
-113
48
-775
-241
-119
-452
311
137
120
-353
135
158
160
10
83
-19
422
-104
140
-111
86
11
-37
-108
-198
-26
-235
-174
8
-313
168
98
-154
-77
356
77
-143
-79
264
141
137
-319
-442
10
41
-167
-86
-111
-113
-219
-115
-67
4
-40
44
-797
302
-40
-59
4986
127
164
93
-17
36
-203
-250
-145
-106
100
-118
-28
-204
-257
450
33
82
-227
173
-40
199
-153
-123
9
-194
338
45
-180
96
78
199
-255
-86
-436
18
83
176
37
157
-90
-22
151
243
22
195
-69
52
-104
-337
211
-117
279
-135
-90
-161
-163
-108
-205
-310
-147
1
118
245
-21
93
-141
-131
76
48
291
0
-150
936
34
123
60
-90
233
68
-151
181
118
-43
-211
57
-214
83
185
89
-159
-69
303
10
-438
-37
270
53
-112
-43
-19
70
72
74
95
83
107
-117
-60
272
40
-213
-47
286
-168
253
88
-207
-113
57
334
-51
256
123
292
-230
-81
-106
-225
178
31
-222
109
26
-34
393
-121
-1
12
-70
256
-144
-226
182
-109
148
-32
-105
180
-38
215
33
-82
431
9
50
143
-306
-105
279
25
117
103
-161
57
-116
-36
219
-115
-22
123
224
162
-15
121
53
45
-12
-223
-200
102
-178
277
5
-12
94
83
-114
-51
95
-329
-69
7
-336
-16
216
72
-139
82
38
194
-104
91
-36
358
178
234
-500
88
20
40
377
13
-64
-31
175
46
204
188
108
-95
-268
2
100
-99
-280
-27
301
-297
189
-206
182
-118
-48
-4
143
28
221
-23
11
-173
11
144
170
170
0
265
138
-124
-166
-76
105
64
106
-2
112
-119
-34
-12
205
-126
84
-84
219
-298
-39
109
-325
-39
384
125
44
232
-312
-117
254
234
124
-304
94
-56
7
119
149
-22
132
-75
56
-190
63
117
-62
-198
36
57
-171
-22
-147
66
70
-110
-30
57
213
141
91
223
186
91
10
129
217
-299
238
68
2
167
41
-258
-339
-346
155
-142
-177
-135
-431
24
-47
-177
47
-482
124
-139
-137
-49
98
273
196
52
136
198
-269
-117
-19
-206
97
-125
191
-454
-136
-104
132
-84
163
-442
188
-44
-33
-49
103
-414
-209
-418
-53
263
-39
-119
267
-238
-472
120
22
-41
72
-173
136
56
42
-271
-104
62
105
-166
-118
265
141
89
-179
220
-76
207
58
104
-117
282
-101
-168
-208
-148
-54
-4
42
170
178
-1
120
57
-240
-29
11
-61
151
33
-168
-180
131
-236
60
410
-41
87
95
-12
-80
-21
-140
-93
284
115
-238
65
129
149
-154
245
98
-180
-287
-6
-53
41
-318
-7
109
250
-94
224
203
-84
-170
127
216
37
85
-437
172
400
-133
71
-25
