107
6
-18
88
-68
-242
-30
-86
194
190
306
-105
120
-124
38
-48
40
-159
-32
-34
149
82
-140
3
37
-141
-210
-152
53
-107
-293
17
-214
5
273
243
174
-136
132
161
19
-90
178
-134
0
25
136
54
40
389
104
-148
-43
-240
29
-5
167
-387
-210
-119
-199
-36
-299
-90
13
-82
-222
83
-184
-147
66
65
-8
24
54
348
-353
94
-102
-181
-254
50
124
2
227
37
186
-162
-121
-175
139
-87
-107
-264
-4
307
-132
13
-206
136
57
38
-67
119
171
57
-54
148
49
338
306
-151
109
-176
231
-216
-147
91
19
-14
-168
-368
83
-147
-60
-14
-263
-70
-15
214
-106
-255
-105
108
-46
74
-175
131
-201
207
76
180
159
-6
112
184
189
136
290
-176
93
-163
118
82
-81
-237
-291
-6
57
2
-247
186
52
183
-65
-139
-244
24
-6
-44
67
84
13
-60
70
42
-102
-167
-162
-175
346
-136
102
-79
34
-117
-162
93
85
-34
35
114
-275
154
89
-62
153
-124
-91
-344
265
146
-319
137
120
-323
21
-41
-168
-126
50
119
-197
-40
-92
70
136
-119
1
49
-464
121
-11
-136
24
-233
76
-66
-292
197
63
48
192
65
-125
103
-199
31
-28
-206
-481
-40
295
-346
214
52
-166
-58
218
-128
15
103
158
-83
27
64
92
87
-75
-208
170
90
67
-45
-12
5
16
199
-226
-84
39
-100
-4
251
-111
-155
54
86
136
-130
-156
-225
-64
179
125
173
-298
315
64
-283
59
-61
-25
-141
-48
27
148
44
214
-9
7
-79
181
-9
-47
-58
25
119
510
-89
99
-70
72
-69
-57
298
158
-94
89
-106
-11
-137
-2
76
61
92
-267
-253
-11
-41
259
-114
285
-190
42
-24
52
12
3
-43
-109
255
147
95
-33
-148
-29
-25
152
77
-9
-36
-231
-58
155
180
-27
-23
135
-85
-320
135
-190
176
5
-127
243
-51
-74
22
-40
-73
-13
29
119
140
-113
24
20
-18
-96
64
158
100
-80
39
-82
50
218
18
-97
-145
-124
81
97
-27
30
-118
139
105
-186
242
-130
-95
92
313
78
-107
-188
288
150
250
118
88
-160
-406
-188
-88
-220
-197
186
143
-259
193
34
11
162
60
86
-125
157
-154
77
-66
140
94
10
-169
-92
188
-163
77
92
150
46
188
109
348
133
58
-253
-155
-259
-30
63
-42
122
-106
-40
102
-31
45
20
-89
-271
32
-43
-174
-21
415
108
77
-86
-190
255
17
-279
-265
-29
19
-3
48
-148
33
255
64
-230
-46
-127
60
-12
-9
-177
181
87
-22
108
-93
-153
117
173
98
180
143
392
30
212
-14
100
-120
563
-53
-153
385
-178
-143
224
-197
287
72
89
-54
100
89
-50
52
-98
219
-181
105
126
20
-295
-235
114
335
-42
-24
-182
237
-177
-189
90
420
124
-19
-2
23
-127
-183
-78
92
236
-183
-178
150
-64
-315
6
340
153
-21
-309
75
-33
-77
-132
-64
-326
199
236
-224
-100
-103
107
159
-52
79
-96
60
267
-53
-54
-160
-61
-43
-181
33
-115
-191
-64
-124
140
337
-104
-91
101
-115
-161
70
-25
-87
-145
105
-133
-127
308
-65
123
-238
-178
42
-61
217
88
170
76
294
28
146
-136
-47
82
-60
-103
205
126
143
38
109
-81
2
105
-184
-225
-60
-62
-67
-353
-236
-104
24
324
338
-172
368
11
-268
-61
1
-32
-174
-14
-83
-93
-127
-72
81
-201
75
-3
39
-134
155
-151
63
91
46
-46
38
-229
-251
22
-102
-132
107
-56
-170
-127
-261
-58
129
-51
43
-166
32
-189
-150
39
0
222
-77
55
67
-21
-122
139
123
-121
34
-235
-70
256
91
-51
-101
-49
-8
-247
-206
-20
-12
229
-77
114
114
227
-73
-178
165
-30
-26
-151
-52
-160
210
207
316
-12
-20
10
-139
-3
41
-91
200
78
-270
178
130
35
9
111
192
-239
47
68
52
217
170
70
-133
355
-1
116
124
168
-174
176
51
-282
53
-129
73
153
10
-228
-220
