-26
25
6
27
45
1
-6
39
-13
-6
-14
33
-1
23
-25
-10
-5
0
-6
-17
-6
-34
-22
-28
-9
33
-3
8
-65
22
36
30
-16
11
7
13
-21
-2
-23
8
20
9
17
-5
-10
-20
19
58
-3
-41
9
-27
2
-46
13
31
13
-55
10
18
23
86
-31
-3
7
37
-34
-4
-22
-6
-46
2
-14
11
-14
15
-14
4
-17
1
24
4
-2
14
7
-66
-3
-9
-32
30
11
-23
38
-40
44
-15
106
-7
-14
-26
2
-2
-16
27
26
25
11
-22
-25
-31
-26
5
-50
-6
-18
14
-38
-6
-25
16
-22
24
-11
-18
51
-88
4
19
-35
-15
9
2
-28
-17
42
14
11
32
-8
7
-6
28
21
1
-40
-29
62
9
-18
9
6
49
-59
9
-38
-65
41
22
3
-51
-10
-14
9
-10
6
67
12
-24
-15
-24
11
21
-44
-1
21
-16
-44
-5
2
-59
22
4
-4
-18
17
-19
-39
40
-5
-3
11
8
-25
3
51
49
4
50
-20
-26
-22
-23
48
-14
3
-7
9
-10
6
60
23
-10
11
26
25
24
-64
-2
41
-17
12
37
-21
-5
14
-31
-18
-2
8
8
-7
21
12
17
-23
23
-14
-2
-10
2
25
-17
-16
21
3
7
-25
-36
10
-19
-18
2
25
9
24
-6
-38
22
-7
-22
-2
-47
21
28
-3
4
-18
15
19
0
1
-12
-50
39
14
-51
-65
-4
43
-24
32
-19
-47
-56
-6
13
22
31
-7
5
-9
-17
-16
-34
-21
-46
25
11
27
5
11
13
-12
32
-13
-14
-34
4
-174
0
-20
-14
15
36
-10
-20
13
-51
-32
12
-51
10
15
-50
-8
-6
22
-12
15
1
13
-63
13
19
29
3
-26
-46
7
-7
6
-31
-29
33
0
3
17
11
1
28
-4
-15
4
-79
0
8
37
13
51
-7
16
1
-3
-6
-4
32
-24
-17
21
-45
-25
56
-26
27
2
4
-3
-54
-35
22
36
-46
-24
-11
-3
12
-29
14
-30
-39
25
-12
17
-74
8
0
-16
-57
8
16
-37
-1
9
-7
51
5
9
-27
-17
-4
-8
43
-7
15
-42
8
-59
11
32
38
2
-1
26
25
-21
48
6
9
-18
-15
10
-32
19
37
-45
8
-33
-30
0
-25
-34
14
43
-42
-18
-17
37
5
-20
-45
-1
-12
24
8
7
32
2
-2
-48
-34
14
-54
-20
-21
35
23
-23
-76
-37
49
-16
9
9
-17
22
-27
-47
11
-46
-17
48
-22
-32
-46
-21
-8
25
-1
-32
6
-23
20
-25
23
7
6
40
38
42
-2
32
2
9
24
21
22
-4
3
-30
28
-24
-17
33
-6
-33
50
-43
-72
19
35
3
22
10
11
-15
14
-21
-7
40
13
36
9
-29
-26
29
-27
-25
9
-37
-16
-19
-2
-8
20
0
28
-2
28
-2
13
36
-9
-19
-2
5
3
-10
2
-8
15
-8
31
-5
-15
9
30
-6
-5
18
5
19
2
11
-23
-14
-12
11
-43
-15
27
-113
37
34
-51
-34
-8
12
11
-31
0
-1
-20
-9
61
-22
-42
34
45
-15
1
29
30
-7
-6
4
-10
15
14
7
23
0
0
-4
-25
-100
-13
-33
4
3
-36
25
40
-18
38
-21
22
6
-9
-42
3
23
-19
2
70
-15
-13
6
13
18
8
8
9
-7
-36
-24
-1
22
20
-6
4
12
16
6
22
-27
37
-13
-17
3
-68
26
-13
-5
-6
-5
-6
14
35
7
9
-17
23
-12
-3
27
-53
2
20
16
-17
-7
-29
30
24
2
20
6
12
2
-14
21
-18
-7
11
2
43
-28
-10
-3
-24
14
-24
61
42
-5
28
30
-17
9
39
0
25
-13
61
-11
40
-8
10
10
15
-6
-31
-5
2
11
6
-4
-18
42
21
38
-3
25
14
36
-53
5
32
31
14
-5
-7
4
69
-18
-5
-23
-39
61
-22
22
1
-20
23
-49
53
-33
-28
41
-14
-5
24
-18
-8
-38
-30
-25
5
