-278
-57
405
-952
1144
-374
361
562
-116
-423
-418
281
-268
368
-201
367
-115
30
-338
337
838
-565
357
1670
-166
784
522
-564
-883
2
-17
142
611
-629
256
-136
-997
516
652
-1104
-511
-348
326
425
-205
-797
-78
-401
-124
-56
-656
-452
796
-1300
242
280
213
-756
-130
-5
-346
485
-446
-443
-85
416
-390
-108
-86
-707
-791
253
-450
-553
325
-171
-448
421
60
199
-257
59
441
629
-204
-934
-4
-175
-190
173
-348
-939
2573
-276
398
-411
985
-449
-239
-330
73
310
-106
-212
204
26
-351
-494
-338
-111
-689
-40
-1224
-469
-100
81
130
-60
-715
375
-395
-611
-259
284
530
-1043
-283
907
-535
-123
-429
607
-637
-418
-336
-296
14
335
-570
-773
-444
-134
59
223
-34
-2047
-293
123
-356
976
422
706
-394
334
-38
245
412
779
210
-881
45
-620
-368
212
-72
248
671
-106
-1912
-680
-673
-247
-411
874
-101
943
19
595
686
-241
-39
-76
-523
494
355
-321
536
716
232
393
-28
-1242
890
-142
421
339
-93
810
127
-463
-898
174
568
326
-630
512
252
-571
222
388
-254
-391
28
770
295
-297
-826
-344
661
-484
-275
823
-185
245
-452
930
236
-862
111
-219
-11
-123
306
-37
-3
697
-59
-789
61
-831
44
450
-728
97
-19
-271
-461
254
-775
-920
-126
1757
170
-265
35
-266
-1588
-19
137
-334
-29
-562
73
30
-380
-466
-211
108
298
-200
38
-76
-480
429
-146
367
-560
-637
-692
-510
398
54
-446
-989
-982
416
524
786
118
-65
269
-586
-405
-168
404
-278
-31
1169
260
-99
-153
318
-615
370
1319
-160
-357
-262
-4555
29
-267
-384
459
128
-370
93
174
-83
-677
4
-1003
233
580
-1190
-535
425
-287
-753
-159
-402
-192
-238
318
271
-285
209
-277
-676
-157
-301
-163
-124
574
-184
122
-77
238
-420
-707
-967
-720
75
201
20
-72
-188
481
344
-59
259
95
272
-30
81
74
-346
-279
556
-470
-577
-331
-287
154
-180
-748
-28
92
-601
-799
290
-93
-5716
236
-867
316
-524
-1284
298
-348
-134
421
247
552
-450
145
-166
-707
-887
283
-431
-393
-718
634
-541
-264
-503
218
-452
580
-631
-461
-261
-22
-7
-645
208
-214
-111
343
158
-613
-723
176
-33
-882
747
167
-879
-961
483
309
-1027
-930
993
-813
432
-853
-178
-679
-206
215
190
643
-501
73
-153
-864
186
-326
-985
-68
-281
481
-633
380
141
-513
527
-400
-462
149
-996
-399
509
390
-478
-264
-434
152
-49
149
-491
-323
-204
-125
-310
-572
309
-816
-443
424
684
-682
0
-211
-5
388
361
-896
-132
-248
-1
190
-80
-67
-306
190
111
-325
43
470
477
-195
-100
-123
166
-453
-221
-597
167
-590
-235
-134
-457
-416
1059
-270
-85
-979
342
-480
1227
413
-509
122
-109
92
-291
331
492
-40
-679
-269
-321
290
-443
-220
9
200
-1228
-50
47
-565
-6
-549
-1833
-911
-294
984
760
-138
-389
29
241
-130
-247
41
382
295
-233
-285
-715
-250
-229
-592
207
413
-510
-108
-373
45
139
166
-317
-671
-146
-767
-363
599
-326
-716
320
531
-752
-800
-253
1540
-327
-629
331
92
-129
392
346
258
-67
453
196
349
85
201
114
-443
223
549
709
465
297
375
-4
41
-738
-427
288
-1179
-142
-348
-14
-407
-530
432
75
476
399
-163
433
921
-688
226
34
774
369
117
961
-64
-41
15
9
694
398
-236
630
368
-318
-205
-681
71
-68
-198
5
-269
648
528
419
-751
-54
60
-8
-250
-433
366
-110
229
-546
234
-502
549
572
365
399
147
176
-641
-75
275
-568
1213
803
571
-300
-62
-275
797
-17
-668
-149
539
-3
-591
-101
-260
121
358
25
-108
113
-750
-6
4
-510
227
-187
-226
53
393
-13
982
353
131
465
244
71
157
463
-25
739
-139
256
-167
-105
-319
-459
-310
-190
383
-145
-259
-271
-380
86
228
607
407
507
1031
61
17
517
-45
300
89
-164
-74
-56
-152
30
-356
-86
584
7
252
-515
-135
589
-851
-394
-461
309
-357
178
191
417
-50
-559
-838
145
-39
172
