349
584
-339
-766
866
-999
1121
670
131
450
-89
984
-742
1236
-22
-56
-465
-1189
-225
2117
855
-1495
821
423
-713
918
483
-735
-811
403
-161
164
849
-814
490
-308
-573
280
517
-1303
100
-740
-69
471
-433
-808
-251
-296
389
-62
-1694
345
1734
-1796
448
-1311
-304
-1321
177
-1039
-386
-59
-2025
-1742
-296
251
-235
-197
90
-377
-259
153
-1499
-1241
919
530
129
945
170
102
45
205
217
330
248
53
-762
563
138
366
-125
-363
2234
-578
367
-196
1096
-798
90
-129
-143
623
-167
-308
533
167
-1192
148
459
2
58
74
-1963
-1049
-209
-84
383
509
101
422
-921
-5228
-631
435
299
-332
-471
315
514
11
-82
734
-335
189
-221
-690
-930
-729
-1048
-1701
-210
-19
64
76
25
-3973
-291
-460
313
361
454
331
-525
340
192
296
1127
1070
737
189
-43
16
-217
269
61
275
-1
-1227
-3988
36
-306
400
170
1461
671
1936
-150
217
150
61
-215
-220
306
971
496
370
1212
975
446
-336
-815
-1089
1503
-309
-341
237
-306
321
-120
-94
-494
894
301
1142
102
291
773
-226
19
-114
417
-488
791
296
-217
-495
-1661
-208
673
105
-274
1087
782
-794
444
65
-85
-40
-160
-49
726
-165
914
-185
240
576
174
108
-194
-224
-707
199
162
298
358
-675
-843
-83
-111
-1473
521
1118
-260
-353
-256
-611
-696
-823
-6
23
692
-343
879
373
1224
516
-152
264
442
58
410
36
-158
-412
-826
-149
-149
-820
-510
-242
261
432
-40
-490
-575
-334
451
906
1013
162
213
53
-603
-68
545
-43
-1323
1824
-283
-495
301
-804
-245
504
1094
868
-576
-644
-10075
-523
58
989
-315
-465
75
-156
315
209
-253
1116
-224
-262
13
-300
83
577
122
-68
-267
148
-922
-1632
-368
751
-217
-177
-32
-120
422
1171
-478
758
-296
263
-1060
1336
200
-894
-273
-1592
-341
1117
-266
-320
-238
-828
-520
-326
-614
-56
620
-395
-408
212
-299
-361
-318
-66
10
227
-968
194
435
365
-1099
-77
-42
-361
-167
-55
-235
-1633
647
-1299
111
-159
-1104
537
65
-593
-557
-247
843
-112
331
232
-444
-546
74
107
58
69
-315
-714
385
-847
494
-113
85
-222
-964
-397
365
556
-209
-484
241
520
230
133
-409
-991
664
-262
-438
112
43
-83
-344
7
564
39
-294
-246
260
837
-896
-325
-502
-988
495
-84
-370
-1800
210
309
-986
71
191
-662
-562
355
1018
-932
505
79
-5
285
-395
-560
546
-269
63
1063
656
-1079
-1254
444
95
351
216
-275
-289
-89
16
242
-796
-153
-652
-486
-393
481
14
-219
53
427
77
1185
-1081
-196
79
-545
607
-346
-1124
-953
-2892
-50
-310
119
-265
281
129
241
617
-612
391
-327
-985
347
195
-463
934
303
-987
817
-859
-433
-1111
-131
-10
435
288
-387
-1034
-457
165
58
43
-316
-311
3
485
-655
-106
-773
-684
478
386
-1315
661
-3290
-700
804
108
-2765
-912
-1015
981
618
-178
-614
160
528
415
-162
-166
1016
536
-552
-441
-1239
-740
-290
-135
-144
-2
-303
-174
-243
945
315
-107
-378
-148
-102
-78
-1070
97
-32
-513
-705
932
-266
109
73
1691
205
-188
-270
326
-140
114
-262
367
-171
368
-188
519
-99
567
607
-623
200
-6
1199
138
1292
95
-243
-134
244
-200
-206
-531
65
248
-296
453
719
543
-463
-106
30
-305
360
1183
-882
-158
294
184
274
-838
665
362
-309
179
437
-249
1411
-896
181
537
-481
-232
233
848
-440
-157
629
112
180
-212
375
-3351
-295
-879
-423
-51
357
481
-585
384
-262
-8
-447
-174
-704
60
78
-1006
570
-45
-567
74
-422
1913
810
596
-437
-10
-157
1182
-333
-43
-504
438
-769
-546
245
569
499
238
448
-434
1248
-753
-395
-239
-747
477
-436
-1236
685
-340
31
812
91
534
87
-113
1000
-457
289
-855
754
-413
213
86
-302
-689
-528
123
76
723
49
-205
-212
-720
397
-421
809
171
470
934
53
412
-31
-865
50
146
-95
724
-137
379
592
-372
-290
219
-144
430
-1092
-797
1234
-452
253
-1849
482
221
75
49
615
-126
-815
-276
103
41
34
