-27
-35
-6
38
14
18
-56
21
24
19
-41
82
-10
-13
16
-6
44
5
-18
34
-79
19
-39
34
4
8
-6
43
15
-4
-32
-22
17
34
-3
14
41
-6
34
-2
-18
13
-45
-21
12
-9
4
39
-33
-17
23
-23
1
-17
22
14
15
-7
16
24
-19
-9
22
-8
-17
35
34
-86
48
-21
53
54
50
69
31
-9
1
64
48
-53
100
-35
-13
33
44
6
-5
-120
-6
-13
105
-21
130
-43
77
15
-8
-24
93
71
17
84
81
82
31
1
-3
3
-40
-22
-109
11
57
48
44
-18
16
91
-29
-59
52
79
108
-58
-34
-8
-61
2
-20
61
89
95
5
-26
-86
-48
119
-184
94
-100
-7
-15
143
194
24
93
19
-59
-50
35
38
-197
-229
62
-60
11
9
28
95
23
88
-74
-46
48
-4
-135
-26
13
-45
24
26
18
139
125
-32
-135
71
-67
-57
-214
-1
-137
-97
77
-2
-27
-85
51
94
-2
-52
-128
246
-352
163
176
160
60
37
258
-86
-25
228
-4
71
89
-152
-23
248
-129
-9
97
219
262
-211
1
117
-342
284
-110
-40
43
-194
213
142
65
-99
-154
33
13
155
33
119
-233
-31
56
242
297
-256
-136
-68
116
-120
-108
246
-183
114
-183
-75
-138
32
-163
-367
44
-210
-182
70
-1
-2
75
-55
23
37
-38
33
-55
-177
216
-44
3
46
4
-5
-46
46
-23
-95
63
-45
-55
-35
70
21
-15
-41
46
26
-12
-56
-10
-27
-31
-15
47
77
-23
-42
-34
0
-26
49
178
-284
10
-4
-99
2
-22
11
-16
-62
-9
5
20
-31
-7
-31
-9
-11
10
53
-55
2
-73
25
-39
-49
-15
8
-31
53
-90
-53
-34
24
4
-11
-36
-26
27
6
-18
-45
4
9
-64
-83
16
30
-10
-22
1
29
24
28
53
16
-19
32
10
82
53
-31
59
2
-66
-41
25
26
-11
-24
43
20
-29
-91
2
20
-65
-18
7
-8
63
10
-37
-1
-5
24
-7
10
17
19
-44
3
-36
11
-46
38
-25
54
1
-24
-4
-12
8
32
3
9
32
-27
8
105
-22
8
-23
8
-3
-7
19
-9
-27
-19
159
25
-9
-13
-17
-41
-106
17
4
-26
-4
-13
-2
14
-6
8
0
-153
5
15
-19
2
17
25
-17
-26
-26
44
8
34
-25
-5
39
-25
1
4
56
31
32
33
-18
35
-26
-8
-28
189
14
-5
-10
-6
-12
31
0
-2
-7
-26
-13
8
-32
-109
-8
24
-15
9
1
-19
5
26
-79
0
-1
80
76
75
-41
25
25
12
41
-4
29
-30
-34
21
-2
5
7
-1
-6
-38
-33
-28
55
102
53
90
-31
4
50
53
5
68
-93
7
9
-46
28
-31
5
-48
42
60
115
139
-61
-26
29
17
-127
-72
43
-68
-10
-65
64
-70
-83
11
-64
0
60
-49
-20
5
1
-42
-29
8
-59
-30
-51
47
11
-14
36
-104
-12
54
-15
21
5
88
33
117
-9
-11
18
1
37
26
20
4
-29
57
39
-6
7
132
9
39
5
58
-21
58
34
26
7
-27
19
72
-22
68
7
-25
1
73
-37
-11
-1
-46
-80
-7
-1
63
9
13
-4
-21
-21
-56
-40
108
-67
49
-18
23
41
184
20
-7
28
43
7
-44
-89
-15
18
11
-98
-16
324
-128
67
195
-164
-10
83
148
-26
42
-240
170
-219
-91
-11
-31
-105
200
18
-330
-27
-36
252
117
84
-133
198
66
-349
-109
136
0
-114
113
42
-159
214
508
82
-115
222
177
-106
187
-47
-80
139
99
-95
-229
-204
-111
268
-43
50
-55
-232
2
47
177
-111
-142
130
29
3
19
-41
-25
12
24
-17
-37
14
15
28
0
49
18
27
-21
28
12
-39
-7
-9
-33
26
19
-41
56
-37
3
32
45
2
-4
-26
-2
-8
-15
-13
-9
-19
-74
39
3
18
-9
54
42
-44
9
20
27
45
6
2
24
9
-24
55
9
-8
-1
-43
-15
-5
