-17
29
19
9
46
16
33
71
-9
4
31
34
-36
14
-7
15
63
24
-23
5
-12
-6
20
-2
14
52
-39
17
-71
50
20
-30
21
-31
2
19
-27
-9
-36
-38
-15
-21
-13
16
-15
4
18
72
-13
-32
10
-22
38
-67
10
71
35
-88
-5
-34
23
68
-60
34
10
22
-11
-8
-32
-12
-25
6
3
-2
12
-1
17
-30
-14
20
41
6
19
35
27
-54
38
13
-46
42
-51
-52
78
-56
40
-59
105
3
4
-18
5
-29
54
-36
24
26
32
-31
-51
-43
-49
13
-58
11
-12
39
11
-3
-35
5
-16
9
5
16
62
-65
-8
26
-20
-3
13
-6
-45
12
-2
-4
19
39
25
-47
-14
50
15
2
-4
22
7
3
-66
35
-11
25
-46
-13
-48
-22
33
22
-20
-11
-3
-10
-1
-34
-49
42
45
-5
-55
-30
22
12
-24
-19
6
72
4
-3
-22
-39
-22
23
-42
12
2
-48
-11
0
-7
-24
-16
-8
25
-36
42
-8
36
76
6
26
-55
-49
30
-51
-20
-8
17
-1
21
5
-3
0
29
55
-21
24
-29
-9
124
-23
47
58
0
-21
-16
58
-49
11
49
16
-53
31
33
-5
-26
4
-21
28
-20
-42
45
-44
-26
57
51
39
-8
-31
-31
11
-60
1
13
30
35
-38
24
-23
-2
-16
19
-18
-12
33
-9
-72
-24
-23
26
-27
-7
31
-35
39
35
-89
-9
12
46
-44
23
21
-41
27
-8
6
23
12
-27
-1
-34
-18
-42
-40
15
9
77
28
29
1
36
38
18
40
39
-42
-8
15
-264
-24
-31
-32
12
36
-6
40
-16
-25
-13
66
-20
34
-11
-70
8
-61
28
61
-20
-5
36
-34
-38
76
-12
-7
-53
-22
-37
-7
45
30
2
39
-13
-59
32
-29
16
-2
-32
-56
-2
-73
49
-2
-13
-12
10
46
37
-16
58
20
58
19
-64
0
-4
-18
-16
9
-20
-24
-34
-12
-7
-50
-43
28
2
-280
-20
-61
5
-13
-36
24
-14
-39
4
-18
-1
-42
34
-1
-40
-37
-24
-15
-45
-20
-22
3
-48
-20
-14
-20
-15
1
-22
3
13
31
-45
29
-49
-46
22
13
34
-116
4
-4
-34
3
-4
-11
-12
30
-2
-22
10
15
-64
17
-2
-50
9
-13
-12
8
4
4
0
-30
29
4
-24
-20
0
-3
9
2
21
74
33
24
-24
-32
17
-30
-23
-9
66
14
29
-42
-21
27
-5
-17
27
-20
21
-38
-4
9
-40
-65
24
-1
-41
-89
-45
-30
46
40
-37
6
-11
11
-26
43
3
-23
8
-4
26
20
16
2
-45
-13
20
53
32
-8
-46
0
-19
-40
3
-3
34
85
-33
-3
32
38
-14
6
25
24
-31
24
-38
-31
4
73
56
8
-37
-17
15
-53
-8
13
17
-56
31
-25
5
-7
4
24
-22
40
17
34
-22
18
30
5
-29
-13
-46
20
-9
-35
-25
14
-3
-14
-31
32
12
9
6
-15
-15
17
9
31
-38
-2
27
-96
-7
17
-60
43
63
-24
8
-15
83
25
-17
5
23
-48
9
25
14
-45
-13
37
-7
17
38
33
-12
15
32
9
11
-10
-15
23
2
-7
22
-5
-61
13
-21
11
18
-17
47
38
-12
27
-37
34
39
-51
-49
-29
38
21
20
48
-43
-27
-8
15
10
-38
-44
30
-11
-38
1
-2
16
51
7
63
26
-9
18
32
-46
-31
29
-26
5
-23
20
-15
11
-16
-8
-6
27
104
25
7
50
5
-9
16
32
-10
35
-11
-5
6
-17
-20
57
3
28
13
19
49
-8
-36
-10
-34
30
-8
30
11
-53
2
-58
-45
38
-38
53
26
11
35
19
-19
58
19
18
44
59
27
-29
2
11
-4
17
-12
-48
-9
-30
-15
57
-9
16
-51
-7
33
55
23
18
-5
96
-96
3
85
3
27
-1
5
-1
29
-45
25
-10
-32
66
-13
-24
7
-39
47
-75
10
-60
15
73
-67
-38
41
-31
15
-33
16
-3
2
