-325
-276
-133
224
-393
289
-542
-369
-94
-68
-77
-557
252
-509
-17
-81
33
85
2
-913
-639
383
-460
-348
-72
-595
-388
-1
233
-177
-89
-348
-352
141
-273
79
120
-479
-463
174
-208
227
-150
-446
-113
26
-81
62
-281
-43
409
-118
-620
328
-203
-67
-211
358
-375
37
77
-27
183
246
-107
-292
-178
-109
-144
136
219
-254
139
-14
-495
-219
-153
-266
-296
-282
-121
-158
-333
-479
-211
-95
274
-399
-187
-185
-86
-44
-1038
59
-248
-29
-522
122
-45
-17
-360
-352
-235
8
-319
-136
147
9
-228
-215
-85
-239
262
228
-72
-49
-168
-153
-14
-489
16
503
81
-100
-134
130
-15
-306
-226
-102
-293
-335
152
-18
45
190
-83
-218
173
290
-128
-230
-103
-193
-181
622
-119
-3
-80
-525
-136
-387
156
-287
-226
-50
-440
-687
-272
-61
-43
-59
-45
-259
-72
-551
-202
252
715
-60
-151
-329
-57
-675
-330
-443
-135
-171
-124
-332
46
-261
-66
-540
-436
-39
-427
-354
-428
-142
-5
294
-546
-9
-242
-325
-85
-455
6
76
36
-431
-198
-250
58
-368
-304
-130
-247
-56
-106
60
-393
-472
-73
8
171
-19
-532
35
-149
-331
-215
-129
-155
-570
-375
86
-366
-152
-359
-118
-268
-67
-121
-333
-210
-199
-32
159
-91
-174
-3
-226
-168
-16
155
-228
109
416
-218
-452
9
-3
14
181
255
162
-234
-226
-361
61
-493
-294
-440
-228
-90
-193
-290
-208
-148
-124
-183
-135
79
-185
70
294
-37
201
-368
-146
-156
120
355
-145
-272
-547
-386
-167
-191
-103
136
-6
-450
-226
-75
-780
-137
-83
42
-95
116
-362
-674
-523
193
49
329
-58
54
-364
-170
49
-270
-149
-220
-185
13
-234
-48
-150
-348
227
-158
-440
-202
-79
-54
-194
-36
-103
-165
-523
50
-268
-44
43
-114
-130
-59
-396
-279
-36
-69
-389
-42
155
132
199
51
-478
-25
-272
-131
28
-78
-281
112
-162
-205
121
-167
-317
-180
-4
0
-219
33
104
1
-167
-314
-355
136
-187
-148
-42
212
-58
-83
461
-334
373
-150
-120
110
-375
-53
72
-240
-260
-382
-57
-463
-112
38
208
-95
-97
31
32
-91
201
-179
463
-262
-251
-254
23
179
28
-202
-252
-55
-269
-160
-120
-174
-72
-51
150
-398
-141
299
-226
-129
26
219
-368
-142
66
8
-203
-231
-472
279
103
61
181
-129
-123
-116
62
-137
35
54
-266
-50
230
-40
-135
-502
256
-356
-34
-201
-253
28
127
-249
210
-241
-503
-374
115
240
-130
-304
-204
-209
118
-13
-84
-138
-47
-82
-127
151
-35
-266
-528
-79
-124
-61
-162
-222
-316
331
-156
-213
-87
-502
-153
107
-147
8
-296
-61
-282
-90
-174
-198
-12
29
-76
11
-176
5
-180
-83
-48
-160
-233
266
-445
109
-29
165
-310
59
-321
-305
81
192
15
-221
-174
-203
-183
162
-107
-149
-15
-99
-58
-69
-308
-151
188
-272
180
-16
-135
-78
94
31
31
-413
-402
-173
165
-373
-306
-478
154
-307
-148
-417
-140
-13
-7
123
-3
42
-216
-158
42
-152
48
-219
-187
-207
-219
-86
-213
-43
106
-316
-131
127
-67
-404
-126
-37
-273
-790
-193
24
-94
-346
50
-188
-102
-283
-91
-314
-330
-353
-229
-354
-318
133
-249
-396
-222
-228
-339
-209
-14
-115
3
-158
-61
-47
-308
73
-111
-126
-344
-277
-26
-152
-178
-93
-292
-632
75
-90
-154
-402
-414
53
-586
-328
-150
-274
-257
-358
-378
72
-179
-225
-148
22
24
-393
9
72
-426
-97
-163
-244
-358
214
-73
-93
-70
-172
-58
-232
-29
-313
-3
-132
-74
-237
-174
-329
-145
-165
-265
-25
13
-233
58
-457
-231
-443
53
-220
-18
-560
21
-95
116
-484
-21
-69
-258
-142
-473
-233
-257
9
-460
130
-21
-194
121
-367
-14
-18
-284
-94
-242
-505
-336
-344
-315
180
-353
-207
-316
206
-292
-114
-265
-315
-287
69
53
-95
26
-336
-95
-78
-104
57
-305
47
-355
-263
-334
-480
-309
-418
-142
16
-54
-5
-153
-456
67
-135
-368
29
-69
-324
-123
-217
240
-56
-261
-23
-203
457
-400
-73
-237
-258
-344
-146
46
45
-119
-29
-198
