102
208
-274
-40
35
-213
-146
-255
108
-134
78
-74
233
-201
-237
-46
-122
0
-269
177
-271
45
-183
51
139
-155
-466
-281
742
-111
-14
122
-276
-35
69
158
116
4
79
271
-74
-55
380
41
168
-145
107
-202
276
85
429
-8
-442
239
67
-152
226
-306
-232
128
-293
267
-323
-130
84
-50
-159
205
-161
87
291
-79
-173
460
-347
370
-266
-253
-126
-361
-318
55
-11
-134
149
389
-346
428
62
-188
316
-125
-628
-86
-22
201
20
-5
-180
-72
314
-166
117
312
389
-126
-489
93
170
208
-148
45
-30
169
246
-239
-149
-28
-221
124
-242
-243
87
-480
-124
188
-63
-381
12
-88
36
-454
-247
122
-156
-152
-101
-378
-110
215
515
-60
-118
102
-89
88
244
336
-284
-99
120
-107
56
-80
128
-347
-240
103
-66
-201
-152
70
362
85
192
190
-247
-197
-510
17
69
280
57
-68
-51
349
-187
-302
-146
115
583
-124
-279
-72
-102
103
-371
-32
-30
12
288
68
-443
65
239
-137
125
-166
-127
-310
124
-392
-17
290
343
16
115
-108
-236
225
159
503
-321
-54
-355
329
130
227
105
281
35
-200
-310
277
189
-348
112
183
-114
25
197
-19
-383
152
-134
228
-195
-30
-137
147
-28
-245
636
-414
324
254
-217
-97
32
-92
111
-661
23
-314
-329
335
186
316
-139
-234
-53
-302
71
151
-472
258
264
-155
-229
-189
-316
-71
-171
35
-48
-23
135
106
-105
-250
95
-311
-139
602
128
183
-381
273
151
-293
-151
-310
258
16
1
-70
198
-51
18
-161
-76
-34
229
-27
-664
345
195
-4
2649
-183
54
-148
-30
-219
-86
-105
-152
-328
402
-365
159
17
232
167
-93
256
-610
-5
72
-259
407
-204
314
-345
627
213
353
-62
-341
-256
-122
123
-462
-98
-6
-15
-132
-35
140
-20
256
156
-156
119
-61
21
-57
8
287
-144
-256
46
-167
177
-145
76
276
-84
-245
21
310
-160
129
102
21
-2
-22
10
314
-259
-147
928
404
318
-118
140
351
237
329
8
29
3
-182
299
110
-353
558
102
-68
149
-197
245
-553
-163
-6
261
104
-126
32
213
155
132
167
1
-4
223
-321
-217
171
4
-3
228
-153
481
-53
3
38
87
172
-5
-263
100
233
-469
168
98
-220
178
-118
-89
-167
-8
-174
18
90
142
134
442
-36
129
-307
54
-278
-51
76
-179
181
95
258
-27
-309
303
186
-266
-125
-358
-419
-75
115
581
113
284
-25
-178
498
92
-35
32
0
-160
126
442
30
156
122
-101
-224
229
-158
-411
25
-172
68
8
393
-14
468
-165
-431
69
26
-193
42
341
452
-174
189
328
459
-186
551
-234
113
62
73
-180
197
21
185
371
-291
60
283
105
45
50
-93
211
-341
-217
80
-182
-318
-423
247
-2
-409
-26
-498
305
-8
-83
219
161
304
-417
-25
33
-419
39
230
20
282
-82
118
13
161
-158
-3
194
119
-74
-66
83
-268
56
-159
-402
-130
260
201
-139
-458
259
458
387
-82
552
-240
226
172
-134
-586
5
114
-273
-337
158
187
-546
-88
-128
-30
471
79
-147
18
-58
-98
132
-414
118
-46
-141
-74
-93
215
240
106
-364
11
145
390
445
301
83
284
348
-89
137
-466
-65
0
41
249
-137
-316
194
-329
167
-345
232
-52
-86
-59
6
172
-27
-306
-120
-102
-105
395
216
-3
497
40
73
156
-181
25
-199
21
32
-54
345
-54
94
-96
165
-79
-252
-365
-10
-149
-33
169
5
-302
-446
-406
-300
83
-134
-106
253
-281
-169
188
-71
16
168
-335
101
-106
-48
-85
-269
32
162
83
165
205
93
-3
-224
-1
-21
108
-53
-190
-37
342
-9
-442
-20
344
40
-233
-233
122
163
78
324
179
-90
473
-132
-154
-83
-236
-178
-208
380
-186
85
340
222
170
91
-232
-148
95
-176
-140
148
141
-516
162
-280
45
-147
179
342
-348
-223
-366
-176
97
-111
-90
2
428
-261
-37
199
401
-144
175
205
-132
89
-355
24
467
-275
-249
-276
