-243
-262
-210
-10
-439
-101
-521
-321
13
98
-299
-468
157
-205
-90
-601
-322
-369
-45
-259
-533
-54
-241
-690
-225
-515
-153
126
162
-355
-135
-169
-571
-9
-75
-178
175
-155
-199
314
121
212
-51
-400
-288
2
-98
-179
-122
-159
215
-335
-478
-96
-501
-266
-325
327
-78
105
-165
-627
-242
-125
-73
-459
-26
-146
-66
85
132
-411
87
-26
-364
-152
-88
-16
-434
-508
-297
-276
-408
-392
-151
51
-123
-112
60
-412
103
208
-701
-212
-159
96
-436
6
-193
129
-75
3
-403
-95
-160
-213
-137
119
23
-181
129
-108
55
33
-5
-204
4
-19
90
-283
-93
-145
-289
-641
-462
232
-276
-410
60
-108
-156
-361
-1
-60
104
8
-328
-226
11
30
-23
-261
-101
-593
-424
178
-200
9
163
-584
70
-670
165
-204
-72
-305
-223
-314
-170
-141
-161
108
1
-199
-330
-222
-517
-257
427
-182
46
2
-238
-406
-93
-441
-444
-217
-257
-250
249
-287
230
-128
-182
-30
-497
-294
-403
-83
99
208
-503
96
-383
-286
-66
-482
-85
-91
200
-89
-231
100
5
-515
-339
-80
-279
-316
42
103
-458
-670
-203
-64
219
-83
-587
62
-321
-477
-54
-272
223
-224
-247
33
-449
-31
54
-349
-440
-59
-39
-226
-104
-86
-448
243
-281
-347
289
-430
-185
-184
-26
-132
144
151
27
-648
-250
-54
-353
-135
204
111
-389
-224
-373
-153
-144
-143
-107
448
-60
-75
-284
-127
-99
-288
170
-374
35
-128
-111
-133
-62
206
-302
-463
78
-45
76
-207
-431
-342
-37
-100
-214
-152
138
-201
-425
-224
-330
-586
-471
101
6
-388
-17
-474
-605
25
28
126
540
146
112
68
-404
-218
-170
-235
-200
-187
-117
-119
-12
-461
-308
450
-116
-2
-277
-211
242
215
-397
-167
-232
-387
45
-277
24
-42
-24
63
-209
-413
-213
-214
-323
198
-22
509
-34
230
77
65
-333
-30
-50
49
-124
-367
14
-343
-139
-267
-448
-204
-465
-306
73
-257
177
-98
67
16
-313
-6
322
-53
-244
-21
24
-58
-120
2857
24
178
-403
38
124
-402
-184
321
-140
-329
-285
84
-112
-116
129
80
-491
257
184
-148
-332
-142
441
282
-226
178
-625
138
34
40
-82
-82
-24
-401
-121
181
-247
-153
-169
38
-302
221
137
-218
-43
302
267
-390
143
191
155
-556
-15
-441
-145
-17
-238
-48
-291
-165
-348
-110
-67
-76
390
-193
-127
89
-354
-92
-373
116
-516
-422
131
-387
230
198
-177
91
-165
-593
-691
27
-431
201
-377
-222
-232
-70
-172
-528
-95
-25
-101
-199
79
371
-264
-317
151
-16
125
43
-343
-553
74
-139
3
-50
-195
-179
-157
-107
-35
-243
-198
-321
-270
-319
113
304
-77
-282
-96
-321
11
65
58
-47
-82
108
-280
-621
10
-350
282
-195
78
-315
-573
36
-25
78
-22
84
-206
-331
-161
-23
48
-253
-404
368
-310
-91
-407
618
-255
-256
-151
-85
107
454
43
-132
-608
-523
16
74
-286
-254
-214
121
-79
-534
-312
94
-68
-111
-425
-78
160
-297
-332
-307
-130
-15
-34
-406
-445
-151
31
-274
-209
304
-406
251
131
-358
-201
-24
-28
15
-1017
-50
-34
-91
-113
42
-359
-116
-258
-85
-133
-269
-163
-419
-162
-159
229
-248
-425
-508
-215
-184
-175
-243
-230
156
-98
-434
-57
-3
-76
-99
-61
98
-417
-142
-152
-280
-287
-224
-609
164
-295
-114
-226
-406
-342
-528
-200
-249
-364
-280
-439
-227
182
-418
-104
283
-141
230
-233
-343
-215
-545
-257
-223
-369
-363
-75
-71
-415
-339
-222
55
-253
183
-462
68
-206
-20
-87
-501
-492
-175
-564
-37
3
-133
-270
-20
-555
-257
-248
-80
-152
61
-503
2
58
-282
-221
-294
258
-116
-169
-240
-203
-102
-169
-163
207
-216
60
15
-352
-51
10
-249
-406
-385
-605
-325
-155
-518
-192
-191
-428
-306
-84
-309
104
-300
-207
-204
553
-141
-35
23
-389
136
-66
170
-63
-2
-92
-356
-285
-240
-703
75
-253
-581
119
-98
-138
-268
6
22
-83
-299
-132
78
-290
-432
-42
140
-86
-546
251
-289
289
-431
-50
35
-227
-312
-209
191
135
-181
-92
-74
