-611132
-65297
864170
368502
-94055
-18245
429856
159445
656608
-1621487
407026
-346339
1124513
-880610
1102577
-240434
-68261
-1563
228136
-502246
741517
-249500
774044
80428
135552
-701203
-184093
1119506
1133310
713051
-437160
-5009
-1388219
-64647
675278
-950759
-164914
-431928
-90279
-128622
-1093626
25323
1210614
-355581
47636
-242787
-132294
70588
-916333
-819056
-690753
-603432
105208
2923
38329
73982
-110895
-40070
38482
-261829
-246784
54638
403782
-793134
-611890
-1248359
-73137
92728
120119
64502
379394
-59190
411595
-810673
-847870
80479
-166940
293070
-83681
-1248906
-501069
-913401
164417
1033904
-1151703
-349176
-139173
-14832
-1437413
106677
191848
33425
-716844
149519
746494
-117003
-1219
472508
52009
-65928
-145031
-46618
129891
-40802
59119
-150759
-213681
-269799
-700503
162210
119084
-107935
-28877
-890898
95070
-4634
-1407439
-361458
-1477530
597453
101282
-257626
1083658
575239
53396
-66886
706653
-175503
132410
69267
522588
-6072
-1171131
-1307113
195576
1081071
45889
1141513
-60844
956918
688020
277214
-538813
-225674
62689
254132
-516830
156458
-141511
-307089
-34339
-100282
803932
-1009973
-145768
1014611
357969
1140805
1056545
-78432
-237535
695804
149111
59714
441322
7385
-1018632
95440
-603443
297876
63991
-67324
801126
-1281444
-93464
280413
1422282
825291
71827
-455058
-180698
-405294
-1173529
1282567
100419
34822
153968
-255496
-783852
-813669
359583
173209
-779022
-66372
-145851
-25482
55753
541571
86575
-182207
-83507
1152006
465601
564699
-246612
226894
-782246
-524318
-27132
84027
43381
1416330
205246
35989
-841855
-1379357
-2438
-927881
-128558
-415296
146889
104487
-758120
54365
-728454
-789553
-12872
-144064
42846
-122062
263947
-595533
-461861
475720
1140483
541849
-877942
619060
-80172
492088
-175509
934978
-199860
103717
-1050579
730953
-632732
892401
13158
-1253701
-1096769
232226
-13365
1103702
-144264
523982
-392006
-1172571
-172326
487287
-1385490
-533547
-43847
-199037
-46155
-176264
-1166457
574471
-45509
779332
-148299
-435242
205285
-1118157
-17445
97266
835082
-142219
-976417
28312
438132
170751
924467
643856
215332
1169599
859700
576358
174279
-273514
1777237
575771
-186212
-1029650
-222286
602419
-261590
-178228
7843
-1001907
-709828
1100890
594236
-164802
726518
1111822
-358956
-479002
-126498
1001485
-209473
330446
23142
-7293
758388
-563101
465339
522556
-179473
70595
-304795
-1000281
127540
-134361
-392931
-1115452
-56380
-463259
93289
22808
45420
-622227
3015
-859443
150136
250891
-460389
-367564
229766
-490056
881792
-1143973
1050937
-67026
-628900
417388
-35046
-885771
67614
67778
-11053
276720
-101580
-1259848
-296994
-304976
66661
-78176
1301083
1412
565264
148874
1339726
-1244633
-559530
-767696
-1188146
1132907
1106418
69362
-732594
-6481
1001252
-144944
-848919
60917
441551
-155688
1001203
-414082
-173239
-126124
91636
265564
-428563
110340
-225132
-49630
-100922
-272802
-1222179
-128494
230049
365144
-209127
650258
-112776
-204137
25388
124499
-232538
-603606
-401043
-531544
-1305688
571127
34185
-43116
44542
-52257
42993
-287368
-829995
61881
232574
-868444
1226595
-60183
182439
508588
860565
-260072
-58003
-65591
-993587
87739
-1061307
1165597
-637234
135587
115334
-137635
178846
-162492
356589
-148154
518647
301293
-474787
-251697
65278
977049
-56454
-13076
-1050956
-952100
-322206
-746653
-1249617
646312
342882
128440
134821
-96757
-173605
-415953
-65687
-1075481
831406
-325005
181260
-71522
120305
-1079207
1191654
172868
5046
141612
-479479
268061
-449566
516518
-90025
231436
-180151
-842205
682848
346913
59367
106615
-777460
36538
1175420
744650
-272207
-164163
263103
-75470
-1196746
888059
215529
-6723
-11372
87818
665746
-6458
-36677
-437414
23440
-37671
-151935
212616
-11
-31567
-1288514
376320
-635127
197856
1004937
-880601
233767
-140635
8474
317831
-128258
-129402
23078
124049
1079069
-222809
-1240837
-566353
-25823
-1045241
-363308
-30285
114421
-28970
-115083
372536
-82878
-1099315
-31018
-38225
1222776
18691
-228610
-887716
-624699
-61410
728930
-1007552
1152374
-1084638
10296
180764
96867
-616995
3844
-348284
-9466
14163
259676
-1032554
-35372
-122130
93283
-62546
-40278
725058
31577
-238372
-56730
-41578
29424
212748
-218528
14208
32835
-29911
-788946
-58965
-6328
48831
487069
-185686
-265397
-1098174
-126529
927469
268803
-185025
-860388
778878
993927
474631
-70691
473789
-728399
47593
-27050
-4328
305163
672590
-194343
82843
11241
-233940
-539359
19509
-70956
218694
-522533
-1088077
76331
-135792
-777915
250767
-19339
-131416
511661
976679
476813
-172826
206556
-146533
-230497
74375
-764408
1449645
271735
576825
50815
5765
1050858
57812
455727
52375
302386
119878
-940121
209239
-1089109
-21606
-930292
119162
87347
1056299
-27301
924989
678854
-113935
327601
871714
35323
-1081601
-1300795
-1366636
107567
-73301
-13542
232618
112801
73416
180679
-338512
1002223
91178
-1118065
1303664
-253461
88304
210930
-1274381
-663676
-3865
10310
491250
304815
848401
-25006
-126056
-163477
463518
-282771
-1503979
82729
740098
-549162
1257745
-689053
-82281
960557
369362
553275
642172
389489
-4061
520412
953264
688718
1309741
838375
419346
505535
81084
263511
-1088504
-12563
110210
582775
-25295
-7845
-608725
420835
-3165
224067
-203443
101921
-176432
-168814
-519129
-30036
236007
173192
981836
-131849
-90557
-82701
87887
1219595
-973021
303275
-87102
1111040
-233927
-176080
327304
-692969
-25574
-76811
-580136
646871
-189979
-58049
-256811
352780
45515
-50946
960638
931458
-81328
78333
126057
-55140
-323926
-1838
492504
-839202
514533
-704357
349032
-937840
-8377
-24371
-322094
-194759
130315
90922
366944
-514035
773252
-167471
940248
278297
253167
-324299
859818
