27
25
202
-157
-40
-33
-78
118
159
38
81
-114
252
185
-24
-100
-74
26
206
16
78
-115
-212
158
-179
3
133
-19
85
-168
164
-127
1
122
-211
-43
-33
74
234
-114
-5
-131
-95
-8
-66
-184
180
192
-36
21
-54
70
4
70
-174
48
26
119
55
-68
56
-13
44
224
-58
140
146
-172
62
18
5
-147
-113
-19
-9
144
-595
-179
11
-14
-37
60
-39
32
-50
-5
10
60
87
76
-14
-130
-56
274
-51
-11
-21
-77
-3
57
363
-110
65
-57
62
26
151
-22
-86
86
69
25
30
277
-80
-20
-20
130
65
87
9
-152
102
17
103
205
-41
108
-7
-47
-47
100
18
-120
-209
-4
-122
36
40
47
-66
-127
57
-200
53
-232
-116
-61
-98
-17
-185
106
67
49
-16
-308
-27
-140
7
4
141
-80
-51
78
28
0
-218
-57
12
-149
6
-17
-108
-34
-118
204
26
15
67
-13
68
-100
164
-154
-180
166
195
-50
196
-50
-20
-119
-68
25
68
132
-173
71
-95
-197
1
77
109
110
71
18
190
-122
52
-13
130
-105
19
58
144
-73
-196
-12
102
32
70
-48
-12
124
-30
-53
-238
-182
-151
60
-36
217
59
129
-132
86
30
-33
82
-76
-141
166
28
117
-58
-25
-99
-139
92
-87
-20
-18
-127
-68
117
-173
-67
331
-195
72
-93
-21
40
72
-133
15
26
-94
227
-123
-40
1
-51
-295
33
141
53
-17
93
-9
-238
-61
1
243
55
-52
-88
-194
-73
-173
-194
-125
-5
1
-125
-151
47
50
71
-72
87
-147
174
-82
-165
67
-240
-33
-41
48
38
17
128
106
-34
-135
266
228
175
197
104
19
96
15
-70
-28
-13
-21
-12
1
13
-1
47
5
22
5
162
-27
-78
39
-71
-87
-87
55
-17
-14
94
-41
60
147
25
35
-67
-81
-80
-5
125
58
10
-52
-10
116
-39
2
-142
-78
0
3
51
-131
5
103
12
-4
74
80
-42
-106
-18
27
-66
-63
8
-9
-34
54
45
27
-73
-13
-11
-52
-87
124
34
17
187
2
-24
55
-81
39
-4
-16
52
-4
12
24
16
-68
19
-47
-15
-75
-19
-116
59
11
-26
50
28
1
68
35
39
-2
21
8
-24
53
235
41
-2
-52
-2
53
-27
55
-50
-3
-43
26
2
42
-2
-12
-16
11
-46
-52
-32
-81
-84
28
42
-47
-52
16
0
-43
-28
-38
7
12
19
109
20
67
-82
-48
-44
38
72
-21
40
-64
99
23
-69
49
-22
1
-24
-1
13
-88
-39
76
10
78
18
-56
13
-21
-43
-12
6
42
27
17
46
88
-13
67
-4
-36
-32
-5
10
-13
37
-54
13
6
-10
172
4
-19
31
51
58
154
-24
-14
-94
-7
5
40
192
-47
-31
-4
-66
-57
27
30
22
-12
-15
-41
-3
20
-14
-55
1
-60
3
-22
-50
-1
44
4
31
31
-32
-82
53
31
-20
-33
-3
107
-90
11
27
-87
8
-65
-7
-9
74
73
-41
-14
-82
15
153
-105
35
-97
-136
90
-56
86
-58
174
57
-28
-260
-101
139
23
-56
-5
34
55
-136
-148
116
-50
-117
-39
-145
5
-187
-199
-175
31
-4
-26
-82
165
94
119
160
-11
311
0
-100
-131
3
-25
250
131
-28
-24
108
190
113
3
212
-83
112
80
126
-21
-35
153
-57
-9
-126
136
72
-35
35
46
-32
-50
73
76
-15
-72
110
10
-12
-3
-32
118
-75
16
38
-3
-62
52
-73
-10
-25
58
38
27
13
-26
-81
-49
5
118
-18
14
13
-12
-17
54
-88
-60
-24
14
-88
-31
27
-60
-5
98
71
-40
-55
-39
-27
-98
-5
22
35
-118
10
66
-67
-76
2
31
59
34
25
0
26
-5
99
45
-39
-44
15
-56
120
-13
35
-127
-21
64
-114
-10
64
20
36
-49
-8
-58
-64
-46
42
43
-58
-8
28
-75
47
-71
-4
-2
-14
-101
11
-8
-39
-17
-31
26
-35
94
-28
9
-202
-41
63
-102
-78
21
1
-45
58
18
