29
-12
2
4
-12
15
-24
-11
0
-11
-3
8
-14
6
31
-7
15
18
15
-19
22
-14
-31
-15
9
14
23
6
10
-10
21
4
24
4
-21
-4
-10
34
-6
17
27
4
-15
26
32
-20
-12
6
9
-14
30
16
-16
-12
25
25
-5
27
5
21
5
-7
4
-6
38
22
42
-7
-61
132
39
-7
92
76
-35
-34
-26
16
-5
2
-54
8
-2
42
-39
87
-70
41
49
-94
-4
-44
-38
88
-145
-44
26
46
49
13
86
23
-112
-84
-69
-66
-54
24
15
67
-40
-24
-67
-4
-16
7
-44
4
45
59
15
30
17
-85
-52
48
18
156
19
-32
-3
-35
-27
-10
61
-25
42
-6
-19
-15
22
-26
-25
16
13
1
44
36
-26
14
45
9
-15
37
11
-24
77
15
-16
-19
-36
-34
20
-35
-3
45
23
-32
19
15
-32
31
-11
69
-24
-28
44
-8
-17
11
37
-199
-92
-44
-30
-51
-5
24
-12
24
-2
41
-46
-44
-9
-57
-15
-27
-14
-30
22
-13
41
-11
26
-14
-24
30
62
4
-15
3
-2
37
86
62
52
41
-12
30
44
-9
23
105
11
-1
-46
22
-22
13
57
-59
-4
66
32
22
-21
-85
-70
-15
12
15
-55
22
-30
-18
25
19
-10
57
22
19
-8
36
23
76
39
-5
-22
-48
17
18
26
42
-15
0
6
-24
30
-85
51
-2
9
-37
26
5
-45
-28
27
-25
33
2
29
8
-16
-25
-36
-75
-19
-1
7
48
-8
-42
-1
2
45
3
54
12
-53
27
-7
-69
42
-42
43
-47
9
-44
-46
35
24
53
-8
68
34
-32
-37
9
-119
-11
6
99
36
54
-34
19
98
36
-88
35
118
25
-31
-23
48
16
104
77
-72
-55
-93
74
-66
32
-80
-11
-35
-53
-25
-9
78
-122
-13
96
-39
-17
-54
13
12
0
-11
-47
74
-33
16
37
53
-32
-37
-78
12
-25
-26
70
90
3
0
23
28
-34
95
-73
-3
17
-7
3
-20
-24
24
22
-14
18
29
-1
20
-30
13
6
13
-46
-5
3
2
-19
-10
48
-19
13
89
26
15
2
-9
-23
-17
3
-6
-15
-30
19
24
-25
-5
1
13
20
-32
29
-32
-9
0
15
-12
-36
36
10
39
16
16
10
-38
18
-2
27
8
26
31
-36
24
22
-8
-61
81
4
-14
0
8
52
-70
41
62
9
-63
5
46
15
-16
2
-2
-26
7
19
-14
-45
35
41
46
-3
-7
38
11
-12
-12
-24
-2
21
-10
-10
4
-25
9
21
-66
-22
-44
12
-70
-26
20
-11
-3
-2
57
-60
21
31
37
27
31
53
-2
105
-86
50
-39
27
-62
-46
-75
-26
24
-10
45
-17
-117
-34
3
-29
7
-3
-16
-62
90
44
-23
-47
-66
1
-17
-45
-67
79
48
78
-30
11
-23
29
-66
-22
-72
-39
40
86
-27
-9
143
-115
33
-53
0
-20
32
116
-49
-4
-66
-9
-19
-42
-143
-256
48
1
-43
-29
-71
-6
25
-22
-90
-45
18
37
14
-9
-61
-44
6
12
12
-24
4
-4
-39
3
15
16
-2
15
-29
34
34
-7
2
22
14
-88
-3
36
-5
15
-47
-1
-21
36
25
-15
11
32
-5
36
-28
-38
-3
5
-21
-25
-2
-4
18
185
36
-12
-13
-31
14
25
-44
2
-18
22
23
-26
25
-16
6
-10
-14
-6
13
-30
8
10
11
-10
26
-2
9
63
56
-39
-24
-6
-29
36
-5
34
9
-5
-5
39
-16
-16
14
-27
-19
12
-1
18
-45
0
31
-25
38
-39
18
35
3
-7
22
-12
-14
51
-3
13
16
4
-20
-35
-14
-29
75
1
6
-3
38
-42
33
28
-14
-48
25
16
-45
4
66
-30
-92
-8
-3
31
13
-49
11
10
59
-3
-27
-89
20
4
-22
72
-2
-29
-7
-40
-33
5
6
39
3
-7
-11
-27
-45
-15
3
4
15
-24
40
26
35
-9
7
-44
5
4
-33
-22
-12
9
-30
31
