-30
-27
-15
-10
7
49
-10
12
31
-58
-33
-74
2
7
4
-10
-9
-33
-37
-12
-26
12
-16
-14
-16
4
-32
-7
-11
4
-53
-18
-43
21
-8
23
22
-25
8
26
2
5
61
-4
47
-4
7
10
23
10
-20
-24
-7
9
-23
-21
4
-52
-17
-25
-25
-5
12
42
-1
37
-4
-45
-133
-1
-60
0
18
34
-111
20
13
-79
50
1
-30
-66
-13
-17
-7
12
-38
20
-39
-27
49
4
8
-1
-6
3
59
23
-1
-56
35
-33
16
2
24
77
79
34
-85
10
-7
33
-4
-75
-24
-76
-70
50
-25
-16
-29
33
-34
-48
3
16
3
-26
63
-19
-63
33
-72
65
-42
-29
0
9
56
-25
-12
-44
-1
6
-26
59
-2
43
31
20
26
42
-9
-10
7
-5
85
-19
0
-64
-24
-31
28
-37
8
-8
-47
64
43
-42
15
37
14
-18
17
34
22
5
-56
7
26
21
46
8
-65
-45
12
39
-34
42
-5
-41
34
-55
2
-70
-9
-2
-9
-63
5
-78
-11
-20
108
-25
25
-15
48
-7
-22
-31
1
7
-6
16
-47
-12
-86
-10
20
-45
6
-41
-26
11
33
4
104
-18
-20
12
-25
35
14
3
126
-5
-3
-46
7
-28
-27
-26
-2
-34
23
-22
111
23
5
-15
103
-11
19
17
-25
23
-2
-3
-49
89
26
4
-40
-16
-2
-58
-22
-5
-40
26
54
-35
70
13
4
40
-77
-50
-53
0
-57
-48
15
19
38
-72
-16
-18
-40
17
-51
48
9
5
-10
7
-5
30
-20
-58
-66
10
-19
-17
-57
-45
4
61
22
-23
6
34
12
6
68
6
-48
-78
-16
-25
7
-11
-11
6
1
47
-15
73
-23
59
43
-19
56
80
-14
-52
-113
-15
44
-86
-50
-10
-22
-6
-7
68
8
-9
28
46
10
26
-22
13
-82
78
-32
-101
-81
75
-64
13
73
74
-15
-32
-49
97
-14
95
34
34
-62
-8
-35
-68
25
14
-73
-31
59
48
-9
71
40
9
25
-23
28
27
-15
-43
-2
-1
-56
22
7
-31
17
-23
42
40
-29
19
-3
-33
-8
-16
21
46
-6
39
10
-5
-33
1
54
9
-70
-35
9
-2
14
31
62
-23
15
-79
16
-54
18
-4
14
-25
19
-26
-22
-9
25
-28
38
-7
20
5
54
16
38
2
6
-5
80
-12
-2
10
-23
18
-24
37
-1
-36
12
51
2
1
-20
31
-6
-34
-46
-13
-12
-45
-1
-12
-15
-20
-17
14
12
-2
4
-28
25
-3
-7
-24
49
-11
16
5
-20
18
-14
69
-39
-31
-20
31
47
-20
4
-7
-29
1
-32
9
-29
-50
-14
41
-17
-3
-44
82
-65
-41
-27
42
3
-30
-21
-10
52
-39
-18
31
-31
61
-4
-49
14
8
48
19
3
49
19
27
-19
13
-26
55
-34
7
27
-25
9
-21
91
-44
41
22
-6
-26
10
77
15
11
33
16
35
19
-55
-4
61
-70
-29
-22
-116
4
-10
-17
22
-13
33
29
-22
640
-53
58
-66
-8
-34
-43
-13
42
-45
19
-67
-21
-13
57
24
-3
83
-10
83
-10
-4
-19
-12
-99
66
-41
-67
57
54
-36
52
42
13
-54
-42
-126
-20
210
-5
-22
-60
54
-11
159
4
-123
-43
6
104
-36
-13
-10
0
6
-5
12
8
39
90
-18
125
9
66
-117
107
117
16
20
-155
6
-125
12
-98
108
-70
197
95
7
588
35
-13
41
93
-38
-62
29
33
46
-70
26
101
40
-58
50
55
26
-87
-13
71
-122
39
73
-3
-76
105
-127
68
-422
-52
-3
26
119
17
56
90
-26
183
8
-55
-77
-20
-86
-154
33
96
79
-10
17
-29
-25
-17
32
3
-158
25
42
-19
-57
20
66
0
52
-17
3
58
2
-3
87
120
25
10
40
73
-41
39
34
-87
-14
-61
-38
40
46
-52
-26
87
-81
-34
-50
38
5
-23
-41
15
-72
-91
58
-24
53
67
-55
-28
83
-4
19
119
51
-10
-27
