-127
201
121
-82
118
-86
-191
-101
-224
-329
77
-61
-71
-17
85
58
-82
56
24
-50
-2
167
88
104
-56
112
1
73
101
-117
72
-58
-142
-140
73
39
-37
-49
-275
-53
-75
19
62
-112
-147
26
68
9
-88
21
64
-408
11
-141
-78
312
-96
16
41
9
42
-91
-110
-22
31
47
-32
-102
17
85
59
-85
-20
-74
-7
13
-33
75
-21
-5
25
55
-62
20
-8
6
33
114
19
-272
15
-38
-101
-27
73
-62
2
11
25
30
72
7
2
77
17
-51
-129
-87
-10
4
31
42
25
-7
20
-22
36
-89
-46
-28
-30
-78
44
-77
19
-12
40
24
-39
73
-21
-13
-5
37
27
223
-6
20
25
32
38
-27
-35
-6
211
21
118
133
52
4
0
15
-42
-65
21
-110
-7
-22
-64
20
-30
-4
-26
-29
5
33
12
15
44
25
-11
-15
8
-23
-50
-25
-5
58
13
8
-4
-14
-9
17
37
-1
-32
50
-42
283
-48
57
6
-75
58
109
24
-43
-40
107
-10
44
-22
50
298
-71
-15
65
-52
-106
144
-49
146
-6
-33
177
97
68
-47
-53
22
24
-86
74
32
-30
-199
56
12
-39
132
-42
13
23
35
-8
-20
-18
-13
-40
2
-94
-44
-24
-123
52
-149
-17
428
-25
-265
100
4
-41
-329
386
10
-388
-61
-202
-37
-61
-95
-37
294
-69
22
-36
-188
67
-18
74
182
-19
-57
-84
-5
-131
-296
-50
-78
10
-51
-49
-65
42
-1
-8
-128
-118
-156
58
-219
80
-8
-6
41
-52
40
78
-99
59
-436
-27
53
-43
31
-83
38
-113
81
77
-35
127
100
-30
86
6
-132
55
-46
35
-56
17
11
-100
-49
100
80
155
123
-14
16
-34
-55
-50
-165
152
171
22
-97
55
-15
-208
44
132
-252
-130
-113
-31
-54
-162
50
-17
-117
-6
3
-67
235
27
-53
-85
-38
-278
56
-60
-34
31
-27
-94
47
227
-70
19
147
-185
-138
-61
-58
-36
-3
-127
212
-105
325
17
-47
-232
69
-24
65
71
-29
4
-20
85
85
46
99
145
-8
-25
-213
-46
-112
-13
-63
-74
92
-14
54
-17
-39
21
-2
-15
-28
29
49
131
-32
54
-11
151
-108
-7
25
91
59
19
108
17
9
29
44
10
6
79
39
18
-11
-6
-66
6
22
376
85
-27
10
43
-74
15
-66
24
-82
34
-2
5
-8
-43
27
-94
-136
-44
14
-6
-4
45
-15
87
9
29
47
-82
41
-9
-61
26
-63
-31
112
18
20
-11
53
80
-49
55
-6
35
-119
-1
2
15
-41
-20
-38
7
-45
-45
-85
-60
-45
35
-5
-12
92
2
34
4
8
-72
-30
41
30
-30
17
128
5
117
-8
-66
41
13
-82
-123
-44
149
-59
-10
-89
-30
18
-80
-28
42
89
4
-14
70
47
-35
-35
117
-114
-28
-106
-53
-73
81
-98
-16
19
40
-139
29
-64
135
109
-38
104
-51
-13
30
-76
-31
174
25
64
46
-97
66
95
-12
50
-37
-50
21
30
-82
-170
-10
-18
-116
8
-81
3
-15
102
-36
24
11
104
10
-20
50
94
-41
-42
31
-44
-24
18
71
-5
47
16
25
24
-109
-92
29
-41
-45
3
45
-14
-6
19
7
-89
-174
22
-261
-117
144
-58
8
-217
-163
70
3
87
-27
-19
-109
104
-79
28
90
-25
-10
-87
-8
103
78
-13
43
-39
7
-21
-49
188
25
-40
82
-26
-9
40
95
-55
132
-49
-72
28
64
23
-68
-19
48
-1
-1
28
-42
-72
40
-406
-46
8
119
-9
37
88
56
-9
58
-46
35
73
-109
-334
-25
-49
267
-130
-64
48
74
3
-39
337
45
-37
99
8
-10
172
-13
-79
73
33
26
115
2
16
-3
25
-15
7
-17
22
25
-35
3
-83
31
-83
26
35
38
-4
-18
98
118
-7
-47
-31
-17
21
11
15
-119
-34
-84
35
166
-46
20
37
-16
50
-3
-339
-7
-15
-134
3
66
-18
-15
-35
-126
-7
-56
-2
31
-1
-253
