-183
-173
18
7
131
-81
311
99
358
-143
-42
37
-83
-83
-135
-67
-87
-47
54
536
87
-289
66
105
-5
102
130
105
-6
-5
-189
177
124
24
-126
50
68
-61
304
-91
52
100
-219
-10
31
-456
-6
-8
-29
22
-344
76
-75
-49
121
-80
45
205
229
117
-82
-395
-20
-61
104
61
197
-144
-9
8
37
119
46
20
-19
-6
25
67
40
76
-69
50
-41
-96
-80
7
-72
-60
-157
281
-25
41
-74
-78
-290
-151
-57
-31
-49
-100
-51
52
84
30
-79
47
-185
168
86
9
41
-88
130
-2
-53
-6
189
92
112
31
51
1
-108
72
6
71
54
41
80
-148
76
132
159
242
-318
86
-10
-52
-109
-8
14
-22
63
6
-58
53
-21
33
-25
-12
77
8
93
13
-217
231
45
152
-41
-43
-4
68
-245
-55
31
144
-3
-2
29
66
165
37
141
53
-3
73
-148
-323
-102
18
-37
-8
33
-26
-346
-11
52
-7
-40
-298
102
18
-79
128
158
-111
198
-10
-76
151
-33
-2
-78
277
-324
-62
20
-82
13
327
330
-55
-378
-170
-249
-186
-79
-501
-18
-22
131
-233
6
-52
39
-85
-83
-190
-232
75
318
-56
-48
35
134
112
42
-54
-217
-16
27
149
-19
-268
96
62
20
37
-65
72
48
19
126
26
-8
-71
189
-22
-121
-54
331
192
-23
-1
11
-49
160
0
-160
-101
3
-14
-180
10
-63
55
-5
-169
-142
-63
-9
-112
-201
-109
-118
-157
73
-6
-15
28
-370
23
-491
-161
66
24
113
121
-60
71
65
-18
52
-4
142
-118
-137
106
-44
123
-163
46
-6
46
-6
41
-38
-222
-41
32
-58
-40
43
38
68
27
-72
-107
16
99
-147
-120
-53
-16
245
58
14
-86
70
-247
122
-191
-67
17
-242
-494
53
48
4
283
84
95
-418
-75
-95
-222
178
-85
-202
-141
-31
22
-115
-107
-152
116
-89
201
26
239
94
-248
51
-27
55
-40
-240
21
43
-22
-202
-244
-218
167
143
5
-3
126
-100
15
127
74
-19
140
47
-77
-192
377
-287
321
-83
-216
14
-73
-31
124
-115
-431
-11
9
63
-130
-49
98
202
-232
-86
23
-124
44
10
-24
-152
-14
95
-284
-43
-94
-143
-94
-153
156
-205
49
3
177
81
-60
16
69
44
52
-313
101
-51
248
-197
-175
-100
85
-108
394
85
72
109
49
-34
-12
-27
-44
-320
-44
-90
-70
0
27
-34
-86
366
-61
128
0
-157
48
-127
51
10
2
7
0
-9
-55
29
-6
7
104
-24
43
-40
35
25
-22
35
76
36
0
-93
-20
-72
83
-17
-28
3
93
84
-14
-234
115
9
-41
-66
53
14
-70
94
123
156
58
-85
75
35
47
-77
110
52
-19
-133
-73
-45
62
67
119
73
-99
-106
10
-118
129
-1
-51
82
31
-48
45
-4
1
-55
-93
-192
151
3
186
-39
22
79
-66
71
-113
2
-65
41
-65
114
-122
192
116
91
-137
82
-120
-170
-102
189
16
-51
32
-82
-17
2
29
-64
45
158
-117
34
105
-13
-60
10
52
22
-11
-51
-83
90
119
-155
29
44
-107
80
-168
-75
47
-8
-3
-1
23
39
-12
-64
21
1
38
14
26
-384
-17
71
-342
-77
-210
-36
107
-60
-249
28
-41
36
-11
102
9
-4
-70
-17
-79
109
114
-93
116
-12
-59
-151
-158
34
36
45
76
65
-138
79
26
-78
21
-72
162
26
58
171
89
4
210
-174
-129
-39
-24
-106
-291
-154
62
114
-16
27
-26
26
-4
35
65
83
424
-21
10
130
-1
78
-399
-46
175
-39
-143
-10
-83
-45
-201
-8
17
61
50
115
31
48
3
46
4
69
77
164
-86
18
-6
-20
59
-12
35
5
-24
-17
-82
44
303
-18
114
55
59
7
-87
-55
-33
-27
-105
-80
163
96
97
99
110
24
-3
-79
36
-152
46
145
306
52
3
-40
-72
-71
13
-54
-62
87
-133
-52
-80
-61
6
198
-45
-16
-218
75
-130
148
-15
-30
-129
