-445
-178
113
-252
602
98
36
590
-441
-99
32
169
-528
281
-283
553
222
-23
-61
-139
299
-92
-8
227
-353
291
134
-251
-320
127
525
154
-188
-268
-301
-342
-78
244
-397
-547
-423
-614
56
556
218
-351
-162
-385
-64
-322
-1400
137
-293
-284
584
269
-454
82
-188
-523
-7
136
-185
-495
187
350
145
388
-1041
-207
-592
204
86
-295
54
-674
-341
266
73
141
-39
179
-255
422
-135
-449
-28
54
149
955
-592
-204
-129
-219
-102
-454
605
-376
-76
-377
64
-395
21
-68
-369
129
-136
-316
-56
-179
-247
302
75
-385
-175
-175
49
-311
-467
-13
28
-232
306
3140
-484
-324
-482
164
-319
18
235
262
119
-262
-327
-260
-213
-30
-290
-65
-296
26
9
572
-89
-1
34
-1058
-334
-209
-12
137
-581
-619
-332
65
249
425
240
-195
95
-411
-254
-174
738
-60
-213
109
-517
27
-36
-192
740
10
286
-250
122
62
243
722
-1920
444
-79
58
-96
-53
719
-74
146
212
-419
239
248
-207
-69
221
-488
-173
33
249
-28
137
283
-281
-507
1485
-11
181
-60
139
-291
-60
141
562
-2
-464
-267
-87
298
-155
1
178
-21
375
31
749
20
-690
152
-450
-152
-278
420
-317
-137
-267
-223
15
-99
-506
378
-144
47
661
-302
-175
-85
-30
-337
-473
-585
-51
-466
-52
-223
-558
80
-454
160
115
622
-67
-22
272
-189
-59
-50
-77
71
107
166
63
-214
655
-459
-355
71
-200
-350
-549
531
769
-257
-428
-965
-384
217
91
77
-176
47
371
-136
-217
505
34
-351
-349
-36
75
-677
-48
-135
164
-249
85
132
-226
-5540
181
-541
-397
694
-41
-239
-225
-205
7
-64
-373
32
753
3
-818
139
-744
-113
1404
-245
-339
-153
71
7
551
153
-100
-583
-71
-90
-42
87
768
-314
144
-183
-648
-99
-391
-17
-989
13
53
889
102
-242
-139
-383
229
77
-21
42
-689
547
-28
315
398
-722
-172
-471
-464
-1103
91
160
-486
-1374
-24
-205
-456
-238
330
-63
-7721
-149
-408
526
32
-163
2
-300
-582
38
-111
75
-451
-269
-6
-416
-647
55
-79
212
-148
188
-111
-195
181
-82
-190
157
-147
88
-174
182
-62
-250
75
447
197
290
-11
-19
100
-10
-503
347
171
123
-604
-199
-216
-314
-565
54
52
-555
-51
-29
354
-257
-572
486
422
145
-195
-156
-1934
-332
37
-20
-345
172
-14
654
-15
359
148
-146
173
-754
-677
99
-264
165
576
1006
-119
295
-606
345
-442
-226
-385
-239
228
-252
-556
55
124
-778
118
-67
-178
-314
207
-260
-383
-479
704
-279
-405
-212
96
288
-152
-118
-429
-189
-171
-60
264
54
-282
-389
-686
63
-164
-591
268
-200
-282
-60
110
111
-595
-18
509
-707
-263
-636
-360
-508
278
-303
-22
-316
-392
1040
-353
-83
-288
220
-75
-377
70
358
-191
-56
15
-132
-1297
100
77
-151
-358
-444
-795
231
255
344
126
-236
-409
258
460
182
-241
-112
428
-8
-548
-203
-261
514
-291
-563
117
-324
352
-147
237
-654
332
562
-294
-77
-159
-138
-771
287
-331
-245
-1
-316
317
-168
-185
294
-433
-830
44
-218
-175
57
-1045
-234
150
-298
-106
502
202
57
-51
-287
390
495
239
8
-180
-469
26
397
-339
109
118
184
-702
-434
-176
96
-731
1002
427
-176
-114
209
-159
265
-392
-28
300
365
41
194
596
-226
148
278
874
239
158
-217
181
-412
-571
483
-636
161
759
178
28
480
117
330
106
206
-153
473
669
-28
-171
320
99
536
-146
184
-93
17
755
214
93
606
-177
-148
-252
359
-332
399
-396
342
-224
299
-186
206
-370
38
-220
75
233
-199
-161
-635
-565
-76
57
194
9
-251
-546
-54
26
407
-80
-236
-43
340
67
501
176
6
337
-673
243
-14
154
-106
-106
-1110
-157
122
186
-3760
13
17
173
134
-643
-715
-715
-451
-375
-232
-138
-388
94
377
-205
-352
-159
-520
297
-250
47
-561
-585
-236
282
-215
-423
234
360
-237
-239
381
357
-145
-602
-1013
282
-455
-100
455
-267
0
-484
-102
-335
-191
-223
