-40
-128
-349
158
-560
-87
-406
-346
10
-49
-16
-116
22
-405
-148
-381
-350
-274
-46
-394
-587
84
-419
-655
-156
-603
-340
45
264
-309
-222
-121
-471
304
-382
-11
148
-202
-494
631
-69
235
-174
-133
-137
-19
-59
-15
-98
109
231
31
-662
167
-373
-284
-312
214
73
-28
42
-399
-45
-118
-113
-476
-64
-151
-99
151
189
-363
10
-64
-339
-198
-22
-105
-341
-319
-117
-258
-89
-304
-144
64
12
-170
-72
-299
-71
186
-1001
-239
-501
128
-460
237
48
-4
-13
-147
-2
-25
-156
-17
81
-48
250
-241
153
7
148
180
-51
-142
-275
-117
161
-460
123
108
-60
-321
-421
99
114
-568
-76
-44
-207
-486
78
154
-158
29
-332
-215
345
-35
58
-220
-209
-307
-320
616
-13
-167
186
-548
-189
-374
154
-237
-285
-214
-301
-315
-247
264
-280
81
-178
-382
-113
-412
-292
-295
505
-35
-28
-168
-40
-428
-103
-480
-343
-418
-435
-113
-131
-335
107
-420
-141
56
-628
-391
-515
-269
-21
364
-736
29
-299
-340
-15
-381
-144
10
86
-251
-333
-251
186
-480
-271
-12
-198
-289
102
31
-526
-299
-310
-104
163
-125
-206
-128
-279
-562
70
-150
105
-587
-349
-3
-255
140
-136
-8
-174
-211
-46
-165
-174
97
-306
269
-209
-221
-14
-268
-116
-162
117
-300
287
346
-153
-835
-50
-97
-179
23
387
-62
-204
-188
-140
-62
-67
-213
-86
155
-157
-73
-265
15
-151
-150
42
-252
58
-108
69
214
51
101
-385
-138
-92
152
75
-431
-394
-464
-310
-78
-377
-11
167
-57
-564
-258
-264
-763
-216
-89
-445
-314
77
-462
-876
112
36
40
3233
-170
113
226
-228
-82
-8
-285
-337
-315
147
-172
220
-391
-605
290
-117
-277
68
104
-97
173
-91
-337
-205
-482
84
-194
71
-24
-65
77
-153
-411
-262
-173
-211
-162
-226
111
48
245
264
-164
-382
-157
-71
123
-313
-268
-73
-54
-349
-199
-218
-208
-238
-84
41
-399
124
-158
-96
-54
-262
101
-66
-207
-234
83
52
-293
-184
-1370
-128
156
-248
39
348
-340
-44
19
-313
-395
-515
-118
-337
-177
287
206
-318
84
-75
84
-244
-213
-17
102
-226
-236
-535
203
-4
-265
-319
-85
123
-244
-80
-74
-185
-66
39
159
-182
23
261
-298
-227
242
255
-378
-205
182
260
-393
174
-331
336
-231
27
62
-197
-298
-406
-59
-43
-187
433
-200
-52
150
-263
-96
-386
39
-440
-329
114
-32
241
12
-170
298
-8
-384
-423
96
-215
-41
-293
-114
-196
87
-113
-174
-20
-31
139
-136
201
331
-272
-415
-36
-183
78
-137
-402
-311
208
22
-85
30
-317
-117
-17
-76
-109
6
-86
-250
-98
-245
-144
124
-131
-361
69
-207
-159
-300
125
-65
-182
-27
-43
-587
121
-171
518
-296
224
-565
-363
257
-105
-71
-217
207
-254
-226
166
78
-38
-160
-469
-91
26
-352
-250
516
-358
-29
107
-184
125
659
307
-296
-691
-302
69
73
-372
-326
-128
59
-125
-454
-346
-106
17
-49
-27
-302
170
-101
-209
41
9
46
3
-341
-362
-141
198
-188
36
-205
-390
38
115
-457
-413
74
72
42
-973
2
-105
-252
-111
-123
-369
-283
-293
-67
-180
-280
-216
-401
-308
-179
-62
-206
-220
-273
-316
-385
-355
-343
-225
200
128
-129
143
-26
149
-127
-262
113
-315
-200
-348
-168
-110
-246
-328
171
-283
-156
-517
-343
-300
-615
-151
-294
-221
-245
-434
-429
206
-297
-233
39
-241
116
-271
-290
68
-167
-197
-471
-329
-285
-3
-99
-351
-140
-44
-36
-443
-22
-445
17
-205
58
-422
-358
-226
-318
-300
-221
47
77
-333
-159
-581
-442
-501
-21
-233
-216
-626
-83
265
-42
-430
-248
80
-189
42
-226
-187
-241
-282
-181
161
-173
-147
-84
-320
67
191
-171
-425
-226
-375
-238
-317
-373
-183
-103
-147
-303
-84
-379
-18
-233
-82
-241
29
-66
-116
-129
-245
-83
-10
181
80
-302
-105
-514
-326
-490
-707
-109
-163
-196
-20
-97
-137
-42
-41
-40
-206
-197
-152
48
-292
-290
-141
302
-86
-345
241
-16
232
-454
-146
-192
-313
-329
-151
367
82
-214
-101
-184
