-125
-174
-207
-72
-664
-161
-409
-306
-115
-75
-143
-308
124
-278
-171
-446
-401
-309
24
-267
-551
72
-354
-780
-342
-513
-68
-3
383
-405
-72
-35
-551
-45
-236
-147
92
-120
-227
329
74
228
20
-291
-93
78
-138
-150
14
65
-10
23
-608
173
-348
-415
-275
229
17
-25
-155
-289
-61
-263
-146
-383
-134
-260
-159
190
110
-210
-124
129
-389
-96
-38
-206
-256
-431
-228
-154
-254
-465
-111
81
-312
-129
82
-207
184
247
-857
-95
-346
133
-384
-143
-141
-79
-59
-136
-303
-6
-7
-163
-100
29
232
-93
248
-65
466
38
-153
-117
-217
-148
38
-303
20
49
-145
-404
-286
144
-106
-455
-25
-7
-137
-231
-4
-122
209
-31
-316
-315
-118
34
-46
-184
-161
-421
-351
228
-54
-133
52
-591
-75
-479
27
-72
-256
-332
-232
-225
-386
66
-315
70
-84
-153
-77
-319
-447
-253
385
79
44
-63
-95
-387
-22
-627
-252
-272
-310
-25
15
-358
141
-397
-263
105
-476
-559
-282
-44
10
509
-729
86
-375
-225
-198
-550
-210
-180
144
-172
-347
46
67
-262
-358
-61
-419
-341
36
69
-297
-452
-162
8
118
4
-713
196
-389
-592
-12
-247
44
-498
-187
60
-389
-90
17
-149
-480
-12
31
-374
-47
-233
-351
270
-222
-135
50
-583
-309
-137
-78
-170
199
166
-2
-793
-207
-165
-250
114
124
-90
-209
-137
-280
-30
-45
-192
-147
222
-143
-63
-99
67
-99
-223
-15
-374
-166
94
-190
-48
-24
116
-320
-443
-44
-5
98
-344
-442
-279
85
-209
-134
-66
134
-69
-520
-225
-378
-554
-416
10
-168
-411
-6
-104
-870
145
-100
-108
3943
-10
-4
58
-360
-283
-169
-277
-133
-120
10
-283
282
-330
-367
406
-91
-69
-190
-268
10
173
-200
-127
0
-644
80
-141
65
-44
-76
127
-302
-513
-304
-350
-122
199
-255
214
-80
215
131
133
-268
-148
-171
91
-219
-275
-138
-284
-258
-60
-356
-110
-301
-35
119
-417
57
-57
51
-17
-183
251
277
-181
-327
45
251
-300
-53
1247
-148
164
-303
3
316
-187
-69
113
-373
-297
-332
-57
-251
-109
330
153
-186
159
20
103
-198
-1
87
294
-158
-24
-458
64
-34
-21
-347
-203
45
-403
31
34
-357
-149
-71
335
-107
-2
109
-282
-92
179
141
-379
-245
155
57
-529
210
-285
107
154
-76
-18
-291
-236
-255
-234
-64
61
181
-154
33
191
-73
-149
-266
-1
-343
-399
-90
-379
92
39
-331
327
117
-346
-417
-74
-280
19
-185
-136
-160
-4
-206
-137
-174
-130
-69
-240
276
193
-111
-386
59
136
-33
49
-428
-391
254
-183
-127
-12
-235
-334
-145
-66
-58
-77
-190
-181
-254
-426
77
97
-234
-406
-166
-130
228
-46
74
26
-85
-38
-97
-709
137
-256
237
-269
167
-315
-302
-57
-54
-13
-57
52
-126
-453
-427
50
79
-196
-248
295
18
-192
-196
544
-328
-90
-19
38
-54
325
264
-142
-602
-408
181
-37
-348
-189
-4
37
-1
-484
-181
196
23
52
-141
-134
79
-193
-410
-31
-59
-11
-58
-295
-403
-279
221
-202
-28
209
-283
242
176
-496
-403
39
-144
2
-875
-21
16
-289
-168
-17
-465
-175
-279
137
-226
-194
-66
-150
-256
-158
162
-341
-400
-453
-199
-73
-176
-169
-196
39
-78
-228
88
-110
-91
-185
-187
-10
-555
-239
-240
-389
-30
-285
-522
149
-248
-114
-326
-366
-428
-486
-96
-120
-186
-277
-378
-203
171
-320
-283
102
-234
124
-235
-334
-157
-305
-302
-508
-494
-322
192
18
-334
-89
-160
0
-221
37
-269
-38
-100
-52
-356
-556
-225
-415
-313
-122
268
-280
-222
140
-552
-196
-316
-234
-71
-178
-534
-202
26
-118
-306
-301
290
11
67
1
-463
-144
-81
-301
107
-320
7
-98
-306
-117
200
-218
-330
-340
-289
-228
-203
-304
-415
-168
-566
-239
15
-223
-157
-270
-161
-95
37
-141
85
-14
-461
-26
-160
34
94
-252
-302
-344
-137
-452
-767
36
-70
-452
-107
-169
-212
-167
-147
55
-9
-338
1
-5
-268
-362
30
-36
-52
-444
312
-134
85
-491
-124
-86
-168
-341
-162
73
120
-298
-240
-132
