421
-242
-311
268
-219
294
9
212
169
-95
98
324
-75
80
310
408
22
-37
-228
-89
2
2
0
338
-17
-47
-53
422
-304
-3
232
-15
-99
-174
43
-58
-54
-92
389
-61
-181
-293
-271
-100
-519
-338
-93
-263
22
149
306
-1
485
-127
214
-214
296
57
-129
-199
467
42
-240
124
-1
-230
57
-15
159
124
-196
-296
58
136
-35
-93
-145
-48
112
-101
46
-200
-48
166
-205
135
169
187
-64
165
251
-175
-112
-164
99
104
-65
3
-134
110
29
-43
199
130
559
-176
-182
103
3
-85
7
209
128
54
84
-484
84
55
-62
-182
106
-54
-66
-88
-125
56
-160
141
142
582
-391
-9
-8
76
-57
169
-112
-42
-148
-165
131
-42
183
-574
-68
19
141
-38
-58
-224
160
612
170
165
-383
204
184
58
-113
488
411
-379
286
187
-434
301
-8
-508
-152
-35
-342
-499
102
251
-127
-57
-503
-180
-90
610
-362
412
319
49
219
-72
-474
-137
414
-84
-358
-212
-584
78
116
-114
71
-12
351
-61
27
51
64
433
-66
-215
74
-115
84
103
353
0
165
-311
-199
-385
-407
-44
576
-44
-72
236
-762
97
9
-68
109
-69
71
458
475
44
-106
-258
-161
-145
-138
214
14
47
-313
52
-98
56
-78
-60
5
31
85
179
-503
-10
-25
91
-85
-115
-123
25
-168
0
-77
262
230
-43
24
-160
-171
26
151
199
-39
-270
-92
310
-23
214
29
10
-73
101
227
131
267
259
-366
236
-35
-31
-39
-174
149
-84
94
-2
-241
5
-362
24
-3
-92
312
214
-178
140
-189
-170
-163
120
42
-168
-96
97
-155
14
332
134
-103
-130
84
249
-243
-196
274
-168
153
-222
-140
122
151
-185
68
-112
193
-20
60
325
25
-427
45
-63
-12
295
-322
-156
-152
-24
-350
71
86
-9
-326
19
138
-228
-293
-237
-451
290
112
6
-282
150
-9
-248
336
98
130
277
22
-78
-174
127
170
-99
-194
97
-213
-254
-82
76
5
297
-138
48
181
145
126
-220
-387
-72
-448
42
-82
-247
-245
-253
-454
-117
-152
-384
463
139
136
226
54
229
-141
127
-180
317
55
131
-190
-177
-16
-354
75
229
294
60
-122
486
-232
-214
-61
187
-174
190
-5
60
61
12
33
35
-48
-13
175
-114
309
214
-381
-29
122
139
-337
-292
-79
391
-73
-62
119
71
132
17
218
87
-27
-18
-9
-101
-46
-10
44
-60
-226
50
-17
9
-135
384
-250
-123
153
-99
-182
112
98
231
-259
-283
39
127
-29
-253
-247
88
72
50
136
-22
-104
-19
250
-12
-44
-93
86
-71
132
-91
119
256
-257
-76
6
-51
-13
-202
-22
-64
120
54
-28
169
52
235
-69
-93
-109
3
89
32
120
112
-57
69
-91
307
90
424
-69
-130
143
-120
-93
42
-298
-296
-163
-92
-24
213
-183
356
-67
-14
130
123
74
96
-117
-68
-9
135
-106
151
57
-106
-45
-201
-265
142
-56
384
160
272
-150
-239
-140
-174
61
80
-18
-10
-215
561
-252
-226
21
-74
258
136
60
58
-120
-334
81
148
-182
213
-14
-203
103
-129
-115
150
392
-94
24
-329
460
318
-95
175
-157
5
414
0
-15
58
171
-120
-13
254
-308
-147
230
161
-26
-14
322
-216
-257
66
-140
-288
194
190
-369
90
37
-116
398
-152
-272
126
301
295
-86
-249
-163
190
128
152
586
-240
216
415
153
209
83
87
-437
-158
67
-210
388
38
54
90
-85
47
-278
89
622
-6
-33
123
-97
206
27
52
448
50
-42
145
183
-157
-370
304
320
45
-255
64
-133
76
66
469
155
-234
120
47
6
69
-148
96
-69
-479
27
-19
-336
294
-57
304
93
173
-55
-237
-8
-85
-103
280
-192
-32
-72
-224
252
140
7
-86
98
-159
-22
237
239
-59
38
-44
-117
-227
17
-55
261
-186
196
-368
67
21
-100
-48
-158
-190
-257
39
-106
152
345
-31
172
154
145
91
-10
-111
19
107
-6
-117
-99
-13
154
37
225
12
-162
133
-84
-55
