-23
-5
-8
-22
25
14
18
16
-13
-18
4
12
-15
31
-5
37
44
5
1
-6
16
4
12
5
-10
14
25
12
-27
9
22
-9
15
-28
-19
6
-23
-8
-18
-11
-4
-29
4
25
17
3
3
6
-6
1
-38
19
31
5
32
24
3
-7
-14
-40
7
17
19
-29
10
20
-22
20
-22
-18
3
13
1
-13
2
-30
-14
30
20
22
0
1
1
26
-10
-42
-16
-1
-17
25
-32
-12
26
1
8
-3
29
-6
17
-26
14
-11
15
-11
-23
16
-7
-21
-9
-12
-11
39
-7
-14
-5
19
-5
13
-7
-1
6
23
-3
88
-3
-16
-6
17
-26
-3
-1
17
-7
-5
-19
-15
9
4
2
16
-17
4
-10
13
38
-7
1
-45
-29
14
-33
1
-24
6
-23
15
8
15
-17
-10
7
-8
11
-12
26
23
7
25
-15
9
-7
-3
-3
-17
-16
-22
12
6
31
13
-165
15
-1
-11
5
-7
34
-3
16
4
-16
14
17
-20
17
-3
-24
11
1
-1
-16
-13
10
-25
-20
30
-11
12
-1
30
-31
-12
12
42
10
-3
-21
-15
9
-33
18
12
-20
15
-4
34
19
-14
-1
-5
-27
3
16
-19
-10
1
7
5
20
-21
31
17
-9
29
-7
-16
3
-7
-11
-4
-40
0
7
-3
14
-24
1
-12
22
30
17
10
-10
0
-3
-24
7
-20
20
15
27
36
-15
15
-4
-11
11
-5
-11
-11
-6
31
-16
-4
-35
-28
22
-21
-14
-2
-12
13
-23
-26
26
9
-1
-13
5
-6
-16
12
-1
18
17
-13
6
-15
-156
-12
-21
-16
18
17
2
-7
-20
3
-3
8
-3
18
18
-37
4
-21
2
28
13
9
-26
3
-1
10
-18
-1
-12
-10
-11
-17
22
23
10
7
-3
-17
0
-23
4
-31
-22
-12
32
-15
-4
-13
-24
21
7
6
21
-26
27
8
10
27
-32
8
-13
-9
-37
1
-5
-18
-23
-12
-6
-12
-41
4
7
-74
-1
-23
25
-25
-14
0
-14
-14
-5
26
8
-14
-14
4
-26
-13
27
-3
-11
-30
21
1
-19
4
-23
-17
7
-12
-12
9
-17
-1
-12
7
14
-10
-7
-4
5
-14
15
-35
8
27
4
-31
1
27
-27
-17
-2
29
-8
4
20
-13
-9
-8
33
10
1
-22
-6
-27
-15
16
-10
-7
11
-12
16
-4
21
-4
2
0
-49
-5
-6
-30
-10
30
21
1
29
-39
16
-9
4
-6
-9
18
-17
-25
-13
1
-18
-5
-1
-11
-29
10
-12
-1
-4
23
-3
3
-12
11
10
11
-8
-3
-6
10
-7
-12
7
15
-26
-25
-13
14
-24
24
-32
-1
-12
-23
-7
-11
10
35
-6
-1
-23
8
-5
13
0
-19
-11
-8
7
-14
6
0
13
2
-11
13
3
-17
14
-4
15
-53
6
10
-2
-4
-9
-21
10
24
17
5
4
4
0
31
6
-11
7
6
-5
-17
1
17
13
-15
-31
8
-11
35
19
7
-19
7
37
-18
5
-4
6
-39
26
-33
-11
2
27
44
-7
-15
14
-24
-26
6
-7
-23
5
-17
2
17
-24
-4
-1
32
-3
-1
-24
20
27
22
8
12
-20
6
28
-4
20
13
24
-32
-14
-10
8
-16
28
-11
-8
2
14
3
24
-1
14
3
32
9
32
21
-3
19
19
28
30
1
-20
24
-28
-17
-3
-28
5
32
11
24
20
19
10
38
-11
-10
28
16
23
-12
19
-6
14
-11
23
3
-4
10
22
39
48
-7
-14
-17
41
-10
15
8
-16
-12
4
-19
37
-16
9
4
-4
20
-7
-5
-14
-34
6
7
26
-3
-31
-13
4
-18
35
12
-18
20
26
3
21
18
0
15
-33
8
-6
7
-6
2
-28
8
14
3
-144
7
-5
-4
11
-17
-3
-33
-3
-10
7
14
-11
-4
40
-5
-2
37
-28
4
-15
12
-24
-16
18
9
2
-7
3
29
-24
-13
-10
21
-18
-22
-41
21
13
-8
8
-12
34
-4
-15
8
5
1
