612
512
-790
-1084
1343
-1093
1014
250
-300
87
48
1271
-1095
1651
-143
160
-682
-533
-557
1739
1641
-1543
738
926
-482
913
874
-746
-954
287
-382
571
663
-798
2
-420
-925
1190
1159
-1511
-217
-1248
-248
974
-181
-254
-643
-492
528
-287
-1231
404
962
-1166
36
-581
187
-1440
439
-804
-745
33
-1962
-1116
-104
539
353
-137
368
-519
-575
38
-804
-616
838
44
54
1021
121
777
-317
-228
230
1109
181
246
-926
962
370
168
72
-547
2761
-1019
411
-64
1315
-933
-210
-293
179
592
-193
-779
679
1406
-435
-115
488
886
-230
169
-1196
-1532
-596
-171
297
106
-687
1036
-439
-2414
-680
231
-447
-514
-264
517
-28
-1014
541
480
-183
-218
-707
-1231
-285
-153
-825
-1061
-23
366
77
127
62
-3718
-245
-418
-222
1156
-85
453
-499
324
374
-737
743
1487
699
-51
79
33
-591
224
207
955
503
-800
-3168
-178
-583
438
303
1519
381
1927
200
25
-613
333
-292
-20
-202
1445
881
-481
1308
596
935
-8
-332
-1895
836
-222
-82
416
129
840
-331
-375
-708
566
757
344
-331
661
505
-62
329
-126
300
-745
673
959
-7
-1320
-665
-262
1237
-82
-62
840
470
-173
8
715
632
-386
306
-195
499
-215
474
36
-22
631
238
545
-56
-339
142
-412
-292
-212
-438
36
-1116
344
-539
-1841
195
1078
-333
-281
-291
-335
-1134
-464
332
73
721
-881
766
-75
846
417
-286
158
526
50
100
118
123
-399
-696
615
-467
-896
-183
-1114
1166
636
289
-936
-544
-25
448
1188
620
-147
255
271
-862
81
942
287
1
1485
-218
-488
-355
-226
-272
128
1211
1084
-967
-635
-8254
-576
-139
672
275
-763
124
-757
-163
-303
-126
-148
56
-300
343
-450
-86
723
-152
-221
-365
218
-184
-403
-405
809
-498
113
36
-342
-3
261
-251
356
262
-345
-246
2087
-273
-815
-518
-791
-104
766
-363
-503
-177
-290
-299
306
-999
200
341
-439
-527
84
447
-417
-20
232
-523
-317
-431
-329
397
-53
-898
-73
-107
-197
-971
-89
-87
-877
804
-966
-262
-25
-847
814
411
-959
45
128
681
76
750
-242
-300
-434
-141
181
-186
-610
47
-595
-225
-1582
757
-43
303
-372
-1177
-825
-61
-49
-395
560
13
-274
537
-430
-425
-1403
426
-845
-1001
463
-7
-645
-691
49
-44
-472
-431
158
464
854
-1270
-484
-466
-683
213
222
347
-1241
58
-159
-1254
374
-448
-1015
-86
76
826
-1448
655
-209
-377
326
-103
-642
-116
-1286
191
1208
527
-954
-716
109
642
167
347
-963
-181
-250
-55
15
-334
-52
-713
-395
-105
405
-359
67
-723
24
788
693
-1239
-300
-231
-415
1001
-436
-609
71
-2419
310
-560
32
-87
114
126
89
-628
-581
-434
-129
-446
57
-44
-536
273
-60
-995
996
-793
755
-1096
604
-647
447
793
-746
-381
-207
469
69
439
128
-830
-563
257
-88
119
-74
-399
422
-77
-683
429
-637
-448
230
-300
-2510
-754
-937
353
699
-363
-1203
311
393
897
-499
527
613
580
-229
-503
-414
-518
-345
-238
80
239
-796
-70
-150
207
-76
142
523
139
168
-452
438
524
142
-558
-339
412
47
152
427
1612
-259
-377
-397
-73
-894
-53
-351
796
-53
459
69
552
419
509
181
-668
286
184
340
170
644
-87
-369
-541
-275
164
117
-467
196
-54
-193
153
352
95
-625
-201
-443
-313
321
1160
-490
-53
-373
156
970
-638
745
1178
71
358
54
300
974
-878
529
217
232
-94
-429
11
-423
-150
1047
-219
136
81
818
-669
-124
-461
-455
34
-552
70
-327
313
-480
138
-440
34
-197
262
-409
-81
760
-303
-714
260
-372
1036
240
426
-488
480
-345
964
-660
-43
-872
830
-473
-599
-22
-80
533
285
349
-608
948
-893
-386
248
-979
458
-63
-775
-155
26
276
1290
794
212
-40
-604
421
221
404
-959
161
36
796
477
566
-542
-856
9
-412
457
-89
-129
124
-913
391
-1118
580
378
456
891
174
969
-204
-646
-427
-659
43
366
-680
250
516
-305
-678
448
-39
-126
-801
-267
354
-416
183
-1900
723
-473
-90
94
635
146
-1041
-177
-20
-448
-35
