34
85
158
62
-151
165
-248
46
-302
82
206
-78
155
45
-67
-47
80
-141
-10
-179
53
-150
-131
-15
40
-31
228
-123
264
20
-67
-34
-91
78
34
40
185
77
-165
-117
-152
-207
-122
126
21
-61
-93
-2
101
-111
-111
59
-178
100
-354
-28
57
-393
129
-181
-59
148
-93
122
246
-387
196
112
189
-50
-77
48
3
-131
-8
-87
19
71
-87
-127
10
-107
41
-54
-77
-58
89
90
208
-178
50
-114
38
161
-48
-216
141
-18
-28
-90
90
80
37
210
-122
65
-43
133
85
-81
-100
-94
2
27
-166
-123
-27
102
118
-101
334
-14
190
176
-237
-76
-9
-96
129
-5
-25
7
29
-2
-9
34
-42
-4
23
18
17
5
-53
36
-47
-23
-37
14
-11
-18
-14
-17
-37
61
3
36
-52
21
41
22
-28
-13
-16
-51
41
-21
-16
-22
-38
-24
-17
33
-48
7
44
12
34
-30
-19
54
-8
48
-5
-37
51
-11
-7
11
64
-24
9
-43
-207
-161
53
-142
-175
-151
106
-151
-77
-242
217
11
-27
-39
130
-115
321
-249
43
-352
-126
406
-138
-124
-47
335
83
-79
17
68
-246
69
81
184
176
-25
84
-98
82
141
211
28
-69
-14
62
-216
318
-227
195
-176
74
2
-59
-197
-7
7
175
-214
60
22
144
-48
-18
63
-181
113
173
288
81
-130
-250
-327
54
-55
-5
131
306
16
-142
-63
-152
-289
-120
-74
121
105
-157
-81
51
-129
3
-109
-181
-168
144
-141
-43
-17
-292
95
-3
-197
-99
45
195
140
-93
-12
279
105
71
480
114
93
116
103
-57
-288
11
-25
105
93
-80
32
-107
49
21
-39
249
9
-86
-262
8
-82
400
461
-65
41
14
-143
420
109
-161
60
254
-154
87
-109
59
-186
-37
302
99
67
547
208
3
115
-317
31
-213
-130
550
46
145
187
-133
-98
127
74
2
272
-55
-40
575
-271
330
281
-335
-228
-70
81
123
-126
190
364
-154
-103
95
190
95
13
11
145
-3
-40
-28
127
99
189
-180
-151
52
57
-66
69
-4
66
-43
11
-37
1
-7
-101
121
11
54
101
-60
-32
-94
63
-83
48
-24
-38
-51
89
-6
-88
-54
28
41
-174
-57
365
-53
-91
-53
150
-23
-2
-8
-156
152
30
-5
228
-128
-20
-13
-189
-42
164
39
36
321
-51
12
121
139
60
401
-108
-287
-14
244
86
-262
-334
-80
139
-61
125
-146
25
71
-228
194
93
-55
-400
-143
-137
175
-232
22
-192
45
106
194
192
122
218
25
73
221
-74
254
568
376
0
-5
-299
-352
-325
243
-83
-289
278
-173
-51
-74
-113
-230
108
-30
-391
-11
325
154
62
-314
-604
-166
-151
174
-117
-266
60
7
-41
88
386
101
-81
-59
-149
-125
66
-38
9
367
66
197
-217
-298
127
-35
197
-334
81
54
-142
67
-20
225
93
-359
79
-231
-17
-59
359
183
115
134
265
-65
-366
-371
172
-136
-143
173
171
260
-104
-184
-102
378
-199
40
125
-19
44
-12
52
137
-103
42
161
-58
-30
127
54
121
-49
-167
123
-17
-24
8
-70
-168
-109
-34
186
83
128
-29
-121
177
39
-38
-66
-83
-85
-123
-31
91
63
86
-143
-25
31
-112
242
82
20
-102
-111
67
27
29
-61
76
56
-89
-58
21
162
-166
87
48
-79
157
54
109
249
-203
414
-83
179
-49
-203
-87
80
-121
-34
16
237
-162
-62
-423
-28
213
-171
-386
72
-137
179
-77
-60
-53
27
-186
3
-171
70
77
152
232
-99
-111
221
30
60
3
265
126
76
108
-220
-133
-93
95
-7
50
-2
-124
151
310
-147
65
138
-168
232
-12
-10
19
-139
35
74
307
168
320
-25
82
-9
170
-77
-91
220
474
133
-9
-75
-205
360
-71
-112
-37
58
-299
142
41
50
7
-34
265
57
294
331
235
340
178
6
-103
-594
-178
-58
114
-148
-431
111
44
86
-81
-111
314
-108
7
329
4
120
44
37
-58
207
73
-113
-143
186
131
109
