81
149
-205
121
205
136
-138
51
-227
132
-421
177
410
-29
69
367
-132
372
-141
-170
-677
-514
-333
-35
167
-148
-5
195
307
352
299
-325
118
28
254
425
303
54
432
6
-180
129
435
-201
235
37
-77
-136
-305
-84
79
92
42
-429
155
-338
-397
-632
-349
-510
94
226
-217
92
-126
-209
58
-162
-152
-149
291
19
482
-250
-225
200
325
605
-272
-355
-87
222
-185
23
-621
-267
496
-616
-151
-303
239
40
24
592
21
124
27
261
46
-59
-236
-394
-75
490
96
-2
-63
6
123
-50
-402
-143
-293
256
162
21
-103
-141
137
15
-124
327
-451
72
191
56
191
-600
580
481
303
-360
-115
108
188
45
-82
-358
-91
-722
-132
-189
-94
299
-360
-238
35
250
254
-396
-135
398
-277
144
166
-31
-325
113
367
-832
162
-94
792
127
-403
-207
-34
-168
801
-40
391
0
-574
-373
-154
-183
-225
31
-15
-163
60
67
-95
314
-152
159
113
-202
-48
-325
-121
115
-33
-38
282
172
116
49
-118
303
-130
-406
-327
-23
57
172
-251
212
-241
488
-166
219
-396
-59
237
438
428
160
-731
162
11
-200
-67
550
35
-345
-461
180
-347
-182
-329
-185
-408
-262
196
329
-139
211
81
745
-367
33
336
90
-182
153
-471
245
581
379
157
29
60
7
-106
93
230
-44
92
186
-53
-57
33
7
-592
421
-55
-412
-58
-85
125
298
-132
115
271
-427
137
354
456
124
161
-41
-130
-175
51
513
100
76
117
45
365
76
247
-121
114
-498
-850
255
211
-418
-63
530
374
143
-320
-3
474
-163
1156
-58
418
-589
-338
-277
-58
172
-116
-357
-66
-939
101
225
-230
161
-416
-507
-66
-17
-349
506
-5
-603
-164
-184
140
-329
-102
126
-124
-49
315
-68
-707
72
-602
-10
-118
-210
193
-216
423
-447
-133
269
256
32
139
24
-415
59
-620
-171
-388
-115
-313
137
-528
-119
-135
538
-61
48
7
11
80
222
165
85
143
194
247
18
-28
83
122
289
-411
99
143
-85
93
75
304
-285
187
-174
-181
-391
-6
-128
82
59
-541
19
44
-99
-29
-35
-88
188
-29
-119
-137
-174
-196
-72
92
327
121
-887
428
376
-440
-365
474
319
-537
-190
-145
-894
551
-5
-66
-108
-84
-217
-105
313
68
-132
282
-233
604
-271
526
20
-392
-564
133
-5
-118
-11
-173
-78
54
126
99
80
33
533
398
-183
-486
96
270
-309
327
343
-415
281
213
219
119
437
442
-80
-137
-336
-491
-15
-442
-457
-584
-456
-566
216
133
119
211
192
210
-111
-898
-244
-236
-37
-757
134
-187
126
285
-89
-252
-531
537
41
-171
110
17
-71
-88
459
261
-171
67
-97
102
581
428
60
72
-298
2
-48
-426
236
-405
194
-352
432
608
720
54
-636
-330
-27
-220
84
-329
46
136
-135
-24
57
219
291
229
-118
-109
-443
-223
573
-7
92
-15
308
-510
560
-17
250
4
-453
619
301
269
-134
360
217
-104
-233
333
174
-6
523
-113
-184
165
170
-7
260
120
191
-215
-383
47
-33
-40
-40
-31
320
-39
-72
44
-39
2
-434
188
83
-11
-418
-185
48
190
221
315
-488
-136
934
-60
439
-153
493
313
-99
-654
-104
333
-195
157
-297
-8
393
50
382
-421
70
101
-412
-79
216
-157
-375
108
-74
-23
-43
-165
42
-601
154
-107
-464
-181
-177
175
21
200
-323
87
20
164
-514
-314
494
228
276
576
0
154
449
3
-359
-150
-102
-140
76
7
326
-140
203
-219
54
73
194
45
204
-181
-111
-65
266
83
-118
276
250
233
335
51
-128
-67
9
-23
-54
258
192
475
-444
660
195
99
-305
-198
186
-96
-137
12
68
54
72
342
389
581
-169
228
136
389
247
127
-91
78
12
-24
121
-240
-23
241
43
-314
39
777
4
-33
-17
-139
89
277
-527
124
94
134
-79
422
-257
216
394
215
-522
-507
-601
180
133
-6
-79
-587
598
-227
-252
664
71
20
-623
-504
550
-215
42
-125
-428
-169
-240
