17
-238
-241
-142
120
-59
-143
150
-69
-169
23
140
40
39
10
-243
-91
-105
102
-147
-285
91
-177
-144
87
55
-22
-142
3
-85
147
67
-62
129
-121
-53
92
214
-78
115
-25
11
253
-31
205
-3
71
-45
-21
-83
6
216
-262
99
114
24
-151
65
-108
13
-42
167
175
-65
-51
16
89
73
-232
-7
-30
-95
-62
278
-220
318
169
-229
-280
-147
-24
40
-55
-44
-25
38
135
-9
66
153
80
10
-437
-83
68
18
-110
112
-81
113
-37
-66
-317
110
86
357
-66
-151
296
-78
-94
53
98
23
-111
-16
10
-51
-12
-221
94
297
-87
-234
-293
56
86
-274
-65
145
70
-28
-165
-191
-96
82
-170
-279
-72
-45
29
63
-293
-39
-301
255
160
168
83
-214
168
-25
6
111
-42
-148
65
-5
-109
-190
-104
-8
179
61
-17
36
-198
-151
134
99
-12
-95
228
-219
-1
50
-19
-124
158
60
-110
12
95
-157
-89
179
-169
-141
-253
-83
116
146
-168
282
-13
-146
-107
-461
-180
-53
11
-97
-59
376
-124
211
107
-194
1
29
16
262
69
-315
-117
341
70
156
-322
252
152
-174
-89
-4
-33
-385
-163
98
-76
24
82
-55
-204
147
-36
-82
-63
-80
-53
230
-123
-213
205
112
125
48
-275
-63
205
91
-129
-359
-227
-170
-349
369
55
70
-109
38
241
61
-90
148
-184
241
-27
-87
-29
-66
-244
110
-16
24
47
-271
-223
-84
-34
48
240
-112
-212
51
73
-7
21
112
168
-144
-398
-208
239
76
-256
-157
231
-5
-153
-24
2
77
34
11
-478
278
122
181
5675
-28
78
-525
88
-73
-34
-148
-140
-323
214
-521
-135
-117
-218
133
-46
-100
-91
118
-80
-69
-14
-390
41
-96
332
45
-51
-25
-102
13
-107
-194
-312
29
-70
110
-180
-93
-187
-92
218
273
90
-20
62
167
-108
-7
109
-84
36
-29
46
-92
-109
30
-246
-268
-295
-233
45
87
-29
51
-29
-13
-86
58
78
-65
-40
946
-69
184
-89
64
248
-100
98
19
-74
28
30
-194
-180
119
373
-80
-31
72
246
93
-82
-3
99
146
8
-9
120
10
92
201
84
-50
49
33
50
168
158
16
19
267
-105
86
78
-29
-70
3
191
-53
69
-31
47
-468
-14
-3
54
202
-131
-115
-12
22
21
-223
33
45
-38
-158
29
-4
-27
173
-49
141
70
7
-117
-74
25
21
-304
575
194
-35
283
-190
-62
52
-74
161
4
-217
39
-188
109
151
-154
-14
168
-4
83
-115
125
42
48
-151
-137
-3
206
-279
67
-44
-220
32
88
140
-214
117
-116
27
-29
-201
-7
51
12
-122
-80
139
163
-16
-360
-161
287
56
153
-266
102
73
142
277
-17
-103
15
110
56
125
146
-7
-182
-250
75
14
-93
-90
70
94
-94
-213
-329
101
84
190
87
170
-10
191
81
112
-117
56
282
89
80
-20
190
-16
-24
-60
-221
67
-71
-59
283
140
-125
18
-158
111
-76
28
-194
119
-192
-19
219
-193
18
468
-83
255
-29
52
-107
84
126
112
-284
-120
243
107
60
167
-69
16
-62
246
-120
207
62
-19
89
107
321
-156
48
-123
-116
243
37
-40
-89
315
90
244
61
36
-50
64
133
-65
-51
80
45
-51
86
-167
-5
-241
-335
23
-324
-84
-52
-114
-73
128
-26
-145
-236
-44
-5
-28
88
-152
227
-8
-72
-12
205
-49
21
101
-110
207
17
222
-186
-77
-42
86
-105
53
-219
77
-132
-308
5
216
-156
25
-19
-134
175
-65
27
271
-164
-79
-5
-7
-55
53
-171
148
106
61
47
-145
168
114
71
19
142
76
-95
73
-41
-162
248
171
-28
-94
290
-186
-59
41
195
-42
25
57
166
115
-98
438
161
-133
-104
-61
-4
-38
-48
-335
-155
127
-149
192
115
-128
147
145
3
-67
11
-164
69
123
-64
-129
90
105
-13
-229
22
199
-86
-208
-54
-106
113
-175
-89
3
185
-153
45
35
48
-25
150
-31
-23
-13
-22
-71
412
-369
-191
-149
