-275
128
646
-616
604
-174
622
193
-255
-61
-272
-22
-563
732
106
839
243
333
-158
306
708
-432
625
1214
331
661
406
-95
-1024
558
-80
-269
708
-768
525
-191
-518
-247
579
-1268
-226
-656
-251
-26
-84
-430
-87
-97
-379
-516
-306
-503
1080
-581
459
390
384
-895
-682
-225
-169
476
-263
40
-206
686
-283
245
35
-815
-493
330
-236
-402
297
268
-301
-81
580
206
-58
-34
180
513
24
-454
-293
-94
-455
68
-279
-777
2596
359
804
-573
870
-471
-535
-358
-411
79
-111
-178
6
-486
-503
-387
-864
119
-593
-346
-794
-529
-146
-58
189
-65
-558
532
-403
-416
-240
318
1022
-557
-529
729
-456
-248
-48
577
-468
-349
-159
-236
513
443
-863
-326
-488
129
146
349
424
-2025
-193
171
-669
917
-32
349
-1008
245
346
119
139
30
37
-1042
201
-447
-109
267
-294
332
303
378
-1552
-204
-293
-143
-357
304
-403
876
279
200
473
-281
87
390
-656
438
40
-463
374
679
557
22
-241
-1525
1184
-436
727
168
-118
723
185
-178
-472
123
417
120
-665
413
108
-260
84
422
-661
-433
730
661
40
-74
-810
-306
389
-63
291
981
-365
100
-718
1360
677
-263
200
-424
-172
-79
209
171
-128
74
-22
-756
489
-1117
268
124
-548
14
-168
-229
-376
265
-915
-962
-119
1807
-42
-84
296
-490
-1194
-304
84
-48
-253
-199
-475
156
-195
-1080
30
127
27
-544
15
-237
-649
29
-318
-210
-444
-589
-467
-362
468
123
-407
-618
-438
568
306
138
-14
94
408
19
-700
-378
685
394
282
928
583
-252
406
292
-367
443
1626
-874
-350
-461
-3726
-248
-554
-607
109
29
-168
274
151
174
-794
148
-856
526
1073
-878
-142
43
-288
-618
-221
-650
-55
513
68
612
-753
-48
-446
-393
-213
-744
16
233
131
200
409
-69
-19
-802
-207
-885
-1120
-302
198
364
-326
-485
123
283
-362
53
223
125
74
-41
48
-144
-352
509
-273
155
-38
-316
29
-470
-221
23
206
-696
-715
155
-95
-8192
-68
-607
189
-511
-1038
275
-171
-340
498
488
464
13
289
15
-927
-720
347
-714
-244
-380
-25
70
-160
-648
-13
85
794
-716
-141
-147
163
-231
-659
369
-217
-349
-150
-133
-299
-1009
2
-418
-802
91
13
-1091
-743
622
52
-735
-961
670
-708
63
-966
-16
-305
-180
119
202
702
-63
-94
305
-1010
68
-353
-749
-49
-202
138
-365
271
446
-722
-290
-700
-442
28
-1432
-363
325
218
-498
228
-390
360
-222
-39
-414
-11
50
-325
-505
-569
-138
-724
-1143
114
700
-428
-86
-278
-56
668
87
-733
-378
-102
-460
120
-61
-195
-59
-64
-338
2
201
-122
354
-266
-705
-171
783
-247
-38
-57
94
-509
-196
-8
-222
-362
1044
-343
97
-1176
191
-735
785
462
-855
86
-98
21
-777
39
325
-297
-678
-476
133
556
-149
-330
476
139
-834
489
-217
-461
-3
-369
-1297
-828
228
1107
350
-435
-361
464
206
-318
-506
45
678
160
-134
-322
-259
-486
-126
-804
-288
143
-336
-230
-430
-327
262
435
-8
-919
78
-85
153
288
-828
-503
717
422
-588
-312
-483
1686
-474
-227
100
-102
-40
537
193
286
-310
40
244
-133
367
220
20
-418
-132
75
408
202
297
301
238
199
-894
-522
-33
-692
-273
-544
23
-70
-567
440
109
139
200
-81
328
315
-812
268
155
711
512
371
818
-179
213
85
-70
635
177
-685
364
139
-542
26
-453
10
276
-365
60
-3
645
646
273
-329
-137
312
-2
-144
-382
380
-376
292
-207
97
-608
334
508
4
525
523
33
-567
-517
294
52
606
500
249
-345
-279
32
802
-192
-732
-59
563
397
-436
-30
-466
297
164
251
-75
123
-731
224
-367
29
287
-301
-816
44
631
438
392
116
215
316
-11
-118
121
4
-271
381
-194
12
-221
167
-232
-37
-258
-292
388
-214
-45
-588
-410
379
68
566
141
456
1111
15
-34
243
-109
-122
-53
-256
-356
-362
101
123
173
-221
182
273
-261
-778
-97
471
-987
-45
-586
597
60
139
275
309
-126
-932
-701
595
-144
80
