93
108
14
13
20
-125
-77
104
-54
-28
154
1
-47
-81
-64
2
72
-14
-6
-120
-167
19
-65
-39
-121
263
-50
87
-37
-42
9
11
47
-56
81
26
-115
102
-112
-113
-61
55
68
187
-83
-38
-57
-37
75
-140
36
-43
62
-20
-223
61
83
-47
180
15
-73
49
-7
-29
-42
-68
-22
28
-44
14
-2
-21
53
1
-23
27
-21
23
34
-15
-31
0
-55
24
10
-7
-13
14
4
-4
56
38
-10
-37
-34
-40
18
-40
-15
-66
-1
-30
-17
-16
28
-16
-2
11
34
9
-29
-5
39
26
-18
27
13
-36
-8
7
10
-15
24
-25
35
-15
20
-33
-60
6
14
43
30
-25
27
4
80
-1
-33
-27
-6
50
64
18
52
-41
-57
-13
46
-53
-63
-60
6
21
-19
15
17
19
78
29
18
53
34
28
-32
-55
50
-26
13
4
21
-41
-23
6
25
59
-63
14
22
-18
-16
-37
23
-20
-6
25
71
-65
-8
-36
-32
-37
-14
-33
-29
-118
23
-72
19
10
-14
-73
4
26
15
-35
-58
22
-8
18
-4
14
-6
-16
-38
57
14
4
35
42
56
30
14
-19
50
19
-23
-24
-7
7
64
-25
32
-37
1
-18
-11
-21
-12
-40
16
-12
26
86
-75
42
-18
31
70
44
-33
-33
-38
-39
-8
-28
-60
0
28
16
-9
-2
33
5
38
-23
14
41
-16
31
-16
9
-9
18
-15
16
-1
16
-44
-32
19
10
25
41
51
20
7
49
-45
-8
34
42
-54
-1
42
13
-23
2
32
11
1
34
17
-17
49
-26
-36
-40
19
7
-19
16
40
-19
-53
11
9
24
-35
2
80
183
-46
-183
-40
-33
88
-85
55
-83
-1
-58
36
10
28
163
9
-23
-43
-8
4
-36
74
-16
-35
-33
-240
52
53
-72
464
130
-56
-138
164
-22
121
59
-17
85
0
71
-529
66
143
-82
-52
72
35
105
152
-10
70
14
94
-117
51
122
-152
-13
-36
7
-93
185
-30
-52
71
14
-33
76
36
-87
-38
31
43
112
50
-13
-3
12
-8
-50
67
-15
66
74
-24
-38
-52
33
-35
-11
-1
8
-8
-19
36
5
65
28
-67
41
28
-47
-18
25
12
30
-57
-54
54
-67
8
-46
-29
-51
50
-44
-27
29
67
31
57
23
3
8
-17
-78
34
67
-65
140
9
-30
-45
-22
-2
11
-6
3
-46
32
-44
25
3
21
13
-15
28
-63
15
-9
17
8
-23
-51
-75
19
-34
4
3
17
3
19
39
-15
-27
44
-60
-58
-24
-59
90
-40
43
37
17
19
118
-6
27
-8
-36
-35
3
132
43
21
-29
-6
-14
-18
30
-1
-19
21
-35
-14
-6
14
-7
-40
-7
-4
9
1
-25
-55
-59
27
30
7
-15
-4
45
34
-11
-17
-23
47
-2
-32
-35
-18
-50
13
-6
12
-14
-21
49
-4
41
5
-27
-56
-35
-7
-27
-22
-30
-31
61
5
-43
-7
5
-36
-13
-65
-12
-20
10
21
-17
-20
8
-91
79
38
34
-275
28
85
-62
85
-148
65
-55
-203
-87
23
-148
59
219
101
144
-116
-25
-149
110
82
-115
139
55
-23
16
64
-86
43
35
44
657
51
-101
-146
-16
-87
66
185
1
2
38
-30
91
97
-78
-66
59
-157
269
-19
107
9
79
-56
82
-48
-98
101
-9
8
-4
-9
-28
-2
7
-40
29
1
-21
13
-9
-8
-16
-59
19
19
16
-39
-19
-5
43
-5
-26
3
-1
2
-13
-30
-12
32
-8
-1
20
-73
38
-22
14
7
-8
24
58
62
-59
-25
-25
28
-26
-2
22
7
-13
31
32
12
10
-8
-64
61
-28
-23
-15
21
-87
-92
-33
-60
-53
-6
-62
24
-27
-7
28
-143
51
52
40
24
-14
100
-13
-16
88
-53
27
6
8
6
9
27
-47
-21
3
-11
30
24
24
23
138
44
-64
64
31
-25
31
46
-75
-41
5
128
-81
-30
-51
111
15
68
45
-64
-14
-16
103
-51
13
-17
2
-73
