-5
28
-6
-9
26
32
23
21
-22
-30
-20
4
-12
21
20
66
39
28
-1
-13
27
-19
13
43
13
-7
34
0
-12
7
5
-24
33
-22
2
12
-23
-7
14
-1
-16
-8
-7
34
10
6
-19
32
-31
7
-14
23
49
26
30
35
-30
-27
-15
-20
19
11
25
-31
14
5
-11
17
-23
-15
3
6
-11
-9
35
-15
-39
48
15
37
0
13
33
1
11
-22
3
-11
-42
18
-34
-13
17
23
18
-23
22
1
13
-23
1
-8
23
5
-27
-2
-51
-33
-15
7
10
37
-38
-27
-13
34
15
-16
-5
-12
19
28
1
20
12
9
14
10
-33
-18
-3
12
3
5
-35
-12
14
-11
4
18
-10
-20
-35
15
39
-19
-4
-52
-12
30
-23
5
-24
-12
-10
23
6
21
6
-31
7
-1
8
-27
15
31
16
21
-20
3
-23
-13
-5
-25
-8
16
3
9
43
-3
-300
17
-14
2
1
11
47
-17
21
-8
-21
-11
16
-34
47
-17
-33
38
28
-12
-40
-24
3
-34
-40
-11
-13
4
-9
39
-22
-22
14
25
11
-6
-27
-30
29
-49
13
17
-30
18
-9
65
43
-22
13
-6
-22
-3
36
-28
-5
34
-14
-18
33
-50
17
50
-17
31
-32
-7
22
-24
-12
-3
-39
28
18
-25
0
-13
-18
-20
15
44
4
4
-8
-13
-18
-32
-3
-40
14
-8
32
18
-27
1
3
9
9
21
-11
-12
-5
23
-22
-37
-43
-23
29
-33
-15
-15
-31
29
-12
-9
28
33
-2
3
-4
-5
-18
22
1
14
38
-17
-18
-25
-218
0
-37
-28
21
3
13
-25
-14
12
-11
-8
-25
13
47
-6
-22
-3
-11
13
16
-4
-17
22
24
-6
-43
2
-23
-34
13
-49
10
-4
5
1
27
-36
-2
-47
-19
-30
-42
-18
43
0
-13
-31
-21
54
11
1
23
-27
28
21
13
25
-5
44
-9
-5
-49
-40
25
-29
-12
-23
27
-4
-50
-5
-1
73
-8
-21
35
-18
-29
10
-14
-19
2
60
-7
-10
-5
-8
-29
-21
38
-12
-11
-36
18
14
-28
0
-8
-16
9
-11
-20
-9
-17
-25
-28
20
15
-33
-6
-6
7
-19
26
-14
1
34
32
-16
9
21
-34
-16
-7
48
-11
4
39
-38
-10
14
33
11
12
-23
-4
-27
-24
42
1
6
-4
-1
21
15
22
-21
1
9
-36
-1
2
-45
-15
12
-7
14
33
-57
-3
-1
-15
-7
-7
23
-42
-15
-20
11
-10
-32
-11
34
1
26
-28
-5
-9
24
-1
4
-23
8
29
-12
-13
-23
-15
-12
-13
18
5
15
-31
-39
-18
33
-10
15
-12
-14
-19
7
-2
-17
17
36
14
18
-25
-22
1
7
16
-4
24
-19
-3
-7
-11
-20
11
-35
-46
5
4
-25
10
-13
9
-44
14
28
22
0
7
-15
-27
25
35
14
2
-20
-2
12
14
-12
19
13
5
-19
-25
20
5
-5
-24
6
-6
18
14
-12
-17
4
27
8
17
17
16
-31
10
-53
-17
15
17
-4
-5
-22
13
-29
-8
-9
-13
-16
34
-18
11
22
-21
17
-14
28
-20
-5
-33
15
30
32
0
27
-7
1
45
-17
23
43
22
-20
-30
28
7
-38
10
-5
-6
25
13
5
16
20
5
8
43
-2
40
39
-1
8
48
17
9
-29
-5
43
-26
-21
3
-30
4
28
18
47
5
18
13
11
-19
-19
20
30
17
-7
-2
-32
13
-24
29
10
-11
-3
13
48
56
-4
-33
0
36
22
7
18
-13
-11
11
-5
37
-20
-21
11
7
2
-28
6
-21
-36
-4
1
10
-9
-4
-25
21
-16
25
25
-25
26
38
28
39
30
13
24
-26
4
-17
44
-5
2
-19
2
2
-9
-18
14
-31
3
39
-13
-7
-41
4
2
18
14
-5
20
17
-2
-16
42
-19
21
-6
0
-35
-8
11
12
-2
-18
-4
32
-9
-36
-12
4
-42
-31
-29
26
-4
-9
29
-26
44
-22
-25
9
9
1
