-163
-82
-304
-34
-394
-261
-450
-359
24
46
-270
-323
124
-255
-192
-440
-439
-268
55
-195
-470
-108
-335
-663
-225
-360
-250
-22
15
-223
-312
-189
-459
2
-48
-76
80
-44
-281
183
-9
216
-49
-158
-157
-100
-300
-175
-119
-98
324
-230
-477
0
-352
-361
-230
91
49
120
44
-392
-171
-156
-108
-350
-189
-242
92
48
177
-151
52
-183
-256
-94
-125
-124
-277
-434
-240
-324
-201
-328
-216
-210
-230
-115
108
-492
25
14
-522
-127
-291
124
-386
66
-290
-19
14
-161
-377
-79
-112
-173
-44
47
6
-148
-2
-31
-72
63
-95
-180
17
22
-87
-159
-37
-102
-159
-1550
-219
138
-183
-298
-54
-137
-87
-365
-2
20
33
-76
-199
17
-18
12
81
-148
-164
-467
-348
-65
-34
244
-54
-493
70
-417
203
-209
-56
-287
-161
-137
-153
-28
-244
45
25
-280
-437
-104
-550
-223
204
-173
-5
87
-212
-295
-161
-152
-429
-8
-128
-342
-797
-442
164
-137
-291
-137
-633
-208
-435
-58
-37
176
-385
-70
-353
-176
-148
-70
36
-89
25
-154
-193
-60
-48
-485
-200
95
-237
-207
13
-96
-401
-371
-140
-153
149
34
-416
-42
-261
-330
-158
-270
-45
1782
-259
122
-430
-105
47
-173
-623
31
-55
-115
-129
-133
-399
320
-160
-267
251
-383
-144
-7
-230
-87
109
147
12
-463
-48
77
-305
-38
-20
171
-107
-286
-261
-63
-97
-13
-97
333
-193
-185
-292
-93
-33
-192
59
-195
-49
-136
-203
-178
-20
38
-223
-409
-211
-4
300
-181
-555
-241
-179
-69
-130
-199
122
-149
-388
-216
-82
-331
-377
50
-83
-254
-94
-292
-566
-116
-65
42
-1695
-36
-28
31
-350
-141
-64
-339
-213
-109
-140
19
-30
-461
-268
372
-50
-37
-212
-410
29
139
-361
-289
-302
-510
-94
18
67
-109
-82
-16
-115
-300
-218
-294
-175
13
46
514
-18
267
-81
-96
-599
-102
-76
-19
-208
-295
-22
-165
-72
33
-324
-124
-282
-91
0
-101
66
-58
303
-82
-186
-12
204
-104
-369
-106
178
-188
-116
1070
36
150
-580
14
14
-342
-152
139
-117
-158
-165
185
-141
-116
154
103
-454
90
45
-116
-287
36
73
246
-307
209
-461
-12
-171
12
-88
34
-125
-302
-179
27
-244
-174
-146
91
-250
51
88
-242
125
48
283
-363
11
78
60
-263
-9
-286
-133
67
-94
-84
-203
-212
-369
146
-64
117
327
-23
-163
1
-423
-73
-434
140
-410
-448
81
-306
287
376
-209
122
-152
-321
-536
37
-341
202
-195
-212
-251
-258
-101
-454
-39
71
-90
-302
115
146
-78
-121
44
-281
-30
91
-246
-522
51
-159
24
-15
-215
-152
-284
-75
131
-218
-338
-443
-90
-272
-70
53
-149
-172
75
-246
40
-22
89
-41
-116
87
-181
-350
-57
-38
218
-140
-55
-251
-360
-53
-1
-40
-1691
-17
-307
-229
-53
-129
-60
-243
-229
208
-185
10
-293
575
-290
-47
-175
-68
180
355
-11
-54
-501
-386
21
176
-272
-120
-91
-11
-102
-444
-190
30
71
112
-479
51
50
-145
-215
-236
-38
-191
8
-246
-435
-134
76
-276
-216
291
-254
183
38
-329
-178
-121
0
-38
-840
43
-66
-83
-154
-98
-233
43
-162
-144
-109
-204
-202
-119
-167
-46
100
-250
-355
-365
-157
-189
20
-60
-330
94
-15
-212
-70
57
45
-47
91
148
-490
-158
-302
-39
-210
-187
-448
143
-288
-230
-424
-183
-263
-608
-123
-193
-271
-254
-350
-231
183
-453
12
214
-91
314
-150
-459
-169
-417
-326
-247
-415
-321
-67
-94
-404
-348
-153
-3
-258
125
-359
-93
-147
-235
-141
-519
-446
-377
-431
-55
92
-36
-285
67
-369
-317
-254
0
-97
-76
-242
3
15
-113
-203
-373
130
-165
28
-75
-152
-139
-66
-243
203
-169
74
-296
-321
-49
120
-77
-393
-257
-661
-268
-180
-438
-146
-164
-404
-329
-24
-210
243
-274
-162
-63
1024
-115
-53
-147
-330
-23
79
-33
150
119
-192
-95
-102
-414
-532
-73
-89
-417
-6
-207
-158
-217
132
137
-148
-417
-255
100
-225
-236
-89
-63
-33
-296
62
-170
592
-281
-107
141
-234
-102
-310
203
121
-61
-89
-86
