-170
-307
-55
214
-499
32
-494
-295
-121
73
-19
-478
-60
-281
-127
-225
-55
-76
-22
-675
-545
282
-419
-450
-95
-551
-303
238
256
-163
-139
-197
-533
303
-329
-92
-23
-437
-414
559
-63
289
-144
-312
-164
79
-77
-4
-260
129
287
-38
-633
365
-222
-58
-264
326
-221
60
1
-139
130
91
-237
-297
-180
-61
-203
125
402
-314
-18
-37
-394
16
-120
-281
-188
-212
-74
-227
-164
-423
-155
-26
82
-347
-165
-259
-93
152
-1004
-25
-268
-38
-269
108
4
-74
-282
-245
-222
117
-128
235
63
-67
-51
-238
-39
-178
255
192
57
-180
-207
-138
86
-413
33
396
-31
-225
-248
74
20
-278
-199
0
-234
-237
90
106
-163
142
-59
-228
258
140
17
-210
-163
67
-320
607
-108
-106
-1
-653
-92
-394
291
-146
-255
-162
-350
-544
-264
20
-161
-21
9
-300
-9
-417
-294
88
869
23
-56
-217
-99
-740
-233
-468
-222
-290
-181
-290
-16
-271
-18
-463
-275
8
-493
-332
-452
-58
0
168
-513
-16
-263
-278
-24
-416
-70
-7
255
-207
-156
-294
116
-349
-270
-104
-256
-36
-52
75
-279
-282
-296
10
-5
-25
-239
96
-79
-323
-101
-181
-51
-569
-326
-63
-378
-154
-275
27
-193
-73
-150
-228
-2
-171
-143
252
-60
-173
-49
-149
-214
-148
249
-242
266
531
-221
-419
52
14
-72
73
121
-73
-191
-80
-230
5
-314
-141
-159
-71
-186
-189
-271
-184
-223
-97
-74
-29
-41
-347
67
148
107
169
-346
-185
-261
-16
146
-136
-407
-487
-471
-78
-311
23
208
-53
-413
-9
-19
-632
-137
-53
-238
-254
92
-281
-736
-131
182
19
840
-98
-99
-48
-110
-42
-137
-199
-169
-328
12
-337
45
-198
-412
215
-149
-322
51
-47
-131
-180
1
-137
-130
-578
-135
-182
71
75
-73
-248
-137
-382
-236
-32
-53
-405
-100
159
55
278
72
-338
-133
-353
-222
92
-227
-85
13
-159
-222
-41
-80
-272
-105
57
-27
-272
69
-105
16
-97
-237
-18
-10
-190
-212
-153
-13
-234
-14
-336
-267
306
-112
-71
247
-330
-57
182
-139
-93
-386
-199
-432
-118
159
86
-160
-56
-83
44
-112
12
107
281
-252
-124
-406
-69
33
-4
-276
-299
28
-176
-79
-142
-77
-33
-84
404
-138
62
157
-284
-273
81
140
-394
-138
145
210
-313
-68
-401
198
-117
124
284
-211
-72
-193
-40
-76
-170
160
-293
72
316
-151
-188
-456
199
-306
-82
-189
-189
-41
20
-164
195
-24
-426
-443
56
30
-257
-208
-132
-263
217
-87
38
55
-41
47
-190
117
19
-158
-378
25
-113
-172
-155
-326
-411
275
-35
-131
-117
-347
-82
60
-3
113
-92
-93
-376
-157
-119
-104
-163
-7
-72
106
-131
-15
-163
12
21
-202
-129
65
-572
33
-3
402
-114
137
-411
-233
174
174
-76
-202
-98
-201
-208
18
-96
-162
-71
-169
-22
-59
-143
-197
167
-170
91
131
-245
81
478
175
-18
-446
-247
24
14
-479
-256
-336
39
-215
-164
-380
-38
84
165
102
-160
61
-156
-272
7
-120
-97
-109
-200
-177
-261
64
-119
37
108
-336
-183
142
-62
-473
-86
-134
-154
-874
-200
-126
-114
-148
-101
-267
-98
-469
-212
-62
-110
-301
-154
-142
-235
143
-294
-203
-350
-245
-416
-231
-21
-107
92
-56
-130
6
-155
-28
-168
-222
-159
-254
48
-291
-156
14
-419
-536
9
-298
-257
-442
-493
-215
-463
-225
-256
-139
-235
-254
-519
155
-291
-343
-205
-100
17
-428
1
12
-217
-174
-435
-245
-336
123
60
-262
-172
-32
-189
-201
-69
-398
93
-231
-17
-324
-189
-170
-262
-182
-134
-68
32
-292
14
-564
-378
-579
44
-203
-14
-579
96
22
45
-355
-12
14
-125
-41
-261
-274
-210
30
-338
166
15
-169
22
-394
-56
104
-147
-241
-160
-255
-292
-297
-342
176
-395
-308
-309
-63
-277
-157
-366
-245
-60
52
134
-167
-19
-340
-154
-89
-90
106
-266
53
-348
-403
-321
-640
-117
-295
-135
-71
-86
-257
-119
-336
4
-124
-503
30
-65
-227
-203
-123
157
65
-322
89
-22
412
-408
32
-218
-185
-373
-263
299
-104
-122
-176
-204
