-108
295
-239
-22
-188
-9
204
210
-64
290
-338
177
-3
119
-119
84
-121
-144
-345
10
-237
-151
-217
-551
-185
-350
233
345
-314
-171
117
300
35
-123
225
22
255
157
289
-154
72
37
78
87
-141
24
291
276
-32
-55
199
-49
-90
182
-104
1
-254
44
-33
200
-315
279
256
65
-152
-218
319
11
194
-156
-255
-179
91
-41
-58
210
-28
-30
-69
-142
-208
-115
-85
199
-337
61
-32
186
214
-154
-22
-234
28
88
-35
-99
9
436
38
245
-78
-216
100
103
75
20
-19
-205
263
1
131
417
-97
-43
-251
-92
100
-27
-180
-125
-195
-80
-182
42
46
-7
220
2
197
-78
-44
-47
139
-71
40
-50
120
69
49
-64
-6
79
61
-45
-74
68
-21
133
78
-24
10
29
54
-138
2
69
-114
70
-123
-5
28
78
-182
-49
36
41
-324
-136
-9
-63
-88
134
0
-70
-13
61
34
47
-57
-202
61
-1
26
226
-30
15
-78
-255
63
101
-2
-3
55
-19
-86
-59
4
28
-131
182
11
96
171
203
46
3
35
23
65
212
-2
30
46
-61
195
-2
-68
-161
-104
301
43
-51
118
51
-92
-89
-130
42
-53
-57
-117
-62
34
84
-131
-68
7
44
202
14
332
103
-31
-87
-158
-106
61
-58
50
178
11
26
119
76
53
-23
-86
110
-211
-137
-70
-57
200
-14
-98
200
112
233
105
68
-40
-238
-310
533
-21
-43
83
289
219
-65
205
27
128
-94
-208
-88
-185
180
189
-35
-91
165
348
298
88
64
92
-119
125
-79
82
-85
-15
69
167
240
41
66
120
-106
96
168
58
-63
22
-116
62
-149
-144
-22
-17
31
-20
-89
-2
111
67
-33
-59
-104
194
120
56
24
4
53
153
129
51
-23
-49
56
76
72
49
73
-6
84
-167
-288
53
-138
-24
218
-71
45
-227
32
-148
80
-92
-29
-66
62
-38
-38
-46
-36
21
-41
37
8
-50
-28
107
-45
-25
-47
14
-37
-2
-86
60
-87
-152
215
-282
58
-3
-66
-7
225
136
7
-134
-8
269
-160
-192
280
146
-212
-147
-205
32
-95
-1
0
429
197
-129
36
-11
110
50
112
271
-125
-177
-142
164
-189
-514
74
33
-50
-122
-72
-335
120
61
-510
120
124
36
-77
-200
-64
30
106
209
-82
245
-27
92
22
-362
-192
-20
179
-120
27
-53
-141
-235
207
91
365
364
30
309
-172
-32
207
-226
-10
219
-10
-17
125
113
30
-173
222
-190
69
-319
-162
307
121
-206
-229
-97
211
-114
-111
-29
-64
-87
170
53
-47
-50
-209
-114
-109
-217
130
120
108
-39
-110
98
148
-257
231
210
-19
-249
209
-78
-167
-14
-9
-27
15
13
8
-12
-21
-15
-24
51
10
26
-24
19
0
-40
45
22
37
-84
5
47
-6
-45
-46
17
-23
-128
53
35
44
-10
61
1
-72
-40
78
10
-3
37
-27
-6
-5
-23
8
30
17
40
17
77
0
-1
-13
23
19
13
10
5
36
-14
52
37
47
-91
-146
63
-131
287
-5
553
-120
69
-141
-77
-124
48
-216
256
102
36
85
28
-87
-347
30
-21
160
-40
-128
351
156
109
7
46
105
-35
-4
-205
-416
-70
-106
-282
170
-44
-82
93
-29
-102
-33
-99
-7
18
-23
3
-280
127
155
228
89
-9
49
-404
109
375
88
-27
-264
-53
-101
106
-38
-119
-7
87
150
243
-64
-47
128
113
15
23
-3
-66
21
67
-110
-141
-24
-316
-140
56
191
-165
-90
-8
-9
1
36
119
100
66
-19
-98
-122
6
120
23
84
62
-5
-58
-88
10
14
169
36
298
-59
140
154
-256
147
35
158
21
-309
-8
-89
-34
133
-11
7
24
-72
68
6
42
92
-30
14
71
3
-54
-2
-84
-1
52
78
-24
3
104
19
14
-51
3
-17
50
54
-54
-23
-4
-68
82
7
102
-40
5
42
28
58
-101
40
6
-60
-18
-48
16
16
-74
21
-3
23
-36
64
-55
-31
-27
-88
52
66
34
-7
-44
-13
