-48
-23
29
-50
61
33
24
66
-37
-5
-11
21
-55
51
-15
52
125
39
-4
18
-6
23
16
11
-32
26
21
38
-44
22
40
3
63
-51
-22
26
-54
-32
-47
-55
-13
-52
17
4
20
19
17
75
-25
6
-46
20
78
-2
49
26
44
-32
-21
-50
-11
35
-10
-47
24
42
-42
45
-63
-17
-29
37
-4
15
20
-21
-31
64
23
32
26
5
-2
48
-15
-62
-20
-31
-36
34
-36
-57
65
-66
16
24
105
-12
52
-42
-2
-24
26
-20
-15
74
16
-33
-41
-26
-10
29
51
-59
-16
30
-41
-17
-30
-5
-16
36
2
220
38
-90
3
1
-18
16
-37
1
-27
-2
-3
-8
70
-2
-14
18
-31
11
-2
47
65
-26
5
-70
-62
48
-77
-15
-45
19
-58
33
33
14
-33
15
-3
-15
9
-9
39
47
66
43
-30
18
6
13
-63
-62
-10
-20
42
4
15
-20
-88
18
-10
1
5
-22
34
-37
42
37
-29
-7
71
-52
2
-24
-38
3
-33
-8
-23
-3
26
-64
6
59
-24
-17
-29
-1
-53
-2
28
99
-21
31
-92
-13
39
-44
49
28
-26
-16
22
136
39
-32
0
-19
-84
-2
60
-40
-21
3
36
29
24
-28
67
21
-17
-2
4
-11
32
-22
-46
21
-35
38
2
-23
28
-30
30
-35
5
36
11
-18
-32
-3
9
-89
1
-46
27
0
-15
45
-5
64
1
-41
53
23
-5
-20
-1
44
-13
15
-53
-1
13
3
-25
-21
-20
-11
-46
-30
42
27
8
10
16
-46
-27
35
10
55
17
-14
-31
-21
-413
-38
-24
-51
47
40
-9
51
-9
-63
-10
-3
32
62
57
-91
-16
-46
26
40
8
16
25
35
-24
23
-41
2
-37
17
-30
-39
72
18
43
30
-12
-16
50
-46
38
-16
-4
-48
73
-84
30
18
-30
21
21
29
29
-65
51
53
82
52
-35
8
-33
-16
-56
-16
0
-37
-11
-10
14
-22
-68
-3
9
-373
-36
-65
67
1
-33
26
5
-25
-15
-1
30
-58
-18
-13
-59
-23
79
8
-26
-24
63
-24
-35
42
-27
-68
28
14
-10
74
-21
-17
-25
-4
-39
-46
-28
9
-6
-58
22
-39
-5
29
-4
-50
-32
41
-56
-64
-20
38
16
9
21
-27
16
16
24
3
-27
-60
-15
-55
-36
49
-7
16
29
-34
29
-65
38
23
25
-7
-155
0
-7
-73
-7
6
45
22
92
-85
-13
6
1
-21
6
33
11
-18
-28
-39
-67
-63
-4
-44
-74
22
-64
-5
15
27
-10
29
-56
-14
-14
44
5
-17
-2
-13
-8
22
-1
15
19
-37
-21
34
-37
55
-75
5
3
-69
-24
0
3
78
-11
-42
15
56
10
16
41
-11
-24
-24
-75
-34
26
32
4
26
-16
15
10
-27
8
5
30
-71
18
-32
-1
-16
-5
-39
-17
19
18
32
-18
13
4
33
4
-21
20
26
-6
-22
13
21
56
-37
-37
28
1
62
2
54
-5
6
33
-55
-42
-19
39
-100
13
-55
5
37
55
39
-68
-12
79
-2
-70
4
-9
-61
2
9
-6
58
4
16
-9
64
17
13
0
61
46
49
31
34
-68
35
75
3
20
-10
-8
-31
-42
-26
-31
-59
78
-9
12
10
2
21
48
3
33
-10
84
5
50
59
-3
53
44
31
53
-27
-62
37
-32
-61
4
-59
-7
104
-1
120
9
29
47
88
-51
-18
53
20
4
-10
-4
-45
54
5
7
5
-1
63
70
53
61
1
12
-15
54
-1
34
4
-50
-8
-12
-37
49
-21
16
13
9
73
-20
-6
-11
-31
-20
-20
67
20
-84
-56
-34
-10
80
20
10
23
64
22
46
10
18
8
-22
-4
28
20
-3
4
-27
3
57
1
-197
7
-14
-9
32
-13
-21
-57
-27
8
18
60
-9
2
104
-28
-6
87
-42
40
-17
0
-73
-30
1
26
29
-49
32
7
-35
5
-17
41
-30
-15
-30
39
33
-71
-48
3
25
-37
-39
-20
-19
-39
