115
233
58
81
35
-131
-274
-4
74
-239
23
351
248
-450
105
392
173
-121
72
-133
-446
-75
-171
58
22
-40
96
269
227
436
253
-214
98
84
106
166
143
228
-81
195
-238
23
197
126
96
47
25
-123
67
-34
109
51
59
182
449
-79
-489
-100
-143
-143
273
51
-571
-156
-277
-187
75
-220
-446
100
206
-29
-115
-612
-188
-269
147
-202
142
-282
54
294
-288
-63
-210
-226
430
-573
-184
-126
-107
-117
-419
298
-2
170
-346
432
213
-166
-147
-278
-326
373
192
-1191
-220
-137
224
-561
89
37
278
339
102
27
-237
-40
131
-62
-273
-363
-174
363
352
8
114
-272
632
538
0
60
-162
43
-46
-46
-177
-560
166
-208
-97
-192
-243
404
-391
47
-52
228
-239
147
-64
392
-179
118
431
215
-85
-198
337
-51
84
-149
568
-52
-66
-267
-17
-212
978
-80
381
4
-117
-28
85
130
-310
-97
10
114
81
9
-158
11
-261
378
174
-183
-276
76
-375
131
194
39
-107
152
-266
-367
-395
128
408
-111
-791
91
134
-51
-362
185
-51
157
-52
68
-454
-167
-135
-390
-224
165
-1128
10
9
60
-102
125
155
-775
-440
121
-32
-250
-37
-189
233
-75
177
130
-489
-312
-38
-82
-576
286
187
58
-82
-793
291
230
331
241
131
143
117
-93
-145
12
205
157
86
91
-161
228
27
129
-530
32
-291
135
-262
-14
-19
340
24
289
54
-327
-253
-170
232
187
-589
121
-89
19
147
141
65
-57
91
-41
101
-226
384
-119
72
-103
-628
25
181
-147
-8
188
369
384
-138
54
78
-213
-816
182
296
97
65
110
-245
626
-170
2
46
44
-228
363
136
-21
-342
-289
69
-60
-282
53
91
-1050
331
-231
82
-154
-306
25
3
-100
-208
54
-162
-105
-508
-609
-6
-223
-14
-374
154
-10
-45
-640
77
-112
-110
13
19
126
-419
230
-121
-183
-140
-112
-460
232
-156
405
-439
20
101
-31
-177
8
-52
103
269
26
165
-111
7
-101
-14
97
70
66
-220
101
108
275
50
-232
-96
36
-257
5
46
-217
349
307
-222
-197
78
-56
-251
134
-208
106
33
-6
-38
208
4
-163
110
507
-47
-268
359
430
-122
109
202
112
-350
-7
103
39
371
270
-165
-120
68
-366
283
168
138
-168
503
27
83
1
158
-52
-177
-196
470
-73
-248
149
98
3
58
-63
210
207
-12
265
621
107
-162
18
-101
106
233
10
-380
107
93
24
-58
19
215
129
-304
-244
14
86
130
-307
-448
-268
-190
240
-390
178
230
45
150
121
-955
-177
-248
-171
-271
-115
124
-106
211
153
-14
-170
615
-96
326
150
-226
-100
-62
104
176
-203
-139
-27
-118
-190
293
-13
214
70
49
418
-355
148
-194
13
-157
463
228
497
-32
-348
-255
137
-114
217
-33
-383
36
-425
42
-101
325
77
225
242
312
-174
-137
274
4
115
-232
49
-312
237
-179
11
0
-370
132
204
216
-369
253
195
76
-141
445
137
18
239
91
47
-11
-780
80
227
112
356
-98
-168
183
-56
-255
167
-36
253
242
140
-82
152
-234
-56
13
188
291
-166
-156
-72
196
354
293
159
-183
401
-49
75
-9
350
40
-2
-413
-140
-16
-218
-115
-234
100
126
47
331
-355
218
185
-326
209
373
79
-349
386
-32
-202
154
-1
81
-409
200
29
35
-91
-460
156
167
333
-331
289
-138
95
33
-227
253
-722
-67
431
-187
63
304
-69
-229
-107
-196
-167
208
98
74
9
193
-320
-94
-66
107
188
-23
224
143
-105
200
-266
227
123
282
220
406
-179
-307
-217
3
-228
159
201
120
248
-280
258
90
-38
-240
-81
-20
-78
-30
-133
62
-45
-129
76
255
182
223
221
19
113
317
201
-213
78
-145
65
128
31
-62
40
57
-31
-382
677
-9
-154
-50
51
-65
63
-234
-164
258
-100
-59
517
-74
9
159
88
-356
-381
-259
-33
182
100
-138
-321
362
-297
-367
101
277
184
77
-208
230
-83
-209
-149
-393
-8
63
