-203
125
-181
-638
298
11
365
192
291
21
641
341
2
-586
305
7
-188
131
222
79
205
-240
468
-3
541
13
201
-425
-37
-308
543
-263
-384
-312
-175
446
173
380
295
-366
-220
401
-254
513
438
414
-130
-63
-238
-69
175
-5
366
-144
-21
-270
253
516
78
243
231
-159
438
399
154
-10
55
-87
-17
32
43
45
-151
-51
-385
29
4
-186
32
-1
418
61
-40
-10
-1
-89
-51
19
16
113
-24
10
-135
15
-78
-56
147
115
-141
97
-17
-100
402
240
-74
161
-39
-58
115
-107
2
-73
82
300
-101
-82
84
86
-31
-1
-124
-75
453
-17
-47
-127
52
16
-80
2
-63
68
-39
87
-30
-58
-102
4
-51
-13
124
-24
1
75
100
11
-90
-41
-48
-43
63
6
-35
-12
64
-31
33
39
-37
-36
-13
6
-166
10
-62
23
28
-12
-36
6
84
-68
14
183
26
-70
18
40
15
0
17
29
55
-23
37
-27
-3
-40
105
-5
-17
-52
-19
-31
8
-43
16
-16
34
16
-39
-13
47
-35
-11
48
-6
-62
-38
-62
28
13
-19
-8
-8
19
-26
-3
11
-31
-13
20
-21
-53
-8
85
-14
53
-6
-18
30
-2
-29
32
10
-87
-4
-70
20
8
-30
7
-11
-8
-2
-54
13
14
-61
10
46
27
12
-2
-60
-29
-44
-30
-145
-23
136
-11
45
-117
-57
15
-21
19
7
-74
-130
213
90
-87
-76
-1
25
-130
-91
335
27
-158
35
-63
140
-161
-67
-90
44
-33
10
49
-163
-22
64
366
17
35
77
-87
-21
-23
-8
-7
-238
-52
46
-95
29
191
-154
-43
-20
6
-23
278
73
210
-21
11
9
104
49
3
-118
2
54
-89
60
-43
-34
-56
-20
-79
41
-11
-16
-9
-28
-60
-13
-47
37
-22
121
106
91
-81
4
-10
29
-76
44
-53
-42
50
13
-6
91
56
121
-51
-68
-94
22
-142
24
82
166
56
-23
-36
56
24
5
78
91
35
85
40
34
-45
35
-37
57
11
83
57
301
256
-55
105
48
-481
15
-484
30
-112
-19
-47
-93
8
-52
215
-19
-19
-26
-71
2
118
-29
-29
-6
26
-164
-39
20
11
-15
206
17
32
361
-4
-53
-72
-40
0
155
38
-176
1
112
408
36
-28
44
14
-80
-34
-50
158
-32
3
-384
191
-119
145
-38
-128
-43
-144
68
-19
22
42
-6
37
-51
-70
31
90
-166
-11
16
36
16
8
-18
186
-29
-61
-63
-26
-118
-71
50
56
32
-38
-28
38
-1
-52
-31
175
-22
-28
-17
-77
78
22
-139
-49
112
46
-37
-18
145
3
-34
-18
11
-27
-51
62
-62
96
63
32
101
30
-42
-11
-47
90
64
-37
-64
-37
28
22
26
13
25
74
-39
-26
2
-20
-27
110
15
-45
112
6
-3
-192
-54
-20
121
-25
-31
22
3
55
57
138
-75
-96
10
-8
-41
-43
-69
26
-109
-33
-41
-5
-6
11
-58
37
150
154
-168
-62
-44
-124
-18
-48
9
-105
64
42
126
-8
-67
-361
336
103
-168
-42
28
-205
475
-63
82
8
15
181
3
3
-24
-251
-81
141
-132
64
-188
314
-22
-81
-30
273
159
48
-41
-198
231
203
328
39
247
-136
-130
49
-144
51
-87
117
33
-23
71
9
321
-181
-206
-6
127
-6
-17
-146
-109
313
92
-60
-5
313
-43
7
-34
3
50
51
-37
8
51
-125
-133
-7
72
-3
32
-27
-46
53
-177
-65
1
227
6
-122
15
21
-7
82
-37
-10
-47
40
2
66
16
36
-77
-34
111
112
13
-60
5
89
14
56
-3
88
36
-12
-63
-18
64
25
31
17
-68
49
53
-170
79
45
-27
15
-4
10
-53
58
-18
14
-8
75
-19
-4
-12
59
59
26
42
72
-44
-65
34
-24
21
16
6
-29
19
-18
32
3
420
51
1
-21
-35
-41
-70
28
-64
-55
54
-40
-54
-59
-42
63
53
-12
-75
-29
30
83
-6
-27
-27
25
-10
-47
13
-8
20
33
-3
-57
88
-3
