402
4
-51
-1083
926
-1213
1014
479
-113
-287
-132
1275
-1093
851
-298
-38
-559
-527
-260
1670
1584
-1162
614
910
-225
1154
679
-460
-1004
215
-263
718
650
-538
87
-541
-1001
1038
798
-974
-173
-869
-112
914
-117
-424
-715
-575
426
-239
-1235
-29
1005
-1197
352
-186
249
-1303
685
-355
-485
-119
-1271
-1133
5
617
71
-235
0
-698
-1043
320
-923
-535
822
378
-57
675
391
554
-9
-129
673
734
179
-122
-1033
522
141
359
-355
-108
2654
-537
499
-280
1261
-710
-242
-205
633
712
190
-443
511
-37
-611
-606
415
200
120
205
-1064
-989
-323
-44
-167
112
-390
695
-372
-1954
-634
-85
79
-668
-329
492
53
-58
152
506
-762
-208
-563
-915
-128
409
-742
-885
-120
150
-347
378
-68
-2958
-42
-14
-330
1440
-40
588
-668
409
483
-247
767
1343
434
-216
-60
-262
-514
204
-137
707
429
-935
-3698
-224
-373
372
-40
1765
268
1133
-175
-57
-108
688
-460
199
-341
991
757
-274
915
632
549
135
-151
-1473
833
-187
247
378
-277
768
-293
-581
-686
682
369
261
-398
494
359
70
474
-308
-1
-610
616
898
-260
-425
-867
-279
1418
-704
-33
604
0
65
4
1350
779
-528
523
-145
728
111
681
-60
-32
692
-22
49
-316
-817
-119
294
-575
-45
102
-676
-794
404
-759
-2072
159
1079
-369
-263
-90
-657
-1112
-630
214
278
520
-530
835
475
795
-95
-223
287
482
-13
23
94
9
129
-869
402
-718
-916
-392
-739
598
121
25
-767
-1228
-110
514
1159
403
35
124
-316
-479
-254
737
155
-179
1363
123
-32
-703
-92
-402
555
1263
753
-1351
-497
-6186
-121
-240
1056
188
-221
121
97
131
164
-355
835
-491
-4
563
-893
-33
801
158
-279
-206
219
-337
-288
323
1041
-651
234
-263
-608
16
128
-330
324
601
-172
-58
1136
-37
-794
-692
-1098
-444
990
-233
846
-175
-456
-269
357
-520
490
412
-412
187
343
217
-626
-196
413
-567
-742
-404
12
321
333
-966
-224
-246
-448
-913
-206
-297
-3573
603
-1375
56
-189
-698
705
-430
-422
314
115
580
-223
425
-183
-526
-1109
164
-329
-248
-277
92
-1040
-33
-1443
470
74
284
-612
-595
-831
27
375
-12
355
-126
103
82
113
-296
-954
841
-182
-1201
410
-251
-452
-907
740
91
-666
-708
421
89
859
-1078
-873
-395
-611
36
-61
123
-363
89
-386
-956
490
-56
-1189
-230
7
827
-1060
139
-280
-107
468
-353
-686
218
-1296
318
957
425
-293
-1007
-155
453
148
-135
-835
-210
-465
-280
-195
-72
154
-475
-299
609
1055
-439
-74
-60
176
283
375
-1153
-19
18
114
851
90
-315
-74
-289
256
-115
316
39
177
75
-190
-435
-85
-550
216
-442
-154
-211
-357
71
-86
-1016
775
-392
-88
-1051
260
-573
756
452
-491
-779
-449
425
16
302
355
-853
-418
-79
-183
-52
-198
-160
478
-60
-1253
112
-689
-406
41
-330
-2493
-438
-375
733
802
18
-806
600
406
565
-765
432
148
468
-161
-718
-389
-845
-279
-378
196
263
-618
139
-390
105
-32
373
173
-398
60
-508
-638
734
-335
-675
-39
605
-150
-118
187
1592
-259
-456
-189
505
-226
224
21
498
-17
387
459
628
137
289
335
-816
52
434
306
118
559
-1
-446
-6
-313
-186
-199
-371
223
-485
-11
-313
367
604
-327
92
243
-253
800
1298
-994
149
201
588
999
-401
1018
384
136
304
239
406
717
-714
443
193
-138
-398
-523
497
-315
-438
689
-205
424
431
617
-1253
-287
-117
-137
-54
-403
289
-166
125
-721
113
-302
44
77
518
109
-17
203
-511
-476
168
-615
875
413
780
-430
58
-379
1007
-402
-420
-569
733
-328
-466
251
-32
685
411
501
-620
830
-828
-429
-168
-543
347
-123
-336
343
117
438
921
581
341
506
-1000
334
422
360
-884
388
161
476
173
245
-410
-377
-251
-331
382
-126
-59
-71
-459
134
-346
810
349
371
802
278
908
340
-241
-44
-299
140
403
-607
-111
713
-437
-239
488
-244
191
-847
-145
211
-566
345
-1637
731
-10
308
519
547
170
-697
-511
124
-307
170
