-33
31
-16
4
32
-9
0
46
2
25
10
24
13
12
-51
7
72
-30
0
-21
-35
-44
-33
-40
-11
20
-37
44
-60
-17
27
1
2
20
-28
43
6
-9
-36
-4
-8
1
5
-7
1
-41
-14
58
8
-39
-37
-43
34
-20
2
33
-4
-77
-2
-53
2
41
-27
-56
7
33
-47
-25
19
5
-89
25
-7
-5
5
15
14
-5
-20
71
20
-18
-11
54
27
-95
-20
12
-17
49
-16
-39
4
-16
48
-44
81
-4
-3
-44
24
2
10
24
69
50
-15
11
-27
-87
-10
-19
-27
15
-19
44
-31
19
-23
-22
-13
124
-47
-18
83
-74
26
-2
-16
27
4
-49
8
-14
21
9
52
19
0
79
1
7
7
5
-41
-11
66
41
-37
73
-11
39
-81
0
-7
-69
29
18
-29
-13
18
-15
1
21
-23
76
16
-54
14
-15
28
62
-23
15
2
-52
3
-11
-6
-21
13
10
-31
-21
6
7
-15
31
-14
10
-17
-9
-25
-35
70
34
-11
58
-21
-5
-18
-18
18
-63
-17
-2
8
21
-5
26
41
-27
22
6
24
71
-103
-8
34
-44
41
15
-25
18
51
19
35
24
9
-16
23
-2
8
10
-8
-32
-11
55
-52
20
-20
-19
-17
-9
10
-46
-90
-46
18
-101
-12
10
-53
34
40
-3
-43
8
3
16
9
-34
15
73
11
23
-12
-10
49
20
-4
-2
-20
70
18
-53
-87
58
51
8
17
-14
-37
-97
-16
9
-16
21
10
29
-8
-48
-33
-38
34
-93
21
9
11
-4
9
44
55
26
-25
19
-44
46
-187
-8
-33
-3
-20
58
-23
57
-2
-21
-51
70
9
19
16
-75
24
-15
-25
5
-3
18
49
-135
-20
27
-30
16
-61
-48
-6
15
-37
-23
-42
58
-54
74
-7
4
80
27
-18
4
-27
31
18
-7
-14
2
30
-5
24
-29
27
9
30
17
-53
-8
-10
-87
-51
39
-10
67
14
15
10
-65
-16
24
21
-31
-11
-34
24
48
6
17
-42
-39
24
-30
20
-89
52
2
-25
-100
24
16
-18
62
-7
-9
10
-33
-17
-25
-48
-1
4
45
-11
25
-50
13
-41
30
30
27
37
-14
57
36
32
37
-29
2
-12
10
-16
-17
-13
-32
-60
6
-38
-5
7
-39
-59
-16
59
20
18
-10
17
34
15
-53
-25
-19
46
-9
9
35
16
3
-72
-24
-25
-89
-14
-28
37
27
-29
-75
-44
52
-27
-14
19
11
-18
-56
-72
-3
-26
-28
65
-10
-36
-88
-31
0
25
-4
-21
16
3
40
-22
54
-21
-14
26
33
32
19
11
-4
-17
-4
-2
25
6
0
-54
-2
-7
-15
28
-31
-36
26
-61
-66
8
-16
25
5
16
78
-48
-10
-38
-25
9
21
36
-2
-9
-50
-5
-40
-16
-20
-17
-61
-42
-28
0
-11
-31
21
33
21
19
33
13
27
28
-6
-6
-15
3
-7
11
15
-14
66
-1
-7
-6
7
24
35
10
-4
22
27
35
50
-5
-22
-9
-105
4
19
-142
65
54
-46
-23
-30
31
-18
-7
51
-12
0
5
70
24
-53
4
22
3
-28
16
20
0
9
29
-39
-16
88
14
37
0
9
51
-73
-93
16
-24
22
-20
-53
88
98
-19
22
-30
48
42
-36
-9
14
39
-28
-6
56
-41
4
-24
25
-16
43
38
-30
28
-4
-6
37
15
3
-17
31
42
18
17
60
-39
-26
-11
-16
4
-22
-3
24
-58
-2
-11
-6
3
33
-27
-19
-57
4
5
-7
25
-74
-10
1
20
18
-14
-27
19
8
-18
8
5
13
7
-30
4
-53
-4
53
35
12
-37
-25
-29
-46
-14
-45
54
42
2
9
-7
-84
24
36
13
22
-14
68
-96
26
25
-48
1
49
1
9
-12
-33
35
-7
16
-38
55
23
7
55
42
20
72
-39
11
2
33
-1
9
-14
9
46
-28
16
-36
-65
54
-8
32
6
-18
25
-57
81
-73
-46
115
-10
-16
42
1
-14
-38
-39
-39
-1
