72
-143
31
131
-60
176
-83
-58
103
-176
144
-235
26
416
-46
-21
72
-34
-150
-2
222
38
-21
173
142
78
205
45
-128
35
12
-441
286
-57
119
-97
25
-132
-271
-72
182
-367
-96
132
195
-25
30
-171
-163
-559
-105
-24
110
18
-82
374
-45
78
166
-44
117
224
11
-122
17
24
-33
86
-9
-181
144
37
59
-28
-69
78
-43
41
49
-20
3
-31
-28
-37
-80
25
-28
-79
-53
8
6
-54
-65
2
-48
-18
-9
49
10
71
-24
50
-73
50
55
80
5
35
33
-54
-7
-31
-12
-72
-108
-33
-78
-11
-28
56
31
-73
-14
146
-109
-50
-78
-62
-2
-84
33
-28
45
-58
-17
46
-57
-124
-30
18
32
19
102
29
2
-38
19
25
-58
44
-23
0
31
94
-65
28
72
-54
-1
26
34
32
-14
-56
40
-30
57
37
14
27
44
25
-90
15
40
38
-25
50
-2
-42
-10
-35
34
27
-11
-1
-77
27
-24
-25
7
24
-49
6
-12
4
189
-19
15
-22
-56
33
58
20
-50
-3
10
98
87
-10
-104
-131
8
96
60
78
-4
39
17
4
3
16
150
69
-27
-131
-7
0
12
0
-38
-7
-69
-50
86
8
3
-11
54
41
-65
-48
11
-28
-45
16
13
-7
-55
67
-23
-38
-22
-1
-98
-8
-26
66
-8
6
12
36
-22
49
16
124
16
58
17
4
35
-15
33
24
17
-13
3
52
-17
115
16
61
19
-39
24
62
82
23
-15
61
19
-66
67
69
-11
-62
5
10
-56
8
-43
-62
14
-50
-51
17
9
80
-64
74
-37
25
-27
36
-64
-19
-12
20
-19
-4
64
203
-182
-13
-11
-2
-23
-25
-81
42
-9
-8
63
54
-91
-153
-21
-100
47
-70
-96
70
11
-32
-64
-5
-176
42
72
-1
-74
70
40
-81
139
-107
45
-33
-55
-27
18
-39
21
-23
294
16
22
29
-6
-24
-65
-24
30
52
-8
21
68
-31
-49
-221
-163
-299
-318
54
-183
-60
-27
129
-74
17
-150
-10
28
161
-88
26
41
0
-62
-127
-47
-73
20
-133
33
-26
-48
-111
-29
-26
-179
2
95
-6
64
-212
200
78
30
-114
-70
-127
-33
-50
-43
-1
45
97
-53
52
-63
62
7
22
-52
12
-84
11
49
-161
2
-18
-234
9
59
-26
-106
53
-2
34
183
-343
-49
348
188
254
282
-252
-139
-74
67
-43
-119
110
-281
-149
-168
-158
-63
-110
-146
-197
-91
-122
155
-113
-173
154
-185
309
2
29
-337
-20
151
117
0
133
-101
246
-409
-199
-365
203
-424
-506
206
242
-129
158
17
-218
71
-129
-79
51
-285
-73
-77
58
-44
-383
46
24
-38
-47
-19
3
33
-48
71
25
-16
-31
28
-83
-74
-8
-14
-49
-20
-86
-39
72
-50
-46
23
-110
-14
-45
1
-6
-95
35
69
-20
-26
-20
21
-23
-14
-8
-61
-43
31
41
-16
12
-54
3
-11
57
-3
115
42
-17
74
-15
-26
39
22
40
-13
-21
37
37
21
-205
-128
-27
57
-65
192
39
380
18
-22
-84
57
-7
89
35
96
-50
-56
-54
-54
-96
-315
-265
-19
-2
-8
-20
12
-5
77
-74
-46
45
15
-75
-75
29
-7
-2
-105
-22
5
40
-176
-164
-121
-10
21
-1
-172
-77
-76
4
254
-92
-1
17
-93
140
66
-12
49
7
4
52
38
55
54
-105
-22
-67
74
-44
-87
67
1
-19
54
77
-28
62
-18
63
-11
88
-13
-38
30
16
23
-46
-41
27
90
-22
16
-1
-9
-89
39
23
82
100
-5
6
-86
-18
69
-80
-30
85
54
55
-10
-18
133
-13
-264
44
25
-131
-39
8
-8
7
88
44
33
90
-39
-211
-17
-29
-203
-1
12
-15
26
72
-22
104
19
69
15
-52
-7
-129
54
106
10
9
-23
-50
-21
4
-219
8
12
-49
-34
-19
23
33
0
6
-38
-26
0
-6
-55
7
-73
-129
42
-8
-8
2
-104
21
95
-33
2
35
100
-46
29
19
27
-20
6
45
