-14
51
-14
18
5
10
-32
55
-12
54
21
-1
10
-16
-32
7
73
-29
-10
-6
1
-27
-22
-30
-30
25
-43
33
-44
-20
-4
-8
-8
11
-32
17
8
-11
10
-25
-17
0
-10
8
-12
-16
18
61
5
-22
-30
-25
28
10
3
9
-3
-37
13
5
9
28
-53
-22
0
49
-61
-18
-3
35
-43
26
-16
-15
23
-22
32
38
-24
57
20
-12
30
11
6
-56
-37
7
3
25
-21
-43
-17
-27
46
-35
118
25
27
-25
7
35
-12
14
62
71
8
10
-17
-63
-4
-21
-1
17
-34
6
5
12
-15
-8
-19
100
-43
-9
33
-45
-12
-1
-8
31
-20
-42
76
-18
16
1
8
-2
17
74
24
18
42
17
-15
-39
48
27
-44
46
-18
20
-46
26
-19
-49
23
-31
15
-10
33
-23
-7
36
10
48
22
-34
72
25
35
44
-12
5
20
-7
8
-27
-34
-18
18
-4
-27
-10
-5
20
-28
38
1
-13
-23
2
-7
-18
20
18
1
44
-11
-19
-3
17
-8
-12
27
-9
14
-42
4
47
40
-7
-1
-10
32
29
-58
14
19
-35
21
1
-18
-4
68
3
19
48
-8
-19
0
-6
28
24
-11
1
-7
41
-61
20
18
-37
-23
-42
-35
-85
-57
-3
5
-36
16
20
-40
43
15
-28
-58
29
-2
31
-1
-29
50
37
18
-4
8
7
52
23
29
-30
-13
60
12
-13
-66
29
27
22
4
-14
1
-110
-2
8
-6
16
2
42
-23
41
-16
-16
29
-27
11
14
23
-2
-3
24
26
20
-11
11
-54
23
-156
2
-26
44
-9
47
-31
53
11
-9
-39
46
-1
-15
8
-41
27
-27
-22
3
-9
23
43
-149
-19
15
-20
-24
-24
-25
7
5
-13
-50
-29
42
-13
134
-15
-12
99
29
-26
-2
-27
-49
22
18
-3
7
-6
-4
21
-6
0
8
24
1
-62
-2
23
-56
-27
33
-5
32
15
-10
-21
-32
-5
15
7
-11
-19
-17
40
21
-5
9
-32
-11
-1
-21
26
-49
34
-1
-19
-52
35
18
-23
46
-34
-28
-33
-38
5
-33
-33
-3
-15
26
-7
33
-7
-2
-14
15
26
-1
26
-72
9
49
15
22
-27
23
-16
28
5
8
-20
-38
-54
-4
-47
-40
-14
-23
-60
11
48
-4
37
25
31
38
6
-61
-30
-16
23
-4
-12
42
-13
28
-51
-13
-18
-81
-24
-9
-4
17
-12
-60
-63
35
-22
-23
-8
-5
-33
-30
-17
-28
-16
13
31
-12
-54
-39
-40
-17
35
-26
-36
16
-15
14
2
48
-28
-42
-33
-18
23
6
-15
-3
-7
-6
22
-13
-10
-12
-78
16
-3
-16
15
0
-21
28
-66
46
-12
-10
42
8
1
60
-27
6
-32
-22
-15
28
-16
-15
14
-15
-15
-1
1
18
-33
-23
-42
52
-9
17
-33
-22
19
-9
-1
22
-11
-27
-8
-8
-2
-3
-32
-9
-19
-4
6
27
-4
-2
-9
-4
13
10
-7
36
38
32
4
-31
1
-7
4
-74
8
24
-86
19
48
-37
-15
-29
17
17
-1
38
-18
-4
6
27
3
-35
-16
5
6
-33
8
22
-15
20
22
-11
-18
64
-2
-10
-13
-5
18
-37
-80
24
-34
19
-12
-12
46
52
-21
5
-21
77
43
3
9
15
58
-34
2
27
-31
-1
-27
30
-12
28
-27
-13
14
-58
0
23
-19
-1
-18
22
44
14
7
56
-51
-53
7
-8
-4
-37
-2
6
-28
10
-1
-7
19
12
-27
-36
-78
7
30
-45
-6
-76
3
7
16
-29
-14
-11
-6
10
3
12
9
11
-17
8
20
-22
19
36
30
5
-29
-19
-56
-49
5
-33
-19
50
8
-30
-12
-79
25
14
54
26
-35
21
-60
31
8
-9
2
2
-15
4
-23
-36
22
-4
11
-34
38
0
-21
37
18
21
68
2
-5
-6
11
-13
43
-13
18
13
-36
19
6
-62
19
-15
25
-9
-12
26
-47
70
-54
-30
64
-37
-11
47
27
0
-4
1
4
-14
