-310
-419
140
317
-448
497
-767
-546
-278
-268
-218
-575
292
-855
-6
-93
289
369
-104
-1087
-404
717
-675
-242
201
-482
-409
218
333
-311
-59
-220
-531
299
-404
73
93
-295
-376
423
-251
302
-98
-402
94
298
279
-62
-523
-33
516
-371
-928
853
-540
431
-7
580
-326
474
6
-127
512
747
61
-170
17
-186
-235
46
-127
-120
650
447
-572
-418
-184
-708
-302
-226
-87
-246
-273
-242
-336
-388
226
-499
-172
-192
-146
16
-877
1
-226
-75
-804
482
-167
-13
-99
-487
-21
-16
-402
-182
558
-225
-286
-127
-171
-390
890
448
-169
-162
-381
-384
-315
-424
455
1664
115
-276
-137
-44
175
-460
-384
-44
-175
-571
-223
-281
-12
113
313
241
521
585
-13
-249
-19
-153
-288
760
-47
319
-327
-293
-351
-394
175
-314
-176
-322
-772
-652
-271
-279
-45
-175
-48
-229
-217
-369
-71
447
1365
-85
-200
-513
-371
-783
-528
-255
-135
-383
-445
-144
32
8
-423
-634
-465
-314
-654
-758
-375
164
452
181
-899
215
34
-227
31
-436
91
-59
143
-777
-523
-759
-163
-362
-694
-33
-128
-59
-295
213
-749
-318
-71
97
282
-29
-556
-311
-220
-739
-606
290
-500
-231
-193
-110
-94
-161
-588
-62
-483
-48
-223
-351
-285
-378
-88
174
291
-131
-318
-511
-288
-218
462
-27
-60
360
-505
-354
-64
-9
-30
212
134
342
-115
-83
-522
-37
-508
-489
-886
-511
-162
-188
-332
-175
-421
-136
-86
29
388
10
-127
119
113
107
-422
-281
-121
-7
195
151
-390
-458
-713
-274
-254
-253
179
-149
-443
-102
311
-937
123
265
-335
277
-34
-405
-406
-683
-32
179
-2749
102
-119
-470
-42
158
-432
88
-379
-168
-104
-762
-103
-46
-235
-54
-281
-549
-301
-227
-65
-272
321
351
116
-550
131
-28
-238
-128
-370
-718
219
-669
15
-333
376
-695
-236
177
47
560
90
-725
-59
-225
31
374
302
-56
108
-137
-569
165
-75
-182
70
-226
-77
-67
-181
-322
347
-250
-430
-387
335
-17
-72
-32
84
-180
-74
1134
-404
570
-147
-191
243
-447
-197
273
68
16
-656
-185
-220
-372
86
198
-177
-206
-226
13
157
27
-356
427
-454
-226
-202
-73
363
-11
-247
-406
-48
-40
-161
-370
-374
-83
30
433
-661
44
155
-164
-329
-21
-29
33
-368
-123
-109
-45
-214
-475
174
30
65
359
-453
-152
112
552
-158
-207
160
-237
-116
92
137
-342
-768
282
-359
-216
-246
-276
89
157
-450
-89
-238
-649
-512
461
490
-466
-340
-306
57
-109
-53
-187
-324
-343
253
-82
233
153
192
-553
-147
-108
-141
-448
-178
-712
462
-45
-252
65
-701
36
586
265
990
-262
108
-53
40
-209
-236
-271
-436
116
-537
-5
418
-324
-298
157
-726
-294
358
-488
283
200
356
-79
-204
-393
-378
-31
547
4
-122
-111
-164
83
-5
-200
-422
152
-106
419
292
-387
-353
371
-508
1167
119
-496
-266
249
377
409
-602
-627
-49
286
-225
-517
-397
-89
-128
-527
-546
58
7
304
283
51
-76
-116
-157
-14
-49
-108
-429
-268
-36
-58
-239
-216
-239
348
-141
-147
153
331
-788
-186
-122
-228
-967
-346
31
-45
-290
65
-206
114
-395
-25
-319
-113
-389
-278
-337
-403
260
-361
-134
-705
-271
-665
-79
-228
-27
-229
-56
-79
-256
-263
-316
-47
-556
-701
-370
71
-111
-140
-101
-214
-623
174
-32
-196
-222
-267
299
-614
-486
38
-356
-362
-163
-638
191
-232
-500
7
13
-245
-596
-59
-131
-406
-201
-214
36
-293
1204
-84
223
139
-202
-289
-447
186
-351
11
-215
18
-77
344
-315
-255
258
-395
-253
37
-122
31
-1058
-503
-403
34
-225
20
-774
-13
58
208
-456
270
70
-197
-513
-521
-129
-389
221
-921
381
73
-117
93
-348
62
562
-492
178
-263
-662
-312
-485
-117
-78
-708
110
-431
387
-618
191
-144
-187
15
214
19
-271
-148
-515
-142
-160
-19
395
-533
5
-682
-202
-192
-606
-112
-362
-47
454
-195
-31
-112
-610
-27
-397
-523
42
-70
-310
-206
-225
430
236
-826
-92
-357
993
-323
-132
-263
-222
-351
-181
289
33
-203
-106
-190
