-23
18
31
-25
15
-27
25
42
-43
-7
9
54
-49
-1
-21
15
84
38
-19
25
5
29
-9
-14
-27
50
-19
20
-33
25
27
23
20
-26
-25
18
-57
1
-37
-73
-5
-48
38
-4
26
24
-3
78
-1
-15
-21
25
35
-17
63
3
75
-107
-4
-80
26
100
0
-23
-1
19
-15
18
-50
0
-30
38
-23
-10
-1
-21
-15
-47
13
41
44
6
41
-12
4
-36
-49
6
-21
48
-25
-79
27
-69
-6
-25
70
-26
34
-31
-11
-54
22
-25
16
46
66
-19
-43
-37
-21
3
38
-17
-27
24
-15
-35
-26
3
-39
29
31
61
45
-84
18
5
-16
-17
7
-26
-53
-16
3
-31
52
26
-15
1
-34
32
13
25
30
-1
17
-11
-88
48
-74
45
-20
5
-76
22
28
25
-55
36
-3
-19
-15
-15
17
28
34
-1
-36
16
38
18
-20
-27
9
8
59
-1
-39
-20
-12
-6
-46
-17
-21
-17
-16
-38
26
-5
-12
29
27
-22
3
-20
-1
46
-31
-28
-59
-32
53
-64
22
55
0
24
-12
-17
-4
-12
39
107
-13
5
-25
21
87
-9
51
22
-31
-34
-28
104
-10
-9
53
4
-55
34
30
-6
-38
-6
-6
25
8
-17
54
2
-39
-1
11
76
-54
-68
-49
21
-28
-7
36
13
52
-10
16
-27
40
12
16
-12
-23
34
30
-93
-36
-31
40
9
-23
66
-54
53
2
-61
-42
29
30
-32
-5
31
-34
28
-3
-9
-7
20
-7
-8
2
-15
-45
-34
42
1
29
19
10
-30
10
9
-9
90
3
-29
-30
-5
-323
-51
-31
-54
33
-14
3
38
-2
-40
33
23
10
37
-7
-78
0
-70
16
30
-35
-18
70
-11
-52
31
-14
56
-48
-7
-55
10
56
55
40
21
7
-30
38
-34
17
13
-30
-60
51
-106
35
27
-29
17
16
39
32
-11
92
55
91
67
-65
-34
-35
-32
-22
23
0
5
-40
0
3
-18
-25
-22
16
-380
-35
-67
55
18
-6
26
-6
-22
-13
-21
9
-51
15
10
-54
-10
28
-11
-37
6
38
0
-122
-22
-19
-46
10
7
1
30
-29
2
-31
-8
-50
-91
-7
29
29
-39
40
-56
-60
-17
-9
-53
-49
22
-62
-38
-29
7
-10
21
15
-31
31
-13
-18
-30
-25
-45
-3
-7
-11
26
21
15
75
-9
46
-34
37
47
12
5
-95
-30
8
-18
25
-1
90
22
51
-76
-4
34
1
-34
-10
25
18
-27
10
-40
-5
-79
28
-42
-76
-68
-100
18
34
35
9
30
-38
26
-36
32
12
-33
26
21
14
25
6
-7
21
-37
-8
13
14
46
-56
-2
14
-50
15
-9
41
84
-33
33
28
-1
6
-19
53
2
-51
-8
-74
-28
19
68
-15
19
-12
1
23
-72
24
-5
44
-85
31
-18
8
15
-21
-42
4
19
26
49
-37
-18
11
12
8
-37
-11
37
19
2
16
63
50
-32
-26
67
34
58
14
5
11
-2
17
-46
-65
28
52
-82
10
1
-42
34
49
2
-45
-12
106
20
-23
8
-4
-54
14
31
-28
18
17
32
-20
69
-10
21
-17
44
45
28
26
26
-42
27
25
-26
38
4
-48
1
-2
-33
-1
-38
57
30
-9
19
0
29
66
-20
-18
-26
37
51
4
80
-16
14
-10
43
41
-21
-38
42
-10
-44
-6
-29
-3
78
9
94
10
-24
7
50
-22
-5
39
-3
-13
-18
36
-28
79
-20
1
6
-2
86
76
-35
69
-13
50
1
33
-8
56
-24
-23
-13
-5
-47
90
-37
-6
40
6
38
7
-20
6
-6
-40
-17
79
-9
-86
-51
-78
-56
53
-55
56
43
51
13
67
-48
42
33
-30
1
31
30
-35
-8
-16
5
50
14
-107
9
-13
-41
34
-19
-4
-56
-12
-5
4
69
35
-45
98
-71
11
90
-21
28
-11
24
-34
26
-29
2
-5
-13
25
6
-30
-8
-21
46
-74
22
-75
14
52
-83
-49
54
30
-3
-68
2
-19
-26
