-4
-221
-252
256
-758
9
-343
-446
-76
96
2
-359
0
-274
44
-275
-202
-146
84
-461
-619
197
-349
-762
-71
-597
-351
164
218
-185
-139
-152
-463
265
-210
-103
222
-443
-439
572
67
172
-276
-382
-105
240
18
126
-198
-82
362
43
-577
459
-288
-153
-193
286
-177
-24
57
-328
-13
103
-191
-300
-82
5
-116
112
314
-255
79
2
-334
0
98
-316
-129
-288
33
-260
-259
-507
-79
209
-72
-159
-225
-248
27
275
-1114
-7
-245
17
-455
150
-96
48
-300
-252
-126
33
-247
-138
38
21
-1
-168
180
-214
367
209
-92
-169
-254
-57
187
-412
87
181
-42
-265
-260
230
2
-430
-36
-42
-75
-413
108
110
-27
138
-63
-209
152
102
-20
-110
-163
-174
-177
488
-21
-116
-38
-572
-255
-450
46
-194
-181
-288
-349
-574
-307
141
-202
184
-70
-305
-171
-352
-456
-9
704
138
81
-104
-112
-618
-185
-486
-186
-491
-453
-67
-37
-192
42
-448
-262
-10
-627
-404
-350
-259
-39
300
-612
-1
-264
-380
-76
-532
-177
25
337
-211
-304
-293
116
-432
-317
96
-238
-221
-7
59
-218
-364
-277
14
170
-34
-346
101
-17
-486
-42
-186
118
-416
-252
194
-271
-5
-188
-73
-242
-89
-74
-403
-92
58
-118
261
-144
-319
90
-293
-147
-122
138
-263
302
413
-187
-730
-175
-75
-59
67
350
-69
-199
-9
-235
124
-339
-160
-14
-20
16
-152
-300
-164
-212
-178
-59
-312
-29
-346
21
184
102
179
-390
-188
-44
278
317
-293
-507
-594
-315
-56
-354
119
161
-145
-505
-11
-120
-763
-168
-56
-84
-354
170
-245
-746
-98
18
-57
1675
-60
11
23
-339
-121
-18
-255
-336
-182
17
-178
182
-294
-406
480
-15
-376
27
59
-80
70
-43
-74
-208
-529
-51
-233
-3
133
-121
-122
-114
-282
-366
-16
-94
-101
-313
81
189
295
129
-241
-307
-65
-197
38
-330
-236
-162
-244
-244
-178
-130
-260
-308
51
-24
-345
137
42
65
29
-334
40
230
-217
-155
31
152
-362
-84
-1600
-291
253
-281
2
423
-338
37
43
-223
-216
-452
24
-289
-28
195
178
-241
-15
25
205
-380
83
40
171
-317
-20
-433
124
111
-66
-242
-255
134
-190
-72
-129
-334
-86
81
202
-201
-106
213
-416
-291
209
242
-344
-232
237
252
-503
161
-458
254
-119
244
67
-274
-278
-296
123
-152
64
238
-276
-8
267
-143
-166
-518
212
-511
-169
-1
-383
62
54
-217
212
29
-517
-532
155
9
-78
-145
-157
-247
107
-10
-119
-84
-32
99
-315
239
8
-297
-362
82
-153
-41
-82
-283
-422
253
-29
-52
-208
-308
-158
-36
40
-125
-216
-53
-197
-254
-266
-102
-87
-121
-112
68
-72
148
-205
47
-126
-92
67
7
-656
92
-72
380
-265
147
-609
-371
91
-40
-17
-152
-25
-314
-385
-40
87
-71
-46
-251
104
-88
-143
-230
547
-187
-117
108
-148
94
759
277
33
-550
-440
51
100
-280
-338
-225
-41
-146
-217
-413
7
1
221
-83
-207
142
-246
-314
94
-107
1
-102
-256
-197
-5
65
-109
251
50
-498
-94
188
-225
-418
95
152
-165
-916
-135
14
-304
-209
-9
-333
-215
-325
-133
-328
-160
-325
-178
-211
-176
113
-436
-420
-421
-410
-286
-312
-126
-139
135
-15
-175
212
-197
33
-76
-90
36
-279
-106
-479
-305
-56
-360
-635
103
-279
-154
-480
-361
-252
-617
-210
-231
-136
-311
-377
-461
24
-343
-340
-54
-76
191
-254
-117
-65
-148
-91
-469
-315
-335
150
-51
-200
-135
49
-43
-336
-154
-402
86
-251
36
-396
-358
-337
-304
-162
-267
81
-144
-305
122
-726
-457
-610
-50
-229
-68
-632
-85
210
8
-381
-56
139
-182
24
-206
-239
-184
-146
-190
207
-119
-263
105
-375
-61
22
-76
-290
-79
-494
-362
-285
-464
-158
-244
-239
-417
-145
-460
-92
-373
-133
-97
104
128
-56
-147
-333
-69
-70
-61
129
-208
-117
-414
-380
-456
-721
-104
-168
-301
-15
-187
-175
-139
-207
-68
-36
-286
59
-46
-396
-192
-168
162
30
-375
220
90
244
-406
113
-158
-212
-339
-200
235
128
-136
-167
-223
