-25
-11
-29
0
-41
-48
-6
45
-13
-30
-3
16
-17
54
5
-24
44
15
20
-18
81
41
32
8
60
-29
-35
-56
-47
-14
44
-11
11
-26
23
-20
-38
-2
86
7
-16
48
-15
8
-17
30
-28
8
18
-37
16
13
-10
-2
-35
-22
18
-20
-41
-28
-62
31
17
38
-24
372
229
62
-53
-36
-249
-309
-289
191
-41
-26
197
-67
-79
31
-431
300
-174
175
-77
-153
-144
-705
-407
-407
48
501
215
614
91
-317
-279
147
9
-94
-435
131
-95
-159
44
120
18
637
-381
265
-110
-195
146
-616
-308
-179
-490
-142
168
470
-190
181
60
-264
-135
5
258
-369
-27
20
-3
-118
5
68
-72
-54
-65
-137
-192
35
-52
7
126
68
80
-85
50
11
-25
-31
-121
-72
-68
-260
63
22
-229
53
-22
-13
55
24
108
-69
273
64
-13
45
53
18
-73
-192
136
19
27
-191
106
162
262
-31
-68
-104
-71
-83
-119
-76
-56
-37
132
96
-71
-104
17
-6
10
27
4
11
-117
-25
4
-22
-19
15
-4
27
9
19
5
32
-20
1
-1
1
1
-2
-3
36
-38
-8
-28
9
14
-16
-25
2
-9
35
-41
-1
-59
4
7
9
-3
16
-23
10
-8
-9
-1
-35
19
2
-17
9
-7
5
-16
161
-55
13
19
92
-12
-10
-23
16
46
1
-63
-104
-358
1
-48
-51
-11
129
50
37
-347
-32
64
73
133
142
-139
-42
3
-132
-382
-359
-32
-13
86
-11
-45
32
81
-189
-26
-10
-3
-2
-31
-211
31
-214
79
67
-247
11
-140
50
81
39
24
77
203
19
-136
165
-67
5
-24
140
169
53
-55
138
-398
-129
436
148
12
-128
57
-224
206
-175
-32
-136
59
-170
112
-6
16
-345
-592
547
76
-609
582
-6
-436
-23
-88
-245
127
-52
-253
-233
-136
133
235
-81
-248
-169
-189
45
75
-286
762
111
-136
35
24
122
-203
774
-43
-86
-171
227
-329
-340
-513
-176
-442
210
-239
137
-43
229
109
-68
395
111
-20
-27
17
55
-7
-54
506
-87
13
260
-30
-132
-82
46
-93
-80
-157
145
-7
-239
-90
-187
-22
4
53
-31
-106
315
50
-111
355
30
54
18
-123
-99
-159
-85
186
-12
68
106
-212
-68
8
72
-193
6
276
313
-115
223
-16
179
-503
251
-111
170
185
88
-58
42
164
-8
9
-35
15
-57
-22
7
56
-63
37
-32
-13
-21
-63
1
-21
-19
-76
4
-45
-28
89
17
-14
144
-77
55
39
44
45
25
-34
-46
-31
-39
-57
34
18
-47
-54
-45
-4
37
115
29
-9
-3
-85
-8
13
1
-30
53
-25
-30
-4
3
0
-82
14
-4
37
65
38
-51
10
-71
-105
-69
-53
60
25
-36
42
-80
-22
58
-35
114
-26
-11
24
145
27
-86
-126
-52
3
57
69
105
75
-1
67
179
-53
-92
-56
19
175
96
-143
18
-64
29
217
-67
-24
14
-80
-208
-146
15
-81
15
109
-199
-6
76
-55
7
-3
-103
93
-16
26
278
-35
-25
481
46
105
-174
780
-504
335
275
347
-39
524
-541
28
-194
-230
15
-415
-117
265
-534
-334
-327
647
8
334
684
238
-178
77
64
249
14
6
297
55
77
-254
-81
-287
132
82
-429
728
14
-447
-75
69
399
-400
-285
340
375
12
-163
207
-551
-52
47
-221
-120
16
28
29
-5
-18
21
-17
24
29
9
9
37
-30
11
21
10
-1
-13
19
21
21
5
20
1
38
-5
-5
-3
-23
-3
-21
18
-33
5
19
-16
24
-2
1
-4
-42
-22
-3
-9
-3
-87
16
8
1
0
-3
95
-17
39
-17
-15
4
4
26
-187
15
1
-117
-2
43
39
81
-5
17
2
-31
-180
-22
19
31
-29
28
-53
107
128
-25
-30
-28
-36
38
-210
-83
5
71
-17
23
20
-43
-60
11
-5
-34
52
-33
-32
-359
29
-69
39
-146
-42
-8
13
41
-9
119
90
-38
-69
5
-312
-46
-52
-9
26
-12
7
-8
-97
-30
-195
4
-10
