1059
-121
-1128
-1591
1518
-1906
2128
798
37
14
229
986
-2108
2537
579
-689
-1724
-1719
377
2490
1232
-2062
1453
1164
-1564
1079
1433
-927
-946
207
-568
-55
1546
-960
490
-1006
-689
431
882
-1864
-516
-1452
-377
586
-347
-665
-919
-905
776
61
-1728
647
2343
-4398
834
-1101
144
-1882
53
-1144
-278
513
-3096
-2342
-888
-315
333
122
245
-815
421
167
-2412
-1189
658
1323
462
421
329
-396
175
64
604
-126
970
594
-841
211
405
455
-59
-347
3419
131
400
238
735
-790
-92
-439
-343
964
-131
-341
418
877
-1708
-293
1318
-418
-354
1312
-3282
-1592
364
407
602
656
-327
375
-810
-8947
-787
482
295
-135
-387
367
695
-396
-241
1310
-529
477
-827
-1345
-1533
-1013
-1556
-3044
-401
164
-668
756
857
-9519
-545
-1030
411
837
633
881
-686
292
271
235
1566
1323
941
1715
-518
685
138
232
374
308
-10
-1216
-6981
-557
-66
1028
1213
2056
711
2120
-117
713
801
192
-526
-643
1391
1818
1494
161
1895
2298
241
-82
-1272
-1756
2458
-1003
-820
238
-353
716
-952
515
-388
1928
1002
1530
73
719
2008
-523
-272
-529
240
-927
1167
819
167
-1744
-916
-394
2999
686
488
1703
972
-1435
472
521
-409
-771
-82
369
872
-320
974
-406
599
1072
838
807
356
-1033
-1108
215
150
1292
-46
1000
-1965
157
-632
-417
1295
1928
-423
-173
36
-326
-1203
-938
630
81
1061
-219
1329
457
2510
1272
-238
610
272
99
497
-296
-26
-386
-1016
657
-94
-1007
-174
-614
300
474
92
140
-684
-1586
54
590
581
294
-6
1753
-1103
57
194
-423
-1511
2990
-585
-813
-52
-1047
-20
704
1859
1178
342
-1145
-17219
-1042
388
1738
-580
-1318
1185
-820
326
-437
332
512
-162
-73
436
-129
388
1353
529
-161
-339
577
-654
-549
-946
779
-262
468
316
333
-55
1581
-54
885
-845
788
-1279
1710
-167
-1492
-1336
-1702
-400
1271
-461
1190
-691
-1555
-1144
-731
-745
-195
1280
-666
-117
68
-357
249
-162
-99
-439
787
-1469
-22
594
547
-1358
-474
-216
-350
-333
-108
107
-3111
1068
-1801
-322
-341
-1011
745
106
-1223
-426
-204
1550
950
371
40
34
-15
239
-648
629
-659
39
-699
745
-1128
1104
-676
319
-65
-1473
-999
14
91
-696
-26
490
422
607
-309
-1014
-665
938
-1038
-426
547
226
-222
-335
-1169
994
-333
-472
-253
598
718
-214
-392
-507
-987
556
324
-94
-4141
-390
660
-1868
17
-384
-175
-513
557
2043
-925
355
-127
192
447
-814
-1015
697
-589
254
1525
1166
-2020
-1462
1120
1056
149
808
-734
-666
-359
423
1053
-1258
-288
-574
-482
-1001
874
917
195
-114
549
-11
1322
-1062
-533
-494
-1493
1277
-1210
-2262
-836
-4280
497
-889
-247
-583
396
45
358
500
-926
919
-49
-1186
121
-435
-1032
2206
7
-1170
927
-633
-44
-1442
-302
-746
974
670
23
-1294
228
262
162
257
88
-178
-535
712
-459
-348
-946
-1107
975
798
-543
1385
-8359
-512
1016
152
-2379
-1678
-1948
878
1633
68
-534
474
774
567
-218
756
1156
267
-488
-382
-1756
-1269
-976
570
412
222
-280
-288
-223
1071
-219
115
-1289
652
212
6
-1761
389
72
-382
-1129
1633
444
326
708
2331
-203
-810
-711
120
-1302
740
-113
1030
-144
574
252
440
384
148
854
-910
62
174
1443
970
1497
306
176
-58
591
171
293
1105
43
1168
-469
669
1370
377
-657
279
164
-17
-150
669
-1238
171
-102
398
144
-534
280
924
-272
739
357
358
1398
-1041
-125
616
3
-648
-203
1307
-421
73
1171
-717
103
-456
622
-8955
329
-1126
-806
140
433
92
-822
360
-11
374
-1203
122
-2137
332
-320
-2121
1257
-18
-713
-70
507
2413
1074
120
-1411
484
-251
2203
-170
-237
-1020
653
-1458
-872
469
305
1779
232
144
-1249
1636
-643
-612
-70
-470
1062
-2
-2673
675
-1127
429
1554
869
101
-748
-90
1128
-338
297
-605
1182
-386
579
-213
833
-160
-924
542
286
901
74
28
375
-1383
59
-588
964
-487
746
1551
469
606
-775
-1367
471
-518
-188
1450
-835
865
393
-247
175
-286
366
143
-1073
-567
1905
-316
1134
-2944
959
-780
585
811
340
-311
-1098
287
674
-373
-513
