90
61
220
132
44
72
83
-272
135
265
-128
-282
-260
-74
-235
-108
235
280
44
-13
-78
-7
-82
-1
143
-220
-91
-420
552
67
-122
0
-81
-161
220
194
137
-348
71
205
-134
-237
56
-58
-268
165
7
205
96
212
144
-238
-140
323
-61
-151
-7
-458
-462
-394
-315
209
-160
-9
47
108
-105
312
-310
185
171
207
-32
279
-54
339
-472
-111
56
-272
-23
-68
118
-86
168
392
-79
206
37
-506
322
-137
-195
-213
-128
331
298
67
-236
-103
-76
-37
334
117
382
-7
-15
11
-230
450
-132
-132
-5
-170
288
-35
-279
-54
-430
384
-489
-522
295
-172
321
188
-265
-212
-331
22
-140
-124
120
135
80
17
-87
-443
-99
557
200
-243
-48
367
160
-24
33
-169
-100
-128
10
-202
332
-172
-114
140
-198
45
38
-81
-243
248
301
251
214
79
104
56
-235
-119
185
286
-48
-195
-57
149
79
94
-93
-239
233
-6
-12
60
-112
309
-264
-197
221
-47
-109
-32
91
-75
271
83
7
-11
20
-654
146
355
133
245
407
-219
111
-144
-227
126
463
116
-208
-26
-270
244
3
145
16
-120
-221
17
-265
13
182
-139
69
236
-56
314
-97
53
68
-285
-70
-4
-178
11
-47
-327
-305
-192
239
-239
374
377
66
-120
-173
-30
303
-112
230
-295
-71
235
285
91
-153
-591
-218
-341
59
307
-394
108
62
-39
-123
-201
-158
-33
-168
189
-26
68
96
231
-82
-208
243
-219
100
535
222
206
-111
281
234
-489
208
-81
-12
13
77
50
111
-28
219
-151
-341
-75
220
-138
-141
4
-164
-304
681
-196
100
-91
126
-157
-74
169
219
58
257
-310
24
85
-18
-17
-158
195
-452
-270
179
-391
400
250
362
-124
-52
-117
380
164
-43
-231
21
27
-389
151
141
-249
-121
-122
405
223
162
-245
-178
-120
-149
-128
-16
43
252
334
-300
141
-166
-6
-108
-21
52
-207
-75
148
87
-196
186
-53
255
9
266
286
300
-228
-169
-270
112
298
162
12
-72
177
430
-319
-42
24
-58
213
320
-107
158
1
203
99
-308
184
12
-229
15
366
307
-41
-19
247
-8
110
108
20
-166
-309
-132
-252
-220
53
171
112
116
438
24
-32
143
331
234
301
-141
-37
75
-327
242
86
-264
71
-239
241
-172
-57
-72
-372
-274
-48
126
647
71
312
-104
-63
-67
6
250
-63
69
16
-19
-94
-220
96
-162
-189
-267
138
62
-138
-102
558
13
88
61
-84
251
-135
-14
-35
109
-333
-236
104
-161
-141
56
82
46
58
-379
-111
-218
-96
147
202
141
160
246
-33
-323
263
-13
-29
379
387
434
201
32
273
270
-10
372
165
97
46
58
-180
100
-168
-53
-14
3
241
543
-154
95
-194
-146
292
-218
17
322
-338
-328
76
446
-143
37
-146
116
181
240
-37
-25
-97
273
-261
-354
-80
-416
150
-177
-227
50
-124
-127
117
-94
-331
63
9
-5
182
-200
-78
-178
-40
75
-283
-138
224
575
-434
-128
31
183
314
-115
94
8
-87
183
-82
-313
-26
-27
-364
-58
258
383
-539
-262
-490
225
474
6
-199
-87
-269
-253
171
-203
-160
-260
-40
-177
-81
417
68
123
-163
337
-108
142
170
9
76
-128
196
-326
135
-301
-236
143
-44
122
131
-140
485
-231
188
116
-24
151
-43
118
77
144
130
-408
-206
-225
-240
142
307
-312
461
146
-169
60
250
-41
-283
262
-265
-71
-67
430
-41
-207
256
-163
-494
-84
57
-144
282
261
-224
141
-115
-246
-138
-52
-44
-59
-296
-268
-156
-150
-49
256
27
-177
-38
-104
-95
-134
-156
-449
253
182
187
54
-65
59
-269
81
168
-4
-594
-141
-49
75
-235
-182
117
231
378
-409
-393
140
206
249
76
422
71
643
40
-159
-76
-206
-30
-1
151
-11
95
354
152
-216
-39
-37
-19
-2
-18
-205
158
-37
-220
240
-236
-53
44
-71
79
-256
-45
-282
41
81
305
10
-132
218
34
-143
197
225
146
-42
-25
-349
111
-68
-323
14
147
-367
-540
