-22
-246
-230
-51
-114
198
-156
-137
-92
-183
-217
-37
248
-168
89
-108
81
-160
58
-312
-231
244
-245
-80
137
-233
-325
-52
173
-182
-2
93
-30
-24
-235
137
73
46
-240
47
-60
136
247
-187
184
-158
33
-25
7
53
222
-78
-110
311
-51
-146
-224
240
-2
-85
11
-182
267
-68
-118
14
-8
38
-204
289
11
-65
-11
259
-167
87
8
-183
-196
-311
103
8
-31
117
-224
-28
81
-214
10
26
-155
-26
-438
-57
-195
413
-226
48
217
47
-14
-73
-84
-72
44
510
128
57
264
-118
-298
136
104
52
-38
-23
98
6
26
-342
-26
565
191
-248
-311
240
186
-285
34
126
45
-162
-279
-151
-3
52
-94
-159
22
96
80
-3
-195
-1
-226
540
63
-51
126
-218
-14
-41
219
-35
31
164
-77
-81
53
170
-99
29
-95
64
105
-257
-134
-110
635
180
-7
-112
392
-280
-40
162
-17
18
208
-33
-50
-57
88
-264
-47
128
-35
-118
-188
83
91
307
-258
186
-156
-199
-51
-374
-49
187
28
-207
-70
10
3
20
101
-233
-24
-229
-148
228
17
-479
-173
141
103
163
-502
65
-139
-151
-63
-95
30
-418
-74
215
-111
0
-175
-118
-184
-28
-73
-26
23
207
-64
406
-148
-161
227
32
-18
169
-34
138
284
358
138
-437
-133
-34
-351
298
133
155
80
-38
220
48
25
60
-428
161
-70
-220
6
-74
-196
110
204
16
-19
-116
116
250
111
152
-105
-144
-90
92
102
-153
-123
-98
-38
-25
-279
-296
305
175
-65
-173
-9
-52
-72
-13
-10
245
74
-176
-390
119
149
-5
3382
30
13
-261
88
40
-109
45
-176
-179
184
-831
-131
-261
-224
151
-2
-215
-250
147
-89
-30
95
-612
-43
-243
218
27
-57
51
-67
55
-118
-160
-345
-33
-117
45
4
184
-32
54
257
35
-53
-118
-3
181
34
-57
102
-217
-37
-71
13
-265
24
-3
-25
-190
-25
-358
220
164
-60
84
-94
-8
-87
194
191
-17
79
443
-66
245
-90
147
253
-117
16
21
-134
-163
-9
-197
-147
9
237
163
-138
150
195
-214
-8
-38
124
195
20
4
-20
121
7
178
77
102
106
-143
73
185
131
-187
84
458
-85
170
85
-116
55
-126
261
-275
86
121
97
-319
-117
18
162
394
-17
-36
72
-68
-260
103
-8
17
129
74
297
184
-38
165
-120
112
-58
-53
79
30
35
55
28
619
4
-112
206
-331
-58
52
-110
149
12
-256
91
120
145
253
-19
33
313
106
-28
-106
163
13
195
-204
-207
-144
338
-7
48
91
-100
7
87
-20
-329
64
65
-130
-17
-19
-20
-20
110
-141
-5
73
175
-168
-7
-71
122
-68
249
-322
153
-82
128
251
-20
-124
-34
74
10
20
-53
-112
-74
-172
50
76
-39
-158
6
84
18
-119
-66
162
-37
-38
141
37
-88
324
212
-70
-301
-16
104
177
3
49
133
39
-128
-131
-75
-83
11
91
250
181
40
-23
-116
265
-46
81
22
25
-111
18
170
-170
60
81
-97
234
240
-66
-93
85
252
74
-269
-78
168
153
-88
26
-42
62
48
305
-95
140
3
-171
-101
46
55
142
15
-244
-43
255
-99
128
-153
498
42
104
293
96
230
-68
82
-90
-56
-35
177
35
208
-89
-144
173
-82
-95
-411
-67
75
-382
-54
-151
-124
-43
-352
57
56
-236
14
-191
242
-35
-78
13
250
-32
-18
-76
-44
108
234
17
-25
-54
31
102
-239
42
-123
153
-167
62
-86
-35
-136
7
-454
-44
125
32
-2
61
-344
-179
-64
-49
-75
78
-321
-54
145
37
-164
4
16
71
68
-73
-165
40
174
-140
198
-243
295
-66
-41
27
105
-224
-27
-129
-58
21
3
-50
454
-173
-67
181
58
-78
-81
40
21
-220
284
-82
-18
79
131
115
74
113
253
-172
-30
19
-213
-89
-151
244
-117
92
114
53
34
-123
3
50
-99
-243
-69
-190
-48
4
51
139
117
-105
235
-319
294
-36
107
-173
10
17
32
76
156
-154
-53
-104
