58
12
-78
3
-49
17
-12
-43
66
73
-4
14
43
49
41
-31
-23
-60
-102
-43
18
-41
-23
51
-54
-13
22
20
-28
-74
-47
-86
-12
-31
-15
-88
-28
-49
93
101
95
-70
-41
79
-89
46
15
84
-42
-82
62
-73
-5
18
44
-4
81
89
-50
-43
64
96
10
-37
4
-72
-39
-37
-11
-122
-94
-65
-23
-25
-2
-37
47
-7
63
-51
-232
-35
-75
6
16
18
17
-52
85
-38
68
25
-56
10
-139
-13
44
-57
-31
48
79
-114
-26
37
72
-71
-4
-15
-4
-5
104
5
-22
-72
-29
-23
94
-4
-13
-105
-13
14
9
-34
63
55
30
-56
-16
-111
-116
67
-87
153
-875
50
-73
-207
-153
40
59
53
297
-24
19
13
-58
153
57
-265
-166
-161
217
61
123
183
-34
-18
-34
-135
13
-215
113
-43
201
-116
-108
193
-238
72
56
-238
-87
153
-57
-17
128
-225
109
89
179
-142
-16
176
186
9
242
197
-52
489
-45
-64
62
-32
-21
16
-23
8
3
6
16
-15
-5
10
19
-3
-22
-17
0
2
17
-45
-68
-44
-3
-14
39
-32
-22
41
-29
25
-10
0
24
-44
-4
29
-12
-38
2
-2
25
-71
54
-9
-5
-10
-41
36
-13
-1
-18
-50
-7
40
18
-30
29
-3
-14
-10
29
-28
-8
-5
-46
27
33
53
41
153
-18
-76
-58
-40
-26
44
33
-12
-35
-57
-62
-57
-3
94
-10
-5
-38
-4
-7
6
44
-4
128
-57
-86
-100
39
56
-42
-9
-60
5
39
-68
-71
-19
13
69
-44
-3
-134
-51
10
114
35
-70
98
72
-30
-18
-66
-31
19
39
-35
30
47
-66
94
-96
-36
177
-144
-51
40
-104
-22
-27
148
-612
58
-22
40
-66
407
-8
-38
-21
-17
110
64
-19
232
117
38
-237
-16
-28
127
73
251
171
-34
-53
113
79
-64
-112
-165
50
-73
-63
18
44
-87
66
-174
117
96
77
98
-243
38
-12
-23
148
7
102
-6
176
-57
71
49
170
34
90
-33
-138
-122
-49
56
171
-153
72
103
-6
-17
22
113
-74
-921
259
-27
-174
-37
-53
131
-185
121
-6
-111
13
28
103
127
-3
-97
101
-32
126
-147
95
-39
-84
149
-13
-160
-110
-120
-43
98
39
44
30
-29
-44
63
-196
220
10
9
-20
-171
-248
61
87
17
-55
35
12
-42
21
2
-7
27
71
20
25
22
82
-39
-26
0
-24
-43
-3
7
-2
55
19
-55
22
39
-57
48
47
50
60
42
-21
-14
28
-31
78
-2
-27
45
35
1
-10
16
-33
-16
15
15
24
-32
-35
6
-20
9
-5
-15
62
-10
-33
-39
-12
27
5
36
79
0
2
72
-97
62
22
71
-8
-19
-38
34
111
-30
-58
2
41
79
-11
31
-16
-35
9
74
6
13
7
3
53
-6
-10
-3
35
14
8
-45
45
20
-39
-48
-45
27
18
31
-47
-102
-14
-43
4
19
23
-3
-13
0
-24
52
-51
-4
-8
-3
61
5
28
-19
-15
17
-9
25
29
-26
26
-26
-49
60
61
42
64
34
-37
-7
-49
-71
69
23
-40
-84
-21
-27
-115
-2
13
46
49
-23
-5
49
-55
-5
-63
-2
2
-49
-16
-75
52
-13
-69
13
29
19
15
-83
-30
-40
53
6
91
-8
44
-15
-46
39
22
69
66
-25
-54
1
10
22
20
-89
-59
-22
94
12
5
2
-71
-37
20
8
31
89
-54
-44
-29
-43
-37
11
-19
6
46
-15
-8
-28
-6
25
-38
-18
14
-63
-59
-38
-36
-10
14
44
-25
-51
-22
-8
-1
-12
-37
-59
-63
-68
-40
14
32
-36
-9
-11
1
-12
58
-14
-52
18
-19
159
16
-5
-42
-80
42
-24
-42
75
31
-22
78
28
-101
15
-54
-41
-1
-52
15
54
-4
7
-65
-67
-6
112
14
35
40
40
-74
93
-52
-19
78
98
25
62
113
-1
-75
-95
-18
-64
-47
-125
-35
38
114
-31
125
-134
-34
37
-14
63
-44
94
61
-9
-38
-28
29
