5
47
-13
-11
-25
-46
203
24
-15
-26
-2
-70
-40
-20
44
-50
-27
-48
-54
59
46
-10
22
-72
18
-8
-46
41
-27
43
40
21
-41
31
59
16
68
13
-23
8
58
18
8
-6
92
3
-22
63
13
11
-12
90
39
43
-4
10
-29
7
-30
-4
19
45
-43
7
175
-14
-71
37
24
-8
-19
-6
162
-10
-108
-11
178
-106
8
123
-40
-69
52
-147
53
-23
14
-64
98
64
59
-123
-5
99
-116
-59
-16
-64
-107
34
186
-148
-53
-120
1
-108
16
54
-84
124
-46
153
-40
-174
-26
5
166
419
149
117
198
-8
-92
189
150
-69
-91
-76
31
2
2
-47
19
-12
11
-1
5
-33
33
-21
21
13
-13
20
-13
2
-28
25
-43
-8
8
23
78
-11
56
-6
-33
31
-6
23
-4
9
-67
54
40
7
-33
-18
18
-28
-31
-25
14
52
27
-18
-11
23
-35
-28
6
-23
30
-4
4
-16
-47
-22
-9
-12
4
-14
78
14
18
-37
19
14
37
-11
19
-28
11
9
-10
-39
12
-18
35
-44
0
23
-13
-31
19
-20
-2
-63
18
54
-51
-16
-26
22
-5
52
-61
31
3
-35
-1
2
47
5
6
-1
-30
20
-6
12
16
-19
26
-50
-9
-52
-2
-7
30
3
-15
-67
26
-19
8
5
187
-99
104
117
114
-139
-197
203
-88
-144
236
-233
-70
-6
-92
181
67
70
-51
-42
58
-36
-22
-70
-21
-126
-16
-175
77
-77
-208
285
98
0
30
299
79
170
-389
114
127
-270
-31
-55
-110
-11
-4
-47
173
-138
-115
196
-127
51
48
-379
88
-266
-23
116
141
-53
109
58
18
-20
12
9
7
14
33
-33
6
-12
40
9
-8
-35
10
18
-3
13
-16
-29
-24
69
-12
-11
47
1
-19
46
0
20
33
-14
10
10
-62
-40
-1
65
19
-2
-50
-22
10
24
-34
-76
36
25
-41
-69
10
-76
-27
-12
28
33
-22
-5
64
-168
4
5
-86
3
-975
-2
122
39
131
18
-326
30
10
-66
133
-65
-46
38
-67
-714
-10
46
95
62
-77
-7
162
8
34
24
3
-14
-91
227
58
123
66
-10
-11
-34
-255
508
-113
-80
51
10
-44
93
-10
108
-63
-10
14
126
-39
239
51
-71
139
-193
10
60
-39
14
-19
-132
-165
-85
-10
50
30
-3
-75
9
-13
-17
-68
42
27
54
-71
31
10
-80
-12
6
-69
-25
36
-7
-40
36
48
-5
6
-29
36
89
-13
25
7
30
-46
-10
53
7
12
8
58
12
9
21
31
7
-19
12
-48
-81
6
-40
-21
-9
-6
35
18
-4
-42
-27
-11
-19
19
15
-5
-6
-40
0
30
21
-14
12
-37
-26
0
36
6
7
8
-30
-54
-15
-18
13
18
-52
-67
-20
-7
110
50
18
-28
36
2
22
-13
-12
7
-15
-20
-7
15
18
17
11
-61
33
54
18
-25
27
21
17
-10
-6
-103
27
85
-9
-1
-25
-54
28
-29
49
-5
33
-7
54
-15
-11
-23
-33
-51
-12
-17
-10
-3
25
30
9
-15
10
21
12
-80
-9
-5
99
49
5
16
-36
96
-37
32
-150
19
59
-13
38
-9
24
6
26
-15
83
-2
23
-20
-26
10
26
35
-47
22
-25
-8
-13
-12
13
8
-4
15
18
-24
-16
19
-11
-19
-3
-23
-46
-79
-18
20
56
70
44
25
-39
-4
-35
4
-27
-1
-18
52
24
-15
5
-2
-49
8
-6
-33
-16
-26
-11
-1
-14
83
-27
28
39
-33
13
13
36
10
-21
41
-11
-5
47
-41
15
45
86
62
34
-97
28
-43
-11
-46
13
-60
48
-68
-4
15
46
56
7
32
75
-56
31
-101
23
-36
4
-75
-58
-115
-35
99
131
41
-54
-38
72
159
91
82
-35
46
-40
22
-126
-32
-19
-112
-25
-85
-28
-41
37
-8
115
10
-90
91
38
-29
-14
121
-6
-179
-66
16
-55
110
-243
-115
2
-131
-9
0
97
-5
-53
45
-76
-68
-58
66
35
