72
502
-230
282
39
7
-211
87
-142
163
92
26
355
-808
160
299
54
-418
124
-426
-724
-87
-80
-461
-165
-167
-642
269
62
237
352
-636
266
4
161
524
493
-317
-149
-56
-164
61
50
-181
331
-495
-34
104
139
-31
219
-59
128
209
454
-429
-536
-276
-152
-49
438
626
-160
-20
-125
-316
-193
-308
-481
-164
-93
370
-3
-645
4
-477
181
-578
13
-475
150
161
-9
-155
-111
-341
504
-524
-120
-22
-211
15
-423
381
83
-134
557
678
362
-240
-336
-71
-334
663
170
-1708
44
-8
-267
-340
-12
-111
447
410
147
341
-455
233
-81
-648
-638
209
-30
487
758
188
764
-345
273
1093
152
-24
1138
-227
316
5
-122
-289
173
-114
64
-223
-269
599
-432
96
234
396
-311
-47
-197
306
-351
-126
349
-57
64
-442
150
-163
358
-36
587
143
-90
-196
40
-204
1686
51
384
630
9
27
-41
572
351
-52
391
-701
24
74
261
-86
-138
721
254
-69
-592
-495
-584
148
190
-148
512
290
-254
-292
-725
579
310
-283
-1134
-131
-99
-382
-152
-16
23
523
-109
-56
-166
-377
170
1089
-77
55
-984
280
273
-266
-75
-84
-56
-520
-605
881
-429
-244
62
-43
187
-170
168
-247
-1055
-415
-155
-467
-736
286
422
597
-44
-895
28
-254
123
597
166
212
-35
80
36
-459
-40
527
125
219
14
17
127
3
-54
133
-231
35
-219
66
24
138
-184
400
188
-320
247
559
348
680
-452
-154
-44
878
75
62
-308
-63
60
304
-19
512
361
-212
-87
-300
-523
192
101
22
36
374
497
270
37
-299
-99
-135
602
-73
504
-570
-98
52
-361
845
-113
-109
20
924
231
451
205
-128
-195
-473
125
-267
-307
-264
428
-1530
269
-196
118
-371
-513
69
95
19
-363
-167
-579
151
-324
-984
-217
-145
174
-283
54
-31
-197
-509
240
21
98
-251
-59
197
-368
267
104
-160
-252
-21
-1038
64
-197
602
-639
545
-44
86
-257
146
49
436
465
362
275
-27
-233
160
60
89
-153
-106
-482
63
-374
-388
202
-189
-180
-25
-425
-368
275
-63
376
199
-60
260
-96
-5
46
-427
-81
-73
44
-192
-128
343
-221
-113
522
296
-209
467
544
563
234
536
881
-13
-567
-187
-137
-758
484
371
-357
-358
-45
-417
207
401
-10
-416
397
-142
115
-250
76
-29
-141
-522
721
-378
-162
-58
344
0
-15
78
128
183
-170
401
402
701
-170
-211
65
-222
173
-127
-686
410
-51
-14
-432
-9
-76
-148
-60
-499
84
227
201
-393
14
-463
242
76
-672
-156
-232
146
123
161
-1149
-32
-210
-442
315
153
-5
38
103
151
-61
-267
930
10
-40
345
-481
-182
361
209
253
-159
-277
-208
-239
-134
329
-259
388
54
29
1062
-609
500
-743
-143
-182
1018
-156
249
-39
-327
-493
12
-129
142
247
-390
-511
35
42
-22
-82
-60
232
-35
406
-78
-165
552
-161
188
-360
-125
-424
85
-136
-43
140
-350
5
300
319
-327
363
292
-32
99
761
171
-74
-1145
-231
-177
179
-1105
58
314
-144
309
-62
-83
295
9
212
196
-26
680
542
227
18
211
-289
-473
-156
35
-196
-450
-332
153
142
202
102
-85
-231
616
43
4
-14
696
127
-658
399
-198
-14
-383
56
-252
393
356
-124
-112
-462
5
202
-818
548
462
130
-1212
72
-19
-245
-79
-230
659
-660
420
-273
-297
-163
-299
319
473
123
-386
585
239
8
-217
-31
326
-1208
-463
258
43
194
270
-310
-197
-37
127
-43
449
-42
-100
-196
241
-325
188
-19
-237
173
-310
240
346
199
408
6
23
379
168
94
553
-206
-350
-262
-90
-34
-132
213
248
270
-544
425
-175
-238
-499
41
158
37
142
-231
-245
-610
-447
6
6
1153
52
-62
70
328
481
108
-541
-125
-630
27
123
-81
-268
9
-19
-215
-56
952
-287
-107
174
85
410
85
-239
-239
305
20
409
384
-109
228
293
-2
-354
-295
-287
42
-85
67
-215
-862
404
-223
155
165
146
344
299
-203
477
-4
-240
80
-342
385
30
