50
-98
-39
0
92
-19
-2
-1
-59
-158
-55
75
69
-114
-32
26
-53
-46
81
-26
80
-126
76
11
31
-111
11
-3
-25
58
-41
-168
-33
-59
84
87
-3
-18
38
10
-52
-102
56
24
-36
-71
206
36
78
16
15
67
-110
-42
17
74
-18
25
69
-82
21
-23
-33
-34
23
42
-83
-42
38
25
108
-42
22
-44
38
24
81
-104
42
-17
37
144
140
34
-26
-51
6
74
21
-61
-91
65
11
-51
149
103
115
161
27
64
71
50
42
17
-99
83
-73
-146
28
137
-19
25
-174
17
5
12
-51
-85
146
66
-7
-120
-219
60
-230
-123
94
-20
-193
297
90
-138
88
160
134
67
301
154
-173
97
41
273
-359
144
-298
100
233
-124
27
-60
234
-198
-266
-98
94
182
-3
-65
121
-350
-45
-66
-270
-195
-82
361
-60
-300
-25
-191
78
-46
-84
75
254
216
-28
172
-36
320
92
-49
-328
-98
-158
-28
50
-15
-100
-114
84
41
193
-150
-88
180
-87
312
-151
-231
-85
-63
102
-81
18
453
262
121
-216
100
-525
8
-136
6
143
-125
-36
116
112
102
77
9
-207
102
9
-4
-26
-15
-156
101
182
59
114
-42
140
68
-234
134
-414
-54
190
23
-12
169
-88
65
12
9
9
29
173
-47
81
15
53
195
-20
-12
68
20
-77
46
-58
-59
61
-5
76
52
67
46
30
-94
-56
32
-109
177
-43
-21
192
-78
-36
-226
-13
-125
247
8
251
270
97
-18
-104
-109
56
22
66
-40
-32
99
89
-16
-156
140
-11
83
-17
101
56
-130
-66
-135
-62
22
-28
65
-57
-219
54
-64
32
160
27
-11
-95
17
-13
-53
-110
16
-24
-48
26
-124
-24
-58
-14
-19
13
20
-28
-63
-379
-34
-191
34
156
70
-56
-47
-6
-119
6
-12
2
60
46
-81
-82
-202
124
170
-38
322
-19
139
-54
58
-35
-32
48
81
-19
-182
113
-60
35
7
-14
51
19
-22
52
-121
9
17
32
-112
89
-25
-116
-71
184
102
155
-92
42
-22
-159
16
58
-123
148
26
274
-16
-208
35
128
-52
125
-4
80
-50
-110
-21
28
-10
-56
142
-83
108
63
42
-14
-92
-55
102
-2
-53
-78
248
-38
25
71
130
65
-60
107
-44
-87
1
-28
-110
64
-218
20
-161
-224
15
12
73
364
19
-33
-248
-180
-28
-146
60
-269
-105
105
52
73
-8
161
-147
279
179
203
-67
-35
-102
-188
88
-98
-145
63
-54
107
-4
-22
-264
273
-102
2
-34
161
-13
14
155
5
216
-64
-63
137
229
56
101
-211
-28
-38
52
74
59
62
46
0
-40
-81
-4
242
-94
-20
-65
9
26
59
47
-19
21
-82
-32
33
44
15
6
-76
6
9
-22
64
46
34
38
9
-33
-10
10
-29
26
15
65
-9
-10
-13
-81
-63
79
10
-34
-11
-8
16
-13
-19
21
-55
7
13
-18
-252
6
-46
6
29
-12
0
1
-56
85
-25
-15
-18
-7
-31
18
-25
-52
-58
45
-64
-24
78
88
-10
22
-23
14
-32
-3
-24
-27
-50
-27
3
-25
34
41
33
-8
8
-59
-29
-38
-2
96
-49
14
-26
-22
-10
-29
30
7
47
44
51
37
-70
30
38
-47
28
16
27
183
21
-89
62
-1
6
18
-36
74
-8
-49
24
-35
-21
-8
-3
-67
-189
89
20
61
-26
352
-24
-102
-39
18
-28
14
77
-28
-17
-19
38
-15
-15
-9
-49
-31
25
-62
-72
-6
-25
-40
-21
-176
14
-39
28
-36
48
-122
32
-13
32
-78
-38
-77
38
24
16
281
-8
-216
9
124
-10
-17
-10
27
-21
32
-76
-63
-2
77
90
87
8
37
72
-31
28
12
278
-19
45
-8
6
-454
-11
-94
-121
29
-72
85
-240
-100
-56
46
-36
34
-46
-56
-21
-12
10
11
-92
-18
65
-57
-42
-16
-51
-229
-79
1
149
-3
-43
-21
-59
103
-28
27
25
8
51
37
-17
-2
33
17
-145
76
67
78
-50
43
-3
199
