40
29
-113
-912
1162
-423
859
211
37
-413
-397
877
-274
414
67
327
-462
-113
-324
994
1008
-941
467
1248
-88
1083
522
-1006
-1014
263
-198
132
991
-805
336
-56
-612
956
691
-1661
-336
-761
-68
452
37
-572
-426
-393
87
-454
-974
-218
942
-1626
160
-297
328
-1031
-8
-317
-237
203
-866
-618
104
437
-93
-267
65
-803
-1356
380
-367
-480
402
-255
-150
653
180
242
-42
53
314
569
15
-323
-348
241
-3
366
-133
-648
2975
-323
266
-352
465
-587
-305
-298
271
457
93
-538
59
-844
-462
-431
-37
124
-423
27
-1240
-644
-340
46
-133
53
-461
503
-397
-1218
-339
204
292
-799
-312
366
-186
-317
-11
180
-452
-386
-38
-471
-189
405
-903
-811
-468
38
11
-45
210
-2506
44
129
-422
1655
-40
695
-1191
66
274
-75
431
898
412
-407
176
-359
-502
292
-473
337
513
-391
-2854
-448
-560
29
-187
1599
182
877
182
403
187
435
-76
163
-490
602
341
-288
883
644
563
-137
-164
-1035
715
-99
469
396
-329
771
-91
-454
-1020
131
296
524
-539
524
274
8
317
-22
-156
-618
293
539
408
-380
-186
-301
277
-873
-260
417
-150
221
-353
1491
524
-275
334
-116
336
-303
175
-236
127
515
-420
-42
-31
-977
-188
244
-303
-48
131
-205
-1059
237
-926
-2063
23
941
-313
-418
-33
-361
-897
38
154
-150
-3
-382
345
14
-163
-332
111
235
192
-47
157
-161
-367
-188
-344
542
-608
-582
-638
-595
524
139
100
-403
-738
26
753
954
564
-160
245
-361
-637
-79
552
-493
-270
1075
326
-150
-138
270
-525
231
1459
-185
-1106
-409
-5296
43
48
-226
-45
-67
-78
142
87
269
-295
833
-756
246
667
-942
-212
413
-231
-522
-158
123
-311
-166
221
722
-193
109
-579
-543
-48
304
-4
52
214
-175
-152
958
-82
-874
-417
-1253
-457
428
-36
718
71
-328
115
-23
-350
387
144
-13
-205
313
-57
-575
-341
434
-559
-109
-491
-87
264
-298
-575
43
18
-38
-432
230
-371
-4475
398
-1174
140
-320
-998
413
-273
-621
-48
-158
494
-33
260
-158
-757
-725
205
-456
-69
-469
79
-529
-610
-915
376
-293
813
-267
-285
-617
134
301
-463
105
-107
27
-81
-217
-265
-1423
158
-462
-777
573
232
-604
-780
535
202
-917
-1097
672
-275
443
-829
-217
-639
-774
296
-206
436
-327
-29
90
-940
363
-380
-1297
-61
56
676
-810
239
-200
-71
397
-193
-323
132
-1019
-300
674
708
-277
-445
179
134
12
11
-986
-51
-435
-586
-336
-641
179
-861
-254
195
510
-717
-85
180
18
334
598
-1050
-219
-165
58
277
-158
-406
-407
-607
81
-194
570
247
124
-348
93
-275
-44
-737
-107
-458
-139
-453
-316
164
-305
-481
1051
-380
-400
-1336
-116
-573
875
241
-778
-616
-125
154
-70
289
369
-286
-245
-11
-274
24
-347
-243
29
54
-1016
-61
-354
-713
215
-564
-3003
-684
-387
832
323
-356
-245
634
207
146
-402
89
192
387
-291
-698
-1046
-541
-19
-304
5
476
-237
-69
-24
-31
-13
158
376
-598
-254
-566
-643
650
-239
-653
-29
514
-268
10
37
1662
-206
-233
-76
181
-66
392
105
831
-56
-105
-24
379
-136
-111
195
-736
175
213
760
151
750
-25
-223
-42
-566
-384
11
-525
-155
-146
-44
-332
-30
317
-275
357
217
-401
952
1047
-747
509
452
736
961
194
583
130
302
-50
161
150
754
-706
645
480
22
-195
-455
600
-477
-362
177
26
714
341
542
-662
-403
245
66
-265
-105
243
-104
364
-733
297
-355
342
153
67
331
238
7
-490
-407
229
-575
1095
792
917
-457
12
-532
1064
-367
-499
-220
547
-404
-574
-47
-173
182
482
270
-512
330
-677
-393
17
-371
372
53
-553
23
337
10
436
318
257
620
-668
453
639
511
-84
457
19
498
145
-324
-389
-818
-150
-186
429
-65
-299
-99
-324
-15
-283
433
677
573
1153
-182
458
249
-144
93
297
-50
220
-321
-21
766
-392
-310
292
47
132
-598
-454
618
-896
-137
-1193
469
-464
292
89
773
194
-1044
-411
-52
149
35
