-463
-471
325
325
-575
529
-601
-319
-76
-215
-173
-753
437
-924
-14
-212
246
150
83
-1020
-708
672
-588
-376
186
-580
-554
260
320
-246
7
-337
-389
270
-279
117
186
-636
-645
449
-155
439
18
-528
-14
-9
409
14
-422
54
381
-378
-690
417
-223
152
-170
425
-365
304
194
-219
603
428
-96
-351
-263
-148
-321
55
76
-72
275
68
-566
-8
-230
-610
-231
-502
82
-93
-333
-620
-241
-348
339
-734
-282
-155
-250
77
-1211
343
-318
-44
-655
362
-30
59
-153
-432
-143
238
-485
-709
175
-150
-340
-538
-60
-363
557
569
92
-52
-282
-248
55
-715
150
678
200
-235
69
77
32
-327
-99
431
-453
-404
30
-26
221
434
82
-81
343
231
-215
-368
-88
-155
-228
903
-26
264
-134
-633
-89
-462
155
-220
-197
140
-568
-774
-349
-197
-106
-267
162
-266
-307
-755
-301
327
662
6
57
-414
-278
-778
-476
-681
-358
-120
163
-246
-26
-91
-140
-739
-583
81
-707
-441
-589
-75
125
641
-673
51
-76
-335
-120
-537
119
-25
157
-575
-505
-332
49
-607
-410
-124
-184
-134
-335
348
-546
-521
-109
386
156
-57
-656
-219
-218
-657
-485
-22
-204
-445
-394
19
-406
-14
-451
31
-291
-91
-190
-405
-288
-458
-155
56
-107
112
-10
-101
137
-213
371
-221
114
553
-294
-389
-1
-23
15
122
371
238
-343
-181
-425
345
-535
-132
-588
-408
-112
-189
-413
-219
-230
-197
-212
121
255
-327
32
292
-86
458
-654
-469
-276
193
51
-36
-258
-611
-545
-93
-288
-298
239
-133
-624
-241
-86
-835
-44
235
40
91
-4
-245
-513
-690
194
249
-262
221
-87
-355
-237
366
-341
355
-143
-19
-133
-188
-304
-13
-408
128
-171
-488
-136
-126
-35
-201
-61
-35
68
-628
79
-117
-236
-18
-154
-343
-5
-452
-319
-48
47
-867
62
196
154
116
-36
-571
5
184
-21
43
55
-241
405
-170
-425
28
110
-167
-351
-56
-83
-145
49
-78
144
20
-379
-223
186
-70
-113
-94
341
-132
-172
480
-472
296
-21
-192
250
-539
-333
384
-159
-250
-448
-157
-451
-28
21
-36
75
-308
-35
178
-133
146
-115
579
-462
-141
-266
-3
590
168
-59
-43
101
-394
-167
-49
-351
59
75
559
-463
276
271
-348
-198
136
100
-119
-98
9
-29
-228
-451
-494
379
-5
46
277
-245
-335
-213
426
-112
-27
256
-289
39
271
-49
-294
-640
563
-507
-131
-64
-273
-96
250
-131
324
-250
-803
-467
334
348
-215
-481
-220
-158
234
-118
-49
-190
-58
48
-22
192
-6
31
-343
-86
-215
249
-176
-414
-465
477
-4
-93
129
-707
182
273
-250
845
-347
118
-154
-97
-158
-184
-201
91
211
0
-71
170
-224
-193
143
-386
-141
293
-712
264
-389
294
-402
13
-377
-571
211
117
-74
-288
-192
-405
-143
250
29
-279
-33
-77
25
74
-353
-202
29
-411
289
28
-314
-37
305
284
356
-323
-498
11
482
-284
-402
-602
70
-441
-326
-436
-50
-47
104
225
87
-52
-145
-312
196
-109
-75
-265
-80
-166
-331
-331
-362
-57
-281
-336
-281
175
82
-376
-226
-202
-410
-1034
-128
106
116
-112
391
-102
111
-494
-125
-471
-181
-401
-399
-325
-261
206
-376
-249
-384
-254
-381
-29
-20
104
-28
-248
-160
-52
-203
-171
25
-310
-456
-116
187
8
78
-55
-183
-744
73
-145
40
-198
-568
235
-630
-871
-114
-436
-246
-343
-604
271
-324
-246
-333
-70
-75
-190
63
-64
-651
-96
-131
-83
-407
241
-139
63
40
-100
90
-241
82
-329
20
-252
108
-128
66
-285
109
-126
-615
-77
243
-228
43
-713
-180
-335
96
-478
78
-497
208
-122
346
-618
169
45
-179
-104
-539
-234
-351
249
-710
342
26
-358
302
-485
-74
284
-111
-12
-297
-817
-531
-274
-56
185
-517
-134
-389
355
-308
-44
-400
-393
-400
200
294
-209
136
-412
-102
-75
-175
386
-361
320
-428
-275
-207
-575
-217
-609
48
335
73
242
-200
-382
212
-260
-390
-48
75
-305
-192
-23
352
22
-338
-80
-232
944
-456
123
-146
-184
-426
-216
333
-14
-97
-30
-98
