-113
185
236
-194
662
-111
709
406
-68
-395
201
317
-664
86
6
1200
649
453
-347
69
767
-494
30
1150
463
452
-27
-213
-1180
505
-173
-241
760
-148
103
335
-707
-353
-146
-564
-601
-652
-522
623
-99
-645
148
294
-418
-382
-244
-443
1035
-648
570
598
307
-1067
-174
-560
304
321
-184
192
-365
311
-343
150
-20
-728
-263
306
-222
-803
350
-126
-440
282
385
407
177
-143
488
857
9
-687
472
-422
-836
-46
-796
-954
1543
-179
419
-343
428
327
49
-254
-211
-248
719
-277
-198
-3
-83
-559
-808
-128
-541
-235
-1413
-263
157
76
-103
-52
-337
-40
-264
-368
46
518
515
-909
-64
790
-555
-230
-270
-220
-422
147
-1233
-184
365
488
42
-427
-124
52
53
389
538
-718
-243
-104
-722
853
-628
722
-516
-162
-146
143
101
-68
346
-365
-63
-616
-188
-499
-92
216
877
292
-1160
-573
-391
-340
-462
183
-325
1393
79
-186
385
-430
-302
146
-474
12
279
-647
143
529
149
-371
-509
-1005
1025
-677
506
52
31
1318
203
109
-623
-116
362
-1061
-366
-221
40
-230
561
392
-662
-510
49
1149
-430
-758
-823
-645
1793
-1164
387
832
-377
158
-511
1029
102
-622
346
-10
-734
7
1094
-601
-169
539
-341
30
294
-1040
288
340
-848
827
107
-325
-38
-51
-653
-362
-562
1440
248
-57
571
-537
-721
-400
143
126
105
-201
-256
-223
-58
-1455
-6
-225
-298
-449
-157
166
-583
540
138
-267
62
-56
-268
-573
220
497
-497
-186
-544
168
493
-288
-949
79
-166
-23
-513
-365
666
25
330
602
917
-513
-427
483
-300
-95
1305
-627
-274
-354
-2298
-618
-211
-390
462
433
-65
190
-342
-204
-580
320
-788
351
576
-1337
-347
-424
144
55
-368
-528
379
-282
-214
788
-790
-5
-610
-408
-216
-931
515
104
573
349
-165
-1183
125
-1081
6
-964
-755
-929
4
35
-165
-573
-158
372
-125
508
-96
-174
161
50
481
-33
-477
665
-484
-181
-363
-466
-175
-830
-1107
-233
176
-622
-993
31
-230
-8382
-244
-710
229
-397
-977
35
-177
-666
100
128
109
-287
-54
-532
-1143
-543
129
-780
-519
-429
283
-397
-1063
-895
-77
-648
541
-427
-460
-713
-43
63
-397
730
-444
-744
106
-208
-332
-1445
-4
-471
-425
253
-120
-979
-798
213
-55
-825
-583
1001
-575
274
-102
-929
201
-141
393
-125
87
364
-142
-429
-351
230
-277
-992
-293
-232
-69
-383
229
478
9
443
-671
-366
137
-1644
-354
415
319
-203
151
-863
125
-122
-77
-89
127
-55
-63
-212
35
-10
-960
-763
-72
639
-640
-713
-294
-468
431
388
-971
280
-220
-269
-25
214
177
-208
-196
-209
-58
-128
241
855
-730
-776
-55
371
115
-41
-1101
-658
-412
-521
-238
-222
-136
1252
-263
280
-459
-105
-389
69
397
-270
-69
-377
-673
-265
-207
807
1015
-495
-806
-182
94
-1178
-156
-101
76
-1040
249
-169
164
-323
4
-370
-622
-293
838
663
-763
-234
345
-120
-331
-484
-328
683
30
-762
-420
-483
-136
-596
-786
139
602
-261
100
-155
-53
105
400
319
-718
113
-79
-1310
301
-1233
-755
399
473
-353
-201
-682
1291
-439
-646
18
-77
-186
603
183
205
-686
-234
47
-504
150
-60
42
-867
176
309
618
172
-274
-235
-48
104
-452
-66
229
-455
44
-208
143
-380
-396
998
111
-204
806
-266
472
904
-687
90
-260
268
397
660
874
-338
-94
238
-147
532
-286
-521
389
-1
-761
-39
-715
186
278
104
835
212
491
941
624
-888
-447
646
52
324
-621
-78
-687
1
-582
-9
-293
121
879
212
588
553
-294
-1226
351
321
-668
817
117
-297
-44
-372
-356
581
22
-309
77
122
475
-968
-330
-399
-122
371
-106
-234
349
-703
191
-798
-199
456
127
-629
215
249
452
359
154
-104
112
363
63
937
-48
-356
396
-121
20
40
-322
-447
194
-642
-536
721
-524
49
-314
-207
-32
540
320
-144
-101
1181
-510
-79
1171
-189
-46
74
103
-240
-418
-446
513
-168
-275
256
440
-477
-152
-160
715
-1137
258
-157
517
-292
-216
-104
55
-7
-187
-925
438
106
-59
