-8
-11
-32
10
20
28
27
90
-2
32
75
-4
-19
-23
77
-244
15
215
27
86
-7
-49
-44
15
48
15
-32
-27
11
-5
-29
27
1
-83
-29
20
19
5
-8
43
27
4
0
33
149
12
33
18
-32
39
15
-27
-8
39
-29
-34
62
-34
-279
73
-27
7
0
-287
39
-26
149
335
20
-12
89
139
127
39
-79
-98
-48
319
-21
-60
18
-331
174
-320
18
102
-67
2
236
109
75
-390
39
-77
-112
162
63
-47
-21
163
-59
-18
162
196
-123
185
74
-269
68
146
501
120
38
46
143
-79
31
-2
102
141
-55
74
-17
156
155
119
116
-80
-73
21
63
-104
-130
-41
54
-6
-137
35
-44
40
-45
151
83
-111
94
-22
36
-51
-11
7
151
110
91
-30
-24
28
-94
86
11
73
94
74
3
59
-94
36
70
-26
-88
44
-57
72
-24
-40
-5
65
-25
27
63
0
-39
-10
-35
-26
-10
63
88
21
76
0
24
-2
4
31
39
14
-197
-160
-24
-99
14
-1
30
17
-36
73
-85
99
264
-50
-24
-278
-24
-52
-19
24
-135
-7
-186
-55
34
-36
2
29
22
-21
3
-17
301
-5
-8
-93
42
-83
-63
-50
0
49
24
-5
-38
88
-73
-14
16
33
-94
32
-17
-148
53
-33
-12
104
9
60
10
10
-21
-40
-6
-16
10
-14
26
73
28
-49
4
97
-50
23
31
10
-33
10
-30
10
49
13
26
-40
-86
-60
-6
6
95
-47
-20
25
233
-54
9
2
-112
-8
-1
12
-22
28
27
36
-2
87
43
40
-13
34
28
-14
31
4
38
24
33
-23
30
-7
-16
-25
-32
-18
-75
7
37
13
-102
-62
-30
19
74
-9
-100
-18
12
51
-18
-20
37
-5
12
-40
-9
38
17
29
64
35
-141
33
-16
-18
-15
-54
70
-10
-38
-18
40
-63
32
-4
-39
-161
39
-23
-5
-28
15
22
74
32
44
4
-56
14
-13
11
16
1
-4
-55
37
-239
-89
-31
13
-52
167
-5
-75
24
-55
14
-16
330
-44
-297
-86
2
-257
7
106
-19
32
54
179
-48
46
-88
-211
-27
-37
86
-90
-64
343
60
-10
114
-22
8
89
55
-71
261
-23
-30
2
20
-84
13
-24
-19
12
53
212
118
223
102
-399
89
-55
57
97
3
-1
-378
41
40
233
99
11
-68
-1
-31
-42
-110
41
15
55
-322
-87
-5
126
-29
-40
-30
96
-264
-17
-203
52
-69
-189
117
-22
63
54
75
109
15
-25
278
52
-83
-179
-203
-25
292
39
20
77
-174
66
170
163
66
-123
-17
184
-21
-125
-12
-70
39
29
-93
-31
-100
-50
-8
-130
-95
-12
-40
-77
-78
-329
-16
-57
-37
29
-18
-30
-48
-163
-17
-207
69
56
4
-104
-129
-45
7
17
5
35
6
98
11
22
87
-16
-31
-102
-208
-14
-32
-44
44
108
-46
-13
-25
-90
-181
-86
-6
99
-15
-28
-222
60
-22
23
-80
-47
66
-164
46
6
96
-16
-52
1
-43
-17
-18
110
-21
-89
5
8
-56
18
-20
-40
-6
-76
-23
-10
-20
42
-73
-63
-91
21
212
125
-53
15
66
-37
7
85
-11
29
26
-76
-44
-52
-53
-18
-15
-49
-17
-58
20
3
58
22
68
-18
-17
-22
-39
-41
-1
44
7
-39
7
-106
-49
-42
3
80
41
-15
-16
-141
65
-89
100
22
-78
-116
-134
-29
-92
-22
-11
45
26
21
83
-104
39
-48
22
11
-4
17
-35
-34
-27
12
-282
85
-64
102
-70
31
108
0
8
3
-14
119
51
2
4
-36
-27
203
-38
154
78
-9
11
-9
-147
19
-35
11
35
-117
-49
49
38
-66
-318
-62
-38
25
-4
-21
-4
6
14
13
8
5
26
44
26
-9
-9
2
-9
41
-20
-20
4
-144
29
12
-17
-40
-17
96
7
11
-5
15
32
-116
30
16
8
-10
-15
31
-141
32
-12
45
2
32
-17
-41
-10
-41
-10
135
0
22
-34
-23
-151
-40
12
-12
-16
-240
0
