-29
-86
185
67
-172
-57
-47
-143
103
-151
-251
121
71
47
-16
-199
3
-383
41
50
-240
-27
20
-181
20
-163
-200
-211
-376
-173
-114
-192
-50
-313
-170
-235
-112
-323
26
-238
220
-85
-189
-287
-445
-74
-553
-12
-446
-484
-84
180
136
-109
-361
-37
-7
-254
-6
-284
176
-347
84
211
-179
-205
-4
-247
141
8
96
-98
-279
-224
-54
-346
194
-198
166
125
142
-147
-208
80
-236
-150
117
-54
-191
120
60
-320
215
-69
-170
-474
-169
-60
119
-39
-334
-310
-377
-115
-452
-79
-110
203
-210
-94
-145
-157
54
84
-80
136
-9
148
-8
-28
143
474
-6
-139
44
203
36
-17
-141
-527
-20
-14
-27
-131
264
-447
-193
-7
157
-137
-46
-19
167
-120
-66
-349
-149
125
-271
132
23
242
304
-291
64
342
-59
-285
-491
-45
99
215
-76
214
-272
-287
12
-391
-207
-223
-94
-69
78
-17
-317
236
390
-141
-205
-329
537
54
-79
-158
-59
-248
-261
29
146
35
-136
-455
-48
-3
174
-208
46
494
-32
107
-182
-112
156
211
-353
178
174
-255
175
-250
-58
-284
169
-364
-19
-118
234
-285
-204
20
127
-255
-79
22
-305
-489
153
-417
-133
7
-221
-186
-422
12
260
-82
-37
-143
170
135
-176
-9
-201
70
-12
-133
183
-312
-309
-180
-239
-399
-91
-113
322
-325
-195
32
106
-240
-253
-134
-130
-521
-212
-271
-792
-215
6
120
336
-126
63
-299
-138
-223
479
-2
12
-267
-181
-51
199
-361
272
-99
53
-399
-483
46
60
178
-113
-217
-51
-134
-96
365
-271
55
153
122
-385
-181
-61
-129
-55
11
925
-223
-79
15
-106
-96
279
-62
-9
139
-110
179
-124
-147
-39
274
-320
-130
-182
70
-336
-128
-111
-173
-375
273
-156
-6
-197
-70
-199
303
-105
-62
-55
-217
122
-181
-125
58
-59
-179
-337
145
-450
-286
-93
-75
146
-286
-229
-43
-211
253
-401
-145
-406
-38
19
-378
-143
-33
-147
-135
-389
57
154
-143
49
261
-114
-255
-210
-87
-90
70
-237
-428
-45
-16
-228
72
525
226
23
-207
222
-2
-116
238
93
-308
-243
-50
92
443
-59
-262
116
-264
348
-179
-5
-202
-105
-99
-211
-220
22
-127
60
-32
-42
-704
-64
-142
-275
-122
32
-19
-307
-66
-322
-109
-610
80
45
-101
1
-79
-172
-61
-107
-282
138
-5
-203
252
198
-422
-108
-191
-89
-164
-63
-6
-280
-256
-189
-26
298
-187
-60
-151
-577
-385
-51
-216
-240
224
-167
-372
-225
-83
-56
168
-113
-60
-205
-310
237
-261
-225
26
51
130
43
5
385
151
-3
-106
-25
-39
-188
-239
-120
39
-179
269
200
-164
-194
-60
-187
-72
0
402
51
-78
-102
21
-254
-273
132
-217
373
-431
-369
20
-161
-301
-189
-47
11
-405
-240
39
-205
1
148
-28
-522
-117
123
303
-53
-113
414
43
149
171
-148
279
-338
9
-212
-35
-266
55
-149
11
-145
-256
-210
120
-36
-4
75
-274
-68
102
100
-166
43
-335
-92
-199
-205
-203
-150
39
-190
67
-445
307
-149
-558
-280
156
41
39
211
164
221
-241
-100
79
-32
-14
151
41
-301
-186
-194
-44
60
-388
45
189
-89
93
-102
-82
-374
-216
147
-107
-20
-79
-28
223
-221
-382
-378
-208
21
-471
-97
-50
148
43
-244
-72
-409
-529
139
-264
-441
-91
45
-362
-244
-82
123
-351
-197
140
-103
43
-91
565
-349
14
16
112
-82
-131
-328
-92
-392
35
-118
-169
-55
-226
147
-244
-173
29
-101
115
-337
-258
24
-28
-401
-115
-267
-172
-67
-140
-1
42
-122
-115
-103
-161
42
130
84
-217
-264
119
-174
120
298
-150
-54
286
264
-148
20
-97
-94
-418
-132
308
-286
73
-175
-367
-472
-233
-266
-421
-442
-18
-113
-34
70
-135
95
-158
51
77
-87
-77
-231
288
150
-22
-228
-11
-90
-474
-50
66
108
-468
-370
-172
-36
260
-39
256
-320
-92
-5
-77
57
-258
-127
-29
321
-458
-388
-228
76
-183
-226
-310
244
86
-285
-321
-6
-89
-426
87
308
-166
-302
-69
29
-184
-38
73
155
-70
