-60
36
-1
-96
11
-33
-42
9
-5
-16
-20
-84
10
-63
23
-56
-66
79
-35
63
15
-36
13
17
-124
78
-40
-3
-8
-2
-43
18
-16
-31
-27
15
-61
41
-61
-88
94
-17
25
47
-41
3
15
-1
7
-9
-57
-17
-8
14
-59
-28
-18
0
25
-17
44
-121
72
-29
-1
-11
-119
-19
-31
3
40
66
-8
55
1
-10
-64
4
-102
53
-80
113
7
-61
-22
44
-28
58
-60
-41
0
44
36
72
112
40
76
-17
2
-14
-99
-16
-75
-12
95
73
55
-69
1
-31
-20
19
-41
37
47
-18
8
-23
-20
69
27
63
-7
38
-2
66
-18
-58
12
-108
-49
39
32
-61
-16
-167
111
6
136
104
35
-6
77
-1
-162
-111
-141
31
-128
183
142
-4
62
29
-66
-24
88
-375
-59
190
383
108
159
-3
-50
43
-127
89
46
9
-188
39
-79
-43
183
-10
148
-8
13
3
-148
-86
178
-90
-149
-116
-8
35
79
-75
43
-34
84
-66
61
-53
-30
-75
27
-62
-76
-65
89
60
-85
72
111
-100
-46
50
-36
98
-114
93
-104
3
33
105
-66
-95
112
-21
-90
-33
127
7
9
6
113
27
8
114
214
142
-5
31
-66
3
19
12
140
-94
70
-6
134
-17
52
14
-167
-91
-118
-21
-95
-76
-12
-85
48
-19
52
-253
-141
-127
77
46
-398
-23
81
68
-4
88
3
-93
-482
2
25
-35
-4
-49
-132
-6
22
11
-74
238
-73
-36
-25
183
73
184
158
-14
20
-72
-27
36
35
-288
-4
-120
-1
-18
-16
-29
118
-88
-20
-18
-119
56
52
18
-90
94
181
197
13
0
35
-10
-74
11
43
46
9
21
-19
41
-23
-31
22
-20
34
12
-30
8
-7
18
-38
-36
-7
-13
21
13
-4
14
36
-40
13
10
-5
-12
-52
4
-7
30
-34
9
-27
-9
-50
25
4
-25
23
-64
30
-21
-2
9
-30
23
-11
19
-26
-23
30
-30
44
-10
38
6
42
-9
-18
14
177
-77
16
-71
28
6
34
3
49
54
-51
117
-12
-56
-133
-200
135
59
121
-139
7
-38
47
109
-30
24
-31
-198
60
-53
140
-50
73
120
-13
15
35
-15
-7
7
130
84
-17
-47
123
-46
-136
-35
-116
-51
-74
74
1
25
-9
-8
25
-177
-67
-4
-43
-185
12
-38
-67
-28
17
-207
88
-58
33
-173
-159
18
-236
17
51
180
-139
-125
98
-48
-46
42
66
-31
45
44
166
45
75
100
129
91
61
-122
-164
-93
-100
88
2
-8
16
-28
-10
-140
-65
-83
-66
25
87
63
38
-143
-150
-129
77
-345
52
-79
37
-90
-79
113
-23
109
-18
77
-34
17
-33
24
17
-33
-36
59
34
14
-120
-22
0
-50
-22
-66
43
52
6
-41
-112
-66
13
63
1
-68
113
-54
-48
33
-2
-59
-2
-41
-123
-71
-47
-11
-87
-26
-12
3
35
-3
-14
-30
11
-1
-2
-80
57
47
122
-28
-125
-139
57
-29
-41
47
4
9
75
-26
41
69
16
77
-19
3
-5
-75
-4
6
-18
-50
129
-98
48
-162
38
-85
92
11
70
223
-99
-130
-120
-74
-220
62
-62
84
-19
90
85
103
2
-105
-15
-93
-78
11
-45
-106
-172
-123
145
-36
-66
-13
61
-89
80
-26
-105
-151
31
-95
-116
119
-46
-14
149
-39
124
49
154
-31
32
-54
49
-2
-118
25
-193
14
-73
75
33
-31
27
-40
30
-68
51
23
12
-99
6
-65
-52
57
50
91
41
38
-4
50
47
74
19
-113
-4
-13
-17
13
-7
12
-33
-24
-75
15
7
-19
-77
91
77
59
-132
47
9
-79
-22
-34
-127
-27
-9
4
-175
-99
44
179
-101
-123
-9
-28
150
47
64
133
22
-13
58
-247
-132
71
-96
70
-32
145
115
31
-56
30
-49
102
7
-74
-34
-69
67
-112
-119
-75
80
16
-33
192
114
-9
-120
-55
-10
145
237
17
14
40
-240
-99
60
73
33
79
-138
-329
-7
40
55
26
176
-93
