-72
38
-7
-26
-12
95
16
6
54
41
12
7
-28
25
-19
-35
-32
31
-5
11
34
-10
27
90
-37
-35
30
-36
52
-29
90
33
-28
-39
-2
34
-110
-42
-16
-2
67
4
4
-37
14
-27
-10
1
-11
51
16
-2
-51
-6
-38
-23
8
10
-27
-8
-18
-11
42
1
-46
12
18
5
-49
46
-5
-86
25
-21
62
-31
32
-33
73
-87
13
34
30
-57
-67
1
87
11
25
46
-6
-53
51
20
8
-38
-78
84
-44
-126
-11
-27
-32
-8
69
-28
-28
47
53
9
-15
39
66
30
13
29
13
124
-61
21
-26
40
49
36
-47
-35
-1
28
-121
-2
-23
51
2
21
-41
-85
26
-58
-14
-67
-82
-104
55
-48
0
31
66
-65
-1
-37
3
-30
-61
-10
-34
-27
91
-43
-44
-67
-58
45
-7
71
20
-71
21
0
33
14
-120
42
-34
19
29
85
12
113
-71
-7
-12
6
-14
-61
1
-17
-153
24
-114
-124
29
36
-14
13
111
104
0
-33
117
-5
57
17
-16
-68
7
-66
-206
-136
44
-30
-21
32
-37
27
128
42
-41
-57
190
10
-132
42
113
-70
-27
76
-131
-38
88
119
92
117
53
53
57
28
5
-80
-11
58
-50
18
-63
-107
-137
35
-136
-53
-12
-69
-60
20
72
-88
-307
-121
-69
43
23
44
-70
42
-5
38
3
32
-3
0
15
89
-22
-72
20
73
-7
-59
-47
-10
-28
30
-52
23
-16
81
18
5
5
22
-57
-64
6
-30
51
-15
-61
-52
-44
-2
24
-50
-49
-49
7
78
5
-19
12
21
8
-55
-3
26
-16
27
7
-79
37
18
-21
14
-10
11
-35
14
8
41
5
-37
12
10
25
-11
3
-53
-77
-29
-27
13
38
-19
26
-7
-67
15
36
13
17
23
11
-98
3
-20
-3
-24
-17
-56
-25
-50
-8
-13
34
30
1
31
77
-15
-15
3
-3
0
-17
4
-4
-10
14
-12
26
42
0
38
32
-105
21
47
16
-35
16
200
249
-61
-159
102
-20
78
-69
38
204
-11
-24
98
-92
-66
-81
9
87
-106
-94
-11
-90
77
67
11
-135
245
-94
-166
-29
-56
-76
163
-114
-5
26
-268
31
6
-131
-321
225
-58
-43
49
-4
39
4
55
-70
41
39
158
21
83
-88
-54
-94
-169
122
-216
16
-33
3
36
-2
1
-10
-5
67
11
-14
-25
-3
65
28
22
-25
3
55
4
38
-37
76
19
3
37
-10
-14
-34
36
-46
-8
10
8
8
8
36
16
55
14
12
53
-18
4
-9
-55
67
-58
-5
-19
11
-16
12
-26
21
26
-20
7
-17
-7
10
-4
-28
1
30
-1
-19
75
-31
13
-1
-142
6
-67
-142
-9
-15
17
-42
23
-88
68
-13
-5
-66
-46
172
28
-90
-20
29
9
-30
34
17
3
27
77
48
57
-16
-2
74
43
-2
-16
21
21
-11
-2
48
14
55
117
-4
-12
-142
137
42
-60
27
-55
25
38
229
40
-28
8
115
-68
55
-92
-4
-61
-29
-30
-80
-57
131
138
99
81
62
18
89
-64
101
-100
-42
19
19
103
-147
7
-89
-86
13
85
-35
-110
-118
13
-27
-94
55
146
181
81
-4
-4
50
-148
-71
17
88
-7
-34
-146
28
123
97
-40
-226
-72
-37
-69
-54
63
1
-5
1
-91
15
18
-29
28
-11
63
66
-11
-28
-18
-22
5
-44
85
199
-47
-16
-127
-29
60
97
-67
-157
22
-81
38
9
75
156
88
68
28
89
-5
-18
88
-19
-1
25
-126
-73
7
75
-10
37
-31
38
-36
96
6
169
-80
-42
-41
-74
-21
-29
-40
-75
26
-199
-27
-53
61
60
-8
-178
317
114
-79
103
-7
229
-21
-120
48
31
-129
-84
-217
102
89
290
9
-45
-86
20
30
-20
12
-113
-184
-79
207
-33
1
18
138
132
21
-52
39
202
128
-55
70
-211
20
213
137
95
-86
-5
17
91
250
-92
16
-98
-142
60
137
39
9
-68
-128
-48
-35
