-251
190
362
-590
-222
-44
1028
370
-335
-700
173
450
-614
104
-363
1213
798
397
-276
3
716
-25
-193
408
192
361
-28
-119
-737
307
0
233
825
-411
-351
415
-860
-599
-205
-432
-726
-456
-178
372
250
-167
224
375
-397
-203
-539
263
969
113
342
342
201
-1054
-215
-832
193
740
-8
-384
-203
526
-457
43
-500
-497
-328
510
-374
-267
133
10
-367
71
506
253
-2
-145
528
474
248
-536
-115
-403
-766
341
-491
-848
865
-86
72
-88
280
-236
333
-658
-169
-436
653
-352
-5
-94
-251
-661
-422
165
-316
73
-312
-373
-374
112
-238
-508
-86
77
-83
102
188
886
466
-1144
206
233
-753
-108
-341
33
-549
-53
-795
-182
570
-76
-8
-99
-305
-139
-265
480
555
-744
-113
-413
-804
711
-787
541
-683
-8
-644
202
-31
-21
-218
-86
-242
-454
-245
-428
404
67
657
356
-848
75
-319
-549
-283
-342
-180
512
420
-302
102
-111
-336
-19
-257
-526
47
-485
74
-541
677
-109
-490
-565
537
-795
467
-186
-206
681
-149
-402
-674
-112
76
-824
-405
-10
-221
-44
95
480
-579
-407
93
1025
-417
-144
-1121
-305
986
-710
179
487
-280
262
-608
1494
282
-725
217
-72
-1052
128
715
-503
-385
92
69
-585
525
-686
29
753
-1160
59
-308
29
-124
-249
-400
-112
-734
1058
370
-384
603
-105
-781
-832
558
241
47
-64
-222
-109
-401
-1297
-61
-248
236
-6
-306
388
-689
391
-27
-12
7
50
-164
-619
-418
504
-766
-274
-319
-101
58
-523
-402
-355
-36
25
-538
-54
425
-37
119
531
804
-490
-490
409
-344
546
1141
-450
-379
-612
-1136
-685
-571
-815
534
192
-127
176
-241
-288
-412
-158
-150
320
384
-1253
-418
-550
345
-149
-479
-395
423
32
331
18
-740
193
-477
-332
-353
-849
311
-53
392
43
172
-705
-71
-1183
-37
-741
-629
-742
248
-404
-211
-198
-302
758
-261
200
-367
-100
215
396
475
312
-268
174
-644
-229
-436
-635
-143
-328
-754
-231
69
-657
-700
-518
-76
-7145
-547
-736
458
-298
-445
289
105
-805
-387
252
10
-731
-227
-245
-291
-201
633
-558
-521
-76
503
-185
-1321
-515
-141
-818
672
-362
-279
-195
-496
-307
-341
474
-110
-958
-210
-169
-75
-551
271
-703
-278
385
-212
-1159
-632
278
-925
-996
-793
562
-41
274
508
-589
240
-106
111
-295
-83
-671
-286
-31
-636
284
53
-143
202
-310
53
-360
753
396
-522
61
-1234
-558
-340
-619
230
658
634
-191
458
-1391
381
3
-132
-127
36
660
-1
-578
-70
-315
-226
-1060
65
262
-851
-175
-696
-311
65
598
19
-28
-528
-389
-176
-174
34
-30
-212
24
27
309
369
752
-719
-1054
-323
206
-184
250
-664
-492
-614
-264
-331
-536
50
1059
81
67
-267
-206
-328
-17
516
-756
-122
-665
-744
-425
-44
268
413
-487
-462
-30
231
-1020
367
-424
268
-813
46
69
146
-3
-370
-357
-167
-178
617
455
-122
-173
-58
45
118
-663
-91
505
-17
-290
-205
-16
471
-589
-465
262
88
129
203
-97
-265
12
701
-101
-308
252
348
-1050
320
-1254
-541
346
72
-158
-598
-552
840
-313
-588
-352
-249
-450
130
61
126
124
-350
203
-269
544
-218
8
-635
-35
394
476
-55
412
-451
145
-94
-652
-98
438
-373
-385
-291
-114
-411
-661
446
-218
-190
323
95
84
824
-154
173
-223
168
415
506
1035
-52
124
551
-194
593
-423
-353
419
-281
-1005
-397
-901
-124
189
296
1241
144
66
547
608
-204
-284
538
565
371
-685
137
-884
561
-595
123
-367
-305
700
709
355
930
-360
-711
-75
605
-5
497
118
-505
-335
-174
-664
386
-403
-213
425
236
522
-533
-122
111
70
-501
-451
-46
185
-790
-361
-558
-395
587
12
-286
71
637
419
1075
-84
-146
179
-228
32
246
321
-232
246
-457
-25
387
-226
-727
27
-352
-367
507
-460
-307
-541
198
-568
-86
327
-46
-441
873
-402
-50
1310
-505
-117
-195
159
-579
-325
-148
382
85
-611
46
548
-329
-358
-226
611
-827
239
-358
328
-339
-526
-171
-310
356
-516
-968
7
-351
-218
