0
-3
227
32
-12
18
-53
-31
-26
-45
-2
-48
-28
12
-9
-70
182
-26
-20
191
29
-31
17
-165
9
31
68
-77
-34
0
124
18
32
13
-2
-7
-10
150
54
38
7
-28
43
69
63
-33
38
38
-16
-49
-17
-8
10
-6
36
14
24
-9
-30
-11
-16
20
21
-12
21
69
-14
33
-17
-20
66
-241
-143
136
-16
14
-20
-120
-22
19
-57
-165
220
-107
-278
283
24
91
144
-37
109
425
-61
-91
-145
140
121
35
59
21
-78
7
-17
-115
-14
-19
-217
135
281
-65
-31
-55
4
51
-86
-94
5
-81
20
-80
95
-10
-200
-35
141
-100
-1
-116
-58
58
36
20
-32
-74
-33
120
-75
90
12
30
-42
-70
15
41
11
10
95
32
4
33
-39
76
-33
71
89
-101
40
1
-100
80
-37
38
34
252
-356
47
-23
-22
1
-74
35
4
-14
102
51
71
-59
-2
49
-15
-99
80
-427
102
172
55
48
-55
-9
33
9
-29
31
15
67
-23
-8
103
58
3
123
43
-218
33
-61
67
-39
77
136
-36
-219
64
6
41
67
-64
-267
-19
-42
103
-100
-59
117
-274
-2
98
-36
-207
30
262
-8
-71
-81
-26
-19
68
263
27
-40
338
37
-78
39
-45
12
-7
74
7
25
-27
-137
73
21
-284
76
-35
-50
-9
-13
-47
-71
22
-90
27
-82
-72
106
87
-56
-85
26
-4
108
-37
68
-8
12
-6
10
132
2
-8
95
-61
21
-111
-54
-54
144
-49
145
-163
42
26
26
147
-75
-209
117
16
84
-15
127
-66
-82
-68
-72
-124
20
177
-29
-50
-3
-28
5
-3
70
9
71
59
66
-40
13
75
9
120
111
74
-114
-87
-12
120
-120
-59
-51
-2
-100
-257
130
-7
57
-288
53
-79
4
-234
12
21
95
13
1
47
-105
-82
28
120
12
23
61
-57
15
-23
29
12
-158
1
24
-86
-132
6
34
-30
-49
41
50
124
111
-87
89
-88
106
10
-217
-85
-56
7
-124
-161
-42
111
41
-86
122
-115
119
316
108
-53
0
138
-4
-103
7
296
-102
167
-78
-223
-1
112
-231
126
25
-73
-51
-81
-68
-30
-82
-84
-39
22
-126
-70
37
8
-36
123
-11
109
-199
58
9
10
52
-48
37
-628
-51
-24
-101
169
72
278
146
28
215
290
-104
128
109
-29
77
186
52
-46
13
-50
-23
-56
-467
406
-407
-364
77
-11
139
-43
-33
48
27
-135
18
65
11
1
-40
-3
8
9
-68
-75
41
-54
-52
-240
-49
23
-260
-24
-49
116
61
72
23
85
-64
4
53
38
-66
58
-113
-54
-122
-24
-18
-55
62
-101
-39
-62
-27
56
-40
-93
-79
1
-4
52
213
-20
-30
25
56
6
36
53
2
-6
-22
32
39
-82
29
-53
-78
57
76
4
25
-314
-80
15
94
-8
18
-17
107
-21
-55
384
16
-20
-10
-119
17
-28
-18
7
21
77
-39
-54
-61
-11
-203
11
22
24
-94
-148
1
-28
39
1
25
56
19
-29
-48
-24
125
-61
52
6
22
-23
-59
-3
108
-57
17
84
29
15
80
99
41
63
81
38
-144
-5
41
55
14
-29
91
79
-13
-5
-122
-22
57
-11
-93
-79
-3
50
-55
4
-42
-15
-73
46
-306
25
-283
-24
-77
2
-48
33
91
22
-20
-48
-130
-291
-138
51
5
25
-1
54
-45
-166
8
92
-94
-404
-55
-137
52
-98
8
13
30
-51
-26
84
-62
37
75
-48
25
-30
53
-105
-111
38
-30
68
-18
77
-8
165
379
-97
-30
72
-138
189
33
-14
22
84
52
-19
-138
15
71
-82
76
100
46
57
-76
-109
11
-63
50
22
-119
105
29
-40
-72
-52
-268
-131
8
38
19
-38
-1
-102
24
-527
-32
-116
-57
-44
-82
125
71
42
-2
46
-78
41
148
-7
93
2
-24
-63
115
65
9
184
27
-40
-170
97
26
48
-9
-34
58
-107
46
51
-6
32
60
-45
38
82
425
-34
-49
30
20
-166
-18
-37
