-90
-55
11
4
100
-53
-84
12
5
7
-14
34
-20
-52
-23
-13
35
-68
-83
-45
-5
-86
-167
45
-121
-22
-45
-36
-9
-17
-12
-27
50
-66
58
-70
38
-50
78
-27
118
-67
68
33
0
-49
-47
34
-68
113
-43
88
44
-93
90
-5
-34
23
61
97
7
-41
-42
60
60
-129
0
-5
-52
-73
41
122
14
-20
43
31
-30
15
16
16
-15
-29
37
72
-4
-6
-20
93
39
57
23
0
-23
-23
-23
56
9
19
-123
10
-86
71
-41
46
-11
56
21
-56
38
-39
-29
-32
-42
-28
40
-2
-17
-17
-32
28
8
20
40
41
-44
41
44
-27
9
-95
-67
26
-41
14
-24
-19
-7
43
-64
-30
-2
-8
53
14
-53
39
44
44
32
-56
-17
-21
-41
-27
21
43
31
20
45
49
-2
-21
-6
41
31
80
-20
38
14
-56
-63
-70
54
16
71
49
-71
-75
-18
-10
22
30
-21
-16
10
22
72
7
31
27
-99
-24
-82
-119
0
-54
-89
88
-46
-115
55
-27
-126
64
41
236
-101
33
18
-183
66
0
13
-85
104
-126
165
156
-54
23
-214
-60
22
34
12
-151
-77
76
-5
210
100
102
-358
-16
-182
4
102
-11
-195
114
8
241
-227
-65
-74
106
144
22
-136
-12
-117
-16
20
-248
30
-77
-9
-70
-6
-29
-29
16
11
20
38
-42
-4
-50
-42
5
-74
6
34
36
76
94
-74
68
48
27
-71
-33
30
83
-19
-8
-79
4
38
46
-28
37
-74
17
-27
81
49
58
-46
11
-31
-24
42
54
-26
-60
36
-9
19
-6
-81
-36
-5
7
2
-20
-45
-70
-23
113
100
9
9
-17
7
18
-32
38
41
50
-35
33
37
35
-28
18
-4
-35
-24
-31
-27
17
2
16
-2
23
-7
-46
-1
44
-18
-23
-34
1
106
29
2
-9
-60
43
-38
-52
11
-5
-89
-19
-28
-4
-50
24
5
3
62
15
22
-1
-22
-13
73
-54
51
-36
12
9
-26
-11
-165
62
27
-26
-138
64
-8
38
-53
-19
-58
-61
7
77
44
39
113
26
89
1
-19
-31
34
132
-3
11
-3
-58
75
75
118
-2
70
-90
-94
92
136
123
-12
-77
181
39
36
9
-55
-7
-26
111
-46
90
-147
-15
61
-40
-32
-102
-22
29
104
-161
-489
-67
-29
86
-47
-57
14
50
-74
46
58
-96
70
-19
-40
46
153
30
-38
-31
19
-42
123
-17
-146
-25
40
78
-88
36
-15
-19
31
99
-158
-37
46
55
-105
-7
-9
96
26
-36
21
-12
74
-12
39
81
88
6
47
-44
38
69
-12
23
-26
101
70
-27
-97
-19
34
-6
-35
35
0
70
-45
109
189
-5
15
-3
43
-168
-17
74
-1
52
61
11
-36
-177
-313
40
-25
36
15
-17
20
60
49
-95
-30
175
36
15
0
239
-19
-54
78
-19
-5
-60
-12
38
6
49
-13
42
38
48
-21
44
-23
73
-13
-287
41
8
27
5
41
19
-25
89
40
-141
-164
-173
-61
-291
-32
63
-237
-38
-204
-48
103
119
-315
-32
8
-104
86
199
18
59
-18
-200
15
72
160
144
61
-90
50
51
10
523
65
-109
70
-441
-124
-104
-30
-11
-24
89
-171
-100
-43
-25
-55
127
103
161
-36
-140
-160
-39
56
82
47
41
-48
-12
-22
-67
-58
17
48
-8
-100
18
1
110
-7
-49
5
-52
-17
-41
-27
37
21
30
73
-24
-106
-2
-24
-118
53
-10
28
76
-74
-35
-122
86
-11
78
33
-70
-22
50
100
-30
68
-28
23
-22
-92
-74
17
114
-6
51
-104
16
127
-4
-46
6
-9
-42
-44
19
12
-39
-23
24
-2
1
-5
40
-46
46
-4
-6
35
-10
-28
-6
32
28
-66
23
261
-89
-6
128
8
31
66
-29
-43
33
-31
-60
-25
39
82
-117
33
-23
-37
-3
-15
-48
20
-5
-30
50
32
42
-11
34
20
-174
30
-6
59
28
-15
23
-22
7
23
-33
-55
-20
41
-19
-32
-40
