20
-63
121
-53
87
-181
-69
30
-55
55
103
214
208
-134
-75
128
126
-52
-8
-9
-7
78
-63
79
4
28
-16
94
56
225
61
120
54
41
-26
81
-206
87
-5
-37
-172
-92
157
136
-29
164
-1
-117
106
-124
69
54
6
53
217
-81
31
-50
-57
81
26
129
-172
-150
-166
-69
8
-65
-109
169
102
-27
14
-10
-47
-16
-14
-559
130
-50
124
244
21
109
156
-189
118
-167
-41
-153
-124
-118
243
90
130
200
-275
260
110
1
7
21
-170
19
-38
-571
10
-260
156
-72
119
99
-15
73
188
69
7
61
114
-117
-91
-587
74
107
196
7
-253
163
159
243
-149
-44
-133
-51
-63
-106
-199
-189
122
-262
-39
-26
-80
125
-11
-785
-115
27
-169
180
-10
189
71
54
-24
-143
70
-30
187
522
-24
6
162
-67
126
86
-137
-41
428
106
-10
-108
16
-20
32
609
-172
84
37
194
-12
-83
-8
38
-92
87
107
77
-16
28
-81
182
179
62
-244
-3
-115
-70
-96
144
131
112
-286
33
135
-71
-82
-27
17
-82
60
121
-153
-33
-128
-354
-449
13
-342
-67
-192
-6
-19
-132
63
-518
-210
-164
-70
-123
11
-5
154
-8
134
80
-92
-149
61
-70
-16
156
-24
-50
-108
-526
-85
184
-11
-70
-39
159
68
135
78
205
-92
107
173
73
49
179
118
141
-197
52
19
193
-221
114
-246
92
74
100
33
9
-156
-117
19
84
-172
18
-93
-287
31
19
129
-90
-239
74
-13
-53
21
-35
130
-230
-198
109
37
-26
-40
12
86
31
-121
46
-255
-24
-1257
-39
-49
160
24
-46
-133
168
37
81
-60
-89
50
-23
57
-42
55
-85
-15
-36
-148
21
87
-286
257
-112
42
-105
-113
104
106
-15
-30
-99
-145
-70
76
-158
-92
-49
8
-119
75
24
40
-177
-94
-205
13
-70
-33
29
-142
-43
-150
78
-76
-65
-63
-38
13
377
-134
-56
-54
-9
-127
-52
-57
-4
240
-16
-22
-122
95
28
-27
-44
9
-49
-170
49
70
-74
99
-65
26
-141
-91
67
120
-90
112
407
89
-86
-80
-23
54
-78
-62
0
248
42
-93
245
-33
-229
45
261
17
218
-24
3
-30
32
83
89
123
-115
-93
124
164
41
-151
30
58
-104
19
-289
72
-187
165
-91
23
-273
50
51
-126
29
111
-58
-198
89
0
-26
-115
-15
19
19
-191
-78
184
-258
-41
121
50
116
16
-94
-349
215
-31
-6
-150
-69
-16
179
-276
-125
108
-59
32
-171
243
-101
110
56
-74
31
18
-132
-70
-47
-222
-86
-77
-77
-162
-37
35
-63
15
36
74
191
257
-33
176
19
-54
-59
-226
-28
-2
91
4
118
-90
-162
83
-11
76
119
75
78
-179
101
18
80
56
220
-33
45
-64
-120
137
42
15
273
-11
-176
122
-712
-11
-123
172
9
16
-113
100
136
-71
98
-32
-29
28
-101
119
-10
-45
-37
-27
-119
51
79
-67
-45
37
-2
-29
-22
86
53
-44
-122
175
-7
-121
-613
91
130
72
21
230
40
61
10
40
-94
-113
28
96
146
67
251
37
107
13
170
171
-2
-161
68
-128
254
32
176
14
153
-79
-59
-56
74
53
-5
-213
76
-80
-111
-131
-123
94
87
-10
183
-127
171
49
13
125
96
23
-18
79
-108
-148
216
-19
125
-195
58
-28
-60
15
-262
8
69
182
-179
107
85
50
218
-196
262
-510
-74
149
43
-14
65
48
20
-21
-203
78
-51
-51
-3
86
29
-492
-178
-92
-4
122
-80
244
155
-27
38
-109
100
184
166
-44
320
-141
-147
-66
28
-116
35
122
-60
-20
-33
110
-32
77
-127
70
50
-10
261
-160
60
18
102
-46
-20
36
203
41
-4
-14
110
68
-41
50
-14
-10
46
30
-73
33
-132
28
-3
128
-45
-85
83
8
25
220
-80
15
141
-90
-35
134
118
47
204
17
-46
-245
22
-116
-74
49
69
-58
71
-39
-84
70
60
-89
30
-33
-4
-83
-133
-139
-148
73
-121
