-130
44
-190
-121
335
204
52
-87
-450
-476
-353
107
-479
65
-122
154
235
186
-34
-321
-100
-134
288
133
143
-115
35
-234
-427
-60
253
-304
-5
-124
-555
-291
-209
-68
-218
-413
-571
-257
-293
-61
-338
-188
-590
159
-333
-146
-425
294
134
262
111
-65
-573
-66
-273
-316
-36
162
445
-182
51
242
77
74
-445
-506
-438
-399
-252
-136
-296
-497
-107
-73
68
381
-290
-99
-133
-92
-173
-350
-374
385
-240
288
-410
53
57
435
31
-552
478
-308
-164
-54
-380
-315
15
-184
-557
-396
-290
-365
-218
-47
-400
43
-269
-316
-669
376
283
-464
-387
-65
204
248
-103
1360
-63
-195
4
229
-450
-443
-99
476
-16
-409
-274
-597
-239
-444
-17
-145
-212
-400
-340
-275
-245
-159
-126
-421
-95
-255
-237
6
-622
-664
-263
220
281
-171
-383
-122
127
-273
-259
-433
146
104
334
254
-453
266
-287
-365
238
-289
-351
-281
281
99
286
-58
-2545
178
-424
63
-214
-122
509
-78
-56
-277
-613
-471
-83
-190
155
-15
-458
36
-198
165
-530
-427
249
-311
-547
147
153
-186
-138
14
-171
-179
292
-189
157
93
-222
-93
8
-296
139
-156
-223
-46
-187
-544
-12
-266
308
-148
-314
17
-182
-225
-129
-284
-76
-389
232
-410
-13
226
-68
498
-335
-257
-132
34
-469
-582
-227
-521
-164
-160
-246
-341
-67
-99
51
323
-267
-77
-61
-254
-506
-697
-102
-404
28
-149
-23
229
-369
157
-463
-213
25
-35
-251
-104
-81
348
-402
-358
-456
-629
238
-580
-32
-1
-302
170
-324
155
-7
213
15
-56
1
-208
-234
-35
-278
104
-461
-105
-68
-603
-9254
152
-76
-425
-42
-319
101
-513
-239
146
65
-272
-196
171
-22
-380
-94
-180
58
93
-248
-667
-555
289
-88
200
-307
-228
-420
-290
-167
-408
-61
-91
-318
-368
-9
-80
-501
-459
-422
-281
-212
-57
660
-403
-293
-469
25
226
-80
-6
281
-318
221
-192
-37
-84
-493
127
20
-358
-490
-521
-125
-599
-543
-401
447
217
-251
303
-337
-1141
-56
-529
124
-202
50
6
-445
-365
-144
196
-33
-319
-192
108
-175
-365
53
-293
-162
-399
173
112
-276
-172
30
-9
170
-610
-336
-278
-280
-171
-368
228
238
-229
86
-96
-34
-309
267
-390
166
305
44
121
-59
282
-421
-8
-414
-40
-330
-246
267
35
-233
-438
-96
225
72
-205
-574
-796
-398
-397
-328
147
141
-51
530
31
100
50
-372
-4
-100
-243
-10
-203
-358
231
346
14
-244
-290
123
-432
-351
-178
-28
493
-348
-284
-56
536
-167
-387
-351
-42
29
102
-496
-445
-135
-24
-277
-431
-382
-32
597
-493
-360
-499
-484
-148
157
-35
-101
-295
-348
-590
-220
72
-321
49
-126
-71
-540
170
296
-832
140
-168
-312
268
-458
-278
-308
100
-49
-80
-56
-258
604
-535
-164
-471
-81
-466
-123
198
-249
-312
1
-588
-146
-505
174
339
-359
-317
-334
-398
-349
-62
82
209
-70
-481
-323
107
121
-359
-354
401
-191
-661
-534
-175
236
46
-517
-257
-352
-116
-1
-306
-429
-40
191
-134
-185
-219
345
-291
100
-146
-473
-115
-81
98
-223
-130
450
-562
-408
-44
-377
-135
51
-831
-55
135
-447
-99
-79
-58
-71
-245
-91
-221
280
164
-485
166
-357
246
452
-21
-107
226
-196
-569
-505
30
57
-476
76
-50
-335
-241
45
-511
13
-263
28
-206
351
131
-113
46
-39
149
-155
434
222
46
-146
225
-722
-383
136
-443
-134
85
234
-71
-373
394
-304
-106
-114
-179
120
-125
110
-121
-120
-373
20
-238
192
-105
-423
-201
-244
67
498
-222
-328
-197
30
-173
-182
-42
256
239
-419
-270
-36
-261
-103
-81
-244
-96
-136
-305
-550
-682
-542
-149
94
-409
-337
-321
208
-597
240
-46
-454
-408
269
65
183
75
202
262
-284
131
-131
363
-207
-416
-667
64
-178
-269
-2117
59
-310
-30
98
-192
-53
-695
31
-136
-1
31
-343
394
127
-205
-511
88
-351
-289
-366
-171
-522
-607
327
31
-350
-254
-234
-35
-244
-385
-252
-212
-217
-462
-766
-87
-182
74
387
-479
-15
-522
-185
-173
224
106
