-17
29
19
9
47
16
33
71
-9
4
31
33
-35
14
-8
15
63
24
-24
4
-11
-6
20
-3
14
52
-39
18
-71
51
20
-29
21
-30
2
19
-27
-8
-37
-38
-15
-21
-14
17
-16
5
17
72
-13
-32
10
-21
38
-68
10
71
35
-88
-5
-34
23
68
-60
34
10
22
-11
-8
-32
-12
-25
5
3
-2
12
-2
17
-31
-14
20
42
6
20
34
27
-54
37
13
-46
42
-51
-52
78
-56
40
-59
104
3
4
-18
4
-29
55
-36
24
27
32
-31
-51
-43
-50
13
-58
11
-12
39
11
-3
-35
5
-17
10
5
16
63
-65
-8
26
-20
-3
13
-6
-45
11
-2
-5
19
39
25
-46
-14
51
15
1
-4
23
7
3
-67
35
-11
25
-46
-13
-48
-22
33
22
-21
-12
-2
-10
-1
-33
-49
43
45
-5
-56
-30
22
11
-24
-19
7
72
3
-3
-22
-39
-22
23
-43
12
2
-48
-11
0
-7
-25
-16
-8
24
-36
42
-9
36
76
6
27
-55
-49
30
-51
-20
-8
17
-1
22
5
-3
0
29
55
-21
24
-28
-9
124
-23
46
58
0
-21
-16
58
-50
11
49
16
-54
31
33
-5
-26
3
-21
28
-21
-41
45
-46
-27
57
52
39
-9
-31
-31
11
-60
1
13
31
35
-38
24
-23
-2
-16
19
-18
-11
32
-10
-72
-24
-23
26
-27
-7
31
-35
39
35
-89
-10
11
45
-44
24
21
-42
27
-8
6
23
11
-27
-2
-34
-19
-42
-40
15
9
77
28
30
1
36
39
18
40
39
-42
-8
16
-265
-24
-32
-31
12
36
-6
40
-16
-25
-13
66
-20
35
-11
-70
9
-60
28
62
-20
-5
36
-35
-38
76
-12
-8
-53
-23
-37
-6
45
31
2
40
-13
-59
33
-29
16
-2
-32
-56
-2
-74
49
-2
-13
-12
11
47
37
-16
58
20
57
20
-65
0
-4
-18
-17
9
-19
-24
-35
-12
-7
-50
-43
28
3
-281
-20
-61
5
-13
-36
24
-14
-38
4
-18
-2
-42
34
-1
-40
-36
-24
-16
-45
-20
-22
3
-48
-20
-15
-19
-15
1
-22
4
13
32
-45
29
-49
-46
23
13
34
-117
4
-4
-34
2
-5
-10
-11
30
-2
-22
10
15
-64
17
-2
-50
9
-13
-13
8
4
4
-1
-29
28
4
-23
-20
0
-3
9
3
21
73
33
25
-24
-32
17
-29
-23
-9
66
15
28
-42
-21
26
-6
-17
27
-20
21
-38
-5
10
-40
-65
24
-1
-41
-89
-45
-29
46
41
-37
5
-11
11
-25
43
3
-23
8
-5
25
20
16
2
-45
-13
20
53
32
-8
-46
0
-19
-40
3
-3
34
84
-33
-3
32
37
-14
6
25
24
-32
24
-39
-30
4
72
56
8
-37
-18
16
-53
-8
14
17
-56
31
-24
5
-7
4
24
-21
40
17
34
-23
18
30
6
-28
-13
-47
19
-9
-35
-25
15
-2
-13
-31
32
12
10
6
-16
-15
17
9
30
-38
-2
27
-95
-7
17
-60
43
63
-23
8
-14
82
25
-18
5
23
-48
9
25
14
-45
-14
38
-7
17
38
33
-13
15
32
9
12
-9
-14
24
2
-8
22
-5
-61
13
-21
10
19
-17
47
38
-12
27
-37
34
39
-51
-49
-28
38
21
20
47
-43
-27
-9
16
10
-38
-44
30
-11
-38
1
-2
16
52
7
63
26
-8
18
32
-46
-30
28
-26
5
-23
20
-15
12
-16
-9
-6
28
104
26
6
51
5
-10
16
32
-11
35
-10
-5
6
-17
-19
57
3
28
14
19
49
-8
-36
-11
-35
30
-8
31
11
-53
3
-58
-45
39
-39
53
26
11
35
20
-19
58
20
19
44
59
28
-29
2
10
-4
18
-11
-48
-9
-30
-15
56
-9
15
-50
-6
33
56
23
18
-4
96
-97
3
85
3
28
-1
5
-1
29
-45
25
-11
-33
66
-13
-23
8
-38
48
-75
10
-60
14
74
-68
-39
42
-31
15
-33
15
-3
2
