27
25
201
-157
-40
-31
-77
116
158
39
82
-114
251
184
-26
-99
-73
26
204
16
76
-117
-211
156
-180
0
133
-19
86
-168
163
-125
2
120
-209
-42
-35
73
235
-116
-3
-128
-94
-9
-66
-180
178
192
-35
20
-55
70
3
68
-174
48
24
119
56
-67
58
-15
42
222
-59
138
144
-172
64
17
8
-146
-112
-20
-9
145
-595
-179
13
-11
-36
60
-38
33
-50
-3
11
57
89
78
-13
-130
-55
274
-53
-11
-24
-77
-5
57
364
-109
69
-58
62
28
152
-23
-85
88
70
26
29
279
-80
-20
-19
131
63
88
11
-152
101
20
104
208
-41
110
-7
-47
-46
99
19
-121
-208
-4
-122
35
40
49
-63
-126
56
-198
51
-234
-117
-62
-98
-17
-182
106
67
48
-17
-307
-27
-139
10
6
139
-79
-53
77
29
1
-218
-56
11
-148
4
-14
-108
-35
-118
203
27
14
66
-13
69
-97
162
-156
-178
164
194
-49
195
-49
-19
-119
-68
28
69
129
-173
72
-96
-197
0
76
110
110
71
18
191
-122
52
-12
130
-105
20
57
144
-72
-195
-12
103
31
72
-48
-11
125
-31
-53
-239
-181
-151
60
-35
215
57
128
-130
87
29
-35
81
-77
-138
166
29
117
-56
-21
-98
-138
92
-85
-19
-19
-128
-67
119
-173
-68
330
-193
72
-92
-21
42
72
-132
16
25
-94
227
-119
-37
0
-48
-293
31
139
54
-17
94
-10
-237
-62
-1
242
54
-50
-89
-194
-71
-174
-193
-126
-5
0
-123
-151
47
49
72
-72
85
-147
171
-83
-162
67
-240
-33
-42
49
38
15
128
104
-35
-135
267
227
173
199
103
21
96
15
-69
-29
-13
-21
-11
2
15
-1
46
5
20
7
161
-27
-79
35
-74
-87
-86
56
-14
-14
92
-42
60
150
27
33
-67
-82
-83
-5
125
58
9
-51
-11
117
-39
1
-140
-78
0
4
50
-131
5
102
14
-2
72
80
-43
-106
-20
28
-66
-64
11
-7
-32
52
44
28
-73
-12
-10
-54
-86
124
33
17
186
0
-26
54
-80
40
-3
-17
52
-3
12
26
13
-68
19
-48
-14
-74
-19
-114
58
13
-24
51
24
2
67
34
40
-3
21
8
-27
53
234
42
-1
-53
-1
55
-28
53
-52
-5
-41
27
2
42
-1
-12
-17
10
-42
-53
-27
-81
-85
28
41
-48
-52
17
2
-44
-28
-37
7
12
19
110
21
68
-83
-48
-41
39
74
-21
40
-64
102
24
-67
47
-20
0
-24
-1
12
-88
-38
75
9
77
17
-55
14
-20
-44
-12
4
42
26
20
47
89
-12
67
-3
-39
-32
-5
10
-11
38
-54
14
8
-9
173
4
-18
34
51
57
154
-25
-13
-94
-7
6
40
193
-45
-30
-4
-66
-57
25
30
23
-11
-15
-41
-6
22
-15
-51
1
-60
3
-20
-53
-1
45
4
33
32
-34
-81
51
33
-20
-34
-2
109
-91
11
25
-87
7
-64
-7
-9
75
75
-40
-16
-82
16
153
-105
32
-96
-135
90
-58
87
-59
174
59
-30
-261
-103
138
21
-57
-5
33
55
-136
-148
117
-51
-116
-41
-146
4
-187
-198
-175
30
-4
-27
-83
165
95
118
158
-14
313
-2
-99
-130
4
-26
251
131
-29
-24
107
192
113
5
212
-84
113
81
127
-20
-37
154
-56
-10
-125
136
70
-33
34
44
-30
-49
72
75
-16
-71
107
9
-13
-3
-30
115
-75
15
36
-1
-61
52
-72
-10
-24
60
38
27
12
-25
-81
-47
5
117
-15
15
14
-14
-18
55
-87
-61
-24
13
-87
-32
26
-60
-5
99
69
-42
-56
-36
-26
-96
-5
22
36
-116
10
65
-68
-75
1
31
59
34
24
-1
28
-6
98
45
-38
-42
15
-56
118
-13
35
-125
-21
63
-115
-11
64
23
36
-48
-7
-58
-63
-45
41
43
-56
-6
25
-75
47
-70
-4
-2
-14
-101
13
-8
-37
-17
-30
28
-33
92
-28
9
-201
-39
63
-100
-77
22
1
-44
57
17
