399
2
-54
-1084
924
-1210
1014
483
-109
-285
-131
1273
-1087
849
-299
-40
-554
-524
-257
1666
1586
-1164
611
903
-232
1153
679
-456
-1012
217
-260
719
647
-530
87
-542
-996
1037
793
-970
-170
-871
-109
912
-117
-423
-718
-574
424
-239
-1234
-26
1002
-1196
349
-184
250
-1306
683
-358
-482
-116
-1261
-1128
4
615
70
-231
-1
-696
-1042
321
-924
-535
820
378
-57
676
395
554
-18
-129
676
727
183
-120
-1036
523
144
356
-355
-111
2648
-539
498
-277
1265
-712
-240
-202
629
713
191
-434
510
-43
-612
-610
414
194
115
207
-1059
-984
-323
-43
-166
115
-386
697
-373
-1948
-638
-86
70
-679
-330
493
58
-56
148
506
-755
-217
-563
-916
-130
404
-741
-882
-118
151
-350
378
-71
-2953
-43
-15
-326
1435
-36
584
-661
413
478
-247
768
1338
425
-224
-62
-260
-510
205
-142
701
434
-945
-3692
-226
-373
370
-44
1761
273
1126
-174
-61
-111
689
-464
197
-341
993
750
-274
909
632
544
124
-151
-1471
830
-190
251
381
-278
768
-288
-581
-683
684
365
258
-402
494
354
73
472
-305
2
-609
615
901
-257
-421
-865
-279
1407
-705
-34
603
-5
66
2
1360
777
-521
524
-149
726
113
678
-65
-28
684
-25
46
-317
-809
-119
293
-570
-49
103
-673
-794
402
-767
-2067
157
1080
-366
-262
-96
-656
-1113
-638
210
279
519
-529
834
472
795
-96
-221
288
478
-8
27
99
7
129
-869
399
-720
-909
-392
-730
603
118
24
-761
-1230
-109
513
1157
401
37
120
-308
-480
-250
733
154
-184
1357
122
-35
-700
-90
-396
556
1256
749
-1350
-493
-6192
-124
-237
1053
195
-222
121
105
134
168
-357
835
-493
3
559
-894
-36
793
149
-281
-211
219
-336
-297
325
1033
-649
232
-260
-605
13
125
-330
325
601
-173
-62
1133
-33
-792
-696
-1091
-448
985
-230
843
-176
-455
-275
360
-520
496
410
-412
187
343
216
-627
-198
414
-568
-743
-404
10
322
332
-963
-225
-242
-451
-911
-206
-291
-3568
600
-1370
53
-192
-702
706
-429
-422
308
117
579
-218
422
-184
-529
-1110
166
-332
-250
-275
98
-1039
-27
-1442
465
69
280
-607
-604
-835
24
376
-19
351
-130
102
76
102
-288
-958
837
-185
-1203
407
-246
-449
-908
738
93
-667
-700
416
90
859
-1081
-875
-392
-617
31
-62
118
-360
91
-382
-957
488
-49
-1190
-232
8
830
-1055
136
-277
-104
466
-353
-686
223
-1294
317
955
423
-296
-1002
-156
458
149
-134
-837
-207
-462
-280
-191
-75
149
-476
-300
611
1055
-442
-75
-59
176
284
370
-1156
-17
23
113
851
93
-318
-70
-287
256
-119
308
40
179
75
-187
-437
-84
-545
215
-439
-162
-207
-355
75
-85
-1013
769
-389
-91
-1046
262
-567
755
447
-487
-779
-455
423
12
299
357
-851
-418
-79
-185
-49
-194
-162
480
-65
-1262
120
-687
-406
43
-329
-2491
-443
-377
728
799
16
-807
600
411
564
-761
432
153
470
-159
-714
-385
-837
-278
-381
192
261
-616
131
-392
104
-31
367
176
-399
63
-501
-641
734
-339
-676
-36
604
-154
-116
185
1588
-259
-462
-191
505
-224
224
27
499
-11
388
458
627
138
284
334
-816
53
438
309
118
559
-2
-439
-6
-313
-187
-201
-377
222
-484
-18
-313
368
608
-318
94
243
-250
792
1293
-989
147
198
590
997
-404
1019
381
133
305
233
398
716
-719
442
196
-141
-399
-518
495
-311
-438
683
-205
422
425
620
-1248
-288
-120
-140
-51
-402
288
-169
122
-718
112
-301
48
80
516
106
-20
200
-505
-478
162
-612
876
410
786
-424
55
-374
1008
-397
-423
-568
735
-329
-470
255
-32
683
410
499
-619
829
-826
-429
-167
-542
343
-133
-333
343
117
439
912
586
338
509
-997
335
424
360
-877
390
159
477
169
246
-414
-372
-254
-335
380
-125
-63
-78
-461
138
-340
807
345
371
803
279
903
342
-240
-49
-300
146
403
-608
-109
713
-432
-234
489
-244
194
-850
-144
209
-567
347
-1634
731
-8
308
520
551
166
-698
-517
127
-309
168
