-330
-281
-141
220
-396
294
-542
-370
-94
-68
-82
-560
250
-516
-23
-88
37
85
1
-915
-644
380
-472
-353
-83
-596
-383
4
228
-177
-92
-352
-356
142
-278
80
116
-481
-471
178
-208
222
-152
-446
-117
28
-94
62
-283
-45
412
-116
-627
326
-198
-71
-213
357
-376
33
73
-27
174
253
-115
-294
-182
-113
-151
137
217
-252
133
-13
-499
-219
-155
-279
-295
-291
-125
-166
-335
-488
-208
-101
270
-402
-189
-185
-90
-47
-1053
60
-255
-32
-528
123
-45
-17
-363
-351
-242
11
-326
-139
145
6
-228
-221
-90
-241
262
228
-74
-45
-169
-154
-14
-497
9
510
73
-108
-139
121
-16
-308
-223
-97
-300
-331
150
-24
41
190
-83
-224
174
294
-130
-234
-106
-192
-185
623
-117
-3
-82
-535
-139
-391
158
-290
-235
-53
-439
-699
-279
-66
-39
-58
-48
-265
-73
-558
-201
242
715
-66
-156
-333
-59
-682
-331
-451
-139
-176
-127
-333
43
-266
-72
-539
-446
-41
-432
-354
-429
-150
-5
288
-555
-14
-241
-330
-89
-458
-2
75
33
-440
-202
-261
53
-368
-307
-129
-252
-58
-108
63
-394
-473
-74
6
165
-17
-534
30
-148
-332
-220
-130
-153
-568
-385
88
-368
-156
-360
-123
-273
-67
-122
-338
-211
-204
-34
158
-94
-178
-10
-233
-169
-18
155
-228
102
413
-218
-459
8
-2
8
177
252
163
-239
-229
-368
58
-494
-297
-448
-230
-91
-193
-297
-211
-153
-126
-184
-136
77
-192
68
295
-50
203
-373
-149
-160
116
351
-146
-277
-551
-389
-171
-203
-112
134
-9
-453
-227
-80
-788
-141
-90
41
-97
116
-367
-680
-525
188
49
316
-58
52
-365
-171
45
-273
-147
-215
-183
12
-239
-52
-157
-355
226
-163
-456
-207
-85
-55
-199
-37
-116
-169
-533
45
-273
-41
38
-119
-133
-63
-394
-279
-38
-77
-393
-46
152
128
204
43
-480
-25
-278
-139
28
-85
-284
106
-160
-204
121
-167
-318
-190
-9
-2
-225
32
96
-1
-170
-319
-359
133
-193
-149
-45
209
-62
-81
464
-336
367
-148
-124
106
-382
-56
68
-239
-268
-385
-60
-467
-117
39
213
-94
-106
31
30
-95
204
-180
458
-265
-256
-259
21
174
26
-212
-255
-54
-272
-165
-126
-183
-79
-48
147
-397
-143
297
-231
-128
28
216
-367
-148
60
11
-207
-235
-473
274
100
59
176
-135
-129
-121
56
-140
38
54
-264
-54
233
-42
-133
-509
252
-359
-35
-203
-257
26
123
-251
206
-245
-507
-373
103
244
-141
-307
-199
-223
116
-14
-84
-144
-46
-89
-125
148
-40
-266
-531
-82
-124
-60
-156
-226
-326
329
-156
-214
-88
-507
-151
107
-151
12
-300
-62
-289
-94
-180
-200
-14
23
-76
7
-178
7
-183
-86
-51
-163
-236
267
-453
105
-37
165
-317
62
-324
-309
80
193
9
-232
-179
-208
-186
159
-113
-155
-22
-97
-62
-76
-316
-157
176
-273
176
-11
-136
-81
93
23
27
-420
-406
-180
165
-375
-308
-479
155
-312
-145
-422
-141
-18
-10
125
-9
38
-225
-167
41
-163
42
-217
-184
-211
-221
-89
-213
-41
106
-319
-133
121
-66
-407
-129
-34
-282
-793
-193
23
-95
-346
54
-189
-109
-285
-85
-318
-327
-355
-226
-359
-320
130
-250
-399
-220
-231
-343
-209
-16
-122
-3
-164
-65
-49
-304
71
-119
-128
-342
-279
-28
-154
-177
-97
-299
-641
75
-93
-160
-403
-421
55
-587
-329
-155
-278
-261
-359
-384
65
-186
-230
-158
20
27
-396
11
68
-425
-99
-165
-244
-359
213
-77
-96
-79
-177
-63
-237
-33
-322
-10
-131
-69
-240
-169
-334
-145
-164
-273
-29
4
-247
54
-456
-236
-439
49
-220
-24
-565
16
-103
120
-486
-18
-73
-258
-147
-483
-238
-258
4
-466
126
-24
-199
120
-376
-19
-18
-286
-98
-242
-512
-334
-349
-315
179
-351
-204
-324
204
-292
-115
-263
-316
-291
63
58
-96
28
-339
-97
-77
-110
52
-312
53
-358
-270
-339
-484
-311
-421
-154
17
-49
-16
-155
-457
64
-135
-371
23
-73
-324
-126
-215
239
-58
-266
-26
-205
455
-404
-74
-244
-258
-343
-151
47
46
-120
-35
-206
