-72
38
-4
-29
-10
96
18
2
55
43
12
8
-24
26
-21
-33
-32
31
-2
9
37
-8
27
90
-34
-35
29
-36
54
-28
89
36
-25
-38
-4
34
-110
-41
-17
-3
69
5
5
-36
13
-26
-11
1
-8
52
18
2
-53
-4
-38
-26
9
6
-26
-7
-15
-10
42
1
-48
13
18
5
-49
44
-5
-85
29
-21
66
-31
31
-29
76
-86
18
36
30
-56
-69
1
88
11
25
50
-8
-53
52
26
6
-38
-78
87
-47
-125
-10
-28
-31
-8
72
-31
-26
47
53
11
-13
38
67
32
17
28
12
124
-61
23
-27
40
46
37
-46
-32
-2
25
-117
-5
-23
49
1
24
-40
-84
26
-57
-14
-70
-85
-101
53
-47
0
34
64
-67
3
-40
8
-29
-62
-10
-33
-26
93
-45
-47
-66
-58
45
-6
72
20
-71
24
4
34
12
-117
42
-32
21
31
86
13
114
-70
-4
-10
10
-16
-62
4
-17
-155
28
-114
-120
32
34
-15
13
111
103
-1
-32
116
-6
59
17
-15
-66
6
-67
-212
-131
45
-29
-18
35
-41
27
127
45
-43
-60
194
9
-134
42
114
-75
-29
80
-133
-35
89
122
90
119
54
51
59
28
6
-81
-9
55
-49
17
-66
-106
-138
37
-137
-51
-11
-71
-62
21
73
-89
-308
-122
-70
44
26
46
-70
42
-2
37
3
30
-3
2
17
89
-20
-74
21
74
-6
-58
-50
-9
-26
30
-51
23
-17
81
17
6
11
20
-59
-63
5
-29
51
-13
-59
-53
-45
-1
25
-48
-47
-48
8
77
8
-18
14
22
7
-53
-2
25
-16
29
4
-77
39
18
-24
16
-10
11
-36
12
7
40
3
-35
14
10
26
-12
1
-50
-76
-31
-28
12
36
-18
27
-7
-64
15
38
14
19
24
11
-98
2
-19
0
-24
-17
-53
-26
-50
-8
-14
33
32
1
30
77
-13
-12
4
-3
2
-14
6
-4
-6
14
-12
27
43
2
39
33
-104
20
46
14
-29
16
201
248
-60
-160
103
-20
82
-71
39
203
-12
-22
101
-91
-69
-85
9
87
-107
-96
-10
-91
78
65
12
-137
245
-91
-163
-28
-55
-72
159
-111
-4
28
-268
33
6
-127
-320
222
-57
-44
52
-6
39
5
55
-70
43
44
156
16
81
-87
-53
-96
-165
124
-217
15
-33
3
36
1
3
-11
-6
67
13
-15
-24
-2
64
33
23
-25
3
56
2
39
-38
79
20
4
38
-11
-14
-33
37
-47
-10
6
9
9
5
38
16
58
14
15
54
-20
7
-11
-56
67
-58
-7
-18
14
-15
12
-28
25
27
-22
8
-14
-6
10
-2
-28
2
32
0
-17
78
-33
13
0
-140
5
-69
-139
-10
-16
14
-41
22
-90
69
-13
-3
-66
-44
172
29
-90
-17
33
8
-29
33
16
4
29
80
49
53
-15
2
75
41
-1
-17
25
20
-12
-1
45
12
55
117
-1
-12
-141
135
42
-60
27
-53
24
40
227
38
-26
6
113
-68
57
-93
-1
-64
-27
-30
-82
-55
134
139
100
82
58
17
94
-61
105
-100
-41
19
21
102
-149
6
-87
-87
13
82
-33
-112
-117
11
-25
-90
55
149
179
80
-5
-3
51
-151
-73
17
90
-6
-33
-145
28
124
94
-36
-227
-70
-35
-70
-54
59
4
-2
1
-91
14
18
-28
25
-10
68
64
-11
-33
-15
-18
6
-40
82
201
-48
-15
-124
-25
62
100
-66
-158
23
-79
38
12
73
156
88
69
28
90
-3
-19
89
-18
2
29
-122
-74
7
74
-13
34
-29
38
-36
95
10
169
-79
-41
-45
-68
-19
-30
-39
-70
24
-200
-27
-53
59
58
-10
-179
323
115
-78
102
-5
231
-21
-118
50
29
-132
-83
-215
102
91
289
5
-46
-84
23
32
-19
10
-113
-185
-81
211
-33
-3
18
138
132
24
-49
38
202
126
-54
69
-215
21
216
136
98
-87
-8
20
89
253
-87
15
-97
-140
66
139
43
12
-65
-127
-48
-35
