-33
21
6
1
28
22
10
-30
-11
-52
-51
27
-37
43
31
61
6
1
13
-18
11
-4
2
7
15
-4
28
32
-8
-9
-1
23
17
-39
12
-14
-16
-4
12
-31
-2
-10
-22
5
25
24
-46
38
-53
-41
2
30
39
1
-12
31
-16
32
18
21
-8
-13
34
-5
-12
-29
26
38
14
23
-2
16
-20
-42
55
-34
22
12
27
44
38
-17
13
5
0
-33
-46
-16
-9
49
-39
-2
43
27
20
-77
7
2
44
-18
-33
-21
0
-2
-70
-41
-31
-38
-42
-47
-13
12
-47
8
-28
7
20
23
-22
-18
27
75
20
-2
22
19
26
-12
-9
-41
-7
33
3
-3
-7
-42
21
7
43
-18
-26
-21
-59
18
35
2
-41
-53
-48
59
-36
36
4
-1
-23
46
-3
17
-6
12
23
-5
27
-20
1
14
15
-10
23
17
-37
-2
-13
-30
-15
-6
-2
-2
-39
-5
-82
2
-18
-30
-32
12
28
-12
39
9
22
-52
27
-1
31
-40
9
21
33
24
-47
-13
25
-49
11
64
11
15
20
10
5
-28
-3
5
50
-44
-14
-60
21
-46
23
21
0
2
3
26
11
-18
23
-49
-31
10
17
13
23
36
-7
16
58
12
70
1
10
49
-48
-6
27
-1
-14
9
-6
-31
-1
-26
-3
-18
-42
-25
26
56
-38
-15
-15
-10
27
-4
-39
-25
28
45
39
7
3
-66
14
48
3
-6
-28
-13
3
11
1
-7
-37
-18
37
-44
-33
44
23
-8
-13
52
17
2
1
35
-26
-2
1
25
-5
7
10
-43
-39
-39
-293
-32
-44
-10
23
-14
-8
-9
-16
18
-29
22
-23
4
19
32
-43
-19
18
58
-6
-28
-7
-17
2
7
-34
-4
-38
-13
-21
-1
15
-41
35
-4
11
-17
20
12
-26
-2
0
-35
13
14
6
-16
-13
36
-32
-20
27
-2
6
-2
-30
6
18
39
-7
35
21
-19
33
10
28
-8
48
-30
-3
-30
9
-59
-11
-7
-13
-20
-10
24
-60
15
55
41
4
-20
22
-52
0
18
9
-12
2
-24
43
7
3
-46
-11
-29
2
-15
15
-34
-42
-22
18
42
13
-37
25
-8
-19
-29
36
-31
-35
14
10
7
-22
15
-50
16
-9
29
-7
12
-27
-4
21
-7
17
-72
-12
-56
-24
4
-7
9
17
10
21
28
28
36
5
-16
-4
8
24
-9
40
-18
-5
-42
39
0
-7
-7
-5
-32
-25
-12
-10
8
-28
-23
-6
-2
27
-32
-19
15
-6
-10
-23
28
28
23
27
0
12
38
4
-8
-17
-10
-21
18
36
0
0
46
-35
-10
-31
1
-22
-6
-30
-21
-93
7
-11
-18
56
47
-9
-12
-37
-17
1
13
19
2
-15
-11
38
-76
28
-15
-44
-37
-18
22
-4
-53
10
-1
23
-52
23
29
69
-17
-9
33
-11
47
26
-12
-4
-9
-39
-4
1
-33
-3
42
23
-1
-7
12
-10
44
3
7
8
18
26
-2
-30
8
14
48
-15
-21
13
21
11
-28
-7
38
13
-22
0
-13
15
5
63
18
-12
45
23
-7
13
7
-9
36
-13
31
-8
-7
-24
-45
26
56
-28
-5
-10
18
10
22
15
-22
27
-24
-28
-10
33
-76
4
1
-30
6
13
-9
-2
9
5
-11
3
-25
35
20
-4
-13
20
31
33
-8
-32
11
-36
-50
0
-64
-16
7
2
21
16
2
6
20
-31
-15
-10
5
18
-33
-31
-66
-5
-20
20
-13
9
-40
8
46
45
0
-13
-14
39
25
3
40
-30
25
27
-14
27
15
-10
-7
19
15
35
-15
-29
-47
-5
-37
5
37
-30
-35
48
-36
32
26
-35
16
28
39
-6
38
63
43
-17
-10
-37
32
-11
4
-2
34
71
-21
-18
11
8
31
38
3
-35
-23
-1
-26
-1
-4
12
20
34
-18
17
48
10
-5
9
-21
-29
-12
8
-13
-16
-49
-42
-15
14
26
-98
-30
-47
4
-23
43
11
-25
-24
8
19
-1
-35
29
16
23
