24
-69
113
-50
83
-178
-71
37
-59
48
108
214
211
-128
-70
129
123
-46
-9
-11
-3
72
-68
76
8
19
-19
95
47
230
74
122
45
38
-28
80
-211
87
-11
-39
-167
-90
160
134
-27
166
-2
-117
106
-125
71
59
3
52
213
-83
36
-48
-58
77
24
137
-167
-152
-165
-74
5
-64
-112
173
102
-25
9
-1
-50
-11
-9
-558
129
-50
122
243
20
105
158
-184
132
-158
-41
-157
-127
-118
244
87
133
199
-282
256
108
10
8
17
-171
20
-52
-568
3
-263
155
-69
121
107
-11
74
185
64
4
56
110
-121
-89
-575
81
103
195
1
-255
164
153
245
-152
-38
-132
-48
-62
-107
-199
-196
125
-267
-47
-27
-79
128
-5
-778
-117
27
-180
172
-11
188
71
47
-26
-143
71
-36
181
528
-27
9
165
-71
118
91
-133
-38
424
105
-13
-122
13
-30
35
604
-172
85
40
192
-11
-78
-7
39
-92
79
105
73
-18
30
-86
189
176
61
-238
-7
-108
-69
-94
142
130
110
-280
33
140
-68
-84
-28
15
-80
58
116
-162
-36
-124
-351
-447
14
-341
-76
-200
-3
-14
-132
63
-525
-206
-161
-69
-117
13
-1
157
-7
139
76
-84
-150
64
-71
-11
149
-9
-49
-111
-520
-88
189
-10
-61
-44
150
71
133
76
198
-87
107
173
81
47
185
121
134
-201
48
21
197
-221
110
-246
95
78
93
30
10
-158
-118
13
78
-171
19
-90
-284
33
25
128
-91
-241
67
-9
-54
15
-37
135
-232
-189
109
47
-21
-43
13
91
29
-117
48
-253
-24
-1257
-38
-59
158
24
-43
-134
168
39
76
-61
-97
53
-27
55
-48
50
-84
-11
-40
-149
22
85
-285
255
-112
39
-101
-113
105
99
-17
-36
-96
-140
-77
66
-162
-86
-46
14
-116
76
21
36
-175
-94
-206
16
-66
-35
21
-145
-40
-145
69
-78
-66
-66
-39
16
382
-136
-58
-47
0
-128
-56
-48
-4
241
-17
-19
-119
96
26
-24
-52
11
-43
-163
48
61
-72
100
-66
19
-143
-93
76
113
-87
112
400
94
-78
-80
-25
61
-70
-59
-1
243
49
-90
239
-36
-232
54
270
19
215
-18
3
-29
33
81
84
129
-109
-99
122
158
44
-151
29
51
-110
17
-291
71
-187
171
-95
22
-271
42
44
-125
20
114
-51
-194
92
-3
-21
-117
-18
11
15
-190
-76
179
-260
-42
117
45
115
23
-100
-349
216
-37
-11
-141
-69
-14
181
-278
-122
106
-57
33
-175
238
-98
109
60
-81
35
22
-136
-73
-53
-229
-81
-81
-76
-157
-44
40
-72
15
48
78
190
258
-26
176
24
-57
-57
-223
-27
-9
91
12
117
-86
-154
89
-10
76
121
69
73
-177
106
10
80
55
215
-34
39
-66
-121
131
50
7
270
-10
-178
119
-713
-16
-116
174
26
18
-114
99
135
-75
94
-27
-32
29
-99
115
-6
-45
-43
-26
-124
58
79
-69
-44
36
-2
-33
-22
94
58
-48
-115
177
-11
-119
-622
94
138
72
16
227
41
66
14
43
-94
-119
31
94
151
61
249
37
111
15
175
180
1
-166
71
-124
254
34
175
12
154
-74
-64
-59
74
49
-10
-205
79
-83
-114
-132
-112
90
89
-8
180
-132
170
42
14
130
101
20
-17
84
-105
-148
219
-19
116
-198
55
-27
-61
20
-258
6
68
184
-181
107
75
53
222
-196
258
-511
-78
144
50
-13
68
52
23
-20
-199
75
-46
-62
0
82
29
-492
-176
-90
-6
123
-78
239
156
-33
40
-117
103
189
169
-45
325
-148
-152
-75
30
-114
34
122
-60
-13
-27
114
-30
73
-132
69
42
-11
262
-158
55
17
101
-46
-16
40
202
39
-1
-18
112
66
-47
57
-16
-17
48
25
-74
30
-132
16
-5
125
-42
-73
86
8
22
219
-84
11
136
-88
-40
132
125
47
203
11
-40
-238
20
-119
-69
52
64
-55
72
-39
-83
74
67
-86
36
-33
-1
-89
-136
-143
-150
78
-117
