5
51
-14
-10
-27
-46
203
25
-18
-27
2
-74
-39
-20
44
-53
-28
-50
-55
61
45
-7
18
-76
14
-9
-47
41
-27
48
45
19
-44
27
63
17
67
16
-23
11
59
24
7
-6
94
2
-23
61
17
10
-11
93
38
42
-4
14
-27
8
-33
-2
22
46
-42
8
178
-12
-67
38
25
-10
-19
-3
161
-10
-108
-13
177
-105
7
120
-41
-69
48
-144
53
-24
14
-65
102
66
60
-124
-1
97
-115
-59
-19
-64
-107
38
185
-147
-54
-121
0
-106
18
54
-84
124
-46
155
-38
-176
-24
5
168
422
152
115
200
-12
-88
188
150
-67
-92
-77
32
2
3
-47
16
-11
10
-2
4
-32
33
-20
20
14
-12
18
-12
2
-28
24
-44
-10
8
20
77
-9
55
-9
-34
31
-7
22
-4
8
-62
55
39
8
-33
-18
17
-27
-29
-24
14
49
27
-16
-11
23
-33
-29
7
-18
27
-2
7
-14
-45
-25
-10
-12
8
-16
76
11
19
-39
22
13
39
-10
20
-27
13
10
-7
-38
13
-16
36
-41
-1
23
-15
-29
20
-17
1
-62
19
57
-51
-16
-25
23
-6
50
-59
30
2
-33
-1
3
45
5
6
1
-28
21
-8
13
20
-18
26
-55
-9
-49
-4
-7
33
0
-17
-66
26
-16
6
4
188
-98
103
118
115
-137
-197
202
-87
-143
238
-234
-68
-7
-92
180
68
69
-49
-40
56
-34
-20
-68
-23
-128
-14
-169
77
-71
-207
287
95
-1
30
299
80
172
-390
113
124
-272
-29
-54
-111
-15
-4
-49
171
-138
-115
197
-127
51
49
-380
85
-267
-26
118
143
-53
106
57
18
-16
13
9
6
16
33
-29
4
-10
40
9
-10
-36
10
18
-5
13
-14
-29
-22
66
-15
-14
49
1
-19
48
0
21
32
-11
11
13
-65
-41
1
64
19
-5
-50
-21
7
27
-30
-77
35
24
-43
-68
10
-74
-26
-11
30
32
-21
-7
63
-166
3
5
-86
5
-982
1
123
40
135
15
-332
32
8
-65
136
-66
-49
36
-65
-722
-8
47
93
60
-74
-6
161
14
35
24
5
-13
-93
230
61
124
63
-5
-8
-35
-255
513
-111
-80
49
11
-43
96
-9
107
-61
-12
18
128
-41
244
49
-69
141
-195
9
63
-39
16
-16
-136
-166
-82
-13
50
32
-6
-74
9
-12
-16
-66
44
25
57
-74
33
9
-78
-12
6
-68
-24
35
-6
-39
37
48
-4
10
-30
37
89
-14
25
9
29
-49
-9
55
7
13
8
57
13
6
20
32
7
-20
12
-51
-83
9
-39
-23
-9
-5
33
14
-3
-40
-25
-11
-19
15
16
-5
-5
-41
-1
31
21
-15
9
-37
-22
-3
36
8
11
8
-28
-53
-14
-16
15
20
-50
-66
-20
-7
110
50
16
-29
35
3
24
-14
-12
9
-16
-16
-6
15
14
18
14
-63
34
57
18
-27
27
22
18
-10
0
-103
27
86
-7
0
-26
-50
32
-30
50
-6
36
-7
52
-19
-9
-26
-35
-49
-13
-16
-10
-2
26
33
9
-18
7
21
12
-79
-10
-6
97
49
9
15
-36
95
-36
34
-152
20
59
-14
36
-14
21
5
26
-15
84
-2
24
-21
-26
10
28
36
-49
24
-25
-6
-13
-11
13
7
-2
14
17
-22
-19
18
-10
-21
0
-20
-47
-77
-16
23
53
73
47
25
-40
-4
-31
1
-24
-2
-20
53
24
-15
6
-2
-47
7
-6
-33
-16
-28
-7
-2
-16
83
-26
29
40
-31
16
11
41
10
-19
37
-10
-2
47
-42
14
45
88
64
34
-101
27
-45
-14
-46
9
-61
48
-68
-5
14
46
56
7
32
77
-49
29
-102
25
-34
4
-70
-56
-114
-38
103
133
39
-53
-39
73
159
95
82
-35
46
-37
26
-124
-32
-21
-115
-26
-84
-26
-38
35
-8
120
11
-92
93
38
-30
-18
125
-5
-179
-63
22
-56
106
-242
-117
5
-132
-9
1
96
-7
-51
47
-77
-70
-58
67
38
