-464
-475
322
323
-580
530
-605
-317
-74
-222
-174
-760
432
-932
-22
-217
246
149
82
-1024
-710
666
-596
-382
181
-583
-554
261
312
-241
6
-338
-391
273
-284
115
183
-638
-654
451
-159
430
19
-529
-13
-10
400
13
-425
52
386
-376
-698
418
-230
150
-167
425
-367
299
192
-217
602
429
-102
-355
-267
-150
-327
57
73
-73
275
67
-567
-12
-228
-611
-229
-504
70
-101
-330
-631
-239
-352
337
-735
-286
-154
-250
76
-1221
342
-321
-50
-660
359
-34
60
-159
-436
-144
241
-495
-711
172
-159
-343
-541
-70
-359
553
568
90
-52
-283
-247
57
-722
139
683
193
-244
63
69
31
-324
-95
431
-454
-408
27
-35
215
432
82
-86
342
231
-220
-373
-95
-152
-234
901
-28
262
-133
-641
-90
-469
157
-220
-203
135
-571
-781
-359
-205
-109
-268
162
-271
-313
-761
-302
319
662
8
54
-422
-280
-783
-471
-687
-361
-123
154
-250
-29
-98
-146
-744
-590
79
-714
-445
-601
-83
125
637
-681
49
-78
-336
-122
-540
115
-25
153
-574
-513
-343
47
-611
-417
-122
-188
-133
-338
347
-552
-522
-110
380
154
-63
-659
-225
-220
-656
-489
-23
-207
-442
-397
21
-408
-18
-450
29
-294
-94
-191
-410
-293
-466
-156
58
-109
109
-10
-106
135
-218
371
-222
108
554
-295
-393
0
-27
10
121
367
234
-346
-184
-431
346
-538
-137
-593
-414
-112
-190
-419
-215
-235
-197
-217
119
254
-338
29
300
-93
459
-655
-478
-281
190
52
-37
-260
-615
-551
-92
-293
-301
231
-138
-632
-244
-95
-839
-46
226
36
91
-4
-251
-521
-697
187
249
-282
221
-88
-363
-234
363
-345
357
-145
-19
-138
-189
-308
-13
-408
124
-177
-503
-150
-131
-43
-204
-64
-44
68
-639
76
-123
-235
-21
-158
-347
-11
-452
-316
-51
43
-871
66
190
152
123
-40
-577
5
180
-20
39
47
-241
403
-170
-425
25
111
-175
-355
-63
-87
-151
48
-80
142
14
-381
-223
184
-73
-117
-98
340
-136
-174
483
-473
297
-27
-196
242
-537
-340
380
-168
-251
-453
-154
-455
-30
16
-35
76
-314
-37
173
-131
147
-108
580
-465
-147
-270
-6
583
160
-66
-45
92
-400
-169
-55
-360
57
75
550
-464
269
268
-350
-198
135
96
-122
-98
4
-29
-233
-455
-499
375
-7
48
272
-248
-339
-220
426
-117
-29
248
-290
37
269
-53
-295
-642
560
-512
-128
-66
-277
-98
248
-131
324
-254
-806
-471
332
343
-224
-482
-223
-165
228
-117
-51
-192
-56
46
-25
188
-9
32
-344
-94
-219
250
-175
-420
-472
475
-3
-91
129
-712
181
276
-245
843
-349
114
-161
-101
-159
-188
-202
90
213
-2
-65
170
-235
-190
141
-388
-148
297
-722
265
-390
298
-403
16
-379
-577
206
114
-80
-294
-196
-413
-148
251
27
-278
-33
-79
25
70
-356
-212
21
-409
286
31
-310
-41
305
277
355
-327
-503
5
480
-285
-403
-605
71
-448
-328
-438
-50
-46
103
225
84
-53
-149
-317
196
-115
-77
-268
-81
-173
-331
-333
-365
-55
-285
-335
-289
170
83
-380
-232
-200
-415
-1037
-127
95
113
-114
393
-108
110
-498
-124
-469
-184
-407
-401
-331
-265
205
-379
-248
-381
-261
-381
-34
-19
94
-26
-256
-166
-50
-205
-173
17
-315
-458
-115
193
7
75
-54
-185
-749
67
-146
40
-200
-571
235
-631
-873
-117
-438
-255
-350
-611
267
-329
-250
-340
-71
-75
-190
65
-68
-659
-97
-136
-85
-409
240
-143
58
33
-101
89
-241
79
-335
16
-252
109
-130
68
-290
106
-130
-621
-83
242
-238
39
-720
-185
-334
99
-483
76
-501
205
-123
351
-618
166
39
-179
-113
-541
-238
-353
247
-714
340
23
-362
297
-491
-82
283
-112
-18
-296
-825
-529
-279
-54
189
-519
-129
-389
353
-307
-50
-402
-399
-406
192
296
-215
127
-417
-106
-80
-180
380
-366
322
-431
-284
-214
-577
-218
-609
47
334
68
234
-200
-385
208
-261
-392
-50
75
-308
-192
-22
346
22
-340
-86
-233
946
-455
121
-150
-184
-426
-219
333
-20
-99
-32
-107
