-5
28
-7
-9
26
31
23
21
-22
-30
-20
4
-12
21
20
66
39
28
-1
-13
27
-19
12
43
13
-7
34
0
-12
7
6
-24
34
-22
2
12
-22
-8
14
-1
-16
-8
-6
34
10
6
-18
32
-31
7
-15
23
49
26
30
34
-30
-27
-15
-20
19
11
25
-31
14
5
-12
17
-23
-15
3
6
-11
-9
35
-15
-39
48
15
38
0
13
33
1
11
-22
2
-11
-43
18
-34
-12
17
23
18
-23
23
1
13
-23
0
-8
23
5
-27
-1
-51
-33
-15
7
10
37
-38
-26
-13
34
15
-16
-5
-13
20
28
0
20
12
9
14
10
-33
-18
-3
12
4
5
-35
-12
14
-10
4
18
-10
-21
-35
15
39
-19
-5
-52
-12
30
-24
5
-24
-12
-11
23
6
21
6
-31
7
-1
8
-27
15
30
17
21
-20
3
-24
-13
-5
-25
-8
16
3
10
42
-3
-299
17
-14
2
1
11
48
-17
21
-9
-21
-11
16
-34
47
-18
-33
38
28
-12
-40
-24
3
-34
-40
-11
-12
4
-8
39
-23
-22
14
24
11
-6
-27
-30
29
-49
13
17
-30
18
-9
65
44
-22
13
-6
-22
-3
36
-28
-5
34
-14
-18
33
-50
17
49
-17
32
-32
-7
22
-24
-12
-3
-39
28
18
-25
0
-13
-18
-19
14
44
4
3
-8
-14
-18
-32
-3
-39
14
-7
32
17
-27
2
3
9
9
21
-11
-11
-5
23
-22
-37
-43
-23
30
-33
-15
-15
-31
30
-11
-9
28
33
-2
3
-4
-5
-18
22
2
14
38
-17
-18
-25
-218
1
-37
-28
21
3
13
-25
-14
12
-11
-8
-26
13
47
-6
-22
-3
-11
14
16
-3
-17
22
24
-6
-42
2
-23
-34
14
-49
10
-5
4
1
27
-37
-2
-47
-19
-30
-43
-18
43
0
-14
-31
-21
54
11
1
23
-27
28
22
14
25
-6
44
-9
-4
-49
-40
25
-29
-12
-23
27
-4
-51
-5
-1
73
-8
-21
34
-18
-29
10
-15
-20
2
60
-7
-10
-6
-8
-29
-21
38
-12
-11
-36
17
14
-28
-1
-7
-16
9
-11
-20
-10
-17
-25
-28
20
14
-33
-6
-6
7
-19
26
-14
1
34
32
-16
9
21
-34
-16
-8
47
-12
4
39
-38
-10
14
33
11
12
-23
-4
-27
-25
42
2
6
-4
-1
22
15
22
-21
0
9
-36
-1
2
-45
-15
13
-7
14
34
-57
-3
-1
-15
-7
-6
22
-41
-14
-20
11
-10
-32
-11
35
1
26
-28
-6
-9
25
-1
4
-23
7
29
-12
-14
-23
-15
-12
-13
18
5
14
-31
-39
-18
33
-10
15
-12
-14
-19
7
-2
-17
17
37
15
18
-25
-22
1
7
16
-4
25
-20
-4
-6
-12
-19
11
-34
-46
5
3
-25
11
-13
9
-44
14
28
21
0
7
-16
-27
25
36
14
2
-20
-2
12
14
-12
19
13
5
-19
-25
20
5
-5
-24
6
-6
18
14
-11
-17
4
28
9
17
17
16
-31
10
-54
-17
15
16
-4
-5
-22
13
-29
-9
-9
-13
-16
35
-18
11
22
-21
17
-14
28
-20
-4
-33
16
30
32
0
28
-7
1
45
-16
23
44
21
-20
-30
27
8
-38
10
-5
-6
24
13
4
16
20
5
7
43
-2
40
39
-1
8
48
17
9
-29
-5
43
-26
-22
3
-30
4
28
19
47
5
18
13
11
-19
-19
21
30
16
-7
-2
-31
13
-24
29
9
-11
-3
13
48
55
-4
-33
0
36
22
7
18
-13
-11
11
-5
37
-20
-21
10
8
2
-27
6
-22
-36
-4
1
10
-9
-4
-25
21
-16
25
26
-24
27
38
27
39
31
13
25
-25
5
-17
44
-5
2
-19
2
2
-8
-18
14
-31
2
39
-14
-7
-41
4
2
18
15
-5
20
17
-2
-15
43
-19
22
-6
0
-35
-9
11
12
-2
-18
-3
32
-10
-36
-12
4
-42
-31
-29
26
-4
-9
29
-26
44
-23
-24
9
9
0
