-184
-172
19
7
133
-79
311
100
357
-145
-38
38
-83
-85
-137
-64
-86
-48
54
536
86
-290
67
106
-6
105
130
106
-1
-2
-190
177
125
27
-124
51
69
-62
302
-90
52
99
-217
-9
32
-456
-5
-9
-28
23
-344
78
-75
-50
121
-79
43
203
231
117
-80
-395
-22
-57
104
62
198
-141
-9
11
37
120
45
20
-17
-8
24
68
40
78
-70
48
-38
-95
-78
6
-70
-61
-158
279
-24
41
-74
-79
-289
-152
-58
-31
-48
-100
-51
53
86
30
-78
50
-185
168
86
9
42
-89
132
1
-54
-5
189
93
112
31
49
2
-106
70
5
70
56
39
80
-145
78
134
160
243
-319
85
-9
-52
-109
-5
16
-23
66
7
-57
53
-19
33
-24
-12
78
7
93
12
-217
232
44
153
-40
-44
-4
67
-245
-55
32
146
0
-1
27
65
167
40
142
53
-3
73
-148
-322
-100
18
-37
-8
32
-24
-346
-13
53
-5
-38
-298
101
18
-77
127
154
-111
195
-11
-77
151
-34
-1
-79
275
-323
-61
19
-85
12
326
329
-56
-376
-167
-250
-184
-77
-500
-19
-22
130
-232
7
-51
43
-83
-82
-189
-230
76
317
-57
-47
34
133
114
42
-53
-218
-15
27
147
-20
-267
92
59
19
37
-66
73
49
20
127
26
-8
-71
188
-23
-121
-52
330
193
-23
1
10
-52
159
1
-159
-100
5
-15
-179
9
-62
55
-6
-169
-144
-62
-10
-113
-201
-110
-117
-155
73
-6
-15
29
-369
23
-490
-161
67
21
113
122
-61
71
65
-17
55
-6
143
-118
-136
108
-44
122
-163
47
-7
44
-6
41
-38
-222
-40
30
-58
-42
42
40
69
24
-74
-107
17
99
-146
-121
-54
-17
244
57
15
-85
67
-248
119
-191
-69
20
-241
-494
53
47
3
283
86
95
-417
-75
-94
-220
179
-86
-201
-142
-31
21
-116
-109
-152
114
-90
202
27
241
93
-247
51
-27
53
-40
-240
25
41
-21
-202
-242
-217
170
141
7
-7
127
-99
16
128
72
-18
140
45
-77
-189
376
-283
320
-83
-214
14
-70
-30
125
-116
-431
-9
10
63
-132
-48
100
203
-230
-86
19
-122
45
11
-23
-151
-12
93
-285
-42
-93
-142
-96
-153
155
-203
50
5
176
80
-62
13
70
44
53
-312
100
-52
249
-199
-177
-101
85
-108
393
83
72
108
50
-34
-11
-26
-43
-320
-44
-88
-70
-1
27
-34
-88
367
-62
129
1
-157
47
-130
52
12
5
8
1
-10
-53
27
-8
9
103
-24
43
-39
35
26
-24
31
77
36
3
-92
-18
-69
83
-17
-29
1
90
81
-15
-231
114
8
-43
-64
54
16
-70
95
124
158
57
-84
77
35
47
-79
108
52
-20
-134
-71
-44
62
65
119
74
-98
-103
8
-117
134
0
-52
85
31
-46
46
-5
1
-53
-93
-191
150
5
187
-37
21
82
-66
72
-112
2
-65
40
-64
113
-121
191
114
93
-137
82
-119
-170
-101
188
16
-52
29
-83
-16
2
29
-64
45
159
-118
33
105
-13
-60
9
52
23
-11
-51
-83
89
120
-154
30
44
-107
79
-168
-73
49
-5
-2
0
24
35
-13
-62
22
3
36
16
25
-385
-18
73
-340
-77
-210
-36
107
-60
-249
28
-41
37
-10
103
10
-3
-71
-16
-76
107
115
-92
118
-13
-57
-148
-158
32
36
45
77
64
-138
79
27
-78
23
-74
160
30
59
173
92
5
211
-173
-129
-36
-23
-105
-291
-154
63
114
-15
25
-28
28
-4
33
65
84
423
-21
13
132
0
81
-399
-47
172
-41
-143
-10
-83
-47
-202
-9
18
62
49
117
32
48
5
46
5
71
77
164
-86
21
-8
-18
58
-13
35
5
-27
-16
-83
45
302
-19
112
56
58
5
-87
-54
-32
-25
-102
-80
164
94
98
97
111
22
-1
-79
37
-151
47
145
305
52
2
-40
-71
-71
15
-52
-63
87
-132
-52
-79
-60
7
199
-44
-16
-217
74
-129
150
-14
-28
-127
