-369
-260
272
-406
340
383
664
691
-489
-665
48
55
-822
269
19
994
822
280
-365
-197
819
-93
-143
383
15
364
281
-520
-387
-142
553
-7
568
-588
-358
207
-669
-367
-193
-670
-404
-701
-363
357
136
-71
645
350
-129
-93
-1196
-128
815
-321
397
516
-228
-571
-651
-656
-257
347
-144
-450
56
598
-139
81
-744
-210
-394
261
-378
-258
451
-84
-534
257
199
130
-134
385
-155
331
-55
-462
282
-430
-752
471
-513
-602
353
-359
322
-42
355
-243
225
-519
-452
-329
437
-309
-332
150
-349
-730
-433
153
-316
-56
-281
-708
-315
172
-150
-444
-323
-233
-229
-323
8
4277
110
-1128
-142
266
-465
101
-38
102
-289
-326
-671
-86
108
-268
-293
-328
-423
24
-41
445
587
-220
-349
-1123
-435
367
-259
466
-413
-247
-511
223
-55
113
111
-695
-79
-428
-169
-50
761
191
311
427
-519
-175
-339
-601
-266
-327
-147
220
388
-83
204
223
-1851
436
-154
-179
93
-22
1153
-274
376
69
-610
-16
575
-598
112
-423
-375
-180
-74
-91
12
58
-120
-608
-380
161
-203
-387
58
135
-676
-163
-16
458
-117
-173
-826
-204
485
-546
45
624
-312
209
-188
1687
207
-701
393
-266
-673
-300
1329
-556
-377
-164
-215
-64
390
-1247
203
313
-859
551
-226
-377
253
16
-420
-296
-779
601
-204
-439
48
-370
-266
-553
-195
423
493
-32
-170
-123
-90
-1010
16
1
133
116
-110
241
-520
169
-183
-367
2
-7
-314
-354
12
446
-147
-423
-1158
-259
628
-208
-135
-468
-258
-16
-752
-115
745
137
-295
36
475
-280
-451
530
-60
293
367
-195
-415
-555
-4228
-14
-622
-425
524
312
-551
362
-201
-276
-215
-356
-116
686
254
-1147
-321
-488
-62
751
-107
-354
277
326
220
699
-211
-434
-574
-113
20
-556
53
430
281
209
-166
-715
-53
-945
-368
-1073
-257
-417
941
-293
-73
-269
-411
517
97
29
-75
-862
451
73
231
66
-419
21
-673
-438
-1131
-215
-120
-828
-1083
-92
480
-666
-885
42
-255
-6076
-451
-702
1012
-203
-377
320
-223
-719
-571
-27
14
-715
-421
-252
-762
-629
736
-313
-138
-518
405
-392
-555
-241
121
-783
337
-246
-210
30
-73
-363
-199
209
110
-496
-40
-118
-81
-322
90
-579
-42
73
-419
-805
-573
356
-563
-621
-312
374
-331
136
195
-751
-148
-234
224
65
45
-695
-426
-1436
-789
379
153
-400
253
-453
552
-456
748
479
-182
226
-1421
-1125
-75
-727
72
500
864
-349
568
-1328
-10
-216
60
-262
-394
430
-490
-688
-253
156
-661
-327
-201
-258
-482
389
-651
-460
-206
534
-95
-186
-684
-445
10
75
-187
-428
-711
-117
79
457
173
454
-366
-597
-194
-12
-626
175
-881
-310
-432
-285
-142
-379
-142
703
-81
-463
-790
61
-207
250
137
-361
-79
-438
-448
-244
65
140
55
-127
-611
-38
184
-606
-81
-551
42
-1387
126
-186
173
-275
-627
-433
-401
-18
539
371
-407
-378
419
-114
31
-221
-301
525
-50
-347
-533
-345
607
-438
-532
44
-76
232
-216
109
-522
-19
630
-100
-458
241
128
-1222
84
-1089
-304
230
254
116
-623
-569
816
-322
-549
-270
-269
-447
124
-280
-168
206
-553
-125
87
246
-2
-212
-498
445
222
581
-93
83
-821
31
217
-466
-232
84
-155
-564
-757
-198
-420
-733
786
-64
174
-118
12
279
623
-261
66
69
517
-24
503
1033
-153
47
427
152
413
-67
-476
831
-641
-995
-179
-1294
32
942
311
782
428
291
592
336
-281
-418
338
421
-42
-425
81
-371
380
-312
-39
57
-147
834
565
722
529
-229
-670
-286
765
-388
315
112
-133
-254
118
-344
299
-286
-141
-174
124
610
-669
-131
-365
-384
-213
1
172
-99
-829
-280
-251
256
704
-35
-433
-31
701
152
1105
312
-84
123
-370
284
221
166
-392
-47
-864
99
193
-175
-2762
-56
-378
225
404
-635
-346
-556
-366
-283
200
51
-357
292
967
-261
-447
874
-466
210
-147
-114
-958
-582
170
318
75
-858
281
321
-348
-345
-324
616
-681
-192
-1209
279
-365
-636
252
-564
230
-661
-688
-204
-293
-279
