-311
-427
134
319
-453
502
-773
-544
-277
-273
-221
-583
289
-849
-10
-92
284
370
-105
-1089
-407
710
-678
-252
198
-486
-412
220
328
-315
-56
-223
-530
298
-404
67
88
-300
-386
430
-248
296
-89
-399
95
302
277
-65
-529
-33
517
-371
-935
851
-547
434
-8
583
-331
467
1
-125
523
749
59
-176
15
-185
-234
45
-125
-121
644
449
-565
-418
-179
-715
-300
-219
-95
-252
-274
-241
-328
-390
224
-497
-172
-187
-152
20
-881
-4
-232
-84
-800
481
-169
-13
-104
-489
-21
-17
-415
-186
550
-231
-291
-123
-179
-385
892
445
-170
-163
-388
-390
-315
-431
456
1668
114
-280
-143
-46
172
-459
-385
-48
-178
-576
-222
-287
-13
109
318
238
522
590
-16
-254
-22
-154
-291
761
-51
321
-331
-298
-355
-397
176
-315
-183
-321
-777
-656
-277
-276
-43
-177
-55
-234
-219
-376
-72
441
1363
-87
-210
-524
-375
-790
-523
-267
-138
-386
-445
-150
30
5
-431
-634
-464
-319
-656
-763
-378
163
451
179
-903
213
35
-236
32
-437
87
-56
139
-778
-519
-769
-162
-362
-695
-27
-127
-60
-299
211
-754
-321
-73
96
279
-32
-565
-312
-227
-739
-610
289
-502
-234
-191
-113
-100
-163
-594
-66
-484
-53
-225
-355
-293
-387
-87
174
293
-129
-321
-507
-287
-226
458
-32
-64
364
-505
-358
-62
-11
-30
211
134
336
-116
-85
-525
-35
-510
-493
-893
-517
-162
-184
-335
-174
-420
-136
-84
24
391
5
-134
122
105
105
-432
-284
-121
-8
200
153
-399
-461
-717
-272
-258
-258
171
-149
-446
-106
305
-940
121
263
-335
277
-38
-409
-410
-688
-37
181
-2768
103
-126
-478
-44
155
-430
88
-381
-169
-107
-759
-105
-45
-232
-59
-284
-560
-303
-232
-68
-271
319
351
122
-553
123
-30
-231
-132
-378
-726
209
-669
15
-335
370
-695
-226
173
43
568
85
-731
-61
-228
28
369
296
-56
106
-132
-575
171
-69
-187
61
-231
-79
-71
-182
-322
342
-252
-427
-384
330
-21
-82
-35
81
-184
-76
1136
-405
566
-150
-196
236
-444
-199
273
62
11
-658
-182
-227
-375
82
202
-180
-210
-229
11
161
28
-361
424
-455
-230
-198
-75
354
-16
-255
-407
-57
-42
-165
-377
-380
-85
32
429
-661
39
153
-168
-327
-24
-30
31
-367
-125
-109
-47
-214
-478
173
28
67
352
-450
-156
108
555
-163
-203
158
-239
-118
93
139
-344
-774
281
-363
-219
-255
-279
93
160
-453
-92
-237
-651
-517
458
488
-474
-340
-306
52
-112
-50
-187
-328
-343
253
-86
232
150
197
-553
-158
-109
-143
-437
-183
-719
460
-49
-253
63
-702
35
594
262
996
-263
102
-57
40
-205
-236
-270
-435
116
-538
2
419
-328
-299
155
-732
-298
359
-494
292
203
361
-82
-205
-395
-381
-40
542
5
-121
-111
-169
79
-7
-206
-426
152
-107
421
291
-397
-356
364
-512
1160
118
-491
-266
253
369
405
-608
-630
-50
292
-228
-516
-396
-91
-131
-528
-550
56
6
302
287
47
-76
-116
-161
-15
-47
-107
-428
-261
-38
-53
-233
-217
-240
348
-140
-147
150
329
-782
-191
-122
-228
-970
-347
28
-42
-292
65
-213
120
-393
-28
-318
-115
-388
-281
-338
-403
261
-362
-130
-707
-281
-669
-78
-231
-32
-229
-61
-80
-257
-262
-319
-49
-558
-704
-373
74
-112
-141
-100
-217
-630
172
-34
-198
-222
-270
304
-612
-485
38
-362
-369
-167
-641
184
-235
-499
5
10
-245
-598
-59
-128
-408
-202
-220
38
-303
1208
-90
218
141
-203
-297
-448
187
-358
7
-219
24
-85
349
-318
-253
252
-399
-259
34
-127
21
-1062
-508
-407
33
-229
19
-774
-12
56
213
-462
265
59
-184
-522
-522
-134
-391
216
-923
384
74
-118
87
-352
53
561
-494
179
-266
-671
-308
-489
-119
-70
-717
109
-429
390
-615
194
-150
-188
8
208
11
-273
-154
-522
-142
-164
-29
391
-540
9
-682
-201
-201
-608
-115
-364
-49
454
-202
-36
-105
-612
-35
-403
-521
45
-74
-313
-203
-224
426
236
-828
-95
-361
996
-323
-136
-263
-222
-354
-185
299
31
-201
-102
-198
