-59
33
-1
-94
14
-34
-38
9
-6
-14
-18
-82
11
-62
25
-57
-66
82
-31
62
16
-38
11
21
-125
79
-38
-4
-8
-4
-41
18
-13
-29
-27
16
-64
40
-63
-89
93
-15
27
47
-43
3
17
-3
7
-10
-56
-17
-7
11
-58
-30
-17
-1
28
-15
41
-120
78
-25
-4
-10
-117
-18
-31
4
40
67
-6
55
1
-9
-62
3
-101
54
-83
113
5
-61
-21
47
-26
56
-58
-43
4
47
38
71
113
39
77
-17
4
-14
-96
-18
-74
-12
94
73
56
-69
3
-31
-20
22
-41
38
45
-18
9
-21
-21
68
25
62
-7
39
2
64
-20
-58
11
-103
-47
39
31
-63
-17
-168
110
2
137
104
36
-6
77
3
-161
-112
-141
32
-130
182
144
-2
66
27
-66
-24
84
-377
-62
191
384
112
163
-5
-49
43
-127
89
47
9
-186
42
-78
-43
182
-10
147
-4
12
3
-147
-89
182
-89
-148
-117
-7
33
77
-75
42
-32
86
-64
60
-52
-29
-77
29
-61
-72
-66
89
60
-85
73
109
-100
-48
51
-33
99
-114
92
-104
2
32
105
-65
-94
110
-22
-88
-33
127
7
6
3
113
27
5
117
216
139
-5
32
-67
3
20
14
140
-92
69
-6
135
-14
55
14
-165
-89
-118
-21
-93
-75
-13
-87
45
-18
54
-255
-143
-129
77
45
-399
-22
81
69
-2
89
1
-96
-484
2
25
-31
-1
-49
-135
-4
24
13
-74
239
-70
-33
-27
187
75
186
155
-14
20
-72
-25
36
34
-291
-3
-117
-1
-18
-20
-31
123
-86
-19
-15
-120
61
49
20
-93
98
183
199
13
1
32
-10
-74
10
43
43
10
20
-19
41
-23
-31
23
-20
34
12
-29
9
-6
18
-40
-36
-9
-12
20
16
-3
14
36
-40
12
12
-4
-11
-50
7
-6
29
-34
11
-24
-9
-50
25
3
-24
22
-63
31
-23
0
9
-27
24
-11
18
-29
-22
31
-28
44
-11
36
7
42
-9
-16
15
177
-77
16
-70
27
7
33
5
49
53
-48
121
-14
-55
-132
-199
136
58
122
-138
4
-37
50
110
-31
25
-30
-196
59
-48
142
-52
69
122
-15
18
32
-15
-9
8
131
87
-22
-46
120
-46
-135
-34
-115
-52
-75
77
1
24
-9
-8
24
-174
-64
-5
-43
-184
12
-37
-69
-26
20
-210
89
-57
34
-174
-157
19
-237
16
52
178
-135
-126
95
-48
-43
40
69
-28
41
46
164
44
74
100
127
93
60
-122
-162
-93
-100
86
2
-8
17
-23
-10
-143
-67
-82
-69
27
88
64
35
-144
-148
-130
77
-346
53
-79
36
-91
-78
115
-22
110
-16
76
-33
16
-29
22
17
-35
-37
57
35
15
-118
-24
-3
-50
-20
-63
41
51
9
-42
-112
-66
14
66
5
-70
112
-53
-49
32
-2
-55
2
-42
-124
-73
-48
-11
-82
-27
-13
1
34
-3
-12
-29
9
2
-3
-78
57
48
124
-28
-124
-136
61
-29
-39
47
5
8
76
-27
39
69
13
78
-18
5
-5
-74
-4
7
-18
-54
129
-94
52
-157
42
-85
94
9
67
223
-103
-128
-120
-74
-218
61
-61
86
-19
88
86
106
3
-104
-16
-93
-77
11
-45
-104
-175
-123
144
-35
-66
-11
60
-87
78
-21
-106
-151
30
-95
-116
124
-44
-15
151
-38
126
49
154
-31
35
-52
48
-4
-117
28
-192
14
-73
74
34
-31
30
-39
27
-67
53
24
10
-97
4
-63
-50
56
51
90
39
37
-5
50
47
73
19
-111
-2
-10
-15
14
-4
11
-34
-22
-73
15
8
-18
-78
93
77
63
-130
49
10
-81
-19
-35
-129
-29
-14
4
-173
-99
43
181
-101
-124
-8
-27
151
47
64
132
24
-7
59
-248
-132
70
-94
71
-29
146
111
31
-55
30
-51
96
8
-74
-32
-68
64
-113
-120
-72
79
13
-35
195
114
-10
-121
-58
-10
145
241
18
13
41
-239
-98
59
73
33
80
-139
-325
-6
39
58
25
180
-91
