-168
-86
-315
-29
-402
-262
-457
-364
22
46
-277
-330
122
-250
-193
-441
-435
-271
54
-199
-467
-118
-343
-658
-224
-367
-254
-23
9
-229
-314
-193
-458
1
-47
-80
74
-43
-284
176
-17
213
-47
-163
-157
-100
-301
-179
-118
-96
320
-229
-475
-4
-353
-364
-227
87
50
114
42
-394
-174
-160
-107
-350
-199
-248
91
44
177
-154
47
-185
-255
-96
-125
-124
-280
-438
-240
-323
-203
-323
-217
-220
-232
-122
98
-501
25
13
-519
-133
-293
123
-395
61
-299
-25
14
-167
-382
-79
-118
-172
-45
43
3
-149
-5
-29
-81
64
-99
-178
13
19
-88
-172
-45
-99
-166
-1551
-217
137
-182
-302
-49
-139
-89
-365
1
18
31
-83
-199
16
-14
7
82
-148
-167
-468
-352
-69
-45
243
-64
-494
64
-421
199
-218
-55
-290
-162
-140
-158
-30
-241
44
26
-276
-440
-110
-555
-232
198
-179
-9
84
-213
-295
-168
-154
-435
-16
-136
-345
-800
-450
159
-136
-292
-138
-631
-209
-437
-65
-38
177
-385
-75
-354
-185
-148
-70
32
-88
21
-152
-196
-59
-56
-489
-203
95
-240
-213
8
-96
-401
-375
-144
-152
146
29
-420
-45
-270
-337
-164
-271
-50
1777
-259
122
-436
-113
43
-177
-629
26
-61
-118
-130
-136
-401
319
-161
-271
254
-376
-150
-12
-240
-92
101
149
6
-458
-52
78
-308
-36
-21
169
-116
-294
-257
-71
-99
-14
-103
335
-193
-187
-290
-83
-37
-196
61
-198
-53
-138
-209
-184
-22
38
-226
-411
-214
-7
297
-183
-555
-242
-182
-75
-139
-202
120
-151
-393
-219
-82
-327
-377
41
-80
-257
-91
-295
-571
-119
-65
36
-1700
-38
-33
24
-354
-145
-66
-341
-215
-114
-137
12
-40
-461
-270
358
-51
-40
-219
-407
25
140
-362
-292
-303
-515
-96
12
61
-109
-83
-20
-117
-306
-218
-295
-183
9
48
512
-19
264
-84
-92
-604
-111
-70
-21
-209
-298
-25
-167
-75
32
-325
-123
-287
-95
-2
-104
66
-63
301
-84
-191
-13
201
-115
-370
-107
172
-192
-115
1057
35
152
-586
10
15
-349
-162
137
-126
-157
-168
184
-144
-121
153
97
-453
85
42
-119
-293
38
72
243
-302
209
-468
-12
-172
10
-95
29
-125
-305
-186
27
-246
-178
-149
90
-250
48
88
-244
121
45
278
-369
7
76
54
-266
-14
-291
-134
62
-101
-86
-204
-216
-368
145
-70
116
322
-23
-160
-3
-422
-74
-436
139
-411
-449
76
-310
288
373
-214
120
-159
-324
-537
41
-341
199
-199
-217
-258
-257
-97
-459
-36
75
-90
-305
111
144
-82
-125
43
-285
-34
87
-247
-525
53
-162
14
-15
-213
-154
-285
-74
130
-220
-340
-448
-89
-277
-69
51
-153
-172
71
-248
37
-21
85
-45
-121
88
-183
-352
-51
-45
220
-141
-54
-261
-359
-55
-3
-49
-1703
-10
-311
-233
-58
-131
-67
-246
-233
206
-185
5
-294
571
-292
-44
-183
-68
182
355
-13
-54
-503
-387
20
170
-275
-121
-93
-14
-104
-443
-187
31
70
107
-480
44
43
-150
-219
-240
-41
-192
7
-249
-440
-139
74
-273
-220
288
-253
179
33
-331
-182
-120
-7
-47
-842
38
-65
-81
-151
-106
-236
43
-161
-145
-114
-204
-205
-123
-170
-54
99
-252
-344
-368
-165
-191
18
-64
-332
92
-22
-213
-77
49
43
-48
88
144
-500
-163
-309
-41
-219
-198
-453
141
-293
-235
-427
-189
-267
-609
-129
-194
-273
-257
-355
-235
176
-454
12
208
-98
307
-151
-462
-168
-421
-327
-254
-415
-323
-61
-98
-406
-353
-156
-9
-260
123
-359
-92
-152
-236
-146
-522
-446
-384
-440
-56
88
-39
-296
62
-376
-321
-256
-3
-100
-82
-242
-3
13
-115
-204
-375
131
-169
18
-75
-158
-143
-67
-249
203
-178
70
-299
-318
-53
116
-80
-401
-258
-671
-269
-181
-436
-149
-163
-411
-332
-32
-216
235
-275
-164
-65
1024
-118
-53
-154
-333
-33
73
-35
146
118
-192
-96
-113
-416
-535
-80
-85
-421
-10
-204
-166
-218
119
132
-154
-423
-260
96
-225
-237
-91
-62
-33
-302
49
-174
592
-288
-110
140
-239
-108
-307
205
116
-59
-91
-96
