-28
-10
-28
0
-41
-49
-8
47
-13
-30
-4
16
-17
53
6
-24
44
14
21
-18
81
41
33
6
60
-27
-35
-57
-45
-11
43
-13
10
-25
24
-19
-38
-1
83
8
-17
47
-13
8
-17
28
-28
8
18
-36
17
13
-8
-1
-36
-21
19
-18
-42
-28
-62
31
18
36
-24
374
227
66
-56
-36
-250
-310
-290
191
-39
-25
199
-64
-78
30
-432
300
-176
174
-78
-153
-143
-705
-408
-407
47
501
215
615
93
-318
-280
145
9
-93
-437
133
-92
-159
42
122
19
637
-379
265
-109
-197
146
-616
-307
-179
-488
-139
168
472
-186
182
59
-265
-133
5
257
-372
-29
20
-5
-115
5
67
-70
-55
-65
-137
-192
36
-51
8
124
68
81
-88
49
12
-24
-33
-120
-72
-67
-261
60
18
-227
53
-21
-14
54
26
107
-70
271
65
-14
47
51
17
-72
-191
136
18
29
-191
103
161
261
-30
-68
-102
-70
-85
-118
-77
-56
-36
131
97
-72
-104
18
-5
11
28
4
12
-117
-23
5
-25
-17
14
-4
27
8
21
4
33
-20
2
1
1
0
-1
-4
34
-37
-9
-30
8
14
-14
-25
4
-8
33
-38
-2
-58
4
8
9
-1
13
-23
11
-8
-8
-2
-36
20
3
-18
11
-8
6
-16
161
-54
13
19
91
-13
-10
-26
15
44
-1
-62
-104
-360
-1
-45
-48
-14
130
50
38
-347
-29
66
72
135
144
-140
-40
5
-136
-383
-360
-31
-11
88
-8
-43
35
81
-191
-26
-10
-1
-4
-29
-211
31
-215
80
66
-247
11
-139
50
82
39
24
78
199
21
-138
163
-66
5
-25
140
168
52
-51
139
-398
-129
435
148
13
-128
57
-222
205
-174
-32
-135
59
-170
111
-8
16
-346
-591
546
77
-607
580
-4
-435
-23
-87
-246
126
-54
-251
-233
-137
136
233
-78
-244
-169
-188
45
75
-285
760
110
-136
36
25
122
-202
773
-43
-86
-170
226
-328
-339
-511
-177
-441
208
-238
138
-42
228
112
-68
395
113
-19
-24
15
60
-4
-53
508
-85
16
258
-31
-133
-79
48
-93
-82
-158
150
-6
-235
-87
-187
-20
5
56
-32
-108
315
49
-111
354
32
51
20
-124
-102
-158
-85
184
-11
70
104
-211
-70
5
70
-194
3
274
316
-115
224
-17
182
-503
250
-110
171
181
85
-56
40
164
-7
9
-35
13
-56
-21
5
57
-61
37
-32
-14
-22
-64
2
-20
-19
-78
2
-43
-29
89
17
-15
143
-76
57
36
43
45
29
-35
-44
-30
-38
-56
33
19
-47
-52
-45
-6
37
116
27
-7
-1
-83
-10
13
1
-29
51
-24
-29
-3
2
3
-82
13
-3
36
63
35
-50
10
-74
-105
-69
-55
60
24
-36
39
-80
-21
57
-31
113
-27
-12
25
147
29
-86
-127
-54
3
59
67
106
78
-1
68
179
-52
-91
-56
19
175
94
-142
18
-61
25
216
-68
-23
18
-80
-205
-146
16
-83
14
109
-201
-5
77
-57
6
-3
-102
92
-17
25
278
-35
-25
480
48
105
-174
779
-503
334
275
347
-39
524
-540
30
-193
-230
16
-414
-119
264
-534
-333
-328
646
10
335
683
237
-177
77
64
249
12
4
299
53
77
-252
-81
-288
133
82
-428
727
14
-448
-72
69
400
-399
-284
340
376
14
-162
206
-550
-51
48
-219
-119
16
30
29
-5
-17
22
-16
24
29
11
8
36
-29
12
20
10
-2
-10
20
21
21
6
19
1
38
-6
-3
-4
-22
-2
-20
18
-33
4
18
-16
26
-2
0
-3
-41
-21
-3
-8
-3
-87
17
10
1
-1
-3
95
-16
38
-18
-17
4
3
28
-187
14
-1
-118
-2
43
36
83
-5
20
0
-29
-182
-23
21
34
-28
29
-54
106
129
-24
-29
-28
-36
39
-211
-84
7
73
-18
24
21
-44
-58
12
-7
-35
53
-34
-31
-359
32
-72
36
-149
-41
-7
13
41
-10
120
92
-37
-67
8
-315
-46
-51
-9
27
-12
5
-11
-98
-30
-195
1
-7
