99
208
-288
-39
34
-213
-145
-258
109
-138
78
-77
235
-200
-230
-49
-119
4
-267
178
-268
42
-187
49
143
-157
-470
-285
747
-111
-14
119
-266
-30
70
155
115
2
77
265
-72
-57
382
42
168
-143
104
-204
277
86
433
-3
-442
239
63
-151
228
-309
-229
121
-288
265
-324
-134
82
-50
-167
205
-164
85
290
-83
-173
464
-343
368
-263
-250
-120
-366
-318
62
-6
-127
152
386
-348
426
62
-187
318
-119
-629
-90
-21
196
23
-10
-181
-75
312
-171
107
319
389
-125
-483
88
170
212
-150
51
-33
169
249
-237
-154
-29
-219
119
-241
-236
87
-475
-121
186
-60
-385
14
-91
39
-455
-240
117
-155
-144
-100
-379
-110
222
521
-58
-120
100
-91
94
241
339
-289
-102
114
-102
51
-83
128
-351
-235
101
-70
-205
-146
67
369
94
190
185
-248
-198
-510
12
73
274
58
-65
-49
347
-186
-306
-142
113
581
-124
-276
-70
-100
100
-367
-29
-30
2
288
71
-449
66
240
-140
121
-168
-127
-308
126
-388
-26
294
337
12
110
-103
-238
223
154
507
-320
-50
-357
327
133
223
104
276
31
-200
-317
270
195
-344
113
181
-117
25
192
-15
-388
153
-137
224
-191
-31
-136
151
-21
-242
642
-411
324
253
-222
-102
29
-91
109
-653
14
-313
-330
338
186
323
-140
-238
-48
-302
74
145
-481
262
262
-157
-234
-191
-320
-73
-170
39
-53
-21
139
109
-105
-250
98
-312
-141
603
124
182
-380
274
153
-293
-152
-300
264
15
4
-66
194
-51
18
-171
-72
-31
233
-31
-662
345
196
-7
2645
-181
47
-150
-30
-218
-86
-105
-155
-322
410
-370
152
19
230
164
-87
259
-613
-6
73
-257
405
-206
315
-346
628
212
359
-66
-339
-255
-122
127
-462
-97
-8
-17
-132
-36
140
-22
252
164
-152
111
-62
20
-60
-1
286
-142
-250
48
-169
173
-149
75
278
-82
-243
21
303
-161
129
98
17
-5
-20
10
309
-261
-144
910
408
320
-119
142
350
243
324
16
31
10
-183
302
105
-353
559
100
-61
149
-198
241
-561
-162
-1
255
109
-129
30
215
160
137
168
-3
-4
221
-320
-218
178
3
-2
228
-149
480
-53
8
35
86
174
-7
-265
100
232
-474
168
97
-220
176
-116
-91
-165
-3
-176
13
86
144
133
438
-35
124
-306
54
-273
-54
81
-176
180
96
260
-28
-308
307
190
-263
-124
-353
-419
-76
110
579
110
287
-22
-175
496
101
-36
33
3
-162
126
439
30
152
124
-95
-227
230
-155
-409
21
-170
66
6
393
-6
468
-161
-434
67
29
-200
39
343
453
-165
188
327
458
-187
550
-235
110
63
77
-183
210
16
189
373
-289
54
287
102
43
41
-98
215
-341
-225
86
-181
-322
-426
249
-5
-412
-24
-504
298
-8
-80
215
158
305
-414
-22
33
-410
44
229
23
282
-80
123
11
161
-156
-3
198
115
-75
-57
84
-265
58
-160
-405
-129
266
202
-141
-465
258
464
399
-82
560
-233
220
163
-132
-586
13
116
-271
-340
158
189
-537
-81
-128
-30
468
83
-147
17
-53
-97
126
-413
118
-43
-139
-63
-90
214
239
112
-368
9
143
383
443
293
82
290
341
-102
141
-458
-65
-2
41
235
-138
-322
195
-332
165
-332
228
-52
-90
-58
10
166
-27
-312
-119
-98
-97
399
214
-4
496
41
83
160
-183
22
-202
19
32
-54
344
-58
94
-99
160
-78
-258
-362
-6
-146
-29
164
2
-301
-444
-402
-296
79
-136
-109
250
-282
-166
190
-68
21
169
-331
97
-105
-51
-93
-275
32
162
83
167
210
95
3
-221
-12
-20
99
-49
-190
-35
340
-2
-446
-28
340
46
-225
-229
122
158
82
323
174
-95
467
-135
-152
-82
-238
-180
-203
375
-185
78
330
220
168
90
-231
-148
89
-171
-142
146
137
-512
159
-270
44
-146
172
341
-344
-223
-362
-174
99
-115
-90
4
429
-263
-41
198
403
-146
175
205
-135
95
-356
25
464
-270
-249
-276
