-282
129
643
-614
605
-175
627
194
-252
-63
-266
-27
-559
733
101
840
244
335
-161
304
709
-428
621
1206
328
659
405
-92
-1017
556
-77
-272
706
-764
521
-189
-518
-243
573
-1266
-226
-650
-251
-26
-88
-428
-88
-99
-379
-515
-306
-498
1076
-586
458
390
388
-904
-686
-228
-172
477
-258
46
-204
682
-281
247
33
-815
-494
325
-233
-402
296
263
-302
-81
579
208
-56
-34
180
513
26
-463
-297
-95
-455
70
-277
-784
2593
357
803
-571
868
-472
-539
-356
-411
77
-106
-177
4
-482
-505
-386
-864
120
-596
-347
-791
-526
-147
-59
188
-63
-562
533
-404
-415
-241
320
1019
-555
-525
729
-452
-250
-49
572
-473
-353
-158
-237
507
440
-861
-323
-493
131
146
351
423
-2022
-193
175
-675
913
-32
346
-1011
246
344
120
139
33
28
-1048
197
-443
-107
270
-299
332
302
374
-1552
-201
-296
-139
-367
299
-400
871
275
201
472
-278
86
392
-657
439
40
-461
374
680
561
16
-242
-1526
1183
-444
727
168
-119
722
185
-177
-477
123
418
118
-665
405
110
-267
87
429
-659
-431
733
658
36
-77
-816
-302
389
-66
293
976
-371
102
-720
1358
673
-264
195
-430
-180
-78
205
169
-130
65
-31
-756
485
-1115
267
116
-548
15
-169
-226
-375
261
-914
-963
-117
1800
-42
-79
296
-493
-1192
-306
81
-47
-255
-198
-473
152
-199
-1081
34
129
29
-539
15
-238
-646
26
-316
-212
-452
-590
-468
-360
468
123
-402
-614
-441
568
309
135
-19
90
405
19
-696
-374
683
400
277
924
579
-263
407
293
-365
445
1621
-880
-355
-462
-3731
-249
-551
-608
108
29
-168
270
155
174
-797
155
-859
530
1076
-877
-139
43
-289
-619
-223
-650
-53
507
68
611
-758
-55
-450
-395
-212
-741
11
241
128
199
404
-69
-14
-801
-207
-883
-1120
-308
194
360
-323
-489
123
273
-354
56
223
127
73
-44
41
-140
-355
509
-274
161
-36
-314
30
-474
-220
23
211
-695
-715
151
-100
-8198
-68
-606
179
-510
-1032
276
-177
-338
499
487
455
8
286
15
-928
-720
356
-719
-242
-381
-25
67
-155
-644
-14
88
794
-715
-139
-140
160
-229
-657
368
-223
-346
-156
-134
-304
-1006
0
-423
-804
83
12
-1091
-736
617
53
-733
-960
663
-708
62
-968
-15
-307
-184
112
205
704
-69
-98
306
-1011
63
-356
-746
-48
-198
134
-367
270
448
-722
-289
-705
-441
25
-1429
-362
323
217
-495
225
-395
362
-228
-46
-423
-13
45
-329
-502
-572
-141
-721
-1146
115
697
-429
-87
-282
-56
665
89
-733
-380
-107
-467
118
-62
-190
-57
-61
-339
-5
200
-125
353
-265
-701
-171
782
-247
-39
-55
92
-511
-198
-8
-222
-360
1039
-344
93
-1179
186
-738
787
456
-851
83
-96
18
-775
39
325
-296
-672
-480
132
561
-150
-331
475
135
-840
491
-214
-462
0
-370
-1296
-829
222
1106
356
-438
-360
462
206
-315
-506
44
675
158
-135
-322
-256
-484
-130
-804
-289
139
-335
-232
-436
-328
267
433
-10
-923
84
-85
150
288
-820
-507
718
422
-581
-316
-484
1683
-470
-225
100
-100
-40
540
189
285
-314
36
245
-132
369
222
21
-420
-131
78
407
204
295
306
240
196
-899
-524
-38
-698
-266
-541
16
-69
-567
442
109
141
201
-77
327
316
-815
271
154
710
509
373
818
-179
212
82
-68
636
175
-684
361
139
-538
25
-448
12
282
-364
60
0
646
641
272
-328
-139
309
-1
-149
-381
380
-378
289
-203
93
-603
334
503
4
522
526
33
-565
-519
292
49
605
502
249
-344
-277
40
801
-195
-737
-56
566
400
-441
-29
-473
292
158
247
-71
119
-727
228
-369
31
288
-308
-816
42
629
439
388
114
212
320
-7
-119
115
3
-270
382
-197
9
-219
166
-231
-34
-260
-296
389
-214
-48
-587
-410
380
70
563
135
459
1105
12
-35
237
-111
-118
-55
-251
-356
-360
95
127
166
-225
185
270
-260
-776
-97
470
-993
-41
-580
591
68
133
271
309
-128
-927
-703
595
-139
73
