-105
296
-239
-21
-190
-7
204
210
-64
288
-337
178
-3
117
-121
83
-121
-142
-344
9
-234
-150
-217
-547
-182
-348
232
340
-311
-170
115
298
34
-122
227
22
254
158
290
-154
71
37
77
88
-140
21
288
274
-32
-54
200
-47
-92
180
-102
2
-253
44
-30
199
-313
277
254
64
-152
-219
319
12
193
-156
-256
-179
91
-38
-57
211
-29
-31
-69
-140
-207
-116
-88
200
-338
62
-33
188
217
-154
-25
-234
29
89
-34
-100
8
438
40
246
-78
-218
99
102
77
22
-16
-204
263
-2
133
419
-97
-39
-253
-94
100
-30
-179
-127
-196
-81
-180
42
43
-9
220
2
197
-80
-43
-46
139
-70
39
-51
121
71
48
-66
-5
77
61
-45
-72
69
-19
132
80
-26
6
31
53
-137
3
70
-113
69
-124
-4
27
76
-181
-50
36
43
-322
-135
-9
-63
-89
134
-1
-68
-11
62
34
46
-57
-199
60
-3
25
225
-30
18
-77
-256
66
99
-1
-5
56
-19
-86
-61
6
30
-130
181
9
98
170
203
46
4
37
21
65
209
-2
29
47
-62
195
-4
-70
-158
-105
299
41
-47
118
50
-92
-89
-127
40
-55
-56
-115
-61
36
84
-129
-68
7
47
204
12
332
106
-30
-87
-156
-106
61
-57
51
179
10
25
120
77
52
-23
-84
106
-211
-134
-69
-56
200
-13
-97
199
112
232
106
70
-43
-236
-307
532
-20
-39
84
290
219
-64
203
26
127
-96
-211
-87
-185
179
189
-35
-92
165
348
297
88
63
94
-120
127
-81
84
-86
-14
72
165
240
42
68
120
-105
99
167
61
-64
19
-118
62
-151
-144
-21
-16
31
-20
-89
1
112
68
-33
-60
-107
194
122
57
24
7
53
153
128
49
-20
-49
57
75
73
51
73
-6
84
-167
-289
53
-138
-22
219
-72
46
-229
33
-151
80
-93
-27
-64
60
-39
-39
-50
-38
22
-40
38
9
-50
-28
107
-45
-24
-48
14
-38
-1
-85
60
-89
-152
214
-281
55
-5
-64
-7
223
137
6
-135
-9
268
-159
-190
277
144
-211
-147
-202
32
-98
1
-2
427
195
-128
37
-12
112
52
112
269
-123
-176
-144
161
-190
-512
73
30
-49
-119
-71
-331
122
61
-509
119
123
38
-75
-199
-63
29
105
208
-81
243
-26
93
20
-362
-189
-21
182
-118
28
-52
-142
-235
208
89
368
366
32
308
-175
-33
208
-226
-9
217
-10
-17
124
114
29
-174
222
-190
70
-316
-162
305
118
-207
-230
-97
208
-118
-110
-30
-63
-88
171
52
-45
-51
-212
-114
-104
-216
131
118
106
-42
-110
101
147
-258
231
211
-19
-248
207
-77
-166
-15
-10
-27
15
12
9
-12
-20
-15
-23
51
11
24
-23
20
-2
-41
45
18
38
-83
5
46
-5
-47
-44
17
-22
-126
52
33
43
-6
60
2
-73
-42
79
10
-5
37
-28
-6
-4
-23
8
31
15
40
15
78
1
1
-14
21
20
11
8
6
35
-16
52
37
48
-93
-144
61
-130
288
-4
553
-121
68
-141
-76
-124
47
-214
254
103
37
86
26
-86
-347
30
-19
159
-40
-128
350
158
108
3
47
105
-35
-6
-205
-415
-68
-105
-282
171
-43
-82
96
-27
-104
-32
-97
-8
18
-21
2
-281
129
154
229
89
-7
48
-404
109
375
89
-26
-264
-54
-101
107
-41
-119
-7
89
149
245
-67
-47
130
114
13
23
-3
-68
23
66
-110
-143
-22
-317
-141
58
190
-166
-92
-9
-9
2
39
118
101
65
-19
-98
-120
5
118
25
84
64
-5
-57
-88
8
15
167
37
299
-57
139
154
-257
148
36
158
22
-309
-7
-90
-34
132
-14
5
25
-74
72
6
42
93
-28
15
71
2
-52
-1
-83
-3
51
78
-24
0
103
17
14
-50
0
-14
49
50
-55
-24
-5
-68
82
7
104
-40
4
43
26
58
-101
40
6
-59
-17
-47
17
17
-75
22
-3
25
-34
64
-57
-30
-27
-89
51
67
33
-5
-43
-13
