60
-223
-261
23
100
-301
-121
20
-54
-125
168
-4
119
-113
88
-425
-290
-310
105
-116
-319
100
-256
-215
48
-163
137
-116
163
-229
9
-57
-336
227
4
103
4
227
-133
-23
105
79
85
-125
172
-4
-32
-175
255
-45
214
-57
-393
13
191
-65
-158
165
35
299
-80
35
88
-343
-121
-42
75
-55
-43
190
97
-251
-65
191
-324
461
258
-343
-282
-222
-261
101
5
-207
-232
-26
14
47
34
146
-3
123
-636
-142
183
24
59
5
-140
61
89
-42
-355
262
-9
33
32
-87
345
-43
14
230
26
23
88
-101
-16
209
-143
-285
-112
270
59
-429
-193
96
-12
-67
145
365
23
-49
-303
-320
70
55
-444
-112
-93
-410
83
-21
-96
23
-254
208
-53
214
-44
-197
391
91
51
28
93
-131
-136
-152
-71
-359
-131
10
84
211
-10
74
-246
21
312
5
-129
115
152
-9
-61
-141
-114
107
248
171
-17
-97
110
3
-35
225
-165
112
-422
31
110
487
-255
164
-153
-490
-168
-419
-197
233
293
-279
-60
396
96
238
176
-189
-31
-137
-200
215
38
-255
-65
-26
420
237
-244
274
119
-158
-161
-314
-46
-378
-110
282
-270
104
275
-63
-225
264
9
-107
-189
236
-379
155
-122
-331
470
86
280
-59
-243
230
195
-114
45
-785
-242
-116
-453
315
137
129
-356
131
159
157
15
81
-23
418
-99
136
-115
92
11
-37
-107
-198
-28
-237
-174
7
-314
167
107
-153
-75
358
78
-149
-77
265
138
136
-319
-443
10
47
-167
-83
-114
-108
-222
-119
-66
0
-29
46
-799
302
-36
-60
4982
129
166
84
-13
32
-204
-254
-147
-101
103
-120
-26
-204
-261
448
37
85
-231
176
-45
202
-158
-129
8
-193
342
42
-175
96
78
197
-257
-73
-433
18
86
176
41
157
-89
-17
151
245
24
189
-68
53
-111
-342
216
-116
284
-130
-85
-162
-168
-102
-205
-306
-146
1
114
250
-27
86
-140
-132
80
48
286
-2
-143
934
36
128
56
-94
232
72
-150
187
117
-43
-214
55
-214
87
190
89
-153
-66
303
9
-441
-27
267
54
-110
-44
-16
64
76
77
92
81
105
-119
-62
275
40
-202
-39
279
-163
253
89
-208
-114
61
336
-53
254
123
291
-231
-82
-111
-229
180
33
-222
110
28
-34
394
-118
1
11
-73
261
-146
-222
186
-108
145
-32
-104
178
-40
218
31
-83
436
11
50
148
-307
-109
279
26
119
95
-161
56
-118
-37
219
-117
-24
128
220
158
-22
121
59
40
-5
-226
-196
103
-178
282
2
-9
91
86
-107
-56
99
-327
-71
11
-341
-17
218
69
-141
85
38
197
-107
90
-42
354
181
236
-505
91
24
42
378
13
-69
-30
177
40
205
184
112
-96
-278
-4
99
-101
-277
-25
302
-294
191
-208
171
-117
-43
-12
144
32
226
-22
12
-177
16
149
177
170
7
271
131
-118
-165
-82
109
61
108
5
113
-116
-41
-16
196
-129
86
-83
217
-292
-35
110
-321
-40
390
131
48
228
-315
-105
262
234
125
-313
99
-53
13
126
153
-25
125
-66
54
-192
69
122
-61
-201
33
61
-165
-18
-147
72
73
-110
-28
58
210
139
91
217
185
99
10
127
214
-296
239
63
-5
167
41
-265
-333
-348
148
-139
-179
-134
-437
24
-45
-181
44
-487
125
-138
-132
-49
97
275
200
54
143
204
-273
-117
-13
-212
92
-121
185
-460
-139
-100
131
-82
159
-442
191
-41
-26
-50
102
-410
-207
-420
-50
267
-41
-123
255
-242
-472
122
14
-38
78
-175
133
53
43
-275
-115
55
102
-169
-127
270
146
94
-181
217
-72
200
63
105
-116
281
-98
-170
-211
-147
-52
-3
49
172
177
3
119
53
-246
-32
7
-57
157
38
-171
-181
131
-240
64
406
-38
81
96
-16
-79
-25
-139
-97
279
119
-238
61
135
151
-149
240
95
-186
-281
-4
-46
44
-324
-5
110
252
-90
230
205
-85
-177
133
213
34
93
-435
176
399
-124
77
-28
