70
500
-240
282
34
7
-214
89
-132
169
93
25
354
-805
165
298
50
-415
128
-426
-726
-91
-83
-468
-165
-170
-639
273
61
236
357
-638
267
7
166
525
494
-318
-155
-47
-159
57
54
-180
332
-498
-29
107
133
-33
228
-51
122
212
450
-429
-533
-277
-158
-51
445
631
-156
-18
-123
-315
-191
-305
-482
-166
-94
370
-9
-643
8
-481
187
-578
20
-470
147
162
-9
-151
-110
-339
500
-516
-118
-13
-210
17
-430
382
81
-134
560
681
361
-237
-341
-68
-330
668
161
-1710
40
-14
-266
-333
-22
-110
451
414
151
338
-454
231
-80
-648
-641
212
-34
487
755
185
763
-345
274
1095
151
-23
1142
-231
318
6
-117
-289
175
-114
64
-230
-270
601
-437
109
229
394
-316
-45
-196
301
-349
-126
345
-51
63
-441
148
-163
360
-37
586
141
-95
-197
42
-211
1692
48
381
625
5
19
-35
569
355
-51
387
-703
21
78
263
-82
-136
720
253
-70
-599
-501
-585
144
186
-141
514
290
-252
-295
-726
586
309
-282
-1135
-139
-98
-384
-155
-10
27
521
-109
-54
-169
-380
173
1089
-76
50
-994
276
271
-267
-76
-83
-58
-517
-601
885
-431
-241
61
-41
190
-172
167
-253
-1066
-418
-156
-464
-734
289
420
599
-41
-893
28
-257
120
602
169
212
-27
81
40
-463
-42
524
121
220
13
18
128
-1
-58
131
-229
33
-221
67
27
142
-188
397
194
-321
244
566
344
679
-458
-158
-45
887
83
64
-311
-65
57
306
-18
514
358
-210
-89
-300
-526
188
104
22
33
377
502
271
32
-303
-100
-132
594
-72
510
-573
-98
55
-362
851
-110
-101
20
928
226
454
211
-127
-194
-481
125
-266
-308
-264
432
-1534
273
-199
116
-372
-506
71
93
15
-364
-167
-572
151
-331
-984
-209
-147
168
-276
49
-35
-197
-511
237
21
92
-255
-57
205
-372
270
107
-165
-256
-21
-1042
64
-192
600
-645
545
-38
89
-257
149
44
435
464
355
274
-21
-230
166
52
84
-158
-101
-477
63
-376
-389
202
-185
-184
-22
-430
-365
277
-66
376
193
-54
257
-96
-5
49
-428
-81
-74
38
-194
-133
346
-228
-109
522
293
-213
462
546
559
234
531
882
-19
-567
-191
-138
-760
488
372
-354
-359
-48
-420
214
405
-7
-420
400
-142
106
-247
74
-32
-143
-522
721
-380
-164
-60
344
8
-21
82
125
185
-161
402
403
702
-169
-212
64
-221
172
-126
-690
410
-52
-17
-427
-10
-82
-143
-63
-506
88
222
209
-394
11
-462
244
82
-676
-155
-238
141
127
162
-1147
-31
-206
-440
323
157
-4
42
104
151
-59
-262
934
7
-31
346
-478
-181
365
217
256
-161
-276
-210
-231
-132
333
-259
392
51
31
1066
-613
501
-747
-141
-187
1022
-153
249
-36
-324
-490
16
-134
135
244
-390
-515
33
40
-22
-84
-58
227
-37
403
-81
-162
563
-163
188
-362
-121
-424
90
-140
-45
144
-351
7
296
324
-327
364
296
-31
99
767
174
-82
-1146
-232
-178
180
-1106
60
313
-152
310
-61
-88
294
11
212
194
-30
678
541
229
19
220
-288
-475
-156
33
-198
-448
-331
158
148
199
100
-82
-241
622
43
5
-16
698
118
-656
398
-195
-16
-386
51
-254
393
364
-126
-117
-456
1
193
-813
548
464
136
-1209
71
-15
-244
-72
-227
653
-664
415
-280
-302
-161
-295
320
473
127
-379
586
229
9
-222
-33
327
-1204
-460
258
42
190
269
-315
-190
-38
121
-47
453
-45
-94
-197
243
-328
182
-17
-237
171
-314
237
341
201
411
-1
28
378
170
92
558
-212
-350
-266
-80
-42
-128
215
242
267
-547
425
-179
-234
-503
44
145
36
137
-231
-245
-610
-444
8
11
1160
50
-58
75
330
481
109
-538
-128
-630
24
121
-82
-271
10
-23
-221
-54
950
-285
-102
182
85
409
85
-236
-240
306
20
405
380
-101
229
290
-5
-351
-286
-282
37
-85
69
-220
-865
407
-218
155
174
148
342
304
-206
474
-5
-234
73
-332
392
33
