110
15
-22
91
-75
-238
-34
-81
195
186
308
-103
125
-122
35
-53
39
-151
-31
-35
149
83
-149
2
35
-143
-204
-159
54
-103
-290
17
-205
8
270
238
174
-136
132
158
14
-88
172
-134
-1
20
137
44
44
379
106
-151
-39
-235
35
-7
167
-391
-208
-123
-197
-33
-298
-91
13
-85
-229
86
-188
-148
67
68
-3
23
59
341
-351
90
-107
-176
-255
52
120
9
226
35
186
-160
-130
-172
140
-76
-108
-259
-2
313
-127
15
-205
137
52
35
-62
120
178
57
-61
141
40
336
303
-152
100
-173
236
-218
-150
88
29
-17
-160
-369
80
-148
-56
-13
-261
-82
-2
211
-103
-247
-98
112
-45
64
-177
135
-197
211
75
173
162
1
118
179
183
138
288
-180
95
-163
110
83
-78
-235
-293
-7
63
4
-246
177
53
187
-65
-141
-249
28
4
-44
63
91
14
-64
73
44
-109
-163
-160
-178
347
-135
110
-84
39
-119
-156
93
86
-43
35
112
-274
155
84
-65
144
-134
-89
-343
267
141
-332
133
124
-331
28
-39
-165
-125
48
120
-198
-41
-99
76
129
-123
3
45
-465
116
-14
-129
21
-230
67
-65
-292
197
62
44
186
66
-124
106
-191
33
-25
-208
-474
-42
299
-335
217
57
-158
-59
209
-126
12
103
162
-87
22
70
98
96
-73
-216
168
95
71
-38
-16
10
13
206
-225
-74
40
-102
-4
257
-110
-140
50
82
137
-124
-152
-233
-65
184
119
173
-295
316
66
-288
62
-62
-29
-139
-40
25
146
37
216
-9
9
-74
184
-20
-48
-59
25
117
515
-89
94
-80
76
-61
-65
292
155
-91
86
-115
-23
-136
-6
71
63
90
-264
-253
-15
-45
263
-114
283
-184
41
-9
56
14
0
-50
-101
262
142
95
-30
-143
-35
-21
150
66
-9
-35
-225
-56
155
178
-33
-28
137
-79
-315
135
-184
175
13
-110
242
-53
-70
27
-43
-73
-14
30
111
136
-113
24
11
-25
-87
61
163
107
-79
40
-81
43
214
8
-105
-148
-129
78
94
-21
35
-114
139
106
-187
232
-131
-93
85
307
84
-103
-189
290
146
247
117
88
-161
-404
-192
-91
-222
-198
200
137
-256
190
40
9
160
58
85
-128
156
-157
78
-71
137
84
6
-167
-95
189
-161
76
91
151
42
181
102
348
133
54
-254
-163
-255
-19
69
-35
117
-103
-45
101
-40
50
17
-83
-266
40
-43
-173
-13
415
106
78
-85
-198
252
17
-277
-258
-32
14
-2
53
-144
36
255
62
-224
-52
-130
58
-8
-9
-176
178
87
-18
121
-89
-151
120
172
90
177
148
399
29
206
-9
112
-127
562
-59
-153
384
-180
-139
227
-197
293
73
91
-57
100
89
-50
44
-107
222
-186
106
126
21
-295
-237
107
331
-35
-27
-188
234
-180
-190
86
415
131
-16
0
25
-121
-186
-74
89
234
-186
-181
150
-59
-308
4
339
153
-22
-304
79
-43
-74
-132
-72
-328
200
233
-220
-97
-99
107
167
-55
74
-104
58
265
-56
-61
-162
-68
-46
-180
28
-114
-197
-62
-132
140
336
-99
-91
99
-114
-161
69
-30
-86
-144
111
-126
-128
308
-67
123
-239
-179
56
-56
221
86
167
75
288
27
147
-131
-39
80
-66
-110
191
129
139
35
107
-70
-2
101
-184
-217
-60
-59
-70
-354
-234
-111
22
318
337
-170
375
1
-270
-51
-1
-31
-174
-13
-79
-86
-128
-67
82
-197
76
-5
43
-134
146
-146
64
86
48
-38
33
-235
-247
16
-102
-139
102
-53
-162
-126
-253
-53
127
-43
41
-163
25
-193
-147
40
0
220
-82
49
64
-21
-125
143
119
-124
25
-229
-78
258
88
-49
-104
-51
-2
-255
-207
-13
-15
230
-78
119
111
226
-70
-176
162
-35
-28
-154
-59
-157
215
208
322
-10
-20
7
-136
-3
41
-86
197
89
-269
182
133
38
7
114
189
-237
42
68
51
221
168
63
-131
361
-6
113
116
171
-173
168
62
-280
51
-129
68
160
10
-224
-219
