-125
199
121
-80
119
-82
-189
-101
-223
-328
75
-61
-71
-15
84
56
-81
59
24
-50
-2
167
88
102
-55
110
2
73
100
-117
68
-58
-141
-139
76
38
-36
-48
-273
-52
-73
18
62
-110
-146
23
68
6
-87
20
63
-408
11
-139
-77
309
-97
17
41
9
43
-90
-109
-20
34
48
-35
-103
19
85
59
-86
-20
-74
-8
14
-34
75
-20
-3
25
55
-62
19
-8
5
35
114
20
-272
15
-38
-102
-28
77
-61
3
11
27
29
76
6
1
78
20
-49
-130
-89
-7
4
31
43
26
-7
20
-19
36
-88
-45
-28
-28
-77
44
-79
16
-14
41
25
-41
73
-22
-13
-6
38
25
224
-4
20
25
35
39
-26
-33
-5
212
21
120
134
52
5
2
16
-44
-64
23
-111
-10
-25
-61
21
-31
-4
-23
-31
7
35
13
18
43
25
-11
-16
10
-24
-52
-23
-5
56
14
9
-2
-15
-10
15
37
1
-31
49
-43
283
-46
57
5
-74
57
110
23
-42
-40
106
-10
44
-23
47
299
-70
-11
64
-52
-105
143
-48
144
-7
-35
175
98
70
-46
-51
23
24
-89
72
30
-29
-199
57
12
-40
129
-44
14
25
36
-7
-17
-18
-12
-40
4
-94
-44
-27
-123
50
-147
-18
428
-23
-265
100
6
-42
-328
385
11
-388
-59
-201
-35
-62
-92
-36
294
-68
22
-34
-188
66
-17
76
181
-20
-57
-83
-8
-130
-294
-51
-78
10
-51
-51
-65
42
1
-9
-129
-118
-154
61
-219
81
-8
-6
44
-52
42
76
-97
60
-436
-25
53
-42
31
-83
38
-113
81
77
-34
129
100
-29
85
5
-133
55
-45
38
-54
16
10
-99
-51
97
81
157
123
-14
17
-34
-54
-48
-165
155
172
23
-97
54
-16
-207
42
131
-251
-130
-111
-31
-53
-161
50
-17
-116
-5
2
-67
236
28
-51
-83
-38
-277
58
-60
-32
33
-28
-93
48
227
-70
20
147
-185
-140
-59
-58
-37
-1
-128
211
-107
326
16
-49
-232
68
-24
64
69
-29
6
-19
87
87
46
99
146
-9
-25
-214
-43
-113
-12
-61
-72
92
-16
51
-16
-41
22
-1
-14
-27
30
49
132
-31
52
-14
150
-108
-5
25
91
59
18
109
16
9
28
45
10
9
78
38
17
-11
-4
-68
5
25
375
84
-29
8
43
-73
18
-65
25
-82
38
0
6
-9
-42
26
-93
-135
-43
16
-5
-3
44
-15
87
9
30
45
-83
43
-11
-61
26
-63
-31
112
19
21
-13
52
79
-47
53
-7
34
-119
-1
2
16
-39
-21
-35
8
-45
-43
-82
-58
-44
33
-2
-13
93
1
32
2
10
-71
-29
42
29
-28
20
129
3
116
-8
-67
37
12
-83
-120
-43
148
-60
-9
-88
-27
20
-80
-30
39
90
5
-12
70
45
-36
-36
119
-115
-32
-105
-53
-73
79
-97
-15
21
43
-140
28
-66
137
111
-36
103
-52
-14
32
-76
-31
176
26
65
46
-97
65
98
-11
48
-36
-49
21
32
-79
-170
-6
-20
-118
7
-80
3
-14
99
-35
21
14
106
13
-20
51
96
-38
-40
35
-46
-28
15
73
-1
47
15
25
25
-108
-93
29
-36
-47
5
43
-15
-5
20
6
-88
-174
24
-263
-120
142
-57
6
-218
-165
71
4
90
-29
-20
-109
107
-78
27
93
-27
-11
-86
-8
102
79
-14
44
-39
6
-20
-49
191
23
-38
81
-25
-11
40
91
-55
132
-48
-72
27
66
25
-68
-19
48
-1
-1
26
-42
-72
39
-406
-42
7
119
-8
36
87
55
-5
58
-49
35
73
-106
-334
-26
-48
267
-130
-62
49
75
4
-37
336
44
-36
99
8
-11
172
-14
-78
72
33
27
115
0
16
-4
23
-11
6
-17
23
26
-33
4
-83
31
-86
27
36
37
-7
-17
98
117
-5
-46
-30
-17
20
12
17
-120
-31
-84
36
167
-46
18
39
-16
51
-6
-339
-6
-16
-135
4
68
-17
-16
-34
-125
-8
-56
-1
33
-1
-253
