69
-141
32
130
-59
173
-81
-58
99
-175
143
-233
24
414
-43
-18
70
-36
-150
0
219
35
-22
172
139
78
201
45
-126
34
14
-438
284
-58
116
-96
27
-131
-268
-72
179
-363
-92
131
193
-25
28
-168
-161
-556
-103
-22
110
16
-83
372
-45
77
166
-43
114
219
11
-123
18
25
-33
83
-8
-179
147
37
59
-29
-68
79
-42
39
47
-18
2
-31
-28
-36
-79
24
-28
-80
-52
6
6
-51
-64
3
-48
-17
-7
50
12
70
-25
49
-71
52
55
81
7
34
31
-54
-7
-31
-11
-72
-107
-35
-75
-11
-28
54
31
-72
-15
145
-109
-49
-73
-63
-2
-84
33
-26
46
-56
-17
47
-58
-124
-28
19
30
20
104
29
-1
-36
22
25
-58
41
-25
0
28
91
-65
29
71
-55
-2
26
33
32
-15
-56
42
-32
57
38
14
27
45
26
-90
15
38
38
-27
50
-1
-41
-9
-32
35
26
-13
0
-78
26
-22
-25
8
21
-48
5
-12
6
187
-20
16
-19
-55
36
56
20
-49
-4
12
97
87
-11
-104
-129
9
96
61
79
-3
39
16
4
1
16
148
68
-25
-128
-9
0
12
0
-35
-8
-68
-50
85
7
4
-6
54
41
-64
-46
12
-26
-45
16
14
-7
-53
68
-21
-36
-23
-1
-98
-10
-25
65
-9
6
12
34
-24
47
16
120
15
57
19
3
36
-15
36
23
18
-16
4
52
-14
115
16
60
17
-38
23
61
82
25
-18
61
20
-63
65
69
-10
-62
6
9
-56
7
-42
-62
13
-51
-50
17
8
79
-64
73
-38
26
-24
31
-63
-19
-11
20
-17
-3
63
204
-182
-12
-12
-2
-24
-26
-81
40
-11
-9
63
52
-93
-153
-22
-101
47
-69
-93
72
11
-33
-63
-4
-174
40
74
-2
-74
68
42
-80
139
-109
43
-32
-55
-25
19
-39
21
-24
293
16
22
29
-5
-24
-67
-25
27
49
-7
22
68
-32
-48
-219
-165
-298
-317
54
-182
-61
-26
127
-77
17
-148
-10
25
157
-90
28
40
2
-60
-125
-48
-74
22
-130
34
-29
-46
-110
-29
-26
-177
3
94
-6
63
-212
200
76
28
-114
-68
-125
-33
-49
-42
0
43
97
-53
51
-62
60
9
23
-52
14
-82
11
48
-160
0
-19
-233
12
57
-26
-106
51
-2
34
186
-342
-48
348
188
256
284
-251
-142
-71
65
-42
-119
110
-282
-148
-168
-158
-63
-108
-147
-197
-91
-124
156
-112
-175
155
-184
310
3
29
-338
-22
153
117
0
134
-100
248
-411
-201
-366
205
-426
-507
208
241
-129
158
16
-218
73
-130
-82
52
-287
-75
-76
58
-44
-384
47
26
-40
-46
-21
3
35
-51
71
25
-15
-30
26
-81
-77
-7
-15
-51
-22
-87
-38
72
-48
-44
22
-107
-12
-45
1
-8
-95
34
70
-20
-24
-20
21
-21
-14
-8
-60
-41
32
43
-18
12
-53
5
-10
56
-3
115
41
-15
73
-16
-25
39
23
41
-14
-20
38
40
22
-203
-130
-27
57
-67
193
37
380
18
-20
-83
59
-4
90
33
95
-50
-55
-55
-55
-97
-315
-264
-18
-2
-8
-19
13
-1
78
-75
-45
45
17
-78
-77
29
-5
-3
-107
-21
3
39
-176
-165
-120
-8
22
0
-173
-76
-73
1
254
-91
-1
15
-94
141
68
-14
48
7
3
53
39
57
53
-104
-23
-67
72
-45
-85
68
2
-20
50
79
-27
62
-20
63
-10
90
-14
-37
30
15
22
-44
-42
27
92
-20
15
0
-8
-90
39
24
82
101
-6
7
-88
-16
70
-81
-28
84
53
57
-12
-18
133
-13
-264
44
25
-133
-39
10
-8
7
89
42
33
91
-37
-210
-18
-26
-203
-1
16
-16
25
73
-25
104
21
65
12
-50
-6
-130
54
109
9
10
-23
-49
-20
2
-220
12
10
-49
-33
-18
25
31
0
5
-38
-26
0
-7
-54
6
-73
-128
43
-5
-6
-1
-102
20
97
-33
3
35
101
-49
32
21
23
-22
9
43
