-129
-180
-211
-70
-667
-169
-412
-311
-120
-85
-154
-316
123
-282
-177
-449
-401
-312
14
-271
-546
68
-362
-791
-345
-515
-72
-8
384
-409
-75
-35
-552
-46
-237
-156
85
-121
-241
317
66
234
15
-293
-97
77
-147
-158
14
61
-10
24
-615
170
-356
-422
-277
221
11
-28
-154
-294
-65
-268
-148
-383
-142
-262
-164
186
106
-218
-129
125
-397
-104
-40
-210
-261
-443
-236
-157
-261
-480
-114
76
-313
-129
80
-213
178
240
-870
-96
-352
125
-390
-146
-147
-81
-63
-140
-306
-7
-17
-168
-108
30
233
-99
245
-66
460
36
-163
-125
-222
-152
36
-315
8
48
-159
-414
-291
138
-110
-463
-26
-14
-139
-238
-8
-130
206
-41
-314
-326
-119
27
-51
-185
-162
-422
-357
227
-58
-133
40
-597
-78
-483
18
-79
-259
-333
-237
-233
-397
63
-320
71
-90
-158
-81
-323
-452
-258
384
75
38
-69
-96
-395
-26
-631
-259
-275
-309
-27
9
-363
136
-391
-269
105
-476
-564
-282
-52
8
505
-736
79
-378
-230
-202
-550
-214
-185
139
-176
-359
44
62
-265
-358
-63
-424
-345
36
67
-304
-456
-169
1
110
0
-709
196
-396
-596
-19
-249
43
-508
-191
54
-397
-95
15
-151
-484
-10
27
-379
-55
-238
-357
265
-231
-140
40
-586
-312
-137
-86
-176
193
162
-8
-806
-210
-169
-257
111
121
-86
-213
-143
-287
-35
-45
-202
-155
218
-144
-65
-105
65
-109
-229
-13
-375
-169
81
-196
-49
-33
105
-317
-449
-51
-6
97
-348
-443
-278
74
-212
-142
-77
130
-70
-521
-223
-384
-559
-423
4
-174
-416
-7
-106
-884
146
-100
-113
3933
-13
-5
53
-366
-293
-173
-282
-144
-117
9
-289
281
-333
-372
406
-95
-69
-198
-272
2
173
-205
-136
-3
-652
72
-148
65
-45
-85
128
-308
-517
-305
-354
-123
194
-256
211
-83
215
122
133
-274
-154
-171
89
-230
-277
-143
-287
-265
-64
-356
-114
-306
-39
115
-419
49
-64
50
-19
-192
245
272
-188
-327
44
249
-312
-50
1252
-156
163
-310
3
315
-188
-72
112
-376
-300
-337
-57
-257
-111
322
151
-189
153
15
101
-209
-1
86
285
-165
-22
-465
58
-35
-21
-357
-207
34
-411
24
36
-366
-148
-70
338
-102
-10
105
-290
-99
175
137
-385
-250
153
56
-540
208
-289
99
146
-74
-23
-297
-243
-259
-242
-66
63
177
-162
29
185
-70
-151
-274
-3
-351
-402
-100
-382
88
38
-339
325
110
-342
-415
-80
-287
18
-186
-138
-167
-7
-214
-143
-180
-135
-71
-245
272
190
-119
-399
49
134
-40
48
-436
-403
252
-185
-133
-15
-245
-343
-145
-64
-62
-84
-199
-189
-253
-436
80
94
-241
-417
-168
-132
218
-46
72
20
-95
-41
-105
-719
132
-262
238
-272
162
-318
-307
-62
-59
-23
-64
49
-130
-462
-433
40
72
-205
-248
283
14
-200
-199
531
-326
-89
-26
37
-59
323
257
-141
-608
-407
181
-39
-353
-188
-5
30
-8
-487
-192
201
18
49
-142
-139
77
-203
-418
-43
-66
-20
-64
-304
-405
-283
223
-202
-36
210
-285
243
167
-502
-404
40
-149
-5
-882
-28
12
-288
-170
-23
-477
-182
-284
129
-235
-196
-67
-154
-264
-165
158
-343
-402
-455
-198
-73
-178
-167
-199
31
-90
-229
83
-107
-95
-192
-191
-13
-556
-244
-246
-398
-35
-295
-533
147
-250
-121
-330
-372
-432
-498
-98
-125
-191
-280
-382
-204
163
-323
-286
102
-240
124
-239
-331
-154
-313
-302
-513
-504
-326
186
14
-349
-91
-166
-2
-225
34
-279
-44
-108
-53
-367
-561
-224
-422
-319
-134
267
-285
-232
124
-558
-205
-318
-246
-71
-174
-537
-203
21
-118
-314
-307
282
9
63
-10
-463
-142
-83
-305
102
-331
3
-98
-308
-120
198
-221
-336
-347
-301
-230
-205
-308
-420
-169
-570
-243
9
-226
-160
-272
-159
-98
35
-143
85
-19
-468
-32
-163
33
79
-255
-308
-348
-152
-460
-775
27
-73
-460
-110
-170
-215
-170
-152
49
-17
-341
-8
-9
-272
-366
35
-35
-59
-449
310
-136
78
-497
-125
-89
-172
-347
-166
73
115
-302
-241
-143
