93
112
11
14
21
-127
-76
103
-55
-30
154
4
-47
-84
-65
0
70
-10
-4
-121
-168
19
-63
-40
-120
264
-49
86
-36
-41
10
12
49
-53
79
24
-114
100
-113
-116
-54
56
71
188
-81
-44
-58
-34
74
-138
38
-40
62
-20
-221
64
84
-47
181
13
-73
50
-8
-28
-43
-67
-21
27
-44
14
-5
-22
57
2
-26
30
-21
21
36
-15
-32
-1
-55
23
12
-7
-15
18
4
-4
55
41
-9
-32
-33
-39
18
-34
-15
-64
1
-29
-19
-16
28
-13
0
10
31
7
-32
-3
44
27
-16
29
14
-33
-8
8
11
-17
24
-22
38
-17
20
-32
-57
8
14
43
29
-23
27
2
81
-1
-37
-27
-7
51
63
17
51
-40
-56
-13
46
-52
-64
-60
6
19
-17
15
21
16
81
28
22
53
35
25
-33
-55
47
-27
15
2
21
-41
-24
4
27
58
-64
14
24
-18
-14
-37
23
-21
-7
22
70
-63
-7
-37
-33
-33
-13
-35
-28
-121
19
-73
20
9
-13
-73
2
28
18
-34
-58
21
-10
15
0
16
-6
-17
-38
56
13
3
34
42
58
32
16
-17
50
16
-22
-22
-9
10
63
-23
31
-37
0
-18
-12
-20
-12
-43
15
-11
29
85
-77
42
-17
28
71
44
-33
-32
-35
-37
-9
-27
-61
-2
28
18
-11
-3
35
5
39
-21
15
42
-17
29
-14
8
-11
19
-11
17
1
13
-42
-33
19
8
22
41
52
21
5
51
-46
-6
33
38
-55
-2
40
12
-22
0
31
12
1
32
18
-18
48
-25
-35
-39
20
7
-19
15
39
-18
-55
11
10
25
-31
1
84
182
-49
-181
-38
-33
88
-82
53
-83
-1
-62
35
9
27
162
13
-18
-44
-7
6
-34
74
-15
-36
-32
-242
51
52
-71
463
129
-55
-136
163
-22
121
58
-16
83
4
70
-530
67
142
-84
-50
76
36
110
152
-15
72
13
95
-119
50
122
-153
-14
-37
8
-91
189
-31
-53
69
13
-34
77
37
-87
-37
34
42
113
51
-12
-3
10
-6
-49
68
-13
63
73
-25
-37
-51
31
-35
-9
2
8
-6
-17
38
6
66
28
-68
38
28
-46
-18
25
9
32
-56
-54
56
-66
6
-43
-25
-49
50
-44
-28
30
66
32
56
25
7
10
-18
-76
30
69
-67
140
10
-31
-44
-22
-3
11
-2
3
-45
32
-44
25
2
21
19
-17
29
-65
16
-9
19
8
-22
-53
-76
20
-33
5
0
21
5
20
39
-13
-28
44
-58
-59
-27
-60
88
-39
44
33
16
20
118
-4
29
-7
-37
-35
4
130
47
23
-31
-8
-15
-16
30
-1
-22
23
-32
-16
-4
19
-6
-39
-5
-4
8
1
-24
-54
-61
27
27
6
-16
-2
43
32
-10
-17
-25
47
-4
-35
-35
-22
-50
12
-3
9
-13
-22
52
-2
40
8
-26
-56
-35
-5
-28
-21
-25
-30
60
4
-44
-5
7
-37
-14
-62
-11
-20
7
17
-16
-21
5
-89
78
35
34
-273
26
85
-65
83
-145
64
-52
-202
-84
23
-150
58
218
102
144
-110
-21
-152
113
83
-112
139
52
-18
16
63
-88
43
33
43
653
55
-99
-143
-17
-83
69
183
3
5
41
-29
90
94
-76
-67
57
-159
268
-18
104
10
82
-56
82
-47
-96
99
-9
9
-3
-7
-30
-3
8
-40
35
1
-19
14
-10
-7
-16
-59
19
21
15
-38
-18
-4
41
-5
-24
3
-2
3
-14
-30
-12
33
-7
0
22
-74
37
-22
14
8
-6
24
57
65
-62
-23
-27
30
-27
0
23
9
-12
31
31
14
11
-9
-64
63
-29
-24
-15
20
-85
-95
-32
-62
-52
-5
-61
25
-27
-7
29
-143
53
54
41
21
-15
100
-14
-13
87
-53
30
7
9
5
9
27
-45
-20
0
-8
28
24
24
26
137
44
-66
65
33
-25
33
49
-74
-40
7
127
-78
-29
-51
110
13
69
45
-62
-15
-16
107
-54
10
-20
4
-75
