-7
-11
-31
7
20
28
27
90
-4
31
78
-3
-20
-20
77
-243
14
216
25
84
-5
-49
-45
15
49
16
-31
-29
13
-4
-29
26
-1
-82
-28
21
19
6
-6
45
26
2
3
30
149
12
34
19
-33
40
16
-25
-7
41
-27
-36
65
-36
-278
74
-27
3
-1
-286
37
-25
149
335
20
-15
91
137
127
39
-77
-100
-50
317
-20
-58
18
-331
175
-320
17
104
-67
4
237
110
74
-389
39
-78
-113
162
64
-47
-24
162
-59
-21
164
194
-123
185
72
-268
68
143
500
122
37
46
142
-79
31
-3
105
143
-55
73
-17
157
154
118
115
-79
-73
19
64
-104
-131
-44
55
-6
-139
34
-42
38
-49
153
85
-112
95
-19
37
-52
-13
5
150
110
93
-32
-26
30
-95
89
12
73
95
74
3
59
-95
40
72
-24
-90
46
-57
74
-22
-42
-5
64
-25
26
64
1
-40
-11
-35
-28
-12
64
90
21
77
0
26
-3
4
32
41
15
-197
-159
-22
-99
15
1
28
19
-36
71
-86
98
265
-52
-25
-278
-25
-54
-17
23
-136
-6
-188
-55
32
-36
3
31
23
-22
6
-15
303
-6
-8
-95
42
-82
-67
-49
-2
49
28
-3
-38
91
-73
-13
16
34
-95
33
-18
-149
54
-32
-12
105
9
61
12
6
-22
-39
-7
-15
10
-13
26
72
27
-48
5
97
-49
24
32
13
-33
11
-29
6
48
12
28
-38
-85
-57
-4
2
95
-46
-19
23
234
-52
7
0
-112
-8
-4
12
-20
27
25
37
-2
87
43
37
-12
29
27
-16
32
1
35
23
32
-22
29
-8
-15
-25
-32
-18
-74
7
38
15
-103
-64
-28
21
73
-9
-98
-19
14
51
-21
-20
36
-4
9
-40
-10
38
16
27
65
36
-139
35
-16
-19
-16
-52
68
-8
-39
-17
42
-65
31
-4
-38
-159
40
-22
-5
-28
16
22
71
31
46
4
-53
15
-13
11
15
1
-5
-55
35
-236
-90
-34
14
-54
167
-8
-75
23
-53
16
-13
328
-43
-298
-88
3
-257
6
108
-19
35
55
181
-48
45
-87
-211
-27
-38
85
-91
-64
343
61
-8
114
-18
7
90
56
-71
262
-25
-28
4
19
-84
13
-26
-18
11
53
209
117
222
102
-399
91
-57
59
98
2
0
-376
42
39
236
101
12
-69
0
-31
-41
-111
41
17
54
-324
-87
-5
126
-30
-42
-28
95
-264
-15
-203
52
-67
-188
119
-21
65
53
74
112
16
-25
282
50
-82
-179
-206
-25
294
40
18
78
-175
67
170
162
67
-121
-17
186
-22
-126
-10
-70
41
27
-95
-31
-101
-50
-7
-130
-93
-12
-42
-76
-76
-329
-16
-58
-36
30
-17
-29
-47
-160
-14
-206
67
56
6
-102
-127
-45
7
18
7
36
4
99
11
23
88
-16
-31
-99
-207
-12
-34
-44
45
108
-46
-12
-26
-88
-179
-83
-4
100
-13
-28
-220
58
-20
23
-81
-48
66
-162
44
8
96
-16
-52
0
-42
-18
-17
108
-22
-90
5
9
-56
17
-17
-39
-6
-76
-22
-9
-20
41
-74
-62
-92
19
213
124
-52
16
66
-39
10
86
-8
29
27
-74
-44
-53
-53
-19
-12
-48
-16
-59
22
3
56
21
67
-18
-17
-22
-37
-42
-2
45
9
-39
8
-107
-50
-40
3
79
40
-16
-16
-140
65
-89
101
22
-79
-117
-134
-30
-92
-22
-12
46
26
22
84
-102
39
-49
22
10
-5
15
-34
-33
-27
13
-281
85
-65
104
-71
34
108
-2
7
3
-13
120
50
3
3
-36
-25
201
-36
154
80
-9
11
-9
-146
21
-35
13
37
-118
-46
47
39
-66
-318
-62
-39
25
-3
-20
-2
4
15
11
7
4
25
41
27
-8
-9
3
-8
40
-22
-19
6
-144
31
12
-16
-42
-16
98
7
12
-6
14
36
-115
31
16
6
-12
-13
30
-141
30
-9
45
0
32
-17
-42
-12
-42
-10
136
0
20
-35
-24
-152
-39
10
-9
-18
-241
-1
