-117
180
231
-196
662
-111
712
406
-65
-399
194
311
-659
91
2
1201
647
452
-350
67
775
-494
26
1143
466
452
-26
-211
-1174
509
-173
-242
761
-153
104
333
-703
-353
-153
-569
-602
-649
-522
631
-102
-645
142
290
-417
-385
-247
-441
1032
-653
571
600
308
-1071
-174
-560
307
321
-186
192
-366
314
-341
151
-25
-733
-261
301
-223
-799
350
-132
-435
282
383
401
178
-145
489
855
9
-691
467
-422
-831
-44
-792
-955
1540
-182
413
-344
426
325
45
-258
-211
-250
718
-278
-204
0
-81
-558
-807
-131
-543
-233
-1419
-262
152
70
-105
-49
-339
-39
-270
-359
40
517
512
-909
-64
790
-554
-232
-275
-222
-421
139
-1231
-187
366
486
40
-422
-127
54
56
387
535
-717
-243
-106
-730
849
-629
718
-518
-161
-147
142
104
-69
338
-374
-62
-613
-188
-497
-99
216
876
286
-1162
-579
-388
-343
-456
182
-320
1390
73
-185
390
-432
-307
149
-475
18
277
-647
145
527
151
-378
-512
-1002
1024
-681
505
49
27
1318
200
106
-621
-121
362
-1059
-365
-223
40
-231
565
393
-663
-509
47
1146
-436
-762
-825
-646
1799
-1167
379
831
-381
160
-508
1024
95
-620
337
-14
-740
11
1091
-600
-169
535
-345
34
287
-1041
286
330
-854
826
106
-322
-41
-57
-656
-362
-559
1432
245
-49
568
-541
-720
-394
140
122
104
-204
-245
-231
-59
-1454
-5
-225
-302
-452
-155
164
-577
544
136
-273
59
-64
-275
-576
223
496
-496
-183
-547
165
493
-292
-953
73
-166
-29
-514
-363
667
25
324
600
914
-517
-427
482
-296
-96
1299
-627
-275
-354
-2304
-620
-215
-383
460
430
-67
185
-340
-201
-579
326
-789
357
575
-1337
-343
-423
141
61
-374
-525
376
-288
-215
788
-794
-12
-605
-408
-218
-926
510
111
571
356
-167
-1187
133
-1080
5
-965
-761
-931
1
34
-162
-575
-161
365
-125
508
-99
-172
158
47
473
-31
-481
665
-484
-182
-363
-468
-177
-836
-1112
-237
181
-624
-996
24
-229
-8384
-245
-710
227
-397
-976
42
-178
-667
104
128
103
-287
-56
-531
-1148
-544
131
-786
-518
-432
278
-397
-1067
-896
-77
-645
542
-431
-461
-709
-44
69
-404
720
-445
-742
106
-209
-331
-1445
-5
-477
-421
242
-122
-981
-796
211
-52
-824
-584
994
-579
270
-102
-930
200
-144
384
-120
87
360
-141
-428
-356
227
-276
-997
-288
-231
-72
-380
228
479
8
444
-663
-368
135
-1639
-356
417
325
-200
146
-860
127
-124
-79
-89
126
-52
-68
-211
32
-11
-958
-767
-75
636
-645
-709
-297
-466
423
391
-972
279
-224
-270
-31
211
175
-205
-198
-214
-62
-129
241
851
-729
-774
-55
365
112
-41
-1103
-657
-414
-523
-243
-223
-134
1246
-261
279
-458
-105
-392
71
394
-268
-73
-379
-679
-264
-205
805
1011
-496
-808
-187
97
-1180
-159
-99
80
-1052
252
-167
161
-321
1
-369
-622
-293
836
669
-764
-231
345
-118
-330
-484
-334
681
25
-756
-421
-478
-136
-596
-788
136
599
-262
96
-157
-57
105
400
315
-716
114
-82
-1308
302
-1230
-760
399
475
-345
-202
-680
1286
-441
-648
17
-74
-185
601
181
208
-690
-233
47
-501
150
-65
39
-871
182
313
617
174
-275
-229
-45
102
-452
-66
228
-456
48
-206
133
-380
-397
1004
110
-200
804
-271
469
902
-687
90
-259
268
398
660
862
-338
-94
234
-142
529
-286
-524
390
-6
-757
-43
-715
188
284
110
831
211
490
939
621
-893
-448
648
52
315
-622
-80
-689
-2
-581
-13
-295
124
880
217
584
554
-294
-1230
348
313
-676
815
114
-292
-49
-363
-348
583
22
-313
80
120
468
-977
-330
-403
-133
371
-107
-232
346
-701
199
-803
-200
457
123
-628
218
245
451
353
153
-103
115
367
60
936
-50
-356
393
-125
18
42
-324
-446
192
-645
-537
716
-529
44
-312
-212
-33
540
321
-153
-104
1176
-516
-80
1168
-189
-44
69
104
-242
-421
-447
518
-172
-279
260
435
-474
-147
-156
714
-1140
255
-162
516
-286
-221
-110
56
-7
-182
-927
437
105
-64
