91
63
206
136
35
70
86
-280
135
263
-128
-278
-255
-72
-238
-106
230
282
43
-11
-84
-12
-85
-3
151
-228
-92
-420
552
66
-121
5
-80
-159
221
194
139
-351
67
206
-133
-238
62
-62
-264
168
6
203
98
212
143
-235
-144
318
-59
-155
-3
-463
-461
-396
-311
207
-159
-5
46
110
-118
316
-307
185
170
212
-32
283
-49
342
-468
-107
55
-269
-23
-64
116
-80
169
389
-85
208
30
-506
324
-131
-188
-216
-129
337
293
59
-240
-105
-72
-38
331
118
386
1
-14
7
-232
455
-123
-133
-7
-170
289
-34
-282
-53
-424
374
-493
-515
298
-172
322
191
-265
-219
-329
21
-136
-125
124
136
80
18
-87
-440
-93
561
205
-246
-51
372
156
-24
26
-172
-102
-126
6
-205
327
-174
-117
139
-200
41
32
-80
-237
244
303
262
217
76
103
53
-232
-121
181
290
-39
-191
-57
151
78
95
-97
-242
236
-13
-7
61
-112
313
-256
-196
223
-52
-110
-29
91
-76
273
73
8
-5
19
-652
145
356
132
246
411
-217
114
-141
-227
122
462
121
-207
-31
-264
251
0
151
13
-120
-227
18
-265
11
188
-137
72
235
-54
308
-96
57
63
-284
-73
-3
-176
9
-53
-323
-301
-194
241
-233
374
375
64
-132
-178
-27
303
-115
223
-291
-73
234
290
102
-160
-596
-212
-346
61
304
-397
107
52
-38
-119
-193
-166
-34
-167
186
-32
58
94
238
-78
-209
244
-217
100
534
220
212
-116
282
238
-494
205
-80
-6
16
74
55
111
-24
224
-153
-335
-67
227
-139
-140
6
-162
-295
679
-195
98
-100
131
-156
-74
172
213
56
267
-318
21
85
-20
-24
-154
195
-450
-267
181
-387
398
250
365
-132
-49
-120
386
167
-42
-234
18
27
-395
157
137
-247
-123
-121
409
221
158
-245
-182
-122
-143
-124
-13
44
253
335
-297
145
-156
-2
-111
-18
54
-208
-70
152
85
-193
184
-53
254
8
266
288
294
-228
-160
-279
121
306
153
9
-66
171
431
-318
-50
25
-61
213
317
-109
160
0
208
96
-311
183
10
-229
18
364
315
-39
-25
247
-7
107
104
16
-163
-308
-132
-245
-213
52
180
116
119
435
30
-30
145
329
235
294
-139
-37
73
-337
241
85
-265
71
-244
248
-174
-60
-67
-368
-274
-48
123
648
80
313
-101
-64
-66
9
251
-60
68
12
-9
-100
-224
97
-164
-186
-268
145
62
-133
-107
552
8
95
71
-89
260
-129
-8
-36
110
-333
-239
102
-162
-146
54
80
53
57
-378
-107
-225
-94
152
208
137
162
255
-34
-328
264
-11
-32
381
392
436
201
34
273
278
-10
368
171
91
48
56
-179
109
-166
-48
-10
3
238
544
-150
95
-199
-156
293
-218
15
314
-337
-335
77
443
-147
40
-145
120
181
237
-35
-32
-96
274
-257
-351
-78
-413
150
-181
-226
49
-127
-125
118
-103
-330
66
11
-1
181
-194
-77
-179
-40
72
-290
-139
227
576
-431
-129
26
189
324
-119
96
9
-87
182
-79
-320
-27
-31
-365
-54
256
381
-537
-252
-498
223
474
9
-197
-90
-275
-255
167
-205
-164
-257
-38
-167
-83
410
73
124
-168
339
-110
141
170
5
76
-124
194
-325
133
-303
-233
141
-46
115
124
-142
482
-225
190
117
-27
153
-48
122
82
138
127
-409
-207
-225
-237
145
305
-312
458
143
-170
67
246
-41
-290
265
-268
-69
-67
429
-47
-214
254
-168
-495
-80
56
-139
280
256
-229
144
-117
-256
-139
-50
-48
-75
-296
-268
-158
-148
-47
261
23
-174
-42
-105
-98
-129
-157
-445
252
162
189
50
-68
63
-276
83
162
-9
-589
-137
-50
73
-232
-187
113
226
374
-405
-389
140
207
247
79
414
69
633
42
-161
-79
-200
-33
-1
147
-10
92
351
152
-224
-39
-39
-17
-10
-21
-204
153
-26
-219
241
-231
-55
46
-82
79
-256
-47
-285
41
84
309
8
-129
217
33
-154
195
233
139
-41
-21
-356
114
-59
-320
19
149
-360
-543
