124
20
-113
-134
-23
217
-154
-130
-145
97
-36
-209
243
-245
-60
237
17
155
16
-152
-442
-12
-198
-53
151
-120
-78
86
187
108
99
-155
-70
-70
33
155
218
-125
156
-33
-100
75
108
-239
36
-10
-36
-25
-104
-99
255
-20
-139
189
267
-71
-154
-34
-113
-254
-70
-83
126
248
-274
-122
-27
-45
-197
64
134
-38
395
32
-158
100
195
-441
-65
-420
14
79
-206
-87
-115
-124
150
-338
-73
-103
68
2
-256
287
77
-6
152
70
166
134
-135
-187
-45
119
-165
-4
-33
-22
-54
5
-230
-51
150
179
92
-109
18
-7
136
-94
-184
487
99
-115
104
146
57
-148
245
278
66
-252
-284
-87
-8
59
49
-109
70
-207
-12
-39
-117
156
-104
267
-36
173
120
-271
-118
47
472
-52
-29
141
-48
-229
-55
-277
-20
-53
263
20
-100
-158
-99
-38
669
50
35
-131
-154
-124
-104
-128
19
-14
146
-102
-108
28
14
9
-174
135
-72
-166
-88
-117
-5
165
-185
-183
-93
-87
-9
-127
-167
134
87
-167
-126
-92
75
-100
-103
9
-149
-10
-24
200
-148
-268
-50
201
6
136
-377
251
5
-39
-34
65
-63
-398
-188
56
-71
-39
-187
-136
-193
-28
63
31
-87
143
13
218
-230
-41
233
128
-220
268
-35
13
318
526
81
-150
-25
33
-191
-110
132
-34
120
72
77
180
-49
34
-303
108
-59
3
7
25
-168
90
75
-51
122
-278
64
132
179
116
-40
-69
-81
249
105
-47
43
-70
-21
83
-28
-25
179
69
102
-245
-459
11
-19
-194
15
94
102
66
-378
0
200
27
2142
-113
109
-277
-131
-202
55
99
-91
-26
42
-587
117
-8
-102
238
-107
-151
-230
48
-99
-25
104
-129
2
-146
99
-181
58
139
-76
-38
200
-132
-362
4
1
-314
-72
-60
-28
-71
19
-228
149
-268
98
-161
130
-22
-157
-146
-132
-108
31
-164
-74
42
-152
-147
-78
201
116
-1
-2
-173
-53
80
-110
188
394
107
16
241
-129
140
-35
204
-135
20
72
-41
50
-54
55
-12
-25
-97
-156
200
-77
-45
55
-134
-3
132
130
117
-55
96
2
114
151
-119
32
-46
161
-253
88
-37
39
-392
175
284
-47
-135
272
-52
-199
121
-101
-263
153
97
-24
17
-2
-101
-42
255
84
-57
286
-178
70
-8
142
-116
-89
-194
193
289
29
83
-312
34
61
25
106
-84
29
217
69
379
-102
-63
7
-343
100
-74
-19
167
-65
-29
92
56
278
103
184
-193
47
134
-223
-60
171
70
37
69
-39
-105
253
-87
71
-59
-368
-149
37
110
-102
76
-55
6
119
-20
-90
-206
294
-73
-167
42
129
-76
-42
179
74
76
68
-237
239
210
184
-11
60
-124
2
114
-149
51
-174
73
-30
326
137
350
84
-240
-65
10
-110
52
193
69
119
194
116
-28
1
400
62
75
101
-128
-89
202
-63
23
94
56
-241
205
-15
75
41
40
346
110
-18
-75
-9
80
-247
65
105
43
-167
218
-17
-2
99
207
-74
111
195
1
-163
-149
129
13
-191
75
227
163
-88
100
-104
146
-57
153
72
5
54
-147
-150
9
188
93
130
-212
-12
144
-38
208
-7
181
55
-191
-7
101
-81
-21
126
-133
-199
118
53
66
-229
-31
-143
-225
-126
-20
-324
-173
19
-203
59
-27
33
20
-219
106
-14
-145
-7
-89
4
20
35
-21
59
-27
72
-129
-146
-26
181
-93
177
17
85
256
-161
-131
-151
7
-41
260
-36
95
-73
41
-148
-38
165
44
47
115
-97
-79
-93
329
-5
-97
-105
100
52
357
-153
-74
-64
152
-203
-5
93
0
295
-317
213
-54
25
-543
-69
7
69
-114
-119
-69
62
33
105
6
408
-178
17
-49
24
52
-174
-20
49
-94
-205
83
-80
-59
88
-32
2
142
298
54
-150
-91
-80
16
-125
-111
-124
-81
61
48
203
-96
-102
220
53
-370
-105
41
30
47
-2
135
-216
172
-26
-189
477
-2
13
-198
-101
81
-51
17
108
-144
88
-83
