-1
30
0
19
34
-1
24
32
-19
3
3
5
-22
52
6
10
8
18
1
4
16
3
19
-25
7
56
23
9
-72
24
35
2
-6
-31
5
-6
-7
-12
-14
8
-1
-16
12
-12
1
12
23
32
11
-42
-3
-11
12
-25
29
40
22
-61
4
-32
-11
78
-35
24
14
32
-18
20
-15
-34
-52
7
3
-11
4
46
1
-26
-9
1
50
6
2
9
35
-37
-2
31
-18
11
11
-19
35
-22
65
-46
99
-48
-24
-33
-26
-4
2
-15
14
-25
19
-19
-47
-30
-37
-8
-15
2
-36
19
-17
-1
-14
23
-29
-18
-11
13
55
-38
-10
59
-2
-23
12
6
-10
-15
44
1
35
50
-42
0
-28
41
29
-7
-1
-34
38
10
-65
52
-29
23
-103
18
-22
-47
21
12
-6
-62
32
1
20
17
-24
54
0
15
-34
21
22
46
-42
3
7
-18
6
8
-4
-34
5
7
-37
10
-3
-33
-9
14
11
-20
-3
-8
5
-20
53
23
18
36
-28
-8
-24
-16
24
28
5
5
15
-10
3
30
-5
-26
59
33
16
20
-64
1
37
10
36
32
-3
-2
-1
41
-8
38
17
5
3
-11
0
12
-24
-23
0
12
-8
-11
33
-40
-30
26
26
15
-23
-26
4
-32
-21
7
-5
4
18
-23
-16
-20
23
1
3
-16
-18
33
11
-27
-7
-15
16
-18
-1
1
-39
18
-3
-48
-39
-14
6
-40
31
-7
-14
-41
-1
11
14
35
25
20
6
-5
-48
-41
7
30
52
20
14
0
32
13
-3
71
23
-14
-31
3
-315
18
-13
-32
26
18
-22
0
-18
-4
-28
13
-23
28
25
-64
3
-27
-7
15
11
-8
28
1
-7
22
-3
10
-44
-31
-19
-21
8
18
-17
46
5
0
6
-15
0
20
-8
-10
7
-46
22
-4
14
-8
13
3
17
-13
30
33
10
33
-48
5
5
-7
-15
35
-17
4
8
3
12
-47
-46
3
10
-140
-11
-25
14
-6
-32
25
-29
-54
13
-8
6
-36
31
6
-33
-59
0
-11
-42
-7
-20
8
31
-15
-3
-1
-9
-3
20
16
-1
8
-43
31
-54
12
9
49
4
-32
30
-15
-47
17
8
-25
-27
-1
4
-51
-9
-3
-53
1
-40
-24
9
-34
-37
1
40
-7
-8
-6
-13
0
-11
-41
7
-15
31
-29
-1
51
-18
-19
-58
-33
-4
-78
-19
-21
56
23
16
-59
-16
34
-7
-4
-12
-35
8
-39
-37
-1
-23
-64
32
4
-10
-47
-45
11
27
19
-49
-7
-7
-19
-17
29
8
18
30
-7
17
2
-9
-22
-9
-4
8
39
9
0
1
23
-41
-24
12
16
-3
53
-40
-44
-37
34
-16
48
18
7
-30
39
-12
-25
4
-14
-15
16
-30
-9
58
17
-26
39
-22
-51
-2
-43
-17
17
-32
-14
-18
54
38
12
3
-13
12
4
-7
2
-9
42
-12
12
-13
50
-20
-17
-14
-7
-13
20
3
0
-7
7
8
0
-37
9
41
13
-8
17
-74
39
40
-15
-4
-10
69
2
-3
6
10
-22
7
16
-17
-31
-3
66
21
18
26
27
-21
-29
-1
8
10
10
7
29
3
-10
17
-36
-75
-12
-37
10
20
-28
36
36
-15
25
-9
21
10
-8
-37
-10
42
2
7
56
-15
-5
-5
33
59
7
-51
38
-2
-38
-16
4
12
35
-24
25
9
5
-7
24
33
-3
32
17
21
-64
37
-9
1
-1
-2
0
22
63
7
-23
14
7
27
-33
18
-6
19
7
3
-18
-5
-25
67
-9
-5
-13
32
22
-11
-11
20
-5
18
8
3
20
-41
16
-32
-3
8
-49
39
38
8
47
16
-41
41
29
-9
25
6
27
-31
27
-18
-8
0
25
4
-7
0
-15
12
7
3
-36
-2
49
21
37
25
-18
30
-57
1
30
6
-3
7
-11
-17
39
8
14
-2
-30
57
-1
-4
-28
-13
43
-47
41
-77
0
68
-20
-40
15
-24
-19
-30
-9
-18
11
