-246
186
353
-587
-224
-42
1028
372
-334
-704
171
450
-613
103
-362
1211
801
399
-279
-1
723
-23
-196
409
192
355
-30
-117
-733
302
2
227
834
-406
-350
413
-862
-600
-207
-437
-726
-451
-177
374
249
-164
218
373
-397
-202
-541
271
970
112
350
340
208
-1055
-211
-831
195
737
-11
-386
-200
522
-457
47
-507
-502
-336
503
-379
-265
133
1
-368
76
505
245
-6
-144
531
472
252
-541
-117
-408
-760
343
-489
-846
861
-87
69
-90
278
-242
329
-659
-171
-438
646
-346
-8
-93
-255
-657
-424
164
-317
79
-310
-371
-381
104
-242
-505
-92
76
-83
100
183
885
468
-1143
207
225
-745
-109
-342
34
-549
-55
-791
-184
567
-76
-13
-96
-306
-142
-263
484
549
-742
-118
-413
-809
711
-788
540
-687
-9
-645
202
-28
-23
-223
-94
-241
-450
-244
-424
401
67
655
349
-851
75
-316
-553
-273
-340
-180
509
419
-304
104
-114
-338
-20
-258
-519
43
-487
82
-548
677
-115
-494
-562
531
-799
466
-188
-205
679
-150
-404
-675
-116
73
-821
-409
-10
-221
-47
95
479
-575
-402
88
1026
-415
-147
-1123
-304
986
-713
170
489
-282
261
-599
1488
279
-727
205
-66
-1047
130
712
-500
-387
87
71
-589
514
-694
26
751
-1162
63
-299
30
-135
-252
-404
-111
-735
1056
366
-384
602
-105
-779
-823
555
237
47
-65
-217
-111
-405
-1304
-59
-249
231
-5
-306
387
-688
390
-30
-16
3
48
-169
-621
-410
501
-762
-272
-323
-107
61
-525
-403
-357
-38
24
-538
-47
422
-33
115
533
803
-494
-487
403
-337
547
1138
-450
-375
-611
-1139
-684
-571
-824
533
186
-128
174
-244
-282
-408
-162
-148
321
377
-1256
-415
-552
340
-150
-485
-393
419
26
331
17
-741
188
-473
-332
-354
-848
310
-46
393
43
174
-705
-68
-1186
-35
-737
-628
-740
248
-409
-210
-201
-311
748
-258
198
-363
-94
214
395
472
313
-269
175
-645
-231
-441
-635
-146
-336
-755
-230
72
-654
-705
-523
-69
-7145
-544
-730
452
-302
-446
293
105
-800
-386
255
6
-734
-229
-241
-291
-204
639
-559
-521
-80
498
-181
-1326
-517
-140
-816
670
-367
-276
-192
-501
-310
-344
470
-113
-955
-212
-165
-69
-559
277
-702
-281
387
-216
-1159
-633
276
-926
-998
-794
556
-43
272
507
-583
243
-106
107
-292
-82
-674
-286
-27
-638
279
55
-145
205
-308
56
-364
751
396
-522
60
-1230
-559
-342
-618
231
657
640
-190
453
-1392
382
4
-138
-123
30
659
-1
-577
-73
-316
-220
-1067
60
255
-851
-170
-698
-304
60
602
20
-30
-524
-393
-175
-178
35
-22
-216
25
29
305
372
742
-719
-1052
-324
203
-182
250
-660
-496
-614
-269
-335
-536
50
1054
85
69
-267
-205
-325
-24
516
-757
-128
-666
-752
-424
-46
259
406
-489
-462
-29
232
-1022
370
-423
267
-823
44
71
141
-2
-367
-353
-165
-176
612
461
-119
-168
-60
51
121
-670
-85
507
-25
-289
-206
-15
474
-586
-465
256
80
121
205
-96
-263
9
708
-102
-308
258
346
-1047
324
-1249
-545
343
83
-152
-594
-549
833
-312
-584
-346
-242
-444
125
53
131
121
-351
204
-265
543
-219
3
-634
-31
398
474
-53
415
-452
147
-94
-653
-100
436
-381
-386
-284
-122
-413
-664
449
-218
-195
314
93
83
819
-150
169
-229
170
415
504
1027
-53
125
548
-196
588
-422
-350
424
-284
-1005
-399
-899
-124
196
305
1237
143
69
539
602
-199
-288
534
564
376
-688
134
-889
556
-590
123
-358
-304
695
714
355
929
-357
-707
-77
601
-19
492
119
-504
-343
-172
-656
385
-408
-218
428
235
509
-538
-127
107
62
-499
-446
-43
184
-792
-356
-565
-391
588
11
-288
75
631
414
1076
-83
-146
183
-227
31
248
320
-238
238
-459
-26
390
-230
-719
22
-352
-368
504
-456
-310
-541
193
-568
-90
326
-51
-443
871
-408
-51
1310
-511
-110
-194
159
-584
-330
-153
384
85
-605
49
541
-326
-356
-226
613
-825
239
-357
321
-335
-531
-174
-304
355
-514
-972
14
-345
-221
