102
-61
-9
-1
88
-48
-20
24
81
-31
72
71
32
80
18
35
62
46
6
-37
-19
-2
-76
127
-26
54
11
41
44
-33
-3
4
51
-11
-22
16
-78
-25
93
-69
39
52
-41
7
-146
-112
-45
9
-6
36
20
32
41
-88
53
-77
55
-27
101
-25
-20
80
120
6
-77
-78
71
11
31
30
109
-54
-11
7
-23
-50
39
-26
17
48
-51
27
2
-23
13
30
7
87
-10
-56
0
5
-102
-41
-87
-51
-9
-62
-20
-10
-16
-3
62
18
-38
-31
-19
6
-30
-45
-114
67
80
24
1
100
40
13
3
-19
-4
36
59
-67
-20
77
0
87
35
9
-34
-20
31
-11
11
-28
42
-38
28
30
7
10
40
-107
48
0
-32
-43
2
-14
30
-1
55
-31
-32
-40
42
-19
-43
66
-8
8
6
36
-54
-28
-13
-42
-23
26
-3
-13
40
-37
-91
-26
60
-31
-1
9
6
-41
19
-16
-94
-11
21
-36
25
-9
44
25
16
6
-56
-12
-20
87
20
12
-33
-14
15
-71
-36
-3
-27
74
16
15
19
-18
-10
-22
0
-10
9
-60
69
16
1
-28
38
83
-100
11
35
17
-22
-10
-28
-1
13
-1
-31
42
41
4
63
3
20
28
-46
28
40
25
56
42
-64
-9
29
-60
4
-112
-17
-8
-16
-38
4
-32
24
-14
-30
-12
4
37
28
13
32
61
-11
32
-63
-51
54
15
-25
-18
52
-35
12
46
10
21
16
-9
-24
68
-23
7
31
60
-41
41
-54
29
-38
46
11
-16
-12
3
65
-47
-17
-58
37
-14
47
-57
36
35
11
7
-19
49
55
19
-47
15
-12
22
-47
-35
10
33
38
-10
-10
66
-67
-31
10
11
-57
-79
112
-85
-29
4
27
142
39
-15
25
25
15
-19
82
19
68
-20
55
-8
38
-63
-103
11
62
10
-8
44
50
-53
18
32
-83
-61
22
-35
26
-46
3
15
26
-83
74
43
-31
-56
25
53
25
66
49
55
-12
-164
-34
-19
-82
-105
-42
-22
-2
-98
25
128
40
2
-22
-24
118
7
72
67
17
-30
-65
35
6
83
76
38
-165
46
35
169
-58
-3
-118
-21
121
19
-36
-5
-85
-111
68
-37
8
-147
-19
-34
-67
44
142
-30
41
-45
-72
-48
-93
-57
-123
-42
53
70
51
-25
100
-9
-34
59
-7
54
2
37
19
20
-16
0
-14
78
17
13
43
-42
-14
-25
-2
-52
-30
-74
70
86
57
30
69
6
73
-35
12
41
-7
-1
-6
-60
-17
-27
-50
-17
6
-33
-17
73
-84
72
80
20
62
53
20
17
-104
-10
22
49
18
-5
92
-32
-12
-8
-17
-16
23
34
26
24
-18
27
11
19
-13
22
-15
9
9
10
2
1
-24
-40
-31
-1
-27
-21
0
4
-28
-25
3
0
-30
-12
13
-35
23
8
-12
15
-4
-41
3
26
-24
29
6
-43
-4
66
-27
38
-26
-27
10
14
-34
-22
-11
28
6
21
-2
40
76
201
-51
-198
-70
-69
-78
0
50
55
96
46
57
-123
-133
-12
150
-98
95
-72
-82
31
-168
92
17
100
-124
80
95
24
-2
137
6
-36
-4
-41
-59
-44
66
44
-202
-178
150
-82
31
18
4
-400
-55
-2
28
65
-149
89
40
-22
-86
27
7
31
-28
-62
-37
121
32
-73
-1
62
-33
-44
-5
59
-75
-17
72
-49
-40
-60
70
-46
-21
-49
-67
67
-144
34
-65
-30
100
109
-14
-20
-95
-36
-43
-17
-87
-7
30
37
33
-78
80
41
60
43
52
106
-3
85
-62
94
25
68
-31
-75
42
13
90
-15
123
55
-40
103
-36
-56
24
-52
51
-51
28
-71
9
119
-15
-40
-9
-7
-23
114
-51
62
-81
-23
4
10
-11
-103
11
-30
-64
99
-104
6
-46
-18
19
27
29
20
-8
-75
-15
2
-1
-4
23
-82
-110
21
27
-105
-75
0
-81
29
15
28
17
-58
-10
78
96
-32
-105
23
-4
10
-29
-32
-58
-23
