30
-10
0
5
-11
17
-22
-10
1
-14
-6
9
-15
6
33
-8
15
17
22
-15
22
-11
-29
-12
9
10
26
3
9
-11
22
7
23
5
-18
-4
-13
32
-6
20
28
2
-13
30
33
-22
-12
5
10
-13
29
18
-16
-15
24
25
-7
28
6
19
3
-4
4
-1
42
23
46
-5
-62
135
41
-5
96
78
-31
-35
-25
18
-5
3
-55
9
-1
42
-40
89
-73
42
50
-93
-5
-46
-42
89
-143
-44
28
49
46
15
91
28
-109
-82
-69
-66
-54
25
15
67
-35
-25
-68
-7
-15
5
-42
3
45
63
17
27
19
-89
-53
51
21
159
14
-37
1
-34
-27
-9
63
-24
43
-4
-19
-13
21
-23
-23
18
15
4
43
36
-25
15
42
8
-12
37
13
-20
82
12
-16
-18
-38
-32
22
-38
-2
44
21
-34
21
18
-32
30
-8
69
-23
-27
48
-6
-18
9
37
-201
-95
-44
-29
-54
-4
26
-12
23
1
40
-43
-44
-12
-55
-20
-28
-14
-28
25
-13
40
-7
23
-15
-25
31
57
3
-15
0
-5
38
87
64
49
45
-10
28
42
-10
23
105
11
1
-46
27
-22
11
58
-60
-1
65
34
22
-23
-82
-68
-15
12
12
-51
24
-29
-16
24
15
-12
59
20
19
-6
38
24
78
40
-3
-23
-47
15
18
23
41
-16
-1
8
-23
31
-87
53
-1
10
-38
26
6
-47
-32
29
-22
33
0
29
5
-18
-25
-35
-77
-23
-1
7
49
-5
-42
3
0
47
6
59
13
-51
28
-5
-69
41
-40
42
-44
11
-43
-46
32
26
53
-9
68
33
-34
-38
10
-121
-13
7
98
38
55
-34
15
102
37
-89
37
119
24
-31
-24
46
16
108
77
-72
-53
-94
74
-63
33
-83
-10
-34
-53
-26
-9
77
-121
-16
97
-39
-21
-51
12
12
0
-11
-50
73
-33
17
35
52
-31
-39
-78
13
-25
-24
72
88
1
-2
24
27
-35
96
-70
1
17
-9
4
-19
-21
24
21
-13
17
29
-2
22
-32
13
4
15
-50
-4
2
6
-22
-10
48
-22
12
88
27
14
2
-14
-23
-19
3
-6
-14
-33
18
23
-20
-5
0
12
16
-30
30
-32
-7
-3
15
-12
-38
37
9
40
17
16
11
-37
20
1
29
11
25
34
-36
25
22
-8
-60
83
4
-12
0
6
52
-73
43
65
10
-65
6
47
19
-16
0
-1
-23
6
24
-15
-44
35
39
43
-6
-3
33
10
-11
-9
-23
1
18
-10
-9
8
-25
8
21
-66
-18
-49
13
-70
-24
18
-9
-5
-1
61
-57
20
31
40
30
32
55
-5
104
-87
53
-38
29
-59
-44
-79
-28
23
-11
45
-19
-113
-35
5
-29
8
-3
-13
-64
91
40
-21
-48
-70
1
-18
-44
-67
84
48
79
-28
10
-21
29
-67
-21
-75
-38
40
83
-25
-7
145
-111
32
-54
-5
-24
33
115
-48
-5
-64
-6
-17
-42
-144
-255
47
1
-44
-27
-71
-9
25
-24
-94
-47
20
36
14
-10
-59
-42
7
10
15
-29
7
-4
-38
5
16
16
-2
16
-32
37
34
-9
5
25
16
-89
0
35
-11
16
-44
1
-20
39
27
-16
13
31
-6
37
-28
-36
-2
5
-20
-27
-2
-3
16
187
35
-10
-15
-32
10
24
-46
1
-21
20
24
-27
21
-11
8
-10
-15
-7
11
-30
5
9
12
-12
27
-1
11
63
57
-41
-22
-4
-29
37
-4
32
8
-4
-4
41
-15
-19
15
-22
-20
14
-2
20
-45
-1
30
-25
37
-41
18
35
-2
-6
21
-7
-14
51
-6
11
17
6
-17
-36
-16
-33
75
-2
5
-1
40
-44
35
28
-14
-47
23
18
-46
5
67
-30
-94
-11
-1
34
8
-48
11
10
61
0
-29
-91
24
2
-19
73
-1
-27
-5
-38
-32
5
4
41
5
-10
-11
-24
-44
-14
4
5
14
-27
40
25
36
-6
6
-45
1
5
-34
-20
-13
7
-31
31
