423
-239
-311
269
-216
296
10
212
169
-94
98
327
-73
80
311
409
21
-35
-228
-88
4
4
1
340
-19
-46
-52
423
-306
-3
230
-14
-101
-174
42
-57
-54
-92
390
-56
-182
-295
-271
-101
-519
-340
-95
-262
23
151
310
-2
487
-128
216
-213
298
58
-129
-200
467
43
-240
124
1
-229
59
-16
157
125
-193
-297
57
139
-36
-93
-144
-48
116
-102
45
-199
-44
166
-202
139
169
189
-63
164
254
-175
-111
-163
101
103
-63
3
-133
110
29
-43
201
129
562
-177
-180
104
4
-83
6
209
128
53
82
-484
84
54
-64
-184
107
-53
-65
-88
-125
57
-157
146
141
583
-392
-9
-9
77
-56
171
-112
-39
-149
-167
133
-41
184
-575
-68
19
141
-37
-58
-224
162
613
172
166
-384
205
184
59
-113
489
411
-379
287
191
-435
301
-7
-507
-152
-35
-341
-497
104
251
-128
-53
-501
-180
-90
610
-362
413
324
45
220
-71
-473
-137
414
-83
-358
-212
-582
79
117
-114
71
-13
351
-61
26
51
63
430
-64
-214
75
-115
85
105
354
2
165
-311
-197
-384
-404
-43
576
-43
-72
238
-760
96
9
-68
112
-67
71
457
474
44
-107
-255
-161
-144
-137
218
17
46
-312
52
-95
59
-77
-58
6
33
86
179
-503
-10
-23
90
-82
-115
-121
25
-172
-3
-75
266
230
-45
22
-159
-171
26
152
198
-37
-271
-88
311
-24
212
28
10
-73
104
225
131
267
259
-364
236
-34
-30
-39
-175
150
-85
96
-1
-243
8
-362
23
0
-92
315
214
-176
138
-190
-171
-164
121
43
-166
-94
98
-156
14
332
132
-102
-128
86
251
-242
-195
277
-169
154
-220
-139
123
153
-186
70
-112
192
-19
60
325
23
-428
48
-63
-13
295
-321
-156
-150
-24
-347
71
88
-8
-326
20
138
-227
-291
-235
-450
290
115
4
-281
149
-7
-246
335
98
131
279
22
-80
-173
131
168
-98
-194
97
-215
-256
-82
75
7
299
-138
49
182
145
125
-221
-390
-72
-449
43
-81
-247
-247
-252
-456
-117
-151
-382
466
140
139
229
53
230
-141
127
-179
320
55
133
-190
-179
-13
-353
75
230
296
63
-120
486
-232
-213
-58
190
-174
191
-3
62
63
12
34
35
-48
-12
177
-115
309
213
-381
-26
122
137
-336
-294
-76
392
-70
-60
121
71
132
17
219
86
-30
-18
-6
-101
-47
-9
45
-61
-224
50
-17
9
-133
387
-250
-122
156
-99
-182
110
99
230
-258
-283
40
128
-30
-252
-246
86
71
52
138
-22
-104
-17
250
-14
-44
-91
87
-71
132
-93
120
255
-255
-76
8
-52
-13
-202
-21
-61
120
53
-28
170
53
233
-70
-94
-109
2
88
32
122
115
-55
68
-88
309
90
426
-71
-131
144
-120
-93
42
-297
-296
-165
-89
-22
213
-181
356
-67
-14
130
124
74
95
-117
-64
-7
135
-105
154
59
-105
-44
-203
-264
144
-54
387
164
274
-149
-240
-138
-174
61
81
-18
-10
-216
562
-250
-227
22
-71
260
135
62
59
-117
-331
83
148
-181
215
-16
-202
103
-128
-113
154
391
-94
26
-329
460
320
-98
174
-156
5
414
3
-14
61
173
-120
-14
256
-309
-146
229
159
-25
-16
323
-217
-258
70
-138
-287
193
191
-369
89
38
-116
397
-149
-270
125
301
297
-85
-248
-162
192
130
152
588
-241
217
415
153
208
83
87
-437
-157
68
-210
392
40
56
92
-86
50
-278
87
624
-7
-32
124
-97
205
26
51
450
49
-39
147
184
-155
-370
306
321
46
-254
62
-133
78
69
469
157
-235
120
52
10
74
-146
97
-68
-476
29
-21
-336
295
-57
303
93
176
-53
-236
-7
-83
-103
279
-191
-34
-72
-224
251
141
7
-85
98
-158
-22
237
239
-59
39
-45
-118
-225
19
-53
263
-185
195
-370
66
22
-102
-49
-157
-192
-255
38
-103
154
345
-30
171
154
146
92
-10
-110
21
109
-7
-117
-100
-12
149
39
227
12
-164
134
-81
-56
