-247
-274
-221
-13
-445
-104
-518
-328
8
93
-306
-477
148
-209
-90
-603
-331
-369
-53
-264
-528
-60
-249
-689
-227
-521
-160
122
157
-364
-135
-179
-569
-10
-78
-189
168
-163
-205
310
116
211
-50
-401
-292
5
-108
-182
-122
-163
213
-332
-483
-99
-508
-274
-326
314
-82
95
-169
-631
-245
-138
-77
-467
-33
-153
-72
81
123
-416
82
-30
-365
-155
-87
-21
-443
-519
-302
-277
-408
-397
-153
41
-121
-122
60
-416
94
208
-712
-221
-165
89
-440
-4
-196
123
-82
0
-411
-93
-164
-212
-144
113
19
-181
119
-102
48
28
-9
-206
0
-25
86
-285
-101
-152
-293
-642
-467
226
-276
-415
63
-110
-161
-365
-1
-69
99
5
-329
-228
9
24
-25
-264
-106
-595
-435
177
-209
10
150
-587
61
-670
157
-216
-74
-307
-226
-319
-178
-144
-163
106
-3
-201
-335
-226
-518
-267
421
-188
49
-3
-237
-408
-96
-446
-448
-224
-256
-251
241
-293
222
-125
-185
-38
-494
-297
-407
-87
95
206
-512
95
-384
-293
-73
-482
-88
-94
194
-91
-240
96
-6
-518
-349
-79
-285
-321
41
102
-467
-677
-208
-66
215
-87
-593
57
-333
-481
-64
-279
220
-232
-252
29
-458
-34
49
-353
-445
-62
-47
-230
-108
-88
-456
237
-291
-353
289
-430
-186
-187
-38
-139
139
149
20
-649
-258
-60
-354
-136
199
115
-390
-233
-372
-157
-142
-150
-118
442
-63
-81
-294
-128
-108
-295
170
-374
30
-135
-119
-142
-68
200
-304
-475
72
-51
72
-210
-436
-347
-44
-106
-217
-154
133
-208
-428
-219
-336
-585
-477
92
-3
-391
-17
-479
-609
19
22
116
530
141
108
56
-405
-224
-172
-241
-203
-189
-117
-128
-18
-459
-315
442
-121
-3
-287
-217
238
208
-404
-171
-237
-394
41
-282
20
-45
-28
57
-212
-412
-215
-217
-324
190
-27
499
-39
226
72
60
-334
-42
-52
48
-132
-373
5
-341
-138
-268
-454
-206
-472
-307
72
-259
172
-103
62
13
-321
-15
312
-56
-246
-22
17
-61
-116
2847
13
179
-409
37
123
-399
-188
320
-143
-330
-289
82
-114
-119
129
73
-491
249
184
-154
-345
-135
435
276
-227
177
-631
137
35
38
-88
-88
-32
-402
-130
180
-251
-158
-175
31
-302
220
121
-221
-52
299
264
-395
134
185
151
-561
-16
-445
-146
-21
-238
-56
-295
-173
-352
-113
-76
-75
380
-203
-132
84
-353
-93
-374
107
-521
-424
130
-389
224
196
-183
89
-166
-599
-687
25
-433
197
-378
-223
-240
-72
-177
-533
-99
-26
-105
-209
69
367
-268
-326
147
-19
117
43
-350
-556
70
-142
-3
-54
-194
-188
-161
-103
-39
-242
-208
-326
-267
-330
108
298
-82
-286
-95
-324
5
61
52
-53
-91
105
-284
-629
9
-357
278
-194
81
-325
-576
30
-35
74
-30
80
-213
-338
-170
-22
35
-262
-409
366
-316
-94
-413
603
-257
-255
-161
-86
107
451
39
-131
-611
-524
8
69
-292
-257
-214
110
-85
-532
-323
94
-72
-120
-424
-86
160
-301
-339
-317
-142
-15
-34
-412
-455
-152
32
-271
-217
299
-412
246
122
-363
-207
-20
-36
5
-1024
-51
-40
-84
-109
38
-361
-122
-262
-90
-140
-268
-167
-426
-168
-167
228
-254
-424
-508
-221
-188
-179
-246
-233
153
-112
-437
-70
-8
-79
-108
-69
92
-416
-149
-155
-285
-292
-228
-622
164
-302
-121
-225
-415
-346
-530
-205
-257
-367
-286
-444
-226
174
-417
-108
281
-145
229
-232
-335
-210
-553
-257
-225
-380
-371
-74
-75
-421
-339
-226
45
-259
177
-467
70
-211
-20
-94
-506
-494
-186
-573
-45
-1
-134
-281
-34
-561
-261
-254
-89
-158
55
-505
-2
51
-283
-226
-305
250
-125
-174
-246
-206
-105
-173
-167
195
-227
48
20
-353
-60
6
-252
-415
-388
-617
-327
-155
-517
-191
-201
-433
-311
-101
-314
94
-311
-208
-210
550
-146
-36
15
-389
131
-74
166
-70
-7
-95
-363
-295
-244
-706
70
-254
-584
111
-103
-145
-270
-8
12
-89
-302
-135
76
-287
-436
-43
137
-93
-551
248
-288
284
-438
-57
26
-235
-309
-212
193
127
-185
-94
-88
