-202
125
-181
-639
299
10
369
192
294
24
643
340
5
-586
307
7
-189
131
223
78
205
-242
469
-3
541
14
204
-426
-37
-308
545
-265
-383
-314
-173
446
173
382
295
-366
-221
402
-254
513
437
414
-132
-62
-238
-71
178
-4
365
-144
-20
-271
253
516
79
243
234
-158
439
400
154
-9
54
-87
-15
31
44
45
-152
-49
-383
28
4
-187
31
-3
416
62
-39
-9
0
-89
-50
19
17
112
-24
9
-134
14
-74
-56
149
114
-140
96
-17
-99
401
240
-73
163
-39
-58
116
-107
2
-73
83
298
-99
-82
85
87
-30
-1
-125
-76
453
-17
-46
-127
53
18
-78
3
-63
67
-38
85
-28
-57
-103
5
-50
-14
122
-23
4
77
98
11
-89
-43
-47
-42
62
5
-35
-12
64
-30
33
39
-38
-35
-13
7
-165
13
-59
24
27
-14
-34
8
83
-65
15
183
29
-70
20
41
13
-3
18
31
55
-22
37
-25
-3
-39
101
-4
-14
-53
-17
-30
10
-45
17
-14
35
18
-34
-11
47
-35
-10
46
-5
-61
-37
-61
29
13
-22
-6
-7
22
-26
-4
10
-31
-12
18
-22
-50
-7
86
-14
55
-7
-17
30
0
-28
32
13
-87
-4
-71
23
8
-28
8
-10
-8
-2
-54
12
15
-60
11
45
28
11
-2
-61
-29
-46
-29
-146
-23
136
-12
45
-117
-58
14
-21
20
10
-75
-130
212
90
-85
-77
-3
26
-132
-93
337
28
-158
37
-63
141
-162
-68
-90
46
-33
9
51
-166
-22
65
368
16
36
78
-87
-21
-24
-8
-4
-239
-52
48
-96
31
193
-153
-44
-20
6
-24
277
73
212
-23
11
11
103
50
5
-119
0
58
-88
62
-45
-37
-56
-19
-78
44
-11
-18
-6
-30
-61
-13
-46
37
-21
123
106
91
-79
5
-11
29
-73
43
-53
-41
49
16
-8
94
55
123
-51
-70
-94
20
-140
23
83
166
54
-24
-35
56
25
5
78
88
36
86
39
36
-43
32
-34
56
11
86
57
302
256
-56
106
47
-480
17
-484
31
-114
-21
-47
-93
6
-51
217
-21
-18
-26
-71
3
118
-30
-30
-7
27
-163
-39
19
12
-16
208
17
33
361
-4
-53
-73
-39
2
156
37
-177
2
112
408
37
-29
46
13
-80
-33
-50
159
-29
4
-384
191
-119
145
-40
-127
-44
-144
70
-18
25
40
-6
38
-50
-69
31
87
-166
-11
15
37
17
9
-17
187
-28
-61
-62
-26
-117
-73
48
55
32
-38
-28
36
-2
-51
-31
175
-23
-31
-16
-77
79
21
-138
-50
114
47
-37
-17
145
6
-33
-17
12
-27
-51
61
-61
99
65
33
102
30
-43
-10
-50
92
63
-38
-63
-34
28
24
27
13
26
74
-39
-27
2
-18
-28
111
16
-45
111
5
-3
-191
-53
-22
122
-26
-28
23
3
55
59
138
-76
-95
10
-9
-42
-41
-69
25
-108
-33
-40
-4
-7
11
-57
37
150
154
-166
-65
-44
-125
-17
-47
9
-102
67
42
127
-7
-66
-360
337
101
-167
-42
29
-205
476
-63
83
6
15
180
3
1
-24
-251
-80
141
-131
67
-188
316
-20
-79
-29
270
160
47
-42
-199
230
204
326
39
248
-135
-130
50
-142
51
-89
116
37
-24
69
10
320
-181
-206
-2
127
-6
-18
-145
-109
312
95
-56
-4
313
-43
8
-32
4
53
53
-39
9
52
-128
-135
-5
75
-2
30
-25
-48
53
-180
-67
-1
228
8
-124
13
21
-6
85
-36
-11
-49
39
4
68
18
38
-78
-34
112
115
13
-62
6
90
14
58
-1
89
38
-10
-64
-18
65
26
29
19
-68
48
56
-171
81
46
-26
14
-6
10
-52
59
-16
13
-11
73
-18
-4
-12
59
59
24
41
70
-43
-66
36
-22
20
15
8
-30
19
-18
30
3
418
48
1
-22
-32
-43
-65
27
-65
-52
52
-41
-53
-61
-42
62
54
-11
-74
-29
30
80
-5
-29
-26
26
-12
-48
13
-10
20
33
0
-54
86
-3
