-23
-55
62
48
-87
59
23
-15
40
45
25
-26
57
-43
4
38
84
-18
-19
-22
60
-1
-6
-46
-17
-33
33
-26
-21
33
51
20
-20
-45
-85
25
90
-2
-95
-73
0
125
60
86
36
14
85
-4
-16
-46
-104
99
29
64
23
-17
51
-22
-56
0
-55
76
-49
-33
-28
-1
31
0
15
49
26
-6
-3
48
-9
27
-22
-12
53
0
-13
23
24
58
16
-14
-20
21
-3
-13
-47
33
30
-85
-1
12
52
-22
-21
36
25
36
-19
16
158
-40
13
30
-8
30
-2
-47
7
12
-6
11
44
11
49
3
-1
43
27
11
23
45
12
-16
70
43
-29
9
42
22
-12
-16
31
-59
20
18
131
-14
-2
-36
-9
11
-54
-37
-19
41
38
-41
-66
76
0
-11
8
-18
-2
2
68
-36
-55
-34
-87
50
-27
17
-149
4
46
-15
-49
18
-14
-15
-76
-37
32
-24
-56
9
6
5
-13
7
-37
45
81
-16
17
16
-5
-13
68
11
-17
1
9
-95
-30
-126
27
-34
-98
36
-45
-13
-30
100
83
-49
-18
76
-151
65
66
-12
-8
109
15
-19
-59
-92
-79
-22
0
110
-29
-123
8
-4
-50
-14
93
220
5
-84
-104
-29
-17
-24
68
-21
23
-20
-106
6
28
-53
205
-12
56
-19
0
73
7
-9
-13
15
2
-7
4
-18
-44
-37
2
1
29
-33
13
-17
4
-20
-11
15
-23
-36
-26
-8
-9
-6
-17
-15
-19
-47
-7
-20
48
-36
-48
-17
14
15
-16
-71
10
-1
6
-4
-20
34
-9
57
-30
24
-7
-12
6
-16
-5
38
-38
44
-35
-26
-23
12
-25
-18
-53
-110
-40
10
-13
123
19
-14
-14
-26
32
25
96
-70
-28
-111
-9
-24
-73
-105
-2
-103
30
-38
49
14
-39
37
49
-76
-5
-49
-104
28
47
-52
98
-15
-73
16
-20
-134
17
25
-90
-29
28
-78
-4
-15
-6
72
54
-2
50
19
56
26
54
51
12
29
-36
60
-29
-10
5
2
39
33
6
30
45
-13
5
-15
-4
27
-22
14
-8
13
3
1
-22
-30
22
48
24
-5
4
5
-1
3
-25
11
-14
31
-14
44
56
-55
16
39
43
-2
-27
10
16
3
9
-60
48
-2
-26
39
6
11
-56
-9
55
-25
-34
9
-13
-12
18
23
38
-20
50
-68
42
62
88
-8
-30
-45
28
-29
60
20
-57
3
-167
-3
-46
14
4
-54
-19
21
-40
26
3
-49
-24
-71
36
98
-103
38
18
49
-26
72
-96
-97
-98
-56
-29
52
37
-17
-135
64
55
37
-43
-84
-12
-58
-33
-29
8
52
-10
80
45
43
23
6
26
-53
60
-32
69
36
-17
-61
5
18
27
-9
44
-81
-7
4
6
-33
0
139
-14
-34
-53
59
-31
-27
-15
62
6
44
-2
-39
22
15
-16
-4
-72
43
34
16
-13
20
16
83
29
7
53
4
16
15
56
58
21
-18
20
-5
-23
-41
-36
27
23
74
50
-42
0
-27
6
50
77
16
34
37
3
-24
-24
16
-5
-48
-23
25
65
-108
7
2
-10
-42
-36
-30
22
-23
2
65
-64
-140
-1
-63
-25
-36
-25
31
-13
1
-28
47
-32
-52
-17
24
-40
6
-20
-25
-55
-29
-35
1
33
45
35
-65
28
-31
-99
-6
-32
-3
36
0
-28
-31
3
-62
-14
-6
-39
21
6
24
-22
12
-21
-31
-44
59
51
9
-23
-15
-18
-41
26
14
-20
-9
60
-68
-16
0
-29
25
-33
33
18
-20
22
-47
-49
17
33
8
11
34
40
20
-24
-21
-42
4
-29
-43
13
-12
53
19
-60
-31
-16
36
-67
-59
91
-11
-7
17
50
-88
19
4
59
-29
-151
157
17
342
-87
-42
26
149
69
107
287
-51
24
-10
-33
-1
-91
1
7
-67
-52
-198
10
-29
53
-36
13
-141
40
178
117
1
21
125
-165
-36
-216
-75
-186
-34
-130
190
28
-328
22
-40
27
94
-97
50
19
-180
95
-89
-103
121
