-88
-55
13
4
99
-55
-87
14
8
8
-16
35
-22
-47
-23
-13
31
-70
-83
-48
-4
-89
-172
45
-125
-26
-44
-36
-10
-17
-13
-24
49
-67
58
-72
37
-46
80
-25
119
-68
73
33
-3
-46
-45
32
-74
115
-41
92
46
-95
89
-6
-35
24
61
100
4
-41
-42
61
62
-131
-2
-3
-51
-76
40
124
19
-20
40
27
-29
13
18
14
-16
-31
37
72
-4
-8
-20
94
42
53
27
2
-21
-24
-22
59
9
20
-124
10
-86
70
-41
47
-10
56
18
-57
38
-38
-28
-33
-41
-32
41
-1
-16
-17
-32
28
8
20
44
43
-45
42
47
-28
10
-95
-67
26
-45
17
-22
-17
-5
46
-64
-30
-4
-6
51
14
-53
38
43
45
34
-57
-16
-21
-39
-31
20
45
30
19
47
49
4
-19
-7
42
31
84
-20
37
13
-53
-65
-69
56
16
73
49
-72
-76
-17
-7
25
29
-22
-15
12
22
69
7
29
30
-101
-26
-83
-122
-1
-56
-88
88
-46
-115
55
-25
-128
65
41
237
-102
32
17
-185
67
1
13
-87
105
-128
166
156
-55
23
-214
-56
21
34
13
-148
-78
79
-3
215
102
102
-361
-17
-183
5
101
-12
-197
117
9
244
-227
-62
-76
108
148
22
-139
-12
-118
-17
20
-250
32
-78
-8
-70
-9
-30
-30
16
11
20
39
-43
-1
-49
-42
9
-72
2
37
39
79
95
-74
68
49
28
-72
-34
31
84
-19
-8
-76
8
41
48
-28
39
-73
18
-29
81
49
60
-45
12
-35
-22
47
56
-25
-61
37
-10
21
-7
-80
-39
-6
10
5
-17
-45
-73
-25
117
99
10
7
-18
6
17
-34
36
42
49
-36
33
37
40
-28
20
-4
-34
-24
-32
-30
18
3
19
-2
23
-6
-45
-4
43
-20
-24
-35
-2
108
33
4
-9
-59
44
-39
-50
10
-6
-89
-20
-28
-5
-50
24
7
5
62
17
20
-2
-23
-11
76
-54
51
-35
13
10
-25
-10
-168
59
25
-29
-140
60
-8
40
-52
-19
-59
-63
9
75
46
37
113
28
91
2
-21
-32
34
132
-2
15
-3
-58
74
71
117
3
71
-88
-91
94
136
125
-14
-72
178
40
35
9
-56
-7
-26
115
-43
90
-148
-18
64
-35
-36
-99
-24
29
106
-160
-490
-66
-29
84
-48
-55
16
50
-75
46
60
-94
72
-22
-41
46
157
33
-38
-28
21
-44
123
-16
-147
-23
41
77
-89
37
-17
-21
33
99
-159
-37
43
55
-109
-8
-9
94
26
-36
22
-11
80
-9
40
84
90
6
46
-42
38
71
-14
24
-27
100
71
-28
-99
-16
35
-8
-34
35
-1
69
-43
110
192
-7
12
-4
42
-168
-13
74
-3
54
61
14
-35
-181
-316
42
-26
40
15
-14
22
60
46
-94
-30
178
36
13
-4
241
-18
-54
79
-16
-5
-59
-14
40
4
48
-13
47
35
50
-21
42
-23
72
-14
-289
43
8
31
3
40
19
-26
88
41
-140
-166
-174
-62
-295
-29
59
-235
-35
-202
-47
104
115
-314
-32
7
-106
88
198
20
58
-20
-202
16
73
162
147
62
-90
51
55
8
524
65
-110
71
-445
-125
-104
-25
-9
-21
88
-171
-102
-43
-26
-57
129
104
159
-36
-140
-163
-38
57
79
45
43
-45
-10
-24
-67
-59
19
47
-8
-99
20
0
108
-8
-46
8
-53
-19
-41
-25
38
23
31
74
-26
-108
-3
-25
-118
53
-13
30
79
-75
-34
-125
84
-12
75
32
-71
-25
50
102
-31
70
-28
20
-22
-93
-74
15
114
-4
51
-105
15
128
-3
-44
4
-7
-43
-46
20
13
-38
-21
23
-1
2
-10
42
-46
44
-4
-5
35
-11
-29
-6
32
29
-67
27
258
-92
-8
130
9
31
65
-31
-42
32
-31
-59
-21
36
81
-112
36
-22
-38
-8
-16
-51
20
-5
-32
45
35
38
-13
37
19
-172
27
-6
60
27
-12
21
-22
12
22
-33
-58
-22
40
-21
-33
-42
