-11
-228
-253
248
-762
6
-340
-451
-81
86
4
-365
-5
-277
40
-280
-207
-153
80
-470
-624
196
-359
-772
-80
-602
-353
164
219
-191
-140
-156
-468
268
-220
-107
217
-445
-451
573
56
173
-280
-385
-108
238
12
121
-198
-84
355
45
-590
451
-293
-160
-193
278
-180
-30
48
-334
-15
104
-198
-307
-90
-2
-118
109
315
-256
77
-2
-341
-7
95
-321
-137
-292
30
-266
-264
-514
-84
204
-78
-165
-233
-254
24
265
-1120
-13
-247
15
-464
145
-100
44
-305
-256
-130
26
-253
-138
33
22
-5
-174
175
-221
365
208
-99
-174
-261
-57
184
-419
78
172
-46
-272
-270
222
-1
-430
-38
-44
-82
-422
103
100
-30
135
-62
-221
152
99
-28
-110
-169
-175
-181
486
-24
-119
-51
-578
-261
-455
40
-199
-188
-289
-353
-581
-317
134
-206
186
-72
-306
-177
-355
-457
-15
698
137
80
-107
-123
-623
-191
-496
-191
-496
-457
-67
-45
-194
37
-448
-268
-12
-631
-405
-350
-261
-39
295
-619
-12
-267
-381
-82
-545
-184
22
329
-217
-310
-294
114
-440
-320
90
-247
-222
-7
52
-217
-367
-287
11
163
-34
-348
95
-19
-491
-51
-189
107
-421
-257
193
-276
-9
-196
-78
-247
-98
-80
-412
-97
55
-125
264
-151
-322
84
-298
-149
-123
126
-273
298
407
-194
-743
-179
-78
-64
62
343
-72
-206
-11
-241
126
-345
-165
-22
-27
16
-158
-303
-166
-216
-186
-57
-313
-29
-355
12
181
96
178
-394
-196
-54
278
312
-296
-509
-603
-320
-60
-363
112
158
-146
-511
-12
-128
-772
-178
-67
-88
-356
167
-249
-753
-107
10
-64
1656
-62
6
15
-339
-124
-20
-257
-336
-184
15
-182
178
-301
-408
479
-17
-381
15
52
-84
68
-44
-83
-214
-534
-57
-238
-6
131
-127
-125
-125
-278
-371
-19
-100
-107
-309
76
183
292
122
-244
-308
-71
-200
37
-331
-236
-162
-248
-251
-184
-130
-265
-319
51
-27
-350
135
38
66
27
-340
37
227
-227
-159
29
150
-370
-90
-1610
-296
247
-289
-1
422
-342
22
45
-236
-225
-462
20
-295
-32
191
183
-240
-29
21
201
-389
76
49
170
-323
-21
-445
122
109
-68
-252
-256
133
-199
-83
-131
-348
-92
73
208
-200
-111
209
-427
-299
201
245
-347
-236
234
248
-512
157
-462
249
-124
240
62
-284
-287
-298
120
-160
61
235
-277
-11
266
-144
-166
-531
203
-520
-171
-9
-384
55
48
-221
207
27
-522
-535
147
4
-89
-148
-160
-259
101
-13
-119
-84
-31
92
-322
236
6
-299
-368
77
-153
-46
-84
-288
-428
251
-37
-53
-213
-317
-162
-36
37
-127
-219
-63
-209
-258
-272
-102
-90
-123
-118
66
-79
143
-208
42
-129
-105
64
8
-664
87
-75
377
-266
135
-609
-377
85
-47
-22
-156
-29
-321
-391
-45
80
-79
-51
-251
103
-90
-148
-239
531
-188
-118
112
-144
88
759
268
25
-558
-443
48
93
-281
-341
-228
-46
-152
-223
-423
7
-2
215
-89
-217
137
-251
-322
91
-118
-11
-105
-254
-203
-11
58
-112
250
46
-501
-94
179
-231
-423
97
149
-171
-924
-140
15
-307
-214
-12
-335
-225
-327
-138
-334
-160
-327
-184
-216
-179
110
-442
-422
-425
-408
-292
-312
-128
-147
128
-26
-182
208
-196
27
-86
-90
32
-282
-114
-481
-310
-59
-366
-640
97
-281
-163
-481
-373
-250
-623
-215
-241
-139
-322
-380
-465
18
-348
-343
-59
-77
191
-254
-117
-67
-153
-91
-475
-317
-340
145
-55
-206
-140
47
-43
-339
-160
-412
83
-258
33
-397
-365
-342
-310
-172
-276
77
-148
-310
117
-733
-465
-614
-53
-230
-73
-634
-95
203
11
-386
-57
133
-189
15
-214
-250
-191
-145
-200
205
-120
-264
107
-378
-68
18
-74
-299
-84
-499
-363
-285
-470
-160
-244
-244
-420
-151
-465
-92
-372
-137
-102
101
130
-60
-151
-338
-73
-76
-69
124
-210
-120
-418
-391
-465
-733
-110
-175
-312
-18
-184
-180
-141
-209
-65
-47
-287
49
-50
-399
-199
-168
159
26
-384
217
89
238
-412
111
-165
-220
-344
-206
233
125
-138
-168
-236
