12
-240
-244
-142
121
-60
-138
149
-66
-172
15
134
44
44
8
-240
-92
-107
99
-149
-277
94
-181
-148
89
59
-14
-143
7
-79
151
69
-62
127
-120
-54
99
216
-80
107
-23
16
258
-21
203
-1
67
-51
-19
-82
3
218
-266
95
116
26
-149
63
-106
18
-39
169
174
-65
-49
20
93
75
-236
-10
-25
-98
-67
279
-223
315
176
-228
-278
-151
-19
41
-55
-48
-26
32
135
-10
72
156
85
10
-442
-85
59
16
-114
110
-83
109
-35
-69
-316
108
83
363
-60
-152
297
-81
-91
54
98
24
-116
-16
8
-50
-13
-221
89
310
-91
-232
-293
54
86
-273
-57
144
68
-29
-162
-198
-96
78
-168
-280
-71
-36
28
65
-289
-43
-303
255
160
170
74
-214
168
-29
1
110
-40
-150
68
-7
-111
-197
-107
-6
180
67
-17
38
-198
-156
135
99
-10
-94
236
-219
4
46
-21
-120
163
60
-116
17
96
-151
-88
179
-170
-142
-247
-89
114
148
-167
281
-13
-150
-111
-459
-183
-54
14
-104
-54
381
-124
214
108
-191
4
26
16
265
68
-316
-121
341
67
157
-316
250
147
-174
-91
-2
-34
-390
-170
103
-82
19
81
-55
-207
151
-36
-87
-62
-75
-58
230
-125
-219
201
114
129
55
-281
-68
207
90
-123
-365
-228
-161
-350
368
58
78
-111
39
244
59
-79
144
-185
243
-26
-86
-29
-63
-245
111
-10
29
47
-275
-225
-91
-37
46
241
-113
-208
53
71
-6
21
111
164
-150
-396
-213
241
78
-254
-155
228
-6
-159
-24
6
75
40
11
-483
281
123
181
5669
-27
72
-517
86
-74
-35
-148
-140
-320
213
-516
-135
-108
-219
135
-41
-95
-95
122
-86
-67
-14
-395
42
-94
331
41
-47
-21
-107
18
-111
-184
-316
39
-69
109
-170
-88
-189
-91
215
269
87
-24
67
168
-106
-10
110
-85
33
-27
48
-95
-113
35
-247
-267
-295
-236
46
86
-27
48
-36
-18
-82
61
81
-71
-37
947
-71
183
-92
66
248
-96
96
21
-69
30
26
-190
-182
119
370
-80
-27
65
248
91
-88
-3
97
145
9
-5
117
11
94
207
86
-46
45
28
48
173
159
21
20
272
-101
82
85
-37
-69
1
196
-57
71
-29
47
-477
-15
-4
54
198
-129
-117
-18
29
22
-225
34
46
-36
-160
34
-8
-20
171
-54
144
72
9
-120
-70
30
20
-305
581
198
-35
291
-189
-66
57
-74
160
4
-218
40
-184
109
152
-154
-15
169
-4
83
-117
120
50
48
-149
-142
-1
207
-279
65
-48
-221
30
87
142
-210
114
-117
24
-29
-205
-7
55
11
-124
-82
141
162
-13
-359
-161
281
55
153
-268
103
73
144
281
-20
-98
14
114
55
126
146
-2
-179
-253
70
13
-93
-94
73
94
-93
-211
-326
88
86
195
89
171
-16
192
76
114
-118
60
279
91
80
-14
193
-14
-26
-59
-230
72
-73
-57
281
140
-127
16
-159
109
-79
24
-197
117
-190
-18
224
-192
15
468
-84
260
-35
54
-105
92
125
114
-288
-124
243
110
62
171
-71
15
-60
240
-121
208
65
-18
85
107
318
-147
56
-124
-114
240
44
-36
-89
316
92
246
60
42
-47
58
135
-67
-47
79
47
-50
84
-173
-5
-240
-334
26
-324
-83
-49
-122
-76
123
-29
-140
-236
-38
-6
-23
85
-146
225
-7
-66
-9
209
-53
22
102
-112
205
15
223
-185
-78
-46
87
-106
60
-220
78
-136
-310
9
219
-151
20
-17
-135
174
-67
23
265
-165
-81
-2
-14
-43
59
-167
147
104
64
45
-152
160
117
64
11
143
78
-94
72
-38
-152
242
171
-27
-100
291
-182
-60
41
187
-45
27
60
172
115
-98
438
161
-133
-107
-62
-2
-38
-49
-335
-158
126
-155
190
114
-128
139
143
5
-65
5
-169
68
118
-65
-133
92
108
-11
-229
20
199
-85
-200
-55
-110
119
-178
-84
6
187
-153
43
34
44
-25
155
-36
-26
-16
-22
-66
410
-369
-191
-155
