-27
24
5
27
45
1
-6
39
-12
-6
-14
33
0
24
-26
-10
-5
0
-6
-18
-6
-35
-23
-29
-10
34
-3
9
-65
22
37
30
-15
11
7
13
-21
-2
-24
8
20
9
17
-6
-9
-20
18
58
-4
-42
9
-26
2
-45
13
30
13
-56
9
18
23
86
-32
-2
7
37
-34
-3
-22
-5
-47
2
-15
11
-14
15
-14
4
-17
0
25
4
-2
13
7
-67
-3
-9
-32
30
10
-23
37
-40
44
-15
105
-7
-13
-26
2
-2
-16
28
27
25
12
-22
-25
-31
-26
5
-50
-6
-18
15
-38
-5
-25
16
-21
25
-10
-18
51
-89
4
19
-35
-14
9
2
-28
-18
42
14
11
32
-8
8
-6
29
21
2
-40
-27
63
10
-17
8
5
49
-58
9
-38
-65
42
21
1
-51
-10
-14
9
-11
6
67
12
-25
-15
-24
11
22
-44
-1
21
-16
-44
-5
2
-59
22
4
-2
-18
17
-19
-40
39
-4
-2
10
8
-26
2
52
49
5
50
-20
-25
-22
-23
48
-14
2
-7
9
-10
5
60
24
-10
11
26
25
25
-65
-1
42
-17
12
37
-22
-4
14
-30
-18
-2
8
9
-7
21
13
17
-23
22
-14
-2
-10
2
25
-17
-16
20
4
8
-26
-36
10
-19
-18
2
25
10
24
-7
-37
22
-7
-21
-2
-48
21
28
-3
4
-19
15
19
1
1
-11
-49
39
14
-51
-66
-4
44
-23
31
-20
-46
-55
-6
13
22
30
-6
4
-9
-16
-16
-34
-21
-46
25
11
27
5
11
14
-12
31
-13
-14
-34
4
-175
0
-20
-14
16
36
-10
-21
14
-50
-32
12
-51
10
15
-50
-8
-7
22
-11
15
1
13
-64
13
19
29
2
-26
-46
7
-7
6
-31
-29
34
0
4
17
11
0
29
-5
-15
4
-79
0
8
36
13
52
-7
16
1
-4
-6
-4
32
-24
-17
20
-45
-25
56
-26
27
1
4
-3
-54
-35
21
36
-47
-24
-10
-3
11
-29
14
-30
-38
25
-12
16
-73
8
-1
-15
-56
9
15
-37
-1
9
-7
51
4
9
-28
-17
-4
-8
44
-8
15
-42
7
-58
12
31
38
2
-1
25
25
-21
48
6
8
-18
-15
10
-32
19
36
-45
9
-34
-31
0
-26
-34
14
42
-43
-18
-17
37
5
-20
-45
-1
-12
23
7
7
33
2
-2
-48
-34
14
-54
-21
-21
35
23
-22
-77
-37
49
-17
8
9
-17
22
-27
-48
11
-45
-17
48
-22
-33
-45
-20
-8
25
-1
-32
5
-22
21
-25
23
7
7
40
38
42
-2
32
1
9
24
21
22
-4
3
-30
28
-24
-17
34
-5
-33
50
-43
-72
19
34
3
23
10
11
-15
14
-22
-7
40
14
36
9
-30
-26
29
-28
-24
8
-37
-17
-18
-2
-8
20
0
29
-2
29
-2
13
36
-9
-19
-1
6
3
-9
3
-9
16
-8
31
-6
-16
9
30
-6
-4
18
5
19
2
10
-24
-14
-12
12
-43
-15
27
-114
38
35
-51
-34
-8
12
11
-31
1
0
-19
-8
60
-22
-43
34
45
-14
0
29
30
-7
-6
5
-9
15
14
7
23
0
0
-5
-25
-100
-12
-33
4
3
-35
25
39
-18
38
-22
22
5
-9
-42
3
23
-19
2
70
-15
-13
6
14
19
8
8
9
-7
-36
-23
-1
22
21
-6
4
12
15
5
22
-26
37
-13
-18
3
-68
26
-13
-5
-5
-5
-6
14
35
8
9
-17
23
-11
-4
26
-54
2
20
17
-17
-8
-29
30
24
2
20
7
11
2
-14
20
-19
-7
11
2
44
-29
-10
-3
-23
14
-25
61
41
-5
28
29
-18
9
40
0
25
-13
62
-12
40
-9
11
10
16
-6
-30
-5
1
11
7
-4
-19
41
21
39
-3
25
14
36
-54
5
32
31
14
-5
-7
4
69
-18
-4
-23
-39
61
-23
22
2
-20
23
-50
54
-33
-29
42
-15
-5
24
-19
-9
-38
-30
-25
5
