-14
50
-15
19
5
11
-32
56
-11
54
21
-1
10
-14
-32
7
73
-29
-10
-6
1
-28
-23
-31
-30
25
-43
33
-45
-20
-3
-8
-8
11
-31
17
8
-12
10
-25
-17
-1
-9
8
-11
-16
18
61
4
-21
-30
-25
27
10
3
9
-3
-37
13
4
9
28
-52
-21
0
49
-62
-18
-3
34
-43
26
-16
-15
24
-22
33
37
-23
58
20
-13
29
12
7
-55
-38
7
3
26
-22
-43
-17
-27
46
-35
119
24
28
-25
7
35
-12
14
61
70
8
10
-17
-61
-4
-20
-1
17
-34
6
5
11
-15
-9
-18
100
-43
-9
33
-46
-13
-1
-8
30
-20
-42
77
-18
16
1
9
-2
17
75
24
18
42
17
-15
-37
48
28
-44
46
-18
20
-45
26
-19
-49
23
-31
14
-9
33
-23
-8
35
10
48
22
-35
72
24
35
44
-12
5
21
-9
8
-28
-34
-19
17
-5
-27
-9
-5
20
-28
38
0
-14
-23
3
-7
-18
21
17
1
44
-12
-18
-4
16
-7
-12
27
-9
14
-41
5
48
40
-7
-1
-10
33
29
-59
13
18
-35
20
1
-19
-4
67
4
20
48
-8
-19
0
-7
28
24
-12
1
-8
41
-61
21
18
-37
-24
-40
-35
-85
-57
-3
4
-36
16
20
-39
43
15
-28
-57
28
-2
31
-1
-28
50
36
18
-4
7
7
53
23
30
-30
-13
60
12
-13
-66
30
27
23
4
-14
1
-110
-1
8
-7
16
2
42
-23
41
-17
-16
29
-27
11
14
23
-2
-3
24
27
20
-11
11
-54
23
-156
2
-27
43
-9
47
-30
53
11
-9
-39
46
-1
-14
8
-42
26
-28
-22
2
-9
23
44
-148
-18
16
-21
-24
-24
-25
6
4
-15
-50
-29
42
-14
134
-14
-13
99
30
-25
-3
-27
-49
22
18
-4
6
-6
-4
20
-5
1
8
24
2
-62
-1
24
-56
-28
34
-5
32
14
-10
-22
-32
-5
15
7
-10
-19
-17
40
21
-5
10
-32
-11
-1
-21
26
-48
34
-1
-20
-51
34
18
-23
46
-33
-28
-33
-38
5
-34
-34
-4
-15
26
-8
33
-9
-2
-14
15
26
0
27
-73
9
48
14
22
-26
23
-16
27
5
8
-19
-38
-54
-4
-47
-41
-14
-24
-60
11
47
-3
37
25
31
38
7
-61
-30
-16
23
-4
-12
42
-14
28
-50
-12
-18
-82
-23
-9
-5
17
-12
-61
-63
35
-22
-23
-7
-6
-33
-30
-17
-28
-16
13
32
-12
-54
-39
-40
-16
35
-26
-36
16
-15
14
2
49
-27
-42
-32
-18
22
6
-14
-2
-7
-6
22
-13
-10
-12
-78
16
-3
-16
15
-1
-20
28
-66
47
-11
-10
42
8
1
60
-27
7
-32
-22
-15
28
-16
-16
14
-15
-16
-1
1
18
-33
-23
-42
52
-9
17
-33
-22
19
-8
-1
21
-11
-26
-8
-8
-2
-3
-32
-9
-19
-4
6
27
-4
-2
-9
-4
13
11
-7
37
38
33
4
-30
1
-7
5
-74
8
24
-86
19
49
-37
-15
-28
17
17
-2
39
-18
-5
5
28
3
-35
-16
4
6
-33
8
22
-15
21
23
-11
-18
64
-1
-10
-13
-5
18
-37
-79
25
-34
18
-12
-12
45
53
-22
4
-21
77
43
3
9
15
58
-34
2
27
-30
-1
-28
29
-12
27
-28
-13
15
-57
0
24
-19
-1
-17
23
44
14
6
56
-51
-53
6
-8
-4
-38
-3
6
-28
10
-2
-6
19
13
-26
-36
-79
7
29
-45
-6
-76
3
7
16
-28
-15
-11
-5
11
3
12
8
10
-19
10
19
-22
18
35
30
6
-28
-19
-56
-50
5
-34
-18
50
9
-30
-12
-79
25
14
55
25
-34
22
-60
31
8
-8
2
2
-15
3
-23
-37
21
-4
10
-35
37
-1
-21
37
18
20
68
1
-6
-7
11
-14
44
-11
18
12
-36
20
8
-62
19
-15
26
-9
-12
27
-47
70
-54
-30
64
-37
-10
47
26
1
-5
2
5
-14
