-47
-24
28
-50
60
34
25
66
-37
-4
-11
21
-55
52
-14
52
124
40
-5
18
-6
24
15
11
-32
26
21
38
-44
22
40
2
63
-51
-22
26
-54
-32
-47
-56
-13
-52
17
5
21
20
16
75
-25
6
-46
21
78
-3
49
26
44
-33
-22
-50
-11
34
-9
-47
24
42
-42
45
-64
-17
-29
36
-4
16
19
-21
-31
64
22
32
26
5
-1
48
-15
-63
-19
-31
-36
34
-37
-57
65
-67
15
24
105
-12
52
-43
-3
-24
25
-20
-15
74
16
-33
-40
-25
-10
30
51
-59
-15
31
-41
-17
-30
-5
-16
35
2
221
39
-89
4
1
-17
16
-37
1
-26
-3
-3
-8
71
-2
-15
19
-31
11
-2
48
64
-25
5
-69
-63
48
-77
-15
-46
19
-59
33
33
14
-34
15
-2
-15
9
-8
39
47
66
42
-30
18
6
13
-62
-62
-9
-20
42
4
15
-20
-88
19
-10
1
5
-23
35
-36
42
36
-29
-7
70
-52
3
-24
-38
3
-33
-7
-23
-3
25
-64
5
59
-24
-17
-30
-2
-53
-2
27
99
-21
31
-91
-13
38
-44
49
28
-27
-16
22
136
40
-32
-1
-19
-83
-1
60
-39
-21
2
37
28
25
-28
66
21
-17
-1
5
-11
31
-22
-47
21
-35
39
1
-23
28
-29
29
-34
5
35
12
-18
-32
-3
8
-89
0
-46
26
0
-15
45
-6
64
1
-41
53
23
-6
-20
-1
43
-13
14
-53
-1
13
2
-25
-21
-20
-10
-46
-30
43
28
8
11
16
-47
-27
36
11
55
17
-14
-31
-21
-415
-38
-24
-52
48
39
-9
52
-9
-63
-9
-3
32
62
57
-92
-16
-46
25
39
8
16
25
35
-24
23
-41
2
-37
17
-30
-39
72
19
43
30
-12
-17
50
-47
38
-16
-4
-48
73
-85
30
18
-30
21
21
30
30
-65
51
53
82
53
-34
8
-33
-16
-57
-16
0
-37
-12
-10
14
-21
-68
-3
9
-374
-36
-65
66
1
-32
27
5
-24
-15
-1
30
-58
-18
-13
-58
-24
80
8
-25
-24
61
-23
-35
42
-27
-68
28
14
-9
75
-21
-17
-25
-4
-39
-46
-28
8
-6
-59
23
-39
-6
29
-4
-50
-32
41
-56
-65
-20
38
16
8
21
-26
16
16
25
3
-27
-60
-15
-54
-36
48
-6
16
30
-33
30
-65
38
23
25
-6
-155
0
-7
-73
-6
5
45
22
93
-84
-13
6
1
-20
6
33
11
-17
-29
-39
-67
-63
-4
-45
-74
22
-65
-4
15
27
-10
28
-56
-14
-14
44
5
-16
-2
-12
-8
21
0
14
19
-37
-21
34
-36
55
-75
5
2
-69
-24
0
3
78
-11
-42
16
56
11
15
42
-10
-25
-24
-75
-34
26
32
3
26
-17
14
9
-27
8
5
30
-72
18
-32
-1
-16
-4
-39
-17
19
19
32
-18
12
4
33
4
-22
20
27
-6
-22
12
20
57
-37
-37
28
1
62
2
55
-5
6
33
-54
-42
-18
39
-99
13
-55
4
37
55
40
-69
-12
79
-1
-69
5
-9
-61
2
9
-6
58
4
16
-9
63
17
13
0
61
46
49
31
34
-67
35
75
3
19
-10
-9
-31
-42
-27
-31
-59
78
-10
12
10
2
21
48
3
33
-11
85
5
50
58
-3
53
43
31
52
-26
-62
38
-32
-61
4
-59
-7
104
-1
120
10
30
46
88
-50
-18
54
20
4
-11
-4
-45
54
6
7
5
-2
63
71
53
61
2
12
-15
54
-2
34
4
-51
-8
-12
-36
50
-21
15
13
9
73
-20
-6
-11
-31
-19
-20
67
20
-85
-56
-34
-10
80
20
10
24
64
21
46
10
18
9
-21
-4
27
20
-4
4
-27
3
57
2
-197
6
-13
-9
32
-14
-21
-57
-28
8
18
60
-9
2
105
-29
-6
87
-42
41
-17
1
-74
-31
1
26
29
-49
33
7
-35
5
-16
41
-30
-15
-30
39
33
-72
-49
3
25
-37
-39
-20
-19
-39
