-26
-26
-10
-7
3
48
-8
14
31
-60
-34
-77
1
5
3
-8
-8
-29
-39
-13
-26
12
-12
-12
-12
6
-34
-7
-9
-1
-51
-18
-40
23
-8
19
21
-26
7
25
3
4
60
-1
46
-3
10
6
23
10
-19
-23
-8
8
-21
-18
5
-49
-16
-26
-23
-7
10
42
0
38
-2
-47
-132
0
-57
1
17
34
-115
20
15
-79
49
1
-30
-65
-15
-19
-4
18
-37
21
-43
-31
50
0
6
0
-7
2
57
25
3
-54
36
-37
20
-2
23
76
83
33
-85
11
-6
31
-5
-72
-26
-77
-69
50
-26
-19
-32
32
-37
-47
3
19
6
-30
64
-21
-64
34
-73
65
-42
-31
2
5
56
-24
-14
-46
-1
5
-27
63
-3
45
34
19
29
41
-9
-10
7
-8
85
-17
-1
-63
-26
-32
28
-37
9
-10
-45
64
45
-40
15
38
11
-17
15
36
28
5
-58
7
25
22
45
5
-65
-43
9
42
-35
38
-6
-43
36
-55
3
-68
-9
1
-8
-62
6
-79
-9
-22
111
-21
27
-14
47
-7
-24
-33
4
8
-7
15
-49
-12
-89
-8
24
-45
8
-41
-29
10
32
3
106
-21
-18
13
-25
37
13
1
126
-7
-4
-43
7
-23
-26
-24
-2
-36
20
-23
112
26
8
-13
104
-15
21
16
-25
21
-4
-1
-50
91
26
1
-41
-17
-1
-58
-22
-7
-40
24
52
-33
71
14
2
43
-77
-50
-55
2
-56
-50
14
20
39
-73
-15
-18
-40
20
-52
49
7
4
-8
8
-6
31
-20
-58
-66
6
-17
-17
-56
-44
4
61
27
-25
6
36
11
7
68
4
-48
-78
-15
-23
10
-12
-12
7
1
46
-14
72
-23
55
45
-18
54
81
-17
-51
-114
-16
44
-84
-47
-8
-23
-6
-9
67
9
-10
28
44
9
30
-20
13
-81
77
-33
-101
-82
73
-65
16
70
75
-13
-33
-48
97
-13
96
32
37
-61
-8
-35
-68
23
12
-74
-31
58
46
-5
70
44
10
25
-22
26
27
-18
-44
-4
1
-58
24
11
-32
16
-22
41
40
-27
20
-4
-34
-10
-15
23
48
-5
37
7
-4
-30
2
58
14
-69
-36
12
-3
15
31
66
-22
15
-78
15
-53
16
-6
13
-24
18
-28
-25
-6
25
-29
37
-7
23
6
53
18
40
2
7
-7
83
-11
-2
11
-25
16
-25
38
-1
-38
13
52
3
2
-19
31
-6
-34
-42
-14
-13
-42
-1
-10
-12
-20
-17
17
10
-2
2
-26
28
-4
-8
-26
52
-12
16
8
-20
21
-17
70
-41
-30
-21
33
46
-20
8
-8
-28
2
-33
10
-27
-51
-13
41
-13
-3
-44
81
-65
-40
-23
42
7
-28
-21
-7
50
-39
-15
28
-31
62
-1
-51
12
10
48
19
0
50
18
26
-17
16
-29
56
-36
2
24
-22
8
-20
92
-40
40
23
-8
-23
12
78
13
11
37
18
36
20
-58
-5
61
-68
-28
-25
-115
2
-10
-16
24
-11
36
31
-25
640
-50
58
-64
-10
-34
-41
-12
40
-44
18
-68
-19
-17
54
21
-1
84
-9
85
-9
-4
-17
-11
-102
69
-38
-65
54
52
-36
53
44
11
-54
-38
-128
-15
213
-4
-22
-63
53
-13
163
2
-124
-42
2
104
-35
-12
-12
1
3
-3
14
10
35
91
-15
125
7
68
-118
103
117
18
19
-151
6
-126
12
-99
110
-74
195
98
12
588
35
-13
40
96
-39
-61
31
33
51
-71
23
103
40
-57
53
57
27
-88
-15
74
-124
43
70
-1
-78
109
-127
67
-422
-52
-4
27
121
19
56
86
-26
185
9
-53
-77
-29
-84
-156
35
97
78
-9
13
-29
-27
-19
32
3
-158
22
38
-17
-55
21
68
1
50
-20
0
59
2
-2
86
123
24
12
38
75
-42
37
34
-85
-12
-59
-38
40
43
-52
-27
87
-81
-35
-49
39
3
-23
-40
13
-72
-87
57
-27
55
72
-56
-28
81
-4
17
116
52
-6
-28
