-23
18
31
-25
15
-27
25
43
-43
-7
9
54
-49
-1
-21
15
84
38
-20
25
6
30
-10
-14
-27
51
-19
20
-33
25
27
23
21
-26
-25
18
-57
1
-37
-73
-5
-47
38
-4
25
24
-3
77
-1
-15
-20
26
35
-17
63
3
76
-107
-4
-80
27
100
0
-23
-1
19
-15
18
-50
0
-30
37
-23
-10
-2
-21
-15
-47
13
40
44
7
41
-12
4
-36
-49
6
-20
48
-25
-79
27
-69
-6
-25
70
-27
34
-32
-11
-54
22
-25
15
46
65
-18
-42
-37
-21
3
38
-17
-27
23
-15
-35
-26
3
-40
30
30
61
45
-84
18
5
-15
-17
7
-26
-53
-17
3
-32
53
26
-15
2
-34
32
13
26
30
-1
17
-11
-89
48
-75
45
-21
5
-77
22
28
26
-56
35
-2
-18
-15
-14
17
29
34
-2
-36
17
39
18
-20
-27
9
9
59
-1
-39
-20
-11
-6
-45
-16
-21
-17
-15
-38
27
-5
-12
29
27
-22
3
-20
-1
46
-31
-28
-59
-32
53
-64
22
54
1
23
-13
-17
-4
-11
40
106
-14
5
-26
21
87
-8
51
22
-31
-33
-28
103
-10
-9
52
4
-55
35
30
-5
-38
-6
-6
25
8
-17
54
2
-40
0
12
76
-54
-68
-50
21
-28
-7
36
14
52
-10
16
-26
40
12
16
-12
-22
34
29
-93
-37
-31
39
9
-23
66
-54
54
2
-62
-43
30
29
-33
-5
31
-34
29
-3
-10
-7
21
-7
-8
2
-16
-45
-33
42
1
29
20
11
-31
10
9
-8
90
3
-29
-30
-5
-324
-51
-31
-54
33
-14
3
38
-3
-39
33
23
11
37
-8
-78
0
-70
16
30
-36
-17
70
-12
-52
31
-14
56
-47
-7
-55
12
56
55
40
22
7
-30
38
-35
17
13
-30
-59
51
-106
35
27
-30
17
16
39
32
-10
93
54
91
68
-65
-35
-35
-31
-22
23
0
4
-40
0
3
-17
-25
-23
17
-380
-34
-66
55
18
-6
27
-6
-22
-13
-21
9
-51
14
10
-55
-10
29
-11
-38
6
38
1
-122
-23
-19
-45
10
6
1
30
-29
2
-31
-8
-50
-91
-7
30
30
-38
41
-56
-60
-17
-10
-53
-49
22
-62
-38
-28
6
-10
21
15
-31
31
-14
-18
-30
-25
-46
-3
-6
-12
26
21
14
76
-8
47
-34
38
47
12
5
-94
-30
7
-18
24
0
91
22
51
-76
-4
35
1
-34
-10
25
18
-26
10
-41
-5
-79
28
-43
-76
-67
-100
19
34
35
8
30
-38
26
-37
32
12
-32
26
21
14
25
6
-7
21
-37
-8
13
14
46
-56
-3
14
-51
15
-9
41
84
-33
33
29
-1
6
-19
54
2
-52
-9
-75
-28
19
67
-15
19
-12
1
24
-73
24
-5
44
-86
31
-18
7
16
-21
-42
4
19
25
50
-36
-18
11
13
9
-38
-11
37
18
2
16
64
50
-32
-26
67
33
58
14
5
11
-3
18
-46
-64
28
52
-82
11
1
-43
34
50
2
-45
-12
105
20
-23
8
-3
-54
14
30
-28
18
17
33
-19
69
-10
20
-16
45
45
28
27
26
-41
28
25
-27
38
4
-48
2
-2
-34
-1
-39
58
30
-10
18
-1
29
66
-20
-18
-26
37
51
4
80
-16
14
-11
43
41
-21
-38
43
-10
-44
-6
-29
-3
79
10
93
10
-24
7
50
-22
-5
38
-3
-13
-18
36
-29
79
-20
1
7
-3
86
77
-35
69
-14
51
1
33
-9
56
-24
-23
-13
-4
-46
90
-37
-6
41
6
37
7
-20
6
-7
-40
-17
79
-8
-86
-51
-78
-55
53
-55
56
44
51
13
67
-48
42
33
-30
1
31
30
-36
-9
-16
6
51
14
-106
9
-13
-41
33
-18
-5
-56
-12
-6
3
70
34
-44
97
-71
11
90
-21
28
-10
24
-34
26
-30
2
-6
-12
25
5
-29
-7
-21
46
-74
22
-75
13
53
-83
-49
54
30
-3
-68
2
-19
-27
