60
13
-76
4
-50
17
-11
-47
69
72
-2
14
48
50
42
-33
-23
-58
-103
-44
20
-41
-24
55
-55
-14
23
20
-28
-74
-46
-86
-15
-31
-13
-91
-33
-48
94
104
98
-73
-42
80
-87
45
19
86
-44
-84
63
-75
-6
22
45
-6
81
89
-48
-42
62
95
10
-40
5
-75
-39
-37
-11
-124
-94
-59
-24
-21
-4
-40
47
-6
64
-50
-228
-33
-73
4
15
17
14
-51
84
-40
67
24
-56
12
-139
-16
41
-55
-30
49
79
-113
-27
37
69
-70
-3
-15
-3
-5
99
4
-23
-72
-28
-22
93
-2
-11
-104
-13
16
12
-33
60
55
33
-58
-15
-115
-115
72
-88
154
-873
49
-71
-205
-155
38
60
51
295
-24
21
12
-56
154
53
-262
-168
-163
220
61
124
186
-32
-18
-31
-137
12
-213
110
-40
200
-110
-107
191
-237
72
58
-240
-87
153
-58
-15
130
-226
109
90
183
-139
-14
174
185
9
244
194
-50
490
-44
-61
62
-33
-23
15
-18
6
2
5
14
-12
-5
10
19
0
-22
-17
2
5
13
-48
-71
-43
-4
-13
41
-30
-19
40
-31
26
-9
0
26
-40
-3
32
-10
-34
8
-3
25
-69
54
-7
-5
-13
-39
41
-12
1
-20
-51
-4
42
17
-30
29
-5
-15
-8
27
-30
-10
-2
-44
31
32
53
38
150
-16
-78
-56
-38
-24
44
35
-12
-35
-60
-63
-57
2
94
-10
-4
-39
0
-6
8
50
-3
124
-55
-82
-97
37
57
-43
-7
-62
8
41
-69
-68
-18
15
72
-45
-4
-131
-49
10
117
32
-67
100
71
-31
-16
-64
-32
11
37
-35
30
45
-67
94
-96
-36
176
-140
-52
38
-105
-22
-27
145
-615
62
-22
39
-69
409
-11
-32
-21
-17
107
66
-19
229
120
36
-237
-17
-25
127
74
250
172
-29
-53
113
82
-63
-108
-163
55
-72
-61
17
45
-87
68
-176
119
96
75
98
-241
39
-10
-26
152
7
105
-5
177
-55
72
47
168
35
89
-32
-141
-124
-51
57
176
-162
77
105
-6
-19
22
114
-76
-920
259
-28
-168
-36
-53
129
-188
121
-2
-112
13
32
101
125
-1
-101
101
-32
128
-147
94
-37
-85
149
-10
-162
-114
-122
-44
96
38
44
32
-31
-44
66
-197
218
10
7
-20
-170
-247
60
85
14
-53
37
13
-40
24
3
-6
27
70
22
23
27
83
-40
-25
1
-24
-42
-4
6
-2
55
19
-55
23
40
-55
47
48
53
60
42
-17
-15
26
-31
76
-2
-25
46
32
4
-6
15
-32
-17
15
12
26
-34
-34
5
-21
10
-3
-16
62
-9
-33
-38
-11
27
3
32
77
0
3
72
-95
63
21
73
-9
-17
-38
34
110
-32
-58
2
43
80
-9
38
-16
-36
8
73
7
12
5
1
53
-4
-9
-6
34
8
6
-49
44
17
-40
-49
-40
26
20
32
-46
-102
-13
-45
4
17
23
-1
-13
2
-25
50
-50
-3
-9
-5
58
2
27
-18
-14
19
-11
25
27
-24
19
-27
-49
59
60
40
62
33
-36
-8
-48
-71
68
21
-39
-84
-21
-26
-113
-3
15
45
46
-23
-9
49
-53
-5
-62
0
2
-43
-16
-75
55
-11
-70
13
30
18
16
-83
-28
-41
53
4
91
-9
42
-15
-44
37
21
72
65
-26
-53
2
10
21
22
-88
-59
-21
92
10
3
4
-70
-38
26
8
34
87
-53
-39
-30
-46
-36
10
-17
6
47
-14
-10
-27
-7
24
-37
-17
13
-61
-59
-37
-33
-9
11
46
-23
-48
-20
-7
0
-11
-37
-58
-64
-69
-39
19
29
-36
-9
-8
1
-14
60
-13
-51
18
-15
158
16
-3
-43
-79
43
-24
-40
75
32
-21
77
29
-99
18
-53
-38
0
-51
15
55
-2
9
-62
-65
-7
109
14
35
40
41
-75
92
-54
-18
77
100
27
65
115
0
-78
-94
-17
-64
-45
-125
-35
37
112
-30
123
-133
-35
36
-12
65
-46
94
59
-10
-40
-28
27
