118
231
53
80
33
-128
-277
2
78
-241
26
349
242
-448
106
393
174
-119
79
-136
-446
-81
-170
48
20
-40
103
271
223
439
258
-213
100
85
106
168
139
228
-86
196
-240
20
201
132
97
49
30
-123
61
-40
105
51
56
179
447
-77
-487
-104
-148
-152
273
56
-567
-158
-272
-186
78
-213
-442
94
211
-27
-123
-613
-182
-265
154
-203
153
-276
54
296
-293
-62
-205
-224
431
-569
-184
-127
-105
-119
-420
294
0
168
-343
427
209
-167
-151
-277
-323
373
180
-1186
-225
-143
225
-559
84
40
283
342
100
27
-240
-49
128
-64
-276
-351
-171
360
348
2
109
-264
625
541
-1
60
-156
48
-47
-50
-170
-563
169
-204
-96
-195
-245
407
-393
61
-53
230
-243
144
-68
392
-176
116
435
207
-84
-199
331
-43
83
-149
570
-55
-71
-264
-12
-217
972
-82
376
3
-119
-31
88
121
-315
-100
17
103
77
14
-157
11
-255
377
178
-184
-277
75
-378
133
189
40
-108
147
-263
-365
-394
130
409
-116
-784
88
132
-44
-362
188
-41
156
-54
63
-454
-170
-130
-387
-222
164
-1132
13
4
58
-99
119
151
-777
-436
124
-32
-246
-45
-182
233
-81
180
123
-491
-312
-39
-75
-577
283
192
60
-81
-790
290
225
331
257
131
144
118
-89
-147
4
208
150
91
91
-160
229
25
122
-530
30
-289
141
-267
-12
-19
347
20
288
56
-332
-254
-168
230
188
-583
121
-85
16
147
144
67
-58
90
-41
104
-222
382
-116
73
-110
-637
27
186
-142
-4
193
368
379
-143
58
78
-211
-826
184
291
95
70
112
-242
625
-167
-4
46
49
-227
362
139
-23
-341
-291
65
-60
-282
57
87
-1056
337
-228
80
-157
-301
22
-5
-108
-213
54
-160
-116
-514
-608
0
-221
-14
-369
151
-16
-48
-638
73
-109
-114
18
16
126
-426
234
-117
-186
-139
-112
-458
227
-164
410
-444
15
106
-29
-181
8
-48
109
270
26
160
-102
16
-97
-15
96
68
70
-211
104
103
269
58
-232
-97
36
-262
4
47
-216
349
297
-216
-195
71
-52
-244
136
-205
102
32
-4
-38
207
-3
-159
112
511
-47
-275
367
422
-125
106
198
113
-351
-8
99
33
373
270
-172
-122
71
-369
279
167
141
-166
516
29
86
12
159
-50
-183
-202
474
-69
-248
152
97
0
57
-63
202
207
-10
264
621
110
-164
16
-103
107
234
5
-381
107
89
18
-54
24
215
131
-306
-244
13
87
130
-312
-456
-262
-188
246
-390
173
234
42
149
120
-960
-177
-244
-167
-265
-117
124
-111
214
158
-8
-166
618
-93
334
151
-232
-96
-64
104
168
-202
-138
-29
-113
-190
290
-6
211
72
46
414
-356
151
-196
15
-160
460
227
494
-35
-344
-253
137
-113
210
-31
-382
34
-424
39
-96
325
89
221
241
313
-174
-139
271
11
120
-229
49
-311
247
-178
11
0
-368
140
201
220
-370
255
199
76
-140
443
147
11
250
92
47
-13
-784
88
226
114
355
-99
-165
183
-51
-258
168
-39
260
244
138
-84
154
-232
-57
6
189
291
-169
-157
-67
202
352
295
155
-188
398
-39
73
-11
347
37
-1
-413
-138
-15
-217
-118
-234
103
127
46
332
-354
220
176
-329
215
375
78
-349
386
-30
-198
155
-1
74
-408
199
31
33
-82
-456
154
166
336
-334
289
-144
94
32
-225
252
-716
-71
427
-187
62
300
-70
-225
-112
-199
-164
213
91
72
12
193
-320
-97
-68
103
190
-20
218
144
-110
202
-271
229
121
288
213
413
-184
-311
-225
9
-227
161
203
124
256
-279
262
87
-34
-239
-85
-25
-77
-40
-127
61
-47
-130
73
253
192
221
227
22
117
320
197
-214
76
-146
59
127
22
-69
41
57
-35
-384
670
-9
-149
-49
58
-65
69
-237
-167
256
-98
-58
514
-61
14
156
83
-352
-383
-267
-33
186
100
-144
-317
369
-300
-368
107
277
181
82
-209
233
-92
-210
-144
-393
-1
57
