0
-3
225
32
-10
19
-51
-28
-24
-46
-2
-47
-25
10
-9
-69
180
-25
-20
188
30
-32
19
-164
9
29
66
-76
-34
0
122
16
29
12
-1
-8
-12
149
53
37
9
-29
46
68
64
-31
39
38
-15
-48
-14
-7
11
-6
35
16
25
-7
-30
-13
-15
19
20
-16
20
72
-15
30
-19
-21
65
-241
-143
135
-15
14
-20
-120
-21
19
-57
-166
221
-108
-278
283
22
90
143
-37
108
426
-60
-91
-145
140
123
34
60
21
-79
7
-17
-114
-13
-18
-218
136
283
-64
-30
-55
3
50
-86
-95
4
-79
20
-83
97
-9
-201
-33
143
-101
-1
-114
-58
56
35
19
-31
-74
-34
119
-73
89
16
30
-42
-73
15
42
10
9
94
34
3
32
-42
74
-34
69
90
-100
40
3
-99
80
-39
37
35
251
-355
46
-25
-24
2
-72
35
6
-10
101
51
72
-58
0
48
-16
-98
80
-426
101
173
54
49
-54
-10
33
10
-32
30
15
68
-23
-7
102
58
6
122
43
-221
36
-61
65
-40
78
135
-35
-219
66
7
40
69
-63
-268
-18
-43
102
-100
-56
119
-274
-1
99
-35
-206
32
263
-10
-70
-83
-27
-19
68
263
29
-40
339
36
-76
40
-44
13
-7
76
6
27
-26
-135
74
20
-285
76
-34
-52
-10
-12
-48
-71
22
-89
29
-83
-70
105
86
-58
-84
26
-4
110
-36
70
-8
12
-5
9
133
-1
-5
95
-61
22
-109
-53
-57
145
-49
145
-163
43
25
26
145
-73
-208
120
15
83
-11
127
-63
-83
-69
-72
-124
17
177
-31
-48
-5
-27
5
-3
71
12
73
57
63
-41
13
76
8
120
111
73
-113
-87
-10
120
-118
-60
-49
0
-101
-256
129
-2
60
-286
54
-79
5
-233
12
22
93
15
2
47
-104
-81
26
120
13
26
61
-55
16
-26
32
13
-156
2
28
-85
-131
7
35
-29
-51
41
49
122
110
-88
90
-89
105
7
-216
-84
-55
8
-123
-162
-44
110
43
-83
120
-115
117
316
108
-53
0
138
-4
-102
6
295
-102
164
-80
-220
-1
110
-231
126
23
-72
-50
-80
-69
-31
-82
-83
-38
23
-127
-70
39
9
-35
122
-10
110
-199
57
8
10
52
-47
36
-627
-52
-23
-99
170
71
277
145
28
214
289
-103
128
109
-29
77
187
54
-47
11
-49
-24
-59
-467
406
-407
-365
75
-9
136
-43
-33
47
28
-134
18
64
9
0
-41
0
6
10
-71
-75
42
-51
-51
-241
-49
23
-258
-23
-49
116
60
75
22
84
-63
3
53
38
-65
57
-113
-53
-123
-26
-17
-56
61
-100
-39
-60
-27
56
-40
-92
-77
0
-4
51
212
-21
-30
28
55
5
36
53
1
-7
-20
31
43
-81
29
-51
-78
54
78
5
27
-312
-80
14
93
-6
17
-16
109
-23
-55
384
18
-21
-9
-116
18
-28
-15
10
20
76
-37
-52
-63
-12
-201
11
21
23
-97
-148
0
-29
40
2
25
56
20
-30
-47
-23
125
-60
51
6
23
-25
-58
1
109
-56
17
85
29
13
80
97
45
62
80
36
-142
-4
40
56
14
-30
90
78
-13
-4
-124
-22
61
-12
-91
-80
-3
51
-54
5
-40
-14
-73
46
-305
28
-283
-22
-79
1
-47
33
90
25
-20
-51
-129
-292
-137
51
6
24
1
54
-45
-166
8
91
-93
-404
-56
-135
53
-100
8
14
31
-49
-27
82
-61
36
74
-47
27
-31
51
-105
-109
40
-29
70
-17
79
-7
167
379
-95
-28
70
-133
190
33
-15
24
85
56
-17
-139
15
71
-83
73
98
47
56
-76
-109
13
-60
49
21
-117
104
29
-39
-70
-53
-268
-131
9
38
22
-36
-1
-101
24
-528
-32
-117
-57
-44
-83
127
72
43
-1
46
-78
41
148
-6
94
1
-26
-61
116
65
8
185
27
-40
-170
95
28
49
-9
-34
61
-108
46
51
-6
29
58
-47
35
84
425
-36
-49
31
19
-169
-15
-35
