-23
-34
-5
34
9
24
-58
25
20
17
-44
84
-9
-13
17
-4
48
8
-21
33
-81
20
-37
38
6
6
-10
47
20
-2
-31
-21
18
37
0
16
46
-4
36
1
-20
14
-46
-21
10
-12
3
35
-36
-17
26
-26
-2
-19
25
17
22
-9
15
23
-19
-6
23
-11
-20
39
36
-87
49
-20
50
56
51
68
30
-8
0
65
48
-52
97
-34
-12
32
42
4
-4
-123
-5
-16
107
-18
130
-48
80
15
-11
-24
93
73
19
82
80
81
30
2
-2
1
-39
-19
-115
13
56
49
41
-20
16
92
-32
-60
51
82
106
-61
-37
-8
-58
1
-27
58
90
95
4
-26
-89
-47
119
-183
99
-98
-4
-15
144
196
25
96
20
-59
-49
36
37
-196
-227
61
-60
12
8
28
94
22
90
-78
-47
48
-2
-142
-31
14
-48
21
27
18
137
130
-29
-136
74
-68
-55
-212
0
-140
-99
79
-2
-28
-83
50
91
-1
-51
-128
248
-352
165
173
158
61
36
258
-87
-23
232
-6
72
92
-151
-24
245
-128
-10
100
222
263
-214
0
121
-346
288
-115
-44
38
-196
212
140
67
-103
-152
33
15
157
36
119
-236
-30
54
240
298
-254
-140
-68
121
-117
-110
248
-181
105
-187
-72
-137
30
-164
-367
45
-210
-184
68
-3
0
75
-54
20
39
-40
34
-54
-179
217
-45
4
46
5
-7
-45
44
-21
-92
63
-45
-53
-34
68
19
-14
-38
47
29
-8
-57
-10
-32
-29
-17
49
78
-17
-39
-34
-1
-22
48
178
-279
9
-2
-99
2
-20
9
-22
-65
-10
3
21
-29
-8
-27
-7
-8
8
54
-54
-2
-71
29
-40
-52
-17
9
-32
51
-90
-54
-32
29
3
-11
-36
-23
27
5
-15
-46
4
7
-67
-82
17
31
-13
-17
4
26
24
31
54
18
-22
28
9
84
55
-28
58
2
-65
-42
26
24
-11
-21
45
22
-30
-90
4
17
-64
-16
6
-9
63
11
-38
1
-7
21
-6
8
17
19
-43
0
-35
9
-46
37
-27
56
2
-21
1
-11
12
33
5
12
32
-27
10
104
-17
5
-26
7
1
-6
21
-5
-23
-18
157
25
-5
-18
-16
-41
-111
18
1
-31
-3
-11
-2
11
-2
6
5
-155
4
14
-19
-1
20
24
-12
-22
-27
46
8
37
-29
-6
43
-29
1
3
54
29
32
37
-20
37
-29
-13
-28
186
14
-4
-12
-8
-12
30
-1
-4
-4
-25
-15
7
-33
-111
-8
26
-15
7
3
-19
7
28
-77
3
-5
83
74
75
-45
25
24
17
41
-7
31
-31
-37
25
1
5
11
1
-9
-37
-31
-31
60
104
57
95
-28
7
50
53
4
67
-94
8
10
-48
32
-38
1
-51
39
66
115
136
-64
-25
30
14
-131
-73
44
-68
-10
-65
67
-72
-78
12
-66
0
59
-48
-17
1
3
-46
-32
10
-59
-30
-51
47
11
-10
32
-108
-10
48
-13
20
6
87
36
119
-6
-8
17
3
35
26
19
6
-30
57
38
-7
5
132
14
40
6
56
-23
55
32
30
10
-25
17
72
-23
68
6
-26
0
77
-38
-11
1
-46
-82
-6
-1
68
11
11
-5
-21
-17
-60
-36
112
-62
47
-17
25
42
185
20
-6
26
41
7
-42
-90
-14
18
12
-100
-21
321
-132
70
194
-165
-10
82
153
-27
39
-241
171
-221
-92
-12
-32
-103
200
21
-329
-29
-36
251
119
84
-138
203
69
-352
-110
135
3
-116
111
43
-161
212
512
82
-111
224
177
-109
188
-48
-80
137
99
-98
-231
-206
-112
270
-42
55
-57
-229
0
43
176
-110
-144
133
28
2
17
-41
-23
11
28
-16
-36
13
17
25
-1
47
21
29
-21
24
15
-41
-10
-10
-33
27
16
-43
53
-35
7
35
47
1
-4
-26
-4
-10
-17
-13
-10
-16
-72
42
3
18
-11
56
43
-42
7
23
28
43
7
5
28
8
-27
53
10
-7
0
-42
-13
-5
