79
144
-208
122
205
139
-136
54
-218
133
-421
174
413
-31
67
367
-128
375
-138
-173
-672
-514
-337
-38
163
-148
-4
201
299
356
302
-320
117
32
256
425
308
55
427
8
-173
124
436
-204
233
38
-79
-134
-311
-82
79
98
41
-429
153
-342
-398
-634
-350
-513
96
228
-211
96
-127
-210
57
-162
-153
-144
291
20
482
-250
-224
201
325
602
-269
-352
-95
219
-185
15
-615
-269
491
-611
-143
-304
240
40
19
589
20
124
31
265
49
-56
-238
-395
-72
496
93
-9
-63
3
120
-53
-408
-143
-288
259
165
26
-109
-137
140
12
-126
332
-450
72
187
49
189
-595
585
484
301
-360
-109
101
192
43
-85
-361
-91
-720
-131
-187
-95
302
-364
-234
32
249
258
-398
-132
393
-276
147
161
-31
-323
106
358
-840
160
-93
795
130
-409
-215
-31
-174
801
-42
389
-5
-578
-373
-148
-185
-223
32
-21
-163
57
65
-97
316
-160
157
112
-200
-50
-336
-123
114
-33
-43
290
179
115
48
-118
304
-126
-405
-330
-24
53
173
-256
218
-249
488
-164
225
-395
-59
240
442
432
159
-740
163
9
-198
-73
554
34
-338
-463
189
-347
-187
-335
-185
-415
-265
197
320
-139
208
79
751
-366
34
338
84
-180
155
-474
242
574
385
156
30
63
8
-112
92
227
-54
88
186
-56
-55
37
5
-592
420
-55
-410
-63
-78
127
307
-133
119
269
-429
133
363
458
132
164
-43
-129
-168
48
511
99
79
114
50
361
84
246
-116
111
-500
-855
252
210
-420
-61
535
379
141
-325
-5
470
-160
1149
-63
420
-590
-336
-280
-58
178
-112
-352
-67
-936
100
231
-230
156
-417
-514
-76
-20
-355
503
-7
-612
-162
-195
140
-333
-100
126
-127
-51
314
-66
-702
70
-606
-11
-116
-208
189
-209
422
-452
-131
267
255
31
135
26
-419
64
-620
-172
-393
-114
-315
138
-531
-116
-135
538
-61
44
8
7
81
224
165
78
140
197
252
22
-30
89
122
289
-414
99
141
-88
86
78
302
-281
184
-176
-182
-395
-6
-135
81
65
-537
20
49
-98
-35
-38
-91
196
-34
-123
-139
-177
-205
-76
90
325
120
-893
437
370
-445
-370
470
313
-536
-183
-142
-896
555
-7
-58
-115
-84
-215
-109
311
69
-136
280
-234
600
-267
528
22
-391
-565
138
-5
-120
-10
-172
-73
50
125
102
79
32
534
402
-180
-486
91
267
-310
329
343
-413
284
213
222
125
439
443
-75
-140
-344
-492
-16
-441
-458
-586
-460
-564
213
129
116
209
192
216
-112
-896
-242
-239
-35
-755
134
-184
119
282
-92
-253
-531
538
42
-166
112
20
-77
-83
463
263
-170
71
-100
104
578
431
63
77
-296
-1
-43
-427
229
-406
196
-355
433
610
717
49
-643
-325
-24
-224
86
-331
37
143
-132
-26
57
220
293
225
-120
-111
-445
-226
573
-7
96
-15
311
-512
563
-15
254
11
-453
623
304
263
-138
356
218
-113
-235
330
176
-15
528
-109
-180
173
169
-4
257
122
197
-217
-390
51
-37
-45
-39
-35
316
-41
-68
42
-38
4
-432
187
82
-10
-418
-190
47
195
223
317
-483
-132
935
-61
443
-153
496
309
-98
-661
-103
338
-201
158
-295
-3
397
56
384
-419
64
96
-406
-81
216
-151
-378
110
-75
-27
-46
-162
33
-605
152
-112
-465
-175
-180
175
24
198
-318
86
17
162
-511
-314
493
237
273
573
-8
156
450
2
-357
-150
-101
-140
77
9
327
-141
198
-219
51
81
194
42
207
-180
-111
-56
274
76
-117
281
253
229
338
55
-129
-71
11
-24
-58
254
191
472
-444
665
193
97
-303
-202
177
-91
-138
14
71
49
77
342
391
584
-165
231
136
395
249
130
-89
74
11
-26
126
-239
-26
239
42
-317
31
776
11
-25
-15
-144
88
278
-526
121
99
135
-85
420
-253
218
391
214
-523
-506
-600
181
132
-3
-85
-586
598
-228
-249
668
73
25
-623
-504
553
-221
40
-128
-425
-171
-249
