-25
-81
190
65
-174
-61
-42
-144
109
-153
-253
124
75
48
-15
-202
6
-383
35
50
-242
-30
18
-185
22
-170
-198
-215
-374
-165
-108
-195
-51
-314
-173
-243
-117
-317
28
-246
222
-86
-188
-282
-443
-80
-557
-10
-449
-484
-84
181
137
-100
-363
-43
-9
-251
-7
-285
183
-342
84
203
-181
-200
-11
-248
138
0
91
-96
-278
-224
-53
-351
196
-202
168
129
145
-145
-208
84
-239
-149
119
-50
-198
121
58
-311
218
-64
-172
-475
-165
-64
121
-48
-338
-312
-374
-117
-448
-80
-115
201
-212
-97
-147
-157
51
85
-86
142
-13
148
-9
-30
145
480
-11
-137
50
208
34
-14
-143
-528
-24
-9
-28
-137
266
-456
-187
-12
160
-148
-45
-17
166
-118
-66
-353
-153
122
-271
127
22
237
297
-292
68
346
-53
-288
-486
-52
96
209
-74
206
-271
-287
10
-392
-207
-219
-99
-68
75
-19
-323
233
385
-142
-204
-328
535
59
-77
-158
-63
-246
-256
28
137
37
-140
-455
-46
-3
180
-213
42
498
-28
112
-186
-116
160
209
-350
181
175
-258
175
-255
-53
-287
176
-362
-22
-125
230
-281
-200
23
132
-255
-81
21
-308
-491
148
-413
-136
4
-229
-186
-425
10
258
-87
-31
-147
174
128
-177
-8
-199
76
-15
-130
190
-312
-316
-180
-238
-400
-94
-114
322
-328
-194
33
105
-239
-253
-135
-132
-521
-209
-268
-786
-213
12
124
331
-125
63
-299
-140
-217
477
1
10
-270
-177
-47
197
-371
269
-105
58
-403
-481
49
65
178
-121
-215
-47
-139
-93
364
-268
52
152
130
-389
-181
-65
-127
-51
8
925
-226
-86
17
-104
-96
269
-65
-15
140
-110
182
-128
-146
-45
268
-322
-124
-181
71
-331
-125
-111
-177
-375
275
-158
-7
-200
-66
-201
300
-100
-62
-59
-215
126
-188
-130
59
-64
-181
-334
145
-446
-288
-97
-77
144
-287
-229
-44
-211
251
-395
-153
-408
-33
16
-377
-146
-31
-149
-131
-386
55
152
-149
51
256
-115
-261
-209
-90
-93
70
-241
-421
-38
-27
-226
66
526
226
20
-207
220
-8
-115
238
96
-305
-246
-54
97
448
-65
-268
112
-265
341
-185
-13
-203
-105
-99
-212
-218
24
-132
65
-26
-40
-705
-62
-141
-275
-126
32
-26
-305
-65
-326
-105
-612
93
39
-106
-2
-82
-160
-64
-104
-281
143
-8
-205
245
190
-421
-110
-189
-92
-166
-61
0
-279
-255
-190
-26
297
-192
-59
-154
-578
-380
-48
-221
-238
223
-159
-373
-233
-87
-55
167
-115
-60
-209
-304
239
-265
-225
26
50
135
38
6
387
153
-8
-108
-23
-36
-190
-246
-123
43
-170
267
202
-166
-192
-67
-189
-70
-4
399
48
-75
-100
22
-257
-271
134
-220
379
-427
-372
17
-160
-300
-189
-43
11
-402
-240
33
-195
2
150
-28
-522
-114
124
305
-52
-119
414
44
147
169
-142
279
-343
3
-216
-28
-266
57
-142
9
-148
-258
-210
121
-33
-4
71
-270
-71
96
94
-167
47
-338
-99
-198
-205
-200
-149
34
-195
71
-440
303
-147
-559
-278
155
52
33
205
170
213
-242
-108
81
-24
-11
162
43
-304
-185
-202
-43
64
-391
49
191
-84
88
-98
-88
-380
-214
151
-107
-24
-85
-31
223
-217
-384
-375
-212
16
-471
-100
-53
156
41
-241
-73
-410
-522
139
-276
-435
-96
41
-364
-245
-81
123
-348
-196
137
-103
46
-90
562
-347
18
13
105
-75
-130
-335
-92
-388
35
-116
-160
-50
-222
150
-245
-174
33
-102
113
-337
-258
20
-36
-399
-122
-269
-167
-67
-142
-13
44
-125
-112
-95
-168
46
133
78
-215
-263
116
-169
121
300
-149
-56
290
266
-150
21
-96
-91
-421
-130
306
-288
72
-176
-366
-466
-229
-273
-423
-438
-14
-108
-32
64
-130
87
-159
45
78
-92
-78
-232
284
153
-22
-234
-6
-85
-477
-44
75
105
-462
-374
-169
-38
260
-41
254
-316
-92
2
-73
55
-258
-126
-27
320
-453
-387
-235
82
-180
-229
-311
239
82
-285
-320
-4
-90
-428
88
308
-163
-297
-71
37
-189
-38
72
156
-69
