-21
43
-22
10
66
-17
5
54
-2
-13
-28
52
35
4
-14
16
43
-15
-18
-5
4
-65
-19
-32
-25
37
-20
16
-119
5
42
-8
42
7
3
29
2
18
-14
-27
-5
8
8
13
-5
-16
9
49
19
-78
-26
-29
30
-85
16
19
44
-91
1
-37
27
81
-85
-55
31
61
-38
-23
7
-3
-94
32
-5
8
12
-7
-13
43
7
23
9
-9
-3
23
24
-85
-19
21
1
38
1
-47
61
-35
52
-39
44
-29
-25
-56
12
13
3
5
59
-87
3
-24
-32
-51
-7
13
-61
-4
-37
22
-30
-1
-16
3
-31
33
-22
-3
85
-123
-5
25
-36
-18
4
-25
-17
-29
14
-12
21
47
-25
32
-22
28
24
-16
-19
-54
51
31
-40
104
3
61
-105
14
-22
-56
37
50
-2
-75
-1
5
-13
28
-8
80
20
-71
-40
-26
17
48
-53
45
25
4
-3
-9
8
-11
9
3
-11
-4
3
-4
-8
58
1
-19
11
3
-15
-55
104
54
-8
81
-8
1
-55
-1
71
-13
-6
8
10
-14
-10
16
7
-37
24
17
53
70
-75
-10
38
-37
21
31
-28
5
19
-6
25
30
4
17
28
0
12
3
-9
9
-34
46
-42
-25
-3
-29
-12
-2
-4
-10
-86
-41
-3
-91
-17
12
-3
37
18
-10
-74
22
10
-2
5
-38
17
63
-25
-21
4
19
36
12
-2
-15
-44
70
2
-23
-59
16
20
-23
32
4
-37
-53
-6
15
24
46
17
4
-21
-63
-75
-42
31
-62
24
48
26
-1
22
31
11
50
-6
-24
-53
27
-311
2
-8
7
10
34
-5
9
7
-33
-32
75
-35
-2
35
-57
15
-12
6
-15
-3
38
28
-96
12
36
11
0
-69
-64
-10
23
15
-23
-3
30
-15
42
-11
-1
26
26
-21
-28
-13
-49
8
-26
17
-6
20
24
32
-19
-11
6
26
41
-60
-19
-13
-62
-50
52
-37
37
3
14
9
-36
-44
29
20
-95
0
-23
5
16
-37
29
-65
-59
30
-30
30
-70
45
-13
-36
-76
7
2
-15
50
-18
-10
-3
-25
8
-37
-1
11
-8
42
-2
21
-51
24
-77
11
13
43
16
-45
12
13
-8
50
20
-15
-27
12
1
-56
-25
38
-43
21
-43
-39
-6
-76
-49
5
43
8
-15
13
10
32
-23
-82
-2
-7
66
8
3
24
24
0
-70
-26
-8
-130
-28
-11
42
25
-50
-31
-34
60
-17
-29
47
-22
-6
-58
-66
-5
-57
-47
49
-15
-72
-83
-2
-25
28
-10
-49
21
-27
9
-10
35
-20
-4
-3
19
23
25
26
-15
-25
29
1
23
1
0
-51
29
-6
-20
64
-23
-20
82
-29
-81
-36
-6
26
9
17
29
-64
3
-51
-3
20
17
42
1
-9
-19
14
-23
-33
15
-47
-54
-53
0
-14
-4
-26
19
20
-12
35
20
14
-20
33
-1
-5
14
7
-9
13
12
-24
44
-18
-10
7
7
14
4
29
38
3
13
26
46
-19
-4
-8
-97
7
19
-136
29
78
-62
-19
-11
58
0
-23
20
-23
-8
12
84
-19
-38
-5
37
12
-7
18
30
-26
40
24
14
-1
55
8
24
-6
3
3
-33
-99
-7
-38
11
-9
-28
48
47
-8
23
-25
74
44
-22
-26
20
61
4
25
67
-26
11
-13
32
24
22
13
8
6
-9
-1
20
25
-4
-5
37
20
55
23
65
-66
-23
18
-12
-7
-69
16
1
3
-16
8
-3
33
20
-30
14
-41
13
6
-21
25
-76
24
32
15
-25
-4
-29
60
17
-24
11
28
6
12
2
21
-37
13
31
6
44
-40
-25
-37
-19
17
-30
54
40
17
22
-42
-43
38
53
-24
73
6
72
-32
38
-9
-10
-1
3
-6
-20
13
-11
33
17
15
-24
22
20
22
45
17
9
80
-61
-3
41
18
32
0
-17
18
46
-42
37
-33
-53
72
2
28
-6
-11
60
-64
75
-97
-29
53
-5
8
42
-6
-28
-44
-18
17
13
