-282
-60
402
-954
1140
-373
363
559
-115
-426
-414
281
-262
368
-203
369
-115
29
-339
335
835
-568
355
1662
-170
782
521
-557
-886
1
-17
140
607
-631
254
-131
-991
514
645
-1099
-511
-348
330
426
-209
-801
-83
-402
-124
-55
-656
-450
791
-1304
245
279
217
-760
-134
-2
-351
484
-435
-439
-81
418
-391
-104
-88
-705
-793
251
-453
-549
327
-173
-449
419
66
196
-256
63
441
629
-206
-937
-6
-176
-187
171
-347
-944
2571
-276
400
-409
979
-453
-240
-330
72
311
-107
-206
205
30
-348
-489
-335
-115
-689
-38
-1217
-466
-102
81
127
-58
-715
378
-396
-609
-264
282
525
-1049
-283
905
-530
-127
-428
608
-639
-420
-339
-295
12
329
-568
-771
-445
-132
58
225
-34
-2040
-291
125
-358
972
422
701
-386
334
-40
241
411
778
198
-885
42
-617
-366
214
-71
247
672
-110
-1917
-678
-674
-246
-414
870
-101
941
20
595
686
-242
-41
-76
-518
494
353
-319
535
713
233
392
-27
-1243
884
-145
422
338
-90
809
122
-463
-897
174
565
325
-632
510
251
-575
223
390
-249
-389
27
774
293
-297
-828
-339
666
-492
-272
820
-191
252
-453
934
238
-863
107
-220
-12
-123
307
-42
-3
690
-65
-785
61
-827
48
449
-728
95
-18
-269
-469
250
-779
-920
-129
1756
166
-261
35
-270
-1583
-21
136
-331
-31
-562
74
29
-381
-476
-206
109
306
-196
39
-73
-477
425
-146
368
-566
-636
-691
-505
395
48
-445
-986
-985
414
524
783
118
-72
268
-584
-405
-168
399
-273
-33
1170
255
-102
-152
320
-612
367
1313
-165
-360
-262
-4562
27
-266
-385
467
125
-368
90
178
-81
-679
7
-1004
240
575
-1192
-535
422
-296
-756
-159
-401
-194
-247
321
267
-286
201
-280
-677
-158
-298
-165
-121
573
-184
125
-82
235
-420
-709
-963
-721
68
199
16
-72
-187
477
343
-57
260
94
272
-35
77
70
-344
-278
559
-469
-578
-332
-288
152
-184
-749
-28
90
-601
-799
286
-98
-5717
239
-867
314
-526
-1281
299
-348
-133
415
243
545
-446
142
-165
-707
-886
291
-431
-391
-720
634
-543
-259
-502
213
-457
575
-632
-464
-261
-23
-5
-648
202
-217
-115
336
148
-617
-725
175
-37
-887
742
163
-883
-957
480
311
-1025
-931
990
-817
435
-856
-175
-683
-205
210
188
647
-505
74
-154
-865
185
-330
-985
-68
-278
477
-641
375
142
-514
531
-398
-469
147
-998
-404
503
391
-483
-261
-443
149
-47
142
-495
-325
-206
-126
-309
-579
307
-812
-442
423
682
-684
2
-212
-4
386
359
-895
-138
-247
2
184
-76
-65
-304
188
108
-326
42
470
477
-198
-100
-122
161
-453
-221
-596
165
-596
-234
-133
-455
-419
1055
-269
-90
-981
338
-477
1231
412
-504
118
-112
87
-290
328
490
-36
-677
-270
-324
291
-445
-218
4
198
-1235
-39
49
-564
-6
-550
-1830
-914
-297
982
761
-140
-392
30
243
-128
-245
50
379
290
-233
-286
-719
-255
-232
-595
206
411
-508
-112
-378
45
143
164
-318
-678
-144
-765
-368
597
-321
-719
321
529
-749
-800
-257
1533
-328
-626
331
95
-124
400
345
256
-65
451
195
352
89
201
116
-440
219
552
708
467
295
375
1
41
-744
-429
290
-1180
-143
-350
-19
-406
-523
436
74
477
398
-165
430
921
-692
226
33
772
363
119
959
-60
-43
13
9
702
398
-235
629
366
-314
-205
-676
69
-66
-199
2
-270
641
525
414
-748
-49
55
-7
-244
-434
360
-112
226
-542
230
-497
545
568
370
397
153
174
-638
-76
272
-568
1209
803
573
-300
-62
-273
795
-21
-672
-148
538
-3
-594
-98
-263
116
358
23
-103
110
-747
-2
2
-510
226
-194
-226
57
390
-12
974
355
131
470
245
70
150
464
-26
738
-144
255
-164
-104
-320
-459
-310
-193
388
-140
-262
-278
-377
86
233
603
403
508
1027
60
13
514
-47
299
89
-163
-76
-56
-159
34
-360
-84
584
4
256
-517
-137
585
-855
-390
-466
304
-355
175
188
416
-58
-563
-840
146
-38
170
