-34
31
-16
5
32
-9
0
47
3
24
10
24
13
12
-51
7
72
-29
0
-21
-35
-45
-33
-41
-11
20
-37
44
-60
-16
28
1
1
20
-28
43
7
-8
-37
-4
-8
1
6
-8
2
-41
-14
59
9
-39
-36
-42
34
-19
2
33
-4
-78
-3
-53
2
42
-26
-55
7
34
-47
-24
19
5
-89
25
-7
-5
5
15
14
-5
-19
71
19
-19
-11
53
27
-95
-19
13
-17
49
-16
-39
3
-16
48
-44
81
-5
-3
-44
23
2
11
26
68
50
-16
10
-27
-87
-10
-18
-26
16
-19
44
-31
19
-23
-21
-13
125
-48
-18
83
-75
26
-1
-16
28
4
-50
8
-14
21
9
52
18
1
80
1
6
5
5
-42
-10
67
41
-37
73
-11
39
-80
1
-7
-69
30
17
-30
-14
18
-15
0
21
-23
76
17
-55
14
-15
28
61
-24
15
3
-53
4
-12
-6
-21
13
10
-31
-21
6
7
-15
31
-15
9
-16
-9
-25
-35
70
34
-11
58
-21
-5
-18
-19
16
-64
-17
-2
8
21
-5
26
41
-27
21
6
23
70
-103
-8
34
-44
41
15
-26
18
51
21
35
24
9
-17
23
-1
8
10
-8
-33
-11
55
-52
20
-20
-19
-16
-9
10
-45
-90
-46
18
-101
-12
10
-52
34
40
-3
-43
8
3
17
9
-34
15
73
11
23
-12
-10
49
20
-4
-2
-21
70
18
-54
-87
59
51
8
18
-14
-37
-97
-15
8
-16
21
9
30
-9
-48
-33
-37
34
-92
19
9
11
-5
9
44
56
26
-25
20
-44
47
-187
-8
-33
-4
-20
57
-23
58
-2
-20
-51
69
9
19
16
-75
24
-16
-27
5
-4
19
50
-136
-20
26
-30
15
-61
-49
-6
15
-37
-23
-41
58
-55
74
-6
4
80
27
-18
3
-26
32
19
-7
-15
2
30
-4
23
-29
27
9
30
17
-54
-8
-10
-87
-50
39
-10
67
14
15
10
-64
-16
23
21
-31
-11
-33
23
48
5
17
-42
-39
23
-30
19
-88
51
1
-26
-100
24
16
-19
63
-6
-9
11
-32
-17
-25
-48
-1
4
44
-12
25
-50
13
-40
29
30
27
38
-15
57
36
32
37
-29
2
-12
9
-16
-17
-13
-32
-60
7
-39
-6
8
-40
-59
-16
59
21
18
-10
17
34
16
-53
-25
-19
45
-9
9
36
16
3
-71
-24
-25
-89
-14
-28
37
27
-29
-75
-43
52
-28
-14
19
11
-18
-56
-72
-3
-26
-29
65
-10
-36
-89
-30
0
25
-4
-22
16
3
40
-22
53
-21
-13
26
33
32
18
11
-4
-17
-4
-3
26
6
0
-54
-3
-6
-15
29
-31
-35
25
-60
-67
10
-15
25
6
16
78
-48
-9
-37
-25
9
21
37
-1
-8
-50
-4
-40
-17
-19
-18
-62
-42
-28
0
-10
-31
22
33
22
18
33
13
28
28
-6
-6
-15
3
-7
11
16
-13
67
-1
-7
-6
7
24
35
10
-5
22
27
34
51
-6
-22
-8
-105
4
18
-143
65
54
-46
-23
-30
31
-18
-8
51
-12
0
5
71
23
-53
4
21
2
-28
15
20
0
9
30
-39
-17
88
14
38
-1
9
51
-74
-92
17
-24
21
-20
-53
88
98
-19
22
-30
48
41
-36
-9
15
38
-28
-6
56
-41
3
-24
25
-16
42
38
-30
28
-4
-6
38
15
4
-18
29
42
17
17
60
-39
-26
-11
-17
4
-22
-2
24
-58
-2
-10
-6
3
34
-28
-19
-57
3
5
-7
25
-74
-11
1
20
18
-15
-27
18
8
-18
8
5
13
6
-29
3
-53
-4
52
35
12
-37
-25
-29
-46
-14
-46
54
42
2
9
-7
-84
24
36
13
22
-13
69
-96
26
24
-48
1
50
0
9
-11
-35
34
-7
15
-38
55
23
8
55
42
20
73
-39
10
2
34
-1
10
-13
9
46
-28
16
-35
-65
54
-8
32
6
-18
24
-57
81
-73
-46
115
-10
-16
43
1
-15
-39
-39
-38
-2
