-414
-16
181
387
-432
325
-773
-363
-92
-189
-167
-423
561
-856
-499
72
585
309
-327
-1065
-511
247
-732
-518
242
-556
-716
111
157
-96
-129
-80
-654
243
-409
158
-80
-117
-327
618
-22
247
-128
-304
154
151
64
181
-210
-272
237
-212
-1019
1357
-274
22
-293
575
-29
95
77
-203
709
529
98
138
-230
-324
-132
15
-268
-216
392
227
-317
-620
-354
-249
-126
154
-240
-203
-362
83
-352
-442
46
-88
-352
-117
-300
169
-1699
-303
-97
-238
48
191
-203
48
25
-368
22
30
-406
-79
357
-83
-523
-252
170
-629
879
429
-407
-160
-487
-419
-36
-230
87
884
20
-342
-312
-51
13
-243
-345
147
66
-649
230
-335
124
261
557
178
469
951
-73
-142
-39
-212
-546
1715
67
184
-289
-328
-336
-455
79
-204
-162
-127
-609
-573
-302
-735
350
-486
-92
-174
-360
-320
127
291
522
164
-335
-451
-558
-553
-172
-1217
-118
-469
-509
-107
-21
104
-877
-677
-540
-190
-571
-1036
-272
-80
394
500
-1272
427
199
-168
38
-428
24
-317
-156
-860
-611
-620
-85
-480
-629
195
46
118
4
23
-563
-459
-232
656
22
50
-938
-465
-477
-688
-446
532
-335
-314
9
324
-92
-296
-368
-2
-374
-68
-317
-394
-387
-538
-331
381
122
-255
-295
-617
-29
-794
423
-240
288
-140
-640
-1022
129
-3
-101
158
531
137
-353
-181
-449
-90
-378
-299
-1071
-521
-130
-299
-164
-169
-381
65
-109
-51
-49
-422
-124
245
-117
157
-375
-236
-121
-248
83
437
-21
-297
-288
-206
-139
-799
256
-58
-125
-72
-40
-1228
-46
35
-255
274
-44
-419
-1003
-277
-561
190
-5424
114
-315
-249
131
140
-603
168
-327
224
-166
99
-189
-1
-358
-88
-394
-592
-260
-200
-120
-328
25
-411
316
-197
-159
-419
-104
-517
-147
-492
-321
-413
165
-460
236
-297
-182
348
358
212
-11
-242
-106
-704
35
261
213
275
154
8
-530
130
-68
-164
-18
-431
-52
-157
-183
-684
328
-160
-363
-373
20
-17
-36
28
34
-191
-295
591
-376
361
125
-50
216
-288
-187
233
-110
-142
-828
-697
-428
-389
-377
-127
-217
44
-494
246
-206
-69
-510
62
-345
94
-230
-184
330
13
-31
-93
147
-62
-298
-114
-328
-76
417
196
-395
187
102
-263
-335
2
-324
-17
-296
-44
-46
-204
-282
-335
-196
-162
173
58
-237
-199
-22
1140
-2
-360
297
52
129
-189
-10
-261
-734
183
-244
-60
-244
-229
174
164
-495
383
-436
-469
-616
581
326
-751
-487
-44
-322
57
62
3
-342
-526
441
31
187
-6
292
-403
-838
-199
-107
-232
-221
-496
262
87
149
376
-543
338
628
13
1032
-260
195
-144
46
-356
-208
-264
-298
11
-622
-37
332
-273
50
343
-854
-260
261
-535
71
-93
385
-80
178
-414
-260
-32
197
-232
-245
-151
-243
60
47
-9
-434
98
-19
-33
209
-541
-285
-579
-660
1003
82
-440
-210
-135
592
494
-477
-812
-272
78
-283
-324
-264
-87
-416
-494
-276
60
-248
448
478
119
-286
-239
-273
-131
256
-126
-331
-13
-94
446
-455
-141
-271
282
-99
-271
-297
245
-822
-418
-106
-438
-928
-232
192
52
-213
390
-401
-324
-533
-203
-304
-333
-254
-281
-310
-453
-8
-63
-233
-552
-646
-406
-263
-167
-219
-327
-194
-268
-795
-176
-477
-74
-386
-701
-216
85
-344
-206
-124
14
-156
45
-239
-34
-288
-191
-38
-155
-400
-104
-235
-290
-410
-431
63
26
-381
-194
298
31
-710
-165
-165
-432
120
-133
128
-390
1559
-288
132
34
-148
-420
-110
39
-388
-352
-330
293
-212
684
-304
43
526
-685
-150
31
-154
-521
-933
-504
24
471
-401
-158
-830
-119
-210
233
-419
215
-63
-247
-317
-776
-54
-24
96
-680
70
-54
-268
-88
-565
-303
665
-556
215
-378
-411
-609
-94
254
91
-503
236
-107
-41
-575
98
-173
-114
-355
-107
226
-475
-297
-576
-139
-12
-272
329
-305
33
-365
131
-284
-892
-333
-185
324
248
-246
77
99
-689
122
-356
-181
-159
-229
144
-405
-104
141
26
-828
-64
-376
525
-455
312
-501
-397
-175
53
170
-280
-432
23
120
