35
22
-119
-917
1158
-422
867
213
39
-412
-394
875
-268
410
67
326
-460
-114
-321
994
1009
-943
462
1243
-94
1082
526
-998
-1015
266
-201
131
991
-804
336
-52
-607
958
687
-1656
-337
-761
-64
456
34
-573
-432
-393
84
-452
-974
-214
940
-1626
164
-304
332
-1033
-10
-317
-236
200
-870
-613
102
435
-92
-267
65
-805
-1362
379
-371
-478
406
-252
-158
651
184
238
-44
49
313
566
19
-327
-354
237
3
365
-135
-648
2964
-323
264
-348
468
-592
-301
-296
267
459
90
-532
57
-845
-459
-430
-34
125
-428
28
-1237
-641
-341
54
-132
51
-459
504
-398
-1218
-342
201
294
-807
-311
363
-187
-317
-15
180
-453
-389
-39
-471
-181
404
-902
-806
-468
38
12
-45
207
-2499
46
127
-423
1648
-37
692
-1183
69
272
-75
433
894
407
-414
176
-355
-500
291
-475
330
519
-399
-2856
-449
-563
32
-191
1597
184
871
181
396
186
441
-77
162
-486
604
336
-288
881
638
562
-145
-164
-1033
710
-102
474
398
-333
767
-88
-449
-1025
129
290
524
-542
524
271
6
315
-21
-153
-615
289
540
411
-373
-190
-298
275
-876
-258
420
-154
224
-353
1493
521
-274
332
-121
332
-302
174
-241
127
508
-422
-41
-29
-978
-189
244
-305
-54
132
-201
-1059
236
-922
-2065
20
941
-315
-415
-32
-363
-893
43
149
-151
-10
-386
344
8
-163
-332
110
237
191
-42
157
-159
-366
-191
-345
542
-611
-579
-638
-590
522
142
99
-408
-745
21
755
955
564
-162
244
-356
-637
-78
550
-491
-274
1076
329
-150
-139
271
-525
232
1454
-188
-1106
-405
-5302
42
51
-228
-42
-67
-77
142
95
272
-294
835
-755
250
668
-944
-219
406
-238
-530
-157
127
-308
-172
219
715
-194
102
-575
-546
-49
307
-3
53
216
-173
-155
962
-86
-876
-421
-1248
-463
421
-37
719
64
-325
109
-22
-349
395
142
-13
-208
309
-60
-573
-341
431
-555
-112
-491
-88
262
-302
-577
45
21
-38
-434
227
-370
-4476
398
-1174
145
-318
-1003
412
-275
-625
-48
-163
489
-27
260
-160
-754
-723
210
-461
-62
-470
77
-531
-602
-917
373
-300
812
-267
-293
-620
129
304
-467
98
-108
22
-87
-226
-264
-1428
157
-462
-777
568
229
-609
-778
537
200
-917
-1092
666
-280
446
-834
-223
-641
-776
294
-210
432
-328
-26
88
-942
363
-380
-1295
-61
59
671
-817
236
-199
-69
398
-192
-325
133
-1017
-304
672
706
-279
-441
173
135
14
5
-990
-49
-432
-592
-333
-647
179
-856
-259
195
509
-721
-84
182
24
335
592
-1052
-216
-163
60
273
-156
-404
-404
-603
76
-197
565
243
122
-347
95
-280
-44
-735
-109
-460
-140
-457
-315
164
-305
-478
1043
-378
-400
-1334
-120
-571
868
238
-771
-616
-126
145
-69
282
365
-284
-243
-11
-278
24
-351
-244
26
50
-1024
-53
-354
-709
216
-563
-3008
-689
-389
830
319
-357
-243
636
209
148
-401
96
193
384
-290
-694
-1047
-539
-23
-308
5
470
-234
-73
-29
-32
-7
153
374
-603
-251
-562
-645
648
-234
-656
-26
516
-273
11
31
1659
-207
-234
-77
186
-59
396
101
834
-54
-102
-25
384
-135
-112
200
-739
174
212
762
152
749
-23
-215
-39
-573
-384
11
-527
-153
-147
-51
-331
-31
319
-274
359
213
-401
951
1044
-751
508
446
736
957
191
584
132
298
-49
161
150
754
-710
644
479
21
-198
-450
597
-475
-362
174
27
711
339
539
-667
-407
246
62
-264
-108
238
-107
357
-729
298
-348
342
153
75
332
239
5
-486
-410
220
-573
1098
788
922
-456
11
-533
1064
-364
-503
-215
549
-404
-579
-49
-174
179
481
267
-508
332
-676
-390
17
-372
371
48
-551
18
341
9
429
317
256
628
-667
457
637
508
-84
457
14
502
148
-325
-392
-815
-152
-188
435
-64
-300
-103
-324
-15
-280
434
677
576
1156
-182
455
248
-144
92
295
-45
220
-324
-22
767
-394
-307
289
49
136
-600
-452
614
-898
-134
-1195
465
-467
288
88
778
193
-1049
-409
-51
147
34
