-608352
-63301
885862
353439
-90025
-22423
427199
144388
633985
-1583069
393322
-329807
1099285
-858657
1135073
-255297
-66138
-5101
211446
-492726
728363
-231856
761055
67096
125269
-678619
-175424
1108647
1139864
720826
-461469
-6609
-1354316
-73853
691715
-994885
-153245
-440258
-89832
-132416
-1088050
39761
1175115
-373175
46218
-244936
-164305
77516
-924717
-838163
-669619
-587845
94824
15323
41927
66539
-124609
-37682
26281
-263991
-232059
58275
375910
-799786
-605115
-1256077
-72072
82533
122008
64015
364306
-62610
416359
-813918
-833224
68816
-158687
313859
-91254
-1256574
-504904
-916576
150191
1022199
-1144728
-340635
-138712
-19998
-1444910
110933
200324
31819
-716823
127707
762877
-124907
10236
477077
40070
-89453
-142418
-46471
125858
-33745
52172
-160215
-214396
-270012
-699641
158276
149690
-90685
-29433
-882933
89425
8930
-1407217
-354748
-1450007
603275
88432
-235678
1140018
594058
60290
-61314
679887
-183720
149936
66212
505089
-13377
-1183939
-1283003
192469
1084795
43111
1179882
-61934
947436
671713
297863
-508048
-221265
52980
267347
-512851
154584
-124578
-309312
-37851
-91361
801588
-1009992
-139455
1004340
375067
1125137
1058271
-76610
-243277
706202
152328
47701
449587
-195
-1044854
84153
-588527
293522
54747
-83854
806617
-1257160
-75627
279425
1383111
818643
64246
-448793
-165010
-407422
-1172931
1248367
110325
42483
117480
-251202
-782241
-809281
381871
164448
-790647
-79713
-140957
-40054
48108
553482
88171
-188552
-84846
1151731
461010
559646
-261218
227509
-802015
-524282
-21887
112447
44833
1431720
207143
35330
-840950
-1376708
-18333
-927250
-128439
-418355
154167
94219
-783639
52741
-728525
-781041
-21814
-138941
31397
-116733
280733
-617973
-462205
441836
1117393
537399
-890585
630696
-72845
516292
-185838
979038
-215682
86161
-1041493
726977
-632505
896725
10433
-1286546
-1110333
247551
-28760
1141547
-153153
532320
-418240
-1156988
-156441
484033
-1366339
-540250
-37506
-234161
-35454
-176161
-1162652
601689
-41848
760086
-136069
-431869
225376
-1135588
-16336
95637
866218
-151495
-999941
26639
436748
174826
910869
683510
227443
1188104
863045
571911
187873
-299618
1697562
540819
-183394
-1062719
-206725
594539
-264824
-194375
5296
-1003762
-715043
1084037
635214
-195264
718681
1103732
-373254
-469653
-133590
997940
-213884
330121
31734
-13625
751635
-549316
457120
514951
-148727
67345
-300965
-1025700
131042
-130375
-401890
-1096648
-44103
-447474
87398
33229
42370
-632152
-4899
-874457
149463
239962
-436508
-386088
215254
-480494
869117
-1128673
1047733
-50299
-625859
415249
-54642
-893955
78801
64807
-13362
244599
-71529
-1225336
-311732
-308093
74056
-81149
1328128
-4278
560981
159733
1329433
-1264644
-559453
-788219
-1194149
1122781
1110399
52861
-715541
-21246
999394
-163360
-876391
60959
434369
-152403
994907
-419468
-169376
-123145
92219
275609
-419984
104255
-240023
-47490
-91710
-300545
-1205571
-133381
206545
354392
-215031
651305
-127367
-210824
26218
125175
-244794
-579389
-390378
-525544
-1252069
553120
14279
-50120
27679
-60594
36564
-285358
-833996
63727
210267
-856710
1237882
-54113
124975
512087
865682
-231048
-50976
-73027
-1005479
77166
-1063801
1157087
-634244
134625
95768
-153851
159133
-181027
343013
-137184
507740
287648
-469606
-246472
51263
1011667
-57328
-23528
-1053411
-914664
-317436
-749017
-1230630
664688
350915
144254
144870
-102550
-182078
-433048
-73377
-1063281
837410
-315882
179013
-69699
93286
-1088072
1209084
179476
18274
128038
-490660
266618
-461283
502673
-94856
244330
-177715
-841469
681580
334266
73941
135885
-787364
31352
1165353
773595
-278101
-171240
253717
-96784
-1230448
894367
235096
1921
-12082
98201
719804
-18793
-31668
-427488
11731
-27427
-147123
212613
7700
-18063
-1241378
386165
-628552
177389
1005440
-857870
226742
-138872
-2211
343369
-127074
-126437
35302
120426
1078660
-220730
-1251597
-579141
-14764
-1053870
-386704
-28224
99378
-34416
-110281
382239
-88750
-1082218
-39191
-24249
1235756
15584
-195329
-899843
-641604
-76062
736787
-1005764
1184075
-1085180
11505
191406
108522
-627791
-7838
-353218
-6266
23355
277368
-1013111
-30085
-107590
101129
-45642
-12055
725904
26727
-234082
-58087
-44352
26568
188163
-216501
7894
31391
-31162
-801718
-58826
3992
66398
487685
-200001
-283410
-1102911
-122696
946300
286515
-171961
-855273
788762
1001610
462925
-59810
473384
-728542
46577
-29604
-5469
297616
647918
-198728
64694
18170
-236403
-531588
-9758
-66660
217468
-545627
-1094732
75015
-140033
-793154
250276
-32910
-120577
498849
999747
514914
-179529
212702
-148543
-232594
85118
-766525
1457655
257894
610698
29093
23777
1071717
68451
450494
64020
269981
134194
-941541
222488
-1119340
-16750
-910278
123003
95419
1047474
-29918
918789
726369
-103357
330587
862025
18492
-1047947
-1312856
-1348302
112364
-51969
-16578
225251
105680
72495
168343
-350490
1007122
94163
-1133851
1320151
-273432
91484
193690
-1317322
-701409
11659
17857
496559
294960
856171
-30775
-139331
-181099
466917
-328126
-1465617
79639
761393
-532152
1238991
-701054
-64196
986232
376624
540051
612289
381622
-22965
505769
951000
685859
1284142
837535
425813
479013
75953
245325
-1095837
-36924
119821
569570
-18278
-6300
-613186
413590
-19868
231633
-188508
112508
-178776
-184667
-509589
-45730
233306
176941
980278
-124810
-77816
-67797
100548
1213630
-980424
291313
-80030
1118119
-240981
-184559
318340
-688983
-31594
-79670
-586423
645480
-172473
-47649
-261442
337258
33062
-24540
972117
933110
-109367
69680
135074
-45104
-322949
-6463
489720
-853097
516402
-730957
355638
-928547
8850
-39504
-291543
-196714
154278
69043
360381
-517207
784828
-177962
940747
295651
250624
-315933
851181
