-26
101
11
14
23
20
-28
29
9
44
-5
19
20
-55
-64
35
119
-27
-25
-21
-32
-50
-8
-31
9
8
-77
45
-58
-24
25
-11
20
-3
1
62
8
31
-25
10
-14
22
-5
-17
14
-26
16
57
30
-58
-40
-11
49
73
2
-17
-18
-17
22
-86
-28
25
-127
-62
-5
31
-55
-13
-2
55
-71
23
-16
-12
37
0
10
56
45
44
25
-25
-6
47
26
-69
-6
22
-25
27
-20
-23
-127
-38
42
32
86
5
19
-16
-8
4
4
-4
41
82
-14
9
-40
-63
14
-63
8
35
-50
26
-35
22
-23
-6
-26
173
-39
13
36
-25
21
16
-3
65
9
-45
65
-10
23
16
35
-37
3
167
-5
34
39
23
-32
-98
37
75
-18
40
-13
26
-31
40
-5
-40
15
13
29
49
48
-17
10
36
-8
49
48
-39
136
26
9
18
-14
13
13
77
-1
-44
-31
-33
22
11
-36
8
-25
32
-4
8
-10
-29
-15
24
-33
4
25
22
-11
-7
-41
4
10
-22
13
-18
24
-43
-14
34
14
42
69
-9
0
-22
-9
-26
-94
-9
-18
-30
-12
-2
-27
-10
62
-81
10
80
-21
-24
20
-28
41
26
10
3
-4
-6
-14
82
-10
-19
9
11
-9
-229
-66
-4
41
-92
1
22
-30
32
19
15
-7
38
-10
-12
-9
-38
47
2
-33
23
-23
13
27
7
14
-25
12
54
-12
-50
-27
23
16
19
-33
-12
-26
-136
2
39
1
-18
2
17
-15
-28
-26
2
49
-33
-56
-20
-4
-4
27
48
65
8
-36
39
-47
3
33
17
-49
67
-15
48
-43
25
-2
3
-30
78
23
29
24
-73
2
-42
-23
-19
-27
-6
33
-270
20
48
-24
-3
-4
-40
7
7
-86
-24
-34
35
-24
121
-13
11
96
-3
43
11
-21
-131
3
45
3
-5
-3
-36
20
-4
-41
-10
12
-17
-48
-18
2
-54
-20
68
-20
42
2
40
4
-45
-22
0
9
19
0
-30
40
29
-43
27
-48
-4
-19
-29
-6
-91
22
-7
-25
-41
55
46
-29
67
-36
-36
-31
-33
-6
-25
-25
-52
-4
34
28
45
-12
-6
13
55
20
58
12
-64
15
31
48
25
-41
-16
0
10
19
11
-36
-66
-25
5
-42
-12
-14
-8
-12
-10
39
39
22
16
1
45
14
-64
-34
1
13
4
9
25
-11
-16
-14
-5
-13
22
-53
-13
-8
19
-13
-72
-50
60
-7
-5
10
9
-24
-40
-47
-1
-15
-15
19
-30
-204
-75
-51
3
29
-13
-61
24
0
10
-30
59
1
-52
-57
-14
25
42
-19
15
-7
-8
48
-18
1
-5
-67
-9
9
-2
6
4
-40
6
-67
44
11
-10
39
-28
12
52
-28
24
-26
-22
2
77
25
-27
-1
-45
-16
-19
14
16
-8
-56
-11
24
8
41
-35
-72
15
0
3
-7
-26
-10
-5
4
-4
-6
-41
4
-17
7
-8
12
1
16
-16
-7
5
-5
-5
18
65
52
15
15
4
11
5
-109
18
31
-89
50
30
-76
13
-51
-2
28
8
93
-2
18
-29
25
-2
-51
6
10
18
-31
1
28
21
49
1
8
-38
131
12
26
14
49
49
-59
-170
28
9
3
-49
-52
21
39
-37
-3
-45
65
52
-28
24
37
18
-66
-25
29
-53
-9
-31
44
-67
48
-4
-46
36
-75
33
20
-13
-49
-1
23
60
36
49
39
61
-66
-47
-25
32
-40
-6
20
-28
19
-4
6
9
-1
0
-22
-113
0
1
-51
29
-72
-5
14
8
3
-34
-18
-4
8
33
-4
-22
21
-10
-41
0
-44
29
33
63
0
-30
-4
-95
-103
11
-52
-7
31
0
-36
-5
-80
19
27
62
22
-33
36
-71
17
41
-29
28
7
-25
2
-26
-37
24
-5
20
-59
50
-13
-2
14
38
51
15
-22
18
10
25
-32
32
11
5
37
-13
22
-30
-99
35
-17
49
-29
-44
34
-37
31
-34
-15
107
-57
8
70
6
-22
-28
17
-5
-5
