-32
-245
-231
-46
-112
196
-150
-132
-88
-184
-210
-37
254
-168
88
-108
84
-157
57
-311
-229
249
-250
-82
134
-235
-324
-47
180
-183
1
92
-34
-20
-240
137
69
52
-248
46
-55
144
247
-187
180
-156
33
-21
8
51
226
-73
-116
308
-50
-143
-217
234
-4
-86
11
-181
273
-64
-113
11
-8
43
-205
291
11
-67
-8
261
-167
82
11
-184
-194
-306
104
8
-33
113
-222
-38
79
-215
9
32
-156
-34
-441
-59
-195
413
-230
45
212
47
-15
-75
-77
-70
45
511
123
58
262
-117
-299
135
105
51
-39
-25
96
11
23
-345
-27
565
192
-248
-312
240
188
-284
40
124
44
-166
-279
-152
-3
54
-98
-162
26
102
70
-1
-194
-1
-226
540
61
-46
124
-219
-15
-42
220
-34
32
165
-78
-77
43
167
-104
36
-91
66
101
-257
-139
-113
637
181
-9
-110
386
-280
-39
159
-21
19
205
-33
-51
-55
87
-263
-48
131
-36
-117
-185
77
87
306
-262
177
-156
-199
-52
-373
-48
193
25
-209
-66
12
5
13
105
-240
-22
-225
-146
228
20
-482
-176
139
97
169
-501
65
-137
-155
-69
-91
28
-423
-75
215
-115
-6
-181
-117
-187
-28
-71
-34
20
209
-66
413
-150
-167
230
35
-20
172
-35
133
283
355
142
-444
-135
-31
-350
294
136
157
75
-35
222
48
28
58
-432
158
-67
-217
5
-72
-195
108
208
12
-19
-118
110
250
110
157
-103
-146
-84
94
100
-155
-123
-101
-41
-29
-284
-298
308
177
-65
-170
-15
-52
-80
-21
-10
247
75
-176
-389
113
142
-6
3372
28
18
-261
87
40
-109
41
-174
-180
183
-824
-133
-255
-219
154
3
-212
-252
152
-91
-28
104
-614
-44
-243
214
21
-58
50
-66
61
-123
-149
-347
-35
-123
43
13
188
-32
57
258
27
-55
-121
2
181
35
-64
104
-215
-39
-69
14
-265
17
5
-26
-187
-26
-353
220
168
-55
77
-92
-11
-81
198
193
-19
78
436
-67
248
-98
146
259
-116
10
20
-135
-165
-18
-204
-151
9
238
163
-131
145
196
-213
-6
-36
131
198
17
6
-22
123
9
184
74
102
112
-142
65
190
130
-185
80
463
-83
165
88
-122
54
-124
269
-279
85
126
100
-326
-118
24
163
396
-20
-42
65
-65
-259
98
-9
18
127
69
298
187
-38
169
-126
115
-59
-52
79
32
29
58
23
622
8
-114
207
-329
-61
51
-109
143
9
-263
89
121
140
256
-23
32
315
109
-27
-108
163
11
190
-202
-209
-139
338
-6
48
85
-103
10
89
-22
-324
62
60
-128
-19
-18
-18
-14
111
-138
-3
73
178
-169
-8
-72
120
-69
253
-329
152
-85
121
248
-23
-122
-35
80
7
21
-55
-110
-73
-174
49
82
-41
-160
12
81
20
-120
-70
158
-33
-35
144
38
-90
326
211
-76
-303
-12
102
177
3
53
134
42
-128
-135
-78
-83
13
91
252
178
40
-25
-117
266
-48
75
25
32
-113
16
165
-162
62
79
-99
241
240
-67
-91
92
250
74
-272
-74
175
152
-85
28
-37
61
51
300
-98
143
5
-167
-99
48
55
143
22
-246
-39
253
-98
130
-158
492
40
102
283
102
233
-73
84
-90
-55
-30
178
34
214
-90
-146
172
-78
-98
-412
-69
78
-382
-56
-150
-128
-41
-350
56
55
-241
13
-185
243
-27
-76
18
252
-32
-16
-75
-50
107
234
19
-27
-50
28
105
-241
43
-124
156
-170
65
-84
-37
-138
0
-455
-47
128
31
-1
58
-344
-174
-61
-49
-71
90
-324
-57
140
38
-160
3
14
69
62
-77
-169
39
180
-140
204
-243
296
-65
-43
21
106
-222
-28
-128
-62
18
2
-44
457
-172
-72
186
57
-76
-82
37
22
-220
286
-78
-19
76
131
117
71
113
251
-171
-28
21
-217
-89
-155
243
-118
84
111
56
33
-119
-2
51
-101
-241
-75
-193
-43
5
55
141
119
-107
228
-317
297
-40
117
-177
7
14
32
80
156
-155
-49
-112
