-124
53
-194
-119
319
208
50
-86
-447
-479
-355
111
-471
68
-127
151
230
193
-35
-322
-101
-138
279
131
139
-120
36
-240
-423
-58
255
-304
0
-128
-556
-298
-209
-67
-218
-415
-575
-254
-295
-61
-336
-194
-589
148
-330
-151
-426
289
135
261
113
-70
-573
-71
-275
-320
-33
165
444
-183
51
238
64
71
-449
-504
-438
-401
-253
-131
-290
-504
-102
-79
65
384
-292
-98
-140
-92
-176
-350
-375
387
-249
290
-410
63
53
438
30
-551
483
-305
-164
-55
-384
-321
19
-186
-550
-398
-294
-369
-225
-48
-405
39
-274
-306
-667
375
275
-464
-378
-69
209
247
-107
1363
-57
-189
6
214
-440
-451
-102
481
-10
-412
-272
-609
-240
-441
-11
-147
-213
-404
-337
-269
-245
-159
-137
-422
-95
-253
-237
4
-627
-663
-259
220
277
-173
-378
-124
123
-280
-260
-432
148
102
327
261
-441
267
-291
-363
236
-294
-347
-279
272
104
285
-64
-2539
174
-418
61
-215
-121
513
-76
-61
-290
-615
-472
-84
-185
152
-21
-458
24
-198
170
-530
-435
235
-310
-538
136
158
-189
-138
12
-172
-179
293
-197
149
97
-229
-99
7
-299
139
-161
-228
-40
-189
-547
-23
-266
306
-148
-311
14
-186
-221
-129
-283
-69
-387
231
-408
-10
221
-66
502
-329
-256
-129
32
-478
-575
-230
-526
-165
-163
-252
-336
-59
-92
43
311
-268
-74
-57
-251
-508
-691
-104
-394
31
-142
-27
229
-369
162
-462
-204
21
-36
-249
-96
-75
340
-401
-357
-460
-631
241
-580
-28
-5
-297
165
-324
159
-6
210
15
-59
0
-206
-230
-33
-279
98
-469
-101
-69
-603
-9241
148
-76
-434
-41
-313
90
-517
-241
150
63
-279
-208
168
-26
-381
-92
-177
61
92
-251
-668
-552
290
-88
203
-307
-215
-413
-287
-169
-415
-58
-88
-329
-368
-7
-75
-512
-455
-422
-289
-208
-56
663
-403
-295
-472
17
224
-80
-6
283
-315
225
-196
-34
-68
-497
123
23
-356
-495
-517
-126
-597
-547
-408
446
215
-256
294
-335
-1142
-54
-520
125
-198
55
-8
-441
-378
-153
191
-41
-320
-196
113
-172
-363
53
-291
-163
-409
169
117
-278
-183
34
-9
165
-608
-340
-284
-276
-165
-369
230
228
-227
88
-96
-24
-313
269
-394
169
300
38
118
-61
279
-423
-8
-414
-50
-333
-257
260
32
-240
-435
-92
226
71
-203
-576
-804
-409
-400
-331
148
136
-61
530
42
103
55
-373
0
-107
-245
-18
-197
-362
240
346
17
-246
-286
128
-432
-351
-174
-27
482
-348
-279
-53
542
-170
-390
-353
-41
30
100
-498
-448
-130
-32
-280
-434
-379
-38
597
-496
-358
-492
-476
-148
156
-40
-100
-300
-346
-585
-214
69
-330
52
-114
-78
-540
164
299
-834
133
-164
-306
265
-453
-274
-304
97
-49
-77
-58
-262
600
-532
-167
-468
-84
-470
-123
197
-256
-315
5
-584
-150
-507
169
336
-368
-324
-330
-400
-348
-55
85
209
-64
-484
-322
100
121
-358
-348
407
-192
-662
-535
-178
240
50
-527
-255
-351
-126
-6
-308
-434
-33
191
-132
-185
-213
341
-295
89
-147
-474
-119
-89
97
-233
-134
447
-564
-409
-52
-377
-140
53
-835
-49
134
-447
-102
-79
-58
-79
-247
-91
-216
287
158
-485
164
-353
243
452
-11
-100
228
-199
-574
-506
26
58
-480
81
-45
-339
-246
41
-523
19
-266
24
-208
354
127
-118
45
-30
144
-153
426
212
48
-150
222
-728
-386
139
-435
-144
80
236
-71
-371
393
-303
-106
-106
-183
124
-128
110
-123
-124
-370
21
-246
194
-107
-425
-203
-240
63
490
-220
-334
-197
20
-179
-177
-36
253
245
-412
-269
-31
-262
-103
-85
-252
-98
-141
-307
-549
-689
-548
-153
91
-412
-335
-325
206
-603
246
-52
-454
-411
269
58
181
82
191
257
-277
128
-134
363
-205
-418
-669
61
-183
-270
-2120
58
-312
-36
104
-189
-55
-689
30
-136
-9
31
-341
388
127
-208
-499
89
-345
-290
-365
-173
-519
-612
325
23
-348
-254
-234
-39
-253
-384
-246
-218
-220
-474
-760
-85
-189
87
389
-482
-15
-530
-176
-173
227
102
