1058
-126
-1137
-1594
1513
-1904
2124
804
35
6
232
986
-2112
2541
581
-691
-1727
-1712
375
2486
1236
-2070
1449
1156
-1561
1075
1430
-926
-954
208
-559
-55
1538
-964
488
-1003
-690
431
876
-1859
-515
-1449
-377
586
-345
-664
-919
-905
775
56
-1733
646
2344
-4396
833
-1103
148
-1881
49
-1149
-279
522
-3092
-2344
-886
-320
330
120
245
-818
422
166
-2413
-1182
659
1323
464
418
331
-390
173
66
606
-128
972
596
-834
217
407
452
-58
-345
3416
129
405
235
726
-795
-98
-434
-341
964
-130
-339
407
877
-1716
-302
1317
-414
-353
1321
-3277
-1589
360
406
598
650
-330
375
-808
-8943
-780
478
293
-143
-392
370
688
-393
-242
1317
-527
483
-830
-1352
-1537
-1016
-1553
-3048
-408
162
-667
757
860
-9506
-546
-1029
400
829
630
879
-686
288
270
233
1564
1315
939
1717
-519
684
138
228
366
311
-6
-1213
-6986
-561
-67
1014
1212
2048
715
2118
-115
710
804
189
-528
-643
1390
1820
1491
157
1888
2292
235
-83
-1274
-1745
2453
-1005
-813
236
-350
715
-951
513
-386
1924
1004
1529
76
724
2003
-527
-270
-529
239
-931
1157
814
175
-1741
-914
-396
2996
678
480
1704
974
-1439
472
515
-406
-770
-81
378
873
-317
976
-405
604
1069
847
806
355
-1035
-1106
209
162
1295
-48
1008
-1967
160
-634
-407
1289
1922
-419
-176
34
-334
-1195
-943
629
82
1057
-215
1331
450
2506
1267
-236
612
274
95
498
-292
-26
-392
-1016
656
-94
-1009
-182
-619
302
477
96
143
-681
-1582
53
586
576
290
-1
1756
-1109
56
197
-425
-1510
2990
-575
-808
-49
-1050
-21
704
1858
1178
341
-1139
-17221
-1041
381
1736
-577
-1310
1188
-821
331
-439
331
507
-160
-73
435
-137
387
1355
535
-166
-340
580
-657
-545
-950
779
-263
470
313
330
-63
1578
-62
886
-841
780
-1292
1704
-161
-1490
-1329
-1697
-399
1266
-467
1191
-692
-1555
-1144
-728
-748
-197
1278
-661
-113
61
-357
248
-165
-100
-437
790
-1476
-23
600
552
-1358
-476
-206
-350
-332
-109
108
-3106
1069
-1804
-319
-347
-1009
750
115
-1226
-436
-203
1550
951
368
39
30
-11
232
-643
627
-669
43
-691
743
-1128
1111
-666
320
-70
-1479
-994
16
91
-704
-33
495
429
608
-315
-1008
-667
935
-1038
-431
539
231
-219
-341
-1173
989
-330
-472
-256
595
713
-216
-393
-503
-986
557
326
-95
-4142
-393
654
-1865
10
-377
-171
-504
559
2042
-923
354
-133
185
443
-812
-1012
691
-595
252
1521
1162
-2020
-1455
1115
1056
148
798
-742
-657
-360
426
1058
-1259
-287
-575
-480
-1001
873
909
200
-115
555
-12
1327
-1059
-534
-496
-1494
1272
-1206
-2267
-834
-4275
490
-882
-254
-586
406
48
357
504
-919
920
-44
-1190
122
-435
-1030
2200
8
-1165
927
-629
-38
-1441
-303
-745
977
659
19
-1293
233
257
164
258
79
-179
-537
709
-459
-354
-941
-1113
973
798
-540
1380
-8360
-518
1020
156
-2366
-1673
-1950
874
1631
64
-530
482
774
569
-216
753
1157
264
-490
-382
-1758
-1267
-978
572
411
221
-282
-291
-220
1076
-211
108
-1283
655
203
8
-1765
390
77
-382
-1132
1632
442
328
709
2333
-203
-817
-707
118
-1303
735
-113
1031
-141
577
253
444
386
143
856
-904
56
175
1439
968
1498
309
169
-61
591
165
285
1113
42
1163
-474
669
1377
375
-657
280
158
-19
-150
661
-1236
176
-98
392
150
-532
284
924
-272
739
347
355
1392
-1040
-127
623
5
-653
-203
1313
-422
71
1161
-715
105
-453
620
-8952
326
-1129
-800
141
436
97
-818
357
-8
374
-1199
113
-2135
332
-317
-2119
1253
-19
-718
-71
510
2407
1074
114
-1416
476
-250
2206
-167
-238
-1016
645
-1468
-881
470
305
1774
234
145
-1244
1641
-638
-609
-72
-477
1058
-11
-2674
672
-1128
425
1553
867
102
-745
-89
1126
-343
304
-609
1185
-391
575
-211
831
-169
-925
538
285
902
73
16
371
-1388
60
-578
964
-486
747
1552
462
602
-777
-1366
462
-520
-179
1447
-839
855
400
-241
171
-288
370
145
-1074
-562
1906
-313
1135
-2938
965
-782
591
810
341
-315
-1097
280
674
-368
-509
