-444
-174
101
-253
591
97
36
581
-443
-99
31
174
-521
286
-288
554
218
-24
-65
-136
297
-99
-10
226
-348
281
133
-253
-321
126
525
158
-188
-264
-300
-342
-72
243
-401
-550
-422
-616
60
555
220
-350
-162
-388
-60
-320
-1400
140
-297
-290
586
263
-452
77
-188
-525
-3
133
-185
-492
188
351
133
389
-1041
-206
-594
205
88
-289
59
-673
-340
267
72
144
-39
179
-260
426
-136
-449
-36
54
147
954
-590
-197
-125
-219
-103
-450
599
-379
-80
-379
68
-395
19
-68
-364
134
-136
-320
-57
-176
-238
298
73
-383
-176
-177
44
-306
-463
-24
28
-225
307
3138
-483
-319
-477
157
-313
16
236
260
127
-259
-329
-261
-214
-28
-283
-63
-293
19
7
571
-92
-7
23
-1061
-332
-210
-19
133
-587
-624
-333
65
248
423
239
-195
103
-412
-254
-164
740
-66
-216
105
-514
25
-43
-192
747
12
285
-251
120
61
235
721
-1922
438
-71
59
-96
-50
726
-76
144
203
-421
239
250
-203
-70
214
-490
-172
34
252
-29
137
283
-283
-507
1485
-9
179
-57
133
-295
-56
141
555
-1
-460
-273
-84
293
-156
-5
177
-23
375
32
748
27
-690
153
-456
-150
-273
417
-319
-141
-265
-222
12
-104
-504
385
-147
48
662
-304
-178
-88
-42
-341
-473
-584
-50
-470
-49
-229
-561
83
-443
151
107
628
-69
-22
269
-188
-58
-60
-78
77
110
160
61
-212
653
-462
-365
70
-196
-347
-548
533
769
-258
-427
-967
-380
212
88
81
-182
42
372
-131
-217
501
37
-351
-348
-31
74
-671
-44
-131
161
-253
87
134
-219
-5535
181
-544
-406
698
-39
-239
-225
-210
5
-59
-381
27
752
-2
-823
142
-743
-115
1409
-247
-337
-154
72
6
543
153
-106
-580
-71
-88
-44
84
768
-320
147
-185
-646
-101
-391
-15
-985
11
51
887
99
-237
-139
-380
227
79
-21
44
-685
553
-26
312
402
-723
-171
-466
-459
-1108
91
160
-487
-1373
-28
-204
-453
-243
327
-55
-7732
-141
-402
516
27
-161
-3
-301
-583
28
-112
72
-448
-276
-8
-418
-650
54
-81
210
-151
187
-112
-192
176
-74
-190
153
-143
87
-180
179
-61
-249
76
445
202
295
-14
-13
105
-6
-506
348
173
123
-606
-198
-222
-314
-563
52
45
-556
-53
-32
351
-262
-566
484
419
149
-194
-157
-1933
-337
39
-11
-344
176
-16
658
-14
360
150
-150
171
-747
-683
95
-261
161
579
1004
-115
293
-601
340
-447
-231
-379
-232
221
-244
-549
61
122
-778
113
-72
-177
-316
204
-261
-387
-475
702
-277
-401
-219
97
290
-149
-120
-427
-178
-171
-63
259
57
-288
-386
-681
66
-165
-589
268
-190
-283
-64
114
109
-593
-19
509
-699
-266
-631
-357
-506
274
-308
-19
-316
-395
1032
-354
-86
-288
217
-76
-381
69
355
-196
-55
15
-132
-1300
95
79
-158
-357
-442
-796
232
255
343
123
-238
-410
257
456
183
-242
-119
429
-8
-545
-200
-261
515
-287
-563
116
-326
348
-149
239
-653
335
561
-299
-74
-151
-143
-773
285
-329
-245
1
-324
318
-174
-188
298
-435
-835
49
-210
-183
56
-1045
-232
153
-301
-110
500
201
56
-54
-285
394
502
236
3
-178
-467
19
398
-339
108
119
179
-702
-431
-180
98
-733
998
427
-178
-114
205
-165
259
-396
-24
299
367
37
196
589
-222
152
268
873
235
156
-216
181
-411
-574
480
-636
158
758
183
25
478
110
328
99
209
-154
474
664
-32
-172
315
97
535
-148
189
-96
14
749
213
92
599
-174
-148
-258
346
-331
398
-396
344
-220
303
-185
210
-373
35
-226
78
231
-195
-163
-651
-567
-83
55
195
3
-246
-551
-59
24
408
-79
-236
-43
336
68
497
176
13
338
-673
243
-17
157
-116
-110
-1120
-159
120
186
-3753
8
18
168
132
-648
-720
-712
-458
-377
-237
-139
-394
90
377
-209
-344
-160
-520
300
-253
51
-568
-588
-238
280
-218
-424
238
363
-242
-237
381
356
-159
-609
-1002
275
-455
-96
450
-266
12
-485
-101
-332
-187
-226
