-57
101
167
85
1229
241
-107
-134
-62
-87
159
165
5
362
-102
-320
-45
30
52
-50
-392
-164
103
68
-68
236
191
-245
475
-26
-269
-81
151
-114
-308
-152
235
168
-283
172
247
30
-117
-81
107
138
-233
88
-532
340
372
115
-78
-57
-192
-17
89
-25
-202
-65
83
-93
-54
146
17
-16
60
-26
12
-20
18
-26
29
3
-22
28
-55
1
-15
13
24
36
-36
-8
-8
29
-6
-19
-44
38
27
-19
25
-44
5
10
-115
61
-46
96
-2
-1
-62
41
41
37
-43
-34
14
32
10
98
-43
-37
75
11
-120
-28
11
32
45
-6
-32
14
72
-48
-18
45
42
53
28
2
-79
34
14
-19
-17
56
5
-3
-50
-73
-41
-64
-18
-35
20
58
34
-5
-14
-6
27
-137
-25
-24
-20
51
-60
52
-24
-8
-33
-7
49
-8
-4
19
48
-123
97
3
-91
-6
61
51
29
-47
15
-5
-4
-13
-18
-57
38
-155
12
7
-4
22
-38
-160
29
30
32
59
-59
-70
6
25
16
-13
-10
-33
10
59
20
-34
8
-27
-78
-10
28
-44
19
-33
-30
2
-22
-36
-66
16
-30
-3
78
49
-4
-18
-28
1
-8
61
-9
11
43
41
19
-20
-49
35
-47
-8
6
-7
24
64
53
-16
0
-32
51
23
-3
70
9
30
110
135
30
-15
1
-25
27
36
10
-95
54
9
-23
20
24
47
-9
-28
-97
-27
166
-62
-59
-33
9
79
29
22
-26
43
-23
-21
-12
-41
-7
-25
22
16
6
19
-20
1
-87
19
59
1
25
54
18
44
4
-78
121
-64
-17
71
54
27
23
-3
-9
9
29
70
-35
58
0
63
12
6
24
-36
-30
9
-28
-82
-72
-136
61
122
1
-14
4
6
18
17
44
125
33
-52
-31
30
63
41
36
-10
-12
35
-10
17
-54
70
47
-12
35
-5
2
-45
-15
-27
-36
-37
19
24
-42
-3
22
32
70
-20
-12
-73
-63
31
-25
14
29
38
-102
-7
114
137
48
-22
-103
88
56
-81
168
-61
60
172
-51
-175
11
254
35
-37
16
-8
154
-30
58
-21
-124
-75
-114
-279
-119
89
61
36
-240
222
-94
-240
153
-15
90
88
-11
-153
73
287
96
21
229
172
-160
26
194
-245
145
206
52
45
-74
60
216
-193
124
-43
-69
-17
-22
-61
12
-13
-26
-38
-102
22
-32
-35
53
-54
-60
13
-1
19
-75
-13
-39
69
-13
-52
-29
21
-47
-48
22
10
3
-2
19
-13
3
-11
-45
16
-43
21
-36
25
16
-30
23
-6
32
24
60
18
-2
24
-9
44
44
-27
17
13
-13
35
59
-9
-30
5
8
-14
-5
-5
10
19
23
-33
-35
10
6
1
41
-33
4
-17
-67
-6
9
-41
11
-38
18
55
23
3
-3
9
-20
6
-81
-10
-28
44
-22
-30
-11
-9
-64
94
-6
13
-8
-83
28
-20
-79
26
-73
-49
15
35
-33
-8
-97
2
-6
7
-65
-9
36
-61
-49
-56
246
246
122
-13
-278
229
168
405
109
-137
261
511
1018
-335
127
-100
-113
94
-304
173
201
162
-118
10
4
186
254
511
-179
-57
-129
188
164
-235
313
-218
-222
192
207
-311
518
141
-86
57
-399
-579
122
-302
-75
-111
256
-249
413
-23
225
-2
175
-37
25
389
-218
-9
-137
-122
8
-49
9
29
-21
9
17
43
36
-6
30
-26
46
-28
2
-17
-16
-17
-30
9
-36
-6
-29
48
237
89
64
3
25
-13
-7
10
-6
80
107
-7
-35
46
-31
-23
20
-72
33
36
5
-6
24
-73
-19
16
-76
-23
-41
-33
-44
5
-15
-12
-26
-23
32
9
-106
-21
11
-27
-29
2
28
-18
-23
-4
-6
38
30
-14
-96
-52
-30
-15
20
32
43
95
36
22
-10
-35
-36
-1
51
-6
40
-34
-26
54
-15
10
28
-25
24
-22
-42
-9
12
32
42
8
-26
8
-2
-46
23
-59
-20
-73
-11
9
28
-27
12
6
12
11
32
44
-36
-57
