35
86
158
62
-149
163
-249
46
-301
83
206
-78
153
46
-65
-46
81
-140
-9
-180
51
-151
-132
-15
41
-29
227
-121
264
20
-65
-32
-89
79
32
40
187
78
-166
-115
-151
-207
-122
125
20
-63
-95
0
100
-108
-109
57
-179
101
-353
-29
57
-393
129
-181
-60
148
-94
122
245
-386
195
112
189
-48
-79
50
2
-129
-6
-88
18
69
-87
-127
9
-105
38
-52
-75
-59
89
90
208
-177
50
-114
39
160
-48
-215
140
-15
-26
-90
86
80
35
210
-123
66
-41
132
84
-82
-100
-95
3
24
-164
-124
-27
102
116
-99
333
-12
189
174
-235
-73
-6
-95
129
-5
-23
6
28
-4
-9
33
-42
-5
22
19
17
4
-53
36
-48
-21
-38
13
-10
-19
-14
-17
-38
61
3
38
-50
23
41
22
-28
-13
-16
-50
43
-23
-14
-19
-40
-24
-18
35
-50
7
44
11
34
-30
-19
53
-8
48
-4
-36
48
-9
-8
11
64
-24
7
-44
-205
-160
54
-140
-174
-149
106
-150
-76
-242
216
10
-25
-37
129
-112
321
-249
44
-351
-126
404
-140
-124
-48
334
85
-79
19
67
-243
70
82
182
174
-24
82
-99
81
140
208
26
-67
-14
60
-216
317
-225
193
-175
74
-1
-57
-197
-7
7
173
-215
61
24
142
-46
-18
63
-182
113
172
289
80
-128
-252
-329
54
-55
-5
133
308
16
-142
-61
-152
-288
-117
-75
120
105
-156
-81
51
-131
4
-109
-182
-166
144
-139
-42
-18
-293
98
-4
-198
-100
46
198
139
-94
-12
279
109
71
483
115
93
115
103
-54
-288
12
-26
104
94
-80
31
-105
49
21
-37
248
11
-87
-264
8
-84
402
463
-66
42
13
-141
423
109
-159
61
255
-153
87
-111
58
-183
-37
301
100
64
546
208
5
116
-317
29
-209
-130
551
44
146
187
-133
-100
131
72
2
271
-54
-41
577
-271
329
280
-337
-225
-70
81
127
-126
191
364
-157
-101
93
190
93
12
13
145
-3
-39
-29
125
102
191
-179
-152
53
58
-65
69
-3
69
-44
13
-39
1
-7
-103
122
11
57
104
-58
-33
-95
65
-82
47
-21
-36
-51
90
-6
-87
-53
28
37
-173
-52
369
-55
-91
-54
149
-24
0
-9
-155
153
31
-5
230
-129
-21
-13
-189
-41
167
40
36
319
-49
13
120
142
60
400
-105
-287
-11
244
85
-260
-333
-80
140
-62
125
-144
25
69
-226
194
94
-56
-398
-144
-136
175
-230
23
-191
44
106
193
190
123
219
25
72
221
-73
252
567
375
1
-5
-298
-352
-323
241
-82
-288
277
-171
-50
-74
-111
-230
107
-31
-390
-10
323
152
61
-312
-602
-165
-151
172
-116
-267
61
6
-40
87
386
100
-79
-56
-150
-125
65
-38
8
367
65
195
-217
-299
126
-35
197
-333
81
55
-142
65
-20
223
93
-356
78
-230
-15
-61
361
182
117
133
266
-67
-365
-369
173
-137
-143
171
171
261
-104
-184
-103
377
-200
40
128
-19
44
-12
52
137
-105
42
161
-57
-33
128
55
121
-49
-168
123
-16
-27
6
-70
-170
-110
-33
188
83
131
-29
-123
180
39
-38
-65
-85
-86
-124
-30
92
64
87
-143
-25
29
-112
244
83
21
-104
-113
66
25
31
-60
75
58
-89
-59
22
164
-167
86
46
-80
155
53
111
249
-203
412
-84
179
-52
-203
-87
81
-122
-33
17
237
-163
-60
-423
-29
213
-172
-389
73
-135
177
-79
-58
-55
28
-188
3
-168
70
76
154
233
-100
-110
221
31
58
3
265
126
76
109
-219
-133
-93
94
-7
46
-3
-125
153
308
-145
67
136
-167
233
-13
-12
20
-139
35
75
309
170
320
-27
81
-7
171
-76
-92
219
475
133
-9
-74
-204
361
-71
-111
-38
58
-301
141
42
50
8
-35
265
60
295
329
236
342
179
6
-105
-594
-176
-55
113
-150
-427
113
43
86
-83
-111
314
-109
6
329
6
120
46
39
-59
208
70
-113
-143
189
133
112
