608
506
-797
-1085
1339
-1090
1011
257
-292
89
49
1270
-1096
1654
-142
162
-683
-532
-554
1743
1640
-1548
734
911
-484
910
876
-745
-958
288
-377
567
664
-797
3
-418
-926
1189
1152
-1504
-214
-1252
-241
976
-179
-257
-640
-490
525
-291
-1228
408
956
-1165
32
-581
189
-1442
433
-806
-744
37
-1960
-1115
-100
538
355
-131
366
-524
-573
38
-807
-615
840
42
58
1020
126
783
-320
-227
229
1112
188
251
-929
968
371
172
72
-546
2755
-1023
409
-64
1321
-934
-209
-290
173
595
-191
-773
673
1398
-438
-121
486
892
-237
172
-1195
-1528
-598
-173
295
105
-687
1034
-440
-2412
-686
227
-450
-518
-266
515
-29
-1012
541
479
-179
-222
-705
-1231
-284
-154
-823
-1057
-22
360
74
126
59
-3705
-248
-419
-227
1157
-84
447
-495
324
371
-734
743
1484
698
-57
81
31
-593
223
204
953
507
-811
-3164
-182
-586
431
295
1514
387
1919
203
21
-614
329
-300
-19
-203
1447
884
-482
1306
593
927
-15
-336
-1897
835
-220
-79
415
128
840
-332
-368
-711
566
755
336
-334
663
501
-57
332
-124
298
-744
667
958
-6
-1318
-664
-268
1225
-84
-67
837
469
-175
5
715
632
-385
305
-191
494
-218
476
32
-24
623
226
540
-58
-333
142
-410
-292
-211
-434
38
-1118
345
-544
-1835
199
1077
-326
-277
-290
-340
-1136
-472
327
75
717
-880
767
-79
845
418
-284
158
528
51
110
121
120
-405
-693
611
-472
-891
-187
-1109
1163
633
290
-930
-541
-23
444
1189
617
-144
256
274
-863
81
941
287
-5
1479
-216
-487
-356
-222
-274
128
1207
1083
-969
-631
-8262
-577
-135
666
277
-758
122
-756
-160
-299
-125
-148
53
-297
344
-451
-85
718
-157
-225
-369
218
-179
-411
-399
808
-499
109
44
-342
-4
254
-252
351
264
-349
-254
2083
-265
-816
-521
-783
-106
760
-363
-507
-177
-291
-303
299
-1000
209
338
-435
-523
78
440
-418
-23
232
-519
-319
-436
-326
402
-50
-896
-71
-111
-197
-971
-92
-90
-870
807
-962
-271
-27
-857
817
414
-960
43
126
684
79
746
-240
-304
-434
-144
175
-188
-617
53
-598
-228
-1583
757
-44
300
-376
-1184
-825
-65
-46
-403
559
17
-277
534
-437
-420
-1409
425
-851
-997
458
-3
-647
-692
45
-42
-471
-426
158
460
850
-1271
-482
-462
-687
219
223
338
-1238
57
-161
-1258
372
-444
-1018
-89
75
825
-1447
651
-206
-377
326
-96
-641
-114
-1282
192
1205
526
-954
-714
107
642
168
345
-965
-175
-252
-56
20
-338
-59
-710
-395
-101
403
-367
67
-720
29
788
692
-1240
-303
-228
-416
1002
-435
-608
71
-2411
306
-561
33
-88
120
127
89
-625
-583
-429
-127
-446
55
-46
-525
277
-63
-993
995
-786
757
-1094
604
-641
444
790
-741
-389
-208
466
72
435
132
-826
-559
260
-86
119
-68
-404
420
-81
-686
428
-644
-448
233
-301
-2508
-756
-939
350
696
-363
-1196
306
392
899
-495
526
617
576
-231
-497
-413
-517
-346
-235
81
241
-792
-68
-149
210
-72
135
522
138
167
-449
434
522
140
-564
-336
413
41
155
431
1610
-259
-383
-397
-73
-897
-54
-343
798
-55
459
66
552
419
507
184
-663
285
184
341
163
646
-86
-366
-543
-272
156
119
-466
201
-60
-197
149
350
97
-621
-202
-451
-309
317
1153
-489
-53
-371
160
974
-637
748
1178
76
355
47
293
971
-882
525
219
237
-92
-427
11
-418
-149
1038
-218
134
77
816
-666
-125
-463
-453
30
-554
64
-326
311
-481
133
-438
31
-190
259
-406
-83
754
-306
-716
259
-378
1034
235
429
-485
473
-341
964
-654
-46
-867
826
-475
-605
-11
-85
534
283
348
-607
945
-891
-389
253
-986
457
-76
-771
-160
28
275
1287
800
215
-41
-596
417
226
411
-956
163
37
797
473
562
-546
-857
10
-414
459
-91
-137
122
-916
392
-1114
580
380
456
896
174
968
-207
-644
-433
-661
53
365
-684
244
519
-296
-675
442
-40
-125
-802
-270
355
-413
182
-1890
724
-475
-84
95
636
142
-1038
-184
-15
-446
-35
