-10
69
-172
64
22
51
-159
59
-157
-25
40
-22
340
-205
-2
101
236
12
-40
-255
-228
81
-201
-178
258
-96
-269
143
33
-35
194
58
-132
-58
-159
113
230
-113
-114
-137
-33
-40
69
-175
226
-70
-15
65
-28
-161
194
-70
-165
215
143
3
-112
-122
21
-108
67
-45
280
41
-137
-128
5
12
-131
29
106
13
195
143
-155
232
228
-196
-253
-230
165
-72
-20
174
43
-153
101
-79
-81
33
0
-122
-393
194
154
217
-134
262
72
70
-16
-123
-81
121
-92
188
11
-14
-96
-17
-114
64
-19
70
-11
16
20
16
7
-245
-111
356
164
-211
-21
47
129
-49
87
369
137
-123
-126
-212
-33
18
56
-178
-73
71
40
203
-81
49
-153
550
134
114
-190
-53
-113
41
-201
-56
45
-24
-31
-157
-158
-356
-138
4
254
120
-26
0
-136
98
627
125
-14
57
-31
-145
-33
200
62
-32
229
-120
-190
3
126
-162
-94
22
-147
-114
-168
-120
8
131
-94
143
143
-33
-87
-338
-159
277
84
-303
-334
-292
-78
-88
115
-17
-41
43
-113
141
33
-222
-59
54
60
70
-443
43
48
-41
-74
-8
-52
-298
-102
147
-42
22
-48
57
-31
-2
-58
-78
-146
71
-82
115
-159
-145
160
48
89
188
-263
-162
125
215
-64
-183
12
26
-156
-54
53
135
84
120
269
70
-100
190
-95
-41
-17
19
-7
63
-97
36
70
-31
77
-203
35
202
165
108
-88
-116
-75
110
131
-90
-56
-100
87
24
-122
-36
108
33
-18
-62
-175
-64
-51
-175
36
131
58
-43
-411
-124
79
51
3167
-153
-37
-291
3
-19
-41
225
-68
-180
-52
-249
-20
-113
-15
179
149
-202
-343
121
-73
-126
202
-477
67
-70
160
-61
49
-33
48
30
52
-128
-235
38
-29
52
-146
-43
15
66
108
-101
62
-448
38
38
-4
109
-54
-194
85
-129
-44
-31
-130
116
-245
-250
-96
1
38
112
-140
78
-41
56
57
99
158
-46
8
277
-182
227
-58
154
84
-103
75
-219
67
-230
9
-184
-94
1
131
192
42
57
172
122
2
78
-7
115
15
-118
29
61
90
84
59
88
-187
27
-72
39
99
-379
175
306
-72
9
230
-153
-115
-181
42
-316
126
55
110
11
-67
-32
56
119
-8
-219
127
-34
52
228
76
96
61
-48
163
165
-49
68
-31
-35
24
129
80
-122
-59
42
-62
247
-14
-7
241
-141
13
119
-82
282
-31
6
11
146
-26
31
-171
-129
173
-40
31
-164
314
-108
79
-94
-100
-123
165
-268
-26
26
-283
62
57
67
-394
58
-39
-43
10
-78
50
-204
93
-67
-104
12
62
-63
-64
-8
166
-1
82
-210
20
-34
21
-18
-7
-156
58
94
-60
156
-7
-102
-56
-92
214
73
-110
-175
7
-21
-122
-125
36
30
31
65
100
-49
16
311
178
66
15
-51
11
348
112
4
125
55
58
118
-86
11
-38
93
82
92
-125
-81
-19
163
-16
84
-18
165
211
282
80
-2
81
-13
-25
132
74
15
-96
-85
139
17
-286
2
170
152
-116
63
-37
70
131
84
-68
104
-94
-84
2
43
168
9
-185
-438
-101
320
-12
219
-117
229
83
-211
-92
115
74
-14
179
104
-145
-20
-9
-94
-75
-55
-118
-179
-21
-26
-296
-268
258
-149
-41
96
17
21
-284
93
27
-146
56
-372
161
-107
36
-3
322
112
59
-67
-71
228
-17
-151
191
48
90
193
-215
27
-129
157
-105
-38
-78
1
-122
53
-413
-153
87
-5
35
-29
-133
-70
50
73
-110
24
-33
25
66
208
-262
-55
71
36
-20
-119
7
39
159
-81
13
-100
99
-40
-65
-49
95
-125
-130
-147
-86
19
136
8
333
4
66
131
55
-38
-89
-1
27
-30
131
-119
-182
44
213
21
230
-14
189
29
5
-67
-172
-85
-134
104
-137
-19
40
-104
13
-187
-9
146
6
-209
-143
-227
4
30
-86
-62
-100
-27
223
76
175
5
157
25
-177
61
-91
-71
166
-21
-23
-99
