50
-98
-38
0
90
-17
0
-5
-59
-161
-54
73
69
-113
-30
26
-50
-45
83
-25
82
-125
74
13
30
-113
9
-2
-26
60
-41
-169
-32
-58
82
84
-2
-19
38
12
-51
-103
54
25
-34
-71
206
36
77
16
14
68
-109
-42
17
75
-17
28
69
-84
22
-22
-35
-35
24
43
-85
-43
39
24
106
-39
24
-45
36
24
81
-106
43
-17
39
144
141
33
-25
-51
6
72
22
-62
-91
63
10
-53
149
104
115
160
26
63
69
48
43
17
-100
87
-72
-145
29
138
-16
26
-175
15
5
12
-50
-83
146
64
-8
-119
-218
60
-230
-123
94
-20
-191
298
87
-139
91
159
134
66
301
154
-173
99
40
274
-358
144
-298
102
233
-124
26
-61
235
-197
-267
-101
95
182
0
-65
122
-351
-45
-66
-270
-195
-82
361
-60
-301
-24
-190
77
-45
-84
76
254
216
-29
172
-37
320
94
-52
-327
-98
-160
-29
50
-14
-99
-113
84
41
190
-149
-86
178
-87
309
-149
-230
-85
-62
100
-79
14
451
261
120
-214
99
-522
7
-135
5
142
-124
-35
116
111
101
75
9
-204
101
9
-6
-24
-15
-153
101
180
61
112
-41
139
68
-232
134
-411
-54
187
24
-11
168
-85
65
13
8
8
27
171
-45
78
16
55
192
-21
-11
69
20
-75
46
-56
-60
59
-7
76
51
67
45
32
-91
-56
32
-106
176
-42
-22
193
-75
-40
-225
-11
-126
248
12
250
269
98
-15
-104
-110
54
21
65
-39
-34
100
91
-16
-156
140
-14
83
-16
99
54
-129
-66
-136
-61
21
-27
64
-57
-219
55
-63
32
160
28
-12
-98
17
-13
-52
-114
16
-24
-47
28
-123
-22
-56
-12
-19
14
21
-26
-65
-378
-33
-190
36
154
69
-59
-46
-5
-119
4
-10
2
58
45
-82
-83
-201
122
170
-37
322
-17
138
-53
59
-34
-32
49
83
-20
-180
114
-60
36
7
-15
51
19
-21
51
-122
6
14
34
-111
90
-25
-115
-70
182
102
156
-93
40
-21
-158
16
61
-123
147
24
273
-13
-207
34
128
-50
122
-4
82
-49
-112
-20
29
-10
-58
142
-82
104
63
45
-14
-92
-53
98
-1
-54
-76
246
-37
24
72
131
67
-56
107
-43
-87
5
-29
-111
65
-216
20
-158
-221
12
12
71
364
19
-33
-247
-179
-28
-146
59
-268
-105
104
54
77
-9
160
-148
278
181
201
-64
-35
-101
-187
89
-99
-144
63
-52
107
-1
-23
-263
273
-102
0
-34
161
-11
16
154
5
215
-62
-62
138
229
56
101
-210
-27
-39
51
74
57
59
47
0
-39
-82
-5
243
-94
-20
-64
9
27
59
45
-18
21
-83
-32
33
45
13
4
-77
7
12
-24
65
46
37
40
10
-33
-11
11
-27
26
14
64
-9
-13
-14
-81
-61
80
11
-32
-12
-7
19
-13
-18
21
-55
8
14
-15
-252
6
-47
6
29
-12
0
3
-56
84
-26
-16
-18
-6
-31
18
-26
-51
-58
45
-66
-25
79
84
-8
22
-24
14
-33
-2
-24
-26
-50
-26
6
-24
35
37
30
-8
10
-57
-31
-38
-3
95
-48
12
-29
-24
-8
-28
31
9
46
44
51
37
-69
32
39
-48
29
14
28
184
22
-87
61
-1
5
16
-38
75
-6
-48
23
-33
-20
-8
-3
-67
-189
90
19
61
-25
351
-22
-101
-38
20
-29
16
76
-28
-15
-18
37
-15
-15
-10
-51
-30
24
-59
-72
-6
-26
-40
-22
-176
13
-40
28
-37
49
-124
32
-11
30
-78
-39
-78
37
24
15
282
-8
-216
10
123
-8
-18
-11
29
-19
33
-73
-62
-1
78
89
89
7
35
69
-29
29
11
276
-19
43
-6
7
-453
-8
-96
-121
30
-69
86
-239
-98
-57
47
-36
33
-46
-57
-20
-12
10
12
-90
-17
66
-54
-41
-15
-51
-229
-78
-1
148
0
-42
-19
-56
101
-29
27
26
9
53
39
-13
-1
34
18
-145
75
66
78
-47
43
-4
199
