-48
-131
-353
156
-563
-90
-403
-350
9
-55
-22
-128
23
-409
-156
-384
-356
-278
-56
-399
-585
81
-429
-666
-160
-605
-343
41
262
-313
-219
-121
-472
301
-386
-19
142
-197
-508
628
-74
236
-178
-134
-144
-20
-67
-22
-98
106
226
28
-666
163
-378
-283
-315
209
69
-28
40
-406
-44
-121
-117
-477
-65
-157
-104
148
192
-371
7
-65
-343
-209
-23
-107
-343
-326
-118
-262
-90
-311
-147
60
7
-175
-77
-299
-76
177
-1005
-244
-509
125
-472
234
43
-8
-19
-153
-2
-27
-164
-15
75
-50
249
-249
147
3
141
175
-58
-147
-278
-116
159
-467
115
109
-64
-325
-427
97
112
-571
-75
-49
-212
-492
72
146
-157
23
-336
-223
342
-34
53
-220
-209
-314
-327
616
-16
-170
177
-550
-191
-382
148
-242
-293
-213
-305
-321
-256
254
-284
79
-182
-383
-121
-411
-295
-298
504
-38
-33
-175
-47
-431
-104
-488
-349
-423
-433
-113
-135
-337
101
-418
-147
55
-631
-393
-516
-274
-24
359
-741
22
-303
-344
-20
-383
-150
9
84
-256
-338
-255
181
-483
-274
-16
-198
-293
98
28
-534
-303
-321
-109
159
-127
-205
-132
-290
-567
65
-155
101
-590
-356
-7
-260
129
-140
-10
-179
-218
-50
-174
-174
95
-314
269
-217
-230
-22
-268
-121
-162
111
-306
284
340
-159
-847
-52
-93
-187
20
384
-64
-206
-191
-140
-64
-65
-223
-91
147
-156
-73
-267
13
-162
-155
40
-252
56
-115
61
209
44
99
-384
-147
-97
155
74
-434
-397
-468
-311
-85
-383
-23
165
-61
-563
-258
-269
-764
-224
-100
-447
-317
75
-463
-886
107
32
36
3222
-172
106
223
-234
-86
-11
-290
-338
-317
146
-174
217
-391
-608
289
-118
-277
60
108
-102
173
-93
-346
-204
-489
71
-202
68
-25
-71
77
-160
-407
-264
-176
-216
-164
-225
108
41
240
255
-168
-385
-163
-69
120
-316
-274
-73
-56
-359
-203
-220
-210
-244
-88
38
-399
115
-164
-95
-55
-265
96
-70
-215
-233
82
50
-301
-188
-1373
-132
150
-254
38
345
-341
-49
20
-313
-399
-525
-124
-343
-179
284
203
-318
70
-77
79
-247
-217
-21
97
-230
-236
-542
198
-8
-264
-327
-81
122
-251
-85
-75
-189
-67
35
158
-186
12
262
-309
-235
236
254
-387
-208
181
256
-398
172
-337
332
-239
24
54
-204
-299
-414
-63
-47
-189
429
-207
-54
148
-263
-95
-399
42
-443
-331
107
-37
238
9
-178
297
-9
-385
-423
94
-221
-44
-295
-115
-206
81
-117
-173
-27
-33
133
-140
199
327
-274
-421
-43
-185
72
-138
-407
-314
204
16
-91
25
-320
-122
-20
-84
-112
-4
-94
-252
-102
-250
-145
124
-137
-364
69
-209
-164
-302
125
-67
-193
-32
-45
-593
119
-172
516
-297
219
-567
-375
253
-114
-76
-220
211
-257
-235
160
71
-46
-166
-467
-95
22
-356
-251
498
-361
-27
103
-183
117
658
302
-298
-695
-303
63
74
-376
-331
-130
56
-136
-459
-349
-107
13
-51
-27
-306
168
-105
-209
38
4
39
2
-343
-364
-146
194
-193
36
-205
-395
38
110
-460
-414
77
65
39
-980
-6
-111
-256
-110
-123
-378
-287
-297
-74
-184
-282
-216
-406
-317
-183
-71
-208
-221
-279
-312
-387
-358
-340
-232
195
123
-134
138
-26
144
-134
-263
105
-313
-198
-347
-172
-113
-252
-336
170
-286
-158
-519
-349
-304
-620
-154
-298
-228
-249
-436
-437
199
-300
-239
38
-246
117
-270
-288
69
-170
-199
-473
-335
-287
-11
-101
-353
-141
-53
-41
-445
-23
-447
14
-209
56
-424
-358
-226
-323
-300
-229
39
71
-341
-167
-584
-447
-502
-27
-231
-213
-628
-84
259
-39
-434
-253
74
-196
36
-237
-189
-246
-285
-183
161
-174
-150
-82
-323
57
190
-174
-427
-227
-381
-242
-316
-372
-180
-103
-155
-305
-89
-378
-30
-241
-81
-244
30
-68
-122
-133
-250
-91
-14
179
75
-303
-106
-520
-335
-493
-712
-117
-170
-204
-26
-98
-143
-48
-47
-41
-211
-201
-161
37
-290
-293
-141
303
-85
-348
236
-22
227
-462
-145
-200
-325
-332
-155
365
78
-218
-105
-195
