-177
-318
-59
206
-506
31
-494
-304
-125
73
-20
-481
-56
-285
-133
-228
-66
-81
-28
-680
-552
277
-427
-454
-104
-555
-300
238
253
-163
-142
-195
-536
300
-338
-92
-25
-440
-424
562
-66
285
-143
-316
-167
77
-90
-4
-262
128
288
-41
-639
366
-225
-60
-261
321
-226
52
-8
-141
127
91
-239
-303
-184
-60
-201
126
398
-319
-26
-32
-396
14
-124
-282
-191
-222
-76
-227
-170
-431
-157
-36
74
-352
-168
-266
-105
147
-1020
-24
-270
-39
-274
102
3
-77
-286
-246
-227
113
-130
238
63
-68
-56
-245
-45
-177
253
191
56
-178
-211
-139
86
-421
35
395
-32
-231
-250
65
17
-280
-200
-4
-240
-236
86
95
-163
143
-53
-230
257
139
10
-213
-165
67
-324
612
-106
-104
-5
-657
-98
-399
292
-146
-260
-162
-353
-556
-281
7
-169
-22
6
-299
-11
-418
-292
85
864
17
-61
-217
-99
-740
-239
-475
-226
-295
-178
-295
-24
-279
-12
-465
-284
4
-498
-336
-453
-62
-2
162
-525
-24
-263
-283
-25
-418
-77
-6
251
-209
-162
-295
111
-354
-275
-117
-263
-38
-52
66
-281
-283
-300
10
-6
-24
-242
90
-79
-324
-105
-183
-55
-568
-327
-65
-379
-155
-281
22
-193
-79
-152
-232
-4
-171
-146
249
-62
-176
-58
-156
-216
-148
245
-247
264
526
-232
-420
54
11
-73
66
118
-75
-193
-82
-235
0
-317
-143
-165
-79
-190
-188
-277
-184
-227
-100
-73
-33
-42
-353
61
149
100
165
-354
-195
-264
-18
138
-138
-409
-494
-474
-85
-316
23
201
-55
-418
-9
-21
-637
-142
-61
-243
-256
90
-289
-748
-135
175
18
826
-102
-104
-51
-111
-45
-137
-204
-163
-327
9
-345
43
-201
-416
214
-156
-331
42
-49
-133
-184
-2
-147
-135
-585
-142
-192
66
68
-76
-254
-143
-381
-239
-37
-55
-408
-104
157
48
278
63
-344
-135
-354
-226
91
-232
-84
12
-162
-223
-40
-82
-279
-113
55
-26
-271
65
-109
17
-101
-243
-21
-8
-194
-214
-157
-17
-241
-23
-340
-271
302
-113
-75
242
-332
-65
180
-144
-102
-396
-196
-438
-119
157
89
-156
-61
-79
43
-117
13
105
279
-259
-130
-413
-73
28
-4
-282
-301
27
-180
-79
-147
-85
-42
-87
406
-140
61
153
-294
-280
69
142
-393
-140
141
206
-323
-74
-407
189
-117
119
280
-216
-79
-197
-45
-78
-173
160
-294
69
314
-151
-188
-465
188
-313
-84
-191
-191
-44
14
-167
192
-28
-432
-446
50
29
-265
-213
-132
-277
204
-90
36
49
-41
42
-193
118
16
-162
-384
21
-113
-177
-156
-334
-420
269
-43
-134
-115
-348
-86
60
-3
106
-98
-95
-378
-163
-126
-104
-163
-10
-78
105
-133
-20
-168
5
16
-210
-131
62
-580
32
-3
397
-116
133
-413
-243
169
167
-78
-213
-101
-206
-209
14
-103
-166
-74
-172
-27
-59
-150
-199
156
-169
89
131
-244
78
478
168
-23
-451
-254
18
7
-482
-258
-338
38
-214
-169
-389
-37
84
158
94
-163
60
-162
-279
2
-127
-105
-108
-198
-182
-261
61
-122
35
97
-339
-185
133
-67
-476
-84
-134
-161
-879
-203
-134
-115
-146
-101
-265
-105
-476
-218
-68
-110
-299
-164
-148
-239
142
-299
-201
-355
-247
-423
-229
-22
-109
89
-65
-133
6
-157
-36
-170
-223
-157
-257
42
-290
-155
8
-420
-542
-1
-298
-260
-448
-503
-218
-463
-228
-261
-140
-239
-255
-521
157
-297
-348
-207
-102
22
-432
3
8
-220
-175
-446
-249
-340
124
59
-267
-179
-35
-191
-207
-71
-406
92
-233
-14
-328
-190
-172
-268
-188
-142
-68
22
-296
11
-571
-380
-582
39
-205
-18
-585
88
14
46
-358
-12
12
-130
-47
-266
-282
-213
25
-335
161
14
-175
24
-393
-64
103
-151
-241
-159
-260
-294
-298
-339
175
-398
-315
-308
-74
-280
-164
-370
-247
-62
44
135
-172
-24
-341
-152
-91
-97
102
-267
52
-352
-409
-326
-652
-120
-301
-142
-79
-86
-264
-126
-340
0
-129
-505
22
-67
-230
-209
-122
155
61
-328
81
-21
402
-412
26
-226
-189
-378
-270
296
-102
-121
-175
-212
