350
580
-350
-767
864
-994
1117
680
135
449
-83
982
-749
1242
-21
-57
-464
-1186
-221
2117
857
-1509
820
411
-719
917
486
-739
-817
405
-157
161
850
-814
494
-304
-576
284
514
-1298
97
-744
-62
478
-429
-809
-247
-294
386
-66
-1700
344
1733
-1803
447
-1309
-306
-1322
175
-1045
-387
-54
-2020
-1741
-293
252
-236
-189
94
-386
-254
155
-1506
-1241
923
533
134
943
180
109
43
205
213
335
251
57
-758
569
137
363
-128
-363
2228
-583
366
-197
1095
-805
88
-128
-145
625
-166
-306
522
160
-1199
141
459
7
54
78
-1959
-1048
-213
-83
380
501
97
424
-922
-5226
-627
430
293
-335
-474
323
509
14
-82
740
-327
194
-220
-695
-928
-729
-1046
-1699
-212
-21
62
76
25
-3957
-291
-456
309
355
449
331
-518
339
195
296
1128
1068
739
190
-41
12
-218
267
57
274
7
-1229
-3993
34
-308
395
170
1455
680
1924
-151
215
154
55
-220
-217
308
972
502
366
1211
971
444
-337
-816
-1087
1502
-307
-335
233
-305
325
-117
-93
-496
891
302
1142
99
297
772
-223
29
-114
415
-488
788
292
-212
-494
-1663
-211
666
100
-281
1087
784
-800
440
65
-82
-38
-158
-46
719
-164
918
-189
241
571
173
111
-194
-220
-709
195
171
305
361
-666
-848
-86
-114
-1459
521
1117
-256
-350
-261
-618
-693
-829
-1
20
690
-341
881
368
1221
516
-152
269
440
59
416
43
-161
-414
-824
-151
-151
-819
-513
-240
267
433
-36
-495
-575
-331
452
907
1014
162
215
60
-603
-68
542
-45
-1331
1825
-277
-490
305
-799
-242
504
1089
870
-574
-640
-10084
-520
51
990
-310
-466
79
-160
320
205
-253
1120
-221
-260
19
-301
86
574
119
-73
-269
155
-924
-1639
-363
754
-221
-176
-26
-120
416
1160
-487
756
-296
254
-1071
1338
209
-895
-275
-1587
-345
1113
-273
-319
-241
-829
-523
-322
-616
-53
613
-389
-405
207
-301
-362
-320
-67
7
231
-975
192
441
370
-1099
-79
-36
-355
-167
-54
-239
-1626
652
-1297
111
-163
-1106
540
74
-591
-561
-251
846
-115
328
233
-451
-548
73
108
57
62
-311
-707
379
-843
500
-109
90
-227
-969
-396
364
557
-215
-482
245
525
228
122
-399
-999
661
-266
-442
108
41
-84
-347
-2
567
41
-299
-251
257
834
-898
-327
-498
-990
507
-85
-372
-1795
210
310
-988
66
196
-660
-561
358
1015
-934
500
77
-11
284
-390
-557
546
-265
62
1060
652
-1079
-1255
441
95
353
210
-281
-281
-84
19
245
-796
-153
-652
-486
-393
480
5
-219
55
434
77
1184
-1077
-199
81
-545
603
-343
-1124
-952
-2888
-51
-309
113
-264
288
132
239
621
-609
400
-329
-991
349
195
-466
929
304
-985
817
-850
-431
-1111
-128
-13
437
283
-389
-1038
-453
161
61
42
-327
-313
0
484
-651
-107
-771
-684
472
386
-1317
654
-3288
-701
807
108
-2756
-914
-1012
978
617
-179
-612
168
527
421
-162
-168
1021
537
-554
-439
-1235
-738
-288
-131
-143
2
-300
-172
-240
947
324
-116
-368
-151
-106
-75
-1072
104
-28
-515
-704
931
-265
111
77
1692
206
-189
-262
328
-141
113
-261
370
-173
361
-188
522
-99
564
610
-616
201
-4
1192
132
1290
104
-243
-136
242
-202
-208
-531
70
247
-298
451
722
547
-461
-106
27
-305
359
1178
-883
-154
294
180
281
-841
667
362
-305
177
433
-248
1408
-896
178
544
-479
-234
233
851
-440
-160
627
111
178
-215
374
-3347
-300
-883
-419
-53
355
479
-583
380
-264
-7
-437
-182
-701
61
79
-1005
570
-50
-573
70
-419
1908
808
593
-438
-15
-155
1183
-324
-45
-502
432
-776
-555
251
570
501
239
450
-432
1253
-750
-398
-237
-751
474
-442
-1234
673
-330
32
811
87
531
88
-104
999
-456
293
-851
756
-417
211
88
-306
-695
-530
116
73
727
49
-211
-217
-730
399
-415
810
179
470
942
49
413
-36
-865
46
146
-84
729
-139
377
599
-372
-291
215
-141
429
-1095
-794
1238
-452
248
-1843
481
219
78
51
622
-133
-813
-274
103
48
33
