-23
-5
-9
-21
25
15
17
16
-13
-18
4
12
-15
31
-5
37
44
5
1
-6
17
3
12
6
-10
14
24
12
-26
9
22
-9
15
-28
-19
6
-23
-7
-18
-11
-4
-29
4
25
18
3
3
6
-6
1
-38
19
32
5
32
24
3
-7
-14
-40
7
17
19
-29
10
20
-23
20
-22
-18
3
13
0
-13
2
-30
-14
31
19
22
1
2
1
26
-10
-42
-16
-2
-17
25
-32
-12
26
1
8
-3
29
-7
16
-26
14
-11
15
-11
-23
17
-7
-21
-9
-11
-11
39
-7
-14
-5
18
-5
13
-7
-2
6
23
-3
88
-3
-16
-6
17
-25
-3
-1
17
-7
-4
-19
-15
9
4
2
15
-17
3
-10
13
38
-7
1
-45
-29
14
-33
1
-24
6
-23
15
8
15
-17
-10
7
-8
11
-11
26
23
7
24
-15
9
-7
-4
-3
-17
-16
-22
12
6
31
13
-164
15
-1
-11
6
-7
34
-3
16
3
-16
14
17
-20
17
-3
-24
11
1
-1
-17
-13
10
-25
-20
30
-11
12
-1
30
-31
-12
12
42
10
-3
-21
-15
9
-33
17
12
-21
15
-4
34
19
-15
0
-5
-28
3
16
-19
-10
1
6
4
20
-21
31
17
-9
29
-7
-16
2
-7
-11
-3
-41
1
7
-3
14
-24
1
-12
21
30
17
11
-10
0
-3
-24
7
-20
20
16
27
36
-15
15
-4
-11
11
-5
-11
-11
-6
31
-16
-4
-35
-28
22
-21
-14
-2
-13
13
-23
-26
26
9
-1
-13
5
-7
-16
13
0
18
17
-13
6
-15
-157
-12
-21
-16
18
17
2
-7
-20
3
-2
8
-3
18
18
-37
4
-20
2
28
13
10
-26
3
-1
10
-18
-1
-12
-10
-11
-17
22
23
10
7
-3
-17
0
-23
4
-31
-22
-12
32
-15
-4
-13
-24
21
7
6
20
-25
27
8
10
27
-32
9
-13
-9
-37
1
-5
-19
-23
-12
-5
-12
-42
4
8
-75
0
-22
25
-25
-14
0
-15
-13
-6
26
8
-14
-14
4
-26
-13
27
-3
-11
-31
21
1
-19
4
-23
-17
7
-12
-12
9
-17
-2
-12
7
14
-10
-7
-5
5
-14
15
-35
8
27
3
-31
1
26
-28
-17
-2
29
-8
4
20
-13
-9
-8
33
10
1
-22
-6
-27
-15
16
-9
-7
12
-12
16
-4
21
-4
2
1
-49
-5
-6
-30
-10
30
21
1
29
-39
16
-9
4
-6
-9
18
-17
-25
-13
1
-18
-5
-1
-11
-29
9
-12
-1
-5
23
-3
3
-12
11
10
11
-8
-3
-6
10
-7
-13
8
15
-26
-25
-13
14
-24
24
-32
-1
-12
-23
-7
-11
10
35
-6
-2
-23
8
-5
13
0
-19
-11
-8
6
-13
6
0
13
2
-11
13
2
-17
15
-4
16
-52
6
11
-3
-3
-8
-20
10
24
17
6
4
4
0
31
6
-11
8
6
-5
-16
1
17
13
-15
-32
8
-11
35
19
7
-19
6
37
-18
5
-4
6
-39
26
-33
-12
2
27
44
-8
-16
14
-24
-26
7
-6
-24
5
-17
2
18
-24
-4
-1
32
-3
0
-23
20
27
22
8
12
-19
6
28
-4
19
13
24
-32
-13
-11
8
-16
28
-11
-8
2
13
3
24
-1
14
4
32
8
32
21
-3
20
18
28
30
1
-20
24
-28
-17
-4
-28
5
32
12
23
20
18
10
38
-10
-11
29
17
24
-12
19
-7
14
-11
23
3
-4
11
23
39
48
-6
-14
-17
40
-11
15
8
-16
-11
4
-19
37
-16
9
3
-4
20
-7
-5
-14
-34
5
7
26
-3
-31
-13
4
-18
36
12
-18
20
26
3
21
18
0
15
-33
8
-6
7
-6
2
-29
8
14
3
-143
7
-5
-4
11
-17
-3
-33
-3
-10
7
14
-11
-3
40
-5
-1
37
-29
5
-15
12
-24
-16
18
9
2
-6
3
29
-24
-13
-10
21
-19
-22
-41
21
13
-8
7
-12
34
-4
-15
9
5
1
