-28
-244
-235
-45
-111
195
-152
-134
-89
-184
-207
-30
253
-166
89
-108
82
-157
61
-313
-228
245
-249
-85
138
-229
-323
-51
180
-179
1
91
-35
-19
-241
139
68
51
-243
49
-54
141
248
-185
187
-156
34
-21
10
53
224
-76
-120
305
-46
-143
-222
235
-2
-87
7
-181
270
-65
-114
14
-7
44
-204
290
10
-64
-10
265
-171
82
8
-186
-194
-309
100
8
-32
115
-223
-34
79
-217
9
33
-157
-27
-441
-62
-197
409
-228
45
214
47
-18
-74
-82
-69
41
511
121
55
266
-119
-301
134
103
51
-37
-26
95
9
27
-346
-30
564
198
-248
-318
238
192
-283
41
126
41
-162
-282
-150
-4
53
-95
-169
23
103
72
0
-193
-2
-228
543
65
-50
122
-218
-14
-40
220
-36
32
163
-71
-80
48
163
-105
36
-91
64
106
-254
-140
-112
635
178
-11
-112
385
-279
-34
155
-19
20
200
-33
-50
-54
86
-266
-46
130
-38
-117
-188
79
90
304
-258
182
-160
-201
-54
-377
-49
186
28
-211
-67
13
7
14
106
-241
-23
-224
-144
225
23
-480
-174
136
99
168
-502
68
-138
-152
-66
-92
30
-426
-79
217
-109
-5
-182
-121
-186
-29
-71
-29
20
209
-66
413
-149
-163
228
33
-17
172
-35
129
282
351
139
-445
-135
-32
-351
299
137
156
76
-37
219
45
27
57
-431
162
-71
-216
2
-72
-194
112
205
11
-17
-115
111
250
110
154
-105
-145
-87
92
105
-153
-124
-100
-35
-27
-285
-297
305
175
-64
-174
-12
-52
-78
-19
-10
247
75
-176
-393
116
144
-6
3366
26
18
-263
85
40
-106
42
-176
-184
185
-826
-128
-259
-219
154
4
-208
-250
150
-89
-27
101
-608
-45
-243
215
29
-59
51
-64
56
-118
-153
-345
-37
-122
46
10
185
-32
61
261
24
-54
-122
2
180
35
-65
108
-221
-40
-67
16
-263
21
0
-23
-188
-27
-353
214
167
-56
81
-94
-11
-81
195
192
-15
76
430
-63
249
-98
144
261
-115
14
17
-132
-168
-15
-204
-149
8
239
162
-131
146
194
-217
-10
-35
134
200
14
5
-22
121
8
183
73
102
115
-142
64
190
132
-186
80
465
-82
170
86
-122
52
-124
267
-277
85
124
102
-323
-119
22
164
394
-17
-44
66
-69
-259
101
-13
16
131
74
296
191
-39
165
-124
115
-59
-51
79
31
28
55
24
624
5
-116
207
-329
-57
53
-109
143
12
-259
89
120
143
256
-24
31
314
104
-26
-108
163
9
188
-200
-205
-139
341
-10
45
87
-100
8
87
-22
-323
65
66
-129
-21
-18
-22
-17
113
-136
-7
73
180
-169
-8
-71
120
-68
254
-328
154
-90
119
253
-24
-126
-39
78
10
23
-53
-114
-73
-173
49
78
-40
-160
5
82
17
-119
-70
159
-31
-36
145
38
-89
326
213
-75
-301
-17
99
173
6
49
133
38
-127
-133
-72
-79
14
87
255
182
39
-24
-119
264
-46
75
21
33
-112
17
169
-165
64
83
-101
239
238
-66
-93
87
252
75
-271
-72
173
151
-89
28
-40
63
51
303
-95
140
6
-168
-96
47
56
146
16
-245
-38
256
-99
127
-156
495
40
98
290
100
235
-72
82
-90
-57
-29
176
36
218
-83
-152
171
-80
-100
-413
-67
80
-381
-58
-147
-122
-42
-350
53
55
-243
13
-188
246
-32
-79
18
250
-31
-15
-74
-50
110
235
23
-26
-51
28
102
-240
43
-123
151
-171
64
-79
-36
-141
3
-454
-46
126
31
0
62
-346
-177
-62
-50
-74
84
-319
-55
140
38
-156
4
16
66
62
-72
-167
36
180
-140
203
-243
298
-66
-40
23
110
-223
-30
-127
-58
19
1
-47
458
-169
-68
185
56
-76
-81
42
25
-217
283
-78
-15
77
127
116
77
109
247
-171
-34
20
-212
-90
-151
246
-122
88
105
56
31
-120
1
57
-98
-242
-71
-192
-44
2
56
140
120
-107
232
-322
294
-39
116
-177
7
18
29
78
154
-153
-53
-111
