-9
-228
-262
248
-762
4
-341
-452
-82
86
6
-362
-9
-280
37
-276
-207
-152
81
-468
-622
190
-358
-774
-79
-597
-356
159
214
-193
-142
-156
-469
267
-221
-107
213
-446
-448
571
57
168
-280
-385
-106
236
12
120
-198
-84
355
43
-592
449
-293
-161
-197
275
-182
-33
46
-330
-15
99
-198
-310
-89
-2
-118
108
316
-255
76
-4
-342
-9
94
-327
-141
-294
27
-266
-266
-513
-84
202
-80
-167
-235
-253
21
267
-1118
-15
-251
13
-462
139
-100
43
-308
-259
-133
26
-254
-138
32
17
-6
-176
171
-223
365
209
-99
-177
-260
-58
183
-423
73
171
-45
-270
-270
219
-1
-428
-37
-46
-85
-422
102
101
-29
134
-64
-225
150
103
-27
-111
-169
-177
-182
481
-24
-122
-52
-578
-260
-455
38
-198
-187
-292
-351
-584
-311
128
-207
188
-72
-308
-174
-356
-460
-15
693
134
79
-107
-122
-621
-192
-497
-191
-496
-463
-70
-45
-199
35
-451
-267
-15
-633
-407
-355
-264
-39
291
-615
-12
-273
-385
-84
-544
-186
16
329
-222
-308
-294
115
-440
-320
86
-249
-221
-9
52
-217
-369
-285
11
163
-37
-350
99
-18
-490
-51
-191
112
-421
-260
197
-278
-8
-199
-81
-249
-100
-83
-412
-97
54
-125
261
-151
-325
82
-301
-152
-126
128
-275
298
407
-200
-740
-182
-83
-65
63
345
-72
-206
-14
-243
120
-348
-165
-24
-24
15
-159
-308
-170
-213
-185
-61
-314
-28
-353
13
179
93
175
-392
-195
-58
276
311
-298
-512
-601
-321
-60
-363
111
155
-149
-509
-16
-128
-772
-175
-70
-89
-355
167
-246
-756
-106
10
-65
1652
-63
3
16
-344
-127
-23
-257
-341
-188
13
-185
179
-304
-409
477
-18
-382
16
48
-86
65
-53
-81
-214
-534
-56
-235
-8
128
-125
-127
-122
-287
-371
-20
-101
-111
-313
70
180
291
124
-250
-310
-72
-198
35
-329
-239
-160
-256
-257
-185
-134
-261
-319
46
-28
-351
130
38
61
23
-340
38
225
-231
-159
23
149
-370
-92
-1616
-293
247
-290
-3
424
-341
23
39
-236
-226
-462
19
-294
-30
189
177
-241
-26
19
196
-393
76
47
167
-328
-22
-446
119
109
-70
-251
-258
130
-197
-83
-133
-346
-91
71
203
-205
-108
207
-426
-301
202
241
-350
-235
233
248
-510
156
-463
248
-125
241
61
-283
-288
-298
118
-165
58
235
-275
-12
267
-146
-169
-530
204
-519
-170
-8
-387
53
45
-223
207
23
-522
-536
146
6
-90
-146
-165
-255
102
-13
-123
-83
-31
91
-322
237
2
-299
-367
77
-155
-48
-84
-289
-427
248
-41
-58
-218
-312
-168
-38
35
-131
-219
-58
-210
-259
-273
-108
-91
-121
-121
63
-79
144
-210
39
-130
-103
64
9
-661
87
-79
377
-263
131
-615
-380
82
-49
-21
-159
-30
-319
-392
-43
77
-76
-56
-257
98
-93
-148
-241
533
-188
-118
108
-148
88
759
267
25
-557
-444
47
91
-281
-343
-232
-50
-152
-220
-419
9
-3
210
-91
-215
135
-253
-325
83
-117
-13
-107
-256
-202
-11
58
-113
252
48
-505
-97
182
-230
-424
93
148
-169
-923
-141
15
-307
-215
-15
-338
-222
-328
-137
-335
-163
-330
-183
-215
-180
111
-441
-426
-425
-407
-291
-313
-134
-147
130
-26
-184
210
-198
29
-87
-94
31
-282
-115
-485
-307
-57
-361
-642
94
-282
-163
-488
-366
-253
-626
-217
-240
-137
-322
-383
-466
17
-351
-345
-59
-77
188
-258
-120
-70
-151
-91
-475
-316
-338
145
-53
-207
-140
47
-44
-339
-162
-408
80
-259
30
-398
-365
-344
-312
-172
-274
75
-150
-309
117
-736
-469
-618
-55
-233
-76
-630
-95
200
6
-387
-59
131
-194
17
-210
-244
-192
-149
-203
202
-119
-268
103
-377
-69
18
-77
-302
-84
-498
-369
-289
-471
-157
-245
-244
-421
-151
-464
-95
-375
-134
-101
97
127
-61
-154
-340
-78
-75
-72
123
-212
-124
-420
-388
-465
-732
-111
-178
-309
-25
-185
-181
-143
-208
-63
-47
-289
50
-54
-401
-199
-171
157
23
-385
212
84
235
-414
113
-167
-220
-342
-208
232
120
-137
-171
-239
