-56
102
169
84
1230
240
-107
-134
-60
-86
160
164
6
362
-101
-320
-46
31
51
-49
-393
-161
104
68
-67
237
188
-243
473
-27
-269
-81
152
-111
-309
-152
235
170
-281
169
247
31
-116
-81
107
140
-232
87
-531
341
373
116
-78
-56
-191
-17
86
-24
-205
-64
86
-91
-54
145
15
-15
58
-28
14
-20
19
-26
29
1
-24
26
-55
2
-11
12
23
35
-37
-6
-7
29
-7
-18
-45
39
27
-19
25
-42
4
12
-116
61
-47
93
-2
-1
-63
40
44
38
-44
-35
15
35
7
96
-44
-39
74
9
-120
-28
10
33
45
-5
-31
11
73
-48
-18
48
42
54
28
3
-78
34
15
-18
-17
55
4
-3
-51
-73
-40
-60
-17
-35
20
60
34
-4
-16
-5
29
-138
-27
-23
-19
51
-61
52
-25
-7
-33
-8
49
-9
-3
19
50
-122
96
3
-91
-8
62
49
27
-46
16
-6
-5
-13
-20
-58
38
-155
10
8
-5
22
-39
-160
29
29
31
59
-59
-69
5
28
16
-15
-11
-34
9
61
20
-33
9
-26
-80
-11
30
-46
19
-33
-30
3
-18
-37
-68
16
-30
-3
78
48
-3
-17
-30
2
-8
60
-7
11
45
40
21
-19
-49
37
-47
-7
7
-7
25
64
52
-15
-2
-30
49
23
-2
71
9
32
109
134
30
-12
0
-24
28
37
11
-93
54
9
-24
20
25
50
-7
-27
-97
-27
168
-61
-59
-32
11
78
29
24
-26
44
-23
-21
-12
-41
-8
-23
19
18
6
20
-21
1
-87
18
57
2
25
54
19
45
4
-75
120
-65
-16
71
56
28
23
-1
-7
6
30
71
-36
58
3
63
12
7
26
-38
-30
8
-29
-84
-72
-135
61
121
1
-13
4
7
19
19
42
126
32
-53
-32
31
64
42
37
-10
-11
35
-9
19
-53
70
46
-12
36
-5
3
-44
-14
-26
-36
-36
20
22
-43
-4
24
31
72
-20
-11
-72
-62
33
-24
16
29
37
-103
-6
115
139
48
-25
-103
87
56
-81
168
-61
61
172
-50
-176
13
254
34
-37
17
-8
155
-30
59
-22
-124
-76
-114
-280
-119
89
60
36
-239
221
-94
-238
153
-14
89
90
-10
-153
72
287
95
22
229
173
-158
26
195
-246
148
207
51
46
-73
61
214
-190
123
-42
-71
-18
-21
-59
15
-13
-24
-37
-103
22
-33
-37
53
-53
-60
14
0
19
-77
-13
-38
70
-13
-53
-28
20
-48
-49
20
12
2
0
20
-14
2
-12
-43
18
-42
22
-36
25
14
-29
24
-5
33
24
61
19
-2
25
-10
43
44
-27
16
12
-12
37
61
-10
-30
4
9
-13
-7
-3
11
18
25
-35
-34
9
5
2
41
-33
2
-21
-68
-4
10
-40
12
-37
16
55
24
3
-4
9
-19
5
-82
-10
-27
45
-20
-26
-11
-10
-62
95
-5
14
-9
-85
25
-21
-79
25
-72
-51
15
34
-33
-8
-98
1
-7
8
-62
-8
37
-62
-50
-56
246
248
123
-13
-277
228
168
408
109
-136
259
511
1019
-333
124
-99
-111
95
-304
174
202
164
-119
10
4
187
256
514
-178
-56
-127
187
164
-237
312
-219
-221
192
210
-313
520
143
-85
57
-398
-579
122
-299
-74
-112
255
-248
414
-22
223
0
176
-37
24
386
-215
-9
-136
-123
7
-47
9
29
-21
11
17
42
33
-6
31
-23
47
-28
2
-14
-17
-18
-31
10
-36
-6
-30
50
237
89
66
1
22
-14
-8
7
-6
82
108
-9
-34
46
-32
-23
20
-72
33
36
5
-5
27
-74
-18
17
-75
-23
-41
-32
-42
5
-15
-12
-27
-24
33
8
-107
-24
10
-28
-28
4
26
-18
-23
-3
-5
39
31
-13
-93
-54
-33
-15
19
32
44
96
36
22
-9
-33
-37
0
51
-5
39
-33
-27
54
-15
8
29
-24
25
-25
-40
-10
14
31
43
6
-26
11
-1
-46
22
-57
-20
-74
-11
9
30
-26
13
6
11
10
32
44
-35
-54
