59
-221
-258
20
102
-299
-122
20
-57
-123
166
-3
119
-115
82
-425
-291
-312
106
-113
-324
97
-253
-218
51
-160
141
-115
161
-232
7
-52
-342
223
1
106
2
228
-132
-19
108
77
87
-125
174
-6
-31
-171
255
-49
214
-59
-398
14
191
-66
-162
166
36
302
-78
37
90
-344
-121
-38
77
-58
-40
194
97
-250
-64
192
-327
464
258
-347
-282
-223
-258
100
5
-210
-233
-25
15
44
35
148
-1
122
-633
-143
182
27
58
9
-139
62
89
-40
-351
260
-8
30
34
-88
346
-43
16
225
28
22
90
-101
-15
207
-138
-287
-110
269
65
-423
-195
96
-10
-66
146
362
23
-48
-308
-316
69
57
-441
-116
-92
-409
82
-17
-93
21
-252
213
-47
210
-39
-195
393
92
58
27
97
-137
-137
-152
-72
-355
-131
8
81
209
-10
74
-247
20
312
3
-129
120
148
-9
-58
-143
-116
106
248
171
-21
-93
113
-5
-32
223
-171
115
-425
33
112
484
-252
168
-155
-487
-169
-420
-198
235
292
-279
-63
396
96
241
177
-193
-36
-136
-198
210
36
-256
-68
-29
424
234
-248
278
119
-158
-156
-314
-43
-379
-110
285
-265
105
277
-64
-224
261
10
-104
-192
242
-378
159
-123
-332
471
83
276
-57
-240
229
196
-110
44
-786
-238
-118
-455
312
141
126
-355
134
158
158
14
80
-17
422
-105
133
-116
88
7
-38
-109
-206
-26
-238
-175
9
-315
170
108
-153
-77
360
77
-144
-79
263
141
139
-318
-446
7
42
-166
-86
-113
-114
-222
-118
-65
2
-29
47
-804
302
-37
-61
4978
128
162
83
-16
30
-204
-251
-145
-104
103
-120
-26
-208
-261
451
35
84
-226
177
-46
204
-157
-128
4
-192
343
45
-174
96
80
196
-253
-75
-436
17
79
180
39
156
-90
-18
153
240
23
191
-68
51
-109
-338
216
-121
282
-130
-83
-161
-165
-105
-205
-309
-147
-3
116
251
-26
90
-139
-131
81
48
285
-3
-150
930
36
126
58
-93
237
69
-150
188
117
-49
-215
55
-214
85
192
91
-154
-67
302
7
-438
-31
270
56
-111
-45
-21
63
71
82
96
81
107
-117
-62
274
43
-204
-44
282
-162
254
88
-210
-115
63
335
-54
255
122
293
-232
-86
-109
-229
181
35
-223
112
29
-32
392
-120
0
12
-71
265
-145
-224
184
-108
149
-33
-105
180
-39
218
30
-84
437
13
48
148
-308
-109
281
25
117
98
-160
55
-116
-33
220
-118
-24
130
220
160
-22
118
59
42
-8
-226
-198
104
-179
280
4
-9
88
84
-108
-57
94
-325
-70
8
-340
-15
215
70
-142
83
37
197
-105
87
-39
355
182
237
-504
91
27
41
379
13
-68
-31
180
42
208
186
108
-98
-276
-4
97
-99
-277
-24
301
-301
192
-209
174
-116
-45
-10
144
30
229
-22
10
-177
12
146
175
174
1
266
134
-117
-164
-82
113
66
110
9
118
-118
-41
-15
196
-131
86
-86
222
-296
-34
106
-322
-37
392
127
48
229
-314
-108
256
235
125
-312
99
-56
11
124
150
-28
125
-66
54
-190
66
123
-60
-200
33
67
-170
-20
-145
73
68
-108
-31
56
211
145
85
217
184
97
11
125
212
-299
237
66
-3
170
42
-264
-337
-348
146
-140
-177
-134
-435
25
-46
-179
46
-484
123
-136
-133
-48
100
275
199
49
140
199
-272
-116
-16
-211
95
-123
191
-459
-140
-105
135
-84
161
-440
188
-42
-26
-47
104
-412
-206
-421
-52
267
-42
-123
265
-240
-474
121
18
-42
76
-171
136
53
44
-275
-112
58
100
-166
-126
270
145
93
-181
219
-75
201
63
103
-118
279
-98
-166
-207
-147
-55
-2
48
173
181
3
117
56
-242
-30
8
-59
161
35
-171
-179
133
-241
67
410
-42
84
96
-18
-80
-23
-140
-95
283
113
-235
63
134
149
-153
242
95
-184
-284
-4
-44
44
-326
-10
112
254
-92
229
205
-88
-175
131
204
35
91
-437
175
397
-129
73
-20
