607
507
-795
-1086
1342
-1092
1017
255
-300
88
50
1266
-1092
1655
-142
161
-683
-533
-555
1745
1638
-1549
736
918
-484
912
874
-745
-959
286
-375
566
662
-798
2
-420
-927
1188
1154
-1505
-219
-1254
-243
980
-178
-259
-642
-488
531
-291
-1230
409
954
-1170
34
-583
185
-1440
439
-810
-744
38
-1957
-1115
-102
539
355
-134
370
-524
-574
35
-805
-612
841
42
56
1019
126
779
-317
-227
233
1110
184
250
-930
969
371
171
71
-546
2759
-1022
406
-61
1323
-936
-208
-294
173
596
-188
-772
677
1399
-440
-121
484
893
-236
174
-1195
-1529
-598
-176
295
105
-690
1034
-438
-2414
-680
227
-453
-515
-267
519
-29
-1015
536
479
-177
-218
-705
-1231
-288
-153
-827
-1060
-23
369
79
124
59
-3702
-245
-418
-221
1159
-84
446
-497
324
367
-734
742
1484
698
-56
77
34
-592
220
206
953
503
-807
-3165
-181
-584
435
299
1516
383
1918
204
21
-613
330
-298
-18
-204
1444
891
-483
1304
594
933
-13
-334
-1892
835
-220
-82
411
127
839
-333
-370
-713
567
755
341
-333
660
505
-54
328
-124
300
-747
669
964
-2
-1320
-667
-267
1227
-81
-62
834
473
-175
3
716
627
-383
304
-190
496
-216
474
32
-26
625
226
546
-53
-335
143
-411
-291
-210
-435
40
-1118
343
-543
-1838
192
1074
-332
-281
-292
-332
-1135
-467
330
74
717
-880
766
-78
845
414
-286
162
520
47
102
120
119
-403
-694
617
-467
-889
-183
-1114
1169
631
292
-930
-535
-24
438
1187
622
-149
261
271
-864
78
938
288
-3
1478
-216
-490
-355
-223
-273
126
1206
1083
-965
-632
-8266
-573
-136
667
277
-760
125
-761
-162
-303
-124
-147
57
-296
343
-449
-87
719
-148
-224
-365
217
-175
-410
-399
812
-500
110
36
-345
-3
256
-251
354
265
-346
-255
2087
-267
-816
-520
-789
-104
761
-365
-506
-176
-295
-304
303
-997
207
337
-439
-523
79
441
-421
-22
229
-519
-318
-434
-324
401
-51
-898
-71
-110
-196
-970
-91
-89
-866
802
-962
-267
-24
-849
818
419
-965
43
123
685
78
748
-243
-310
-434
-146
181
-189
-611
51
-598
-228
-1583
759
-43
300
-374
-1178
-823
-61
-45
-402
556
23
-272
532
-437
-423
-1407
429
-850
-999
459
-5
-645
-692
47
-42
-477
-427
159
462
852
-1272
-482
-462
-685
220
222
341
-1236
60
-164
-1258
372
-444
-1019
-88
74
822
-1447
653
-207
-378
324
-96
-639
-116
-1277
189
1208
526
-954
-712
109
644
166
349
-967
-180
-250
-53
17
-338
-55
-710
-391
-108
407
-366
66
-721
28
787
694
-1242
-300
-231
-419
1000
-436
-609
74
-2416
307
-555
32
-88
117
127
91
-625
-586
-430
-127
-447
56
-45
-529
278
-57
-995
991
-790
758
-1094
602
-643
443
787
-745
-388
-211
465
72
438
131
-828
-561
258
-85
118
-72
-403
419
-82
-685
429
-644
-449
230
-300
-2509
-754
-941
351
695
-361
-1195
309
392
893
-498
528
616
580
-229
-499
-411
-521
-346
-231
85
245
-790
-67
-146
208
-72
137
522
137
162
-445
433
520
140
-567
-338
416
38
155
428
1611
-259
-378
-398
-75
-894
-53
-347
796
-57
462
66
552
419
510
185
-670
288
180
341
166
646
-88
-368
-543
-268
161
118
-468
198
-57
-194
151
351
98
-622
-200
-451
-310
318
1153
-491
-56
-371
154
975
-632
747
1178
76
354
47
294
970
-884
527
217
236
-90
-425
7
-422
-146
1044
-217
135
77
816
-666
-124
-463
-451
26
-553
65
-327
311
-480
131
-438
31
-195
259
-409
-82
758
-306
-715
260
-377
1035
229
425
-491
475
-346
965
-657
-46
-872
825
-473
-610
-17
-81
536
286
348
-608
947
-893
-385
252
-983
460
-71
-765
-160
24
273
1288
804
214
-35
-595
416
225
409
-956
165
40
798
474
569
-547
-858
7
-412
461
-90
-130
124
-913
396
-1112
580
382
456
891
174
968
-205
-650
-425
-663
48
367
-682
242
514
-296
-678
442
-39
-129
-803
-268
353
-413
184
-1895
722
-470
-88
96
638
145
-1040
-181
-18
-450
-34
