400
1
-53
-1084
925
-1213
1016
483
-114
-286
-130
1273
-1089
848
-298
-41
-557
-524
-260
1669
1586
-1169
613
907
-232
1156
679
-454
-1009
219
-258
715
647
-530
84
-544
-999
1034
798
-971
-173
-874
-109
916
-114
-425
-717
-574
429
-239
-1234
-26
1001
-1200
353
-185
247
-1302
684
-361
-481
-117
-1264
-1132
1
613
69
-232
1
-696
-1043
317
-921
-534
823
378
-56
674
394
552
-17
-128
681
728
181
-125
-1035
523
142
357
-353
-108
2649
-541
494
-272
1266
-713
-239
-207
630
714
193
-436
513
-40
-613
-613
410
196
116
209
-1060
-986
-322
-45
-165
117
-391
693
-372
-1948
-635
-84
67
-678
-330
495
57
-57
146
506
-757
-211
-565
-917
-129
405
-745
-884
-117
156
-347
376
-74
-2948
-39
-13
-324
1438
-38
583
-664
412
477
-250
767
1338
426
-219
-62
-259
-511
203
-141
704
429
-942
-3693
-228
-372
371
-44
1763
271
1125
-174
-61
-111
685
-463
195
-345
990
756
-275
909
630
544
122
-148
-1467
829
-184
246
378
-279
770
-288
-584
-686
683
364
261
-398
494
358
74
468
-306
3
-611
614
902
-255
-421
-867
-280
1406
-704
-30
602
-2
68
0
1353
775
-521
521
-146
729
113
678
-67
-34
687
-27
50
-316
-810
-117
294
-575
-45
103
-673
-795
399
-763
-2068
153
1078
-370
-266
-96
-656
-1110
-636
212
280
516
-530
832
475
796
-96
-224
289
478
-11
23
99
9
132
-868
404
-717
-910
-390
-734
606
116
24
-759
-1226
-109
511
1158
406
31
124
-310
-481
-252
732
156
-185
1353
123
-39
-700
-90
-394
556
1254
747
-1348
-495
-6195
-121
-239
1051
195
-226
123
103
128
165
-358
836
-489
2
560
-893
-35
796
153
-283
-207
217
-337
-293
326
1038
-651
234
-263
-609
15
127
-328
325
603
-174
-62
1136
-38
-791
-694
-1095
-448
988
-233
840
-173
-459
-274
359
-517
494
408
-415
187
342
216
-630
-196
409
-570
-742
-404
13
323
336
-964
-226
-242
-452
-909
-205
-296
-3564
599
-1370
56
-191
-698
707
-430
-430
307
115
579
-223
423
-184
-529
-1114
165
-327
-254
-275
94
-1041
-27
-1440
468
68
276
-605
-600
-835
25
377
-19
345
-125
102
76
103
-291
-955
841
-185
-1203
406
-249
-448
-910
737
94
-668
-702
418
90
860
-1082
-875
-391
-614
32
-59
120
-361
92
-385
-958
489
-48
-1189
-234
8
830
-1057
136
-279
-104
464
-353
-684
221
-1294
315
956
423
-296
-1003
-154
455
148
-132
-835
-208
-462
-279
-192
-78
151
-475
-300
608
1056
-444
-76
-61
177
285
372
-1157
-15
20
111
852
92
-318
-68
-289
256
-118
307
37
180
75
-185
-437
-87
-545
219
-443
-163
-210
-355
71
-85
-1015
766
-389
-88
-1048
262
-568
752
449
-485
-780
-456
422
13
300
354
-851
-420
-80
-185
-52
-197
-163
478
-67
-1262
119
-689
-406
43
-328
-2492
-440
-381
733
798
19
-801
602
408
559
-763
434
153
474
-160
-713
-383
-841
-278
-377
194
262
-613
132
-389
104
-28
368
175
-396
56
-500
-645
730
-340
-681
-38
606
-160
-116
187
1592
-257
-459
-191
504
-223
223
25
500
-13
391
459
627
139
287
339
-817
56
433
307
120
558
-5
-443
-7
-312
-186
-200
-375
222
-483
-18
-312
369
611
-318
93
241
-252
801
1288
-994
146
200
586
1000
-403
1016
381
132
302
236
397
716
-722
442
195
-144
-396
-517
492
-315
-436
686
-204
422
427
622
-1250
-287
-121
-138
-59
-401
290
-170
121
-719
110
-305
46
77
515
104
-22
199
-507
-476
164
-614
877
405
783
-428
56
-378
1009
-399
-422
-570
730
-329
-473
250
-31
686
414
501
-617
828
-827
-427
-169
-538
348
-132
-329
344
114
434
916
586
338
512
-994
330
421
360
-881
391
164
478
172
248
-415
-373
-256
-336
385
-126
-58
-71
-458
137
-344
809
351
369
803
279
906
345
-244
-47
-301
144
405
-607
-110
710
-430
-240
487
-243
190
-854
-145
209
-566
350
-1634
732
-7
307
519
552
168
-699
-514
125
-311
170
