-7
-12
-33
7
21
28
26
90
-4
32
77
-3
-19
-20
77
-243
15
216
26
86
-6
-48
-45
15
50
17
-29
-29
12
-3
-28
27
-1
-82
-29
21
18
5
-6
45
27
2
3
31
150
13
34
20
-33
38
15
-25
-7
41
-28
-37
65
-36
-279
75
-30
4
2
-287
37
-26
150
335
21
-15
91
137
127
39
-77
-101
-50
318
-20
-56
18
-332
175
-319
17
103
-67
3
237
110
74
-389
40
-77
-112
162
65
-47
-23
163
-60
-21
164
195
-125
184
74
-269
69
143
500
122
37
46
141
-78
30
-3
105
142
-56
72
-16
157
154
119
114
-78
-73
20
66
-105
-132
-43
56
-5
-138
34
-44
38
-48
154
85
-113
96
-21
36
-53
-13
5
150
112
94
-31
-26
29
-95
89
13
73
97
74
3
60
-95
40
72
-23
-91
45
-58
74
-21
-41
-4
65
-26
27
65
1
-39
-10
-33
-28
-13
65
90
22
77
0
26
-3
5
31
41
15
-196
-160
-22
-97
14
1
29
19
-34
70
-86
98
264
-52
-25
-277
-25
-52
-18
23
-136
-6
-186
-56
33
-37
2
30
24
-22
6
-16
302
-7
-9
-95
41
-81
-66
-49
-1
50
27
-3
-39
91
-74
-14
16
33
-94
33
-18
-149
53
-33
-12
105
8
62
12
6
-22
-39
-8
-15
10
-12
25
72
28
-48
5
96
-48
24
34
12
-32
11
-31
7
48
12
28
-39
-86
-57
-5
3
94
-47
-17
24
234
-53
6
1
-112
-7
-2
12
-19
28
25
37
-2
86
43
38
-12
31
28
-15
31
2
37
23
32
-21
31
-8
-16
-25
-33
-18
-74
6
37
15
-104
-63
-28
21
73
-9
-98
-19
14
51
-19
-19
37
-5
9
-40
-10
38
17
27
64
35
-139
36
-15
-19
-15
-51
68
-8
-36
-17
42
-64
31
-3
-37
-159
41
-22
-3
-28
16
23
72
34
47
5
-53
14
-13
10
16
1
-6
-54
34
-236
-90
-35
14
-53
167
-6
-73
24
-53
17
-14
329
-44
-299
-88
3
-256
5
107
-18
34
54
181
-48
45
-88
-211
-27
-38
87
-89
-63
344
62
-8
116
-19
7
88
57
-71
263
-25
-28
4
18
-85
13
-25
-19
13
55
211
118
222
101
-400
91
-58
58
98
3
-1
-377
42
40
235
101
11
-69
-1
-32
-41
-110
41
17
55
-323
-87
-5
127
-29
-42
-29
94
-264
-15
-204
51
-66
-188
118
-23
65
52
73
112
16
-24
281
51
-82
-179
-205
-25
293
39
19
78
-175
67
171
162
66
-121
-17
185
-23
-126
-11
-70
40
27
-95
-31
-101
-49
-7
-129
-93
-12
-41
-75
-75
-329
-17
-58
-36
30
-17
-29
-47
-161
-15
-206
68
56
7
-103
-126
-45
8
18
5
36
5
99
11
23
88
-15
-32
-99
-207
-12
-34
-44
46
107
-47
-13
-26
-89
-178
-85
-4
100
-13
-28
-220
60
-22
23
-80
-47
65
-163
46
8
97
-16
-51
1
-41
-17
-18
108
-21
-89
5
8
-56
17
-18
-38
-6
-75
-22
-9
-19
41
-73
-60
-91
20
212
123
-53
16
65
-38
10
86
-8
28
25
-75
-43
-52
-52
-19
-13
-48
-15
-58
21
2
57
21
66
-18
-17
-23
-37
-41
-1
45
8
-40
8
-106
-51
-39
4
80
39
-16
-16
-140
65
-88
102
23
-79
-118
-134
-31
-92
-21
-12
46
27
21
84
-103
40
-49
21
10
-5
15
-33
-32
-28
13
-282
83
-65
104
-70
33
108
0
8
3
-13
120
51
4
4
-36
-25
201
-36
154
81
-8
11
-7
-146
20
-35
13
36
-117
-46
48
38
-66
-318
-62
-40
25
-2
-21
-3
3
15
12
8
3
25
41
27
-8
-9
3
-8
39
-21
-19
5
-144
31
12
-16
-42
-16
98
7
12
-6
15
34
-116
31
16
7
-10
-13
30
-142
31
-10
44
0
32
-16
-41
-11
-43
-10
136
1
21
-34
-23
-151
-40
10
-10
-17
-241
-2
