7
52
-13
-12
-27
-47
205
29
-16
-27
1
-74
-39
-20
45
-53
-29
-50
-55
61
44
-5
19
-74
15
-12
-48
42
-28
50
44
18
-43
28
64
17
68
15
-23
12
57
23
6
-6
94
1
-24
61
16
11
-11
93
38
38
-3
14
-27
8
-33
-2
23
47
-41
4
178
-13
-67
37
24
-9
-17
-5
162
-11
-107
-12
177
-105
8
119
-40
-70
46
-145
54
-23
15
-67
100
65
58
-124
-1
97
-116
-59
-16
-64
-108
37
188
-146
-52
-122
1
-108
17
56
-85
124
-45
153
-41
-178
-23
3
168
423
151
116
199
-8
-89
188
151
-69
-91
-79
30
2
4
-45
18
-13
11
-2
5
-31
33
-22
21
15
-13
17
-12
2
-28
25
-43
-7
9
20
78
-8
55
-7
-33
32
-6
20
-4
7
-61
53
39
8
-34
-17
16
-27
-28
-25
15
51
27
-16
-13
23
-34
-27
6
-18
29
-2
8
-16
-47
-21
-8
-12
7
-15
75
12
18
-38
18
16
37
-11
20
-28
10
8
-6
-37
12
-18
37
-43
1
22
-12
-27
19
-18
0
-62
17
56
-51
-15
-25
21
-6
53
-58
33
2
-33
-1
5
46
4
7
-1
-31
21
-4
14
18
-19
26
-53
-9
-51
-1
-7
31
0
-16
-65
27
-17
9
4
189
-97
104
117
115
-135
-197
203
-85
-141
238
-233
-67
-5
-92
179
67
70
-48
-38
57
-34
-20
-70
-23
-125
-14
-172
79
-74
-206
288
96
1
29
302
79
173
-390
113
126
-270
-27
-52
-113
-13
-5
-47
172
-140
-114
197
-125
54
46
-380
86
-267
-26
118
143
-51
107
58
18
-18
14
10
7
17
33
-30
6
-9
38
11
-7
-34
11
18
-3
13
-16
-30
-22
66
-15
-15
48
2
-19
48
-1
21
35
-14
13
12
-64
-41
0
64
18
-2
-48
-21
9
24
-30
-76
36
24
-40
-68
12
-75
-27
-11
29
33
-19
-7
62
-165
5
4
-87
2
-985
1
122
41
135
16
-333
33
7
-64
135
-67
-47
35
-65
-723
-9
48
93
62
-74
-5
163
15
35
25
5
-12
-93
230
61
124
65
-6
-8
-37
-254
513
-111
-78
49
11
-40
96
-11
108
-61
-11
19
128
-41
247
51
-70
144
-194
10
63
-39
18
-18
-136
-170
-83
-12
51
31
-6
-73
10
-11
-18
-66
46
28
56
-72
33
10
-79
-13
6
-68
-23
35
-4
-39
35
52
-5
10
-28
36
90
-12
24
8
31
-48
-9
54
9
13
10
58
13
8
19
32
7
-18
13
-50
-79
9
-41
-23
-8
-6
35
18
-2
-43
-28
-12
-20
17
18
-4
-6
-42
-1
30
22
-15
9
-38
-21
-3
36
7
10
8
-28
-51
-17
-18
14
20
-49
-66
-22
-8
107
50
16
-28
35
4
23
-14
-12
6
-14
-19
-5
16
13
17
13
-62
34
56
17
-25
28
21
17
-10
0
-104
26
86
-7
-1
-23
-50
32
-30
48
-5
37
-5
53
-16
-10
-25
-34
-50
-13
-16
-8
1
25
33
10
-16
9
19
14
-78
-11
-6
99
48
9
14
-38
94
-36
34
-152
20
58
-14
36
-12
22
7
25
-13
84
-1
24
-20
-26
11
27
36
-49
24
-24
-8
-12
-10
14
8
-2
13
15
-21
-19
20
-9
-22
-1
-21
-46
-77
-18
23
52
73
46
23
-38
-3
-33
2
-27
-2
-20
55
24
-15
7
-5
-49
4
-3
-35
-15
-27
-8
-1
-14
83
-26
29
40
-30
15
14
40
10
-18
41
-12
-2
47
-39
17
46
86
64
36
-99
27
-42
-13
-46
11
-60
47
-70
-5
13
45
56
8
33
77
-48
30
-103
26
-34
4
-72
-57
-114
-41
100
132
39
-53
-41
74
161
95
83
-32
45
-37
27
-126
-31
-20
-113
-25
-85
-29
-40
35
-8
120
11
-93
93
37
-30
-19
123
-5
-178
-63
20
-55
107
-243
-117
5
-131
-7
0
95
-5
-50
49
-77
-71
-59
66
40
