59
11
-75
5
-51
16
-10
-46
69
72
-3
14
45
49
41
-34
-22
-60
-101
-43
18
-41
-23
54
-52
-13
24
21
-29
-74
-46
-86
-14
-32
-11
-92
-32
-49
93
103
98
-73
-40
82
-86
48
20
87
-43
-83
62
-75
-4
22
44
-4
83
88
-48
-41
62
94
9
-38
4
-73
-38
-39
-11
-123
-95
-60
-25
-23
-4
-39
46
-7
64
-50
-228
-34
-72
4
15
19
16
-50
83
-39
67
25
-56
11
-138
-17
42
-55
-31
49
76
-114
-26
38
72
-69
-3
-13
-3
-4
99
5
-22
-69
-28
-21
93
-2
-12
-104
-14
17
8
-35
60
54
31
-58
-14
-115
-116
70
-87
155
-874
50
-71
-205
-153
39
60
51
296
-23
20
14
-56
154
56
-264
-168
-164
220
62
124
187
-32
-19
-32
-135
13
-211
110
-40
201
-111
-106
193
-237
70
57
-236
-86
154
-56
-17
128
-227
111
90
182
-139
-12
175
187
9
244
194
-51
490
-45
-63
65
-34
-23
16
-18
5
4
7
16
-12
-2
9
20
-3
-22
-17
2
5
13
-47
-72
-44
-4
-12
41
-31
-17
39
-30
23
-8
2
26
-40
-4
31
-10
-34
7
-3
25
-70
53
-5
-6
-12
-39
41
-13
0
-19
-52
-5
42
15
-30
27
-4
-16
-10
29
-29
-8
-2
-44
30
30
55
39
150
-18
-77
-56
-41
-25
46
35
-14
-35
-58
-64
-59
1
93
-10
-3
-38
-1
-7
7
50
-2
127
-56
-86
-99
38
55
-41
-6
-59
6
41
-68
-66
-18
13
71
-47
-3
-132
-46
10
118
32
-67
100
71
-30
-16
-63
-34
13
37
-34
30
45
-66
95
-95
-35
177
-140
-53
37
-104
-23
-26
145
-614
60
-24
39
-70
411
-12
-35
-22
-17
107
66
-18
230
119
38
-236
-18
-26
125
72
251
174
-31
-53
113
80
-62
-109
-164
54
-72
-61
16
46
-88
68
-177
120
97
77
98
-241
41
-10
-24
150
8
102
-6
176
-57
72
49
170
32
91
-31
-140
-124
-49
57
175
-161
75
104
-4
-18
23
114
-72
-922
261
-27
-169
-37
-54
127
-186
120
-4
-113
14
31
101
129
-4
-101
102
-33
126
-145
95
-38
-87
149
-10
-161
-115
-120
-44
97
40
42
31
-30
-44
67
-195
218
11
8
-17
-170
-248
60
85
14
-53
37
13
-40
23
1
-7
27
70
22
23
27
83
-41
-24
2
-24
-42
-4
6
-2
54
19
-56
23
39
-53
47
48
53
60
42
-18
-15
27
-31
76
-2
-22
46
33
5
-6
17
-33
-17
15
14
24
-32
-34
6
-21
8
-5
-16
61
-7
-31
-40
-12
26
3
33
78
0
4
71
-95
64
21
73
-7
-18
-38
33
109
-32
-59
0
45
79
-10
39
-16
-36
7
73
8
13
6
3
55
-3
-10
-6
34
8
6
-47
44
17
-39
-48
-41
27
17
34
-47
-102
-12
-44
5
20
22
-2
-12
1
-25
52
-51
-4
-8
-3
58
2
28
-20
-14
18
-11
27
28
-26
21
-26
-48
60
63
42
63
34
-34
-6
-47
-71
67
23
-40
-84
-20
-27
-115
0
16
43
49
-23
-9
48
-53
-5
-62
-2
4
-43
-18
-75
52
-11
-69
13
27
20
17
-83
-28
-41
51
3
92
-8
42
-15
-44
38
21
72
67
-25
-53
0
11
22
22
-89
-59
-21
94
9
2
5
-69
-39
24
7
33
87
-56
-40
-29
-45
-37
10
-21
5
46
-14
-10
-29
-6
23
-39
-18
13
-63
-60
-36
-33
-9
11
45
-25
-49
-20
-8
-1
-10
-37
-57
-66
-71
-40
16
32
-37
-8
-9
2
-13
60
-12
-52
19
-16
159
16
-4
-43
-79
44
-23
-38
74
32
-19
77
26
-99
17
-54
-36
1
-51
15
56
-5
8
-61
-66
-6
110
13
36
40
42
-74
93
-55
-16
79
101
27
65
114
0
-77
-94
-17
-63
-45
-126
-34
37
112
-33
124
-134
-36
38
-15
65
-45
95
59
-9
-38
-28
28
