348
580
-350
-769
865
-999
1122
676
134
451
-87
981
-745
1241
-22
-59
-461
-1191
-224
2119
857
-1508
820
414
-719
917
488
-739
-821
402
-156
162
848
-812
494
-308
-580
285
516
-1301
95
-744
-66
482
-433
-813
-250
-292
391
-65
-1700
347
1733
-1803
449
-1310
-307
-1321
177
-1046
-387
-58
-2021
-1743
-296
253
-237
-191
95
-385
-256
149
-1504
-1242
924
534
135
948
175
106
44
206
216
333
248
61
-763
567
137
364
-128
-363
2226
-580
365
-196
1099
-807
89
-128
-147
629
-166
-306
525
162
-1200
140
452
8
52
79
-1958
-1050
-215
-84
379
502
95
423
-926
-5225
-626
429
289
-334
-474
324
511
12
-84
740
-327
192
-219
-690
-928
-725
-1050
-1704
-214
-18
63
74
25
-3954
-289
-459
309
358
453
327
-524
340
192
298
1129
1068
735
189
-45
14
-216
265
63
273
3
-1229
-3991
35
-305
399
173
1461
675
1921
-149
216
153
57
-219
-221
308
975
506
368
1213
973
443
-339
-817
-1088
1506
-310
-341
230
-307
320
-121
-88
-498
892
301
1139
97
297
776
-221
26
-114
417
-489
786
296
-209
-495
-1665
-215
663
103
-277
1083
784
-797
438
64
-85
-38
-161
-44
720
-165
916
-188
238
571
173
110
-192
-225
-710
194
171
303
360
-659
-844
-85
-117
-1465
520
1114
-257
-351
-260
-614
-695
-823
-4
21
688
-345
881
366
1220
515
-153
266
438
55
407
40
-160
-414
-827
-149
-152
-819
-510
-244
270
433
-39
-494
-571
-336
447
907
1015
160
217
55
-606
-73
540
-46
-1334
1824
-280
-491
303
-800
-240
503
1088
868
-569
-641
-10085
-519
55
990
-311
-466
77
-164
316
209
-253
1123
-220
-258
18
-297
82
573
121
-72
-266
152
-917
-1634
-361
754
-223
-183
-34
-125
419
1164
-483
759
-297
257
-1070
1341
205
-899
-275
-1592
-346
1115
-272
-317
-241
-831
-527
-323
-612
-54
613
-393
-408
210
-299
-365
-319
-71
8
223
-974
193
439
365
-1102
-80
-40
-355
-166
-55
-239
-1624
649
-1299
113
-163
-1102
540
77
-598
-555
-253
843
-121
330
230
-454
-548
70
110
60
62
-314
-709
381
-844
504
-109
84
-225
-965
-392
365
557
-214
-481
246
527
228
122
-400
-998
663
-267
-441
106
37
-79
-347
0
569
35
-298
-249
256
834
-899
-325
-498
-991
505
-83
-373
-1797
209
303
-991
64
195
-662
-562
356
1015
-933
503
76
-11
282
-393
-559
544
-259
57
1063
652
-1078
-1253
442
98
348
212
-276
-286
-86
15
246
-795
-156
-647
-484
-400
485
7
-221
52
429
80
1186
-1078
-197
81
-543
606
-348
-1129
-953
-2889
-53
-307
116
-263
285
131
242
619
-615
397
-326
-990
347
189
-466
932
305
-985
816
-854
-429
-1114
-128
-16
433
282
-391
-1036
-460
165
61
46
-328
-317
-1
482
-651
-106
-774
-683
469
381
-1318
656
-3290
-705
802
108
-2760
-910
-1014
981
614
-174
-609
166
528
413
-165
-165
1019
538
-551
-439
-1232
-744
-289
-131
-141
8
-300
-173
-237
945
324
-115
-370
-157
-109
-70
-1072
100
-30
-517
-703
928
-271
114
73
1693
205
-187
-263
324
-140
115
-264
369
-174
363
-195
526
-99
567
609
-624
203
-7
1193
133
1289
102
-243
-136
244
-200
-205
-533
70
248
-294
452
722
545
-461
-107
21
-302
358
1179
-882
-161
294
181
278
-839
666
359
-307
177
438
-250
1405
-898
179
543
-482
-229
234
841
-440
-157
632
109
178
-213
377
-3346
-298
-881
-419
-58
354
476
-586
381
-262
-11
-440
-180
-702
58
76
-1005
573
-52
-570
70
-421
1909
805
593
-446
-10
-161
1182
-331
-47
-506
432
-777
-555
249
569
503
237
451
-436
1250
-757
-398
-236
-748
477
-434
-1235
673
-336
30
816
94
531
93
-106
998
-452
293
-853
757
-419
212
86
-301
-693
-529
117
76
731
47
-208
-215
-725
402
-418
813
176
468
934
53
411
-34
-868
52
146
-90
727
-139
376
593
-371
-294
216
-139
426
-1097
-791
1232
-452
252
-1846
481
219
75
51
621
-126
-812
-279
100
39
32
