-71
37
-5
-29
-11
97
16
3
56
43
12
7
-26
28
-20
-35
-31
32
-1
10
36
-9
27
90
-34
-36
30
-36
55
-28
90
35
-25
-37
-2
34
-110
-42
-15
-4
69
5
6
-35
14
-26
-10
1
-7
53
20
2
-51
-3
-37
-26
9
8
-26
-7
-14
-10
43
-1
-47
13
17
3
-50
48
-7
-84
27
-19
65
-31
31
-28
73
-86
17
36
32
-57
-69
4
86
13
25
51
-8
-55
52
26
7
-39
-77
86
-45
-124
-10
-27
-30
-7
72
-30
-26
47
53
11
-12
39
68
31
17
28
13
125
-62
22
-28
41
46
38
-46
-35
-2
25
-117
-2
-21
48
1
26
-42
-84
27
-57
-17
-68
-84
-102
54
-47
-1
33
67
-67
2
-39
5
-30
-58
-9
-34
-25
92
-44
-49
-66
-59
48
-8
70
21
-71
23
5
34
12
-119
43
-32
21
29
87
13
114
-71
-2
-9
8
-16
-60
4
-15
-156
27
-117
-121
34
33
-16
12
113
104
1
-32
117
-6
60
20
-16
-67
5
-65
-210
-133
45
-29
-20
32
-36
27
128
44
-43
-59
194
9
-133
43
115
-74
-29
79
-135
-36
89
121
90
120
55
50
59
28
7
-81
-10
55
-48
19
-64
-106
-137
35
-137
-51
-10
-69
-61
19
72
-88
-307
-121
-71
43
26
44
-70
42
0
36
4
32
-2
0
17
89
-20
-71
20
75
-7
-59
-48
-8
-24
28
-50
22
-17
81
17
5
12
19
-60
-64
3
-29
52
-16
-60
-52
-43
0
27
-49
-49
-48
7
78
8
-18
14
21
8
-52
-1
25
-15
27
7
-78
38
19
-23
17
-7
11
-35
13
7
39
2
-36
15
10
27
-15
3
-50
-75
-31
-26
15
39
-19
26
-7
-63
15
38
16
19
24
9
-99
1
-18
-2
-23
-17
-52
-28
-51
-8
-12
33
32
1
32
79
-11
-12
4
-4
-1
-16
3
-4
-7
14
-12
29
42
0
40
31
-103
23
47
16
-29
15
201
249
-61
-161
101
-20
81
-70
40
205
-12
-23
104
-91
-69
-85
8
88
-107
-97
-10
-90
77
66
12
-137
246
-92
-164
-29
-55
-73
161
-112
-7
26
-270
30
7
-131
-323
225
-59
-44
52
-6
37
2
55
-70
44
43
156
18
79
-91
-53
-97
-166
124
-216
15
-31
3
36
0
3
-11
-7
68
13
-15
-26
-2
66
32
22
-25
4
56
2
40
-39
79
20
4
39
-12
-14
-32
38
-48
-10
7
11
10
8
39
18
58
16
14
53
-19
6
-11
-57
71
-59
-6
-20
14
-15
13
-28
24
28
-21
9
-15
-6
11
-1
-29
0
31
-1
-17
77
-33
13
-2
-141
6
-68
-139
-10
-16
16
-41
23
-89
69
-14
-3
-67
-45
171
29
-91
-18
31
9
-29
34
17
2
29
78
48
54
-14
-1
73
42
-1
-17
23
20
-12
-2
47
12
57
117
-1
-13
-141
136
44
-59
28
-51
23
41
227
37
-26
6
115
-68
56
-94
-2
-65
-28
-31
-80
-56
137
140
99
82
58
17
95
-61
104
-101
-39
20
20
101
-149
6
-88
-88
14
83
-32
-111
-115
13
-26
-91
55
147
180
81
-6
-2
51
-153
-73
18
90
-8
-32
-145
30
126
97
-38
-226
-69
-35
-71
-54
60
2
-2
0
-91
15
19
-27
25
-12
67
65
-11
-28
-17
-20
5
-41
86
200
-47
-15
-124
-25
61
102
-66
-159
23
-79
35
12
72
155
88
68
29
91
-2
-18
87
-19
2
30
-125
-72
6
77
-12
36
-31
38
-39
95
7
171
-78
-43
-45
-70
-20
-28
-38
-71
27
-200
-26
-54
59
60
-11
-176
323
112
-79
103
-4
231
-21
-121
50
28
-133
-83
-217
103
90
288
7
-45
-86
21
32
-21
10
-112
-184
-82
212
-32
0
17
138
134
23
-51
37
201
124
-54
69
-213
24
215
136
99
-87
-7
21
88
252
-88
15
-98
-141
68
140
42
11
-66
-128
-47
-37
