-33
21
6
1
28
22
11
-29
-11
-52
-50
26
-38
43
31
62
5
1
14
-18
11
-4
3
7
15
-4
28
31
-8
-9
-1
24
17
-39
12
-14
-17
-3
12
-31
-2
-9
-22
5
25
24
-45
38
-53
-41
1
30
40
1
-12
31
-15
32
18
21
-9
-13
35
-5
-12
-29
27
38
15
23
-2
16
-20
-41
55
-35
23
11
27
44
37
-17
13
5
0
-33
-46
-16
-8
49
-39
-3
42
27
19
-77
6
3
44
-18
-33
-21
0
-2
-71
-41
-31
-38
-41
-48
-14
12
-46
7
-28
7
20
23
-22
-17
26
74
19
-2
22
19
26
-12
-9
-40
-7
33
3
-3
-6
-42
21
7
44
-18
-26
-21
-60
18
34
3
-41
-53
-49
60
-35
36
4
0
-23
44
-3
17
-6
12
23
-4
26
-20
0
13
15
-10
22
17
-36
-3
-13
-30
-15
-6
-2
-2
-39
-5
-83
1
-18
-31
-32
12
28
-12
38
9
22
-52
27
0
31
-40
9
20
32
24
-46
-13
25
-49
10
64
11
15
19
10
5
-28
-4
5
50
-44
-14
-60
19
-46
23
21
0
2
3
26
12
-18
23
-48
-30
10
16
13
23
36
-8
16
59
12
70
1
9
49
-47
-6
26
-1
-14
9
-6
-30
-1
-26
-3
-19
-43
-26
26
56
-39
-15
-15
-11
27
-5
-39
-25
28
45
40
7
4
-67
13
48
3
-7
-28
-13
3
10
1
-8
-37
-18
37
-44
-33
43
23
-8
-13
52
17
3
1
36
-25
-2
2
24
-5
7
10
-43
-39
-38
-293
-32
-45
-10
22
-14
-7
-9
-15
17
-29
23
-23
4
19
32
-43
-19
17
58
-6
-27
-7
-17
2
7
-33
-5
-38
-14
-21
-1
14
-41
35
-4
11
-17
21
12
-26
-3
1
-34
13
14
6
-15
-13
37
-33
-20
27
-2
6
-1
-31
6
18
39
-7
34
21
-20
33
10
28
-8
48
-30
-2
-30
8
-58
-10
-6
-12
-20
-10
24
-60
15
55
41
4
-20
22
-53
1
17
9
-13
2
-23
42
7
3
-46
-11
-29
3
-15
15
-33
-42
-21
17
43
14
-37
25
-8
-20
-28
35
-30
-35
14
10
7
-23
15
-50
16
-10
29
-6
13
-27
-4
21
-7
16
-73
-12
-55
-23
4
-6
9
17
10
21
28
28
36
5
-15
-4
8
24
-9
39
-19
-6
-42
38
0
-8
-6
-6
-32
-24
-11
-11
9
-28
-23
-7
-3
27
-32
-19
15
-6
-11
-23
27
27
23
27
1
12
38
4
-8
-17
-9
-21
18
37
1
0
47
-35
-10
-31
1
-22
-7
-30
-21
-92
6
-11
-18
55
47
-9
-12
-37
-18
1
13
18
2
-15
-10
38
-76
27
-14
-44
-36
-18
22
-3
-53
10
-1
23
-52
23
29
69
-16
-8
32
-10
47
26
-12
-4
-9
-39
-4
1
-33
-4
42
23
-1
-7
12
-10
44
5
7
8
18
26
-1
-30
8
13
48
-15
-21
13
21
12
-28
-7
38
13
-21
0
-13
14
5
63
18
-12
46
24
-7
13
6
-9
36
-13
31
-7
-6
-24
-45
26
55
-28
-4
-10
18
10
22
16
-21
26
-24
-27
-9
32
-76
4
2
-30
6
14
-8
-3
9
5
-11
4
-25
35
21
-3
-13
20
30
33
-8
-33
12
-35
-50
-1
-63
-15
7
2
21
16
1
6
19
-30
-15
-11
5
18
-33
-31
-67
-5
-20
19
-13
10
-41
8
47
46
-1
-14
-15
39
26
3
40
-31
25
28
-14
26
15
-10
-7
20
15
35
-14
-29
-47
-4
-36
5
38
-30
-34
47
-36
32
26
-35
16
28
39
-6
39
63
43
-17
-9
-36
31
-10
3
-2
33
70
-21
-18
12
8
30
38
2
-35
-24
-1
-25
0
-4
13
20
35
-18
16
48
11
-5
9
-22
-29
-13
9
-12
-16
-49
-42
-15
14
27
-98
-30
-48
4
-22
43
11
-25
-24
8
19
0
-35
28
16
23
