423
-241
-313
270
-217
296
9
212
169
-93
99
326
-72
80
311
408
22
-34
-229
-88
4
4
1
340
-17
-46
-52
424
-305
-3
232
-14
-100
-175
42
-56
-54
-92
389
-57
-182
-295
-271
-101
-519
-340
-95
-262
24
151
310
-2
486
-128
216
-213
299
57
-128
-200
468
44
-240
125
1
-229
60
-16
157
126
-193
-298
57
139
-36
-92
-144
-48
116
-103
45
-198
-44
166
-203
137
168
189
-63
164
253
-174
-112
-164
102
102
-60
3
-132
110
30
-44
201
130
562
-176
-181
105
4
-82
8
207
130
55
81
-484
83
54
-65
-183
108
-54
-65
-87
-125
55
-156
144
141
582
-390
-9
-9
76
-57
172
-113
-40
-148
-167
133
-42
184
-574
-68
19
141
-37
-59
-224
162
614
173
165
-384
204
184
58
-112
489
412
-377
287
190
-435
301
-7
-507
-153
-36
-341
-497
104
251
-129
-52
-502
-180
-91
611
-361
412
323
46
221
-72
-472
-136
414
-83
-358
-211
-582
78
118
-113
70
-13
352
-61
25
53
62
432
-64
-215
77
-116
86
104
354
2
165
-310
-198
-384
-405
-44
577
-43
-73
238
-762
97
10
-68
110
-66
72
459
476
44
-107
-256
-160
-145
-137
218
17
47
-312
51
-96
59
-77
-59
6
32
86
178
-503
-9
-23
89
-83
-114
-120
25
-171
-3
-74
265
230
-44
23
-158
-171
26
152
198
-36
-271
-88
309
-24
213
29
10
-73
103
226
131
267
258
-363
235
-33
-30
-38
-174
151
-85
96
0
-243
8
-361
24
0
-92
315
214
-176
138
-190
-171
-164
121
44
-165
-95
98
-155
15
332
131
-102
-128
86
251
-242
-195
276
-169
154
-220
-139
124
153
-185
70
-112
192
-20
61
325
24
-427
47
-63
-12
295
-321
-156
-150
-24
-347
71
89
-8
-326
20
138
-227
-292
-236
-450
290
114
4
-280
149
-7
-247
335
98
131
280
23
-79
-173
129
169
-98
-194
97
-215
-257
-81
76
6
299
-137
49
182
144
124
-221
-389
-72
-448
43
-81
-246
-246
-253
-456
-116
-151
-382
466
140
139
227
54
231
-140
128
-179
320
55
132
-190
-178
-12
-353
75
229
297
63
-119
486
-233
-213
-59
189
-173
190
-3
61
61
13
33
36
-47
-13
176
-114
309
213
-381
-26
122
137
-335
-294
-75
391
-71
-61
120
70
133
18
219
87
-29
-17
-6
-100
-46
-10
46
-60
-224
51
-17
9
-134
387
-251
-123
155
-98
-182
111
99
230
-259
-283
39
129
-30
-253
-246
87
71
52
138
-22
-104
-18
250
-13
-43
-91
87
-71
132
-91
120
257
-256
-76
8
-51
-11
-202
-21
-61
119
53
-28
170
53
235
-70
-93
-110
1
88
32
121
114
-56
69
-87
308
90
425
-70
-132
145
-121
-93
41
-298
-296
-165
-88
-21
214
-182
356
-68
-13
132
124
75
96
-115
-66
-8
136
-105
153
59
-105
-44
-202
-264
144
-56
387
162
273
-149
-239
-138
-172
61
80
-18
-10
-216
562
-250
-227
22
-72
259
136
62
58
-116
-332
83
148
-181
214
-15
-201
103
-127
-115
153
392
-93
25
-330
459
320
-97
173
-157
6
415
4
-15
62
175
-120
-13
256
-308
-146
229
159
-25
-16
324
-215
-258
70
-137
-287
193
192
-370
90
38
-116
398
-150
-269
125
301
297
-85
-247
-163
193
131
153
588
-241
217
416
153
209
84
87
-438
-156
69
-210
392
38
55
91
-84
49
-279
88
624
-7
-32
124
-96
205
26
53
449
49
-40
147
185
-157
-370
306
322
46
-256
64
-134
78
69
470
156
-235
121
50
10
74
-147
97
-68
-477
29
-19
-336
296
-56
304
92
174
-53
-235
-7
-83
-102
280
-190
-34
-71
-224
251
140
7
-87
99
-157
-22
235
240
-58
39
-45
-118
-226
19
-52
264
-186
195
-367
66
22
-101
-49
-155
-192
-255
39
-103
153
345
-30
170
153
146
91
-10
-109
20
108
-6
-116
-99
-13
151
37
227
11
-164
133
-81
-56
