-27
-26
-11
-5
3
49
-11
12
33
-60
-33
-74
2
6
3
-10
-9
-30
-39
-12
-26
11
-10
-11
-13
6
-33
-6
-8
-1
-50
-18
-40
23
-7
21
22
-24
9
25
2
4
60
-1
45
-3
9
6
22
11
-18
-23
-8
7
-21
-19
4
-48
-15
-26
-24
-6
12
39
-1
38
-3
-47
-134
0
-60
2
19
32
-116
23
14
-79
50
1
-30
-67
-12
-19
-7
15
-36
22
-43
-28
46
3
7
0
-8
2
56
23
1
-57
34
-37
18
1
23
77
81
32
-85
9
-6
33
-2
-71
-25
-79
-68
50
-21
-16
-31
35
-38
-46
4
21
4
-26
65
-19
-61
36
-73
68
-41
-29
0
7
56
-26
-14
-45
1
7
-27
62
-3
43
33
19
29
40
-8
-9
7
-6
85
-17
2
-63
-24
-32
28
-34
8
-10
-47
63
44
-42
15
37
10
-17
16
35
25
4
-59
7
26
21
44
8
-65
-44
12
43
-35
40
-5
-42
36
-53
1
-69
-10
1
-8
-63
7
-79
-9
-23
109
-24
27
-13
47
-6
-24
-32
4
8
-5
16
-49
-12
-88
-10
23
-44
7
-39
-27
9
30
2
105
-20
-19
15
-24
37
12
4
127
-6
-4
-43
7
-27
-25
-25
0
-35
21
-24
112
25
8
-12
103
-13
21
16
-25
23
-3
0
-53
91
26
3
-42
-15
-1
-58
-24
-4
-40
28
52
-34
69
13
3
43
-79
-49
-56
1
-58
-50
17
21
39
-74
-17
-19
-39
20
-53
47
9
6
-9
8
-5
30
-21
-60
-69
7
-19
-18
-54
-46
2
61
26
-25
7
35
12
6
69
6
-49
-78
-15
-25
10
-11
-11
7
1
45
-14
71
-25
56
44
-18
56
80
-13
-52
-112
-15
45
-86
-50
-7
-24
-4
-10
66
7
-9
29
45
10
31
-18
13
-82
77
-31
-101
-83
74
-66
16
69
73
-11
-30
-49
98
-14
95
32
38
-64
-6
-35
-66
22
13
-73
-30
59
47
-8
72
43
10
25
-22
28
28
-18
-44
-3
-2
-58
25
9
-32
16
-21
39
40
-28
17
-1
-35
-9
-13
21
45
-5
37
7
-5
-31
4
58
12
-69
-38
12
-1
15
32
66
-22
12
-78
15
-54
17
-5
16
-22
21
-27
-24
-11
25
-29
37
-9
23
4
51
17
40
1
7
-6
80
-11
-3
12
-23
16
-26
39
-3
-36
14
51
4
2
-20
33
-5
-33
-44
-14
-14
-43
-1
-11
-15
-20
-14
17
12
-1
4
-27
25
-2
-6
-24
52
-10
17
8
-24
22
-17
72
-41
-32
-20
31
46
-18
7
-5
-29
1
-33
9
-27
-51
-13
41
-12
-2
-43
81
-67
-40
-24
39
5
-28
-23
-5
51
-40
-18
29
-31
62
-1
-51
14
10
46
17
1
54
18
28
-17
14
-29
56
-35
3
24
-23
6
-20
95
-41
40
18
-9
-22
11
75
15
13
35
15
36
20
-56
-6
61
-67
-26
-26
-117
2
-9
-17
22
-13
36
32
-24
639
-50
59
-63
-10
-35
-42
-11
41
-46
18
-67
-20
-16
54
22
-1
80
-8
85
-11
-4
-17
-12
-99
67
-36
-66
55
53
-34
54
42
12
-52
-39
-128
-17
210
-4
-22
-62
52
-12
163
6
-124
-40
3
105
-36
-12
-13
-2
3
-4
12
9
35
90
-15
126
7
68
-118
105
119
17
19
-153
8
-127
13
-99
110
-74
195
97
12
586
35
-13
39
97
-39
-60
30
35
49
-70
28
104
42
-57
53
57
26
-88
-16
73
-124
41
71
-2
-77
108
-129
67
-421
-51
-3
26
122
17
57
88
-27
184
8
-57
-78
-25
-84
-155
37
98
79
-11
16
-28
-27
-17
33
3
-158
22
41
-18
-56
21
66
1
51
-19
0
58
1
-2
87
122
24
9
39
74
-42
37
34
-84
-13
-61
-38
40
43
-52
-26
85
-80
-36
-49
39
5
-24
-40
12
-74
-91
57
-25
53
68
-55
-27
83
-1
17
117
51
-5
-29
