-88
-54
12
6
101
-54
-86
14
7
8
-16
35
-20
-49
-20
-13
32
-70
-83
-44
-5
-87
-171
44
-123
-25
-46
-38
-10
-18
-12
-24
51
-68
57
-72
38
-47
79
-27
117
-69
70
35
-4
-48
-44
34
-72
113
-41
92
44
-96
90
-4
-34
24
62
99
6
-41
-42
60
62
-131
-1
-3
-50
-76
41
124
18
-19
41
30
-30
15
16
15
-15
-30
37
72
-4
-6
-23
94
39
53
26
0
-20
-24
-24
58
11
18
-125
10
-85
67
-41
49
-11
58
17
-55
40
-40
-30
-33
-42
-32
41
-2
-18
-14
-29
25
7
20
42
43
-45
39
47
-28
10
-95
-68
26
-45
17
-20
-17
-5
47
-65
-31
-3
-4
51
15
-53
38
44
43
32
-57
-17
-19
-41
-31
20
46
33
18
47
50
2
-19
-8
41
31
81
-19
37
11
-54
-62
-69
57
17
71
50
-72
-78
-17
-7
24
29
-22
-14
10
21
70
8
30
30
-100
-27
-81
-119
-1
-58
-87
90
-45
-115
55
-28
-126
65
41
237
-103
34
17
-185
69
2
14
-87
105
-129
167
157
-53
23
-213
-57
22
36
14
-148
-78
78
-5
215
102
103
-362
-16
-183
4
102
-14
-199
117
11
245
-229
-64
-76
105
147
20
-140
-12
-117
-17
19
-251
32
-79
-6
-72
-9
-30
-29
17
11
24
37
-41
1
-47
-43
8
-73
1
36
37
79
97
-75
68
48
26
-74
-34
31
86
-21
-8
-77
6
43
48
-28
39
-74
18
-30
81
51
61
-44
11
-34
-22
45
56
-24
-62
37
-12
20
-7
-80
-38
-6
10
5
-18
-45
-71
-24
115
100
11
8
-18
6
17
-35
35
41
49
-36
33
37
40
-29
21
-3
-35
-24
-31
-31
18
4
17
-1
23
-6
-45
-2
41
-20
-25
-35
0
106
33
3
-10
-59
43
-39
-52
9
-5
-90
-20
-27
-4
-50
24
6
5
62
19
20
0
-23
-9
76
-55
50
-36
11
10
-24
-11
-167
59
27
-28
-143
61
-9
39
-52
-19
-61
-63
8
76
48
37
114
27
91
0
-20
-33
35
134
-4
11
-4
-60
75
71
117
2
73
-91
-92
93
136
125
-14
-74
177
40
37
10
-55
-8
-26
114
-45
92
-148
-20
64
-36
-34
-99
-25
29
106
-162
-491
-67
-30
85
-47
-55
14
50
-74
48
60
-95
70
-20
-40
47
156
31
-37
-30
21
-42
124
-18
-148
-24
41
77
-89
36
-16
-21
32
99
-157
-38
43
56
-106
-6
-10
98
27
-33
22
-13
78
-11
41
83
88
5
45
-44
40
71
-11
24
-25
102
70
-26
-99
-15
35
-8
-33
36
-1
69
-44
109
192
-4
12
-6
39
-170
-13
74
-4
53
62
15
-35
-181
-316
43
-26
38
14
-14
21
61
47
-93
-31
178
36
13
-5
240
-19
-53
80
-14
-5
-59
-13
39
6
49
-12
48
38
50
-23
42
-24
71
-14
-289
44
7
31
4
41
20
-26
90
42
-142
-167
-176
-61
-295
-31
61
-233
-34
-205
-47
105
119
-312
-30
7
-104
85
198
18
63
-19
-203
15
73
163
146
59
-92
53
55
7
524
65
-110
68
-444
-125
-104
-23
-10
-21
89
-172
-105
-42
-27
-56
128
104
159
-36
-140
-163
-38
56
80
46
42
-46
-11
-27
-68
-58
17
49
-8
-99
21
0
109
-8
-47
9
-53
-21
-42
-27
38
22
30
74
-25
-108
-3
-23
-118
52
-9
30
79
-73
-33
-124
87
-15
77
32
-71
-23
50
102
-32
69
-28
22
-21
-92
-74
15
115
-5
50
-106
18
128
-3
-44
4
-7
-43
-47
20
13
-39
-22
24
-2
2
-10
43
-45
45
-5
-2
35
-11
-29
-5
33
31
-64
27
261
-92
-8
129
8
30
64
-30
-43
35
-29
-58
-19
37
82
-113
35
-23
-37
-6
-16
-51
18
-6
-32
46
33
39
-11
36
21
-171
27
-6
59
28
-11
21
-21
11
23
-33
-56
-23
41
-22
-34
-41
