-24
-32
-6
37
9
23
-59
24
20
16
-45
84
-11
-13
16
-6
45
6
-21
34
-81
20
-39
36
7
5
-11
46
20
-5
-32
-22
20
37
-1
16
46
-5
34
0
-23
13
-48
-19
11
-12
1
34
-36
-18
24
-27
1
-20
23
16
16
-8
17
23
-19
-7
25
-11
-18
39
34
-87
51
-20
52
57
51
69
29
-11
0
65
46
-52
99
-37
-13
34
43
5
-9
-124
-5
-14
107
-19
130
-47
79
17
-10
-27
95
75
16
82
82
82
32
1
-2
1
-43
-20
-112
12
59
49
46
-16
18
93
-29
-62
50
82
110
-60
-38
-9
-61
2
-24
59
92
93
5
-25
-87
-48
119
-183
97
-96
-8
-16
144
195
26
94
19
-57
-51
38
40
-193
-224
61
-61
13
10
29
95
24
91
-76
-45
48
-2
-140
-29
16
-45
22
26
16
137
125
-29
-133
74
-69
-55
-210
-1
-138
-100
80
0
-29
-83
52
93
-2
-51
-125
247
-352
166
174
160
64
36
257
-88
-23
231
-5
69
94
-148
-23
247
-128
-11
103
225
262
-212
0
118
-346
287
-112
-45
37
-196
209
141
64
-102
-150
33
14
156
37
119
-236
-32
55
239
300
-254
-140
-68
118
-116
-111
247
-182
105
-183
-74
-135
32
-162
-368
45
-210
-180
72
-1
-3
74
-54
20
38
-39
35
-56
-178
215
-43
5
48
4
-6
-45
43
-22
-93
64
-44
-52
-33
71
22
-14
-38
46
28
-11
-55
-10
-30
-30
-14
49
77
-18
-41
-33
-2
-24
49
179
-279
12
-1
-99
4
-19
10
-20
-63
-9
2
21
-26
-4
-31
-8
-7
8
57
-56
-1
-71
30
-41
-52
-16
8
-33
50
-90
-54
-35
28
6
-11
-37
-24
29
6
-16
-43
4
10
-66
-81
15
31
-11
-19
2
29
23
31
55
15
-22
32
12
86
52
-28
60
1
-66
-40
27
25
-11
-22
44
21
-29
-92
3
18
-66
-15
6
-10
61
8
-38
0
-6
23
-9
7
19
21
-41
1
-37
11
-46
38
-26
57
-1
-21
-1
-14
13
33
5
11
33
-28
7
104
-19
6
-28
8
-1
-6
21
-3
-25
-19
157
27
-8
-17
-16
-41
-111
20
1
-28
-2
-11
-1
12
-4
7
4
-156
6
14
-18
-1
21
25
-14
-23
-29
45
8
36
-26
-5
45
-29
2
5
55
31
32
34
-19
35
-30
-10
-29
185
13
-3
-13
-7
-12
31
0
-2
-5
-25
-16
8
-31
-109
-5
26
-12
8
0
-19
8
26
-79
2
-1
82
74
75
-44
26
24
17
44
-8
31
-33
-35
23
0
6
9
1
-5
-40
-32
-30
57
103
58
95
-29
4
47
53
5
68
-95
7
12
-48
31
-36
2
-50
40
64
117
138
-66
-26
30
16
-131
-76
45
-65
-8
-65
66
-70
-79
11
-65
1
60
-49
-18
4
3
-44
-35
9
-58
-28
-50
47
11
-11
32
-109
-14
51
-13
22
3
90
37
118
-8
-8
16
3
36
25
21
2
-28
58
40
-7
7
131
15
39
5
56
-20
54
32
30
8
-26
19
71
-21
68
7
-26
2
75
-39
-11
0
-46
-81
-3
1
68
11
11
-3
-20
-19
-58
-38
111
-64
47
-18
23
43
184
20
-7
30
41
5
-42
-88
-16
19
11
-98
-18
320
-132
70
197
-164
-11
85
153
-25
43
-246
171
-223
-91
-13
-31
-103
202
20
-333
-28
-34
252
118
83
-137
199
69
-353
-114
133
1
-114
112
44
-159
213
511
79
-112
223
176
-109
188
-51
-75
138
100
-100
-231
-206
-111
272
-41
56
-55
-229
3
47
177
-110
-143
135
28
6
19
-45
-23
10
26
-15
-35
13
15
28
-1
49
18
28
-17
27
14
-39
-7
-11
-32
27
17
-41
56
-35
5
34
44
1
-6
-28
-2
-8
-16
-13
-11
-11
-74
40
5
18
-10
54
43
-43
7
22
26
43
8
5
25
10
-27
54
9
-5
0
-42
-13
-4
