-125
47
-191
-116
324
201
49
-90
-446
-477
-350
110
-474
62
-134
154
235
185
-36
-321
-105
-136
285
133
137
-117
33
-237
-421
-57
254
-305
-3
-124
-557
-297
-208
-64
-218
-412
-570
-254
-295
-61
-336
-199
-590
153
-329
-149
-434
291
131
260
114
-68
-570
-67
-278
-321
-39
167
440
-185
49
243
64
73
-449
-504
-443
-398
-252
-131
-292
-512
-103
-81
61
382
-296
-98
-144
-92
-178
-354
-368
387
-243
286
-410
61
55
435
26
-551
482
-305
-164
-53
-381
-321
21
-190
-553
-402
-291
-368
-217
-49
-405
41
-265
-313
-674
373
275
-464
-383
-66
204
245
-101
1361
-63
-189
2
223
-447
-446
-97
475
-9
-411
-269
-607
-241
-447
-17
-145
-210
-397
-339
-268
-248
-157
-130
-427
-103
-254
-239
7
-627
-663
-260
213
276
-174
-382
-128
126
-280
-258
-430
149
92
330
264
-449
269
-289
-376
241
-293
-347
-285
271
103
283
-56
-2543
174
-417
57
-212
-124
517
-78
-62
-292
-618
-469
-85
-186
150
-20
-459
23
-200
167
-530
-432
239
-310
-536
138
147
-192
-141
12
-168
-178
283
-193
144
94
-230
-98
6
-296
143
-160
-224
-41
-190
-542
-17
-266
311
-149
-307
15
-186
-228
-133
-285
-70
-388
235
-407
-12
222
-66
505
-322
-259
-134
30
-475
-576
-232
-527
-169
-166
-249
-345
-67
-96
50
313
-271
-74
-60
-257
-503
-696
-101
-396
32
-145
-24
230
-367
159
-465
-210
23
-45
-252
-103
-78
339
-403
-358
-455
-632
238
-580
-31
-2
-304
169
-326
153
-5
207
16
-57
0
-210
-230
-35
-280
107
-471
-103
-69
-598
-9243
145
-83
-434
-48
-315
88
-519
-236
149
67
-280
-202
175
-25
-381
-97
-181
60
90
-247
-670
-549
284
-95
204
-306
-221
-416
-291
-171
-415
-64
-82
-328
-370
-12
-71
-511
-456
-424
-289
-205
-59
662
-408
-292
-475
18
230
-76
-9
284
-318
225
-192
-40
-72
-499
125
17
-358
-499
-512
-131
-597
-547
-405
449
214
-255
301
-338
-1148
-54
-520
124
-204
52
2
-443
-377
-152
188
-41
-319
-192
109
-172
-364
57
-292
-158
-410
170
114
-276
-181
32
-8
167
-608
-338
-281
-276
-165
-368
228
234
-234
88
-94
-31
-307
265
-393
162
303
30
117
-67
280
-430
-7
-412
-52
-331
-252
262
37
-237
-436
-95
223
67
-200
-575
-807
-408
-403
-332
150
140
-60
535
36
100
60
-372
-2
-109
-245
-19
-201
-360
236
344
13
-249
-292
129
-436
-351
-178
-38
488
-343
-276
-56
536
-171
-390
-351
-42
31
104
-498
-451
-129
-29
-283
-429
-379
-40
598
-500
-360
-491
-479
-149
158
-37
-99
-297
-347
-589
-220
65
-330
54
-118
-76
-539
160
295
-833
134
-168
-308
264
-457
-275
-310
100
-51
-79
-66
-263
599
-528
-167
-469
-83
-466
-124
198
-253
-318
3
-584
-149
-508
168
333
-363
-320
-325
-405
-344
-63
81
208
-63
-485
-316
96
120
-358
-349
403
-190
-663
-534
-175
239
48
-526
-254
-349
-124
-7
-307
-426
-40
189
-135
-185
-217
340
-292
96
-144
-470
-118
-84
94
-229
-133
447
-564
-407
-53
-377
-137
46
-833
-54
133
-443
-101
-78
-55
-77
-248
-90
-214
284
155
-483
166
-356
239
457
-14
-98
226
-202
-574
-508
22
60
-481
85
-46
-338
-247
41
-521
15
-272
29
-201
358
127
-116
49
-35
150
-155
424
207
53
-147
219
-726
-385
133
-437
-138
81
230
-76
-371
393
-304
-110
-108
-189
119
-127
116
-122
-120
-369
21
-243
190
-105
-423
-201
-240
71
493
-228
-334
-200
27
-177
-181
-40
254
241
-415
-276
-36
-257
-106
-80
-247
-98
-139
-305
-548
-689
-541
-151
92
-409
-339
-317
201
-601
241
-50
-454
-415
269
59
182
83
198
257
-282
131
-134
362
-208
-419
-670
65
-181
-272
-2120
63
-311
-37
91
-187
-57
-691
30
-132
-3
22
-337
394
129
-206
-504
88
-346
-292
-366
-174
-518
-618
326
29
-352
-246
-235
-37
-251
-386
-248
-217
-222
-467
-764
-83
-188
78
388
-487
-19
-525
-185
-183
219
104
