-178
-319
-62
204
-502
29
-496
-305
-127
71
-23
-481
-61
-288
-135
-228
-66
-82
-28
-681
-553
271
-429
-454
-106
-554
-299
235
250
-164
-144
-200
-536
301
-339
-93
-29
-443
-423
561
-71
283
-145
-317
-168
76
-91
-8
-262
126
286
-40
-644
361
-229
-61
-264
316
-229
50
-10
-139
128
87
-242
-306
-185
-65
-205
120
400
-322
-27
-37
-400
11
-126
-285
-193
-224
-79
-230
-173
-433
-159
-38
76
-356
-170
-268
-101
148
-1019
-25
-272
-40
-276
100
-3
-78
-289
-251
-226
113
-131
233
62
-71
-60
-246
-45
-182
251
193
56
-184
-212
-143
84
-427
29
394
-37
-232
-249
63
14
-281
-198
-6
-242
-238
86
98
-164
141
-57
-231
255
144
11
-214
-164
64
-323
607
-109
-108
-6
-657
-98
-399
292
-149
-261
-165
-353
-555
-278
4
-170
-21
6
-304
-12
-421
-297
83
862
13
-61
-219
-104
-740
-241
-475
-226
-292
-182
-297
-24
-279
-18
-466
-284
3
-499
-338
-456
-67
-1
160
-526
-24
-268
-287
-28
-417
-78
-11
250
-214
-163
-297
112
-353
-275
-117
-267
-38
-53
65
-284
-283
-300
8
-8
-27
-245
93
-78
-327
-108
-184
-53
-570
-335
-62
-387
-158
-283
18
-197
-81
-157
-231
-5
-171
-149
249
-62
-179
-62
-155
-218
-146
244
-252
260
527
-234
-420
53
5
-76
68
117
-74
-195
-79
-239
0
-320
-145
-168
-79
-192
-191
-281
-188
-226
-102
-75
-33
-41
-357
59
145
98
164
-355
-191
-267
-17
137
-142
-415
-489
-476
-87
-315
18
201
-59
-418
-13
-23
-639
-143
-65
-242
-255
87
-288
-750
-134
175
15
822
-99
-104
-51
-110
-51
-137
-204
-171
-333
8
-347
43
-202
-418
210
-157
-332
42
-52
-135
-184
-7
-146
-135
-583
-142
-191
66
69
-77
-255
-142
-385
-240
-35
-56
-410
-108
156
46
276
67
-346
-138
-356
-224
89
-233
-87
12
-166
-229
-46
-87
-277
-112
54
-30
-277
62
-109
15
-104
-240
-22
-8
-198
-212
-156
-19
-240
-27
-340
-270
302
-113
-79
243
-332
-64
176
-144
-103
-395
-203
-438
-118
153
82
-161
-60
-85
36
-119
9
104
277
-265
-130
-416
-75
29
-5
-282
-306
26
-179
-81
-150
-86
-42
-89
402
-145
58
150
-294
-285
70
140
-398
-144
140
203
-320
-73
-407
191
-119
122
279
-215
-82
-196
-46
-84
-179
155
-293
68
314
-155
-192
-468
190
-314
-89
-192
-193
-46
13
-172
190
-32
-432
-449
52
30
-266
-209
-134
-274
207
-94
35
48
-43
42
-195
120
10
-165
-384
22
-116
-179
-154
-335
-420
267
-44
-139
-121
-350
-92
58
-6
105
-98
-95
-381
-162
-126
-110
-168
-9
-80
99
-137
-19
-171
3
16
-208
-132
60
-579
30
-5
397
-119
132
-415
-247
169
164
-83
-213
-105
-208
-216
12
-104
-168
-80
-179
-31
-63
-151
-203
154
-171
87
132
-248
78
477
167
-25
-452
-253
16
5
-489
-263
-344
35
-217
-166
-384
-39
82
155
95
-164
57
-162
-282
2
-131
-105
-113
-201
-185
-262
63
-128
33
96
-343
-190
134
-71
-479
-90
-139
-158
-882
-205
-134
-115
-146
-105
-268
-107
-478
-217
-68
-113
-300
-168
-150
-241
143
-298
-210
-356
-246
-424
-235
-27
-115
91
-66
-135
3
-159
-34
-172
-225
-161
-259
42
-295
-158
5
-419
-548
-3
-301
-262
-455
-502
-224
-467
-230
-264
-143
-241
-257
-522
150
-299
-349
-209
-102
18
-438
0
5
-219
-174
-447
-252
-340
125
64
-266
-177
-38
-190
-210
-73
-403
88
-235
-17
-330
-191
-174
-272
-188
-144
-69
20
-295
11
-571
-388
-582
39
-208
-23
-580
87
14
43
-364
-13
8
-134
-45
-264
-281
-217
24
-345
161
12
-176
22
-395
-64
100
-153
-249
-162
-260
-296
-301
-343
176
-399
-315
-310
-74
-280
-165
-373
-249
-61
40
133
-175
-30
-342
-153
-92
-97
103
-268
49
-355
-409
-330
-652
-121
-304
-141
-86
-87
-268
-129
-342
2
-132
-511
22
-72
-230
-209
-126
157
56
-329
80
-24
398
-413
24
-228
-192
-380
-271
292
-106
-128
-179
-216
