-169
-86
-310
-30
-398
-266
-454
-362
20
42
-270
-332
122
-250
-199
-439
-435
-272
54
-199
-469
-115
-336
-661
-229
-358
-250
-24
11
-228
-308
-191
-461
2
-53
-76
73
-40
-284
181
-14
214
-48
-160
-160
-103
-301
-177
-119
-99
318
-227
-475
-2
-347
-362
-229
94
50
115
40
-397
-172
-162
-107
-346
-192
-245
88
47
176
-155
47
-182
-259
-96
-124
-128
-283
-439
-237
-326
-203
-327
-219
-217
-235
-117
103
-499
25
13
-523
-135
-293
118
-392
63
-293
-21
14
-163
-378
-80
-121
-172
-46
44
10
-151
-3
-28
-79
62
-99
-180
17
19
-86
-172
-43
-100
-161
-1555
-221
137
-178
-298
-49
-137
-88
-363
-2
24
34
-86
-195
16
-16
7
77
-147
-163
-466
-350
-65
-36
238
-63
-495
67
-422
200
-222
-56
-293
-161
-138
-159
-31
-244
43
23
-277
-442
-111
-551
-226
198
-177
-9
81
-217
-294
-170
-156
-437
-15
-137
-343
-800
-442
156
-138
-289
-139
-631
-207
-433
-63
-38
181
-386
-74
-350
-183
-146
-72
32
-84
23
-152
-195
-60
-54
-486
-200
95
-242
-213
10
-97
-402
-372
-147
-154
144
33
-422
-44
-263
-334
-157
-269
-47
1781
-259
124
-431
-108
44
-175
-626
27
-63
-117
-132
-136
-405
320
-168
-265
252
-375
-148
-11
-236
-92
109
143
5
-462
-53
72
-307
-39
-19
165
-103
-291
-256
-70
-101
-16
-100
334
-196
-190
-293
-91
-38
-192
59
-199
-50
-137
-207
-183
-23
43
-224
-410
-214
-6
296
-184
-557
-243
-175
-70
-135
-204
109
-154
-392
-223
-89
-326
-378
46
-78
-255
-96
-285
-571
-115
-66
36
-1702
-40
-34
24
-355
-147
-63
-337
-216
-115
-137
14
-35
-458
-268
360
-54
-42
-214
-408
27
140
-363
-293
-306
-512
-96
10
57
-112
-84
-23
-118
-300
-217
-302
-181
10
47
513
-25
259
-80
-92
-599
-111
-69
-23
-207
-294
-24
-169
-74
30
-324
-122
-281
-96
0
-102
65
-68
296
-84
-185
-14
203
-111
-367
-110
173
-190
-114
1051
29
148
-585
12
12
-346
-159
133
-126
-163
-163
183
-145
-120
152
98
-456
85
45
-122
-291
39
72
244
-311
206
-468
-16
-172
13
-87
32
-128
-302
-188
25
-239
-180
-152
90
-247
51
87
-246
121
51
279
-366
4
75
54
-266
-18
-288
-129
63
-100
-88
-204
-219
-370
145
-73
114
325
-25
-160
2
-420
-75
-436
136
-410
-450
72
-310
285
369
-210
120
-153
-323
-534
38
-341
201
-200
-213
-254
-258
-100
-458
-37
69
-96
-303
111
137
-77
-127
41
-286
-35
89
-249
-521
56
-165
17
-9
-211
-155
-287
-70
125
-221
-344
-446
-90
-272
-69
47
-153
-173
74
-247
36
-25
86
-41
-123
84
-181
-357
-54
-42
214
-141
-55
-256
-358
-54
0
-47
-1705
-11
-310
-235
-55
-134
-67
-245
-233
207
-184
7
-294
569
-291
-47
-178
-69
180
355
-15
-55
-503
-389
19
167
-274
-121
-93
-9
-101
-445
-189
33
73
111
-474
45
44
-146
-220
-237
-43
-195
8
-248
-440
-136
76
-277
-214
288
-254
186
35
-332
-177
-120
-5
-45
-842
31
-62
-82
-153
-106
-243
42
-160
-145
-114
-205
-204
-120
-170
-53
101
-251
-348
-373
-162
-191
13
-67
-330
88
-13
-218
-75
45
42
-48
88
146
-495
-163
-304
-39
-219
-191
-454
142
-292
-238
-425
-185
-264
-607
-127
-195
-271
-255
-354
-233
168
-459
10
208
-92
307
-153
-458
-171
-420
-326
-253
-414
-326
-63
-92
-405
-350
-158
-6
-259
122
-357
-96
-156
-229
-143
-520
-446
-385
-440
-61
89
-40
-287
67
-375
-320
-253
-7
-105
-81
-239
-2
11
-113
-203
-374
133
-171
21
-76
-154
-139
-70
-244
201
-173
72
-294
-321
-55
114
-79
-399
-257
-668
-271
-178
-436
-148
-159
-409
-329
-27
-214
238
-272
-164
-59
1024
-117
-57
-153
-339
-27
75
-38
145
123
-195
-98
-108
-417
-535
-77
-90
-422
-7
-205
-165
-223
123
130
-156
-423
-254
98
-222
-239
-92
-60
-33
-304
52
-175
592
-282
-108
136
-239
-107
-314
206
113
-63
-91
-92
