-331
-282
-137
217
-399
290
-545
-372
-100
-71
-81
-562
249
-518
-24
-87
34
83
-3
-918
-644
377
-471
-354
-81
-598
-386
4
228
-177
-92
-355
-357
141
-280
75
113
-484
-471
177
-212
220
-156
-447
-116
26
-95
60
-281
-46
412
-119
-629
322
-201
-69
-212
358
-379
30
73
-27
179
249
-118
-298
-184
-117
-150
134
216
-258
132
-16
-498
-218
-158
-280
-297
-290
-127
-166
-330
-492
-210
-104
270
-407
-191
-186
-90
-47
-1050
57
-256
-29
-529
122
-46
-18
-364
-356
-240
7
-327
-143
144
3
-233
-221
-88
-243
261
228
-74
-49
-170
-156
-19
-501
10
509
74
-107
-141
120
-19
-309
-225
-100
-303
-335
149
-22
38
185
-83
-225
168
291
-129
-232
-106
-197
-186
622
-116
-6
-80
-535
-143
-395
156
-293
-236
-52
-444
-700
-278
-66
-44
-57
-50
-268
-76
-560
-203
245
715
-70
-156
-335
-61
-681
-336
-451
-139
-180
-127
-336
42
-268
-77
-544
-443
-43
-435
-358
-434
-154
-3
289
-559
-11
-247
-335
-90
-459
2
68
30
-442
-204
-259
55
-371
-307
-130
-258
-62
-109
62
-393
-474
-77
4
163
-21
-535
30
-145
-334
-221
-132
-155
-573
-389
89
-373
-157
-362
-122
-273
-70
-127
-334
-213
-201
-35
157
-93
-177
-11
-234
-168
-23
154
-234
105
414
-223
-463
7
-7
4
178
253
161
-240
-225
-370
56
-497
-296
-448
-231
-94
-194
-298
-216
-153
-133
-185
-137
78
-189
67
294
-50
198
-374
-150
-164
113
353
-148
-279
-554
-390
-174
-201
-114
132
-10
-456
-227
-82
-791
-142
-91
43
-98
117
-369
-683
-528
189
48
309
-58
51
-368
-172
41
-272
-149
-224
-186
8
-243
-50
-158
-356
229
-163
-453
-208
-90
-53
-201
-41
-115
-168
-532
43
-275
-44
36
-119
-135
-61
-399
-279
-40
-76
-392
-50
155
127
198
44
-483
-29
-277
-136
25
-85
-283
108
-163
-207
118
-169
-323
-191
-12
-3
-227
29
98
-3
-172
-320
-355
131
-197
-147
-47
208
-63
-86
467
-339
368
-150
-126
106
-382
-58
63
-243
-268
-388
-64
-469
-117
38
208
-94
-104
27
29
-96
202
-183
459
-269
-258
-266
20
176
24
-210
-257
-56
-277
-164
-127
-183
-78
-52
145
-400
-146
295
-233
-131
27
213
-370
-150
59
7
-207
-238
-474
270
97
61
178
-136
-131
-122
59
-143
35
52
-266
-54
231
-46
-140
-511
253
-361
-39
-204
-257
22
126
-255
204
-250
-509
-374
104
242
-140
-306
-203
-223
118
-19
-87
-145
-48
-88
-128
150
-41
-271
-528
-85
-125
-65
-158
-227
-329
330
-159
-218
-92
-507
-151
106
-153
10
-304
-65
-291
-95
-178
-201
-14
25
-77
6
-179
3
-184
-86
-51
-166
-237
262
-455
104
-36
166
-317
61
-327
-312
79
192
7
-233
-180
-209
-190
160
-115
-158
-22
-103
-63
-76
-317
-158
176
-276
174
-15
-137
-81
94
25
20
-421
-407
-178
165
-378
-312
-483
150
-311
-148
-421
-141
-14
-12
121
-9
40
-224
-167
41
-165
44
-221
-184
-213
-224
-87
-221
-41
102
-320
-137
118
-70
-407
-135
-37
-281
-796
-194
21
-96
-346
54
-194
-109
-285
-85
-319
-330
-358
-229
-359
-319
128
-248
-405
-224
-229
-346
-214
-20
-125
-6
-164
-67
-48
-307
70
-119
-128
-342
-280
-30
-158
-181
-99
-295
-647
70
-96
-162
-407
-420
51
-592
-330
-156
-279
-261
-363
-388
61
-188
-229
-161
21
26
-398
9
69
-427
-98
-167
-243
-362
211
-75
-99
-78
-180
-65
-235
-35
-323
-14
-132
-74
-242
-174
-337
-149
-163
-274
-31
-1
-247
52
-460
-240
-444
48
-223
-27
-564
17
-104
119
-492
-19
-75
-263
-145
-480
-238
-261
5
-468
126
-22
-200
120
-373
-19
-16
-287
-102
-241
-511
-337
-350
-316
178
-358
-208
-323
201
-292
-117
-266
-318
-289
61
55
-99
22
-342
-99
-74
-107
54
-314
46
-359
-270
-341
-483
-311
-422
-151
13
-53
-18
-158
-461
64
-137
-377
27
-76
-329
-129
-223
236
-61
-269
-28
-205
454
-405
-76
-244
-263
-346
-152
47
48
-122
-38
-205
