-370
-262
273
-402
343
384
662
691
-494
-666
50
54
-823
267
8
994
823
279
-363
-195
815
-91
-140
381
12
371
282
-520
-388
-141
552
-6
558
-595
-362
212
-671
-362
-191
-663
-402
-699
-366
358
135
-75
646
354
-129
-94
-1196
-126
812
-318
402
517
-232
-569
-654
-652
-264
349
-146
-452
57
599
-132
82
-743
-210
-398
261
-375
-259
447
-85
-532
250
195
130
-133
383
-158
326
-59
-458
279
-430
-748
471
-511
-606
352
-362
319
-44
357
-244
227
-518
-454
-328
440
-315
-331
150
-350
-731
-430
152
-317
-59
-278
-708
-313
170
-144
-445
-324
-231
-232
-326
12
4278
106
-1126
-143
268
-465
101
-39
101
-293
-322
-669
-87
114
-269
-296
-329
-424
25
-38
448
588
-214
-341
-1129
-431
367
-258
467
-407
-249
-512
219
-54
116
117
-694
-79
-428
-174
-53
760
190
315
432
-521
-175
-341
-604
-268
-329
-147
220
389
-83
204
225
-1852
436
-155
-179
92
-22
1155
-269
380
75
-609
-16
579
-597
105
-420
-375
-182
-77
-87
14
61
-116
-612
-375
163
-199
-389
54
134
-674
-166
-15
457
-121
-177
-825
-202
486
-544
50
625
-307
210
-184
1686
208
-699
398
-265
-669
-299
1331
-557
-374
-161
-215
-61
390
-1247
200
314
-860
546
-224
-376
257
17
-417
-297
-781
595
-203
-445
45
-374
-259
-557
-188
425
495
-32
-173
-126
-88
-1006
15
-1
129
117
-114
242
-521
166
-182
-369
0
-10
-315
-354
13
448
-145
-423
-1156
-258
627
-207
-129
-465
-258
-20
-757
-118
744
131
-299
37
473
-277
-450
529
-63
300
364
-192
-414
-556
-4231
-18
-624
-424
522
308
-550
363
-199
-279
-218
-356
-113
686
255
-1149
-327
-490
-57
751
-107
-354
278
326
218
705
-208
-433
-575
-110
18
-561
49
431
279
207
-168
-712
-54
-939
-373
-1077
-251
-423
942
-295
-70
-275
-412
522
99
25
-74
-864
454
70
237
62
-421
23
-671
-442
-1132
-214
-114
-829
-1081
-88
484
-666
-886
43
-261
-6074
-453
-707
1012
-206
-376
322
-223
-720
-572
-37
10
-718
-423
-252
-763
-629
733
-309
-138
-519
407
-396
-555
-237
118
-786
336
-249
-214
32
-70
-362
-203
209
109
-496
-38
-118
-84
-324
92
-578
-45
69
-418
-803
-578
355
-566
-621
-311
374
-335
138
196
-751
-147
-235
226
63
44
-696
-428
-1439
-787
377
154
-401
254
-454
552
-455
750
480
-185
226
-1427
-1132
-73
-730
78
498
864
-350
567
-1328
-15
-217
60
-266
-391
435
-487
-692
-258
159
-661
-330
-198
-261
-484
389
-652
-462
-207
537
-96
-187
-684
-445
8
73
-191
-425
-715
-123
77
459
171
461
-363
-598
-190
-13
-627
175
-883
-311
-428
-282
-141
-380
-141
698
-85
-460
-792
66
-210
252
136
-362
-74
-433
-448
-246
63
142
56
-128
-611
-37
184
-604
-80
-555
41
-1385
129
-192
173
-271
-631
-435
-404
-21
536
365
-406
-381
420
-117
28
-216
-304
525
-50
-349
-527
-342
608
-434
-537
46
-83
233
-220
110
-521
-19
630
-98
-460
235
132
-1220
83
-1082
-301
234
255
117
-622
-569
817
-320
-546
-274
-274
-448
120
-278
-169
205
-550
-124
88
252
-3
-213
-494
449
221
579
-92
80
-822
30
220
-469
-225
82
-151
-567
-764
-198
-420
-735
783
-65
180
-115
14
278
625
-264
69
67
517
-23
501
1036
-153
45
430
151
417
-68
-481
826
-643
-995
-178
-1296
29
937
304
785
434
286
589
334
-284
-412
336
423
-44
-423
81
-371
383
-316
-41
59
-144
837
566
717
526
-235
-668
-285
768
-383
318
109
-131
-253
119
-346
299
-282
-142
-174
124
612
-667
-135
-365
-384
-213
-1
173
-95
-829
-278
-250
257
704
-36
-434
-31
702
158
1108
310
-82
123
-370
287
217
166
-388
-45
-863
99
192
-175
-2767
-56
-380
228
399
-631
-340
-556
-366
-279
198
50
-353
291
969
-256
-449
872
-465
207
-149
-119
-955
-583
169
321
77
-858
281
319
-352
-342
-326
618
-678
-194
-1213
284
-363
-640
254
-562
220
-660
-691
-204
-293
-271
