-642626
-62164
897061
425895
-107341
-19011
489195
153625
629510
-1644944
400590
-374544
1106609
-875671
1132317
-216423
-54904
-20582
216457
-479087
762584
-264537
761458
66749
132461
-714727
-167839
1085112
1114896
715115
-487998
-2822
-1370686
-58259
649477
-966756
-143648
-431758
-75065
-136325
-1048003
36521
1233366
-368481
40112
-233565
-102169
64729
-926759
-800957
-656656
-620313
108571
5240
35548
56674
-117644
-37168
38518
-270488
-239771
51418
420802
-807308
-636700
-1223152
-71766
84152
115325
59710
424572
-60729
414646
-792615
-867382
63370
-136891
254281
-76421
-1243323
-535725
-879537
145587
1033174
-1145981
-384868
-128733
-33990
-1422118
98736
219876
40740
-704171
133232
757366
-142519
5530
520091
33857
-82561
-151638
-51945
128793
-25458
59835
-170647
-209073
-293845
-704155
175175
150288
-96986
-18717
-876930
81639
-175
-1393235
-337336
-1465004
583876
83730
-241952
1118706
587010
67735
-65964
714263
-129703
123505
57083
486828
-11071
-1177391
-1281655
190291
1076426
44767
1206604
-72129
943795
686838
260341
-533249
-223532
73057
259525
-539850
146386
-143107
-295920
-2713
-81083
769313
-986448
-140385
1002447
381381
1164342
1063225
-65073
-231209
692150
135279
48498
443596
404
-1040088
101448
-578606
282567
53607
-74088
787192
-1253437
-70932
287385
1384758
841492
75001
-429718
-179435
-432431
-1153948
1245016
108694
21154
126659
-270567
-806532
-801651
415478
188944
-785580
-72441
-156976
-50202
20542
535581
96068
-181005
-71109
1147357
535460
587607
-252991
225182
-774086
-539203
-25870
104320
37227
1419532
192502
42496
-857193
-1360332
-10849
-899918
-132995
-431464
147790
87187
-795755
60467
-774051
-765489
-30389
-137256
32416
-127206
263441
-573638
-479456
490120
1113774
493796
-869468
601038
-73061
467799
-188857
982968
-239346
79607
-1037744
710018
-672222
868830
12079
-1273547
-1070358
224358
-17735
1126130
-183919
518882
-403089
-1159017
-179673
484766
-1362738
-503411
-44362
-246117
-51199
-161352
-1158608
535966
-54814
715937
-158411
-492293
192930
-1110601
-11499
106616
857118
-141056
-983375
26223
426210
187364
902618
623605
197120
1170889
874161
561051
147064
-276877
1703170
508632
-155261
-1044948
-193071
579645
-281820
-179638
-1566
-995283
-681497
1082352
565431
-156280
714957
1110106
-352190
-499853
-123221
986575
-209131
334536
34429
-2517
792408
-614067
484139
545782
-180458
72182
-323392
-1007596
130635
-133022
-403622
-1089518
-52225
-470174
107213
39981
37750
-640664
-2958
-875589
142225
251587
-458049
-409493
224639
-475689
863675
-1118087
1074189
-44296
-667698
437049
-36731
-922768
56839
63961
-8577
296728
-105606
-1252056
-290498
-297480
63276
-95814
1249515
3491
537720
155851
1321232
-1259260
-527844
-772540
-1183407
1110356
1096303
77283
-717286
-11031
990347
-162573
-813103
106268
410147
-155974
1006796
-450139
-178641
-127492
100242
279581
-377177
104469
-227976
-40887
-100083
-287937
-1202905
-152099
180417
338407
-238012
666931
-123287
-206539
44918
129587
-239067
-602191
-399230
-585732
-1274674
576231
26507
-44209
-234
-58603
40288
-285201
-863508
47281
218595
-891120
1214421
-66484
154816
564582
901029
-242990
-41094
-74661
-1025349
88673
-1026214
1132120
-673733
132274
99322
-148460
140233
-177190
330301
-126938
532757
324444
-510145
-247326
60814
1015744
-56248
-27190
-1036011
-913735
-321279
-731106
-1241208
670452
321472
131197
98706
-131004
-175685
-433267
-76013
-1075576
840759
-318766
178844
-73524
100775
-1085277
1186335
147089
-1201
135618
-527702
270933
-481564
526079
-90584
190160
-174710
-872084
697725
324849
69318
122519
-747979
43352
1160346
784571
-265046
-179879
244395
-121493
-1241464
900178
223656
-7399
-3832
91712
657568
-9965
-39854
-417208
21895
-36479
-148875
176606
-6363
-48421
-1256603
406317
-694337
215661
1003807
-869068
205783
-150639
3921
303580
-127814
-130229
25923
111025
1064204
-219717
-1225502
-558700
-23993
-1042562
-353690
-20925
94723
-30529
-102769
369140
-74517
-1090268
-32313
-29471
1225993
9981
-214465
-856485
-649413
-89555
700445
-1018227
1179965
-1104663
11103
210528
99861
-615299
-6065
-355067
-14319
18168
250179
-1035709
-35904
-104701
100114
-50497
-54025
732731
31449
-212675
-47014
-55814
17375
184083
-223251
1651
39294
-38048
-760292
-58578
13399
32793
501757
-173903
-306697
-1095750
-113845
917425
273449
-144079
-864745
777340
989885
478226
-55846
457064
-731162
52184
-19900
-9001
318487
649407
-187468
56519
13149
-274170
-590545
-4560
-71863
193707
-576734
-1067827
74457
-126151
-765449
256670
-28615
-166692
540641
1023211
454646
-161805
216142
-156412
-223385
77571
-785338
1465634
275319
638018
45203
13343
1067246
58721
415604
63470
316009
129788
-918859
220383
-1051076
-23240
-886691
124175
92006
1048815
-32380
950110
734300
-111410
353515
879812
18951
-1070009
-1295127
-1352604
127856
-68463
-6050
232373
102437
89807
166934
-376017
1011833
83826
-1147921
1295328
-229294
85201
205281
-1321867
-715524
3922
27110
521222
302688
873640
-37658
-140736
-192774
484178
-297734
-1470822
89964
749447
-603667
1227741
-689809
-69535
963409
340836
517121
648716
361429
-12816
502352
951556
735541
1301992
804595
396536
459927
66088
272318
-1080481
-32835
104423
562961
-20779
-2895
-561228
406347
-7260
209076
-194238
122553
-184453
-171385
-503417
-77148
210722
170680
978031
-153076
-84164
-91365
94049
1204611
-981574
352530
-87047
1127988
-206759
-174427
320985
-692699
-36406
-72545
-614242
633023
-180144
-44418
-245119
338741
40164
-10891
939763
963222
-96381
59544
128534
-72200
-284187
-11803
457990
-850699
540815
-749162
321461
-907499
2103
-17945
-275889
-191354
156461
80384
349882
-487355
754790
-159015
960505
260197
223461
-322233
809654
