-280
129
639
-613
606
-175
625
193
-252
-63
-260
-19
-560
735
103
839
242
334
-159
303
709
-433
623
1204
331
663
406
-95
-1015
558
-77
-271
703
-763
519
-187
-521
-243
576
-1264
-224
-654
-249
-24
-81
-428
-87
-96
-377
-515
-307
-500
1073
-589
462
388
383
-903
-684
-227
-174
478
-260
43
-207
684
-281
248
35
-815
-495
329
-234
-399
292
263
-304
-84
580
204
-60
-34
180
514
25
-461
-297
-97
-456
71
-278
-779
2593
354
800
-575
869
-473
-537
-358
-414
78
-112
-177
1
-483
-507
-389
-861
118
-597
-348
-794
-526
-146
-60
187
-63
-558
530
-405
-416
-237
319
1015
-557
-523
732
-451
-249
-52
575
-475
-350
-159
-238
510
433
-863
-320
-491
132
147
350
420
-2020
-190
172
-675
915
-30
348
-1011
244
346
116
144
30
35
-1051
195
-442
-106
267
-296
335
300
376
-1553
-204
-298
-140
-368
302
-398
869
276
202
468
-280
86
393
-657
436
41
-461
370
680
556
18
-239
-1527
1187
-439
721
167
-120
716
184
-183
-474
120
418
118
-663
406
113
-269
86
429
-658
-433
736
660
39
-80
-814
-303
387
-64
293
979
-369
101
-718
1353
668
-260
200
-428
-182
-81
205
169
-131
70
-31
-756
483
-1115
269
119
-550
14
-167
-227
-376
257
-916
-967
-120
1798
-42
-82
296
-489
-1190
-307
80
-50
-257
-202
-475
150
-199
-1078
30
129
25
-541
17
-235
-649
24
-314
-212
-450
-590
-469
-363
466
122
-404
-616
-437
569
306
136
-14
92
405
19
-700
-378
682
395
280
924
579
-260
407
293
-366
445
1618
-876
-355
-463
-3735
-250
-551
-611
106
29
-167
270
153
171
-796
152
-855
528
1075
-878
-139
46
-287
-621
-221
-650
-57
513
68
611
-757
-47
-451
-395
-209
-746
15
238
131
197
404
-67
-17
-805
-207
-881
-1117
-312
195
359
-324
-490
124
272
-351
50
222
128
74
-40
45
-143
-351
509
-276
160
-41
-315
29
-473
-222
22
212
-698
-716
155
-101
-8204
-65
-607
179
-513
-1030
276
-174
-342
499
484
459
6
287
15
-928
-721
353
-717
-247
-385
-29
69
-152
-642
-18
87
793
-716
-139
-140
161
-229
-655
369
-224
-348
-154
-135
-305
-1004
0
-417
-804
83
8
-1090
-739
618
53
-734
-959
667
-709
62
-966
-18
-303
-186
113
201
705
-65
-103
304
-1005
68
-357
-743
-48
-201
136
-365
270
448
-722
-290
-705
-444
24
-1427
-366
319
217
-494
230
-393
362
-228
-41
-421
-12
44
-325
-504
-573
-141
-721
-1148
116
698
-430
-89
-285
-55
667
88
-730
-385
-109
-465
122
-65
-193
-58
-61
-336
2
199
-128
355
-269
-704
-168
782
-249
-38
-52
93
-512
-196
-11
-223
-360
1039
-343
88
-1181
191
-739
782
453
-853
87
-94
20
-778
39
325
-296
-676
-478
130
556
-151
-334
476
134
-837
493
-216
-460
-2
-370
-1295
-829
222
1106
351
-439
-365
466
204
-317
-511
45
678
164
-131
-322
-260
-483
-126
-804
-289
138
-339
-230
-436
-331
271
434
-9
-920
79
-84
156
285
-823
-508
719
421
-587
-313
-482
1684
-470
-226
98
-104
-40
536
191
284
-313
39
242
-132
367
224
20
-418
-130
73
407
205
299
304
236
197
-896
-524
-40
-694
-270
-540
17
-72
-566
440
111
139
203
-73
331
311
-818
269
153
708
510
374
818
-181
213
88
-69
635
173
-685
359
139
-540
28
-451
9
281
-365
62
2
646
641
273
-328
-135
310
-2
-148
-383
381
-379
291
-208
92
-605
339
505
-2
526
526
33
-567
-519
293
52
603
499
247
-345
-279
35
805
-194
-738
-57
569
400
-439
-34
-471
297
161
245
-71
119
-728
227
-366
30
290
-306
-813
42
626
441
391
115
210
317
-8
-116
120
4
-271
382
-197
13
-218
168
-236
-34
-257
-294
385
-215
-44
-592
-414
379
62
562
141
458
1107
16
-39
240
-116
-118
-57
-252
-355
-355
98
125
169
-224
185
270
-260
-777
-97
471
-990
-46
-585
593
69
133
272
312
-131
-928
-704
597
-143
75
