79
145
-208
122
204
136
-134
52
-223
133
-420
175
414
-31
70
365
-130
375
-141
-172
-671
-519
-336
-34
162
-146
-3
203
301
357
305
-324
117
34
252
422
303
52
431
7
-174
121
436
-201
236
35
-78
-134
-304
-83
79
97
39
-433
156
-341
-401
-631
-348
-514
97
227
-212
92
-128
-210
55
-160
-154
-144
291
16
483
-250
-225
200
326
600
-270
-354
-93
220
-181
19
-615
-272
493
-614
-147
-304
242
41
17
585
19
130
33
261
49
-62
-236
-395
-68
496
95
-5
-63
-1
118
-52
-407
-141
-287
258
164
25
-105
-138
136
9
-124
332
-448
74
184
49
191
-594
584
484
299
-361
-109
106
190
43
-84
-362
-96
-722
-129
-185
-92
299
-365
-229
38
250
261
-396
-135
393
-278
146
161
-32
-323
105
360
-834
160
-90
795
130
-408
-211
-36
-172
801
-43
389
-4
-578
-371
-150
-187
-223
30
-21
-166
58
64
-100
312
-154
155
110
-200
-51
-338
-119
119
-35
-37
284
176
115
51
-118
300
-130
-406
-329
-20
56
171
-253
218
-252
486
-161
222
-397
-59
242
441
431
157
-742
164
15
-200
-71
556
33
-342
-465
187
-349
-183
-330
-183
-414
-267
192
324
-142
211
79
750
-364
34
333
89
-182
155
-475
239
579
383
152
28
59
2
-113
94
231
-52
89
191
-58
-56
35
7
-590
420
-60
-409
-62
-80
124
305
-130
120
270
-423
136
361
460
128
167
-43
-128
-167
50
511
98
81
119
46
364
81
244
-117
111
-496
-854
247
211
-425
-59
533
382
142
-328
-6
473
-160
1143
-61
420
-594
-335
-282
-57
175
-118
-355
-67
-934
103
230
-230
157
-417
-512
-72
-23
-350
502
-9
-609
-161
-188
139
-332
-103
124
-125
-49
317
-67
-702
70
-605
-7
-119
-205
190
-212
423
-450
-136
264
257
27
135
26
-414
64
-621
-174
-392
-114
-315
135
-529
-118
-138
538
-61
47
11
13
81
225
166
77
144
198
248
25
-31
89
125
291
-411
101
141
-97
84
77
302
-286
184
-175
-181
-399
-7
-129
78
65
-539
17
50
-98
-34
-41
-95
197
-32
-123
-138
-175
-204
-80
94
327
117
-893
433
372
-441
-369
469
314
-539
-183
-146
-896
557
-7
-60
-112
-83
-214
-111
312
72
-134
280
-231
601
-268
530
21
-392
-564
139
-5
-124
-12
-173
-75
51
123
103
78
33
537
401
-181
-489
93
268
-311
330
346
-416
284
216
223
123
440
443
-76
-142
-342
-492
-17
-446
-455
-588
-459
-567
217
131
119
209
194
213
-113
-894
-243
-240
-33
-757
135
-185
118
282
-90
-252
-529
539
40
-164
115
16
-79
-84
463
259
-169
69
-105
103
581
427
64
77
-299
1
-41
-428
230
-407
196
-354
433
611
716
49
-641
-328
-26
-223
85
-333
36
143
-135
-26
58
220
294
227
-124
-105
-445
-223
579
-5
94
-20
309
-509
566
-11
254
11
-451
620
304
269
-137
357
221
-111
-233
332
181
-13
528
-107
-187
176
164
-8
257
117
195
-215
-396
52
-33
-42
-39
-34
315
-40
-66
41
-39
5
-432
189
84
-11
-415
-187
54
195
227
314
-487
-132
934
-64
441
-154
496
310
-99
-659
-102
338
-202
157
-294
-1
398
53
382
-421
71
91
-410
-81
218
-155
-375
110
-76
-27
-47
-164
36
-607
152
-116
-464
-175
-183
178
25
196
-321
89
20
163
-510
-312
496
237
273
572
-5
150
451
3
-359
-150
-103
-141
75
8
325
-143
197
-221
50
79
196
42
207
-179
-116
-58
269
79
-120
283
254
229
335
50
-130
-73
6
-21
-54
259
192
476
-443
663
196
95
-300
-198
178
-88
-137
11
67
50
77
342
395
585
-170
227
137
393
248
134
-87
77
13
-29
124
-241
-26
245
44
-312
40
778
9
-28
-14
-140
87
278
-524
125
103
131
-82
420
-254
218
391
215
-524
-503
-605
180
132
-7
-89
-587
597
-228
-246
667
74
26
-623
-504
555
-219
40
-126
-427
-171
-244
