28
-11
1
4
-12
16
-25
-10
0
-12
-5
5
-13
7
32
-7
13
18
20
-19
21
-11
-29
-15
8
10
26
4
7
-10
21
5
24
2
-19
-5
-13
31
-6
18
29
2
-14
29
33
-23
-14
6
10
-13
30
16
-16
-16
22
25
-6
28
5
20
3
-3
2
-5
42
21
45
-6
-62
133
42
-5
94
80
-34
-35
-24
16
-7
2
-52
11
0
44
-40
89
-71
43
49
-92
-3
-45
-43
87
-144
-46
28
49
45
13
90
25
-111
-82
-68
-65
-56
26
13
65
-36
-25
-67
-4
-16
5
-45
2
47
62
14
28
15
-88
-52
51
20
159
16
-35
0
-36
-27
-10
60
-24
44
-7
-18
-16
21
-26
-24
16
15
2
45
35
-24
16
41
9
-14
37
11
-23
81
10
-16
-20
-38
-33
21
-35
-2
43
22
-33
21
17
-30
29
-10
68
-24
-26
48
-7
-17
11
37
-199
-95
-42
-30
-51
-5
23
-13
23
-1
40
-46
-42
-12
-55
-18
-28
-14
-28
24
-14
41
-8
24
-13
-25
31
57
4
-15
0
-3
37
82
63
50
42
-9
29
46
-13
23
104
12
4
-45
26
-22
9
55
-59
0
66
30
22
-23
-86
-73
-15
11
11
-50
21
-29
-16
22
15
-12
58
21
20
-4
37
27
76
39
-5
-23
-48
14
18
24
41
-17
-2
6
-22
29
-86
52
-3
12
-38
26
5
-46
-28
28
-23
32
2
31
7
-16
-26
-33
-78
-24
-1
5
48
-6
-40
1
1
46
5
57
14
-51
26
-5
-68
41
-41
44
-47
10
-45
-49
34
25
54
-7
68
34
-33
-39
12
-119
-12
4
99
39
57
-34
19
100
35
-86
37
116
25
-32
-26
49
15
107
79
-73
-54
-95
75
-63
31
-80
-13
-35
-54
-25
-8
79
-122
-14
98
-44
-19
-53
12
11
0
-10
-49
72
-32
18
35
53
-33
-40
-78
14
-25
-25
71
87
1
-1
26
28
-36
96
-72
0
17
-9
2
-20
-22
23
22
-14
18
32
-1
22
-32
12
6
15
-50
-6
4
4
-21
-11
48
-19
13
88
29
13
3
-12
-25
-17
4
-6
-14
-31
17
23
-22
-5
0
10
17
-33
29
-32
-10
-5
15
-9
-35
35
9
38
16
17
7
-35
18
-1
28
10
23
31
-35
25
24
-8
-62
83
6
-14
-1
9
52
-74
41
65
9
-62
7
49
19
-15
3
0
-27
6
22
-16
-45
35
40
45
-4
-5
33
10
-12
-12
-22
-3
18
-8
-12
5
-23
7
21
-67
-20
-47
15
-72
-23
17
-10
0
-1
60
-59
21
33
38
31
30
55
-3
105
-85
57
-36
28
-58
-45
-76
-26
22
-11
44
-17
-115
-34
9
-30
8
0
-16
-64
91
40
-22
-48
-72
2
-18
-42
-66
80
46
80
-28
12
-18
30
-67
-20
-76
-35
38
82
-24
-12
145
-111
33
-54
-4
-25
33
116
-48
-3
-65
-6
-21
-41
-145
-255
47
-4
-44
-26
-71
-8
24
-23
-93
-46
21
35
12
-12
-59
-44
7
8
17
-26
6
-5
-36
2
16
15
-3
17
-32
37
32
-8
3
22
15
-87
1
37
-9
16
-45
1
-21
35
23
-16
13
28
-6
36
-29
-36
-2
4
-22
-26
-2
-5
14
186
35
-9
-14
-33
13
23
-45
3
-19
22
20
-29
22
-14
7
-12
-16
-7
11
-31
4
9
9
-10
26
-1
11
65
57
-40
-22
-5
-31
36
-4
31
11
-5
-4
39
-18
-20
14
-24
-20
14
0
18
-47
-1
30
-24
38
-44
18
36
1
-6
21
-10
-14
50
-3
13
18
5
-19
-35
-15
-32
74
0
7
-2
39
-41
34
30
-14
-48
25
16
-44
6
67
-29
-94
-8
-3
32
10
-50
11
12
61
2
-27
-91
20
5
-24
74
-1
-29
-4
-39
-31
9
6
39
2
-11
-10
-24
-44
-14
3
5
13
-26
39
25
37
-8
6
-44
4
0
-34
-19
-11
6
-31
32
