-470
-477
323
321
-582
527
-604
-321
-79
-226
-176
-765
431
-933
-21
-218
245
145
81
-1025
-713
662
-596
-382
177
-584
-557
258
310
-246
3
-340
-393
269
-286
109
178
-641
-654
450
-162
426
14
-530
-14
-13
400
16
-422
50
385
-376
-700
413
-231
148
-172
423
-368
295
194
-218
601
427
-105
-357
-269
-151
-329
55
72
-78
273
64
-568
-16
-233
-611
-232
-509
72
-100
-330
-633
-242
-356
337
-735
-287
-155
-251
74
-1222
339
-324
-52
-657
357
-34
53
-159
-436
-142
239
-494
-717
168
-160
-348
-540
-68
-360
552
567
90
-58
-287
-248
53
-724
140
680
194
-242
63
68
29
-326
-99
427
-460
-412
26
-31
214
431
78
-91
338
228
-219
-367
-93
-158
-235
908
-26
261
-131
-644
-91
-471
155
-224
-207
130
-573
-783
-360
-202
-116
-268
162
-275
-316
-762
-309
320
662
3
53
-421
-282
-784
-479
-689
-359
-125
152
-250
-31
-99
-149
-749
-585
77
-718
-446
-600
-86
125
638
-685
48
-85
-343
-127
-540
114
-29
152
-577
-512
-341
47
-614
-413
-121
-193
-135
-338
345
-553
-519
-110
380
153
-63
-663
-223
-219
-659
-491
-25
-210
-448
-401
21
-413
-20
-451
32
-297
-97
-196
-411
-296
-462
-156
54
-107
105
-17
-106
134
-218
370
-226
109
549
-304
-398
-6
-36
9
124
367
234
-347
-184
-434
342
-541
-136
-593
-418
-115
-190
-428
-221
-238
-200
-217
118
252
-337
28
297
-90
453
-654
-479
-283
188
53
-36
-267
-617
-549
-99
-291
-306
229
-140
-635
-246
-95
-844
-49
222
36
90
-4
-253
-525
-699
189
246
-284
220
-92
-365
-239
358
-345
353
-149
-23
-142
-187
-305
-15
-410
123
-178
-501
-148
-133
-39
-205
-64
-45
69
-636
72
-126
-238
-25
-159
-347
-9
-454
-316
-54
40
-870
60
188
150
115
-41
-579
0
177
-22
37
45
-242
405
-171
-429
22
108
-177
-359
-64
-90
-155
45
-80
142
11
-381
-223
178
-76
-115
-99
336
-138
-179
485
-479
294
-26
-197
244
-537
-339
373
-169
-255
-454
-157
-457
-32
11
-39
71
-310
-40
173
-136
141
-110
578
-467
-147
-275
-7
587
160
-64
-46
91
-406
-170
-57
-365
54
71
552
-463
270
265
-353
-202
134
92
-123
-101
0
-33
-235
-456
-499
371
-12
47
272
-252
-338
-222
427
-116
-33
247
-293
37
268
-56
-298
-648
556
-513
-132
-67
-279
-101
248
-134
324
-256
-806
-472
329
340
-222
-485
-225
-164
225
-122
-56
-194
-61
42
-27
189
-11
26
-343
-97
-220
247
-177
-424
-474
473
-6
-95
122
-714
179
272
-245
840
-351
115
-165
-101
-160
-190
-203
86
211
-3
-70
164
-236
-191
140
-389
-148
293
-726
261
-389
295
-406
13
-384
-580
203
113
-86
-297
-197
-412
-148
246
25
-282
-35
-81
20
68
-359
-214
19
-409
283
30
-314
-42
303
277
351
-327
-508
6
480
-286
-405
-612
67
-447
-329
-436
-51
-49
102
221
81
-51
-147
-316
197
-117
-77
-270
-82
-175
-336
-335
-371
-55
-286
-342
-292
167
80
-379
-239
-203
-418
-1041
-129
97
111
-116
392
-109
108
-497
-128
-469
-186
-408
-400
-330
-265
200
-378
-256
-384
-258
-389
-38
-19
92
-31
-251
-164
-50
-209
-171
18
-315
-459
-115
190
5
74
-56
-188
-753
63
-148
37
-205
-570
234
-637
-876
-119
-443
-255
-353
-612
265
-329
-255
-343
-71
-76
-196
57
-67
-658
-98
-135
-87
-408
235
-143
55
33
-109
87
-243
76
-337
15
-256
105
-133
61
-294
100
-132
-622
-84
243
-236
37
-719
-193
-338
95
-484
72
-501
203
-126
349
-622
165
35
-184
-109
-541
-236
-356
245
-715
336
25
-364
296
-490
-82
287
-115
-23
-302
-825
-531
-281
-56
185
-523
-132
-393
349
-307
-50
-403
-401
-404
187
293
-216
127
-416
-106
-75
-175
380
-367
321
-432
-284
-215
-580
-222
-609
51
327
68
231
-205
-386
209
-263
-398
-49
70
-312
-194
-26
346
17
-346
-87
-232
945
-458
122
-153
-186
-427
-222
331
-18
-103
-35
-105
