-115
181
230
-195
665
-108
710
404
-67
-395
196
318
-658
85
3
1199
645
449
-348
68
767
-497
27
1144
468
454
-24
-212
-1174
507
-173
-241
756
-151
101
333
-706
-354
-149
-568
-601
-650
-521
631
-99
-648
143
290
-417
-386
-245
-438
1030
-651
576
598
305
-1074
-176
-562
305
323
-187
189
-365
315
-340
151
-23
-732
-260
306
-225
-801
346
-129
-439
280
381
399
177
-147
488
855
9
-689
469
-424
-833
-41
-796
-953
1538
-185
412
-344
425
325
47
-258
-212
-250
715
-278
-207
1
-86
-559
-804
-133
-543
-238
-1419
-261
152
70
-107
-51
-338
-41
-271
-361
43
518
506
-911
-62
788
-553
-235
-275
-222
-424
146
-1231
-187
367
480
36
-419
-128
55
55
389
532
-714
-239
-111
-730
850
-627
719
-517
-163
-145
137
105
-68
341
-375
-63
-614
-190
-498
-96
217
876
286
-1161
-579
-390
-340
-459
185
-319
1389
73
-186
386
-431
-307
148
-476
11
279
-644
139
525
149
-379
-508
-1003
1025
-677
501
47
25
1315
201
104
-623
-123
360
-1060
-365
-223
42
-235
562
394
-662
-513
47
1146
-436
-763
-822
-646
1791
-1166
383
834
-376
158
-506
1023
95
-614
343
-14
-739
9
1089
-601
-171
539
-345
34
286
-1039
287
331
-854
824
106
-320
-38
-55
-654
-363
-564
1428
245
-51
568
-537
-719
-395
140
121
101
-202
-249
-231
-57
-1450
-7
-226
-306
-453
-157
166
-582
541
138
-273
60
-62
-274
-575
220
498
-498
-181
-544
166
488
-293
-947
75
-171
-28
-518
-369
665
24
325
596
912
-517
-426
486
-297
-91
1296
-623
-276
-355
-2309
-622
-213
-385
456
428
-67
185
-343
-204
-578
318
-785
352
575
-1335
-346
-422
142
59
-373
-524
375
-282
-215
789
-795
-7
-608
-406
-217
-928
513
110
571
354
-172
-1185
131
-1083
5
-964
-757
-934
2
34
-163
-578
-160
364
-120
502
-98
-170
161
50
476
-32
-481
664
-485
-184
-366
-467
-177
-833
-1111
-234
180
-626
-997
29
-231
-8388
-245
-712
224
-401
-972
37
-176
-667
97
125
105
-293
-56
-534
-1145
-542
128
-783
-518
-433
277
-397
-1063
-894
-81
-646
540
-430
-460
-710
-42
66
-398
723
-443
-746
109
-210
-331
-1445
-7
-473
-423
242
-125
-981
-798
209
-55
-825
-582
992
-579
271
-104
-930
205
-149
385
-122
88
364
-144
-430
-351
230
-275
-996
-290
-233
-73
-378
228
479
10
443
-666
-367
133
-1634
-356
414
321
-201
149
-860
126
-123
-75
-90
124
-50
-66
-210
33
-14
-957
-770
-73
636
-647
-709
-296
-463
427
391
-968
275
-227
-272
-29
209
171
-205
-199
-214
-55
-129
238
853
-731
-778
-52
364
109
-41
-1103
-659
-413
-519
-241
-221
-134
1247
-261
277
-457
-105
-391
66
391
-267
-72
-379
-678
-266
-207
804
1010
-498
-808
-188
95
-1179
-161
-97
80
-1049
251
-168
160
-322
1
-365
-623
-294
833
661
-764
-234
348
-125
-333
-486
-334
683
30
-758
-418
-478
-132
-596
-787
139
597
-265
99
-157
-57
107
400
316
-716
111
-81
-1309
298
-1233
-758
399
475
-352
-200
-680
1285
-441
-647
14
-79
-185
596
183
207
-689
-231
46
-501
151
-64
41
-867
180
310
616
174
-274
-229
-52
102
-451
-66
225
-454
45
-205
137
-382
-397
1002
111
-202
806
-268
471
900
-692
87
-262
266
399
663
861
-337
-94
236
-142
528
-287
-523
389
-5
-756
-40
-716
180
282
105
831
213
489
942
620
-891
-441
649
52
315
-624
-83
-690
2
-585
-14
-291
128
880
212
585
553
-296
-1228
348
315
-671
813
110
-292
-50
-368
-353
581
26
-313
82
122
474
-978
-334
-401
-129
370
-107
-230
345
-702
192
-804
-204
454
124
-624
216
244
452
359
151
-106
113
366
62
935
-52
-358
392
-122
19
42
-322
-450
191
-642
-535
715
-528
48
-319
-216
-35
534
319
-148
-106
1177
-512
-82
1171
-192
-41
66
102
-241
-416
-448
516
-168
-278
261
436
-478
-151
-157
715
-1137
256
-167
517
-287
-226
-108
57
-6
-182
-927
438
101
-60
