-27
24
5
27
45
2
-6
38
-13
-6
-13
34
-1
24
-25
-9
-5
0
-5
-17
-6
-35
-23
-29
-10
34
-2
9
-65
22
37
30
-15
11
7
13
-21
-2
-24
8
20
9
17
-5
-9
-20
18
57
-3
-41
9
-26
1
-46
13
30
13
-56
9
17
23
86
-31
-3
7
37
-35
-3
-22
-5
-46
2
-14
11
-14
15
-14
4
-17
0
25
4
-2
13
7
-67
-3
-9
-32
30
11
-23
37
-40
44
-15
106
-7
-13
-27
2
-2
-16
28
27
25
12
-22
-26
-31
-26
5
-50
-6
-18
14
-38
-5
-25
15
-22
25
-11
-18
52
-88
4
19
-34
-15
8
2
-28
-18
42
14
11
33
-8
8
-6
28
22
1
-40
-28
63
10
-17
9
6
49
-58
9
-38
-65
41
21
2
-51
-10
-13
10
-11
5
67
12
-25
-15
-24
11
22
-44
-1
21
-16
-44
-4
2
-59
22
4
-3
-18
17
-19
-39
39
-5
-3
11
8
-25
2
51
49
5
50
-20
-26
-22
-23
48
-14
3
-7
9
-10
5
61
24
-10
11
26
25
24
-65
-2
42
-17
12
37
-22
-4
15
-30
-19
-1
8
9
-7
21
12
17
-23
22
-14
-1
-10
3
25
-17
-16
21
4
9
-26
-37
9
-19
-18
2
26
9
24
-7
-37
22
-7
-21
-2
-48
20
27
-3
4
-19
15
19
1
1
-11
-49
40
14
-51
-66
-4
44
-23
31
-19
-47
-55
-6
13
22
31
-6
4
-8
-16
-16
-35
-21
-46
25
11
27
5
12
14
-12
32
-13
-14
-34
4
-176
0
-20
-15
16
35
-10
-21
13
-51
-32
12
-50
11
15
-50
-8
-7
22
-12
15
1
13
-64
13
19
29
2
-26
-46
7
-7
6
-31
-29
34
0
4
17
11
0
29
-5
-15
4
-79
1
8
37
13
52
-7
16
0
-4
-6
-4
33
-24
-17
20
-45
-25
56
-26
27
2
4
-3
-54
-35
21
35
-47
-24
-11
-2
11
-28
14
-30
-39
25
-12
17
-74
8
0
-15
-56
9
16
-37
-2
9
-7
52
4
8
-27
-18
-4
-7
44
-8
15
-42
7
-58
11
31
38
2
-1
25
25
-21
48
6
9
-18
-15
9
-32
19
37
-45
9
-34
-31
0
-26
-34
14
43
-42
-18
-17
37
6
-20
-45
-1
-12
23
7
6
32
2
-2
-48
-34
14
-54
-21
-21
35
23
-22
-77
-36
49
-16
9
8
-17
22
-27
-48
11
-45
-18
48
-22
-32
-45
-21
-8
25
-1
-32
6
-23
20
-25
23
7
6
40
38
42
-2
32
1
9
23
21
22
-4
3
-30
28
-24
-17
34
-6
-33
50
-42
-72
19
34
3
22
9
11
-15
14
-22
-7
40
13
37
9
-30
-27
28
-28
-25
9
-38
-17
-19
-2
-8
19
0
29
-2
28
-2
13
36
-9
-19
-2
5
3
-9
3
-8
16
-8
31
-6
-16
9
30
-6
-4
18
5
19
2
10
-23
-14
-12
12
-43
-15
27
-113
38
35
-51
-35
-8
12
11
-31
1
0
-20
-8
61
-22
-43
34
45
-14
0
29
30
-7
-6
4
-9
16
14
7
23
-1
0
-4
-25
-100
-12
-33
4
3
-35
25
39
-18
38
-22
23
5
-9
-42
3
22
-18
1
70
-15
-13
6
13
19
8
8
9
-7
-36
-23
-1
21
21
-6
4
12
15
6
23
-26
38
-13
-17
3
-68
26
-13
-5
-6
-5
-6
14
35
8
9
-17
23
-11
-4
27
-53
2
20
16
-17
-8
-29
31
24
2
20
6
12
2
-14
21
-18
-6
11
2
43
-28
-10
-3
-23
14
-24
61
41
-6
28
29
-18
9
40
0
25
-14
62
-12
40
-9
11
10
16
-6
-30
-5
1
11
7
-4
-19
42
21
38
-3
25
13
36
-53
4
32
31
15
-5
-7
4
69
-18
-5
-23
-40
61
-23
22
2
-20
23
-50
53
-34
-29
41
-15
-5
24
-19
-9
-38
-30
-25
5
