-201
125
-181
-639
298
10
369
192
293
24
642
341
5
-586
307
7
-189
131
223
78
205
-240
469
-3
541
12
203
-425
-36
-309
544
-265
-384
-314
-174
447
174
382
295
-365
-222
403
-254
513
438
414
-133
-61
-238
-69
177
-3
365
-144
-19
-271
253
515
79
243
234
-159
439
400
154
-8
54
-87
-17
32
44
45
-152
-50
-383
28
5
-188
31
-2
418
62
-38
-8
0
-91
-51
19
18
114
-24
9
-134
14
-76
-55
149
116
-142
96
-16
-100
403
241
-74
162
-39
-59
116
-107
2
-73
83
298
-100
-82
86
87
-30
-1
-125
-76
454
-18
-47
-127
51
17
-78
2
-62
68
-39
85
-29
-58
-102
4
-50
-14
123
-22
2
77
98
10
-88
-43
-47
-43
62
6
-35
-13
63
-29
33
40
-38
-34
-13
6
-165
13
-59
23
28
-12
-36
8
82
-66
16
183
29
-71
20
42
13
-2
17
30
54
-23
37
-25
-3
-39
102
-4
-13
-51
-18
-30
10
-45
17
-14
37
16
-34
-11
47
-34
-11
47
-5
-60
-37
-61
30
13
-21
-7
-7
21
-27
-4
11
-30
-14
20
-21
-50
-7
85
-14
55
-6
-17
30
1
-28
31
12
-87
-4
-70
22
7
-28
8
-10
-8
-2
-53
11
14
-60
10
45
28
11
-2
-60
-29
-44
-29
-146
-23
137
-11
46
-117
-56
15
-20
20
9
-76
-130
211
92
-85
-78
-4
26
-131
-91
336
27
-159
37
-64
141
-161
-69
-89
45
-33
11
51
-165
-21
65
367
17
35
79
-86
-20
-24
-8
-5
-239
-53
46
-95
31
193
-153
-44
-21
7
-24
277
74
211
-22
12
11
102
50
5
-120
1
58
-88
63
-45
-36
-56
-18
-78
43
-11
-17
-6
-28
-61
-14
-46
37
-20
123
106
92
-79
5
-10
29
-73
43
-54
-39
49
16
-8
93
55
122
-50
-70
-94
21
-141
22
83
166
54
-24
-36
56
25
5
77
88
36
85
38
37
-43
33
-34
57
11
85
58
302
257
-56
106
48
-481
16
-485
31
-113
-21
-48
-93
6
-51
217
-21
-19
-25
-71
2
119
-29
-31
-8
26
-163
-39
19
11
-16
208
17
33
361
-3
-54
-74
-40
1
156
37
-177
1
113
408
37
-28
45
12
-81
-33
-51
160
-29
4
-384
192
-119
146
-40
-127
-43
-144
71
-18
25
40
-7
38
-51
-69
32
88
-166
-12
15
36
18
10
-18
187
-28
-61
-60
-26
-117
-72
48
55
31
-39
-28
37
-1
-51
-31
174
-23
-30
-15
-76
78
21
-138
-50
114
46
-37
-18
145
6
-33
-17
13
-27
-50
61
-61
99
65
34
102
30
-44
-10
-49
92
63
-38
-63
-36
28
24
27
15
26
73
-39
-25
2
-19
-28
110
16
-45
112
4
-3
-191
-54
-21
123
-26
-29
24
5
55
58
138
-75
-94
11
-9
-42
-41
-70
24
-108
-34
-39
-4
-7
11
-58
37
150
153
-166
-64
-44
-125
-16
-49
9
-102
66
42
128
-8
-65
-360
336
102
-168
-43
29
-205
475
-61
83
7
15
181
4
0
-25
-250
-80
142
-132
67
-189
315
-21
-80
-30
270
160
49
-42
-199
231
204
327
40
248
-134
-130
49
-142
52
-88
116
36
-23
70
10
320
-180
-207
-1
127
-5
-17
-146
-109
312
94
-58
-5
314
-44
7
-32
4
52
53
-37
8
52
-127
-135
-6
74
-2
30
-25
-49
53
-179
-67
0
228
8
-124
14
21
-6
85
-36
-11
-48
39
6
68
18
39
-77
-35
112
115
13
-62
8
91
15
58
-1
89
39
-11
-63
-19
66
26
29
18
-68
49
54
-171
80
45
-26
14
-5
9
-51
59
-16
13
-10
72
-19
-5
-12
59
59
24
41
70
-44
-66
35
-21
21
15
8
-30
21
-17
30
3
418
50
2
-20
-32
-42
-65
27
-65
-51
52
-41
-53
-60
-42
63
54
-10
-74
-29
30
81
-6
-29
-25
27
-12
-48
13
-9
20
33
0
-54
86
-4
