102
-62
-8
0
89
-50
-19
25
81
-33
71
69
33
82
19
34
62
48
7
-38
-19
-3
-78
126
-28
53
10
41
44
-33
-5
4
52
-11
-22
16
-79
-25
93
-70
39
54
-41
7
-147
-114
-44
10
-7
38
19
33
42
-90
49
-79
53
-28
102
-28
-21
82
119
3
-78
-78
70
11
31
30
108
-54
-13
4
-22
-49
39
-28
18
49
-51
28
4
-23
13
27
5
87
-11
-56
-1
6
-100
-40
-87
-53
-6
-61
-19
-9
-14
-2
59
19
-38
-30
-17
6
-28
-45
-113
70
79
22
-2
100
39
14
5
-19
-2
37
60
-65
-20
76
-4
87
36
8
-33
-20
31
-11
13
-29
40
-41
29
30
9
9
40
-107
49
1
-34
-44
1
-11
31
-2
57
-33
-33
-38
40
-18
-44
66
-7
11
6
36
-53
-28
-11
-42
-25
27
-2
-12
41
-38
-92
-26
61
-33
-2
8
8
-43
18
-17
-96
-11
23
-36
26
-11
45
26
15
6
-56
-11
-21
88
19
14
-34
-16
14
-72
-37
-4
-26
74
16
15
20
-17
-10
-22
-1
-12
10
-61
69
15
2
-29
37
82
-99
11
33
16
-21
-10
-29
-1
13
-1
-32
43
40
4
62
3
19
28
-46
29
38
26
55
39
-63
-10
29
-60
3
-112
-17
-9
-16
-38
6
-33
24
-15
-28
-13
3
38
28
13
31
61
-10
32
-64
-52
55
16
-26
-20
52
-33
13
45
10
21
17
-9
-27
67
-22
6
29
60
-41
43
-55
31
-36
45
12
-15
-12
3
65
-46
-19
-59
37
-12
46
-56
36
35
12
6
-19
52
56
17
-47
16
-15
21
-47
-36
11
32
39
-12
-10
68
-67
-32
12
11
-58
-81
112
-83
-27
4
26
142
40
-16
25
24
17
-21
84
19
68
-18
55
-8
38
-64
-103
13
62
11
-9
42
51
-52
15
31
-83
-62
20
-35
25
-47
3
15
24
-84
72
44
-32
-56
25
54
26
67
48
57
-10
-163
-34
-19
-82
-102
-41
-22
-2
-97
24
128
40
4
-21
-24
116
7
73
70
19
-31
-64
37
7
79
78
37
-164
45
37
167
-56
-4
-118
-22
121
19
-36
-4
-82
-112
70
-38
8
-147
-21
-36
-68
43
145
-29
44
-46
-72
-47
-92
-59
-124
-44
52
71
50
-25
100
-7
-33
63
-9
52
2
37
18
20
-18
0
-12
79
18
13
45
-42
-16
-28
0
-50
-32
-75
68
88
57
31
69
6
72
-35
14
42
-9
-3
-8
-60
-15
-27
-48
-17
7
-34
-18
73
-85
73
80
22
63
50
19
15
-103
-9
23
50
19
-7
92
-34
-11
-9
-18
-16
22
34
26
26
-18
25
10
20
-14
22
-16
9
8
10
3
0
-23
-40
-31
1
-29
-22
2
3
-29
-25
7
0
-28
-12
14
-35
23
8
-11
17
-4
-40
4
28
-25
31
7
-45
-2
64
-26
39
-23
-29
11
16
-35
-23
-11
27
6
20
-1
40
77
202
-49
-199
-70
-69
-78
2
49
57
95
47
54
-122
-133
-10
150
-96
96
-71
-81
32
-169
92
18
100
-123
80
95
22
-3
138
6
-37
-4
-41
-60
-47
64
43
-204
-179
151
-82
32
21
6
-401
-56
-1
28
65
-150
88
39
-22
-86
26
7
31
-28
-64
-37
123
33
-69
-2
63
-35
-44
-4
58
-74
-18
71
-46
-40
-59
71
-50
-20
-52
-69
66
-145
33
-63
-30
101
108
-14
-19
-99
-36
-44
-15
-87
-7
29
39
32
-77
83
40
60
43
54
106
-1
87
-63
95
27
66
-32
-77
41
15
88
-17
123
57
-40
105
-38
-58
25
-53
52
-52
27
-70
9
120
-16
-39
-8
-5
-22
112
-52
63
-82
-22
7
12
-10
-104
12
-30
-64
99
-105
5
-46
-17
20
27
29
20
-9
-76
-15
2
-1
-6
23
-84
-110
17
28
-106
-74
1
-81
28
16
28
17
-58
-10
79
97
-32
-105
23
-3
10
-27
-31
-58
-23
