-418
-20
179
384
-436
321
-770
-367
-91
-187
-170
-426
559
-855
-501
71
583
306
-327
-1065
-512
245
-731
-514
241
-556
-714
110
157
-101
-130
-80
-656
241
-408
156
-84
-114
-326
614
-26
243
-133
-303
150
145
58
183
-206
-275
236
-209
-1023
1356
-272
19
-298
574
-27
90
78
-207
707
528
93
141
-233
-326
-132
15
-272
-224
393
224
-318
-621
-351
-247
-130
153
-239
-201
-363
79
-355
-442
42
-94
-353
-118
-302
165
-1702
-303
-102
-236
46
187
-202
42
23
-363
21
28
-404
-80
355
-89
-531
-255
170
-631
877
427
-410
-164
-487
-418
-42
-228
82
882
15
-340
-315
-52
9
-243
-346
140
64
-651
227
-340
124
266
554
179
467
947
-77
-142
-39
-218
-548
1716
69
179
-288
-327
-334
-461
73
-206
-168
-125
-608
-574
-309
-736
346
-490
-94
-176
-359
-328
121
289
520
164
-333
-451
-560
-548
-178
-1222
-116
-471
-512
-108
-23
100
-877
-677
-540
-189
-573
-1035
-275
-85
390
498
-1270
426
192
-172
35
-432
21
-317
-160
-861
-613
-619
-84
-483
-626
197
43
117
-1
20
-565
-456
-233
657
16
44
-941
-465
-475
-694
-451
534
-336
-313
7
324
-95
-297
-371
-3
-374
-71
-324
-398
-390
-542
-332
373
120
-255
-297
-622
-31
-786
421
-242
285
-146
-642
-1025
127
-6
-104
162
528
138
-357
-180
-453
-96
-379
-300
-1075
-523
-128
-302
-168
-176
-386
61
-110
-54
-52
-423
-130
242
-113
155
-380
-234
-127
-249
82
431
-23
-299
-287
-210
-138
-805
249
-62
-130
-73
-43
-1231
-51
33
-256
271
-45
-421
-1006
-280
-560
184
-5426
113
-313
-249
126
133
-603
165
-334
224
-166
95
-188
0
-357
-87
-399
-591
-258
-201
-120
-329
29
-408
316
-197
-161
-425
-110
-520
-145
-492
-320
-413
159
-461
239
-297
-186
341
353
206
-11
-241
-107
-701
34
259
211
274
155
8
-532
124
-72
-161
-18
-433
-55
-165
-186
-690
326
-159
-369
-378
16
-18
-39
27
33
-195
-295
590
-379
357
121
-51
220
-292
-187
229
-108
-144
-834
-704
-426
-390
-382
-131
-221
47
-491
244
-208
-74
-513
57
-345
93
-234
-187
330
15
-35
-94
146
-63
-297
-114
-328
-80
415
196
-395
187
103
-268
-338
5
-322
-17
-295
-49
-45
-202
-285
-335
-197
-162
170
54
-236
-201
-25
1138
-2
-364
292
52
129
-192
-14
-263
-738
183
-244
-60
-243
-234
177
160
-496
385
-442
-467
-615
582
325
-749
-487
-50
-325
60
58
0
-349
-528
439
26
189
-2
284
-400
-841
-200
-106
-237
-224
-494
259
84
148
377
-540
332
623
7
1030
-261
193
-145
46
-362
-213
-262
-303
1
-624
-37
333
-276
45
346
-853
-260
260
-537
67
-95
382
-83
175
-419
-263
-35
196
-240
-242
-150
-241
59
44
-10
-438
95
-21
-39
210
-544
-286
-582
-660
999
79
-447
-213
-141
592
492
-481
-815
-270
77
-286
-327
-269
-90
-417
-499
-276
58
-248
445
474
117
-289
-239
-268
-132
250
-126
-337
-16
-93
443
-459
-142
-270
283
-104
-276
-300
243
-826
-420
-109
-442
-931
-232
193
46
-216
386
-400
-323
-537
-202
-306
-341
-253
-283
-309
-455
-17
-65
-237
-555
-646
-406
-265
-166
-220
-331
-193
-264
-799
-177
-478
-71
-386
-704
-221
83
-348
-213
-121
10
-158
43
-247
-36
-292
-196
-41
-159
-404
-108
-235
-287
-413
-438
60
23
-387
-196
301
30
-716
-168
-165
-427
116
-137
127
-387
1557
-289
134
29
-152
-420
-112
33
-388
-352
-331
290
-213
680
-307
42
525
-685
-151
31
-153
-524
-933
-512
25
465
-394
-166
-831
-123
-212
228
-423
213
-67
-252
-320
-776
-59
-25
88
-686
65
-54
-268
-87
-569
-301
664
-561
210
-382
-408
-607
-95
256
87
-503
239
-109
-41
-577
94
-174
-116
-355
-107
226
-477
-296
-574
-141
-4
-273
331
-307
30
-363
126
-287
-896
-334
-186
323
241
-242
79
95
-690
125
-357
-187
-160
-234
140
-404
-108
140
23
-835
-64
-376
522
-458
309
-504
-396
-177
58
170
-282
-438
15
119
