109
9
-21
95
-71
-244
-34
-88
196
187
311
-103
124
-125
27
-51
42
-159
-31
-34
145
85
-144
5
36
-140
-207
-157
55
-104
-292
16
-211
11
266
237
173
-133
134
162
22
-86
174
-133
1
17
134
48
46
381
100
-149
-40
-234
35
-7
170
-386
-213
-123
-201
-29
-303
-92
11
-81
-226
86
-185
-145
63
71
-4
23
58
336
-351
86
-110
-177
-254
52
114
8
224
32
192
-158
-123
-175
140
-77
-106
-262
-6
310
-127
12
-203
136
57
35
-62
115
174
54
-58
143
49
331
303
-152
110
-179
227
-221
-150
90
26
-11
-163
-369
86
-150
-57
-14
-263
-74
-7
215
-99
-254
-99
113
-44
65
-175
131
-201
213
78
184
159
2
115
183
192
134
280
-179
93
-160
110
84
-80
-241
-293
-9
59
0
-243
178
56
189
-62
-149
-245
31
-1
-43
64
79
16
-60
75
38
-108
-165
-160
-172
344
-134
113
-87
41
-118
-152
91
85
-43
35
115
-274
156
86
-65
149
-135
-91
-347
266
143
-329
135
126
-329
19
-44
-168
-126
50
121
-208
-38
-103
75
128
-121
3
49
-460
119
-9
-130
21
-227
73
-62
-286
195
67
46
183
60
-130
104
-189
34
-23
-202
-476
-43
298
-331
224
54
-163
-62
212
-126
13
102
158
-91
26
63
93
94
-68
-214
163
96
67
-45
-11
6
13
205
-223
-76
40
-100
-3
253
-112
-146
54
75
137
-129
-156
-233
-65
183
126
174
-299
312
67
-283
58
-59
-29
-144
-42
25
148
40
217
-12
11
-78
182
-11
-50
-57
27
123
513
-91
87
-79
67
-62
-65
293
161
-94
89
-113
-19
-130
-4
73
59
85
-266
-256
-11
-45
266
-119
278
-183
41
-16
53
9
1
-50
-108
266
143
94
-36
-138
-33
-22
148
69
-6
-37
-227
-58
156
174
-30
-21
140
-82
-312
133
-185
177
5
-113
240
-51
-75
27
-45
-66
-19
33
114
139
-110
22
11
-19
-90
57
162
107
-81
37
-81
49
214
9
-103
-151
-131
81
97
-25
35
-112
141
106
-182
234
-132
-94
87
308
83
-102
-190
288
149
251
118
89
-160
-404
-188
-94
-221
-196
194
145
-260
191
33
10
152
59
80
-126
151
-156
81
-73
138
89
10
-163
-90
187
-162
72
89
155
45
179
103
344
134
58
-249
-159
-252
-24
65
-32
119
-104
-46
101
-41
50
21
-84
-268
35
-43
-175
-12
413
106
75
-95
-194
260
24
-280
-265
-29
15
1
51
-142
38
255
60
-225
-50
-132
63
-8
-10
-176
178
85
-17
118
-92
-149
119
176
93
179
145
393
25
205
-7
108
-126
563
-62
-157
385
-177
-142
227
-198
288
74
85
-55
98
88
-58
45
-105
227
-184
105
127
25
-294
-233
110
329
-37
-22
-185
232
-180
-193
93
418
136
-17
3
16
-125
-187
-71
86
241
-188
-178
152
-60
-313
10
338
155
-19
-303
78
-40
-73
-130
-69
-328
200
240
-225
-101
-102
106
166
-56
78
-100
63
266
-56
-57
-162
-63
-45
-180
28
-111
-196
-63
-127
133
341
-102
-93
105
-113
-158
72
-27
-89
-142
111
-130
-130
308
-62
121
-242
-175
54
-53
218
83
168
74
285
31
145
-128
-39
81
-64
-110
193
125
135
40
113
-69
0
102
-181
-221
-54
-60
-74
-361
-229
-106
18
323
338
-172
373
7
-270
-59
-6
-30
-173
-16
-84
-89
-131
-73
82
-193
77
-1
44
-134
148
-148
65
90
48
-42
39
-230
-254
18
-106
-135
104
-56
-164
-126
-255
-56
122
-47
43
-168
30
-189
-146
43
-1
223
-81
55
67
-20
-122
138
129
-126
30
-236
-74
256
87
-50
-102
-52
-1
-247
-207
-18
-12
230
-77
116
112
230
-67
-174
159
-33
-24
-151
-59
-170
218
206
320
-10
-14
14
-143
2
43
-84
199
88
-271
182
130
35
7
118
183
-235
47
66
57
218
171
64
-134
360
-5
112
122
168
-168
174
54
-279
50
-132
73
154
1
-230
-219
