0
-4
225
32
-11
19
-50
-28
-23
-45
-2
-46
-27
9
-10
-69
179
-25
-21
189
29
-32
19
-165
8
29
66
-76
-34
0
121
16
30
14
-1
-6
-11
150
54
37
9
-27
46
67
65
-32
40
38
-15
-48
-14
-6
13
-5
36
16
26
-8
-30
-15
-15
19
19
-16
20
72
-14
31
-18
-22
64
-240
-145
135
-14
14
-22
-118
-20
19
-58
-166
221
-109
-279
284
24
90
144
-36
109
426
-61
-91
-146
141
122
36
60
21
-78
6
-18
-115
-14
-19
-217
136
284
-63
-30
-55
3
51
-87
-94
5
-80
21
-81
96
-9
-200
-33
144
-100
-2
-114
-57
56
36
19
-32
-73
-34
119
-73
90
15
29
-42
-72
16
43
9
7
94
33
3
32
-43
73
-33
69
91
-99
39
3
-99
81
-40
39
36
252
-355
46
-25
-24
1
-72
35
5
-10
102
50
72
-59
1
49
-16
-98
80
-426
100
173
54
49
-55
-10
34
10
-33
32
15
68
-21
-7
104
58
6
122
43
-220
34
-61
65
-40
76
136
-35
-219
65
7
41
69
-65
-267
-19
-42
101
-100
-57
120
-274
-1
99
-35
-207
31
263
-9
-70
-82
-26
-20
69
263
28
-41
339
35
-77
39
-45
13
-7
75
7
25
-26
-136
75
20
-285
77
-33
-51
-9
-12
-48
-71
21
-90
29
-82
-71
105
87
-58
-84
27
-3
110
-36
70
-8
12
-5
9
134
0
-5
94
-61
22
-110
-55
-56
144
-50
145
-163
43
25
26
146
-75
-210
120
15
84
-12
127
-64
-83
-68
-73
-124
17
177
-30
-49
-4
-29
5
-3
72
10
73
57
65
-40
14
75
7
120
111
72
-114
-87
-10
119
-119
-60
-50
0
-101
-255
129
-3
60
-285
54
-80
5
-233
14
21
93
13
2
47
-104
-81
25
120
12
27
61
-56
15
-25
32
14
-157
1
27
-85
-130
7
34
-28
-51
42
49
123
110
-86
90
-88
106
8
-216
-84
-55
7
-124
-162
-43
109
44
-83
121
-114
119
317
109
-53
1
138
-5
-102
6
295
-102
165
-79
-221
-1
111
-232
127
23
-71
-50
-80
-70
-31
-83
-83
-39
22
-126
-71
40
8
-34
123
-10
110
-198
56
8
9
52
-46
36
-628
-52
-22
-99
172
72
278
146
29
215
290
-103
128
110
-29
77
187
53
-45
11
-49
-25
-59
-466
406
-407
-364
76
-12
136
-43
-32
48
28
-134
17
63
9
0
-42
-1
7
10
-69
-76
41
-53
-50
-240
-50
22
-259
-23
-50
115
60
72
22
85
-63
3
53
38
-66
57
-113
-53
-121
-27
-17
-57
61
-101
-38
-61
-28
57
-41
-92
-78
0
-4
51
211
-22
-29
27
56
5
35
51
1
-7
-19
33
41
-81
28
-51
-78
54
77
6
26
-312
-79
15
94
-7
17
-17
109
-24
-55
384
17
-20
-9
-117
18
-28
-15
9
20
76
-38
-52
-63
-13
-201
11
21
24
-97
-148
0
-28
40
2
25
57
20
-30
-47
-23
125
-60
52
8
23
-26
-57
1
109
-56
18
85
29
13
79
98
44
61
81
38
-143
-4
40
56
14
-29
90
79
-12
-4
-123
-23
59
-12
-92
-81
-2
51
-54
7
-40
-14
-73
47
-305
27
-283
-24
-79
2
-49
34
91
24
-20
-51
-129
-291
-139
51
5
24
-1
54
-44
-165
9
90
-93
-403
-54
-135
54
-99
10
15
32
-50
-24
83
-59
37
75
-47
27
-30
53
-104
-111
40
-29
70
-17
78
-8
166
379
-95
-28
70
-134
188
33
-15
23
85
56
-17
-138
15
71
-83
74
98
47
56
-75
-110
13
-62
50
21
-117
103
30
-39
-70
-53
-267
-131
9
38
21
-35
-1
-101
24
-528
-32
-117
-57
-44
-83
126
72
44
-2
47
-77
40
148
-7
95
1
-26
-61
116
65
8
185
27
-41
-169
94
27
50
-10
-34
60
-109
46
51
-5
29
58
-46
36
84
425
-34
-48
30
18
-168
-15
-33
