19
-69
116
-49
81
-176
-67
34
-55
51
107
212
216
-131
-72
125
131
-47
-12
-12
-3
76
-65
78
10
19
-18
95
53
226
76
124
48
42
-27
82
-208
85
-8
-33
-169
-94
155
133
-26
162
-4
-111
106
-126
69
57
0
54
216
-83
33
-47
-54
80
25
134
-167
-149
-167
-69
6
-64
-110
174
99
-30
15
-4
-45
-12
-7
-556
126
-50
123
243
21
103
151
-181
130
-162
-39
-154
-126
-121
242
89
130
204
-286
255
110
3
5
17
-168
21
-46
-572
6
-264
149
-68
120
109
-9
76
186
63
4
58
105
-120
-90
-575
77
104
197
1
-256
167
152
245
-153
-43
-133
-51
-62
-99
-200
-190
125
-270
-49
-23
-78
124
-7
-772
-113
27
-176
170
-14
183
67
47
-29
-141
71
-39
178
530
-28
6
166
-71
121
89
-140
-40
423
105
-10
-120
13
-24
31
605
-169
86
39
189
-9
-82
-8
39
-92
84
103
74
-18
27
-84
184
176
62
-246
-9
-110
-71
-93
144
129
109
-285
33
138
-70
-85
-22
16
-79
56
115
-164
-31
-121
-344
-447
12
-348
-75
-197
-8
-18
-127
65
-520
-206
-159
-73
-121
8
1
155
-7
134
73
-86
-153
63
-74
-9
150
-13
-53
-116
-513
-81
187
-13
-65
-45
154
68
136
78
204
-86
111
175
81
45
179
119
133
-206
49
21
192
-221
108
-248
94
77
96
32
10
-161
-116
18
79
-173
15
-92
-282
33
20
127
-93
-239
69
-3
-55
11
-40
128
-231
-188
105
46
-19
-41
12
89
25
-115
45
-251
-22
-1260
-34
-54
156
21
-47
-130
166
33
80
-61
-96
57
-23
58
-46
48
-85
-12
-41
-143
24
92
-280
260
-111
43
-106
-118
105
102
-16
-29
-98
-143
-77
72
-161
-87
-48
17
-117
74
18
37
-176
-93
-205
17
-66
-34
22
-147
-43
-147
76
-77
-67
-69
-41
14
372
-137
-58
-49
-7
-125
-56
-53
-2
243
-16
-19
-113
93
27
-25
-50
17
-47
-161
48
71
-74
93
-70
22
-146
-99
73
109
-84
111
402
96
-79
-82
-25
61
-69
-66
-5
252
53
-94
241
-39
-232
56
271
16
216
-20
4
-29
35
84
82
125
-106
-96
128
159
39
-147
34
49
-107
18
-288
73
-186
173
-93
24
-267
44
41
-127
21
116
-52
-194
89
-7
-19
-116
-13
11
12
-186
-81
180
-255
-44
119
45
123
25
-98
-346
214
-37
-6
-143
-69
-21
178
-278
-125
109
-53
31
-172
240
-100
113
56
-79
34
23
-133
-73
-46
-225
-84
-82
-76
-153
-42
43
-66
17
43
77
193
253
-34
175
23
-57
-55
-228
-23
-10
91
13
115
-87
-154
90
-9
74
118
70
71
-172
97
11
83
59
217
-34
40
-68
-119
132
49
12
269
-14
-177
118
-709
-17
-121
173
19
19
-111
101
135
-72
98
-28
-29
30
-100
113
-11
-42
-41
-23
-123
50
82
-70
-45
43
0
-37
-21
88
59
-45
-118
175
-12
-114
-620
91
134
72
20
226
40
65
9
40
-91
-116
33
92
153
62
250
32
114
14
167
182
-1
-162
69
-132
253
30
176
14
153
-73
-62
-60
72
50
-6
-212
80
-82
-111
-131
-116
84
89
-8
178
-127
167
41
14
124
97
16
-19
83
-105
-153
215
-20
120
-199
48
-26
-60
18
-263
9
64
178
-179
107
81
50
216
-195
262
-504
-75
147
52
-18
71
51
22
-15
-198
74
-45
-58
6
77
32
-493
-175
-90
-4
123
-77
237
149
-32
35
-111
96
186
167
-49
323
-151
-150
-69
30
-113
34
118
-59
-17
-33
109
-29
74
-133
72
46
-10
259
-158
52
21
104
-42
-11
38
203
43
-4
-13
109
63
-42
53
-13
-10
51
25
-72
33
-134
25
-5
128
-39
-78
87
5
21
217
-80
10
138
-91
-36
136
120
46
212
12
-47
-240
13
-119
-64
48
65
-56
67
-41
-84
76
64
-85
32
-30
0
-82
-133
-143
-153
74
-118
