50
-97
-37
0
89
-18
0
-4
-59
-160
-54
74
70
-113
-31
26
-50
-44
82
-25
81
-125
75
13
30
-112
11
-2
-26
59
-41
-168
-33
-58
82
85
-1
-19
39
12
-51
-102
54
26
-34
-70
207
36
77
17
12
65
-109
-42
18
74
-16
27
70
-81
22
-22
-33
-33
23
42
-84
-41
41
26
107
-39
24
-46
35
26
80
-106
43
-17
39
144
140
32
-25
-52
6
73
23
-61
-93
62
10
-53
148
104
115
161
26
63
69
49
42
16
-100
87
-74
-145
30
138
-18
27
-174
15
7
14
-51
-82
145
64
-6
-118
-219
60
-230
-122
93
-21
-192
298
88
-139
91
160
134
66
303
153
-173
99
40
275
-359
144
-299
102
234
-125
26
-61
235
-196
-266
-100
94
183
0
-65
122
-352
-46
-67
-270
-195
-82
362
-60
-301
-25
-190
77
-45
-84
75
255
216
-29
173
-36
320
93
-53
-328
-98
-159
-29
51
-14
-99
-113
84
42
191
-149
-87
179
-86
309
-149
-230
-84
-61
100
-80
15
451
261
120
-214
99
-522
7
-134
5
143
-124
-35
116
111
102
76
9
-205
100
9
-6
-25
-14
-154
101
182
60
114
-41
138
68
-232
135
-412
-54
188
24
-11
169
-85
65
13
8
8
27
171
-45
78
16
53
193
-19
-10
69
20
-76
47
-56
-60
60
-6
77
52
67
46
31
-91
-55
33
-108
177
-42
-24
192
-76
-39
-226
-10
-127
248
11
250
269
99
-15
-103
-109
56
22
66
-39
-33
100
92
-16
-156
141
-13
84
-16
98
55
-129
-66
-135
-62
20
-28
64
-58
-219
54
-64
32
161
29
-11
-98
17
-13
-53
-113
16
-24
-46
27
-123
-22
-56
-13
-18
13
21
-27
-64
-377
-32
-190
34
154
70
-58
-46
-6
-118
5
-10
2
58
46
-81
-81
-201
123
170
-37
321
-17
138
-53
60
-35
-33
48
82
-20
-181
113
-60
37
7
-15
50
20
-21
51
-121
8
15
35
-112
90
-25
-115
-69
183
102
156
-92
41
-22
-159
17
60
-123
146
24
273
-14
-208
35
127
-50
123
-4
81
-48
-111
-19
29
-9
-57
142
-81
105
63
43
-13
-93
-52
99
-3
-53
-76
247
-37
24
71
131
67
-57
107
-42
-87
4
-31
-111
65
-217
20
-159
-222
13
13
71
364
20
-34
-248
-179
-29
-146
61
-268
-105
105
52
75
-8
160
-148
280
181
203
-65
-35
-102
-187
90
-99
-145
62
-51
106
0
-22
-264
274
-101
0
-34
161
-10
15
155
5
215
-62
-61
138
230
56
100
-210
-27
-39
53
73
57
60
47
-1
-40
-81
-4
244
-95
-20
-65
9
27
60
47
-19
22
-82
-34
32
45
13
5
-76
6
10
-23
65
46
36
39
10
-32
-10
11
-28
26
13
64
-8
-13
-14
-80
-60
80
9
-32
-12
-8
20
-14
-18
20
-55
8
15
-17
-251
7
-46
5
29
-12
0
3
-55
85
-24
-15
-17
-6
-30
17
-26
-51
-59
45
-65
-25
79
86
-7
21
-25
14
-33
-3
-24
-26
-50
-26
6
-24
35
38
30
-9
9
-57
-31
-39
-2
95
-48
13
-29
-23
-7
-29
30
8
45
45
50
38
-69
32
39
-47
29
15
27
184
22
-88
61
0
6
17
-38
74
-7
-48
24
-33
-20
-9
-4
-67
-189
90
20
62
-26
352
-22
-102
-39
21
-29
15
76
-28
-14
-17
37
-14
-15
-9
-50
-31
23
-58
-72
-7
-26
-40
-22
-175
13
-41
28
-37
49
-123
32
-11
32
-78
-39
-77
37
25
16
282
-8
-216
11
122
-8
-18
-10
29
-20
34
-74
-62
-1
79
89
89
6
35
70
-29
29
11
277
-19
44
-5
6
-454
-7
-95
-122
29
-69
85
-241
-98
-56
46
-36
32
-47
-56
-20
-12
10
15
-92
-18
66
-53
-41
-14
-52
-230
-79
1
148
-2
-43
-18
-56
102
-29
27
26
9
53
39
-13
-1
34
17
-144
75
66
78
-48
41
-4
199
