-5
28
-7
-9
26
31
23
21
-22
-30
-20
4
-12
21
19
66
39
28
-1
-13
27
-19
13
43
13
-7
34
0
-12
7
5
-24
33
-22
3
12
-22
-7
14
-1
-16
-8
-6
34
10
5
-19
32
-31
7
-15
24
49
26
30
34
-30
-27
-15
-20
19
11
25
-32
14
6
-12
17
-23
-15
3
6
-11
-8
35
-15
-39
48
15
38
0
13
32
1
10
-22
2
-11
-42
18
-34
-12
17
23
18
-23
23
1
13
-23
1
-8
23
5
-27
-2
-51
-33
-15
7
10
37
-38
-27
-14
33
15
-16
-5
-13
20
27
1
20
12
9
14
10
-33
-18
-3
12
3
5
-35
-12
14
-10
4
18
-10
-21
-35
15
39
-19
-4
-52
-11
30
-23
5
-24
-12
-11
23
6
21
6
-31
7
-1
8
-26
15
30
17
21
-20
3
-24
-13
-5
-25
-8
16
3
10
42
-3
-300
17
-14
2
1
12
48
-17
21
-9
-21
-11
16
-34
48
-17
-32
38
28
-12
-40
-24
2
-34
-40
-11
-13
4
-8
39
-22
-22
14
25
11
-6
-28
-30
29
-49
13
17
-30
18
-9
65
44
-22
13
-6
-22
-3
36
-28
-5
34
-14
-18
34
-50
17
49
-17
32
-32
-7
22
-24
-12
-3
-39
28
18
-25
0
-13
-18
-20
15
44
4
3
-8
-14
-18
-32
-4
-40
14
-8
32
17
-27
1
3
9
9
21
-11
-11
-5
23
-22
-37
-43
-23
30
-33
-15
-15
-31
29
-12
-9
28
34
-2
4
-5
-5
-18
22
1
14
38
-17
-18
-25
-218
0
-37
-28
21
3
13
-25
-14
12
-11
-8
-26
13
47
-6
-22
-3
-11
13
16
-4
-17
22
24
-6
-42
2
-23
-34
13
-49
10
-4
4
1
27
-36
-2
-47
-19
-30
-42
-18
43
0
-14
-31
-21
54
11
1
23
-27
28
22
14
25
-6
44
-10
-5
-49
-40
25
-29
-12
-23
27
-4
-51
-5
-1
73
-8
-21
35
-18
-29
10
-15
-20
2
60
-7
-10
-5
-8
-29
-21
38
-12
-11
-36
17
14
-28
0
-7
-16
9
-11
-20
-10
-16
-25
-28
20
14
-33
-6
-6
7
-19
26
-14
1
34
32
-16
9
21
-34
-17
-8
47
-12
5
39
-38
-10
14
33
11
12
-23
-4
-27
-24
42
2
6
-4
-1
22
15
22
-21
0
9
-36
-1
2
-45
-15
12
-7
14
34
-57
-3
-1
-15
-7
-7
22
-41
-14
-20
11
-10
-32
-10
35
2
26
-28
-6
-9
25
-1
4
-23
7
29
-12
-14
-22
-15
-12
-13
19
5
14
-31
-39
-18
33
-10
15
-12
-14
-19
7
-2
-17
17
36
15
18
-25
-22
1
7
16
-4
25
-19
-3
-7
-12
-20
11
-35
-46
5
3
-25
10
-13
9
-44
14
28
22
0
7
-15
-27
25
36
14
2
-21
-2
11
14
-12
19
13
6
-19
-25
20
5
-5
-24
6
-6
18
14
-12
-17
4
28
9
17
17
16
-30
10
-53
-17
15
16
-4
-5
-22
13
-29
-8
-8
-13
-16
34
-18
11
21
-21
17
-14
28
-20
-5
-32
16
30
32
0
28
-7
1
45
-17
24
44
21
-20
-30
27
7
-38
10
-5
-6
24
13
4
16
20
5
7
43
-2
40
39
-1
8
48
17
9
-29
-5
43
-26
-22
3
-30
4
28
18
47
5
18
13
11
-19
-19
20
30
17
-7
-2
-31
13
-24
29
10
-11
-3
13
48
56
-4
-33
0
36
22
7
18
-13
-11
11
-5
38
-20
-20
11
8
2
-27
6
-22
-36
-4
1
10
-9
-4
-25
21
-16
25
26
-25
26
38
28
39
31
13
24
-25
5
-17
44
-5
2
-19
2
2
-9
-18
14
-31
2
39
-13
-7
-41
4
2
18
14
-5
20
17
-2
-16
43
-19
22
-6
-1
-35
-9
11
12
-2
-18
-3
32
-9
-36
-12
4
-42
-31
-29
26
-4
-9
29
-26
44
-22
-25
8
9
1
