-45
-130
-356
155
-564
-87
-405
-352
8
-53
-20
-122
22
-413
-154
-386
-359
-278
-53
-401
-588
77
-430
-670
-157
-601
-344
38
263
-314
-220
-124
-476
301
-388
-16
140
-198
-504
628
-74
232
-177
-134
-140
-24
-67
-22
-100
105
224
28
-670
165
-375
-283
-318
211
71
-33
36
-404
-47
-123
-116
-476
-66
-154
-103
147
193
-365
6
-69
-346
-209
-24
-109
-344
-327
-120
-264
-91
-311
-150
57
7
-178
-78
-298
-77
180
-1009
-244
-509
123
-471
235
44
-9
-19
-152
-6
-25
-166
-19
73
-52
250
-250
146
1
141
177
-60
-149
-280
-118
160
-468
113
106
-60
-324
-427
95
112
-569
-72
-50
-212
-492
71
149
-159
22
-335
-229
339
-32
53
-221
-212
-313
-328
616
-13
-174
174
-551
-189
-381
149
-240
-290
-214
-302
-324
-253
251
-288
83
-185
-384
-118
-412
-295
-297
504
-37
-38
-173
-49
-430
-103
-489
-347
-423
-436
-114
-133
-338
102
-423
-144
55
-633
-394
-519
-274
-25
354
-742
22
-307
-347
-23
-389
-147
4
82
-259
-340
-258
181
-485
-274
-19
-200
-291
98
27
-534
-301
-320
-111
160
-127
-210
-131
-286
-565
65
-157
102
-591
-357
-1
-256
131
-142
-13
-181
-220
-52
-169
-172
92
-313
270
-215
-229
-21
-272
-122
-163
110
-305
283
337
-162
-846
-55
-95
-187
21
385
-65
-211
-193
-143
-63
-68
-221
-91
149
-157
-74
-270
12
-164
-153
37
-255
57
-116
60
207
43
97
-388
-145
-100
155
75
-434
-399
-468
-311
-85
-388
-23
162
-63
-565
-261
-269
-765
-226
-100
-446
-315
75
-463
-889
111
31
33
3217
-173
108
221
-238
-91
-14
-289
-343
-319
145
-179
217
-397
-607
289
-120
-279
60
102
-102
174
-91
-340
-204
-491
72
-193
66
-24
-70
75
-157
-410
-261
-179
-214
-166
-228
102
43
239
261
-173
-386
-166
-69
116
-315
-275
-70
-62
-359
-201
-222
-208
-241
-91
40
-403
114
-168
-100
-56
-265
98
-70
-217
-234
79
47
-299
-191
-1378
-130
150
-257
34
347
-343
-48
18
-315
-402
-523
-123
-344
-180
285
203
-318
73
-79
77
-250
-215
-19
99
-233
-234
-544
197
-7
-262
-326
-85
122
-250
-87
-79
-190
-69
35
161
-190
16
261
-311
-236
235
251
-389
-208
182
258
-401
170
-335
331
-240
28
51
-201
-301
-414
-62
-51
-190
431
-206
-55
148
-264
-96
-399
40
-445
-330
109
-35
240
10
-179
299
-12
-386
-426
92
-218
-45
-295
-120
-203
82
-118
-176
-25
-31
135
-143
200
324
-274
-419
-43
-184
70
-136
-407
-313
207
13
-95
23
-316
-125
-22
-86
-113
-1
-90
-253
-105
-252
-146
119
-134
-366
65
-211
-163
-300
125
-67
-194
-26
-43
-594
119
-174
514
-297
216
-573
-376
252
-114
-75
-218
209
-257
-234
163
68
-44
-168
-470
-98
19
-355
-251
498
-361
-27
100
-185
120
660
301
-299
-697
-306
60
69
-376
-335
-131
54
-136
-457
-344
-107
14
-52
-26
-306
167
-104
-216
35
5
36
6
-341
-363
-144
194
-193
35
-205
-399
34
112
-459
-415
73
65
41
-984
-4
-111
-259
-113
-124
-381
-286
-298
-73
-186
-284
-216
-406
-313
-185
-66
-210
-224
-277
-313
-385
-358
-348
-231
197
124
-137
142
-30
146
-131
-265
107
-315
-199
-350
-169
-113
-250
-337
167
-287
-162
-523
-348
-303
-620
-155
-297
-223
-249
-441
-438
199
-301
-237
38
-244
116
-275
-286
67
-169
-196
-472
-334
-286
-11
-96
-354
-141
-53
-40
-446
-28
-444
11
-209
60
-424
-358
-231
-323
-303
-231
41
72
-341
-165
-587
-450
-500
-27
-234
-218
-628
-84
259
-41
-435
-250
74
-199
39
-231
-192
-249
-283
-188
158
-177
-149
-86
-324
55
189
-174
-429
-226
-379
-242
-318
-377
-179
-103
-155
-307
-93
-382
-28
-241
-79
-244
26
-69
-122
-132
-255
-92
-9
174
72
-305
-111
-521
-331
-496
-714
-116
-171
-201
-29
-94
-145
-48
-45
-39
-210
-205
-157
38
-291
-294
-144
302
-87
-348
238
-26
221
-463
-146
-203
-324
-330
-158
365
75
-218
-108
-194
