68
502
-236
280
37
6
-209
88
-139
166
92
21
357
-807
165
297
52
-416
129
-423
-727
-92
-83
-463
-167
-168
-640
272
60
236
358
-639
268
6
163
524
491
-319
-154
-48
-165
53
51
-176
332
-501
-28
108
138
-32
226
-51
121
207
451
-427
-536
-277
-152
-55
442
630
-155
-18
-125
-315
-191
-308
-480
-166
-93
368
-6
-641
8
-480
183
-581
22
-474
151
161
-5
-154
-114
-341
500
-517
-118
-14
-211
15
-429
382
80
-131
563
680
363
-242
-340
-68
-327
669
165
-1712
37
-13
-267
-332
-22
-108
449
416
150
335
-454
234
-82
-648
-639
209
-31
487
752
187
762
-342
272
1092
148
-24
1144
-229
316
6
-124
-287
171
-116
65
-220
-265
599
-437
111
232
396
-309
-42
-194
300
-350
-124
342
-52
63
-443
149
-162
356
-35
588
138
-93
-198
37
-207
1691
48
384
628
8
21
-41
566
355
-52
387
-703
22
79
261
-86
-130
719
249
-69
-593
-500
-585
152
185
-141
509
287
-255
-295
-727
583
309
-284
-1136
-134
-98
-385
-152
-7
22
520
-108
-56
-167
-375
175
1088
-79
51
-993
280
274
-271
-73
-84
-61
-516
-605
884
-431
-241
64
-38
190
-172
166
-251
-1068
-413
-151
-465
-734
288
422
601
-42
-893
27
-260
121
599
162
210
-34
81
37
-454
-41
527
122
218
14
19
128
-1
-57
127
-231
36
-227
64
22
140
-190
399
192
-318
247
567
347
678
-452
-160
-41
885
85
64
-315
-65
60
302
-14
514
356
-212
-91
-300
-524
187
104
18
36
376
503
271
33
-304
-95
-133
590
-68
510
-574
-99
53
-359
846
-112
-105
22
931
230
454
211
-126
-195
-478
133
-266
-303
-264
436
-1536
273
-195
114
-372
-510
70
95
19
-362
-165
-572
152
-332
-983
-210
-147
171
-282
51
-36
-199
-510
237
17
91
-250
-56
203
-372
265
108
-165
-257
-23
-1042
61
-191
601
-643
547
-39
90
-260
147
45
437
463
356
276
-16
-233
165
55
85
-152
-100
-472
57
-376
-393
205
-188
-181
-23
-435
-365
275
-62
376
200
-57
257
-96
-4
51
-429
-82
-72
44
-192
-129
345
-228
-115
528
298
-214
463
542
561
238
534
881
-18
-568
-188
-140
-756
489
367
-355
-359
-47
-419
210
402
-8
-419
400
-144
108
-245
78
-35
-144
-524
722
-379
-163
-61
342
7
-18
82
123
182
-162
403
400
706
-172
-208
65
-221
176
-126
-687
410
-49
-19
-434
-9
-78
-145
-61
-500
88
227
203
-392
12
-462
243
79
-678
-154
-238
143
123
158
-1149
-31
-207
-440
319
156
-1
39
105
151
-58
-260
933
5
-33
344
-479
-182
366
213
257
-156
-279
-213
-236
-132
334
-262
390
49
27
1065
-612
498
-748
-138
-185
1022
-156
248
-38
-324
-492
14
-133
135
241
-392
-511
34
42
-25
-83
-57
229
-39
403
-83
-162
562
-160
189
-366
-124
-422
88
-137
-43
140
-351
4
297
327
-326
368
297
-29
102
765
175
-79
-1146
-231
-182
186
-1107
56
312
-153
308
-60
-93
298
10
210
194
-27
680
538
231
17
217
-291
-477
-155
32
-198
-447
-327
158
143
202
97
-82
-236
623
43
5
-16
702
121
-657
398
-198
-13
-382
53
-253
394
361
-125
-120
-457
2
193
-814
547
464
129
-1207
78
-17
-243
-73
-229
651
-664
413
-282
-300
-163
-295
322
475
123
-385
589
234
11
-219
-35
326
-1204
-460
257
45
187
269
-316
-193
-37
123
-50
453
-47
-99
-199
239
-328
186
-19
-236
171
-313
238
335
198
407
3
23
379
169
93
555
-214
-349
-270
-86
-38
-126
219
241
266
-545
425
-174
-235
-500
46
150
43
139
-234
-245
-611
-441
8
14
1161
50
-59
72
329
484
109
-538
-129
-625
21
121
-82
-269
11
-19
-215
-52
953
-281
-99
183
86
410
81
-237
-240
307
14
412
378
-105
230
293
-8
-354
-286
-282
37
-86
63
-219
-860
406
-221
156
170
144
347
300
-205
475
-3
-235
75
-334
390
34
