117
233
54
79
35
-133
-272
-1
78
-238
23
346
246
-448
105
391
178
-123
74
-133
-445
-83
-171
52
21
-39
105
270
218
438
259
-211
97
86
107
165
136
230
-88
195
-239
17
197
136
94
45
27
-121
67
-38
108
55
59
179
450
-77
-488
-107
-144
-151
270
52
-565
-158
-276
-185
77
-214
-441
95
210
-30
-122
-614
-181
-264
156
-196
149
-278
56
295
-290
-63
-205
-218
430
-568
-182
-127
-105
-117
-424
295
-2
171
-339
426
210
-167
-152
-272
-322
374
182
-1187
-225
-144
217
-558
82
41
283
340
98
28
-241
-45
127
-62
-278
-352
-170
359
346
4
112
-263
627
539
-3
62
-156
47
-45
-45
-170
-558
166
-208
-97
-190
-244
405
-392
63
-52
229
-242
148
-64
388
-180
120
434
213
-84
-199
330
-45
83
-147
572
-56
-66
-264
-14
-215
974
-82
382
6
-116
-26
86
118
-312
-99
17
104
80
8
-158
14
-250
378
178
-182
-279
73
-378
134
194
38
-110
145
-266
-368
-398
135
407
-114
-789
87
131
-44
-357
191
-44
158
-51
65
-455
-167
-127
-390
-224
161
-1133
16
9
56
-99
123
150
-779
-438
124
-35
-244
-42
-183
232
-80
176
124
-492
-310
-34
-79
-578
284
194
57
-82
-784
294
226
327
252
128
142
118
-90
-148
7
208
157
88
91
-162
227
27
120
-531
29
-288
139
-268
-15
-27
344
21
288
54
-329
-255
-167
235
184
-580
121
-85
16
149
140
62
-56
89
-41
106
-225
378
-121
72
-109
-638
25
181
-144
-7
195
369
379
-144
55
81
-211
-825
184
294
96
69
111
-241
623
-169
-1
46
51
-225
366
139
-18
-344
-290
68
-60
-279
55
93
-1052
338
-228
79
-164
-306
20
-1
-105
-210
55
-160
-113
-514
-605
-3
-225
-15
-371
148
-10
-47
-637
75
-111
-117
17
22
125
-424
230
-121
-183
-139
-113
-457
224
-162
402
-445
16
104
-30
-183
8
-49
109
273
25
160
-98
14
-99
-12
97
71
69
-212
98
111
270
56
-237
-93
34
-263
4
45
-216
352
299
-219
-195
74
-53
-240
137
-211
105
33
0
-35
208
-3
-159
114
513
-48
-274
366
423
-124
106
201
111
-353
-2
99
34
373
265
-171
-122
69
-369
278
168
141
-168
515
29
85
9
158
-55
-185
-204
472
-72
-249
148
95
1
60
-64
205
203
-12
263
618
116
-166
17
-103
108
233
6
-378
103
90
25
-58
24
214
132
-304
-245
19
88
123
-305
-453
-265
-192
241
-388
175
231
40
150
121
-957
-183
-249
-171
-267
-118
126
-109
216
153
-8
-165
617
-99
333
154
-232
-99
-68
103
171
-198
-138
-30
-116
-189
287
-4
210
68
46
414
-356
145
-193
16
-157
461
224
496
-36
-344
-252
134
-111
207
-36
-385
36
-424
39
-101
328
86
223
240
315
-175
-133
277
11
120
-234
47
-309
246
-174
12
2
-365
135
199
221
-366
261
198
76
-138
443
147
12
246
85
43
-7
-784
82
224
111
356
-101
-169
188
-56
-256
166
-36
259
240
140
-81
149
-232
-61
8
183
298
-170
-154
-68
197
353
293
154
-187
397
-39
74
-13
350
38
1
-416
-138
-13
-213
-117
-234
103
128
46
326
-350
219
180
-327
209
374
79
-350
387
-30
-201
154
-1
80
-408
196
31
34
-84
-458
159
166
328
-332
292
-138
94
32
-224
257
-715
-69
429
-185
58
299
-72
-226
-109
-198
-166
213
92
71
10
191
-320
-96
-71
109
188
-21
222
142
-108
195
-267
224
122
283
214
409
-183
-313
-224
8
-227
163
201
125
252
-281
257
88
-33
-235
-82
-16
-75
-40
-133
61
-42
-123
72
259
189
222
232
22
118
320
194
-213
74
-143
61
128
27
-64
44
56
-33
-383
673
-6
-149
-47
55
-64
63
-233
-169
259
-103
-52
512
-66
11
157
83
-356
-380
-268
-31
190
98
-144
-316
364
-298
-365
106
277
182
79
-206
233
-85
-209
-150
-395
-9
59
