-20
43
-21
10
66
-18
5
53
-3
-14
-27
52
35
4
-14
16
43
-15
-19
-5
4
-65
-18
-32
-25
37
-20
16
-119
5
42
-8
41
7
3
29
2
18
-14
-27
-5
8
8
13
-5
-16
9
49
19
-78
-26
-29
30
-85
15
20
43
-90
1
-38
27
81
-85
-56
31
61
-38
-23
8
-3
-94
32
-5
8
12
-7
-13
43
7
23
9
-9
-3
23
24
-85
-19
21
0
38
2
-47
62
-35
52
-38
44
-29
-24
-56
12
12
3
5
59
-87
3
-24
-33
-51
-6
13
-61
-4
-36
22
-30
-1
-16
2
-31
34
-21
-3
85
-122
-6
25
-35
-18
4
-26
-18
-28
14
-12
21
47
-25
32
-22
28
24
-16
-19
-54
51
31
-40
105
2
60
-105
14
-22
-56
37
50
-2
-75
-2
5
-12
28
-9
81
19
-70
-40
-26
17
48
-54
46
25
4
-3
-9
8
-11
9
3
-11
-5
4
-4
-8
58
1
-19
12
3
-16
-54
103
54
-8
81
-7
0
-55
-1
71
-13
-5
7
10
-14
-11
16
7
-37
24
17
53
70
-75
-10
38
-36
22
31
-28
5
19
-7
25
30
4
18
29
1
13
3
-9
10
-34
47
-42
-25
-3
-29
-12
-2
-3
-11
-86
-41
-3
-91
-18
12
-3
37
18
-10
-74
22
10
-2
6
-39
17
63
-24
-20
4
19
36
12
-2
-15
-44
70
2
-23
-59
16
21
-24
32
4
-37
-53
-5
14
24
46
17
4
-21
-63
-75
-42
30
-62
24
48
26
-1
22
32
11
50
-6
-24
-53
26
-312
2
-8
7
10
34
-5
9
6
-33
-32
75
-35
-2
35
-56
15
-12
6
-15
-3
38
28
-96
12
36
11
1
-70
-64
-10
23
15
-23
-3
29
-15
42
-10
-1
26
25
-20
-28
-13
-49
9
-27
17
-6
20
23
32
-19
-11
6
26
40
-60
-19
-14
-61
-50
51
-37
37
3
14
9
-36
-44
30
19
-95
0
-23
5
16
-36
29
-65
-59
30
-30
30
-70
45
-12
-36
-76
7
3
-16
51
-18
-10
-3
-24
8
-37
-2
11
-7
41
-1
21
-51
24
-77
10
13
43
15
-45
12
13
-8
50
20
-15
-28
13
1
-56
-25
39
-43
21
-43
-39
-6
-76
-49
4
43
8
-15
13
10
32
-23
-82
-3
-7
66
9
3
24
24
0
-70
-26
-8
-130
-27
-11
42
26
-50
-31
-33
60
-17
-28
47
-23
-6
-58
-66
-5
-57
-47
49
-15
-72
-83
-2
-25
29
-10
-49
20
-27
8
-10
36
-20
-4
-3
19
22
25
26
-14
-25
30
1
23
1
0
-51
29
-6
-20
64
-24
-21
82
-29
-81
-36
-6
26
8
17
29
-64
3
-51
-3
20
17
42
1
-9
-18
14
-23
-33
16
-47
-53
-53
0
-15
-4
-26
19
20
-13
36
20
14
-20
33
-1
-5
14
8
-9
13
12
-24
44
-18
-10
8
8
14
4
30
39
2
13
26
47
-19
-5
-8
-98
7
19
-137
29
78
-62
-19
-11
58
0
-23
20
-23
-8
12
84
-19
-38
-4
37
12
-7
18
31
-26
41
23
14
0
55
8
23
-6
3
4
-33
-99
-8
-38
11
-9
-28
48
46
-8
23
-26
75
44
-22
-26
20
60
4
25
66
-26
12
-13
32
24
22
13
8
7
-9
-1
21
26
-4
-5
37
20
55
24
65
-66
-23
18
-11
-8
-69
16
1
3
-17
8
-3
32
20
-30
13
-40
13
6
-21
26
-76
24
32
15
-25
-4
-29
60
17
-24
11
27
7
12
2
21
-36
13
30
6
44
-40
-24
-38
-19
17
-29
55
40
17
22
-42
-43
38
53
-24
72
6
72
-32
38
-9
-10
-1
4
-6
-20
13
-11
33
16
15
-23
22
20
22
45
17
9
80
-61
-3
41
18
32
0
-17
18
47
-42
37
-33
-53
72
2
28
-6
-12
60
-64
76
-97
-29
53
-5
8
42
-6
-28
-44
-19
17
14
