-106
296
-238
-21
-190
-7
204
209
-64
287
-337
178
-2
118
-120
83
-120
-142
-344
9
-234
-149
-218
-547
-182
-348
231
340
-311
-170
115
298
34
-122
227
22
254
157
290
-154
71
37
78
88
-141
22
288
274
-32
-54
201
-46
-91
181
-103
2
-254
45
-30
199
-313
277
255
65
-153
-218
319
12
193
-155
-255
-179
91
-39
-57
209
-29
-30
-69
-140
-206
-115
-88
200
-338
62
-33
187
216
-154
-25
-233
28
90
-34
-101
7
437
40
245
-78
-217
99
103
76
21
-17
-205
263
-1
132
419
-96
-40
-252
-95
102
-30
-179
-126
-196
-80
-181
41
45
-9
220
2
197
-80
-42
-46
140
-70
38
-52
121
72
49
-66
-4
77
61
-45
-74
69
-21
133
78
-27
7
30
53
-137
3
71
-112
70
-124
-4
27
76
-182
-50
36
42
-323
-135
-9
-64
-89
134
-1
-69
-12
63
34
46
-57
-199
60
-2
26
225
-31
18
-78
-255
66
101
0
-6
57
-18
-87
-62
6
30
-130
181
8
97
170
202
45
4
37
21
64
210
-3
30
46
-61
195
-4
-70
-159
-104
299
42
-48
117
50
-92
-88
-127
41
-56
-56
-115
-62
35
83
-128
-67
8
47
203
13
332
105
-31
-85
-156
-106
61
-56
51
178
9
26
119
78
51
-23
-85
107
-211
-134
-70
-57
201
-14
-98
200
112
234
107
68
-42
-236
-307
532
-19
-40
84
290
219
-64
204
26
126
-95
-210
-87
-186
179
189
-36
-92
165
346
296
89
64
95
-120
127
-81
84
-85
-14
71
166
240
42
67
119
-106
98
168
59
-65
19
-117
62
-150
-144
-23
-17
31
-20
-89
1
113
69
-33
-59
-106
194
121
57
23
7
52
153
128
50
-22
-49
58
77
72
50
74
-6
86
-168
-289
54
-138
-21
218
-72
47
-230
34
-150
80
-93
-26
-66
60
-38
-38
-49
-38
21
-39
39
9
-50
-26
107
-45
-25
-48
14
-38
-1
-88
60
-89
-152
215
-280
55
-5
-63
-6
223
137
6
-134
-9
268
-158
-189
277
144
-211
-148
-202
32
-97
2
-2
426
195
-127
37
-11
112
51
112
268
-123
-176
-144
161
-189
-511
72
30
-48
-117
-70
-331
122
60
-508
118
125
38
-76
-198
-64
28
105
207
-82
243
-25
91
20
-362
-189
-22
182
-119
28
-52
-141
-235
208
89
367
365
32
308
-174
-33
208
-227
-9
218
-10
-17
125
114
27
-174
221
-191
69
-316
-162
305
119
-206
-230
-97
209
-116
-110
-29
-62
-87
171
53
-45
-51
-213
-112
-105
-216
131
119
107
-41
-111
99
146
-257
230
211
-19
-248
209
-77
-166
-15
-9
-27
15
12
10
-10
-21
-15
-23
51
11
24
-23
20
-1
-41
44
18
38
-83
7
46
-6
-47
-45
18
-22
-126
54
33
44
-7
61
2
-74
-41
78
10
-3
37
-27
-7
-4
-23
9
30
15
40
15
78
1
1
-13
20
20
12
8
6
36
-14
52
37
47
-93
-144
61
-131
289
-4
554
-121
68
-143
-76
-124
48
-215
255
103
36
86
27
-86
-348
32
-20
160
-40
-128
351
158
108
3
46
105
-36
-6
-205
-417
-68
-106
-283
171
-43
-81
96
-28
-103
-33
-96
-9
20
-21
2
-281
128
155
228
90
-7
47
-404
110
376
89
-25
-265
-54
-101
107
-40
-118
-7
87
149
244
-65
-47
130
115
13
23
-3
-68
23
66
-109
-141
-23
-317
-140
59
191
-165
-92
-8
-9
1
38
117
101
65
-20
-97
-119
5
118
23
83
64
-5
-58
-88
8
13
166
37
298
-56
140
155
-256
148
36
157
21
-308
-6
-90
-35
132
-14
5
25
-73
71
7
41
94
-29
15
71
2
-51
-1
-83
-2
51
78
-24
1
103
17
14
-51
1
-14
49
50
-55
-24
-6
-67
83
7
103
-40
4
45
27
59
-100
40
6
-60
-16
-47
17
18
-74
22
-4
25
-33
64
-56
-30
-27
-89
51
66
33
-5
-43
-14
