16
-238
-246
-140
124
-56
-141
149
-66
-168
18
141
45
38
9
-243
-92
-108
102
-146
-283
91
-179
-146
91
59
-14
-141
8
-81
151
68
-63
128
-120
-53
97
214
-77
107
-22
15
257
-23
206
-3
67
-50
-19
-83
6
222
-267
98
121
25
-150
61
-107
17
-41
169
174
-66
-46
21
95
74
-235
-9
-23
-95
-68
277
-226
318
174
-231
-281
-152
-19
40
-56
-46
-25
35
135
-11
71
159
83
13
-444
-88
58
18
-115
111
-79
111
-36
-68
-322
108
82
362
-65
-152
300
-81
-90
51
99
24
-116
-18
6
-51
-11
-223
91
308
-88
-229
-299
52
88
-275
-57
142
67
-30
-164
-189
-96
77
-167
-287
-75
-33
28
67
-290
-40
-305
258
164
165
73
-215
171
-27
3
108
-39
-152
69
-7
-109
-197
-107
-9
179
66
-14
39
-199
-156
136
99
-10
-90
235
-215
5
45
-21
-123
160
60
-115
16
95
-158
-86
181
-173
-144
-250
-91
119
147
-164
284
-16
-152
-112
-460
-181
-57
14
-106
-56
379
-124
213
110
-194
2
30
18
262
68
-316
-123
339
70
157
-322
252
152
-171
-87
-2
-31
-389
-169
108
-75
20
81
-56
-209
149
-37
-84
-61
-77
-57
232
-123
-218
200
112
128
56
-277
-65
206
87
-126
-367
-230
-161
-351
373
60
77
-110
37
242
62
-83
143
-182
247
-27
-86
-31
-65
-246
113
-15
26
49
-274
-224
-90
-36
45
240
-111
-209
55
74
-6
19
112
171
-147
-401
-211
237
73
-255
-155
229
-9
-159
-25
6
81
40
15
-487
285
123
179
5664
-29
76
-519
82
-76
-36
-148
-141
-324
215
-522
-131
-112
-220
137
-43
-95
-93
120
-83
-67
-15
-388
43
-94
331
46
-47
-21
-105
19
-108
-184
-315
37
-74
112
-172
-92
-190
-89
219
268
88
-24
66
166
-105
-11
115
-90
34
-26
49
-92
-109
34
-246
-267
-294
-237
43
87
-26
49
-33
-16
-82
60
81
-68
-41
940
-70
181
-93
62
253
-100
98
21
-76
28
26
-196
-181
117
374
-77
-28
69
248
90
-88
-3
102
147
5
-5
115
13
97
208
88
-48
51
30
51
170
161
21
21
272
-103
84
84
-37
-73
1
194
-58
68
-30
50
-479
-17
-3
52
200
-126
-121
-17
27
24
-220
32
44
-32
-157
35
-6
-20
170
-55
145
72
8
-118
-72
28
23
-308
586
195
-37
288
-188
-64
55
-74
160
5
-218
38
-182
111
153
-151
-18
170
-5
86
-116
119
49
50
-146
-140
-2
209
-283
63
-50
-218
29
84
143
-210
114
-110
26
-30
-203
-8
51
15
-125
-84
141
162
-14
-359
-156
284
58
156
-267
104
71
145
281
-17
-102
11
114
57
126
145
-6
-180
-251
69
13
-93
-95
72
96
-95
-207
-327
92
86
195
88
169
-15
195
77
114
-122
54
280
88
82
-22
191
-17
-25
-58
-223
71
-69
-57
285
139
-125
19
-161
108
-77
23
-196
120
-191
-15
223
-194
16
468
-87
257
-31
53
-103
88
127
114
-289
-124
243
107
58
171
-75
18
-61
242
-119
207
65
-16
83
109
322
-149
53
-125
-114
240
45
-40
-90
318
92
242
62
39
-48
62
133
-69
-49
80
46
-49
86
-172
-7
-245
-337
23
-324
-83
-47
-122
-73
125
-27
-141
-236
-39
-5
-24
86
-145
227
-6
-76
-10
204
-53
24
101
-109
204
17
230
-184
-76
-47
86
-110
60
-218
75
-133
-305
11
218
-155
23
-19
-136
177
-68
23
270
-166
-84
-2
-14
-48
58
-169
152
104
66
45
-148
159
113
66
16
142
75
-91
73
-39
-158
243
168
-32
-100
295
-184
-60
41
194
-47
25
59
173
116
-97
436
160
-134
-104
-61
-2
-35
-50
-335
-156
129
-155
191
117
-134
136
142
2
-67
10
-170
69
122
-67
-128
90
109
-15
-232
21
202
-85
-202
-52
-109
118
-177
-86
4
187
-153
49
35
40
-22
155
-39
-24
-13
-22
-66
409
-369
-195
-152
