122
19
-113
-132
-21
219
-156
-131
-146
97
-35
-209
244
-249
-59
235
18
156
14
-154
-441
-13
-199
-52
152
-121
-81
87
190
108
101
-160
-70
-67
29
151
216
-127
157
-32
-103
75
107
-239
38
-9
-35
-27
-100
-101
252
-20
-143
188
265
-66
-158
-31
-109
-253
-69
-81
128
245
-276
-125
-28
-48
-199
64
138
-40
396
35
-160
101
194
-441
-63
-423
18
80
-203
-89
-116
-123
152
-339
-72
-99
73
4
-255
287
72
-3
149
68
162
132
-134
-189
-42
119
-165
-5
-35
-28
-58
3
-226
-50
150
182
93
-111
21
-5
135
-100
-185
492
102
-114
100
149
54
-148
248
280
64
-251
-284
-83
-10
57
49
-109
70
-204
-14
-40
-118
154
-105
267
-34
173
124
-267
-121
47
470
-54
-31
140
-47
-227
-51
-276
-20
-48
265
18
-101
-158
-101
-37
670
48
36
-133
-153
-121
-105
-128
19
-14
143
-103
-109
28
11
5
-171
134
-76
-163
-91
-120
1
167
-185
-183
-98
-90
-12
-124
-165
129
89
-172
-125
-89
80
-99
-102
11
-156
-12
-22
199
-149
-270
-49
201
6
136
-380
255
6
-40
-35
65
-62
-397
-194
57
-73
-35
-185
-136
-192
-27
63
35
-88
146
14
220
-226
-39
230
131
-220
270
-33
8
317
528
79
-150
-26
28
-193
-107
133
-33
120
75
76
181
-50
35
-303
108
-59
3
5
21
-168
86
75
-48
125
-278
65
131
179
117
-40
-69
-87
251
110
-47
40
-69
-19
81
-26
-29
180
69
102
-244
-459
6
-20
-192
16
94
103
65
-378
0
201
25
2135
-112
107
-276
-131
-208
57
98
-97
-28
43
-589
122
-8
-104
241
-101
-148
-228
45
-97
-25
100
-125
3
-141
97
-178
56
143
-74
-40
202
-136
-361
5
0
-313
-73
-57
-29
-75
22
-226
148
-268
103
-162
132
-25
-156
-151
-136
-112
32
-162
-72
39
-155
-147
-81
205
111
-1
-3
-170
-52
79
-107
191
395
107
12
246
-132
141
-34
201
-130
17
72
-43
47
-55
58
-16
-26
-95
-155
193
-80
-43
49
-135
-5
133
130
119
-57
95
-2
116
156
-119
32
-47
162
-253
89
-35
39
-394
174
286
-44
-135
269
-51
-201
121
-102
-265
151
98
-24
20
2
-104
-40
258
88
-53
285
-180
69
-5
141
-116
-88
-194
192
289
25
78
-313
38
60
22
107
-85
30
216
67
375
-101
-64
6
-341
99
-72
-15
167
-62
-25
92
55
280
103
187
-193
50
133
-226
-56
175
69
37
69
-39
-105
254
-87
69
-58
-366
-148
37
107
-100
74
-52
5
119
-20
-92
-204
298
-76
-168
43
135
-77
-45
181
76
76
65
-235
242
208
185
-13
61
-125
-2
115
-149
49
-172
71
-28
322
138
348
81
-241
-68
10
-111
53
192
70
122
193
117
-30
0
401
62
75
102
-128
-88
202
-64
18
89
53
-242
210
-10
78
44
40
344
116
-18
-75
-11
82
-245
68
101
47
-168
221
-10
-7
100
207
-78
106
194
-3
-163
-152
130
19
-193
75
229
162
-85
98
-107
150
-54
156
73
4
54
-148
-150
9
188
96
126
-212
-8
146
-41
206
-10
184
55
-187
-7
102
-80
-19
124
-133
-202
120
52
64
-230
-29
-153
-224
-127
-21
-328
-170
16
-206
58
-27
31
20
-222
102
-19
-146
-3
-92
6
19
32
-23
57
-24
74
-131
-145
-22
184
-86
178
22
84
261
-163
-131
-149
3
-44
256
-36
95
-75
38
-149
-39
162
41
49
115
-96
-83
-94
332
-7
-99
-104
99
52
357
-158
-73
-63
148
-199
0
95
1
297
-321
215
-52
25
-542
-66
8
70
-111
-124
-69
63
34
102
5
409
-180
22
-51
26
53
-172
-24
50
-90
-207
83
-80
-62
87
-33
6
147
302
55
-152
-94
-77
14
-125
-110
-124
-82
60
51
204
-100
-101
227
51
-372
-102
38
29
48
-6
135
-220
171
-25
-189
474
-1
16
-195
-103
83
-52
19
108
-147
87
-83
