-23
18
31
-25
15
-27
25
43
-43
-7
9
54
-49
-1
-21
15
84
37
-19
25
5
29
-10
-14
-27
51
-19
20
-33
25
27
24
20
-26
-25
18
-57
1
-37
-73
-4
-47
38
-4
26
24
-3
77
-1
-15
-20
26
35
-17
64
3
76
-107
-4
-80
27
100
0
-24
-1
20
-15
17
-50
0
-30
38
-23
-10
-2
-21
-15
-47
13
40
44
6
41
-12
4
-36
-49
5
-20
49
-25
-79
27
-69
-6
-25
69
-27
34
-31
-11
-53
22
-25
15
45
65
-19
-42
-37
-21
3
38
-17
-28
23
-16
-35
-26
3
-40
30
30
61
45
-84
19
4
-15
-17
7
-26
-53
-16
3
-32
53
25
-16
2
-35
33
13
26
30
0
18
-11
-89
48
-74
45
-20
5
-76
21
28
26
-55
35
-2
-18
-15
-15
17
29
34
-2
-36
17
38
19
-21
-27
10
8
59
-2
-39
-19
-11
-6
-45
-17
-21
-17
-16
-38
26
-5
-12
29
27
-22
2
-20
-2
46
-31
-27
-59
-32
53
-64
22
54
0
23
-13
-17
-4
-12
40
107
-14
5
-26
21
87
-8
51
22
-31
-34
-28
103
-10
-8
52
5
-55
35
29
-5
-38
-5
-6
25
8
-17
54
2
-40
0
12
76
-54
-68
-49
21
-28
-7
36
14
52
-10
16
-26
40
12
16
-12
-22
34
29
-93
-37
-31
39
9
-23
66
-55
53
3
-61
-43
30
30
-32
-5
32
-34
29
-3
-9
-8
20
-6
-8
2
-16
-45
-34
42
1
29
20
11
-31
10
9
-8
91
3
-29
-31
-6
-324
-51
-30
-54
33
-14
3
38
-3
-40
33
22
10
37
-8
-78
0
-70
16
30
-36
-17
69
-11
-52
32
-14
56
-47
-7
-55
11
56
55
40
22
7
-30
38
-35
17
13
-29
-60
51
-106
35
27
-30
17
16
39
32
-10
93
54
92
68
-65
-35
-35
-32
-22
23
0
5
-41
0
3
-17
-25
-23
17
-381
-34
-66
55
18
-6
26
-6
-22
-13
-22
9
-51
14
10
-54
-9
29
-11
-38
6
38
1
-122
-22
-19
-45
10
6
1
30
-29
2
-31
-8
-50
-91
-7
29
29
-38
41
-56
-61
-17
-10
-53
-49
21
-62
-38
-29
6
-11
21
14
-31
32
-14
-18
-30
-25
-46
-3
-7
-11
26
22
15
75
-9
47
-34
37
47
12
5
-94
-30
7
-17
24
-1
91
22
51
-76
-4
34
1
-34
-10
25
18
-26
9
-40
-5
-79
28
-43
-76
-67
-100
19
34
35
9
30
-39
26
-37
31
12
-32
25
20
14
25
6
-7
21
-37
-8
13
14
46
-56
-3
14
-50
15
-9
41
84
-33
32
29
-1
6
-19
53
3
-52
-8
-75
-28
19
67
-15
18
-11
1
24
-73
24
-5
44
-86
31
-18
7
15
-21
-41
5
19
25
49
-37
-18
12
12
8
-38
-11
37
18
2
17
64
51
-32
-25
67
33
58
15
5
11
-2
17
-46
-64
28
52
-82
11
1
-42
34
49
2
-45
-12
105
20
-24
8
-3
-54
13
31
-28
17
17
32
-19
69
-10
21
-16
44
45
28
27
26
-40
27
24
-27
38
3
-48
2
-2
-34
-2
-39
57
30
-10
18
-1
29
66
-21
-18
-26
37
51
4
80
-16
14
-10
43
41
-21
-38
43
-9
-44
-6
-29
-4
78
9
94
10
-24
7
50
-21
-5
38
-3
-13
-18
36
-29
80
-20
1
7
-2
86
76
-35
69
-14
51
1
33
-8
56
-24
-23
-13
-4
-47
90
-37
-6
41
6
38
7
-20
6
-7
-40
-16
79
-8
-86
-51
-78
-55
53
-54
56
43
51
14
68
-48
42
33
-30
1
31
30
-36
-9
-16
6
51
14
-107
9
-13
-41
33
-18
-4
-57
-13
-6
3
70
35
-45
98
-71
11
90
-21
28
-10
24
-34
26
-30
2
-6
-12
24
5
-30
-7
-21
47
-73
22
-75
14
53
-83
-49
54
30
-3
-68
2
-19
-26
