35
86
157
62
-148
163
-248
47
-302
82
206
-78
153
47
-66
-45
81
-140
-10
-180
51
-151
-131
-15
41
-30
228
-122
265
20
-66
-32
-90
80
33
40
186
79
-165
-114
-150
-207
-122
125
21
-63
-93
-1
101
-108
-109
57
-179
100
-352
-27
57
-393
129
-180
-60
148
-94
122
246
-386
195
111
188
-48
-79
49
3
-129
-7
-87
18
69
-86
-127
9
-105
37
-53
-74
-59
89
90
208
-177
50
-114
38
160
-48
-215
141
-16
-25
-89
86
81
35
210
-122
65
-41
131
84
-81
-100
-94
3
25
-165
-125
-28
101
117
-100
333
-11
189
174
-236
-75
-6
-95
130
-4
-24
6
28
-3
-9
33
-43
-5
22
18
16
3
-53
37
-48
-22
-37
13
-9
-18
-14
-17
-38
61
3
37
-51
23
40
22
-28
-12
-15
-51
43
-22
-14
-20
-40
-23
-17
34
-50
6
45
11
33
-30
-19
54
-8
47
-4
-36
48
-10
-7
11
64
-24
9
-45
-205
-160
54
-140
-174
-149
108
-149
-77
-241
216
10
-26
-37
129
-113
321
-248
44
-351
-126
404
-139
-124
-47
334
84
-79
18
67
-244
70
83
182
175
-24
82
-98
80
140
208
26
-68
-14
61
-215
317
-225
192
-175
74
0
-58
-197
-7
8
173
-215
60
24
142
-46
-18
62
-182
113
172
289
80
-129
-251
-329
55
-54
-5
134
308
16
-143
-61
-153
-289
-118
-74
120
105
-155
-81
51
-130
4
-109
-182
-168
144
-139
-42
-18
-293
96
-3
-198
-100
45
198
140
-94
-12
279
109
72
484
115
92
116
104
-54
-287
12
-25
104
93
-81
32
-106
49
20
-36
249
10
-89
-264
8
-84
402
462
-67
42
14
-141
422
108
-159
59
254
-152
88
-112
56
-183
-37
301
99
63
546
208
5
115
-317
29
-210
-131
551
44
146
187
-132
-100
130
72
2
271
-54
-40
576
-271
329
281
-337
-226
-71
81
126
-125
190
363
-155
-102
93
190
94
13
13
144
-4
-39
-28
127
102
191
-180
-152
52
58
-65
69
-3
69
-44
13
-38
2
-7
-102
122
11
58
104
-58
-33
-95
64
-82
47
-21
-37
-50
91
-6
-87
-53
28
37
-173
-52
369
-55
-90
-54
148
-24
0
-9
-156
152
30
-5
230
-129
-21
-13
-189
-42
165
39
37
320
-48
13
120
141
60
401
-106
-287
-12
244
85
-261
-333
-80
141
-61
125
-144
26
70
-227
194
94
-56
-399
-144
-135
175
-232
23
-191
44
105
194
189
122
220
25
72
221
-73
252
567
376
1
-5
-298
-352
-323
242
-81
-288
277
-170
-50
-74
-112
-230
108
-32
-391
-10
324
152
62
-312
-602
-164
-150
172
-117
-266
61
6
-39
87
386
100
-80
-57
-151
-125
65
-41
7
366
65
195
-217
-298
126
-36
197
-332
81
56
-142
66
-20
224
94
-356
79
-229
-16
-60
361
182
115
133
265
-67
-365
-368
174
-138
-143
171
170
261
-104
-184
-103
375
-199
41
128
-19
44
-13
52
138
-104
43
161
-57
-31
127
56
120
-50
-168
123
-16
-26
6
-69
-171
-111
-34
189
82
130
-29
-122
179
39
-40
-67
-84
-85
-124
-31
92
63
87
-142
-25
29
-112
242
82
20
-101
-111
67
26
30
-60
76
58
-89
-58
21
163
-167
87
48
-80
156
53
111
249
-202
412
-85
179
-50
-203
-88
81
-120
-34
15
237
-163
-59
-423
-28
212
-173
-389
73
-136
178
-78
-58
-54
28
-187
2
-169
69
76
153
234
-100
-110
221
31
59
2
264
127
77
109
-220
-134
-93
95
-8
47
-3
-125
152
308
-146
68
136
-169
233
-13
-11
21
-140
35
76
307
170
321
-26
82
-8
170
-76
-92
219
475
132
-8
-75
-205
361
-70
-112
-37
59
-301
141
41
50
8
-35
264
60
296
331
237
343
179
5
-104
-595
-176
-56
112
-149
-427
112
43
87
-84
-111
315
-109
7
329
6
120
45
39
-61
208
71
-113
-143
189
132
112
