-182
-173
19
6
133
-80
310
100
357
-144
-39
37
-84
-86
-137
-66
-86
-47
53
535
86
-289
67
105
-7
104
131
106
-1
-2
-189
178
125
27
-124
50
69
-60
302
-91
50
99
-218
-9
32
-456
-5
-9
-27
23
-344
78
-76
-51
121
-79
43
203
231
119
-81
-395
-21
-57
104
61
197
-142
-10
11
37
120
44
21
-17
-9
25
68
40
77
-70
48
-38
-95
-79
6
-71
-60
-157
278
-24
42
-74
-78
-288
-151
-59
-31
-48
-99
-52
53
84
32
-80
49
-185
167
86
9
42
-89
131
0
-53
-4
189
93
112
31
51
1
-107
70
5
70
56
39
80
-145
77
134
159
243
-319
86
-10
-52
-107
-6
16
-22
66
7
-57
53
-20
33
-24
-13
77
7
91
13
-217
232
45
153
-41
-44
-5
65
-244
-54
31
146
-1
-1
27
66
166
39
142
52
-4
73
-149
-323
-100
18
-38
-8
32
-24
-346
-12
53
-6
-40
-298
100
18
-78
127
156
-111
194
-11
-77
152
-33
-1
-79
274
-323
-62
18
-83
13
326
329
-56
-376
-168
-249
-185
-77
-500
-18
-23
130
-231
7
-50
43
-84
-82
-189
-230
76
317
-55
-47
34
134
114
42
-54
-218
-15
26
148
-20
-267
92
60
19
37
-65
72
49
20
126
25
-8
-71
187
-22
-120
-52
329
194
-23
0
12
-50
159
1
-159
-100
5
-15
-178
8
-61
56
-5
-168
-142
-63
-8
-111
-200
-110
-117
-155
73
-7
-15
29
-368
23
-489
-160
67
21
113
121
-61
72
65
-16
53
-4
143
-117
-134
107
-45
122
-162
46
-7
45
-5
41
-39
-221
-40
31
-58
-41
41
40
69
25
-74
-106
17
99
-147
-121
-53
-16
244
57
15
-85
68
-247
119
-191
-69
20
-242
-494
54
46
4
283
85
95
-417
-75
-94
-220
179
-86
-201
-141
-31
22
-117
-108
-151
114
-90
202
27
242
93
-248
51
-27
54
-39
-240
24
41
-21
-202
-243
-218
169
140
6
-7
127
-101
16
128
74
-19
139
47
-78
-191
377
-284
321
-84
-215
13
-69
-32
125
-115
-432
-8
9
63
-132
-49
101
202
-232
-86
20
-123
44
10
-24
-152
-12
94
-285
-42
-92
-144
-96
-154
155
-202
50
3
176
80
-61
16
69
44
52
-313
101
-52
250
-198
-175
-101
86
-107
393
84
71
108
49
-33
-10
-27
-42
-320
-43
-88
-70
-1
28
-35
-88
366
-61
129
1
-157
47
-128
51
12
4
7
0
-11
-54
27
-7
7
103
-25
44
-38
34
26
-24
31
77
36
2
-92
-18
-70
83
-16
-29
0
90
80
-14
-231
114
8
-42
-65
55
15
-69
95
122
158
57
-84
77
36
48
-79
109
52
-19
-134
-71
-43
62
66
118
75
-99
-104
7
-117
132
0
-51
85
31
-46
44
-4
1
-53
-93
-190
150
6
186
-38
21
81
-66
72
-113
1
-65
41
-64
114
-119
191
116
93
-136
82
-120
-170
-101
189
15
-50
31
-84
-17
1
29
-64
45
159
-117
34
104
-13
-62
10
52
24
-11
-50
-83
90
120
-154
29
42
-106
79
-168
-73
47
-5
-2
0
24
37
-13
-62
22
4
36
16
25
-384
-16
74
-340
-78
-210
-36
106
-60
-249
28
-41
36
-11
104
10
-2
-72
-16
-76
108
115
-91
117
-12
-56
-147
-159
31
37
46
77
64
-138
79
27
-79
23
-74
159
31
59
174
92
6
211
-173
-130
-37
-22
-105
-291
-155
62
114
-16
25
-26
29
-4
34
64
84
423
-21
12
132
-1
80
-399
-48
173
-41
-142
-10
-83
-47
-202
-8
19
60
50
116
32
48
4
46
5
71
77
163
-86
22
-9
-18
60
-11
34
6
-27
-16
-83
44
302
-20
113
55
59
5
-88
-53
-33
-26
-101
-81
165
94
98
98
111
23
-2
-80
36
-152
47
145
306
52
2
-40
-71
-70
16
-52
-63
87
-132
-52
-78
-61
7
200
-44
-16
-217
74
-129
150
-13
-29
-128
