-448
-175
104
-253
593
96
37
581
-443
-103
39
171
-523
284
-289
559
222
-23
-64
-137
297
-95
-9
227
-354
289
133
-255
-320
127
526
158
-192
-265
-302
-337
-75
248
-398
-542
-420
-613
58
557
218
-352
-161
-388
-63
-323
-1402
142
-297
-285
590
265
-453
82
-186
-525
-9
137
-187
-492
189
356
139
394
-1042
-207
-596
204
90
-284
56
-676
-338
263
69
139
-40
179
-262
422
-142
-448
-36
53
152
954
-591
-201
-127
-224
-104
-450
604
-378
-77
-377
68
-395
21
-70
-372
131
-135
-321
-51
-176
-239
299
75
-385
-175
-180
50
-305
-464
-21
26
-231
313
3136
-487
-319
-476
162
-310
25
236
261
121
-257
-327
-262
-214
-28
-286
-62
-293
25
8
571
-93
-1
32
-1068
-330
-214
-16
132
-586
-628
-334
61
250
424
240
-193
97
-415
-253
-166
738
-69
-213
109
-514
29
-45
-197
747
12
283
-252
121
67
238
721
-1921
443
-72
60
-93
-48
724
-76
147
209
-420
240
254
-205
-71
218
-488
-175
32
254
-28
141
283
-281
-504
1487
-8
175
-59
134
-291
-57
138
559
-5
-463
-272
-82
292
-158
-2
178
-16
379
34
751
27
-685
155
-452
-146
-274
416
-322
-145
-269
-221
9
-101
-506
381
-141
48
664
-303
-175
-85
-41
-337
-475
-583
-52
-472
-55
-228
-563
84
-449
157
109
624
-69
-24
267
-187
-59
-57
-83
80
105
160
63
-213
651
-459
-365
72
-200
-350
-549
532
769
-258
-426
-965
-380
214
86
87
-181
44
370
-137
-217
506
35
-354
-349
-34
74
-672
-44
-136
170
-255
90
132
-218
-5538
181
-548
-407
696
-45
-238
-220
-206
3
-61
-382
30
757
2
-819
138
-744
-113
1407
-247
-339
-154
69
5
548
154
-106
-582
-71
-91
-44
82
770
-320
141
-187
-645
-102
-387
-20
-987
16
50
891
100
-238
-140
-381
235
78
-23
46
-687
553
-27
315
398
-725
-170
-467
-460
-1109
93
165
-491
-1371
-26
-203
-455
-244
329
-59
-7733
-144
-405
521
27
-161
3
-296
-585
31
-115
74
-449
-273
-8
-418
-654
55
-82
211
-150
189
-112
-191
179
-80
-195
152
-148
85
-173
185
-58
-250
77
446
201
300
-14
-18
105
-3
-503
347
170
125
-603
-200
-220
-316
-565
52
46
-556
-49
-28
352
-260
-569
483
418
148
-193
-162
-1934
-336
36
-11
-342
172
-10
659
-10
361
154
-152
173
-755
-685
97
-265
164
574
1001
-117
295
-602
342
-445
-230
-382
-232
230
-248
-551
57
125
-779
108
-68
-179
-315
203
-261
-383
-474
704
-282
-404
-214
98
290
-151
-120
-425
-184
-175
-64
262
57
-284
-386
-684
67
-164
-588
269
-195
-287
-62
116
110
-596
-21
504
-703
-266
-638
-357
-508
280
-307
-21
-314
-394
1032
-357
-84
-289
217
-77
-380
70
359
-194
-57
15
-131
-1301
102
75
-154
-360
-441
-795
232
252
343
122
-232
-412
259
457
183
-242
-116
428
-7
-549
-200
-259
520
-285
-560
121
-326
349
-153
236
-654
335
563
-295
-79
-158
-138
-772
286
-325
-244
0
-324
316
-167
-184
300
-434
-826
47
-213
-184
54
-1043
-233
150
-299
-107
503
205
54
-54
-282
396
499
234
5
-180
-471
18
399
-345
112
118
179
-703
-436
-182
95
-732
1004
430
-176
-112
206
-161
260
-394
-25
296
370
40
198
594
-226
152
276
872
232
156
-218
179
-415
-569
482
-636
160
760
177
26
482
111
329
97
205
-153
470
668
-32
-170
320
97
539
-147
186
-92
17
754
216
94
598
-182
-147
-256
352
-326
396
-397
347
-220
303
-183
214
-369
36
-223
77
233
-198
-162
-646
-567
-77
52
191
8
-249
-544
-54
24
406
-80
-242
-42
334
69
498
172
16
338
-676
244
-16
159
-113
-106
-1119
-156
119
186
-3751
9
15
167
127
-645
-718
-717
-456
-371
-235
-142
-389
93
379
-210
-348
-161
-519
298
-254
42
-562
-590
-236
285
-213
-420
238
362
-239
-235
382
355
-154
-611
-1005
279
-455
-98
453
-266
4
-483
-104
-333
-191
-221
