-23
-55
61
48
-87
59
25
-15
41
46
24
-26
57
-41
3
39
87
-19
-20
-21
61
-1
-6
-48
-17
-33
32
-25
-20
33
50
21
-20
-45
-83
23
90
-2
-95
-74
0
125
58
88
35
14
84
-4
-16
-45
-104
99
28
63
24
-17
50
-24
-56
0
-56
75
-49
-34
-27
2
30
2
15
50
26
-6
-2
48
-8
28
-22
-12
54
1
-15
22
25
56
15
-15
-17
19
-2
-12
-48
30
29
-85
-1
13
51
-21
-21
35
26
38
-19
19
157
-41
13
28
-6
28
1
-47
7
12
-7
9
42
10
48
1
-2
45
25
13
21
44
12
-17
68
42
-29
11
42
23
-12
-16
29
-60
22
18
129
-13
-4
-38
-10
12
-52
-38
-20
41
39
-43
-66
76
-1
-11
8
-17
-1
1
69
-36
-54
-34
-87
51
-26
17
-147
4
46
-14
-50
18
-13
-15
-74
-36
31
-24
-55
9
7
4
-13
7
-37
45
80
-16
16
16
-4
-11
68
10
-17
1
11
-94
-30
-124
27
-33
-96
34
-46
-15
-31
101
81
-49
-18
75
-150
65
67
-13
-9
109
14
-18
-59
-91
-79
-20
-1
109
-29
-121
8
-3
-49
-14
90
220
7
-83
-103
-28
-15
-24
68
-21
22
-20
-106
5
30
-52
204
-13
55
-18
0
74
6
-9
-14
16
5
-7
3
-17
-45
-37
1
2
29
-34
13
-17
5
-22
-12
16
-22
-37
-24
-7
-9
-5
-15
-15
-19
-47
-7
-20
49
-37
-48
-20
15
15
-17
-70
11
0
7
-5
-18
32
-11
57
-30
23
-5
-12
7
-17
-5
38
-38
44
-35
-28
-24
13
-26
-19
-54
-111
-40
8
-15
124
20
-13
-15
-25
32
27
98
-71
-28
-111
-9
-25
-72
-107
-3
-103
33
-39
51
14
-41
41
48
-76
-5
-50
-104
27
48
-52
99
-13
-73
16
-22
-136
19
28
-92
-28
27
-79
-5
-14
-7
72
54
-3
53
21
56
26
54
51
11
31
-36
59
-28
-11
4
2
40
32
8
29
43
-14
7
-14
-4
26
-21
13
-7
12
3
3
-23
-29
21
48
24
-7
4
7
0
2
-23
13
-13
31
-13
45
56
-55
14
39
41
-2
-25
9
18
4
8
-61
48
-3
-27
40
6
12
-58
-9
54
-24
-33
5
-13
-11
18
22
39
-17
52
-67
42
63
89
-6
-31
-47
30
-29
58
19
-57
4
-165
-4
-46
13
1
-52
-20
21
-39
26
4
-51
-25
-71
37
97
-101
38
18
48
-26
72
-97
-96
-99
-55
-28
51
35
-16
-134
62
54
37
-43
-82
-13
-58
-33
-29
7
51
-7
81
45
41
27
7
27
-54
60
-31
70
35
-16
-62
5
16
27
-9
44
-82
-7
5
6
-31
0
139
-12
-33
-53
59
-30
-26
-16
61
6
44
-2
-39
22
15
-15
-5
-72
40
33
16
-14
20
18
84
31
9
53
4
15
14
56
58
21
-17
17
-4
-24
-42
-36
26
24
71
50
-41
0
-28
5
48
76
16
33
37
2
-25
-22
17
-5
-46
-23
25
66
-109
8
1
-10
-42
-36
-29
24
-22
0
64
-64
-140
-1
-63
-27
-36
-24
31
-11
1
-27
48
-32
-51
-18
26
-38
9
-19
-25
-53
-28
-36
1
30
44
37
-65
28
-31
-100
-7
-33
-5
36
0
-27
-30
2
-62
-13
-5
-38
22
5
22
-22
12
-23
-31
-43
58
49
10
-22
-15
-19
-42
26
14
-21
-8
61
-68
-17
-3
-31
26
-33
32
17
-21
23
-50
-49
18
33
9
11
37
39
19
-24
-19
-43
3
-28
-42
12
-12
54
18
-60
-32
-16
35
-67
-60
92
-10
-6
19
50
-90
19
1
60
-29
-151
159
17
342
-84
-41
24
150
67
108
290
-51
22
-8
-35
-2
-92
0
9
-65
-55
-199
10
-26
53
-39
13
-139
40
177
117
1
21
125
-164
-37
-217
-75
-188
-32
-132
188
28
-328
22
-41
24
92
-98
52
21
-182
94
-88
-103
120
