-129
-178
-208
-72
-668
-168
-412
-311
-120
-80
-154
-312
121
-286
-176
-449
-402
-315
15
-270
-551
66
-363
-790
-343
-515
-72
-8
382
-413
-73
-34
-556
-49
-238
-154
85
-123
-237
317
68
232
14
-295
-96
73
-146
-156
11
60
-9
22
-617
173
-352
-422
-275
223
12
-26
-157
-292
-64
-271
-148
-381
-139
-263
-163
183
108
-216
-130
123
-399
-100
-39
-215
-263
-443
-233
-160
-263
-477
-112
76
-314
-132
81
-212
176
243
-867
-98
-352
127
-392
-144
-144
-80
-65
-139
-306
-8
-17
-171
-108
26
233
-102
247
-71
461
37
-165
-127
-223
-153
38
-316
10
46
-154
-411
-292
134
-109
-460
-24
-16
-141
-239
-8
-125
206
-39
-312
-330
-121
31
-51
-184
-164
-425
-357
231
-53
-137
38
-597
-79
-482
20
-78
-259
-335
-234
-229
-395
62
-320
71
-90
-159
-77
-322
-452
-260
385
75
35
-64
-99
-394
-24
-634
-256
-276
-310
-25
8
-364
137
-399
-265
104
-481
-562
-286
-55
11
502
-733
82
-382
-232
-203
-551
-212
-183
139
-175
-361
46
62
-266
-359
-64
-425
-341
35
65
-303
-456
-168
-3
114
-3
-713
197
-392
-593
-15
-254
43
-507
-192
61
-393
-90
16
-152
-482
-12
25
-378
-54
-239
-355
268
-229
-139
41
-588
-313
-136
-83
-177
194
162
-13
-805
-209
-168
-259
111
122
-87
-212
-143
-289
-31
-48
-200
-151
220
-146
-67
-109
62
-112
-230
-17
-380
-166
84
-197
-48
-33
107
-319
-447
-52
-7
96
-345
-446
-280
78
-212
-142
-76
130
-74
-523
-225
-384
-559
-419
4
-173
-414
-5
-101
-886
146
-103
-114
3928
-14
-2
53
-368
-293
-174
-279
-144
-120
11
-291
280
-334
-371
404
-97
-69
-197
-270
4
171
-207
-131
-2
-649
74
-145
66
-43
-83
129
-304
-520
-305
-353
-124
196
-258
206
-82
216
126
132
-273
-152
-169
88
-230
-278
-140
-289
-264
-62
-353
-113
-302
-41
115
-418
49
-67
49
-17
-192
246
272
-188
-326
44
248
-310
-54
1246
-153
162
-309
1
315
-194
-72
111
-379
-303
-337
-63
-257
-113
324
155
-188
151
14
101
-206
-2
88
288
-167
-23
-468
58
-32
-20
-353
-206
37
-408
24
30
-362
-148
-72
337
-106
-9
103
-289
-100
176
135
-386
-250
152
56
-541
207
-289
99
145
-73
-24
-296
-242
-258
-244
-65
60
178
-158
34
187
-73
-152
-275
-3
-351
-401
-97
-380
88
35
-342
328
110
-345
-419
-81
-284
16
-186
-141
-165
-7
-215
-142
-179
-134
-72
-245
273
189
-115
-397
50
131
-38
45
-434
-400
253
-187
-136
-16
-243
-347
-148
-66
-64
-88
-194
-189
-253
-433
77
91
-239
-417
-171
-132
220
-48
71
25
-94
-38
-102
-717
132
-263
238
-274
162
-319
-308
-61
-57
-21
-62
46
-132
-462
-432
38
75
-208
-246
283
13
-200
-197
534
-328
-92
-27
35
-60
327
258
-143
-606
-407
178
-40
-352
-196
-8
29
-6
-486
-188
200
22
49
-140
-139
79
-200
-420
-44
-61
-19
-61
-301
-408
-284
219
-203
-34
208
-287
241
168
-502
-404
36
-149
-5
-883
-27
11
-292
-172
-22
-480
-179
-282
131
-232
-196
-66
-152
-263
-165
161
-345
-407
-456
-198
-75
-175
-172
-201
29
-87
-234
83
-111
-95
-189
-192
-14
-558
-244
-245
-395
-35
-290
-532
144
-251
-126
-330
-371
-431
-496
-101
-126
-188
-278
-384
-205
164
-324
-284
103
-240
122
-246
-333
-158
-314
-300
-512
-500
-326
187
16
-347
-89
-166
0
-226
33
-274
-45
-106
-52
-365
-556
-229
-421
-317
-132
268
-285
-230
128
-557
-206
-316
-243
-73
-179
-537
-203
21
-119
-312
-305
282
4
64
-8
-465
-144
-81
-304
102
-333
3
-99
-314
-120
202
-220
-337
-343
-297
-231
-206
-308
-418
-167
-570
-245
8
-229
-160
-275
-158
-94
32
-144
86
-19
-471
-30
-158
28
78
-258
-308
-347
-149
-460
-776
29
-76
-455
-112
-168
-218
-170
-151
52
-18
-342
-7
-8
-273
-368
29
-36
-57
-449
310
-137
77
-497
-126
-90
-171
-345
-167
73
114
-302
-244
-141
