-17
29
18
10
47
16
33
70
-9
4
31
34
-35
13
-7
15
62
24
-24
4
-12
-7
20
-3
15
52
-39
18
-71
51
20
-30
21
-30
2
19
-27
-8
-36
-38
-15
-21
-13
17
-15
4
18
72
-13
-32
10
-21
37
-67
11
71
35
-88
-5
-35
23
68
-60
34
10
22
-10
-8
-32
-12
-25
6
2
-2
12
-2
17
-31
-14
19
42
6
20
34
26
-55
38
13
-47
42
-51
-52
78
-56
40
-59
105
3
4
-18
4
-29
54
-36
23
26
32
-31
-50
-44
-49
13
-58
11
-13
39
11
-3
-35
4
-17
9
6
16
62
-65
-8
26
-19
-3
13
-6
-45
12
-2
-5
19
38
25
-46
-14
50
15
2
-5
23
7
3
-67
35
-11
25
-46
-13
-47
-22
34
22
-20
-13
-3
-10
-1
-33
-49
43
45
-5
-55
-30
22
11
-24
-18
7
72
3
-3
-22
-39
-22
24
-42
12
2
-48
-11
0
-8
-25
-16
-8
25
-36
41
-9
36
76
6
26
-55
-49
30
-51
-20
-8
17
-2
22
5
-3
-1
29
55
-21
24
-28
-9
124
-23
46
58
0
-21
-16
58
-50
12
49
16
-54
31
33
-5
-27
3
-20
28
-21
-41
45
-45
-27
57
51
39
-9
-31
-31
10
-60
1
13
31
35
-38
25
-23
-2
-16
19
-17
-12
32
-10
-72
-24
-23
25
-28
-7
31
-36
39
35
-90
-10
11
45
-44
24
21
-42
27
-8
7
23
11
-27
-2
-35
-19
-42
-40
15
9
77
28
30
1
36
39
18
40
38
-42
-8
15
-266
-24
-32
-32
12
36
-6
41
-16
-25
-13
66
-19
34
-11
-70
9
-60
28
61
-20
-5
36
-34
-38
76
-12
-7
-53
-22
-37
-7
45
31
2
40
-13
-59
33
-29
16
-2
-32
-57
-2
-74
49
-3
-13
-12
11
46
37
-15
59
20
58
19
-65
0
-5
-18
-17
9
-19
-24
-35
-12
-7
-50
-43
28
2
-282
-20
-61
5
-14
-36
24
-14
-39
4
-19
-1
-42
34
-1
-40
-36
-24
-15
-45
-20
-22
4
-48
-20
-15
-20
-15
1
-22
4
13
32
-45
29
-49
-46
23
13
34
-116
4
-4
-34
2
-5
-10
-11
30
-2
-22
10
15
-64
17
-2
-50
9
-14
-13
8
4
4
-1
-29
29
4
-23
-20
0
-3
9
3
21
74
33
25
-24
-32
17
-28
-23
-9
66
15
29
-41
-21
26
-5
-17
27
-20
21
-38
-4
9
-39
-65
25
-2
-41
-89
-45
-29
46
41
-36
5
-12
11
-25
43
3
-23
8
-4
26
20
16
2
-45
-13
20
53
32
-8
-46
0
-19
-40
3
-2
34
84
-33
-3
32
38
-14
5
24
24
-31
24
-38
-30
4
72
56
7
-37
-18
15
-53
-8
14
17
-57
31
-24
5
-7
4
24
-21
40
17
34
-23
17
30
5
-29
-13
-47
20
-8
-35
-25
15
-2
-14
-31
32
11
9
6
-16
-14
17
9
31
-38
-2
27
-95
-8
17
-60
43
63
-23
8
-14
82
25
-17
5
23
-48
9
25
14
-45
-14
37
-7
17
38
33
-12
15
32
9
12
-9
-14
23
2
-7
22
-6
-60
13
-21
11
18
-17
47
39
-12
27
-37
34
39
-51
-50
-29
37
21
20
47
-43
-27
-8
16
10
-38
-44
30
-11
-38
2
-2
16
52
7
63
26
-8
18
32
-46
-30
29
-26
4
-23
20
-16
12
-16
-9
-5
28
104
26
7
50
5
-10
16
32
-10
35
-10
-4
6
-17
-19
57
3
28
14
19
50
-8
-36
-11
-34
30
-8
31
11
-53
2
-58
-45
39
-39
53
26
11
35
20
-19
58
19
19
44
59
27
-29
2
11
-4
18
-11
-48
-9
-30
-15
56
-9
16
-51
-7
33
55
23
18
-4
97
-96
3
85
2
28
-1
5
-1
29
-45
25
-10
-33
66
-13
-24
8
-38
48
-75
10
-60
14
74
-68
-39
42
-31
15
-33
16
-4
3
