-1
30
0
19
34
-1
24
32
-19
3
3
5
-22
52
6
11
8
18
2
5
16
2
20
-25
7
57
23
9
-72
24
35
2
-6
-31
5
-5
-7
-12
-14
8
-1
-16
12
-12
1
12
23
32
11
-42
-3
-11
11
-25
29
40
22
-61
4
-32
-10
78
-34
23
14
32
-18
20
-14
-34
-52
7
3
-11
3
46
0
-26
-10
1
50
6
2
9
35
-37
-2
31
-18
11
11
-19
36
-22
65
-46
99
-48
-24
-34
-27
-5
2
-15
14
-25
18
-20
-46
-30
-37
-8
-15
2
-36
19
-16
-1
-14
23
-29
-18
-11
13
55
-39
-10
60
-2
-23
12
6
-10
-15
44
2
36
49
-42
1
-28
41
29
-7
-1
-34
39
10
-65
53
-28
23
-104
17
-22
-48
21
12
-5
-62
32
1
20
17
-25
54
0
15
-35
20
21
46
-42
3
8
-18
6
9
-5
-33
5
7
-37
9
-2
-33
-9
14
11
-21
-2
-8
5
-20
53
22
18
36
-28
-9
-24
-17
25
28
5
5
15
-11
3
30
-5
-26
59
33
16
20
-64
0
37
10
37
32
-3
-2
-1
41
-8
39
17
5
3
-11
0
12
-25
-23
0
12
-8
-11
33
-40
-31
25
26
16
-23
-27
4
-32
-21
7
-5
3
18
-23
-16
-19
23
0
3
-16
-18
33
10
-27
-7
-14
16
-18
-1
1
-40
18
-3
-49
-39
-14
6
-40
32
-7
-15
-40
-1
11
14
35
25
21
6
-5
-49
-41
7
30
52
20
15
0
32
13
-4
71
23
-14
-31
3
-316
18
-12
-32
25
18
-22
0
-18
-4
-28
13
-23
28
25
-64
3
-27
-6
15
11
-8
27
1
-7
22
-3
11
-45
-31
-18
-21
8
18
-17
46
4
0
6
-16
0
20
-7
-10
7
-46
22
-5
14
-8
13
3
17
-13
30
33
11
32
-48
5
5
-6
-16
35
-17
4
7
3
12
-47
-46
4
10
-140
-11
-25
14
-6
-32
26
-29
-55
13
-8
6
-36
31
7
-33
-59
0
-10
-42
-8
-20
8
32
-15
-4
-1
-9
-3
20
16
0
8
-43
31
-54
12
9
49
3
-32
30
-15
-48
17
7
-24
-27
-1
4
-51
-9
-3
-53
1
-40
-25
9
-34
-37
1
41
-6
-8
-7
-13
0
-11
-41
7
-15
31
-29
-1
51
-17
-19
-58
-33
-4
-78
-19
-21
56
23
16
-59
-16
34
-6
-3
-12
-35
8
-39
-37
-1
-23
-64
32
4
-10
-47
-45
11
28
19
-49
-8
-7
-20
-16
29
8
18
30
-7
17
2
-9
-22
-9
-5
8
39
9
0
1
23
-41
-24
12
16
-3
54
-40
-44
-37
35
-16
47
18
6
-30
39
-11
-25
4
-15
-14
16
-29
-9
57
17
-27
39
-22
-51
-1
-43
-17
17
-32
-13
-18
54
38
12
4
-13
12
4
-8
1
-9
42
-11
12
-13
49
-20
-17
-14
-7
-13
19
3
0
-7
7
8
0
-37
8
41
13
-8
17
-74
39
40
-16
-4
-9
69
2
-3
6
10
-22
8
17
-16
-31
-2
66
21
18
26
28
-21
-29
-2
8
10
10
7
28
3
-10
17
-36
-75
-13
-37
10
20
-28
36
36
-15
25
-8
22
9
-9
-37
-10
42
3
7
56
-15
-4
-5
33
58
7
-51
38
-2
-38
-15
4
11
35
-24
25
10
5
-6
24
32
-3
32
17
21
-64
37
-9
1
-1
-2
0
23
63
7
-23
14
7
27
-33
18
-5
19
7
3
-18
-6
-25
67
-9
-5
-13
33
22
-11
-12
21
-5
19
8
3
20
-41
16
-33
-3
8
-49
39
38
7
47
17
-41
41
28
-9
26
6
27
-30
27
-18
-7
0
25
3
-7
1
-15
12
7
3
-37
-2
49
21
37
26
-18
30
-57
1
31
5
-3
7
-11
-17
40
9
14
-2
-31
57
-1
-4
-27
-14
43
-47
41
-77
0
68
-20
-40
15
-25
-19
-30
-9
-18
11
