-60
32
2
-94
15
-36
-38
8
-6
-13
-19
-84
11
-62
25
-56
-69
83
-31
62
16
-37
12
21
-127
79
-39
-4
-8
-5
-39
19
-10
-27
-28
15
-62
39
-64
-89
95
-14
26
46
-41
6
19
-2
7
-10
-56
-17
-8
13
-57
-29
-18
-3
27
-15
43
-120
80
-26
-4
-10
-117
-20
-29
4
40
68
-4
55
2
-9
-63
6
-101
52
-82
114
4
-61
-19
47
-24
57
-58
-43
4
46
38
72
111
40
78
-14
3
-13
-98
-18
-73
-13
93
74
55
-69
4
-31
-19
20
-41
39
45
-18
7
-19
-21
67
27
62
-7
40
1
66
-17
-56
13
-104
-49
39
33
-62
-17
-166
111
2
137
107
39
-7
78
2
-159
-112
-143
33
-128
183
143
-2
66
29
-66
-25
85
-376
-61
192
384
112
162
-6
-50
43
-127
89
46
8
-186
42
-80
-44
183
-9
149
-3
13
1
-147
-88
182
-90
-151
-119
-7
32
77
-75
43
-32
86
-66
59
-52
-26
-76
25
-61
-73
-64
91
58
-84
74
110
-99
-48
52
-34
97
-114
93
-104
3
32
105
-66
-96
112
-20
-87
-33
128
5
7
3
113
25
6
117
215
140
-6
30
-66
4
19
13
139
-92
67
-5
135
-17
52
14
-165
-89
-119
-19
-93
-77
-12
-85
44
-17
54
-254
-142
-130
76
44
-399
-23
81
71
-4
86
1
-96
-484
2
27
-30
2
-49
-133
-5
26
12
-74
239
-68
-34
-29
185
74
184
156
-14
21
-71
-25
37
35
-290
-4
-119
1
-17
-18
-33
123
-88
-17
-16
-118
59
51
22
-93
96
182
198
16
-1
31
-10
-74
11
43
45
10
18
-18
40
-25
-31
23
-19
34
13
-31
9
-5
16
-38
-33
-7
-13
20
16
-4
12
36
-39
13
11
-7
-11
-52
6
-6
27
-34
10
-26
-10
-51
24
4
-24
23
-64
32
-22
-2
11
-29
22
-12
17
-27
-21
30
-29
44
-10
37
6
42
-9
-17
15
178
-76
16
-70
26
6
33
5
51
54
-49
119
-13
-55
-131
-199
135
57
123
-138
6
-37
50
110
-30
26
-29
-195
58
-47
141
-53
71
123
-16
16
32
-14
-7
8
132
86
-21
-45
121
-46
-134
-35
-115
-51
-75
75
2
24
-9
-8
25
-175
-63
-4
-43
-185
11
-38
-67
-28
19
-211
90
-57
32
-174
-157
21
-236
18
50
177
-137
-128
96
-49
-45
41
69
-31
40
48
167
45
73
101
129
93
60
-122
-163
-93
-101
86
4
-7
16
-25
-10
-142
-66
-81
-69
30
90
63
36
-144
-149
-130
78
-347
53
-78
37
-91
-78
115
-24
111
-15
78
-35
17
-33
21
17
-34
-34
57
36
15
-121
-24
-5
-49
-20
-62
41
53
9
-41
-113
-66
15
65
4
-70
113
-54
-47
33
-2
-56
-1
-41
-126
-73
-47
-11
-82
-24
-11
-2
34
-1
-13
-28
8
2
-1
-76
57
47
124
-30
-124
-137
61
-31
-38
48
4
8
77
-24
41
70
14
76
-19
5
-6
-72
-4
6
-17
-53
129
-95
51
-158
43
-85
92
7
68
222
-101
-128
-117
-74
-217
63
-61
86
-19
89
86
106
3
-105
-15
-93
-77
11
-44
-104
-173
-123
146
-33
-65
-15
60
-90
79
-19
-108
-154
29
-94
-115
120
-44
-13
148
-39
127
49
155
-31
35
-51
50
-5
-117
27
-192
11
-73
76
33
-32
29
-40
28
-67
52
25
9
-98
4
-65
-52
57
54
91
38
37
-3
53
47
73
17
-110
-3
-12
-15
14
-6
10
-34
-23
-72
17
8
-18
-76
93
78
63
-131
48
11
-80
-19
-33
-129
-28
-13
6
-175
-99
45
183
-101
-123
-8
-29
150
48
63
136
24
-11
59
-247
-132
73
-94
74
-30
145
114
32
-59
29
-51
98
7
-74
-32
-69
65
-111
-120
-72
77
14
-36
193
114
-9
-119
-57
-12
144
241
18
10
41
-241
-99
59
73
34
80
-139
-325
-5
39
58
24
178
-91
