-48
-23
28
-50
61
34
24
66
-37
-5
-11
22
-55
51
-15
52
124
40
-4
19
-6
23
15
10
-32
26
21
38
-44
22
40
3
63
-51
-22
26
-55
-32
-46
-55
-13
-52
17
5
21
20
16
75
-25
6
-46
21
78
-2
49
26
44
-33
-22
-50
-11
34
-9
-47
24
42
-42
45
-64
-17
-29
37
-4
16
19
-21
-31
63
22
32
26
5
-1
48
-15
-63
-19
-31
-36
35
-36
-57
65
-67
15
25
105
-12
51
-43
-3
-24
26
-20
-15
74
16
-33
-40
-25
-10
29
51
-59
-16
30
-41
-17
-30
-5
-16
35
2
221
39
-89
4
1
-17
16
-38
1
-27
-3
-3
-8
71
-2
-15
18
-31
11
-2
47
64
-25
5
-70
-62
49
-77
-14
-45
19
-58
32
33
14
-34
15
-2
-15
9
-8
39
47
66
42
-30
18
6
13
-62
-62
-9
-20
42
4
15
-20
-89
19
-11
1
5
-23
35
-36
42
37
-29
-7
71
-52
2
-23
-39
3
-33
-7
-23
-3
25
-64
5
59
-23
-18
-30
-1
-53
-2
27
99
-22
30
-91
-13
38
-43
49
28
-27
-16
22
136
40
-32
0
-19
-83
-1
60
-39
-20
3
37
29
25
-28
66
21
-17
-2
5
-11
31
-22
-46
21
-35
39
2
-23
28
-29
30
-34
5
35
12
-18
-32
-3
9
-88
0
-46
26
0
-15
45
-5
64
1
-41
53
23
-6
-20
-1
43
-13
14
-53
-1
13
2
-24
-21
-20
-11
-46
-31
43
28
8
11
16
-47
-27
36
11
56
17
-14
-31
-21
-415
-38
-24
-52
47
39
-9
52
-9
-63
-9
-3
32
62
57
-92
-16
-46
26
39
8
16
26
36
-24
24
-41
2
-37
17
-30
-39
72
19
42
30
-13
-16
50
-47
38
-16
-3
-48
73
-84
30
17
-31
22
21
29
30
-65
51
53
82
53
-35
8
-33
-17
-57
-15
0
-37
-11
-10
14
-21
-69
-3
9
-375
-37
-65
66
1
-32
26
5
-24
-16
-2
30
-58
-19
-13
-58
-24
80
8
-26
-24
62
-24
-35
42
-27
-68
27
14
-10
75
-20
-18
-25
-4
-39
-46
-28
8
-7
-58
23
-39
-7
29
-4
-50
-33
41
-57
-64
-19
38
16
9
21
-27
16
15
25
3
-27
-60
-15
-55
-36
48
-6
15
30
-34
30
-65
38
23
25
-6
-155
0
-7
-73
-7
5
45
22
92
-84
-13
6
1
-21
6
34
11
-18
-29
-39
-68
-63
-3
-45
-75
23
-65
-5
15
27
-10
29
-56
-14
-14
44
5
-16
-2
-13
-8
22
-1
14
19
-37
-20
34
-36
54
-75
5
2
-69
-24
0
3
78
-11
-41
16
57
11
15
42
-10
-24
-24
-75
-34
25
32
3
26
-17
14
10
-27
8
5
30
-72
19
-32
-1
-16
-5
-39
-17
19
19
32
-18
12
4
32
4
-21
21
27
-6
-22
13
21
57
-36
-37
28
1
62
2
55
-5
6
34
-54
-43
-19
39
-99
12
-55
4
37
55
40
-68
-12
79
-1
-69
5
-9
-61
1
9
-5
58
4
16
-9
64
17
13
1
61
47
49
31
33
-68
35
75
3
19
-10
-9
-31
-42
-26
-31
-59
78
-10
13
10
3
21
48
3
33
-11
85
5
50
59
-3
53
43
31
52
-26
-62
38
-32
-61
4
-59
-7
104
-2
120
10
29
46
88
-51
-17
54
20
3
-11
-4
-45
55
6
7
5
-1
63
70
53
62
1
12
-15
54
-1
34
4
-51
-8
-12
-37
50
-21
15
13
10
73
-19
-6
-11
-31
-19
-20
67
20
-85
-56
-34
-9
80
20
9
24
64
22
46
10
19
9
-22
-4
27
20
-4
4
-27
3
57
2
-197
6
-14
-9
32
-13
-21
-57
-27
8
18
60
-9
2
105
-28
-6
88
-41
41
-17
1
-74
-31
2
26
29
-49
33
6
-36
5
-16
41
-30
-15
-31
39
33
-72
-49
3
25
-37
-39
-20
-19
-39
