-28
-10
-28
1
-41
-48
-9
45
-13
-30
-3
16
-17
54
7
-26
44
15
21
-19
81
42
32
6
59
-28
-34
-56
-45
-12
43
-13
9
-25
23
-19
-39
0
83
9
-16
47
-14
9
-17
29
-28
7
18
-37
17
13
-9
-3
-36
-21
19
-19
-40
-27
-62
32
18
37
-24
374
228
66
-57
-37
-249
-309
-290
190
-39
-25
199
-64
-78
28
-433
301
-176
174
-78
-154
-143
-705
-408
-407
47
501
215
615
92
-319
-280
145
8
-94
-437
133
-92
-159
43
122
21
638
-379
265
-109
-197
147
-617
-308
-179
-489
-139
168
472
-187
182
61
-265
-134
7
258
-371
-29
20
-4
-116
6
67
-69
-55
-66
-137
-192
36
-51
7
125
66
82
-88
49
12
-24
-33
-121
-72
-67
-260
60
17
-228
52
-21
-13
56
24
108
-68
271
65
-13
46
52
17
-73
-191
135
18
28
-192
104
161
261
-30
-68
-103
-70
-85
-118
-76
-56
-37
132
98
-72
-104
19
-6
12
28
4
12
-117
-24
4
-23
-17
15
-6
26
8
21
6
33
-21
1
0
1
-1
-2
-3
35
-36
-10
-29
8
15
-14
-27
3
-8
33
-38
-1
-59
5
7
8
-1
13
-23
9
-6
-9
-2
-35
19
4
-19
10
-8
5
-15
161
-56
13
21
91
-14
-11
-24
16
45
0
-62
-104
-360
-1
-46
-49
-14
129
50
38
-347
-31
66
73
135
144
-140
-41
4
-136
-383
-360
-33
-11
88
-9
-43
35
81
-192
-27
-11
-2
-3
-29
-211
31
-215
80
67
-248
12
-139
50
81
38
25
77
200
20
-137
164
-67
6
-24
141
169
52
-52
139
-397
-128
435
147
12
-127
57
-222
206
-175
-31
-136
59
-171
112
-8
16
-345
-591
546
76
-608
580
-5
-436
-25
-88
-245
127
-53
-251
-235
-137
135
234
-80
-244
-170
-189
45
74
-285
761
111
-135
35
25
122
-202
773
-44
-87
-170
226
-329
-338
-512
-176
-442
208
-238
138
-42
228
112
-68
395
113
-20
-24
16
60
-5
-54
508
-87
16
259
-29
-133
-80
48
-93
-82
-159
149
-6
-236
-88
-187
-19
6
57
-32
-108
316
49
-111
355
32
51
20
-124
-102
-157
-84
184
-12
70
104
-211
-69
6
70
-195
4
275
316
-116
224
-17
182
-503
250
-110
173
181
87
-55
41
164
-6
8
-36
14
-57
-21
6
57
-61
37
-32
-13
-22
-63
2
-20
-19
-77
2
-44
-29
90
16
-15
143
-75
55
37
45
44
28
-35
-44
-29
-38
-55
32
19
-46
-51
-45
-6
38
115
28
-8
-4
-82
-10
15
1
-30
51
-25
-29
-3
1
2
-82
13
-2
37
64
35
-50
9
-72
-105
-67
-55
59
25
-34
39
-80
-21
57
-32
113
-28
-12
24
146
29
-85
-128
-53
5
59
67
104
77
0
69
178
-50
-91
-57
17
174
94
-142
17
-62
24
215
-68
-23
18
-79
-205
-145
16
-82
13
108
-202
-4
76
-57
5
-2
-102
91
-17
25
277
-34
-26
480
47
105
-174
780
-503
335
276
348
-39
524
-540
31
-192
-230
15
-414
-118
265
-534
-334
-328
647
10
335
684
239
-177
77
63
248
12
4
299
52
76
-253
-81
-289
133
82
-429
728
14
-449
-73
68
400
-399
-284
340
376
14
-162
207
-551
-51
47
-219
-119
17
30
29
-6
-17
22
-16
24
29
10
8
37
-29
12
20
11
-2
-10
20
21
21
6
19
1
38
-6
-3
-4
-23
-3
-20
18
-33
4
18
-16
26
0
-1
-3
-41
-21
-3
-8
-4
-87
16
10
0
0
-4
95
-17
39
-17
-16
4
2
28
-187
13
0
-118
-2
44
38
83
-5
19
0
-29
-181
-23
21
33
-29
28
-53
108
128
-23
-29
-27
-35
39
-210
-81
8
74
-18
24
21
-44
-58
12
-6
-35
53
-34
-33
-359
31
-71
36
-148
-40
-8
14
43
-10
119
93
-37
-67
7
-314
-47
-52
-10
27
-12
7
-9
-96
-29
-194
3
-9
