-9
70
-177
66
25
52
-157
57
-158
-22
42
-14
336
-206
-2
101
237
13
-37
-252
-226
78
-201
-178
261
-91
-270
140
36
-35
193
56
-130
-54
-161
114
226
-116
-108
-135
-33
-42
69
-170
228
-68
-15
63
-26
-161
191
-69
-167
212
141
2
-115
-125
22
-113
67
-42
278
40
-137
-129
5
9
-131
27
108
13
196
144
-159
232
228
-199
-254
-235
166
-72
-19
172
44
-153
103
-82
-83
36
1
-118
-395
194
151
214
-131
264
72
70
-18
-125
-82
120
-95
189
8
-19
-98
-17
-112
62
-21
72
-6
12
24
18
11
-251
-115
355
168
-213
-23
45
130
-45
88
369
136
-118
-126
-210
-32
16
56
-181
-74
77
42
205
-80
49
-153
548
137
112
-188
-50
-113
45
-201
-59
46
-24
-26
-158
-149
-361
-137
8
256
118
-26
1
-139
100
628
121
-14
59
-29
-141
-30
202
64
-33
225
-121
-190
2
125
-165
-91
21
-149
-113
-169
-121
10
132
-88
145
139
-35
-89
-338
-160
273
87
-308
-332
-287
-76
-87
118
-19
-46
43
-112
141
35
-223
-58
55
61
67
-445
51
46
-39
-75
-4
-48
-297
-105
154
-45
25
-48
56
-32
-3
-59
-76
-144
71
-83
116
-159
-145
156
46
87
194
-262
-165
124
213
-68
-182
12
22
-155
-52
55
136
85
121
268
68
-103
189
-97
-38
-20
19
-9
62
-94
36
72
-30
80
-203
35
202
166
104
-87
-114
-75
113
133
-94
-56
-96
90
26
-119
-38
107
29
-19
-64
-176
-63
-48
-175
36
132
59
-42
-413
-121
81
49
3161
-152
-39
-293
5
-22
-43
224
-73
-183
-50
-250
-13
-118
-16
179
151
-200
-339
119
-72
-127
198
-473
68
-66
163
-59
50
-32
48
29
55
-132
-235
39
-31
52
-149
-44
13
66
112
-103
63
-449
40
35
-1
106
-51
-199
80
-130
-44
-28
-126
112
-243
-250
-100
7
39
110
-142
81
-39
53
59
97
159
-43
7
277
-180
228
-56
153
88
-102
77
-223
69
-230
12
-188
-92
1
132
186
42
57
171
120
-2
77
-2
116
10
-118
25
60
91
85
58
88
-186
27
-68
36
102
-380
173
311
-71
14
230
-150
-117
-177
41
-317
127
54
108
13
-68
-34
60
119
-5
-221
128
-36
52
231
72
93
64
-47
163
167
-49
63
-31
-31
26
128
82
-122
-60
42
-62
250
-14
-7
240
-139
15
117
-77
281
-26
9
9
144
-24
31
-172
-126
174
-44
30
-161
317
-107
78
-90
-102
-122
164
-269
-29
23
-277
57
57
67
-394
60
-35
-41
11
-79
48
-205
95
-67
-108
10
66
-64
-67
-6
168
-1
81
-206
22
-37
20
-15
-9
-163
51
91
-62
157
-7
-103
-55
-94
216
71
-109
-179
2
-20
-125
-123
33
30
29
63
101
-50
17
314
179
66
16
-50
13
347
111
3
124
54
59
123
-77
13
-33
91
83
95
-122
-82
-20
160
-15
83
-20
165
213
281
84
-5
84
-14
-28
129
73
15
-98
-90
139
22
-284
4
170
152
-118
62
-40
69
129
84
-69
102
-94
-86
3
44
170
13
-189
-437
-98
321
-16
216
-117
234
80
-211
-91
116
77
-15
173
106
-148
-18
-11
-92
-74
-51
-122
-179
-22
-26
-301
-262
256
-150
-45
99
19
20
-286
92
24
-147
56
-372
163
-108
34
-5
321
114
63
-65
-75
233
-18
-146
194
51
87
195
-214
26
-128
151
-102
-41
-77
1
-124
54
-416
-153
86
-6
38
-25
-131
-72
46
73
-115
24
-29
26
67
207
-266
-56
71
32
-17
-112
10
39
158
-84
17
-99
100
-42
-61
-48
97
-127
-134
-149
-82
17
132
8
334
5
63
130
57
-38
-89
-1
28
-28
128
-118
-183
42
210
21
232
-14
189
29
0
-68
-168
-87
-135
104
-140
-17
34
-102
14
-187
-8
150
8
-213
-145
-229
2
34
-87
-61
-102
-26
221
75
174
4
157
26
-176
61
-94
-71
167
-19
-24
-99
