35
22
-116
-915
1159
-421
865
211
35
-412
-393
876
-268
408
67
324
-460
-115
-324
994
1007
-945
463
1244
-95
1082
523
-998
-1013
266
-199
125
991
-801
332
-56
-611
953
690
-1655
-342
-763
-66
457
36
-573
-431
-394
89
-453
-976
-215
935
-1627
162
-301
328
-1031
-8
-318
-237
202
-867
-617
99
434
-93
-270
63
-805
-1360
377
-370
-475
403
-252
-160
651
185
233
-43
51
315
564
17
-325
-352
237
3
369
-132
-646
2965
-323
260
-347
466
-593
-301
-298
266
457
92
-532
54
-845
-462
-435
-39
123
-424
29
-1238
-639
-341
51
-132
53
-460
498
-399
-1213
-340
201
288
-804
-314
364
-184
-317
-19
180
-453
-384
-41
-473
-182
404
-902
-803
-469
38
12
-47
204
-2498
46
125
-420
1651
-40
691
-1185
66
270
-75
431
896
410
-414
177
-352
-501
290
-476
330
517
-398
-2854
-451
-561
30
-191
1601
183
871
180
395
183
437
-79
162
-490
599
338
-289
878
639
559
-148
-160
-1031
710
-103
467
394
-336
769
-85
-455
-1025
124
290
528
-536
524
273
8
307
-24
-152
-616
289
538
411
-373
-192
-299
271
-874
-257
419
-155
223
-352
1493
516
-271
329
-116
332
-303
174
-241
124
511
-424
-39
-31
-976
-185
246
-308
-52
132
-200
-1057
231
-925
-2065
14
940
-317
-421
-34
-359
-891
44
148
-149
-10
-386
343
9
-164
-333
109
236
188
-47
158
-164
-365
-188
-343
541
-610
-581
-639
-592
523
141
95
-407
-739
19
751
955
566
-164
247
-359
-637
-79
548
-491
-275
1073
327
-151
-138
273
-524
230
1452
-189
-1106
-407
-5311
42
47
-227
-41
-74
-76
142
88
270
-294
832
-752
249
666
-941
-215
408
-237
-533
-155
127
-313
-168
222
718
-195
104
-577
-546
-48
307
-5
49
216
-172
-157
961
-88
-875
-421
-1252
-459
422
-36
717
68
-328
110
-24
-347
391
138
-16
-208
311
-59
-576
-342
430
-559
-109
-494
-90
262
-298
-575
43
22
-38
-432
229
-374
-4471
396
-1174
146
-321
-997
411
-276
-628
-51
-164
490
-32
260
-159
-753
-730
207
-459
-67
-471
73
-531
-602
-914
371
-301
808
-268
-288
-619
131
302
-468
97
-107
23
-86
-229
-266
-1427
160
-461
-780
567
228
-606
-781
536
200
-918
-1093
671
-278
443
-834
-221
-637
-776
293
-210
432
-328
-28
88
-940
362
-380
-1296
-65
53
669
-811
233
-200
-69
395
-193
-325
131
-1022
-305
672
706
-278
-442
176
140
13
8
-987
-50
-433
-590
-334
-644
178
-853
-260
193
510
-717
-85
183
23
334
593
-1050
-217
-166
60
275
-157
-404
-407
-602
73
-194
563
242
121
-348
95
-276
-45
-738
-108
-457
-142
-461
-313
165
-307
-482
1044
-377
-404
-1333
-121
-571
865
235
-772
-616
-130
146
-72
284
360
-284
-245
-13
-280
20
-352
-247
26
47
-1024
-51
-355
-709
212
-565
-3007
-686
-390
831
319
-354
-245
633
203
143
-404
94
197
390
-288
-691
-1048
-541
-19
-305
6
468
-233
-73
-27
-37
-3
152
374
-596
-257
-562
-645
645
-240
-657
-30
517
-276
11
35
1656
-206
-234
-77
186
-62
393
103
836
-52
-101
-26
384
-137
-113
201
-738
176
208
762
156
749
-27
-218
-41
-570
-387
13
-529
-152
-147
-49
-335
-30
316
-273
356
211
-402
956
1035
-751
508
446
731
960
188
580
129
299
-51
162
147
751
-714
644
480
17
-196
-451
593
-477
-363
176
28
710
339
541
-664
-402
247
68
-266
-104
236
-106
358
-733
295
-353
342
152
71
330
236
5
-490
-414
222
-573
1099
784
919
-454
8
-535
1066
-365
-503
-218
544
-404
-579
-53
-171
183
484
269
-508
328
-675
-389
15
-371
374
47
-551
20
334
7
431
316
253
625
-667
454
640
507
-82
458
17
500
148
-320
-394
-816
-154
-192
432
-67
-298
-99
-322
-17
-283
431
679
575
1154
-182
456
248
-147
93
295
-49
220
-320
-24
765
-391
-311
288
49
132
-599
-455
614
-898
-133
-1198
466
-465
292
87
779
190
-1047
-407
-53
145
31
