98
206
-286
-37
38
-213
-145
-259
105
-137
79
-78
232
-201
-241
-47
-121
3
-267
178
-272
45
-185
47
141
-149
-468
-284
745
-110
-14
123
-274
-36
66
159
113
6
81
272
-69
-55
380
42
166
-147
105
-199
276
82
432
-1
-444
242
67
-149
224
-306
-231
125
-295
266
-325
-134
84
-48
-160
208
-163
85
287
-82
-172
463
-347
368
-262
-256
-122
-365
-317
60
-9
-133
149
391
-352
427
68
-187
320
-123
-629
-91
-24
195
23
-9
-180
-73
309
-169
111
313
390
-125
-485
88
173
210
-149
48
-30
170
250
-237
-149
-30
-221
122
-239
-239
91
-472
-124
185
-62
-382
13
-91
39
-454
-242
121
-154
-148
-93
-378
-112
221
521
-56
-114
103
-90
98
250
333
-288
-101
115
-102
55
-86
127
-353
-234
106
-66
-202
-146
66
365
91
190
183
-244
-193
-512
12
71
272
58
-68
-48
345
-187
-304
-144
116
580
-122
-278
-70
-100
100
-366
-25
-27
7
290
70
-446
67
234
-139
122
-169
-128
-304
126
-385
-21
289
342
15
112
-104
-243
222
156
505
-319
-50
-362
323
133
227
105
278
37
-199
-311
272
200
-345
113
182
-112
25
195
-14
-386
153
-134
227
-192
-29
-135
149
-22
-241
640
-415
325
254
-217
-100
31
-93
109
-659
16
-318
-333
335
193
319
-133
-233
-47
-301
71
143
-477
266
261
-159
-236
-190
-322
-72
-173
36
-51
-25
138
105
-106
-251
99
-309
-139
602
125
185
-382
276
159
-292
-151
-303
258
13
3
-70
191
-49
18
-168
-71
-32
232
-23
-664
348
195
-7
2642
-184
46
-148
-30
-219
-86
-103
-153
-326
407
-369
155
19
232
164
-94
256
-610
-5
71
-257
406
-206
315
-340
631
212
358
-64
-340
-260
-127
126
-461
-100
-11
-15
-131
-29
135
-23
259
158
-152
109
-60
15
-59
4
286
-145
-249
46
-164
173
-145
69
276
-80
-243
16
304
-158
136
95
19
-1
-17
9
307
-258
-151
909
405
315
-120
139
351
247
325
13
30
1
-183
300
103
-354
558
99
-64
152
-199
243
-559
-166
-1
260
107
-130
28
212
155
136
171
0
-8
220
-320
-219
179
2
-4
225
-147
482
-56
4
35
87
171
-6
-268
100
231
-474
163
100
-219
175
-114
-91
-163
-6
-177
12
84
141
134
437
-34
124
-303
52
-273
-51
83
-176
178
96
256
-34
-307
303
197
-269
-123
-353
-419
-76
106
577
111
283
-23
-170
498
97
-42
34
2
-165
129
437
29
151
124
-96
-228
234
-155
-412
20
-170
67
5
390
-3
464
-168
-434
67
28
-193
43
342
456
-166
190
327
457
-187
553
-234
112
62
78
-188
206
20
186
375
-290
57
287
101
48
47
-100
213
-343
-224
85
-181
-320
-425
249
-3
-408
-27
-504
298
-6
-85
213
162
300
-415
-23
29
-412
39
229
22
283
-82
119
16
162
-157
-4
195
123
-72
-56
89
-271
59
-165
-404
-132
269
201
-142
-465
259
461
392
-81
560
-236
227
166
-128
-586
14
115
-272
-338
158
191
-542
-85
-130
-33
469
83
-149
18
-52
-97
134
-413
116
-39
-135
-66
-92
216
238
110
-369
11
141
390
440
297
80
283
342
-101
138
-460
-66
3
43
239
-139
-319
193
-331
162
-332
229
-52
-87
-58
8
171
-26
-311
-118
-104
-101
395
214
-6
495
39
78
154
-177
28
-208
17
27
-54
349
-59
96
-102
164
-79
-259
-359
-11
-148
-24
167
5
-300
-448
-404
-300
80
-135
-105
254
-279
-168
192
-70
19
168
-330
101
-106
-51
-91
-273
32
159
82
167
208
92
3
-217
-12
-19
100
-49
-192
-34
338
-3
-446
-24
343
45
-223
-229
122
161
77
326
178
-94
469
-133
-152
-79
-243
-180
-205
378
-189
81
336
220
168
96
-234
-147
92
-174
-137
150
132
-514
160
-273
42
-151
175
339
-345
-219
-362
-173
99
-117
-93
8
428
-262
-38
197
400
-141
179
202
-135
97
-364
27
462
-269
-250
-270
