-23
-85
189
69
-176
-57
-40
-142
108
-147
-246
125
73
44
-15
-196
5
-389
39
49
-243
-27
26
-182
24
-170
-199
-215
-375
-166
-113
-193
-53
-313
-171
-237
-117
-315
23
-248
227
-82
-191
-282
-443
-78
-550
-8
-451
-486
-96
184
140
-105
-363
-39
-7
-254
-6
-288
173
-345
82
206
-178
-198
-7
-248
141
-1
91
-94
-277
-219
-49
-354
196
-201
163
128
140
-145
-209
82
-240
-156
123
-51
-193
120
60
-317
221
-66
-176
-473
-168
-57
120
-43
-333
-308
-373
-118
-450
-82
-116
198
-205
-97
-143
-155
57
82
-86
143
-18
149
-9
-30
147
476
-10
-136
48
209
35
-13
-147
-522
-22
-13
-30
-138
273
-456
-190
-10
155
-143
-49
-14
156
-123
-70
-352
-151
123
-275
130
25
237
299
-291
70
329
-56
-284
-487
-49
99
214
-79
208
-272
-295
12
-391
-206
-215
-95
-75
79
-17
-323
237
382
-140
-206
-324
535
55
-77
-161
-61
-251
-258
33
137
37
-144
-457
-44
2
177
-207
45
497
-32
113
-180
-112
160
210
-354
184
171
-263
175
-256
-50
-291
176
-365
-24
-123
232
-283
-208
18
133
-258
-79
28
-311
-491
153
-416
-128
8
-221
-187
-424
8
257
-85
-36
-148
175
132
-177
-6
-205
76
-10
-136
180
-312
-313
-184
-242
-394
-96
-114
322
-335
-201
26
112
-238
-252
-129
-133
-528
-208
-276
-789
-211
8
122
334
-123
68
-302
-142
-216
483
-5
11
-273
-181
-49
200
-372
273
-102
56
-402
-483
48
69
178
-116
-216
-50
-135
-94
367
-265
56
161
126
-387
-175
-64
-131
-54
17
924
-221
-88
18
-107
-94
273
-59
-12
137
-115
182
-128
-143
-42
269
-326
-124
-187
71
-333
-126
-114
-178
-376
278
-155
-5
-203
-70
-202
299
-104
-59
-56
-220
123
-184
-125
61
-66
-182
-331
150
-448
-284
-95
-77
145
-284
-236
-47
-214
257
-397
-145
-410
-35
13
-375
-148
-35
-153
-132
-383
55
156
-147
49
258
-115
-251
-215
-86
-89
77
-236
-424
-38
-24
-228
71
527
224
20
-204
224
-8
-111
234
100
-312
-248
-53
94
444
-66
-269
115
-266
343
-183
-9
-198
-104
-90
-216
-216
31
-128
67
-26
-41
-706
-63
-138
-280
-123
28
-25
-308
-66
-329
-101
-618
86
42
-103
0
-82
-162
-63
-102
-286
148
-2
-200
243
195
-424
-110
-183
-91
-171
-59
-3
-277
-248
-188
-27
299
-193
-69
-154
-581
-382
-51
-222
-250
227
-159
-371
-227
-81
-54
177
-107
-62
-212
-310
239
-265
-228
24
55
131
42
1
384
156
-4
-103
-26
-38
-190
-246
-121
46
-170
264
203
-164
-195
-60
-189
-68
-2
400
51
-78
-102
21
-254
-275
128
-219
376
-430
-371
22
-163
-302
-190
-46
9
-403
-244
37
-199
2
145
-24
-524
-113
123
306
-45
-113
419
46
146
169
-145
285
-344
9
-210
-37
-261
56
-140
10
-141
-259
-206
118
-34
-5
73
-274
-62
98
95
-168
49
-335
-88
-197
-207
-201
-157
39
-191
74
-444
300
-148
-561
-279
161
58
34
210
170
215
-242
-104
83
-27
-14
164
43
-303
-178
-201
-43
61
-395
51
186
-87
93
-97
-84
-379
-212
153
-115
-19
-80
-27
217
-219
-387
-371
-203
19
-474
-99
-53
152
43
-241
-66
-412
-527
143
-274
-443
-95
45
-362
-242
-81
126
-343
-197
139
-101
42
-92
566
-349
17
16
110
-79
-133
-325
-91
-391
37
-115
-165
-56
-230
152
-245
-177
34
-97
112
-338
-254
25
-36
-405
-118
-268
-174
-63
-133
-5
39
-126
-115
-98
-161
45
130
79
-219
-262
117
-174
126
300
-146
-53
293
263
-147
23
-98
-86
-416
-129
314
-287
78
-184
-368
-470
-228
-268
-425
-439
-11
-111
-31
68
-135
86
-154
46
77
-84
-79
-237
283
151
-21
-224
-2
-86
-483
-53
72
108
-464
-374
-165
-33
260
-39
257
-309
-92
-5
-72
58
-258
-127
-30
326
-464
-389
-231
81
-176
-231
-316
242
86
-288
-323
-9
-91
-424
92
310
-161
-293
-72
31
-185
-39
66
157
-66
