94
111
14
12
23
-128
-80
104
-55
-30
156
6
-46
-82
-64
1
70
-10
-4
-120
-169
18
-65
-39
-121
264
-48
86
-39
-41
12
12
49
-53
79
24
-115
101
-112
-115
-56
56
71
187
-81
-42
-58
-34
73
-138
38
-40
62
-20
-222
63
85
-48
181
15
-74
50
-9
-28
-44
-66
-20
27
-45
14
-5
-20
55
2
-28
30
-21
21
36
-17
-32
0
-54
23
13
-9
-16
16
5
-2
57
39
-10
-33
-34
-38
19
-33
-15
-64
1
-28
-18
-16
29
-15
0
11
31
6
-31
-3
42
26
-19
29
13
-33
-7
10
12
-17
25
-23
38
-16
20
-32
-58
8
15
45
28
-24
28
2
81
-1
-34
-28
-8
51
63
19
52
-39
-54
-13
46
-51
-65
-60
6
19
-20
18
21
19
81
27
21
52
37
27
-31
-54
50
-27
16
3
23
-42
-23
5
26
56
-64
15
25
-20
-14
-36
23
-22
-7
24
71
-65
-7
-36
-32
-34
-10
-34
-28
-123
21
-75
21
9
-12
-72
2
27
17
-36
-58
21
-7
14
-2
18
-5
-16
-38
56
12
4
35
44
55
31
16
-17
52
17
-20
-22
-11
9
63
-22
33
-37
-1
-19
-11
-22
-13
-42
16
-11
30
86
-78
42
-16
29
72
44
-34
-32
-36
-37
-9
-27
-60
0
29
19
-12
-2
36
7
40
-22
14
40
-17
30
-15
7
-10
20
-11
16
0
15
-43
-32
20
10
25
41
51
20
6
51
-44
-5
33
39
-54
-2
41
14
-23
1
30
13
2
32
15
-17
50
-24
-35
-40
19
6
-15
16
37
-17
-52
10
9
23
-31
2
83
183
-48
-182
-38
-30
88
-82
54
-82
-1
-61
33
9
27
164
12
-19
-42
-6
7
-34
72
-14
-36
-33
-243
51
55
-71
465
130
-56
-134
165
-23
119
60
-17
84
3
69
-530
65
143
-81
-49
77
38
108
152
-15
69
12
94
-116
49
120
-153
-13
-37
9
-92
188
-32
-54
71
14
-31
75
37
-86
-38
32
42
113
50
-14
-3
9
-8
-47
68
-15
63
74
-24
-38
-52
31
-34
-9
0
8
-7
-19
38
6
66
28
-68
40
25
-47
-19
27
10
32
-56
-54
56
-66
8
-44
-28
-50
52
-45
-28
33
65
33
56
25
7
10
-18
-75
31
69
-67
141
10
-32
-45
-22
-3
12
-3
2
-46
33
-44
26
2
19
18
-16
31
-64
15
-11
19
4
-24
-54
-75
20
-30
3
0
21
2
19
41
-14
-29
46
-60
-56
-29
-61
88
-41
46
37
19
19
119
-3
27
-8
-37
-35
6
128
44
23
-31
-7
-14
-17
29
-1
-23
22
-32
-15
-3
15
-6
-41
-6
-4
10
0
-24
-54
-58
28
28
7
-14
-4
46
31
-9
-18
-24
46
-4
-34
-35
-22
-50
15
-7
10
-13
-24
52
-5
40
7
-26
-56
-35
-5
-26
-20
-24
-30
62
4
-43
-4
4
-36
-16
-62
-11
-19
8
16
-16
-19
5
-89
78
36
36
-274
27
86
-63
83
-148
65
-53
-205
-86
25
-150
57
217
102
145
-111
-24
-151
112
83
-113
139
54
-19
18
66
-87
41
34
43
655
54
-100
-145
-16
-82
68
183
2
4
39
-32
90
97
-79
-66
58
-158
271
-19
102
11
82
-56
83
-46
-95
100
-7
11
-3
-7
-28
-2
8
-39
31
1
-20
15
-10
-7
-16
-59
19
19
16
-40
-20
-5
42
-5
-26
4
0
3
-13
-29
-13
34
-6
-1
20
-73
38
-22
13
7
-6
24
57
66
-59
-24
-25
26
-29
0
20
9
-12
34
32
14
11
-10
-66
60
-29
-24
-13
20
-85
-94
-33
-62
-53
-3
-61
26
-27
-6
29
-144
49
55
42
23
-17
100
-11
-14
88
-55
31
8
8
4
8
28
-43
-19
2
-8
30
24
24
25
139
45
-66
62
33
-25
35
50
-75
-39
9
129
-77
-32
-51
112
12
68
44
-64
-14
-14
105
-52
11
-19
5
-75
