-247
187
355
-589
-220
-43
1026
372
-337
-704
170
450
-613
101
-368
1211
799
397
-277
4
719
-26
-193
407
195
358
-26
-117
-734
301
-1
232
827
-409
-353
415
-865
-600
-206
-433
-724
-453
-176
375
251
-167
219
375
-399
-205
-540
270
965
114
351
339
205
-1055
-212
-829
196
737
-10
-388
-200
526
-455
44
-504
-500
-335
505
-380
-264
130
4
-367
71
504
244
-2
-145
530
468
251
-540
-117
-411
-758
344
-488
-848
863
-89
67
-89
278
-240
329
-657
-172
-436
650
-347
-7
-96
-254
-659
-422
162
-316
73
-309
-371
-381
104
-241
-507
-89
74
-83
99
187
889
465
-1143
209
226
-746
-112
-342
32
-553
-52
-793
-183
571
-79
-13
-96
-308
-142
-261
481
549
-738
-112
-419
-805
712
-786
541
-679
-10
-642
193
-28
-20
-220
-91
-240
-451
-246
-426
399
66
654
348
-852
72
-318
-550
-279
-339
-178
508
417
-304
103
-113
-341
-18
-257
-527
44
-486
75
-546
673
-115
-492
-566
535
-795
461
-184
-207
677
-153
-402
-675
-116
68
-823
-408
-8
-220
-51
89
479
-575
-406
86
1024
-419
-150
-1121
-306
982
-708
172
486
-277
261
-597
1487
278
-725
210
-65
-1046
130
713
-501
-388
90
69
-586
513
-690
24
750
-1162
58
-303
33
-133
-253
-403
-108
-737
1052
370
-386
599
-107
-778
-827
557
239
46
-65
-219
-114
-400
-1299
-65
-253
228
-9
-311
386
-692
382
-29
-16
0
50
-169
-617
-411
502
-764
-271
-321
-101
56
-528
-399
-355
-38
21
-541
-54
423
-37
115
527
801
-495
-487
405
-338
548
1135
-451
-376
-612
-1143
-685
-575
-826
529
185
-129
175
-243
-285
-409
-162
-150
319
377
-1255
-420
-550
345
-150
-486
-392
421
27
329
18
-739
191
-473
-334
-352
-852
313
-47
390
42
167
-702
-70
-1188
-37
-737
-626
-746
246
-408
-211
-202
-310
752
-258
193
-365
-93
217
395
473
309
-271
172
-643
-234
-440
-633
-146
-333
-753
-229
73
-655
-706
-523
-75
-7148
-544
-733
454
-302
-441
290
105
-800
-389
248
4
-734
-230
-243
-288
-204
636
-560
-521
-81
498
-184
-1324
-515
-142
-818
666
-369
-280
-188
-496
-310
-343
474
-112
-957
-208
-167
-74
-558
277
-701
-284
383
-217
-1157
-634
274
-926
-999
-794
559
-46
272
506
-583
243
-108
109
-292
-81
-677
-286
-30
-635
281
60
-145
203
-311
54
-360
750
396
-522
61
-1231
-561
-343
-617
232
656
639
-192
452
-1390
380
2
-135
-125
29
661
2
-576
-74
-315
-220
-1067
64
252
-854
-171
-700
-307
61
599
23
-33
-527
-393
-175
-182
32
-24
-218
21
31
305
369
744
-719
-1056
-326
200
-184
249
-661
-495
-617
-267
-333
-533
51
1054
85
71
-268
-204
-327
-25
514
-755
-127
-663
-750
-427
-51
260
405
-490
-462
-31
232
-1023
365
-422
265
-820
45
68
142
-4
-369
-351
-166
-180
612
456
-120
-169
-57
45
116
-668
-84
507
-24
-286
-203
-13
477
-581
-466
255
81
118
204
-94
-265
14
705
-101
-313
256
348
-1047
321
-1249
-543
344
80
-159
-594
-549
834
-314
-586
-348
-245
-446
122
54
130
121
-349
203
-265
544
-220
3
-629
-35
397
477
-54
411
-451
142
-96
-654
-98
430
-380
-388
-285
-120
-415
-665
446
-220
-192
317
95
85
820
-155
169
-231
168
417
504
1030
-52
123
549
-194
591
-425
-349
423
-282
-1003
-398
-901
-128
192
299
1237
145
66
541
603
-203
-283
535
563
369
-685
131
-887
559
-593
122
-361
-300
698
710
355
929
-359
-707
-77
602
-10
492
116
-505
-340
-174
-660
385
-403
-218
428
235
511
-535
-129
109
64
-498
-448
-44
184
-793
-360
-564
-390
585
11
-289
75
634
417
1076
-86
-146
183
-226
34
248
318
-234
241
-458
-26
387
-226
-724
23
-352
-367
503
-453
-306
-545
194
-570
-93
324
-49
-444
872
-404
-58
1311
-510
-111
-195
157
-582
-328
-151
384
84
-603
49
540
-332
-354
-224
611
-826
237
-362
323
-339
-538
-174
-306
351
-514
-975
12
-351
-214
