27
24
200
-156
-39
-31
-77
116
157
39
81
-113
250
182
-25
-99
-72
26
205
17
77
-116
-210
156
-180
0
132
-18
87
-167
162
-124
2
120
-209
-40
-35
72
235
-115
-3
-129
-93
-8
-66
-179
178
190
-36
21
-54
69
3
68
-173
47
23
118
54
-69
58
-15
43
222
-59
139
145
-173
64
16
8
-145
-112
-20
-9
145
-595
-178
13
-11
-36
60
-38
32
-49
-5
12
59
90
78
-12
-130
-55
274
-51
-10
-22
-78
-5
58
365
-110
68
-58
60
28
152
-22
-86
89
70
26
30
279
-79
-21
-20
130
64
88
10
-150
101
19
104
207
-41
110
-6
-46
-45
100
18
-121
-208
-3
-122
34
41
48
-65
-125
56
-198
51
-233
-116
-61
-98
-17
-184
106
68
47
-17
-306
-26
-139
9
6
138
-78
-54
78
28
2
-217
-56
11
-148
6
-13
-108
-35
-118
203
27
15
66
-13
68
-96
163
-155
-178
164
195
-51
195
-48
-19
-119
-66
27
69
130
-174
71
-95
-197
0
77
110
111
72
19
191
-124
52
-12
130
-106
19
58
145
-74
-196
-12
103
31
70
-47
-10
125
-32
-52
-238
-180
-150
60
-35
216
58
127
-131
87
30
-34
81
-76
-139
166
29
116
-56
-22
-97
-139
91
-86
-19
-19
-127
-69
119
-172
-68
330
-193
72
-94
-21
41
73
-133
15
25
-96
226
-119
-37
0
-49
-291
32
139
54
-16
93
-9
-237
-61
-1
242
54
-51
-87
-193
-72
-173
-193
-125
-5
-1
-123
-150
47
48
72
-72
86
-146
173
-82
-162
66
-240
-33
-41
48
39
17
128
104
-33
-134
266
227
175
199
103
22
96
16
-69
-29
-15
-20
-11
1
16
0
46
5
22
7
161
-27
-79
36
-75
-87
-86
57
-14
-15
92
-42
59
151
26
33
-67
-83
-82
-6
126
58
9
-50
-9
117
-39
0
-140
-78
0
5
50
-130
4
102
14
-3
72
80
-43
-106
-20
28
-67
-64
10
-7
-33
52
45
27
-72
-13
-9
-54
-87
124
33
16
186
0
-25
56
-81
39
-3
-16
51
-4
12
25
14
-66
18
-46
-14
-73
-19
-114
58
13
-25
51
25
2
66
35
39
-3
21
8
-26
53
234
42
-1
-52
-2
54
-29
53
-52
-5
-41
27
1
42
-1
-11
-17
10
-42
-51
-29
-80
-84
28
41
-46
-52
17
0
-44
-27
-37
8
12
18
111
21
68
-83
-49
-41
40
74
-22
41
-63
101
24
-68
47
-22
1
-22
0
12
-88
-37
75
9
77
18
-54
14
-20
-44
-12
5
42
26
19
46
89
-13
67
-4
-40
-31
-4
10
-13
38
-54
13
8
-9
173
4
-19
33
52
59
154
-25
-14
-94
-7
6
40
193
-45
-31
-5
-65
-57
25
31
23
-11
-15
-41
-5
21
-16
-52
1
-60
2
-20
-52
0
44
4
34
34
-32
-81
52
32
-20
-34
-3
109
-90
12
26
-88
8
-64
-8
-9
76
75
-40
-16
-82
16
153
-106
33
-97
-135
91
-58
87
-58
174
58
-30
-260
-104
138
22
-56
-4
33
55
-136
-148
117
-50
-117
-41
-145
4
-187
-198
-175
30
-3
-27
-82
166
95
118
158
-14
313
0
-99
-130
4
-25
251
131
-29
-23
107
192
113
4
212
-84
113
81
127
-21
-37
154
-56
-11
-124
137
70
-33
34
46
-29
-49
72
75
-16
-69
108
11
-12
-2
-30
115
-73
15
35
-2
-62
51
-71
-10
-22
59
38
26
13
-26
-80
-48
4
117
-14
14
14
-14
-18
55
-87
-61
-25
14
-86
-32
27
-59
-5
99
69
-41
-56
-35
-25
-96
-5
21
36
-115
10
66
-67
-75
0
31
59
34
25
0
27
-6
98
44
-37
-43
15
-56
118
-13
35
-125
-21
63
-114
-11
65
22
37
-50
-8
-57
-64
-45
42
44
-56
-5
26
-76
48
-71
-4
-2
-13
-101
14
-9
-37
-17
-30
27
-32
93
-27
10
-200
-41
63
-100
-76
24
1
-44
57
17
