-33
31
-16
4
32
-9
1
47
2
24
10
23
13
12
-50
7
72
-30
0
-20
-35
-45
-33
-41
-12
20
-37
44
-60
-17
28
1
1
20
-28
42
6
-9
-36
-4
-8
1
5
-7
2
-41
-14
59
9
-39
-36
-42
34
-20
2
33
-4
-77
-2
-53
2
41
-27
-55
7
34
-47
-24
19
5
-89
25
-6
-5
5
15
14
-5
-19
71
20
-18
-10
53
27
-96
-20
13
-17
49
-16
-39
4
-16
48
-43
82
-5
-3
-44
23
2
11
26
69
50
-16
10
-27
-87
-10
-18
-26
16
-19
44
-31
20
-23
-22
-13
124
-47
-18
83
-75
26
-1
-16
27
4
-50
8
-14
21
9
52
18
0
79
1
7
6
5
-41
-9
67
41
-37
73
-11
39
-80
0
-7
-69
29
17
-30
-13
18
-15
1
21
-23
76
16
-54
14
-15
28
61
-23
15
3
-53
4
-12
-6
-21
13
10
-31
-21
7
7
-15
31
-14
9
-16
-9
-25
-35
70
33
-12
58
-21
-5
-18
-19
16
-63
-17
-2
8
21
-5
26
41
-27
21
7
24
70
-102
-8
34
-44
41
15
-25
18
50
21
35
24
9
-16
23
-1
8
9
-8
-33
-11
56
-52
20
-20
-19
-17
-9
11
-45
-90
-46
18
-102
-12
9
-53
34
40
-2
-43
8
4
17
9
-34
15
73
11
23
-12
-10
48
20
-4
-2
-21
70
18
-53
-86
59
51
8
18
-14
-37
-97
-15
8
-16
21
10
29
-8
-48
-33
-37
34
-92
20
8
11
-5
9
44
56
25
-26
20
-43
47
-188
-8
-33
-4
-20
57
-22
57
-2
-20
-52
69
10
20
16
-75
24
-16
-26
5
-3
19
50
-136
-20
27
-30
15
-61
-49
-6
15
-37
-23
-41
58
-55
75
-7
4
80
27
-18
3
-27
31
19
-7
-15
2
31
-4
23
-29
27
9
29
17
-54
-9
-10
-87
-50
39
-10
67
14
15
10
-64
-16
23
21
-30
-12
-33
24
48
6
17
-41
-40
24
-30
19
-89
51
2
-26
-100
24
17
-19
63
-6
-9
11
-32
-17
-25
-48
-1
4
44
-12
26
-50
12
-40
29
30
27
38
-14
58
36
32
37
-30
2
-12
9
-16
-18
-13
-32
-60
7
-39
-6
7
-40
-59
-16
59
21
18
-10
17
34
16
-53
-25
-19
45
-9
8
36
16
2
-71
-24
-25
-89
-15
-28
37
27
-29
-75
-44
52
-27
-14
18
11
-17
-56
-73
-3
-26
-28
64
-10
-36
-88
-31
0
25
-4
-22
16
3
39
-22
53
-21
-13
26
33
32
18
11
-4
-17
-3
-3
25
6
0
-54
-3
-6
-14
29
-31
-35
25
-60
-66
9
-15
25
5
16
78
-48
-10
-37
-25
10
21
37
-1
-9
-50
-5
-40
-17
-19
-17
-62
-42
-28
0
-10
-31
22
33
21
19
33
14
28
28
-6
-7
-15
3
-6
12
16
-13
67
-1
-7
-6
8
24
35
10
-5
22
28
34
51
-6
-22
-8
-105
3
18
-143
65
54
-47
-23
-30
31
-18
-7
51
-12
0
5
71
24
-54
5
22
2
-28
15
21
-1
9
29
-39
-16
88
14
38
-1
8
51
-73
-92
16
-23
21
-20
-53
88
98
-19
23
-29
48
41
-36
-9
15
38
-28
-6
56
-41
3
-24
25
-17
42
37
-30
28
-5
-6
38
14
3
-17
30
42
17
17
60
-40
-25
-12
-16
3
-21
-2
24
-58
-2
-10
-6
3
33
-28
-19
-57
4
5
-7
25
-74
-10
0
20
18
-15
-27
18
8
-18
8
5
13
6
-29
4
-53
-4
52
35
12
-37
-25
-29
-46
-14
-45
54
42
1
9
-7
-84
24
37
13
21
-13
68
-97
27
24
-48
1
50
0
9
-12
-34
34
-7
16
-37
55
23
8
55
42
20
72
-39
11
3
33
-1
10
-14
9
46
-29
16
-35
-65
53
-8
32
6
-18
24
-57
82
-73
-46
115
-10
-16
43
0
-15
-38
-39
-39
-1
