1054
-127
-1135
-1592
1510
-1901
2126
801
36
11
230
985
-2107
2538
580
-694
-1720
-1714
375
2486
1235
-2066
1451
1158
-1558
1075
1431
-926
-948
204
-557
-51
1542
-962
490
-1000
-688
430
877
-1856
-516
-1450
-381
586
-343
-667
-920
-899
776
55
-1733
646
2339
-4392
835
-1102
146
-1880
55
-1147
-278
519
-3091
-2341
-888
-316
331
120
248
-814
419
162
-2407
-1184
663
1323
467
418
327
-391
172
67
608
-129
965
600
-836
213
408
455
-58
-347
3415
131
402
243
720
-798
-95
-439
-343
965
-126
-338
412
873
-1715
-302
1311
-412
-354
1324
-3275
-1589
360
405
600
653
-335
374
-809
-8942
-781
480
296
-144
-392
373
687
-396
-244
1312
-529
480
-830
-1343
-1539
-1011
-1554
-3050
-407
165
-665
752
858
-9500
-541
-1030
402
828
629
872
-688
289
265
235
1564
1313
934
1718
-521
682
138
226
370
307
-12
-1214
-6988
-559
-65
1015
1211
2053
710
2117
-112
711
803
187
-524
-646
1390
1820
1493
161
1886
2293
236
-84
-1272
-1751
2456
-1005
-821
233
-351
713
-950
517
-386
1923
1000
1529
73
721
2004
-519
-271
-527
238
-930
1154
818
175
-1733
-916
-397
2989
679
484
1700
970
-1433
474
518
-406
-767
-86
373
866
-317
975
-405
600
1063
844
803
355
-1038
-1104
209
160
1291
-51
1016
-1960
159
-637
-410
1288
1924
-421
-174
35
-329
-1196
-939
633
83
1054
-221
1328
449
2500
1266
-236
608
274
91
496
-294
-26
-391
-1016
657
-98
-1007
-174
-618
299
474
92
144
-678
-1587
50
584
580
291
1
1754
-1113
51
192
-424
-1510
2984
-576
-806
-49
-1049
-23
699
1861
1175
342
-1141
-17225
-1038
385
1735
-579
-1315
1190
-823
324
-436
331
506
-157
-70
439
-133
387
1353
533
-166
-336
580
-651
-538
-944
780
-261
465
308
329
-61
1578
-57
885
-845
780
-1286
1705
-163
-1492
-1328
-1698
-400
1264
-465
1190
-692
-1555
-1142
-728
-747
-197
1276
-664
-115
68
-355
246
-168
-102
-437
781
-1476
-22
596
548
-1356
-476
-211
-350
-332
-106
109
-3101
1063
-1802
-321
-345
-1003
745
117
-1226
-426
-206
1543
946
369
37
25
-15
228
-641
627
-667
46
-692
741
-1129
1109
-666
315
-73
-1470
-990
11
92
-704
-33
496
430
606
-315
-1011
-665
935
-1034
-428
538
225
-214
-339
-1167
989
-336
-469
-252
592
717
-213
-391
-503
-986
560
327
-93
-4138
-391
652
-1866
10
-376
-173
-506
556
2038
-920
354
-129
186
440
-809
-1016
693
-590
248
1524
1161
-2015
-1454
1118
1058
145
800
-735
-659
-359
420
1054
-1260
-290
-572
-477
-1007
876
910
199
-111
550
-10
1325
-1060
-531
-494
-1488
1274
-1208
-2269
-833
-4271
490
-880
-249
-583
402
47
359
498
-929
919
-45
-1188
124
-441
-1026
2200
9
-1165
922
-630
-40
-1442
-302
-747
973
660
17
-1288
224
258
165
260
80
-179
-538
708
-458
-352
-942
-1109
971
793
-541
1380
-8355
-519
1016
154
-2372
-1671
-1949
876
1630
69
-525
479
776
570
-217
751
1152
270
-489
-380
-1756
-1273
-974
570
413
228
-279
-296
-219
1072
-210
110
-1286
653
202
11
-1762
388
75
-382
-1129
1630
438
327
704
2329
-199
-812
-707
117
-1301
735
-111
1027
-138
576
246
447
383
146
855
-912
55
171
1439
970
1497
308
171
-61
589
167
290
1106
45
1166
-469
669
1374
369
-659
280
155
-15
-151
659
-1235
170
-101
387
147
-532
283
918
-276
738
351
354
1386
-1041
-125
620
0
-649
-208
1306
-422
71
1169
-717
99
-453
623
-8944
327
-1126
-800
135
437
96
-819
361
-8
372
-1199
116
-2130
325
-316
-2120
1256
-17
-716
-71
508
2406
1066
115
-1419
482
-256
2202
-169
-241
-1019
643
-1466
-876
470
304
1775
229
145
-1247
1636
-643
-609
-71
-478
1061
-4
-2673
669
-1129
423
1555
869
104
-740
-91
1125
-337
301
-607
1184
-394
578
-215
833
-164
-923
538
286
902
72
24
369
-1382
63
-582
966
-488
745
1551
466
599
-777
-1369
467
-516
-185
1448
-833
857
395
-244
163
-290
375
138
-1075
-562
1899
-313
1132
-2938
962
-781
588
812
343
-308
-1094
279
671
-372
-510
