-14
50
-15
19
5
10
-31
55
-12
54
21
-1
11
-15
-32
7
73
-29
-10
-6
1
-28
-23
-30
-29
25
-43
33
-45
-20
-3
-8
-8
11
-32
17
8
-11
10
-25
-17
-1
-9
9
-12
-16
17
62
5
-22
-30
-25
27
10
3
9
-3
-37
13
3
9
28
-52
-21
0
49
-62
-18
-3
34
-43
26
-16
-15
24
-22
33
38
-24
58
20
-12
30
12
7
-56
-38
7
3
26
-22
-43
-17
-27
46
-35
120
24
27
-25
7
36
-12
14
62
70
7
10
-17
-62
-3
-20
-1
17
-34
5
5
11
-16
-9
-18
101
-42
-10
32
-45
-13
0
-8
30
-20
-42
77
-18
16
1
8
-2
16
75
24
19
42
17
-15
-37
48
28
-44
46
-18
20
-46
26
-20
-48
23
-31
14
-9
33
-22
-7
35
10
48
22
-35
73
24
35
44
-12
5
20
-9
9
-28
-34
-19
18
-5
-27
-10
-4
20
-28
38
1
-13
-23
3
-7
-18
20
17
1
44
-11
-18
-4
16
-8
-12
27
-9
14
-41
4
48
40
-7
-1
-10
33
29
-59
13
18
-34
20
1
-18
-4
67
4
20
48
-8
-19
0
-6
28
24
-12
1
-7
41
-61
20
18
-37
-24
-41
-35
-84
-57
-3
4
-36
16
19
-39
43
15
-27
-57
29
-2
31
-2
-28
50
36
18
-4
8
7
52
23
29
-30
-13
60
11
-13
-66
30
27
22
4
-14
1
-110
0
8
-7
16
2
42
-23
41
-17
-16
29
-27
11
14
22
-2
-3
23
27
20
-11
11
-53
22
-156
2
-27
43
-8
47
-30
53
11
-9
-39
46
-1
-14
8
-41
27
-28
-21
2
-9
23
44
-148
-18
16
-21
-25
-24
-25
7
4
-14
-50
-29
42
-14
135
-14
-13
98
29
-25
-2
-27
-49
22
18
-4
6
-6
-4
20
-5
1
8
24
1
-62
-2
24
-57
-27
34
-4
32
14
-11
-22
-32
-5
14
7
-10
-20
-17
41
21
-5
9
-31
-11
-1
-22
26
-49
34
-1
-20
-51
34
18
-23
46
-34
-28
-33
-38
4
-33
-34
-4
-15
27
-8
33
-8
-2
-13
15
26
0
26
-73
10
48
14
22
-27
24
-16
28
6
8
-20
-38
-54
-4
-47
-40
-13
-24
-60
11
47
-3
38
25
31
38
7
-61
-30
-16
23
-4
-11
42
-14
28
-50
-12
-18
-81
-23
-9
-5
17
-12
-60
-62
34
-22
-23
-7
-5
-33
-30
-17
-28
-16
13
31
-11
-53
-39
-40
-16
35
-26
-36
16
-15
14
3
48
-27
-41
-32
-18
23
6
-14
-2
-7
-6
22
-13
-10
-12
-78
16
-3
-16
15
0
-21
28
-66
47
-12
-10
42
7
1
59
-27
7
-32
-22
-14
28
-17
-16
14
-15
-15
-2
1
17
-33
-23
-42
53
-9
17
-33
-22
19
-8
-1
21
-11
-26
-8
-7
-3
-3
-32
-9
-18
-4
6
27
-4
-2
-9
-4
13
11
-7
37
38
33
4
-30
0
-7
5
-74
7
24
-86
19
49
-37
-15
-28
17
17
-2
39
-18
-5
6
28
3
-36
-16
4
6
-33
8
22
-15
21
22
-11
-18
64
-2
-10
-13
-5
18
-37
-80
24
-33
19
-12
-12
46
53
-21
4
-21
77
43
3
9
15
57
-34
3
28
-30
0
-27
30
-12
27
-28
-13
15
-58
0
24
-20
-1
-17
23
44
14
7
56
-51
-53
7
-8
-5
-38
-3
6
-28
10
-2
-7
19
13
-27
-36
-78
7
29
-45
-6
-76
4
6
16
-29
-14
-11
-5
10
3
11
8
11
-19
9
20
-22
18
35
30
6
-29
-19
-56
-49
5
-33
-18
49
9
-31
-12
-78
25
14
56
25
-34
22
-60
31
9
-8
2
3
-15
4
-24
-37
22
-4
10
-35
37
0
-21
37
18
20
68
1
-6
-6
10
-13
43
-12
17
12
-36
19
8
-62
19
-15
25
-9
-12
26
-47
70
-54
-30
65
-37
-10
46
27
1
-5
1
4
-14
