88
62
213
136
36
68
86
-281
134
259
-121
-281
-254
-72
-241
-102
232
282
43
-12
-86
-6
-85
0
145
-224
-92
-423
552
68
-120
2
-83
-161
219
198
137
-347
68
213
-133
-238
59
-60
-266
164
6
203
95
209
141
-233
-142
322
-55
-155
-6
-460
-459
-397
-318
211
-162
-6
46
114
-112
320
-308
185
169
209
-32
288
-51
339
-467
-111
54
-272
-24
-65
114
-85
164
389
-86
206
35
-507
324
-134
-192
-221
-132
336
298
61
-236
-103
-72
-39
335
117
379
-1
-14
5
-228
456
-125
-133
-2
-170
290
-36
-277
-52
-425
377
-494
-522
301
-175
318
192
-264
-215
-326
26
-136
-121
119
139
81
15
-87
-441
-95
563
204
-240
-48
371
156
-20
34
-178
-101
-130
7
-206
329
-178
-117
136
-199
43
33
-80
-243
241
303
260
215
72
105
56
-232
-116
179
285
-41
-194
-57
148
77
99
-94
-240
237
-7
-9
61
-109
312
-260
-196
227
-47
-109
-29
95
-77
268
76
10
-8
17
-652
145
361
132
247
411
-216
114
-146
-228
121
463
120
-211
-28
-269
249
2
152
11
-122
-224
18
-258
14
189
-135
72
239
-53
311
-94
56
64
-287
-78
-6
-176
3
-51
-326
-304
-189
242
-231
374
378
66
-130
-175
-28
304
-112
220
-299
-73
231
290
96
-153
-595
-214
-345
60
301
-396
106
58
-42
-118
-200
-166
-33
-170
184
-28
59
96
234
-83
-209
242
-217
101
537
222
212
-115
280
244
-492
207
-81
-13
15
78
51
109
-26
222
-153
-337
-69
220
-130
-142
7
-164
-294
676
-197
94
-100
127
-161
-71
175
216
54
263
-319
22
90
-16
-21
-159
193
-447
-268
181
-390
397
246
364
-129
-51
-119
382
165
-45
-238
17
31
-393
150
135
-248
-122
-119
404
221
163
-244
-178
-121
-144
-127
-14
52
253
334
-298
144
-157
-2
-107
-23
53
-206
-72
152
84
-191
190
-56
256
8
267
286
294
-227
-164
-281
117
301
154
8
-67
176
433
-321
-49
21
-57
212
318
-110
160
-4
209
95
-310
182
10
-228
19
366
310
-44
-26
242
-9
113
111
19
-164
-307
-132
-246
-210
51
174
115
122
437
29
-34
147
331
232
295
-143
-38
72
-335
239
89
-262
73
-241
245
-174
-61
-67
-369
-279
-49
123
647
80
314
-103
-60
-63
12
252
-57
66
13
-16
-100
-222
94
-161
-191
-270
141
62
-133
-104
553
8
92
71
-81
256
-132
-14
-34
109
-339
-237
101
-161
-145
53
82
53
60
-382
-109
-222
-92
152
205
136
163
249
-37
-329
262
-12
-28
380
390
436
203
32
274
272
-12
369
170
92
43
56
-185
105
-167
-56
-12
1
243
545
-155
97
-198
-157
290
-216
14
314
-338
-331
77
446
-146
37
-147
120
178
242
-40
-29
-99
276
-258
-353
-83
-413
146
-176
-228
51
-125
-129
116
-99
-333
67
8
-1
183
-192
-76
-178
-36
72
-290
-143
225
573
-430
-126
28
184
317
-115
96
11
-82
184
-80
-322
-29
-27
-362
-53
256
389
-538
-256
-501
220
475
8
-200
-90
-273
-254
171
-208
-164
-256
-37
-172
-88
413
70
120
-171
339
-116
146
171
6
72
-130
191
-329
133
-299
-231
141
-45
116
128
-141
484
-226
188
118
-24
156
-46
116
81
143
125
-412
-207
-228
-240
141
309
-312
458
147
-169
62
246
-38
-289
266
-271
-73
-66
425
-41
-213
255
-164
-496
-78
55
-144
282
260
-226
145
-116
-256
-146
-49
-48
-69
-291
-270
-157
-146
-46
259
23
-170
-37
-106
-97
-131
-156
-450
251
167
188
55
-72
59
-269
80
169
-5
-590
-141
-49
69
-234
-188
114
226
372
-402
-393
138
208
248
79
417
71
634
43
-162
-77
-198
-31
-4
145
-18
93
352
147
-223
-34
-37
-20
-8
-21
-202
151
-30
-221
243
-233
-56
38
-77
77
-257
-43
-281
44
84
309
10
-127
218
33
-150
193
228
144
-39
-24
-354
114
-66
-318
15
149
-363
-539
