-127
200
122
-81
118
-84
-189
-100
-224
-329
75
-60
-72
-16
86
56
-80
58
24
-50
-1
168
88
103
-56
112
-1
73
102
-117
70
-57
-142
-139
75
39
-37
-49
-274
-53
-74
19
63
-111
-145
23
67
7
-88
21
64
-409
11
-139
-78
311
-98
15
40
9
44
-91
-110
-21
33
48
-34
-103
19
85
60
-86
-20
-74
-9
14
-35
74
-20
-2
25
55
-62
19
-8
5
35
114
20
-271
15
-37
-102
-28
75
-61
2
11
27
29
75
6
1
78
20
-50
-130
-89
-8
5
30
43
26
-5
19
-20
36
-87
-44
-28
-30
-77
44
-80
17
-15
41
24
-41
75
-22
-12
-7
39
25
225
-3
21
25
35
40
-28
-32
-7
213
20
121
134
50
4
2
16
-43
-65
23
-111
-10
-26
-62
21
-31
-3
-22
-31
7
34
13
17
45
26
-11
-16
10
-24
-53
-21
-3
55
13
9
-1
-15
-10
14
39
-1
-31
49
-42
285
-46
56
5
-74
58
110
23
-43
-41
106
-9
44
-23
48
299
-70
-13
64
-53
-104
144
-48
145
-5
-36
174
98
68
-47
-52
23
24
-89
73
30
-30
-199
56
12
-39
129
-43
12
24
35
-8
-17
-17
-11
-40
3
-95
-44
-27
-124
52
-148
-19
428
-24
-264
100
4
-42
-328
385
11
-387
-59
-201
-37
-62
-93
-37
293
-69
22
-35
-187
66
-17
77
180
-18
-58
-84
-8
-130
-294
-51
-77
10
-50
-51
-65
43
0
-7
-129
-117
-154
61
-219
80
-7
-5
43
-51
43
77
-98
59
-435
-27
52
-41
31
-84
39
-112
81
76
-35
129
101
-29
86
6
-132
54
-44
38
-55
16
9
-100
-50
99
80
156
122
-13
17
-32
-54
-49
-165
155
171
24
-98
53
-14
-207
43
132
-252
-129
-112
-32
-54
-161
50
-17
-116
-4
2
-67
237
27
-52
-83
-37
-277
58
-61
-33
30
-28
-93
47
228
-70
20
149
-185
-140
-59
-57
-37
-2
-127
211
-105
325
17
-50
-232
68
-22
64
71
-29
5
-20
88
88
45
99
146
-9
-24
-214
-44
-112
-12
-61
-73
92
-16
51
-16
-42
23
-1
-15
-27
29
49
132
-32
54
-13
150
-108
-6
24
93
57
18
109
18
8
28
45
12
7
78
37
17
-10
-4
-68
5
23
374
84
-28
9
43
-73
17
-66
24
-81
38
1
6
-9
-42
26
-93
-136
-42
15
-4
-3
44
-16
87
9
29
46
-83
43
-10
-61
25
-64
-31
112
20
20
-14
52
80
-47
53
-6
34
-118
0
1
16
-39
-19
-35
8
-45
-43
-82
-59
-43
34
-3
-12
93
2
33
2
9
-72
-29
42
30
-30
20
129
4
117
-8
-68
39
13
-82
-121
-43
148
-61
-9
-89
-27
20
-81
-29
39
90
5
-12
69
45
-36
-35
118
-114
-31
-106
-53
-73
80
-97
-16
20
42
-140
28
-65
137
111
-37
104
-53
-14
31
-77
-32
175
25
65
46
-98
67
97
-12
49
-35
-50
20
31
-80
-169
-7
-19
-118
8
-79
2
-13
100
-36
22
13
106
12
-20
52
95
-39
-40
34
-45
-27
17
72
-3
46
15
25
24
-108
-92
29
-37
-46
4
45
-13
-4
19
6
-88
-174
24
-262
-118
142
-57
7
-217
-164
71
3
89
-29
-19
-109
105
-78
27
91
-27
-10
-86
-7
102
79
-14
43
-39
7
-19
-49
191
24
-38
80
-25
-12
41
92
-56
132
-48
-70
28
65
25
-68
-19
47
-2
-1
26
-43
-73
39
-406
-43
6
118
-8
36
87
55
-6
57
-48
34
72
-106
-334
-25
-47
266
-130
-61
48
74
5
-38
336
42
-36
99
8
-12
172
-14
-78
71
33
27
115
0
17
-3
23
-11
7
-17
23
26
-33
4
-83
31
-86
27
36
37
-6
-18
98
118
-5
-46
-29
-16
20
11
16
-120
-31
-83
36
167
-45
18
39
-14
51
-6
-339
-6
-16
-135
5
68
-18
-17
-34
-125
-8
-57
-3
33
-2
-252
