-248
-272
-219
-14
-438
-103
-523
-328
5
92
-304
-475
151
-214
-99
-600
-332
-371
-53
-262
-532
-61
-246
-692
-230
-514
-156
122
157
-366
-138
-175
-573
-13
-82
-184
163
-161
-201
312
116
210
-52
-401
-291
-1
-108
-180
-122
-166
211
-332
-488
-99
-506
-272
-329
315
-84
96
-172
-631
-246
-137
-77
-465
-30
-155
-72
81
121
-414
84
-30
-369
-154
-88
-27
-445
-522
-301
-280
-408
-397
-153
42
-122
-124
61
-414
96
205
-710
-221
-165
89
-439
-4
-197
124
-82
0
-407
-94
-161
-216
-144
111
22
-181
122
-109
50
29
-10
-210
-1
-27
87
-286
-100
-152
-292
-637
-466
226
-277
-412
64
-112
-163
-364
-4
-66
97
6
-328
-230
7
22
-27
-261
-101
-596
-433
179
-202
4
150
-587
61
-669
163
-217
-74
-313
-224
-318
-179
-145
-162
106
-6
-204
-333
-227
-517
-265
421
-192
48
-4
-239
-408
-96
-448
-448
-226
-258
-249
236
-292
222
-128
-184
-37
-498
-293
-407
-82
97
202
-508
95
-388
-290
-73
-483
-91
-92
195
-90
-240
93
-4
-515
-348
-85
-289
-321
41
98
-466
-679
-212
-68
214
-89
-594
61
-329
-482
-59
-279
224
-234
-253
29
-455
-32
53
-350
-442
-60
-44
-227
-108
-88
-455
239
-291
-352
288
-434
-187
-187
-36
-139
143
149
18
-651
-254
-64
-358
-137
203
111
-390
-231
-371
-154
-143
-151
-111
446
-68
-83
-292
-131
-109
-294
169
-376
31
-135
-120
-142
-70
203
-304
-475
72
-51
72
-209
-437
-347
-39
-105
-214
-161
128
-214
-428
-222
-339
-588
-475
93
0
-389
-18
-473
-612
20
18
113
527
138
106
56
-411
-224
-173
-240
-201
-193
-118
-128
-18
-460
-317
441
-125
-7
-284
-218
237
209
-402
-170
-238
-389
43
-282
20
-44
-28
56
-214
-415
-216
-218
-325
191
-27
499
-42
224
75
58
-333
-39
-53
45
-133
-366
8
-348
-139
-270
-453
-205
-466
-310
69
-259
173
-106
62
13
-318
-12
316
-58
-243
-23
14
-63
-123
2847
13
178
-409
34
125
-403
-187
319
-147
-338
-290
81
-117
-120
130
73
-492
248
182
-154
-341
-141
434
279
-231
171
-633
133
33
39
-84
-89
-33
-402
-131
177
-250
-158
-177
32
-303
218
119
-224
-51
300
261
-397
132
187
153
-561
-22
-447
-145
-23
-236
-59
-291
-172
-349
-114
-76
-79
381
-202
-131
82
-353
-96
-376
110
-521
-423
128
-388
222
192
-183
88
-167
-601
-691
23
-435
197
-381
-224
-238
-73
-177
-532
-97
-29
-107
-205
69
365
-264
-325
143
-18
116
39
-350
-554
71
-142
-3
-56
-195
-191
-161
-103
-42
-244
-208
-324
-269
-327
110
296
-78
-287
-96
-325
6
60
53
-49
-89
105
-285
-628
8
-353
278
-194
78
-325
-576
31
-33
78
-27
75
-214
-339
-168
-27
36
-262
-406
364
-315
-99
-412
605
-256
-259
-159
-87
104
451
37
-136
-610
-527
6
68
-291
-259
-215
110
-84
-534
-323
96
-69
-115
-420
-83
158
-301
-341
-318
-143
-15
-33
-411
-454
-152
28
-277
-212
299
-414
246
123
-362
-205
-22
-34
5
-1025
-53
-39
-86
-113
37
-364
-123
-258
-90
-140
-270
-169
-421
-168
-167
232
-253
-427
-510
-221
-192
-179
-249
-234
151
-107
-439
-68
-11
-84
-105
-69
91
-421
-153
-153
-284
-289
-226
-619
162
-302
-122
-226
-413
-344
-530
-206
-258
-365
-284
-442
-229
172
-417
-107
277
-144
227
-235
-338
-215
-550
-256
-227
-381
-368
-75
-71
-422
-338
-229
48
-261
176
-467
65
-213
-21
-94
-504
-498
-183
-571
-44
0
-136
-280
-28
-563
-259
-255
-86
-160
53
-504
-1
50
-283
-225
-304
254
-129
-172
-246
-206
-105
-171
-165
195
-225
50
22
-356
-62
4
-249
-413
-382
-616
-327
-153
-517
-191
-199
-433
-310
-100
-312
94
-310
-208
-208
545
-145
-36
16
-390
135
-71
165
-69
-6
-99
-365
-291
-245
-703
74
-262
-580
111
-106
-147
-271
-5
14
-86
-303
-132
75
-288
-439
-48
139
-93
-552
247
-290
281
-435
-55
25
-233
-310
-218
190
126
-186
-97
-83
