-26
101
11
14
22
19
-27
29
10
44
-5
18
21
-55
-64
36
119
-27
-25
-20
-32
-50
-7
-30
9
9
-76
45
-58
-25
25
-10
20
-3
2
61
8
31
-24
10
-14
21
-6
-17
14
-26
16
57
30
-58
-40
-11
49
74
2
-17
-18
-17
23
-86
-28
24
-127
-62
-5
32
-55
-13
-2
55
-72
22
-16
-13
37
0
11
57
44
44
25
-24
-6
47
25
-69
-6
21
-25
27
-20
-24
-127
-38
41
32
86
5
19
-16
-8
4
4
-4
41
82
-14
9
-41
-64
14
-63
8
35
-50
26
-35
22
-23
-5
-26
173
-39
14
36
-25
20
16
-3
65
9
-45
65
-10
24
17
35
-36
3
166
-5
34
39
22
-31
-97
37
74
-18
40
-13
26
-31
40
-6
-40
16
13
28
50
47
-17
11
36
-7
48
48
-39
136
26
10
18
-13
14
12
77
-1
-44
-31
-33
22
10
-36
8
-24
32
-3
9
-10
-29
-16
24
-32
4
24
21
-12
-7
-41
4
10
-22
13
-18
24
-43
-13
34
14
42
68
-9
-1
-22
-9
-25
-94
-9
-18
-30
-12
-2
-26
-9
62
-81
10
81
-21
-24
20
-28
41
25
10
2
-4
-7
-14
81
-10
-18
9
10
-9
-227
-66
-4
41
-93
1
22
-30
32
19
16
-7
39
-10
-12
-10
-39
47
2
-33
23
-23
13
27
7
14
-25
12
54
-12
-50
-27
23
17
19
-33
-12
-27
-136
2
38
0
-18
2
17
-14
-29
-26
2
49
-33
-56
-20
-4
-4
27
48
64
8
-36
39
-47
3
33
17
-48
68
-15
48
-43
25
-3
4
-29
78
23
30
24
-73
2
-41
-23
-19
-27
-6
34
-269
21
48
-24
-4
-4
-40
7
7
-86
-23
-34
35
-23
121
-13
10
96
-4
43
12
-21
-130
3
46
3
-5
-3
-36
20
-4
-41
-9
13
-17
-48
-19
1
-54
-20
68
-20
42
1
40
4
-45
-22
0
9
20
-1
-31
40
29
-42
26
-47
-4
-18
-29
-6
-92
22
-7
-25
-41
55
47
-28
67
-36
-36
-31
-33
-6
-25
-25
-52
-4
35
27
45
-12
-6
13
56
20
58
12
-63
15
31
49
25
-42
-16
0
11
20
11
-35
-65
-25
5
-42
-11
-14
-8
-11
-10
39
39
22
16
1
45
15
-64
-34
1
13
5
9
25
-10
-17
-14
-5
-14
24
-54
-13
-8
19
-13
-71
-49
59
-8
-4
10
9
-24
-40
-47
-1
-14
-14
18
-29
-204
-76
-51
3
29
-13
-61
24
0
10
-29
58
0
-52
-57
-14
25
42
-19
14
-8
-7
48
-19
1
-4
-67
-9
8
-1
6
4
-39
6
-67
44
10
-10
39
-28
12
52
-27
24
-26
-22
2
77
25
-27
-1
-45
-16
-19
14
16
-7
-56
-11
23
8
41
-35
-73
15
0
3
-7
-26
-10
-6
4
-5
-6
-41
4
-17
7
-8
12
1
16
-17
-7
5
-5
-5
18
65
52
15
15
4
11
5
-109
18
31
-89
51
30
-77
13
-51
-2
29
9
93
-2
18
-29
25
-3
-51
6
9
18
-31
1
27
20
49
1
8
-38
131
12
26
14
49
50
-58
-170
28
9
4
-49
-52
20
38
-37
-4
-44
64
52
-28
23
37
18
-66
-25
29
-54
-9
-31
45
-67
48
-4
-45
35
-76
33
20
-13
-49
-1
23
59
36
49
40
61
-66
-47
-25
32
-40
-6
20
-28
20
-4
6
10
-1
-1
-22
-113
1
1
-51
29
-72
-4
13
9
2
-32
-19
-4
7
33
-5
-22
21
-10
-42
0
-44
29
33
62
-1
-31
-4
-94
-103
11
-51
-7
31
0
-36
-4
-80
20
27
61
22
-33
36
-71
17
41
-29
28
7
-25
2
-26
-37
25
-5
21
-60
51
-13
-3
13
37
51
15
-21
18
10
24
-31
33
11
6
38
-13
21
-30
-99
34
-17
48
-29
-44
34
-37
31
-34
-15
107
-58
9
70
7
-22
-28
16
-6
-5
