-281
-61
396
-953
1144
-373
365
558
-116
-425
-413
288
-266
366
-203
369
-115
30
-336
338
837
-572
357
1662
-167
787
522
-559
-881
2
-17
139
608
-629
252
-132
-996
511
652
-1097
-511
-351
330
428
-208
-797
-83
-405
-123
-55
-660
-449
787
-1308
241
277
214
-764
-134
-6
-352
485
-437
-442
-84
417
-392
-106
-89
-707
-793
251
-451
-549
324
-175
-450
415
64
192
-256
62
442
628
-205
-937
-5
-180
-187
174
-345
-940
2568
-276
394
-411
982
-452
-239
-331
69
309
-106
-208
202
29
-351
-494
-337
-117
-689
-40
-1221
-464
-100
76
130
-55
-713
372
-400
-609
-260
280
522
-1048
-283
910
-529
-127
-431
611
-639
-418
-339
-296
13
326
-568
-767
-444
-132
61
225
-36
-2041
-288
123
-357
975
422
703
-387
330
-38
242
413
778
206
-891
40
-614
-366
211
-72
248
670
-108
-1916
-681
-676
-246
-415
876
-99
942
21
594
682
-243
-42
-77
-521
492
356
-321
533
713
230
389
-24
-1242
890
-144
417
336
-92
806
122
-467
-895
170
567
329
-630
512
254
-578
218
389
-249
-392
28
773
294
-297
-828
-342
663
-485
-272
822
-191
253
-449
935
233
-856
105
-216
-14
-126
305
-42
-5
693
-63
-786
58
-827
49
448
-733
94
-20
-266
-467
245
-782
-922
-133
1756
166
-266
35
-268
-1582
-21
136
-331
-33
-564
72
28
-383
-473
-210
109
303
-198
41
-74
-476
427
-144
366
-564
-637
-692
-509
396
51
-447
-982
-982
411
523
787
119
-70
270
-587
-407
-170
398
-276
-35
1169
258
-101
-151
319
-612
369
1311
-163
-358
-265
-4569
29
-267
-387
468
124
-369
88
172
-84
-678
5
-1001
236
572
-1192
-534
425
-292
-759
-159
-401
-198
-244
322
271
-284
205
-282
-677
-157
-300
-164
-125
574
-185
125
-81
232
-424
-711
-964
-717
66
199
14
-70
-189
480
339
-55
255
91
272
-37
79
73
-347
-276
557
-472
-574
-333
-290
149
-182
-747
-32
91
-603
-800
289
-98
-5719
241
-866
315
-529
-1276
301
-347
-138
416
242
549
-452
144
-164
-707
-891
288
-430
-394
-721
630
-544
-257
-502
208
-459
572
-632
-462
-260
-23
-5
-647
201
-213
-117
339
146
-620
-722
175
-32
-888
744
159
-880
-958
480
311
-1028
-932
993
-816
434
-854
-175
-679
-207
211
185
647
-502
69
-156
-862
186
-327
-983
-70
-283
477
-636
376
141
-512
529
-399
-470
145
-996
-405
502
390
-481
-261
-443
152
-48
149
-494
-328
-208
-124
-311
-581
310
-810
-446
422
684
-681
0
-213
-1
383
358
-897
-138
-251
-2
190
-82
-65
-304
188
109
-322
44
471
476
-201
-101
-121
162
-456
-220
-591
164
-599
-231
-132
-456
-419
1058
-268
-94
-980
341
-478
1224
407
-507
116
-110
87
-292
329
488
-33
-680
-271
-328
286
-444
-221
4
195
-1233
-41
47
-563
-7
-550
-1828
-913
-297
984
760
-138
-394
29
241
-133
-247
51
384
299
-231
-283
-721
-255
-229
-592
207
410
-512
-113
-379
42
145
164
-319
-673
-148
-763
-368
594
-325
-721
319
528
-755
-802
-251
1536
-327
-627
329
92
-125
397
345
256
-67
450
193
351
86
203
118
-439
221
548
708
471
296
371
-3
40
-740
-431
290
-1180
-142
-348
-19
-411
-522
432
74
474
399
-164
436
915
-693
224
32
768
368
117
957
-63
-42
17
8
698
399
-238
626
365
-315
-202
-678
66
-69
-201
4
-267
642
523
418
-750
-46
57
-5
-247
-433
362
-113
227
-549
230
-500
546
569
366
396
149
174
-641
-77
275
-564
1210
800
570
-300
-65
-276
799
-20
-673
-149
534
-3
-593
-103
-259
122
361
24
-105
108
-746
-2
2
-511
229
-192
-225
54
386
-15
978
354
127
470
245
71
149
464
-26
739
-144
255
-163
-102
-323
-459
-311
-195
385
-142
-261
-276
-379
84
228
603
408
508
1028
61
11
514
-54
301
89
-166
-75
-51
-158
31
-362
-87
583
6
254
-515
-139
587
-856
-394
-469
304
-355
176
189
417
-61
-562
-840
148
-40
169
