-315
-429
134
314
-455
496
-771
-550
-282
-275
-222
-585
291
-853
-13
-94
283
366
-107
-1090
-410
708
-681
-246
195
-489
-414
216
324
-318
-58
-225
-534
298
-408
64
82
-301
-387
425
-254
294
-96
-398
91
297
271
-63
-524
-36
515
-372
-938
848
-548
430
-15
580
-328
462
1
-128
519
746
53
-178
11
-189
-238
42
-129
-126
645
443
-567
-419
-183
-716
-304
-226
-92
-254
-273
-246
-333
-392
220
-499
-172
-193
-152
18
-882
-4
-234
-85
-799
478
-172
-18
-107
-491
-20
-18
-414
-189
549
-234
-294
-124
-179
-387
888
446
-174
-171
-390
-392
-322
-431
452
1667
113
-286
-147
-50
169
-459
-387
-53
-184
-577
-227
-288
-14
109
313
236
514
585
-16
-249
-25
-157
-293
761
-50
319
-331
-299
-353
-403
169
-318
-185
-322
-779
-659
-283
-282
-49
-179
-56
-238
-222
-379
-78
439
1364
-92
-208
-522
-376
-790
-532
-269
-137
-391
-447
-151
28
1
-433
-637
-463
-323
-660
-763
-381
161
448
176
-906
209
26
-240
26
-440
84
-59
135
-779
-523
-770
-167
-365
-696
-28
-132
-61
-300
207
-754
-318
-73
92
275
-34
-568
-311
-224
-742
-613
286
-508
-233
-197
-116
-103
-163
-593
-65
-488
-55
-229
-358
-295
-386
-85
168
288
-132
-324
-512
-289
-224
458
-35
-69
361
-514
-360
-65
-17
-33
213
129
338
-120
-86
-529
-40
-511
-495
-893
-519
-165
-187
-344
-179
-427
-139
-86
22
384
5
-134
121
110
97
-430
-286
-122
-11
200
150
-402
-463
-718
-277
-257
-261
169
-154
-451
-106
304
-943
118
259
-339
274
-35
-412
-415
-692
-35
175
-2772
101
-124
-481
-45
151
-435
83
-384
-172
-108
-761
-104
-47
-235
-57
-286
-561
-304
-235
-68
-270
321
347
120
-552
118
-38
-238
-137
-378
-726
211
-671
12
-335
368
-695
-231
171
40
559
84
-732
-66
-230
27
365
293
-59
107
-135
-576
166
-75
-188
61
-236
-83
-78
-184
-329
341
-254
-430
-388
326
-22
-85
-37
81
-189
-80
1138
-410
563
-150
-198
237
-447
-197
267
65
7
-664
-187
-228
-378
77
198
-185
-210
-232
9
154
21
-361
422
-456
-229
-206
-76
357
-13
-254
-408
-57
-45
-163
-376
-382
-87
30
425
-664
36
149
-170
-331
-23
-33
33
-368
-130
-112
-48
-216
-480
168
26
67
354
-452
-157
105
553
-162
-212
155
-241
-121
89
137
-347
-778
279
-363
-224
-253
-284
88
158
-456
-91
-241
-651
-519
459
488
-473
-342
-311
51
-114
-56
-187
-329
-346
251
-86
231
151
188
-551
-159
-112
-147
-442
-188
-717
456
-53
-259
60
-701
27
588
264
991
-269
104
-59
40
-208
-241
-270
-440
112
-541
-4
416
-334
-302
153
-733
-298
355
-497
284
203
354
-83
-210
-401
-384
-44
542
-2
-125
-115
-168
77
-13
-207
-428
151
-108
417
292
-403
-359
363
-511
1164
112
-498
-267
250
370
404
-611
-633
-51
290
-230
-520
-403
-96
-130
-532
-551
55
4
299
280
46
-75
-116
-157
-19
-51
-109
-434
-268
-42
-61
-242
-224
-237
345
-146
-152
146
328
-787
-195
-122
-232
-974
-349
24
-45
-297
62
-214
113
-397
-34
-319
-123
-390
-281
-340
-405
255
-364
-138
-709
-278
-673
-81
-232
-33
-229
-61
-83
-262
-268
-319
-49
-560
-707
-372
68
-113
-146
-100
-219
-633
169
-35
-201
-228
-272
303
-615
-489
38
-363
-368
-167
-646
184
-236
-504
3
11
-247
-603
-63
-132
-409
-206
-217
34
-301
1205
-91
217
140
-210
-297
-454
182
-359
5
-223
20
-89
342
-320
-258
252
-399
-262
33
-130
20
-1062
-514
-411
29
-228
13
-776
-18
53
206
-466
265
56
-193
-520
-523
-136
-393
213
-925
374
75
-121
88
-351
54
563
-501
172
-270
-671
-305
-489
-117
-72
-720
110
-432
387
-617
193
-150
-192
12
206
11
-277
-155
-519
-142
-163
-29
389
-538
4
-683
-204
-202
-616
-116
-367
-49
446
-195
-40
-113
-614
-36
-407
-527
45
-75
-314
-205
-228
423
234
-831
-98
-362
992
-325
-131
-268
-224
-356
-184
295
27
-205
-109
-198
