70
-140
31
129
-58
173
-82
-58
99
-175
143
-232
25
413
-43
-18
70
-36
-148
-1
218
36
-22
172
140
78
201
45
-125
35
13
-438
283
-58
117
-96
28
-131
-268
-72
180
-363
-92
130
194
-24
29
-169
-161
-556
-103
-22
110
16
-83
372
-44
78
166
-43
115
220
10
-124
17
24
-33
84
-9
-179
147
38
59
-28
-70
79
-42
38
47
-18
1
-31
-28
-37
-78
24
-29
-80
-52
6
6
-52
-64
3
-49
-18
-7
51
10
70
-25
50
-72
51
56
81
8
33
31
-54
-8
-32
-11
-72
-106
-34
-75
-10
-27
53
30
-73
-15
146
-110
-50
-73
-63
-3
-84
34
-26
46
-57
-18
47
-58
-124
-28
17
30
20
104
29
0
-36
21
26
-58
42
-24
0
28
92
-65
28
72
-55
-1
26
34
33
-15
-56
42
-31
58
36
15
26
44
25
-90
16
40
38
-27
51
0
-41
-8
-33
34
27
-13
0
-78
26
-22
-25
8
21
-48
6
-13
6
187
-21
16
-20
-54
34
56
19
-49
-5
11
97
86
-11
-104
-129
9
96
60
79
-3
38
16
4
1
16
149
68
-25
-129
-8
0
11
-1
-35
-8
-67
-49
85
8
4
-8
55
40
-64
-46
11
-26
-45
17
14
-7
-52
68
-21
-36
-22
-2
-97
-10
-27
65
-8
6
12
34
-24
47
16
121
15
58
18
4
35
-15
38
24
17
-15
4
52
-14
115
15
61
18
-38
22
61
82
25
-16
60
19
-64
65
69
-10
-63
6
9
-56
6
-40
-62
13
-49
-50
17
10
79
-64
73
-38
26
-26
32
-63
-18
-11
19
-18
-5
63
204
-184
-11
-12
-1
-25
-24
-81
40
-10
-8
65
55
-94
-153
-23
-100
47
-70
-93
72
9
-33
-63
-4
-175
41
73
-4
-73
69
43
-81
139
-109
43
-31
-56
-25
20
-40
21
-24
294
16
24
31
-5
-25
-67
-26
27
51
-7
22
68
-33
-47
-219
-164
-299
-317
54
-181
-61
-26
127
-75
16
-149
-10
26
157
-90
28
41
1
-60
-126
-47
-73
21
-131
36
-29
-46
-110
-29
-25
-179
3
95
-7
63
-210
200
77
29
-113
-70
-125
-32
-48
-42
0
43
96
-53
51
-63
60
7
23
-52
15
-83
11
48
-159
0
-19
-233
11
58
-26
-107
51
0
33
185
-341
-49
349
189
255
284
-251
-141
-71
64
-42
-121
109
-281
-148
-168
-158
-63
-108
-146
-196
-92
-124
157
-112
-174
155
-184
310
2
28
-339
-22
153
116
0
134
-100
248
-411
-200
-367
205
-426
-508
207
241
-130
158
16
-219
73
-130
-82
53
-288
-75
-76
57
-44
-385
47
26
-40
-46
-21
4
34
-50
71
25
-16
-30
27
-81
-76
-7
-16
-50
-22
-86
-38
72
-49
-45
23
-106
-12
-46
1
-7
-95
33
70
-20
-23
-21
21
-22
-14
-10
-60
-41
32
42
-18
12
-53
5
-11
56
-3
115
41
-14
72
-15
-25
39
22
40
-14
-20
37
40
22
-203
-130
-26
57
-68
192
38
381
17
-20
-84
60
-5
91
34
96
-50
-54
-56
-55
-97
-316
-264
-17
-2
-8
-20
13
-2
77
-75
-46
45
16
-77
-77
29
-5
-3
-106
-21
2
40
-176
-164
-121
-8
21
-2
-173
-75
-74
3
254
-91
-2
17
-94
141
67
-13
48
6
4
52
39
56
54
-104
-23
-67
72
-44
-86
69
3
-20
51
80
-29
62
-19
63
-9
92
-15
-37
30
16
23
-43
-42
27
91
-19
15
0
-8
-89
38
25
81
100
-5
6
-87
-16
70
-80
-29
84
53
56
-12
-19
133
-13
-264
44
25
-134
-39
8
-9
7
88
43
32
91
-39
-210
-18
-26
-203
-2
15
-15
26
73
-24
104
20
67
12
-50
-5
-130
55
109
10
10
-23
-50
-19
1
-220
11
12
-50
-34
-18
25
31
0
5
-39
-25
1
-6
-55
7
-72
-128
42
-5
-6
-1
-104
20
96
-33
2
34
102
-49
32
21
24
-22
8
44
