-176,-18
108,-109
128,78
49,-139
27,135
170,9
-8,-187
-23,43
-33,0
13,9
53,-70
-165,-5
-229,90
47,67
156,28
111,-129
21,-79
-28,64
-63,29
54,-9
35,-67
-38,107
21,156
24,-6
67,-39
1,26
45,-35
40,78
81,122
-18,130
-85,40
-74,14
149,52
-149,78
-200,23
-60,42
19,69
58,42
-171,-14
-29,79
95,71
23,90
164,167
9,36
-95,-38
-86,41
22,-48
6,48
-58,12
15,-57
29,-86
-74,51
-2,59
42,69
-153,-27
-174,76
36,84
54,-169
-44,95
32,100
-29,-11
57,154
-22,-45
-8,56
-194,87
67,46
17,-91
-99,-58
-9,71
-195,8
-10,-58
69,-8
95,-90
100,-114
-51,3
65,99
-84,-151
-37,89
229,-29
-113,77
-33,59
83,55
93,-99
-76,-1
-54,-163
-137,-2
102,46
26,-38
28,122
190,121
49,-23
-14,31
29,28
-102,182
49,-24
28,125
-98,-2
-4,-22
22,0
-72,16
9,142
6,-30
152,-28
46,103
-52,57
-99,129
91,-104
-34,-1
-72,-73
-3,-68
28,52
-85,-2
98,57
51,18
103,170
-98,56
-25,53
-79,107
-40,-106
-88,106
-38,222
24,175
82,-11
15,54
32,-26
6,58
134,6
11,-92
-39,-36
-205,-88
-134,-26
29,37
-142,-63
-11,-78
-38,162
-69,78
58,34
138,-44
13,3
-60,185
52,114
28,40
-128,-25
95,211
54,-173
18,76
-11,56
-148,-74
85,125
-41,-45
3,-19
59,-1
-110,130
-31,-50
-119,-23
-45,-82
17,-64
-32,-170
25,-56
-2,-201
67,-39
-92,79
-3,37
-57,19
-9,-170
-6,-90
70,183
95,32
21,-45
-58,93
-16,69
67,-67
-69,78
150,-12
62,-21
42,-149
-14,59
26,-79
84,-105
65,-148
36,-33
-106,-59
194,-72
-137,180
82,140
61,-35
99,76
-170,61
36,71
38,46
125,-59
0,-105
49,105
189,-88
48,-34
-113,5
37,113
-43,25
70,-60
-71,-209
-25,-117
38,-26
117,-32
-63,-101
-92,117
-120,34
94,-28
45,56
-122,76
-54,8
-61,-71
103,-14
115,119
114,25
-86,-26
-86,-31
-73,14
96,-7
-78,-27
76,157
-123,11
27,48
-71,15
155,-39
-117,-27
125,57
20,166
-37,67
4,36
217,121
-28,24
-9,-52
-31,76
-23,-113
18,102
5,56
20,-17
-52,-35
66,-78
-51,17
-69,-80
67,40
-81,92
-60,69
25,-24
-23,13
-75,-64
-89,-29
9,32
-87,169
-39,-203
-209,40
-8,-18
22,-60
16,40
-170,-30
-2,-72
-129,23
67,-108
-96,113
32,7
89,-51
-66,28
20,72
-170,146
85,-118
76,-5
-57,76
-97,44
55,93
37,27
-10,17
-98,-31
150,-42
-91,-37
91,16
-68,-233
-89,30
-77,102
-7,29
98,43
-70,-83
18,24
50,65
-161,88
41,12
27,-15
-60,158
144,219
45,-179
-46,82
-133,2
40,-117
-20,101
45,-84
-98,25
-164,66
-48,91
55,-20
-53,-125
51,7
-15,44
-184,20
-16,-44
-74,-33
79,-42
37,-93
-95,193
91,59
42,123
-41,116
68,-56
-24,10
19,16
106,-178
-114,-26
4,-31
217,16
13,32
-209,-68
-75,-71
111,-140
-6,-29
-106,78
-55,153
40,-30
-97,-4
12,86
-46,-136
-54,-12
127,50
28,156
245,-9
-21,139
-155,54
71,-35
59,12
-61,61
-5,2
-10,109
-100,-15
-145,-28
94,14
-1,-49
-50,-23
-1,-84
21,-95
-152,110
-89,9
-95,-7
40,-78
-22,-61
-77,10
25,10
-111,-136
60,64
-143,-56
-35,90
-85,160
-81,-122
28,44
103,91
-129,46
-56,-40
139,-14
-4,152
-41,29
-124,272
19,76
95,51
50,74
-142,-149
32,48
-105,79
59,-75
-83,-148
-55,-27
-74,65
-16,-49
-79,-7
34,129
-12,-94
-9,-22
85,55
33,6
79,142
51,-46
136,-10
30,167
-158,28
220,-49
-155,-10
-15,74
36,124
29,84
53,100
-85,-229
-26,51
-34,-41
62,1
-37,-1
132,127
-51,-42
41,102
145,-5
7,-117
11,72
-83,-26
-28,20
-84,64
62,-155
-84,129
-82,-54
-38,-104
-48,-39
-128,-38
140,65
166,-52
107,-32
13,-176
173,62
-45,-103
130,-131
-16,-173
22,15
-43,-28
-40,-201
-45,58
8,42
80,-47
-3,10
71,84
-60,71
-68,-90
-98,-20
35,-23
18,24
49,-22
-55,231
-114,67
1,-2
28,-15
116,-9
10,-149
-94,-140
17,-67
-2,1
156,-12
17,-45
92,30
-51,16
14,38
61,134
77,181
-5,79
-68,218
20,149
-154,-62
57,-4
17,-100
-83,-37
-152,80
-15,107
-19,-6
-10,-94
103,151
-108,142
-161,-52
-7,42
-75,-62
16,41
-42,-102
-91,50
1,137
73,-19
-29,38
72,-151
-67,165
-28,11
-76,-100
-18,-37
-124,138
56,168
89,28
-28,-80
39,66
-2,46
-57,79
7,75
128,-13
-150,-134
-45,185
113,-67
-64,71
5,96
-18,-108
73,-89
149,13
-10,144
-110,-92
-162,-61
-68,84
4,-10
-25,180
29,1
76,40
-79,55
125,15
42,-83
-41,9
-171,-55
-76,148
-3,-51
-55,-16
20,148
-89,77
82,-88
-111,174
-84,178
132,53
-27,46
118,-116
1,109
-145,8
-42,-94
1,-96
51,-136
132,-34
109,-8
-46,161
-57,-16
17,-53
-40,53
135,109
117,5
-14,74
-28,64
34,-19
35,85
-103,-39
-15,69
68,43
-14,-30
-138,27
82,162
63,32
-22,58
91,-99
-16,79
-100,-103
-111,-8
79,114
-36,0
7,112
47,-64
91,1
68,-33
167,136
-167,-13
-78,-143
-85,37
-48,52
98,35
-127,49
-83,57
13,104
27,52
28,26
90,-141
-49,77
-59,-167
178,37
77,-97
-103,90
-29,-87
-76,-136
-97,31
-144,-117
-280,-89
-28,-13
-30,-105
42,-13
-92,41
10,1
-6,-35
-67,-100
221,-36
-40,94
-93,36
23,41
51,-26
28,77
165,-77
-96,-42
-79,-123
-130,139
-22,-272
-9,7
51,52
54,185
126,-36
-116,-31
-110,3
53,118
-61,34
27,-104
77,12
-108,10
101,23
-221,66
105,17
65,0
0,101
-128,17
-38,54
69,137
-20,-116
-31,75
-54,-8
-65,-88
61,-138
22,-63
-48,17
-37,-76
62,-98
70,22
55,85
13,-66
-3,-131
-5,-5
54,-150
41,7
7,-50
-100,99
109,8
242,49
29,-100
5,-19
-82,-3
119,49
25,-97
1,-83
93,-9
-2,-39
26,-26
50,140
-130,-27
24,-30
-5,-5
78,-141
-29,61
-4,123
-45,15
-40,-67
36,92
3,27
124,-157
-53,-25
-80,-38
88,-72
1,-19
-51,148
56,-87
51,45
-41,83
9,-68
27,-47
67,-40
68,-87
25,-133
-96,-28
-4,-29
-9,-28
193,-152
-19,-80
132,67
-96,-107
43,17
-79,11
-58,52
73,77
30,114
93,-89
-55,62
-63,1
83,58
-140,-79
59,-80
-37,-92
60,32
30,13
-186,28
28,35
-80,-13
4,114
28,102
-20,30
-196,-41
72,94
-150,36
86,94
-24,-60
-105,104
-93,-163
124,78
59,-127
-50,-25
-22,14
-87,-67
18,-75
43,-5
-15,43
-141,0
-44,149
-38,17
117,-133
-91,129
273,-69
29,46
-112,60
10,55
-46,-242
109,12
26,-1
32,-60
25,5
69,34
-22,-176
40,27
176,-29
39,18
-77,-17
-62,-36
57,-19
113,-131
58,-80
-140,-19
-24,64
138,-75
-55,57
68,25
48,12
-75,-6
-89,18
-103,45
15,-7
11,67
-71,20
-63,-33
146,-37
-67,62
-34,-16
107,-22
-46,12
49,-34
162,-50
18,1
66,-18
-93,6
-54,-37
19,-162
-27,40
65,-13
-45,6
-27,57
-15,39
-40,-124
-50,25
