-282
-59
402
-953
1143
-370
362
558
-116
-426
-414
288
-262
368
-206
372
-115
30
-338
337
836
-570
355
1664
-165
785
524
-560
-881
1
-16
139
611
-626
254
-133
-995
511
648
-1097
-511
-346
329
428
-207
-798
-80
-405
-123
-56
-661
-450
789
-1306
243
280
213
-764
-131
2
-352
487
-439
-443
-81
416
-391
-106
-86
-706
-788
249
-450
-547
323
-172
-449
414
70
193
-254
63
442
631
-201
-934
-1
-172
-186
173
-347
-938
2574
-273
395
-413
983
-454
-238
-333
71
307
-110
-206
201
28
-348
-492
-338
-119
-689
-40
-1219
-466
-99
79
134
-56
-714
376
-397
-610
-259
285
519
-1047
-284
908
-527
-125
-427
611
-641
-421
-340
-295
14
329
-565
-769
-441
-130
59
222
-35
-2040
-290
123
-359
974
424
703
-385
332
-38
242
416
777
204
-890
43
-614
-366
212
-68
248
674
-108
-1912
-682
-673
-248
-413
871
-99
942
19
595
683
-244
-41
-79
-522
491
354
-322
532
714
229
395
-24
-1241
891
-140
420
336
-91
810
127
-466
-896
171
569
326
-631
509
253
-575
221
390
-249
-390
23
772
296
-295
-832
-343
665
-487
-269
820
-192
252
-449
938
233
-857
107
-217
-10
-127
304
-40
-4
690
-62
-788
60
-829
46
448
-732
93
-21
-266
-467
247
-780
-924
-135
1759
172
-265
36
-271
-1584
-20
136
-330
-33
-563
76
31
-379
-472
-211
110
306
-195
41
-73
-476
428
-143
367
-560
-637
-690
-506
398
53
-445
-982
-986
410
523
785
118
-70
267
-588
-405
-172
398
-275
-34
1173
255
-102
-151
322
-612
367
1311
-163
-357
-264
-4568
28
-265
-385
472
126
-368
90
175
-81
-680
4
-1003
238
571
-1192
-534
426
-293
-757
-161
-404
-193
-243
318
273
-284
205
-278
-676
-158
-301
-161
-121
573
-187
127
-83
232
-420
-709
-963
-720
72
200
16
-67
-188
477
339
-55
254
93
270
-34
80
73
-347
-276
557
-472
-576
-333
-289
150
-182
-747
-32
90
-599
-800
284
-93
-5721
238
-866
316
-527
-1274
301
-348
-136
418
244
549
-449
143
-162
-705
-887
286
-429
-390
-721
632
-543
-256
-503
207
-457
574
-633
-461
-259
-23
-2
-648
201
-216
-115
340
147
-618
-724
176
-32
-887
743
163
-882
-959
484
308
-1024
-931
995
-817
438
-853
-172
-679
-209
211
186
646
-505
67
-158
-863
185
-329
-983
-68
-281
480
-636
376
142
-516
530
-397
-466
147
-998
-401
499
395
-484
-261
-439
148
-51
147
-496
-325
-209
-126
-310
-577
309
-811
-442
425
680
-681
4
-210
-5
382
359
-895
-138
-248
0
196
-79
-66
-305
192
112
-325
46
472
479
-194
-103
-120
161
-454
-220
-591
167
-598
-232
-134
-454
-417
1058
-273
-92
-980
342
-475
1229
403
-506
119
-111
88
-291
331
490
-35
-679
-266
-328
288
-442
-220
6
195
-1231
-40
47
-563
-6
-549
-1830
-912
-296
983
760
-138
-389
29
242
-131
-248
50
383
293
-231
-283
-718
-251
-227
-592
208
411
-512
-112
-377
45
141
162
-317
-677
-146
-764
-370
592
-324
-723
317
526
-755
-799
-252
1535
-326
-625
330
96
-124
391
344
255
-67
451
196
352
87
205
116
-435
225
550
710
470
295
376
0
37
-739
-431
291
-1180
-142
-344
-19
-408
-520
433
72
476
400
-166
438
919
-689
223
35
773
369
117
958
-63
-36
16
7
697
396
-236
628
366
-311
-204
-677
66
-68
-199
6
-272
644
524
415
-747
-50
56
-8
-243
-435
359
-112
227
-543
228
-499
548
570
362
398
149
171
-640
-75
275
-565
1210
803
569
-300
-60
-271
800
-20
-669
-151
533
-4
-592
-101
-258
123
357
24
-104
108
-745
-3
-2
-508
227
-190
-224
57
388
-13
976
355
127
468
243
69
155
465
-29
737
-146
253
-166
-103
-326
-458
-311
-192
384
-142
-260
-273
-378
88
232
604
407
508
1025
63
15
515
-49
301
90
-164
-75
-54
-156
35
-359
-88
586
4
254
-515
-137
582
-855
-395
-469
305
-353
179
189
416
-59
-558
-841
146
-39
171
