-446
-178
108
-256
595
99
42
583
-444
-99
38
171
-523
285
-284
557
221
-24
-74
-139
298
-100
-13
221
-351
289
134
-252
-319
127
524
156
-192
-264
-305
-339
-78
249
-396
-543
-423
-616
60
556
216
-351
-164
-388
-69
-324
-1405
138
-295
-285
585
266
-452
82
-187
-522
-7
136
-193
-494
188
353
137
391
-1042
-201
-597
204
89
-286
53
-675
-337
264
69
140
-37
181
-262
425
-138
-447
-33
57
145
956
-590
-201
-127
-221
-101
-453
596
-382
-77
-374
65
-393
19
-67
-366
131
-130
-318
-55
-177
-246
296
75
-381
-175
-179
44
-303
-466
-21
24
-231
311
3135
-490
-320
-481
160
-307
26
238
264
121
-258
-332
-256
-215
-31
-289
-73
-292
18
5
571
-92
-2
30
-1063
-336
-211
-17
132
-592
-625
-329
62
243
422
246
-193
95
-410
-253
-164
738
-70
-213
107
-513
26
-40
-199
745
11
288
-251
118
61
232
722
-1920
444
-75
57
-96
-48
724
-78
142
209
-417
234
251
-202
-68
218
-487
-177
32
247
-28
137
277
-282
-506
1489
-13
178
-61
136
-293
-57
137
557
0
-460
-271
-85
293
-157
-5
178
-16
378
32
753
26
-687
153
-457
-145
-274
417
-320
-144
-268
-221
14
-99
-506
385
-142
48
663
-304
-179
-89
-40
-336
-473
-583
-52
-476
-54
-230
-561
85
-446
156
105
627
-73
-23
265
-187
-57
-59
-80
74
105
163
63
-214
650
-460
-363
65
-197
-349
-551
536
770
-258
-425
-965
-376
215
88
84
-179
43
374
-132
-222
507
34
-353
-346
-35
71
-675
-46
-133
164
-256
89
126
-221
-5542
182
-545
-404
697
-44
-241
-219
-208
6
-61
-382
35
753
-3
-812
138
-742
-116
1410
-244
-338
-148
64
2
545
151
-108
-578
-75
-95
-39
87
769
-322
146
-187
-641
-100
-383
-20
-989
13
56
888
101
-240
-141
-387
229
84
-23
44
-686
555
-25
318
397
-721
-173
-465
-457
-1108
91
162
-486
-1373
-20
-205
-456
-244
323
-56
-7741
-148
-407
522
28
-164
-2
-302
-581
33
-110
75
-451
-271
-9
-419
-648
55
-81
211
-147
191
-119
-193
174
-77
-196
153
-147
86
-172
180
-58
-247
79
447
205
301
-10
-19
107
-4
-502
346
170
125
-601
-203
-216
-311
-563
51
46
-559
-48
-34
356
-258
-569
481
416
149
-192
-164
-1931
-332
36
-14
-343
174
-12
660
-18
361
150
-148
172
-751
-684
99
-262
170
576
1000
-115
294
-603
340
-443
-232
-381
-235
225
-249
-549
58
128
-781
113
-67
-183
-317
206
-260
-387
-475
706
-286
-405
-212
98
289
-153
-117
-425
-182
-174
-60
262
56
-283
-391
-685
66
-165
-588
268
-194
-289
-56
112
113
-594
-18
507
-704
-265
-637
-357
-507
285
-309
-23
-316
-396
1033
-348
-83
-293
217
-78
-381
69
358
-195
-59
14
-130
-1299
99
69
-154
-355
-445
-794
232
251
339
116
-236
-415
263
462
180
-246
-115
425
-2
-546
-201
-262
524
-284
-563
118
-328
350
-147
237
-655
334
565
-295
-74
-159
-138
-773
289
-323
-242
1
-323
321
-170
-181
299
-437
-824
48
-214
-179
54
-1043
-233
150
-300
-109
507
199
58
-54
-283
400
497
238
5
-180
-473
18
400
-341
107
114
180
-701
-436
-184
100
-734
1008
428
-173
-112
204
-160
259
-397
-28
294
367
41
198
593
-228
151
276
875
236
157
-217
181
-410
-569
482
-635
159
755
176
26
475
114
326
96
206
-146
469
667
-26
-174
325
103
538
-147
187
-91
16
752
210
94
598
-173
-144
-258
355
-330
398
-393
343
-220
303
-185
213
-374
35
-228
77
233
-199
-160
-648
-565
-82
55
194
6
-246
-544
-56
24
406
-80
-235
-42
334
67
503
174
11
341
-676
240
-14
157
-115
-105
-1120
-161
122
188
-3756
4
20
172
137
-646
-717
-710
-457
-377
-236
-141
-391
94
379
-212
-345
-163
-519
300
-254
47
-569
-589
-240
281
-220
-423
238
358
-235
-232
378
356
-151
-605
-998
279
-458
-96
450
-266
2
-486
-100
-335
-188
-226
