-129
-176
-207
-70
-669
-165
-412
-309
-120
-80
-155
-313
120
-283
-174
-448
-401
-314
15
-270
-547
66
-363
-785
-341
-516
-71
-6
381
-408
-72
-32
-552
-45
-238
-150
85
-119
-238
317
69
232
14
-294
-94
76
-142
-154
12
66
-7
24
-613
172
-356
-421
-274
224
14
-28
-157
-292
-61
-271
-146
-381
-139
-264
-160
188
107
-215
-129
120
-396
-97
-41
-212
-262
-439
-233
-160
-263
-476
-113
78
-310
-129
79
-212
175
242
-862
-95
-351
128
-392
-144
-143
-80
-66
-139
-306
-8
-18
-169
-108
32
234
-99
244
-71
460
37
-165
-126
-219
-154
38
-315
11
44
-156
-409
-289
135
-111
-459
-25
-14
-134
-236
-10
-126
205
-41
-311
-327
-118
28
-45
-186
-163
-423
-356
229
-53
-133
38
-595
-76
-479
22
-77
-258
-332
-230
-229
-394
62
-320
72
-87
-159
-77
-320
-449
-254
388
77
39
-65
-100
-395
-26
-633
-253
-274
-307
-23
8
-362
138
-396
-267
103
-478
-563
-284
-55
10
502
-732
85
-381
-231
-198
-550
-213
-179
139
-177
-362
46
63
-260
-357
-65
-420
-343
35
65
-302
-452
-169
0
113
-4
-711
195
-390
-591
-14
-253
45
-504
-190
56
-392
-92
16
-149
-484
-13
24
-379
-50
-239
-353
266
-228
-137
41
-587
-314
-135
-85
-176
196
166
-10
-803
-206
-166
-251
111
119
-87
-211
-142
-287
-30
-48
-202
-154
220
-142
-63
-108
63
-107
-230
-15
-380
-165
86
-195
-48
-31
103
-317
-446
-50
-6
97
-343
-446
-276
75
-213
-140
-76
134
-74
-520
-224
-383
-555
-420
6
-170
-416
-7
-103
-883
146
-104
-113
3926
-13
0
55
-367
-293
-175
-282
-140
-118
11
-290
281
-332
-370
405
-97
-67
-198
-271
3
170
-201
-129
-2
-649
76
-145
65
-43
-79
127
-303
-517
-304
-355
-121
197
-256
207
-81
215
126
136
-273
-153
-169
87
-230
-279
-138
-286
-264
-63
-354
-111
-301
-40
117
-420
51
-62
52
-17
-192
247
271
-186
-326
46
249
-310
-53
1245
-157
163
-308
4
317
-192
-70
112
-378
-298
-334
-61
-256
-111
325
151
-190
156
13
103
-203
0
85
291
-164
-21
-466
57
-30
-19
-354
-205
36
-408
28
31
-365
-146
-72
339
-103
-8
104
-288
-98
175
137
-383
-246
152
51
-539
208
-285
101
148
-71
-23
-294
-241
-262
-244
-66
62
178
-160
34
189
-72
-150
-273
-1
-351
-401
-97
-378
89
41
-340
326
110
-347
-416
-81
-286
18
-185
-140
-163
-4
-211
-138
-175
-133
-71
-243
271
189
-114
-397
50
134
-38
50
-435
-398
254
-187
-128
-14
-245
-346
-148
-65
-61
-83
-195
-189
-253
-429
80
89
-239
-412
-165
-133
221
-45
78
23
-93
-36
-100
-717
130
-262
238
-271
167
-317
-309
-64
-59
-21
-62
51
-128
-462
-428
43
74
-210
-248
287
16
-199
-197
535
-329
-90
-26
37
-58
327
255
-143
-604
-406
182
-36
-354
-188
-4
28
-5
-485
-189
197
19
48
-141
-139
75
-200
-420
-43
-65
-16
-57
-304
-404
-285
218
-203
-32
208
-285
244
170
-503
-402
42
-148
-6
-883
-26
13
-292
-168
-22
-479
-178
-285
132
-235
-194
-66
-154
-263
-164
162
-342
-407
-454
-198
-74
-173
-169
-200
33
-90
-232
85
-106
-95
-191
-188
-16
-554
-246
-245
-393
-33
-288
-531
144
-252
-125
-327
-368
-434
-495
-98
-118
-190
-277
-383
-203
164
-324
-284
103
-239
121
-240
-334
-158
-314
-305
-506
-499
-325
188
15
-347
-88
-162
0
-224
36
-274
-47
-104
-54
-365
-555
-227
-420
-315
-131
266
-284
-229
127
-556
-201
-320
-245
-71
-176
-536
-202
23
-120
-310
-305
282
6
63
-7
-462
-143
-79
-302
105
-332
2
-101
-310
-117
201
-218
-338
-340
-297
-232
-204
-305
-422
-171
-570
-238
9
-227
-159
-273
-159
-94
36
-138
87
-20
-465
-29
-157
31
77
-254
-309
-342
-150
-458
-774
29
-68
-456
-114
-169
-216
-171
-152
51
-16
-337
-7
-8
-272
-367
33
-36
-56
-446
314
-132
78
-499
-124
-85
-167
-344
-167
76
113
-303
-242
-143
