-327
-281
-136
217
-394
294
-544
-368
-98
-71
-78
-554
254
-516
-21
-83
39
86
4
-913
-640
380
-471
-351
-78
-596
-383
8
234
-177
-89
-350
-355
149
-277
80
119
-482
-464
179
-207
225
-152
-446
-114
33
-93
62
-278
-40
415
-118
-625
326
-196
-64
-213
359
-377
34
76
-23
180
249
-116
-297
-181
-112
-148
140
224
-256
135
-12
-494
-216
-156
-278
-294
-288
-119
-164
-329
-486
-207
-98
270
-403
-184
-184
-89
-45
-1046
64
-251
-31
-523
124
-46
-15
-358
-352
-235
13
-326
-141
150
8
-233
-221
-85
-239
263
230
-73
-44
-167
-150
-13
-496
16
517
78
-106
-138
125
-11
-305
-222
-96
-297
-329
148
-17
43
190
-80
-223
175
295
-125
-232
-106
-192
-182
624
-115
-1
-80
-532
-138
-390
160
-289
-230
-51
-436
-697
-278
-62
-41
-54
-41
-265
-69
-556
-199
248
719
-70
-152
-330
-58
-680
-334
-451
-135
-175
-126
-329
44
-265
-72
-540
-443
-41
-431
-358
-430
-144
-3
291
-553
-14
-246
-330
-89
-456
7
74
32
-434
-198
-255
58
-367
-307
-128
-250
-60
-103
65
-391
-474
-74
6
165
-16
-527
33
-141
-330
-218
-129
-152
-566
-386
94
-366
-154
-361
-120
-270
-68
-123
-332
-208
-200
-31
157
-93
-172
-9
-229
-167
-18
158
-223
108
415
-220
-454
11
-5
10
181
254
169
-237
-223
-367
59
-491
-287
-445
-229
-90
-192
-293
-208
-150
-127
-182
-135
79
-188
70
298
-47
205
-367
-147
-158
121
357
-146
-274
-551
-387
-170
-201
-111
138
-8
-452
-222
-77
-786
-140
-91
42
-93
121
-366
-677
-525
191
48
311
-56
53
-362
-167
48
-273
-142
-218
-182
11
-238
-46
-155
-353
234
-158
-450
-204
-86
-55
-201
-33
-110
-170
-528
46
-269
-34
40
-118
-133
-55
-391
-280
-35
-73
-390
-45
156
129
204
41
-478
-25
-271
-131
30
-81
-284
114
-161
-205
123
-166
-316
-185
-9
1
-225
31
102
1
-166
-315
-353
136
-196
-149
-43
210
-62
-79
463
-337
376
-144
-119
109
-375
-55
73
-245
-264
-383
-54
-465
-115
44
214
-91
-101
32
31
-94
207
-180
462
-263
-255
-257
27
182
30
-209
-251
-48
-272
-164
-122
-177
-76
-46
150
-395
-147
299
-230
-127
29
217
-367
-148
63
9
-205
-235
-469
277
103
63
182
-131
-126
-119
61
-136
40
54
-265
-48
232
-42
-131
-503
260
-359
-34
-201
-253
24
132
-248
207
-243
-506
-372
105
242
-136
-305
-199
-225
120
-15
-83
-144
-44
-80
-128
154
-39
-266
-527
-79
-120
-55
-157
-224
-323
332
-153
-214
-87
-502
-147
111
-151
15
-296
-63
-288
-91
-177
-195
-9
28
-70
9
-174
9
-179
-85
-46
-165
-233
268
-450
106
-36
171
-312
68
-321
-313
80
193
14
-231
-174
-203
-184
163
-113
-149
-22
-99
-59
-75
-316
-153
183
-272
177
-10
-135
-74
97
28
28
-416
-400
-175
169
-375
-307
-474
153
-312
-145
-416
-141
-13
-8
123
-5
43
-221
-164
45
-160
47
-220
-180
-208
-218
-83
-213
-37
107
-316
-136
124
-62
-405
-128
-37
-280
-792
-189
25
-93
-340
60
-192
-108
-284
-82
-312
-325
-356
-226
-358
-318
134
-243
-395
-222
-224
-345
-205
-11
-119
-3
-165
-61
-46
-303
74
-117
-122
-340
-279
-23
-151
-179
-93
-288
-644
78
-96
-156
-400
-415
55
-585
-327
-149
-272
-258
-351
-385
64
-186
-229
-156
23
29
-396
11
72
-424
-100
-165
-236
-358
215
-75
-96
-78
-173
-60
-233
-31
-320
-9
-132
-70
-238
-170
-333
-149
-160
-272
-26
5
-243
56
-453
-236
-443
51
-221
-20
-564
18
-101
123
-488
-16
-72
-257
-145
-477
-231
-257
12
-464
128
-18
-196
123
-371
-16
-11
-285
-95
-243
-503
-335
-344
-315
183
-355
-203
-320
204
-290
-117
-265
-317
-283
61
63
-95
26
-339
-94
-73
-103
55
-308
52
-354
-266
-338
-480
-307
-417
-143
19
-47
-14
-154
-457
69
-134
-376
29
-70
-322
-130
-218
242
-56
-264
-25
-205
460
-401
-72
-243
-256
-345
-150
51
49
-116
-33
-200
