59
13
-73
4
-50
17
-9
-46
70
72
-2
14
44
48
40
-33
-23
-61
-105
-45
17
-39
-23
54
-52
-13
20
20
-28
-73
-47
-85
-10
-33
-11
-93
-33
-48
93
103
97
-72
-39
81
-86
47
19
88
-43
-82
61
-76
-4
23
45
-4
83
90
-49
-41
63
94
10
-38
5
-74
-38
-39
-12
-123
-96
-60
-25
-23
-3
-39
47
-7
63
-50
-228
-35
-73
4
14
18
15
-50
85
-39
66
27
-56
12
-138
-13
42
-56
-29
50
77
-114
-26
37
72
-68
-4
-13
-4
-4
100
6
-24
-72
-27
-21
92
-3
-11
-104
-14
17
8
-35
60
54
32
-58
-13
-114
-114
71
-88
153
-876
50
-71
-204
-154
39
61
51
295
-24
19
14
-56
154
54
-265
-167
-163
221
62
126
187
-30
-18
-32
-136
13
-213
112
-41
202
-111
-106
193
-237
69
58
-239
-86
153
-58
-16
130
-228
112
91
183
-139
-12
175
186
9
243
195
-51
490
-46
-63
66
-34
-24
16
-20
6
2
7
19
-12
-4
9
18
-3
-22
-17
3
4
12
-48
-71
-44
-6
-12
42
-31
-20
40
-30
25
-8
1
26
-41
-4
32
-10
-35
6
-4
24
-69
55
-6
-5
-11
-38
41
-13
1
-18
-51
-5
41
15
-31
27
-4
-17
-8
28
-30
-9
-3
-44
30
30
54
39
153
-16
-76
-57
-41
-24
45
35
-13
-33
-60
-62
-58
1
95
-10
-3
-40
-1
-7
7
49
-1
126
-55
-84
-97
38
56
-43
-7
-61
6
41
-68
-66
-19
15
70
-48
-4
-134
-47
11
117
32
-67
101
71
-32
-18
-65
-35
13
37
-32
28
46
-67
92
-93
-34
176
-142
-52
37
-104
-22
-27
146
-615
61
-22
39
-67
409
-11
-36
-21
-16
109
65
-18
229
120
37
-237
-19
-28
127
72
251
173
-32
-53
111
80
-62
-110
-164
55
-73
-61
17
47
-87
67
-176
120
98
76
96
-242
40
-9
-24
150
8
103
-7
177
-57
73
49
170
33
91
-32
-139
-125
-49
57
175
-159
77
104
-6
-18
23
115
-75
-921
260
-27
-168
-37
-54
128
-186
118
-3
-112
15
31
100
127
-4
-100
102
-31
126
-144
95
-38
-88
146
-11
-161
-115
-122
-44
97
40
41
33
-30
-45
65
-194
217
9
8
-19
-171
-248
60
85
16
-55
37
13
-40
22
3
-7
27
70
22
24
25
84
-40
-24
2
-24
-41
-5
7
-1
54
19
-57
22
39
-54
47
47
54
58
41
-19
-15
26
-31
77
-3
-23
46
34
6
-6
16
-32
-17
15
12
25
-31
-34
7
-21
10
-4
-16
62
-8
-34
-38
-10
27
3
33
77
0
4
70
-95
63
22
73
-8
-20
-39
35
109
-31
-60
0
45
77
-9
38
-16
-36
8
72
7
16
7
2
54
-5
-10
-5
34
8
4
-48
44
20
-39
-47
-40
27
17
33
-47
-102
-11
-44
3
19
23
-2
-11
0
-24
52
-51
-4
-7
-6
59
2
29
-20
-15
21
-11
25
28
-27
21
-25
-48
62
61
40
63
35
-37
-6
-48
-70
68
22
-41
-86
-21
-28
-115
-5
16
44
48
-23
-8
49
-53
-4
-63
-1
2
-45
-18
-74
53
-11
-70
13
29
21
16
-85
-28
-40
52
2
93
-8
43
-16
-45
39
20
74
68
-25
-53
2
8
22
21
-86
-62
-21
94
9
3
5
-70
-36
26
7
33
87
-56
-40
-28
-44
-39
10
-19
5
47
-15
-9
-27
-7
25
-39
-17
13
-63
-58
-37
-33
-10
12
46
-22
-48
-22
-8
-1
-12
-37
-58
-65
-71
-40
15
30
-36
-9
-9
3
-13
61
-12
-52
18
-14
159
17
-5
-43
-79
41
-25
-38
74
29
-20
77
28
-99
17
-54
-37
0
-49
14
55
-3
10
-62
-67
-6
110
14
35
41
42
-75
94
-53
-16
80
101
26
65
115
1
-77
-95
-18
-63
-45
-125
-35
39
113
-32
125
-134
-36
38
-13
65
-45
95
58
-9
-40
-28
28
