-7
-12
-33
7
21
28
28
91
-4
32
76
-4
-19
-20
77
-243
16
215
25
86
-6
-49
-45
15
49
16
-30
-28
13
-5
-28
27
-1
-82
-29
21
18
5
-7
45
28
1
2
32
150
12
35
19
-34
40
15
-26
-6
42
-28
-37
64
-36
-279
74
-29
4
1
-287
37
-28
149
335
21
-16
91
137
126
39
-78
-101
-50
318
-20
-57
18
-332
174
-319
18
103
-66
3
238
111
73
-389
40
-76
-111
162
64
-47
-24
163
-60
-20
166
194
-124
185
73
-269
69
144
500
122
37
46
143
-79
29
-3
105
144
-56
73
-16
158
155
118
115
-80
-73
20
66
-104
-132
-42
55
-4
-138
34
-44
38
-47
152
85
-113
95
-22
37
-53
-14
5
151
111
93
-31
-26
29
-95
88
12
72
95
74
2
60
-95
39
71
-24
-91
45
-58
74
-22
-42
-4
63
-26
27
65
2
-39
-11
-33
-28
-11
64
88
22
77
0
26
-2
5
31
40
14
-196
-160
-24
-98
13
0
27
19
-35
70
-86
98
264
-52
-25
-277
-25
-52
-18
24
-136
-7
-188
-54
32
-36
2
30
23
-22
5
-17
302
-6
-9
-95
42
-81
-68
-49
-2
50
26
-3
-39
90
-73
-14
15
34
-93
34
-18
-149
54
-33
-12
103
9
60
10
8
-22
-38
-8
-16
9
-12
27
72
27
-47
4
96
-48
25
32
13
-33
11
-30
5
50
12
28
-39
-86
-58
-3
3
94
-45
-19
24
234
-52
6
0
-112
-9
-4
12
-20
27
26
37
-3
87
44
36
-12
31
28
-17
32
1
37
23
32
-22
31
-9
-17
-24
-32
-18
-74
6
37
16
-104
-64
-29
22
74
-8
-98
-19
13
51
-21
-20
36
-5
8
-40
-10
36
17
26
66
36
-139
35
-16
-18
-15
-53
68
-10
-37
-17
42
-64
31
-4
-38
-159
40
-24
-3
-29
16
22
70
33
46
4
-55
14
-12
10
16
0
-5
-54
35
-236
-91
-34
14
-54
167
-6
-75
23
-54
16
-14
330
-44
-299
-87
2
-257
4
108
-19
34
54
181
-47
44
-88
-212
-26
-38
86
-89
-63
344
61
-8
116
-18
8
90
58
-71
263
-25
-29
6
18
-86
13
-26
-19
13
55
212
117
223
100
-400
91
-58
59
99
3
-1
-377
42
39
235
102
12
-69
-1
-32
-40
-111
42
17
54
-322
-87
-6
127
-28
-43
-28
94
-264
-16
-203
51
-66
-187
118
-21
66
51
73
112
14
-23
280
51
-82
-179
-203
-25
293
38
19
78
-175
65
170
162
66
-121
-18
185
-22
-127
-10
-69
40
27
-94
-30
-101
-49
-6
-130
-94
-12
-40
-76
-76
-329
-17
-58
-36
29
-17
-29
-45
-161
-15
-206
68
56
6
-103
-126
-45
7
17
7
37
5
100
10
23
87
-15
-31
-99
-208
-12
-33
-45
45
106
-47
-11
-26
-89
-179
-84
-4
100
-14
-28
-220
59
-21
23
-81
-48
65
-163
45
7
97
-16
-53
0
-41
-18
-18
107
-22
-89
3
7
-56
17
-19
-38
-5
-75
-23
-9
-20
41
-74
-61
-91
20
213
123
-53
16
64
-39
8
86
-8
29
28
-74
-42
-53
-53
-21
-13
-47
-16
-59
21
1
57
21
67
-18
-18
-22
-39
-42
-1
45
8
-38
7
-106
-49
-40
3
80
38
-16
-17
-141
66
-88
102
23
-79
-117
-134
-30
-92
-20
-12
46
26
22
85
-103
39
-48
21
10
-5
15
-33
-34
-27
13
-281
84
-65
103
-70
33
107
-1
8
3
-13
119
50
2
4
-37
-24
201
-37
153
82
-8
12
-9
-147
20
-34
12
36
-116
-46
47
39
-65
-318
-62
-41
25
-3
-21
-3
4
14
12
7
3
24
41
27
-8
-10
3
-8
40
-20
-19
5
-144
31
11
-17
-42
-17
98
8
12
-6
16
34
-116
32
16
7
-10
-14
30
-142
30
-9
44
0
33
-16
-41
-12
-42
-10
135
1
21
-35
-23
-153
-40
11
-9
-17
-240
-1
