-464
-476
329
323
-576
534
-602
-317
-76
-221
-172
-755
436
-929
-17
-210
248
153
89
-1020
-712
667
-596
-379
183
-581
-551
265
317
-244
9
-337
-389
276
-285
118
185
-637
-649
451
-157
436
22
-526
-13
0
402
18
-426
55
389
-375
-694
420
-226
153
-166
429
-365
300
196
-216
603
428
-102
-354
-263
-145
-323
59
78
-73
279
72
-567
-13
-229
-611
-229
-506
77
-95
-325
-631
-238
-347
336
-734
-286
-150
-247
77
-1216
347
-318
-49
-651
358
-33
56
-156
-435
-135
246
-492
-712
177
-151
-346
-541
-64
-357
555
568
94
-53
-281
-246
60
-719
141
686
196
-240
68
72
34
-324
-96
433
-453
-404
28
-25
218
435
83
-84
350
233
-217
-371
-91
-152
-231
907
-23
267
-127
-639
-90
-467
161
-218
-203
134
-570
-783
-358
-198
-113
-265
169
-268
-306
-756
-303
325
668
3
58
-417
-280
-782
-477
-685
-357
-122
152
-242
-28
-100
-144
-747
-589
80
-713
-445
-600
-81
127
639
-678
52
-83
-335
-118
-536
122
-21
156
-574
-508
-341
51
-610
-415
-122
-185
-130
-334
354
-550
-518
-106
382
156
-58
-656
-221
-218
-653
-486
-21
-208
-439
-400
28
-408
-16
-448
31
-295
-92
-190
-406
-291
-462
-154
58
-107
116
-9
-104
140
-217
375
-224
112
555
-298
-385
-2
-31
13
126
369
241
-345
-183
-431
345
-537
-130
-589
-416
-111
-186
-418
-217
-236
-196
-215
122
258
-333
31
305
-86
457
-650
-471
-276
195
55
-33
-258
-616
-547
-89
-292
-298
236
-134
-630
-244
-88
-840
-47
227
34
94
-2
-249
-519
-698
196
246
-282
222
-89
-361
-234
363
-343
361
-145
-18
-136
-184
-298
-12
-403
128
-177
-495
-146
-127
-39
-202
-61
-42
67
-636
78
-122
-231
-18
-157
-345
-2
-449
-315
-44
47
-868
64
193
155
120
-43
-577
2
183
-14
42
53
-238
409
-170
-427
27
112
-171
-350
-59
-84
-151
49
-74
146
16
-377
-218
184
-74
-117
-98
341
-136
-172
482
-474
304
-19
-195
247
-535
-332
382
-168
-250
-450
-148
-454
-32
18
-37
78
-308
-39
178
-134
146
-108
582
-466
-146
-270
-4
591
164
-64
-45
103
-401
-169
-50
-359
59
75
561
-457
273
269
-350
-197
134
97
-119
-95
5
-33
-234
-449
-494
376
-5
52
277
-250
-337
-218
433
-112
-25
250
-289
43
272
-54
-291
-641
564
-513
-124
-66
-276
-97
254
-128
326
-251
-803
-470
336
348
-215
-479
-219
-162
233
-114
-52
-188
-51
50
-23
192
-9
31
-339
-94
-214
252
-175
-416
-468
478
3
-89
129
-710
183
277
-244
850
-346
119
-160
-95
-155
-189
-201
91
218
0
-65
168
-231
-188
146
-388
-143
298
-718
265
-387
301
-401
20
-375
-575
207
118
-78
-294
-195
-408
-144
253
27
-279
-30
-76
25
72
-355
-209
23
-407
288
33
-309
-33
306
280
355
-323
-498
9
488
-286
-403
-605
70
-444
-327
-434
-50
-46
105
221
85
-48
-145
-315
200
-112
-77
-271
-75
-169
-330
-331
-366
-55
-281
-335
-290
173
84
-380
-232
-205
-415
-1033
-126
103
115
-108
395
-106
112
-496
-122
-464
-178
-403
-400
-327
-261
208
-373
-248
-381
-253
-384
-32
-12
94
-27
-249
-160
-46
-207
-167
23
-310
-454
-113
196
12
78
-52
-179
-746
70
-142
46
-200
-568
238
-629
-870
-113
-438
-252
-345
-612
269
-327
-254
-340
-74
-70
-190
61
-65
-656
-96
-132
-81
-406
241
-137
61
34
-98
92
-240
81
-334
21
-253
107
-125
68
-287
105
-128
-620
-77
246
-233
45
-717
-189
-334
97
-481
77
-497
206
-123
352
-619
168
39
-179
-107
-538
-235
-350
249
-713
343
27
-358
303
-489
-76
290
-112
-15
-297
-821
-531
-279
-54
187
-520
-124
-389
355
-306
-48
-402
-399
-398
192
300
-212
132
-411
-103
-73
-171
386
-360
323
-425
-277
-216
-571
-216
-607
56
334
70
241
-197
-380
211
-258
-395
-47
78
-303
-193
-20
350
22
-340
-84
-231
954
-456
123
-152
-182
-426
-220
337
-15
-95
-28
-98
