13
-238
-241
-142
121
-55
-140
148
-67
-170
18
137
42
42
12
-243
-94
-110
103
-147
-277
91
-179
-145
91
58
-14
-141
7
-79
147
69
-61
128
-118
-49
97
216
-80
106
-23
16
256
-24
206
-1
70
-50
-21
-81
6
221
-265
98
117
28
-147
62
-104
16
-40
168
173
-68
-46
21
96
75
-232
-9
-26
-95
-67
276
-223
318
172
-227
-279
-152
-20
39
-57
-45
-26
35
139
-10
70
154
81
11
-438
-83
62
14
-116
113
-80
109
-36
-68
-319
110
84
360
-63
-151
296
-81
-95
51
99
23
-113
-18
8
-53
-12
-222
91
307
-89
-229
-295
51
84
-277
-56
144
73
-27
-167
-198
-98
77
-166
-282
-72
-35
33
67
-292
-40
-304
256
160
172
69
-215
168
-27
-1
112
-38
-152
70
-8
-108
-197
-106
-8
182
65
-15
39
-198
-155
139
98
-8
-92
230
-217
-1
47
-19
-118
162
63
-115
14
97
-158
-87
177
-173
-142
-253
-87
116
144
-166
284
-17
-152
-112
-460
-181
-50
11
-104
-59
377
-125
215
108
-196
2
30
16
264
67
-312
-122
342
67
155
-318
251
153
-170
-90
-2
-28
-387
-169
105
-79
19
84
-54
-209
150
-39
-85
-59
-78
-54
227
-126
-216
197
109
125
52
-281
-65
206
90
-127
-368
-227
-159
-350
370
56
78
-113
39
240
59
-83
143
-183
245
-27
-84
-32
-66
-244
109
-14
27
50
-272
-225
-88
-37
43
239
-116
-210
54
74
-6
20
112
166
-149
-400
-211
241
73
-255
-156
227
-6
-160
-23
5
75
37
13
-484
282
122
180
5662
-30
80
-519
86
-75
-34
-147
-140
-326
212
-521
-132
-111
-221
139
-45
-96
-93
119
-85
-68
-10
-391
41
-92
327
44
-49
-22
-107
16
-109
-183
-317
36
-73
110
-172
-91
-189
-90
215
271
88
-22
67
164
-107
-8
113
-88
34
-26
49
-93
-111
33
-244
-266
-295
-237
44
87
-28
47
-35
-18
-84
59
82
-73
-41
938
-73
180
-92
63
251
-100
100
22
-77
29
27
-195
-183
117
375
-80
-29
70
248
91
-88
-3
100
146
6
-6
118
10
99
206
86
-45
47
30
51
170
161
21
19
273
-102
83
84
-37
-69
-1
192
-54
70
-33
42
-476
-17
-2
55
200
-126
-120
-17
28
22
-218
31
44
-32
-160
33
-5
-18
171
-52
146
71
7
-118
-70
28
25
-307
583
197
-40
288
-187
-69
59
-76
160
6
-221
39
-182
112
153
-151
-18
168
-4
87
-118
120
49
49
-146
-142
0
213
-280
68
-50
-220
30
83
143
-211
117
-113
27
-28
-201
-7
49
12
-124
-76
139
160
-11
-356
-159
283
58
156
-268
102
72
145
281
-15
-103
14
112
56
127
144
-2
-180
-250
70
15
-91
-96
71
96
-93
-207
-329
93
83
197
86
168
-14
194
75
109
-120
57
281
91
81
-14
193
-18
-22
-59
-228
69
-71
-56
284
137
-128
19
-161
109
-80
25
-191
115
-191
-17
221
-193
17
466
-88
258
-32
53
-105
92
124
114
-288
-125
244
107
59
170
-78
18
-59
242
-118
205
64
-16
83
110
324
-148
52
-121
-115
242
45
-41
-94
319
91
243
62
38
-47
60
137
-71
-47
76
45
-49
87
-166
-5
-245
-334
22
-323
-82
-51
-123
-74
131
-27
-141
-236
-39
-4
-25
87
-146
228
-6
-70
-15
205
-52
20
104
-111
205
15
224
-187
-78
-42
87
-108
61
-218
74
-133
-308
9
220
-153
24
-18
-137
177
-65
26
269
-166
-80
-5
-14
-47
58
-169
150
105
65
42
-151
158
113
67
15
143
76
-94
72
-41
-158
242
167
-30
-99
292
-183
-59
42
192
-46
24
61
170
113
-98
438
161
-133
-106
-61
-2
-36
-50
-331
-157
127
-152
192
116
-130
136
143
0
-61
9
-170
67
121
-65
-130
88
108
-11
-233
20
199
-84
-199
-51
-108
117
-177
-85
4
188
-152
49
36
43
-25
153
-35
-22
-16
-23
-64
409
-368
-196
-157
