-24
-35
-7
36
10
23
-59
23
21
20
-44
81
-10
-14
15
-6
45
5
-20
33
-80
20
-37
38
7
7
-10
45
17
-5
-33
-20
17
38
0
14
45
-6
34
1
-23
13
-48
-20
9
-8
1
34
-35
-17
24
-26
-1
-20
24
16
17
-9
14
23
-20
-7
22
-9
-17
38
33
-89
49
-21
52
57
51
68
29
-9
0
65
46
-52
98
-34
-13
34
43
3
-9
-123
-6
-15
106
-19
131
-48
80
16
-9
-26
94
74
18
82
81
82
30
1
1
0
-40
-21
-113
12
57
49
43
-14
18
91
-27
-63
50
80
110
-59
-37
-11
-60
1
-22
59
87
94
4
-29
-87
-48
120
-184
97
-99
-10
-16
143
191
24
94
19
-59
-51
35
37
-196
-228
61
-62
11
10
30
95
22
91
-76
-44
47
-5
-140
-28
17
-45
22
26
16
135
126
-31
-132
76
-69
-56
-210
-2
-139
-100
82
1
-27
-85
53
92
-1
-52
-126
246
-351
162
175
157
62
37
257
-86
-23
229
-3
69
95
-151
-23
246
-128
-12
102
224
262
-212
-1
119
-344
288
-110
-46
37
-197
210
142
66
-100
-151
35
13
156
36
119
-236
-32
54
238
298
-254
-137
-66
118
-119
-112
245
-179
105
-183
-73
-137
29
-162
-366
44
-210
-180
70
-1
-3
75
-52
22
38
-39
35
-55
-177
216
-44
5
48
4
-6
-46
46
-21
-90
63
-44
-53
-35
68
22
-15
-37
48
28
-11
-59
-9
-32
-31
-17
48
78
-18
-43
-37
-4
-25
49
178
-281
9
-3
-100
4
-21
8
-19
-62
-10
3
21
-26
-4
-32
-8
-6
6
56
-57
1
-72
27
-41
-50
-15
8
-33
54
-91
-54
-36
26
7
-11
-33
-25
29
5
-17
-45
6
10
-67
-82
16
31
-13
-20
2
28
22
28
52
15
-22
31
11
84
55
-29
60
1
-67
-41
27
24
-11
-23
44
22
-30
-91
4
17
-67
-16
6
-10
61
7
-38
-1
-7
24
-8
7
17
18
-43
1
-34
7
-47
35
-25
58
0
-22
-2
-11
10
32
6
8
32
-25
7
104
-21
7
-24
8
0
-7
20
-5
-22
-19
155
26
-6
-16
-17
-41
-108
17
3
-29
-2
-11
-2
12
-5
7
4
-155
6
13
-18
0
20
24
-16
-24
-29
44
7
37
-27
-6
42
-30
1
5
54
30
33
33
-20
35
-27
-8
-29
187
13
-3
-12
-6
-14
32
-1
-4
-7
-24
-12
6
-31
-110
-6
25
-12
8
-2
-20
7
25
-81
2
-1
83
74
74
-43
24
23
16
42
-7
30
-32
-34
19
-2
5
9
-2
-5
-39
-33
-29
57
103
57
93
-30
6
48
54
5
69
-93
6
12
-47
30
-34
2
-51
40
66
117
135
-64
-24
29
16
-131
-75
44
-65
-9
-67
63
-71
-78
14
-66
0
60
-49
-18
4
0
-45
-32
8
-58
-29
-53
48
9
-13
32
-104
-15
52
-11
21
6
91
37
117
-5
-8
16
5
35
26
20
3
-29
57
40
-9
5
131
15
38
2
55
-21
55
32
29
8
-27
20
75
-23
69
7
-28
3
74
-39
-11
-1
-45
-81
-5
2
66
8
13
-4
-20
-18
-60
-37
113
-66
48
-15
25
41
183
21
-8
28
40
7
-44
-91
-13
18
12
-99
-19
319
-130
68
194
-162
-11
88
153
-26
41
-244
170
-220
-90
-13
-31
-103
199
19
-330
-27
-36
250
119
82
-135
198
68
-352
-113
134
2
-114
112
43
-158
214
510
82
-112
223
178
-108
188
-51
-75
137
101
-98
-231
-205
-111
271
-42
54
-56
-229
2
48
175
-109
-142
134
28
4
21
-41
-22
12
25
-15
-35
14
17
26
-1
50
18
26
-18
26
15
-41
-5
-13
-34
27
19
-42
54
-37
5
31
44
0
-5
-30
-5
-9
-15
-15
-12
-15
-74
39
6
17
-10
56
40
-43
7
24
27
43
8
3
27
11
-27
55
11
-7
1
-43
-13
-5
