102
-62
-8
-2
89
-50
-19
24
81
-32
72
68
33
82
18
34
63
46
6
-35
-19
-4
-76
128
-27
55
11
40
45
-34
-5
3
52
-11
-21
16
-79
-25
93
-70
37
51
-41
6
-148
-113
-45
9
-6
39
20
33
42
-90
51
-79
52
-28
105
-27
-21
80
120
3
-77
-79
70
10
33
29
105
-54
-12
4
-22
-50
40
-28
17
50
-50
28
4
-23
13
28
6
84
-10
-55
-1
7
-102
-40
-89
-53
-8
-62
-20
-12
-15
-5
60
18
-39
-30
-18
7
-29
-46
-112
69
77
23
-1
99
38
15
4
-18
-1
37
59
-65
-20
76
-2
85
37
8
-34
-21
31
-10
12
-28
41
-42
28
31
8
11
39
-105
47
2
-33
-43
2
-12
32
-1
57
-32
-33
-38
41
-19
-44
66
-9
8
6
36
-52
-29
-12
-43
-24
26
-2
-11
39
-38
-90
-26
60
-32
-1
8
8
-41
20
-18
-95
-12
23
-36
27
-10
42
24
16
5
-56
-12
-21
88
19
15
-32
-15
14
-70
-38
-4
-28
74
15
16
20
-20
-12
-23
0
-13
10
-60
68
14
3
-30
38
82
-100
12
33
16
-21
-10
-30
-1
13
-2
-32
42
40
5
62
3
20
27
-45
28
39
25
55
41
-63
-11
28
-61
2
-112
-16
-9
-17
-38
6
-33
24
-15
-28
-13
5
37
27
11
30
60
-11
32
-64
-53
53
16
-27
-18
50
-32
12
44
9
21
17
-9
-26
68
-23
6
29
58
-41
41
-55
31
-36
45
12
-16
-12
2
64
-45
-18
-57
36
-13
46
-56
36
33
10
7
-19
50
54
16
-46
15
-13
22
-46
-36
9
34
40
-12
-11
68
-66
-32
11
14
-57
-80
112
-83
-29
1
26
141
38
-17
25
24
15
-21
84
18
67
-18
55
-8
36
-62
-103
12
62
10
-9
43
49
-54
15
31
-82
-61
21
-33
23
-47
4
16
24
-83
72
43
-32
-54
25
53
26
66
49
55
-10
-162
-34
-19
-81
-103
-41
-21
-1
-97
22
128
42
4
-22
-25
117
5
73
69
16
-30
-65
38
5
79
77
38
-165
45
36
166
-57
-4
-119
-21
118
19
-39
-5
-82
-113
68
-39
9
-145
-19
-36
-69
41
142
-30
43
-45
-73
-49
-92
-58
-123
-44
52
69
49
-26
101
-8
-35
61
-9
52
2
37
18
22
-18
1
-13
80
17
14
44
-40
-15
-28
1
-51
-31
-75
72
88
57
31
67
5
73
-36
11
41
-9
-3
-7
-60
-16
-28
-49
-16
5
-33
-16
74
-85
72
81
22
65
49
20
15
-105
-11
22
49
16
-5
92
-34
-13
-9
-17
-15
23
35
26
25
-18
25
10
20
-15
23
-17
9
9
9
3
1
-24
-39
-30
-1
-29
-22
2
4
-29
-25
5
1
-29
-11
13
-36
23
7
-10
17
-5
-40
4
26
-24
30
8
-46
-2
64
-25
38
-24
-28
10
14
-35
-24
-10
30
6
20
-1
40
78
201
-50
-198
-71
-69
-79
0
49
56
95
46
55
-124
-133
-9
151
-97
96
-72
-83
30
-169
93
17
101
-124
80
94
23
-3
138
4
-36
-6
-42
-60
-44
63
42
-203
-179
151
-82
30
20
6
-403
-55
-1
29
65
-150
89
40
-22
-85
25
7
30
-27
-63
-37
123
33
-72
-2
63
-34
-45
-5
58
-75
-17
71
-47
-43
-59
72
-49
-21
-51
-68
66
-145
36
-64
-30
102
106
-15
-20
-97
-37
-45
-17
-88
-8
29
39
34
-77
83
41
60
43
53
108
-4
87
-63
93
25
67
-31
-78
42
14
88
-16
123
55
-40
105
-37
-57
25
-51
50
-51
27
-70
9
119
-15
-39
-8
-8
-22
113
-53
61
-82
-21
7
12
-11
-104
11
-28
-67
98
-104
5
-45
-18
20
28
28
18
-10
-77
-16
0
-2
-5
23
-83
-112
18
27
-106
-73
1
-80
29
16
27
17
-58
-11
79
98
-33
-105
23
-4
9
-27
-32
-59
-23
