-28
-243
-230
-50
-112
197
-153
-136
-88
-189
-209
-38
255
-165
90
-106
84
-159
60
-311
-226
247
-250
-79
138
-231
-325
-50
179
-179
-2
91
-32
-17
-239
138
69
51
-244
52
-53
142
245
-185
185
-157
36
-22
10
53
223
-74
-115
307
-49
-142
-221
234
0
-88
9
-180
269
-68
-112
12
-5
43
-200
290
10
-66
-11
263
-167
84
6
-184
-192
-307
104
8
-35
117
-221
-30
79
-214
8
30
-158
-27
-438
-59
-194
409
-230
46
212
45
-18
-74
-82
-69
41
514
121
56
264
-118
-300
134
103
49
-36
-28
98
6
24
-345
-31
562
196
-246
-314
234
189
-281
40
128
44
-162
-285
-156
-4
52
-95
-163
27
103
73
3
-197
-2
-229
540
64
-49
120
-217
-14
-42
219
-36
35
161
-74
-80
46
165
-101
34
-89
66
105
-256
-138
-110
639
178
-9
-113
385
-281
-39
159
-19
18
202
-31
-55
-53
90
-265
-49
129
-36
-116
-188
82
90
303
-260
185
-158
-195
-56
-375
-48
190
26
-210
-67
12
5
16
106
-239
-24
-224
-144
225
21
-480
-174
138
97
165
-499
66
-137
-152
-67
-93
31
-423
-78
219
-113
-6
-179
-118
-185
-28
-70
-32
23
208
-65
411
-150
-166
226
30
-16
170
-36
133
283
353
139
-442
-133
-32
-351
297
134
158
75
-35
218
44
29
61
-431
161
-70
-216
4
-71
-194
109
205
10
-18
-115
114
251
109
155
-102
-145
-89
95
102
-153
-124
-98
-37
-27
-287
-298
308
175
-65
-172
-12
-51
-82
-17
-10
245
73
-175
-394
115
144
-5
3366
22
19
-263
88
40
-108
44
-175
-184
183
-827
-128
-257
-224
157
3
-209
-250
148
-89
-27
102
-610
-47
-241
214
28
-61
51
-65
56
-118
-153
-345
-36
-123
45
12
184
-33
61
258
28
-54
-123
2
181
33
-64
108
-219
-40
-69
17
-264
18
0
-22
-187
-27
-355
218
165
-55
78
-93
-12
-81
195
193
-18
81
432
-64
247
-95
144
263
-116
17
19
-135
-166
-16
-202
-152
8
241
161
-135
145
195
-216
-8
-39
132
196
14
7
-26
119
12
181
73
106
113
-144
65
188
133
-186
78
461
-80
168
86
-124
52
-124
264
-274
87
124
99
-323
-120
25
166
398
-17
-44
65
-66
-261
101
-14
16
130
70
296
189
-40
167
-124
116
-60
-51
77
31
32
57
26
624
8
-120
206
-330
-59
57
-114
143
12
-260
90
119
144
257
-22
31
309
108
-25
-109
163
10
190
-203
-210
-136
347
-8
50
85
-104
7
84
-21
-326
65
63
-124
-16
-14
-18
-20
112
-136
-5
74
178
-166
-6
-72
120
-66
254
-331
151
-85
120
251
-22
-124
-41
77
9
22
-51
-112
-73
-173
47
77
-38
-160
8
84
20
-119
-71
162
-35
-37
144
35
-90
326
212
-76
-302
-16
100
175
3
53
132
33
-125
-136
-76
-83
15
91
253
180
42
-24
-117
263
-49
76
25
29
-112
18
168
-163
64
81
-101
241
240
-68
-94
87
253
76
-271
-73
175
151
-88
28
-42
63
51
301
-96
142
8
-168
-101
48
57
146
18
-243
-39
254
-95
129
-159
496
39
98
291
101
234
-70
82
-93
-57
-32
177
37
217
-82
-148
170
-81
-99
-411
-64
75
-383
-58
-147
-129
-41
-351
55
56
-241
14
-190
244
-32
-80
17
249
-34
-18
-73
-52
109
234
20
-30
-53
33
103
-243
44
-124
154
-173
64
-82
-35
-142
3
-456
-49
125
34
2
60
-346
-173
-65
-51
-74
87
-325
-57
143
35
-160
3
17
66
66
-73
-170
36
177
-142
200
-246
292
-66
-43
23
111
-223
-28
-129
-60
17
-1
-48
458
-171
-69
185
53
-78
-81
40
22
-220
283
-79
-18
77
130
116
77
112
248
-170
-36
24
-215
-89
-154
245
-115
89
107
55
36
-120
-1
51
-96
-237
-70
-193
-41
3
54
140
122
-108
234
-320
294
-38
117
-176
7
14
31
80
153
-152
-55
-114
