114
232
54
81
32
-131
-272
4
77
-240
23
351
243
-450
104
386
177
-121
72
-132
-447
-86
-174
48
20
-36
105
273
222
435
257
-212
98
89
104
166
136
231
-89
191
-237
18
197
134
94
43
29
-121
63
-33
109
50
56
180
452
-74
-487
-103
-147
-154
271
51
-568
-161
-276
-187
82
-215
-444
100
210
-31
-124
-617
-185
-266
155
-198
152
-279
53
294
-287
-65
-208
-221
427
-568
-185
-127
-107
-119
-428
296
-4
169
-339
429
208
-172
-151
-276
-324
376
185
-1184
-221
-141
219
-563
83
40
287
339
103
25
-241
-46
129
-60
-273
-353
-173
361
348
6
113
-264
625
542
0
63
-158
44
-45
-47
-175
-561
170
-205
-95
-191
-244
406
-392
54
-52
224
-242
145
-64
387
-176
117
435
209
-84
-206
331
-43
82
-145
574
-56
-65
-258
-14
-214
977
-84
377
7
-123
-28
85
119
-314
-99
17
106
80
9
-161
11
-254
377
179
-184
-279
72
-381
132
193
40
-110
147
-262
-366
-395
136
406
-112
-786
88
133
-43
-359
190
-42
158
-54
70
-454
-174
-133
-395
-225
170
-1129
16
7
54
-101
118
150
-771
-441
122
-34
-245
-41
-184
231
-75
178
128
-494
-312
-36
-78
-580
280
198
58
-83
-789
296
228
324
251
129
145
118
-91
-148
5
206
158
88
93
-160
227
27
126
-528
26
-289
135
-267
-13
-22
345
21
292
55
-333
-256
-169
236
184
-578
120
-85
14
145
140
61
-54
89
-40
108
-222
381
-121
75
-106
-636
23
179
-144
-8
197
370
380
-144
56
77
-210
-825
181
293
97
66
113
-240
624
-164
-2
44
51
-224
364
139
-14
-342
-288
66
-58
-285
52
87
-1051
334
-228
79
-161
-302
22
0
-105
-213
56
-160
-112
-514
-607
-7
-222
-14
-367
152
-12
-43
-638
77
-108
-117
15
22
130
-425
230
-122
-185
-134
-112
-457
226
-164
408
-443
17
103
-29
-178
10
-53
107
274
22
160
-106
14
-94
-15
95
68
68
-208
104
107
267
58
-236
-97
30
-260
6
47
-215
349
300
-221
-197
71
-56
-248
134
-209
108
36
1
-34
207
-2
-162
111
512
-45
-274
362
424
-120
105
198
113
-351
-9
97
34
371
267
-168
-123
71
-368
277
171
144
-169
510
33
90
6
162
-50
-181
-199
475
-70
-248
150
96
0
56
-61
207
202
-14
265
621
112
-163
19
-104
106
234
9
-376
107
86
29
-63
24
207
132
-306
-249
16
89
127
-304
-455
-262
-189
238
-387
175
236
46
149
121
-964
-179
-248
-170
-266
-116
127
-107
213
154
-5
-170
617
-95
334
156
-224
-96
-65
102
170
-197
-138
-29
-118
-193
289
-2
212
75
47
417
-355
145
-193
17
-156
458
225
498
-38
-348
-256
134
-111
206
-35
-382
36
-428
41
-97
326
86
222
241
312
-170
-135
273
11
121
-232
46
-311
245
-175
9
0
-367
133
199
221
-365
257
199
73
-137
442
147
12
249
88
49
-11
-785
79
223
111
356
-103
-171
185
-53
-256
166
-40
259
247
138
-84
150
-239
-58
9
192
297
-170
-156
-66
197
352
293
158
-188
398
-43
76
-15
347
36
-1
-416
-136
-14
-216
-115
-235
107
132
53
330
-351
221
176
-330
209
376
77
-349
384
-30
-199
157
-1
78
-408
195
29
35
-85
-456
152
168
329
-332
291
-142
98
31
-224
257
-718
-69
427
-187
63
303
-71
-224
-108
-197
-166
215
95
73
13
190
-317
-98
-71
108
190
-23
218
139
-108
194
-268
226
123
286
214
412
-180
-314
-225
1
-223
164
201
125
254
-279
258
89
-34
-243
-85
-19
-76
-40
-131
61
-40
-131
67
255
186
220
234
20
121
317
193
-214
76
-149
61
130
30
-60
41
56
-35
-385
675
-7
-153
-51
53
-66
68
-230
-168
260
-106
-57
515
-61
12
159
83
-355
-381
-269
-26
188
101
-140
-319
362
-302
-366
104
278
183
79
-209
236
-87
-212
-146
-396
-2
61
