402
3
-52
-1088
927
-1213
1013
485
-115
-288
-127
1278
-1090
849
-302
-37
-556
-524
-257
1669
1583
-1167
608
905
-235
1153
679
-455
-1009
215
-257
716
647
-529
84
-543
-996
1035
795
-972
-175
-870
-106
910
-121
-421
-720
-575
424
-240
-1233
-27
998
-1199
351
-183
247
-1304
683
-359
-482
-119
-1266
-1133
2
613
67
-231
0
-694
-1041
315
-920
-533
821
378
-60
677
398
554
-13
-128
677
725
183
-121
-1036
524
143
356
-353
-109
2651
-536
500
-279
1269
-715
-242
-207
630
710
193
-432
508
-40
-611
-608
409
189
114
208
-1059
-987
-321
-44
-166
116
-390
696
-372
-1943
-637
-85
73
-676
-323
494
58
-59
148
508
-761
-214
-563
-917
-128
404
-740
-884
-119
153
-351
375
-71
-2951
-39
-12
-327
1435
-37
586
-665
413
478
-248
768
1337
425
-219
-62
-260
-504
203
-137
704
431
-940
-3695
-228
-373
368
-45
1758
269
1125
-172
-58
-113
689
-467
193
-342
991
752
-278
908
627
540
122
-151
-1471
829
-188
245
380
-277
768
-285
-580
-686
683
367
256
-400
495
355
72
472
-307
0
-609
614
898
-256
-421
-867
-278
1412
-705
-29
601
-3
67
0
1360
776
-523
525
-147
731
107
679
-65
-31
686
-24
48
-316
-811
-119
293
-571
-45
104
-675
-793
400
-761
-2068
157
1080
-368
-268
-98
-656
-1111
-629
214
278
517
-531
836
481
795
-96
-225
287
475
-11
21
99
9
131
-870
401
-720
-908
-390
-733
608
122
28
-756
-1227
-110
513
1158
404
37
120
-309
-478
-251
735
152
-186
1355
120
-39
-703
-87
-392
555
1250
748
-1346
-498
-6192
-124
-238
1056
192
-224
123
101
133
167
-358
832
-488
0
560
-892
-36
794
150
-284
-211
214
-333
-294
321
1036
-651
232
-260
-607
13
126
-324
326
601
-170
-59
1134
-37
-792
-696
-1091
-452
990
-235
841
-171
-457
-274
357
-513
494
407
-417
187
345
217
-629
-195
409
-572
-742
-406
14
321
336
-964
-225
-245
-450
-911
-208
-292
-3569
596
-1363
58
-190
-699
708
-432
-425
305
117
578
-220
423
-186
-528
-1114
164
-328
-251
-276
93
-1041
-29
-1444
464
67
278
-604
-599
-828
25
376
-17
345
-132
105
79
103
-292
-954
840
-187
-1204
402
-244
-450
-909
736
93
-669
-703
415
91
863
-1081
-873
-392
-619
30
-61
121
-358
90
-385
-957
486
-49
-1189
-232
7
833
-1056
134
-278
-107
464
-359
-687
224
-1299
318
952
425
-297
-1001
-151
455
149
-135
-834
-208
-462
-279
-191
-72
148
-475
-302
610
1057
-443
-71
-59
176
284
375
-1155
-12
21
111
850
92
-319
-73
-287
257
-119
308
39
178
72
-187
-434
-85
-543
220
-440
-160
-210
-354
68
-85
-1012
769
-390
-89
-1047
265
-564
755
445
-485
-779
-454
422
11
302
355
-852
-418
-77
-187
-52
-195
-164
477
-65
-1260
118
-688
-407
41
-328
-2491
-439
-379
731
803
17
-800
600
410
565
-765
431
152
472
-161
-713
-383
-840
-276
-376
194
262
-614
132
-388
104
-28
368
177
-396
62
-505
-644
732
-340
-677
-35
603
-156
-122
186
1591
-256
-460
-189
506
-225
221
23
496
-16
394
458
626
139
285
334
-816
59
435
308
122
557
2
-438
-7
-310
-188
-199
-376
222
-481
-18
-310
371
608
-314
95
242
-251
798
1288
-989
144
200
587
997
-406
1021
383
136
303
236
405
713
-721
439
192
-141
-398
-517
493
-314
-440
685
-205
422
430
615
-1248
-289
-119
-142
-52
-401
282
-167
120
-716
108
-302
48
81
517
104
-19
200
-502
-474
163
-613
877
405
783
-427
57
-377
1006
-401
-421
-573
730
-329
-473
252
-33
687
415
501
-614
829
-828
-431
-169
-540
344
-132
-331
341
117
435
915
583
336
509
-994
332
424
360
-879
391
157
472
169
247
-414
-369
-254
-334
382
-126
-58
-71
-458
140
-344
812
350
369
803
279
905
347
-243
-49
-299
146
405
-606
-109
708
-430
-238
489
-246
190
-851
-146
210
-563
349
-1635
732
-8
307
521
549
165
-697
-515
127
-308
172
