-29
-25
-13
-4
2
49
-9
12
35
-61
-34
-75
0
6
1
-9
-10
-30
-39
-14
-26
10
-12
-12
-12
6
-34
-6
-10
-1
-51
-17
-42
24
-5
20
22
-24
7
24
4
4
59
-2
47
-1
9
5
22
11
-19
-23
-8
9
-20
-18
5
-49
-16
-26
-23
-5
10
40
0
39
-1
-46
-132
-3
-58
-1
21
32
-118
23
14
-78
52
2
-27
-68
-15
-19
-5
12
-35
22
-43
-30
46
2
9
-1
-8
3
58
22
1
-56
35
-36
18
1
24
77
83
34
-85
8
-4
30
-3
-72
-26
-77
-69
50
-25
-16
-30
35
-38
-48
2
17
4
-24
65
-20
-61
34
-76
69
-40
-28
-3
10
56
-24
-13
-47
1
5
-28
61
-4
45
37
18
27
39
-9
-11
9
-5
86
-16
2
-62
-23
-31
31
-34
8
-12
-48
60
46
-42
15
38
10
-17
16
36
25
4
-59
7
26
20
44
5
-65
-45
11
42
-33
41
-6
-42
36
-53
2
-68
-8
1
-7
-63
7
-79
-8
-22
109
-25
26
-12
47
-5
-24
-29
3
9
-7
15
-51
-11
-89
-11
21
-47
6
-40
-28
8
29
1
104
-22
-21
14
-25
37
11
3
126
-7
-4
-45
6
-23
-23
-26
-1
-35
21
-24
112
25
8
-12
103
-12
21
17
-25
21
-1
0
-54
91
26
2
-43
-17
-5
-62
-22
-6
-42
28
54
-32
68
13
4
43
-79
-50
-55
1
-55
-51
16
21
40
-77
-16
-17
-40
21
-49
46
7
8
-10
9
-4
34
-24
-59
-70
7
-19
-20
-52
-46
4
60
25
-24
6
35
11
5
70
7
-47
-78
-17
-26
12
-12
-11
8
3
44
-14
71
-26
55
45
-16
54
80
-14
-51
-112
-16
49
-83
-49
-9
-23
-5
-11
65
10
-12
29
46
10
30
-18
13
-82
77
-32
-102
-84
74
-68
14
71
73
-13
-29
-49
98
-12
94
32
37
-62
-6
-34
-67
24
13
-73
-31
59
47
-7
72
42
9
23
-23
26
28
-16
-45
-3
-2
-58
23
9
-32
14
-21
39
41
-29
19
-4
-34
-9
-12
21
46
-6
38
10
-6
-33
5
55
9
-71
-37
12
-3
15
32
65
-22
15
-79
16
-52
17
-7
15
-25
19
-30
-23
-9
26
-31
36
-5
21
6
52
17
39
1
8
-6
81
-11
0
9
-24
17
-24
38
-1
-37
14
50
6
1
-22
34
-6
-33
-44
-15
-14
-45
1
-10
-16
-19
-16
19
11
-3
3
-28
24
-4
-7
-24
52
-9
18
7
-22
19
-17
71
-41
-29
-20
30
46
-17
8
-4
-29
1
-33
10
-26
-51
-15
40
-13
-3
-40
81
-64
-40
-24
41
7
-28
-22
-6
52
-39
-17
28
-32
62
-3
-50
15
9
47
17
1
54
18
28
-17
12
-29
53
-36
4
22
-23
6
-19
93
-40
38
22
-9
-24
12
77
12
12
36
15
37
18
-57
-7
59
-67
-27
-24
-116
3
-10
-17
23
-12
36
32
-24
638
-49
58
-62
-9
-34
-41
-12
40
-46
18
-66
-21
-16
52
20
-1
84
-8
85
-10
-5
-18
-13
-100
68
-36
-68
56
52
-37
54
40
12
-53
-40
-128
-16
209
-3
-22
-63
50
-11
165
7
-121
-40
2
105
-36
-13
-12
-1
3
-5
10
8
37
90
-15
125
7
67
-119
104
117
16
19
-153
6
-127
13
-99
107
-72
195
99
14
586
34
-14
37
97
-39
-59
33
35
49
-67
26
104
42
-57
53
57
26
-88
-16
72
-124
43
72
-3
-79
108
-127
66
-420
-52
-3
24
120
15
55
87
-27
184
8
-58
-78
-28
-85
-158
37
97
77
-11
13
-27
-28
-18
32
3
-158
22
40
-19
-55
19
67
-1
49
-19
-2
57
1
-4
87
120
24
10
39
73
-41
34
35
-86
-12
-62
-40
38
45
-52
-25
86
-79
-35
-50
38
2
-24
-41
15
-71
-90
56
-24
51
67
-56
-27
82
-3
19
118
51
-5
-28
