-59
32
1
-93
15
-35
-40
8
-6
-13
-19
-83
11
-63
24
-58
-68
82
-35
63
16
-37
12
20
-126
79
-37
-3
-6
-4
-42
19
-13
-28
-28
15
-62
41
-62
-88
94
-15
26
45
-41
4
19
-2
6
-10
-57
-18
-8
12
-59
-30
-19
-2
25
-16
43
-120
79
-27
-5
-10
-118
-21
-30
4
40
65
-5
54
1
-10
-66
5
-102
53
-85
115
5
-62
-22
46
-22
54
-60
-43
4
46
36
71
111
39
78
-16
2
-15
-99
-18
-74
-12
93
74
55
-71
4
-30
-20
20
-41
39
45
-17
11
-19
-22
69
26
62
-7
38
0
65
-18
-57
11
-104
-48
39
33
-62
-15
-168
113
2
137
107
36
-7
77
2
-161
-112
-144
32
-129
181
143
-1
65
28
-68
-26
86
-377
-62
190
383
112
162
-4
-50
42
-128
88
46
10
-185
41
-81
-43
184
-9
150
-4
14
3
-148
-88
179
-90
-150
-118
-7
31
75
-74
42
-31
86
-65
60
-52
-28
-76
26
-61
-73
-65
90
59
-85
73
109
-101
-48
52
-35
98
-114
93
-104
4
31
105
-66
-95
112
-22
-88
-34
127
6
7
2
114
25
7
118
215
143
-6
31
-65
4
21
14
141
-95
66
-4
135
-15
54
14
-166
-90
-120
-20
-94
-76
-13
-85
45
-18
53
-254
-144
-129
76
42
-400
-24
81
69
-4
85
1
-96
-486
1
28
-30
1
-49
-132
-7
26
13
-73
239
-68
-33
-30
184
74
184
155
-14
21
-71
-24
38
34
-290
-6
-117
0
-18
-18
-33
122
-86
-18
-14
-120
59
50
21
-95
97
182
198
15
-1
31
-11
-73
10
42
45
10
20
-18
42
-25
-32
23
-22
34
12
-31
9
-5
17
-39
-34
-7
-14
19
16
-3
14
38
-40
14
9
-6
-10
-51
6
-6
28
-35
11
-25
-10
-50
25
3
-23
22
-63
32
-24
-1
9
-27
23
-13
18
-29
-24
30
-29
44
-10
37
6
41
-9
-17
12
176
-78
16
-70
28
6
33
4
50
52
-49
120
-13
-57
-132
-201
137
58
122
-139
6
-37
52
109
-31
27
-30
-197
58
-49
143
-52
71
123
-17
17
33
-17
-8
7
132
85
-20
-45
120
-48
-135
-35
-117
-52
-75
76
0
23
-9
-8
23
-176
-65
-6
-42
-184
11
-37
-67
-29
19
-212
89
-59
31
-174
-157
20
-239
17
50
176
-137
-127
97
-48
-46
41
69
-29
41
46
166
44
73
101
129
92
60
-125
-163
-93
-101
86
3
-8
15
-23
-11
-142
-66
-82
-70
28
89
65
36
-143
-150
-129
76
-348
52
-78
35
-92
-79
114
-22
110
-15
76
-33
17
-33
20
19
-33
-33
57
35
13
-120
-23
-3
-46
-20
-62
43
53
9
-41
-113
-65
14
66
5
-68
114
-54
-46
32
-1
-57
0
-41
-123
-71
-46
-11
-83
-23
-12
-1
34
-2
-14
-29
8
2
-1
-77
58
47
122
-29
-125
-138
61
-31
-39
45
4
7
77
-27
39
69
13
78
-18
3
-6
-75
-3
6
-19
-53
128
-96
50
-157
42
-86
93
8
68
223
-101
-127
-119
-73
-219
62
-62
86
-21
90
87
105
4
-105
-15
-94
-77
13
-42
-106
-174
-123
147
-33
-64
-13
62
-88
79
-20
-108
-153
30
-93
-116
123
-44
-15
150
-41
127
49
156
-32
35
-51
48
-4
-117
26
-192
13
-74
76
33
-33
30
-40
28
-67
53
25
9
-99
6
-65
-52
57
54
91
38
36
-4
52
45
71
17
-111
-3
-11
-15
15
-4
10
-34
-21
-73
16
9
-18
-78
92
78
62
-132
48
10
-80
-21
-33
-130
-29
-13
6
-174
-100
44
183
-102
-124
-8
-29
150
48
65
133
26
-10
59
-249
-133
71
-94
73
-30
145
112
33
-57
31
-51
97
11
-75
-31
-70
64
-113
-118
-72
78
15
-36
193
114
-8
-120
-57
-13
145
242
19
12
40
-240
-98
59
74
34
82
-140
-326
-4
40
57
24
179
-90
