346
580
-350
-769
862
-998
1123
679
134
449
-87
984
-747
1240
-23
-61
-461
-1191
-226
2120
856
-1509
818
411
-719
920
488
-735
-818
401
-156
159
848
-811
491
-307
-580
287
514
-1302
100
-746
-67
480
-435
-812
-250
-291
388
-60
-1699
345
1730
-1803
450
-1308
-305
-1318
173
-1049
-383
-60
-2024
-1745
-295
252
-230
-190
92
-381
-254
149
-1507
-1245
919
529
132
948
176
106
41
203
218
332
247
58
-764
569
133
365
-129
-364
2220
-579
363
-195
1100
-807
88
-132
-146
625
-168
-305
527
166
-1197
142
455
3
54
79
-1954
-1053
-211
-89
378
501
97
428
-922
-5225
-628
431
293
-331
-470
323
508
15
-81
740
-328
190
-219
-693
-932
-728
-1044
-1700
-213
-18
60
74
26
-3965
-291
-462
310
353
451
326
-521
338
192
296
1129
1061
737
191
-45
14
-214
266
63
277
3
-1228
-3989
32
-307
401
167
1460
675
1921
-149
215
153
59
-218
-220
305
971
503
366
1213
972
443
-341
-819
-1092
1507
-308
-342
231
-304
323
-118
-88
-498
892
302
1141
100
300
775
-221
30
-114
413
-484
785
290
-214
-500
-1665
-205
668
102
-279
1082
782
-799
438
72
-87
-40
-158
-47
723
-167
915
-185
238
573
170
109
-193
-226
-714
192
175
302
359
-664
-843
-85
-119
-1464
520
1117
-257
-352
-261
-617
-696
-821
-4
21
690
-342
882
371
1222
513
-153
264
438
56
411
39
-160
-412
-826
-153
-153
-824
-509
-244
272
432
-40
-496
-576
-335
447
910
1013
162
218
55
-605
-71
544
-42
-1331
1824
-286
-494
301
-799
-238
506
1089
870
-573
-641
-10084
-521
54
990
-315
-466
80
-163
321
209
-254
1121
-218
-259
18
-293
84
575
119
-72
-271
152
-924
-1631
-366
755
-221
-179
-30
-123
419
1163
-486
761
-297
258
-1068
1339
202
-896
-276
-1588
-345
1114
-271
-320
-236
-827
-527
-325
-612
-51
612
-392
-408
207
-296
-364
-317
-69
6
229
-974
193
437
368
-1097
-78
-45
-360
-164
-54
-237
-1632
650
-1295
111
-164
-1106
538
77
-592
-560
-253
847
-118
327
226
-451
-546
71
110
58
66
-316
-710
379
-845
498
-114
86
-224
-963
-391
366
555
-213
-485
241
526
231
121
-403
-997
667
-267
-443
107
39
-85
-350
0
566
35
-295
-251
259
838
-900
-324
-497
-992
503
-79
-371
-1802
210
311
-989
65
196
-659
-561
357
1015
-932
497
77
-7
280
-394
-557
549
-265
58
1063
652
-1081
-1252
447
99
351
208
-274
-290
-86
9
246
-796
-160
-649
-483
-396
485
5
-216
56
425
83
1185
-1074
-194
82
-544
599
-347
-1129
-955
-2888
-51
-308
116
-265
285
135
238
619
-610
397
-324
-982
350
190
-467
931
305
-983
816
-855
-434
-1112
-127
-13
442
282
-388
-1037
-457
164
61
45
-329
-318
3
481
-655
-110
-776
-681
467
381
-1316
655
-3293
-703
806
108
-2758
-911
-1013
976
621
-177
-613
166
531
417
-163
-166
1019
539
-554
-441
-1235
-747
-288
-130
-140
4
-300
-175
-237
944
325
-114
-369
-155
-104
-73
-1073
98
-32
-516
-704
927
-273
110
75
1694
204
-189
-262
329
-143
114
-265
362
-171
362
-186
525
-100
565
611
-622
203
-7
1196
134
1289
100
-239
-140
240
-202
-205
-532
70
250
-298
454
722
548
-458
-100
26
-304
362
1174
-883
-161
294
176
280
-843
667
361
-305
178
436
-250
1402
-898
179
542
-478
-236
235
842
-440
-159
630
112
176
-212
379
-3349
-299
-885
-421
-51
355
476
-583
384
-263
-10
-438
-177
-700
60
75
-1003
570
-52
-571
73
-421
1906
802
594
-446
-12
-160
1183
-330
-47
-501
434
-777
-556
243
573
502
235
450
-434
1249
-757
-397
-238
-754
473
-436
-1235
672
-335
31
817
86
527
91
-109
993
-449
291
-850
755
-422
211
85
-308
-694
-529
120
81
729
46
-211
-218
-724
403
-421
809
175
467
940
56
410
-32
-872
48
147
-87
729
-139
375
594
-373
-294
221
-140
431
-1092
-797
1231
-453
251
-1847
482
218
76
48
622
-127
-815
-276
98
44
35
