101
207
-283
-38
39
-213
-143
-259
105
-135
80
-79
236
-200
-230
-50
-122
3
-268
177
-270
42
-187
43
143
-151
-463
-286
747
-108
-18
125
-269
-35
65
161
114
11
79
273
-69
-57
382
39
164
-146
105
-199
276
83
431
-4
-443
242
64
-147
228
-307
-228
124
-295
264
-326
-137
82
-48
-160
207
-160
89
290
-84
-172
464
-344
371
-262
-254
-116
-363
-316
61
-8
-130
150
392
-348
431
61
-187
315
-122
-631
-87
-23
193
23
-10
-180
-70
309
-170
113
318
391
-126
-481
88
172
211
-152
47
-32
172
249
-237
-155
-28
-220
122
-241
-240
88
-471
-125
187
-65
-383
14
-91
41
-450
-242
116
-156
-144
-97
-381
-109
215
521
-58
-118
99
-91
98
245
338
-286
-105
119
-100
49
-84
132
-352
-236
101
-67
-203
-149
65
369
90
190
182
-246
-196
-511
14
75
270
56
-67
-46
345
-186
-303
-144
117
580
-122
-280
-70
-99
100
-369
-27
-30
4
293
69
-447
68
238
-139
123
-172
-127
-309
126
-389
-26
290
340
15
113
-103
-244
224
155
504
-321
-53
-359
328
133
224
105
275
31
-199
-310
272
196
-345
113
184
-113
25
197
-15
-385
152
-134
227
-191
-24
-136
148
-20
-237
636
-416
324
248
-222
-102
33
-88
111
-657
12
-315
-333
337
191
320
-139
-233
-47
-302
72
140
-481
266
261
-158
-239
-193
-317
-72
-174
37
-51
-22
131
107
-105
-248
101
-313
-138
604
125
186
-381
276
154
-294
-153
-299
264
12
4
-71
189
-48
17
-168
-72
-32
232
-27
-664
347
192
-6
2642
-183
47
-148
-27
-219
-86
-105
-153
-324
405
-368
159
19
229
168
-94
262
-614
-6
70
-258
407
-209
315
-346
627
213
358
-67
-340
-254
-124
128
-462
-97
-12
-11
-132
-31
134
-26
257
164
-153
114
-60
13
-61
1
293
-145
-254
45
-163
173
-145
70
278
-83
-241
24
303
-160
131
101
19
3
-21
10
308
-267
-146
904
404
315
-118
140
349
244
324
13
29
2
-179
302
104
-353
556
98
-61
151
-204
243
-558
-165
-4
258
107
-132
31
211
158
134
165
1
-4
224
-322
-216
181
4
-8
228
-147
483
-54
3
35
89
170
-4
-263
98
227
-474
164
100
-223
174
-111
-95
-165
-9
-174
10
81
145
137
437
-35
123
-307
54
-274
-55
80
-178
178
97
262
-30
-305
307
195
-265
-127
-358
-420
-76
107
578
112
285
-22
-172
497
98
-39
36
2
-162
130
437
29
151
125
-99
-228
234
-157
-412
19
-173
67
4
392
-5
462
-165
-433
69
28
-194
41
341
454
-168
190
331
459
-189
554
-238
114
62
78
-184
208
20
189
376
-291
62
286
99
44
45
-96
216
-341
-226
85
-183
-322
-426
251
-5
-410
-24
-502
301
-5
-90
217
163
302
-414
-22
30
-414
38
228
21
285
-80
116
10
162
-159
-2
195
118
-72
-58
90
-271
56
-165
-407
-126
266
203
-145
-464
262
463
395
-81
556
-234
225
168
-132
-588
13
113
-269
-339
157
195
-540
-85
-129
-32
469
82
-148
17
-50
-95
131
-412
116
-42
-136
-67
-88
213
240
107
-368
9
143
387
441
298
85
284
341
-95
140
-457
-66
5
39
236
-138
-320
194
-336
162
-336
231
-54
-90
-59
7
171
-26
-308
-121
-104
-97
397
218
-2
500
41
74
153
-183
21
-203
20
32
-57
349
-59
92
-98
161
-75
-255
-360
-11
-147
-26
168
1
-304
-446
-406
-298
80
-133
-105
249
-278
-171
191
-72
18
170
-333
102
-109
-53
-92
-275
30
160
84
169
208
92
2
-219
-9
-19
99
-50
-192
-34
336
0
-445
-27
342
46
-223
-224
121
162
82
326
177
-96
465
-136
-155
-84
-244
-180
-202
379
-185
80
336
226
164
95
-237
-147
90
-172
-143
149
134
-520
161
-273
44
-146
175
340
-346
-223
-365
-174
100
-119
-88
8
427
-262
-35
202
402
-145
176
206
-129
97
-362
26
470
-273
-249
-276
