21
-65
113
-50
82
-176
-65
35
-54
50
107
215
212
-133
-75
125
130
-49
-11
-10
-4
68
-66
79
7
20
-15
95
52
227
77
124
50
42
-28
79
-208
87
-10
-36
-163
-93
154
130
-28
160
-1
-109
106
-122
71
55
1
53
212
-83
35
-48
-60
79
32
133
-172
-155
-167
-70
11
-64
-112
177
98
-34
14
-5
-50
-16
-8
-551
128
-49
118
241
25
100
155
-180
131
-160
-44
-155
-125
-121
240
87
132
200
-280
257
113
0
6
21
-174
22
-44
-572
7
-258
154
-71
120
110
-7
74
189
62
2
58
109
-121
-88
-577
77
105
199
-2
-252
169
151
247
-148
-39
-132
-48
-59
-104
-205
-190
123
-268
-44
-23
-83
123
-4
-779
-117
27
-177
171
-13
183
68
46
-29
-145
69
-33
181
528
-28
7
164
-72
123
92
-138
-41
423
103
-14
-119
6
-22
33
604
-171
88
32
188
-10
-81
-10
36
-96
83
107
75
-17
22
-85
178
180
64
-251
-6
-112
-68
-94
137
132
108
-284
33
144
-67
-81
-25
18
-86
58
119
-162
-33
-123
-343
-452
17
-343
-72
-199
-8
-20
-129
66
-519
-202
-163
-69
-120
8
-4
155
-3
135
78
-87
-151
65
-73
-17
151
-12
-58
-112
-519
-83
190
-9
-65
-45
161
69
132
76
200
-86
108
171
77
49
183
118
136
-202
50
22
192
-225
108
-249
93
76
100
29
10
-159
-125
14
81
-170
15
-93
-281
31
22
126
-91
-242
68
-4
-54
14
-33
131
-228
-191
108
40
-22
-43
15
95
32
-115
49
-252
-21
-1260
-36
-54
158
19
-47
-127
167
42
79
-65
-93
55
-22
59
-43
48
-83
-11
-39
-146
20
85
-280
256
-108
42
-104
-115
107
104
-16
-37
-98
-145
-76
70
-159
-87
-44
17
-116
71
17
37
-176
-93
-204
13
-72
-31
24
-147
-44
-147
75
-76
-67
-68
-38
18
378
-136
-61
-51
-3
-121
-54
-58
-9
246
-13
-17
-121
90
28
-25
-46
12
-49
-162
52
68
-74
101
-69
23
-149
-95
75
113
-86
109
408
97
-77
-79
-25
59
-76
-63
-4
250
54
-95
240
-35
-240
51
269
18
216
-23
0
-29
33
80
87
126
-112
-95
123
160
39
-149
31
51
-102
13
-288
72
-187
172
-88
27
-272
46
46
-129
20
115
-47
-196
89
-7
-20
-119
-14
8
13
-188
-77
184
-260
-41
118
48
119
21
-94
-346
219
-38
1
-143
-69
-22
177
-282
-127
104
-55
35
-173
240
-97
115
52
-77
36
22
-128
-72
-49
-229
-86
-86
-76
-154
-41
41
-68
18
48
77
189
254
-29
174
25
-54
-55
-226
-23
-7
94
15
118
-90
-155
87
-7
74
125
72
71
-171
102
12
81
60
216
-35
44
-66
-123
127
47
13
267
-15
-176
116
-714
-15
-116
171
20
15
-110
94
142
-73
93
-25
-26
32
-99
118
-9
-42
-45
-28
-124
48
85
-70
-43
36
-5
-35
-16
89
56
-43
-119
171
-12
-120
-625
90
136
70
16
228
40
63
10
46
-94
-116
34
95
150
63
247
31
106
11
168
180
1
-167
74
-130
256
30
177
17
154
-75
-59
-57
70
53
-7
-213
78
-82
-116
-135
-118
90
93
-8
183
-129
174
45
14
123
96
14
-20
81
-102
-153
216
-18
118
-197
55
-28
-59
16
-263
6
67
180
-182
106
82
56
216
-192
260
-509
-76
146
50
-14
67
50
20
-16
-197
73
-48
-60
-1
78
28
-494
-174
-88
-7
127
-82
243
152
-31
32
-112
96
185
166
-50
324
-154
-150
-72
27
-112
34
118
-57
-15
-32
110
-31
76
-138
69
48
-11
259
-159
53
22
101
-47
-12
38
202
43
-6
-10
109
58
-44
52
-17
-15
48
30
-68
34
-134
22
-2
131
-36
-77
84
3
21
219
-76
12
140
-94
-41
137
120
49
211
15
-45
-239
18
-114
-66
52
67
-58
70
-38
-82
75
65
-84
29
-29
1
-84
-138
-140
-151
75
-116
