0
-3
225
32
-10
17
-51
-28
-24
-46
-2
-47
-27
9
-10
-69
180
-26
-20
189
29
-33
20
-165
8
30
68
-76
-34
-1
121
16
31
13
-1
-7
-12
149
54
38
9
-27
45
67
65
-32
38
37
-15
-48
-15
-7
11
-5
36
15
26
-7
-30
-14
-15
18
19
-16
20
72
-13
32
-19
-21
64
-241
-145
134
-14
14
-21
-119
-22
18
-58
-166
221
-108
-279
283
23
89
144
-36
110
426
-61
-91
-147
140
122
35
61
21
-79
7
-18
-116
-14
-19
-219
135
283
-64
-31
-55
3
51
-87
-94
4
-80
21
-81
96
-9
-201
-33
143
-100
-2
-114
-57
56
35
20
-32
-75
-34
119
-74
90
16
30
-41
-72
16
43
10
8
93
33
3
32
-42
74
-34
70
92
-100
40
2
-98
80
-39
39
35
252
-356
47
-24
-24
2
-72
34
6
-9
101
51
72
-60
1
49
-16
-98
80
-427
101
173
55
49
-55
-10
33
9
-32
31
15
67
-23
-8
103
57
5
122
43
-220
34
-62
64
-39
77
135
-36
-219
66
7
42
70
-65
-267
-19
-42
102
-98
-57
120
-274
-1
99
-34
-207
32
262
-9
-71
-82
-26
-19
68
263
29
-40
338
35
-76
39
-45
13
-7
76
6
26
-26
-136
75
19
-284
77
-33
-52
-9
-13
-48
-71
21
-89
29
-82
-70
105
86
-58
-84
26
-3
110
-36
69
-6
12
-3
9
131
1
-7
94
-61
21
-109
-53
-58
145
-49
144
-162
43
25
26
146
-74
-208
120
15
82
-12
127
-63
-82
-69
-73
-124
16
178
-31
-49
-5
-29
6
-3
71
12
72
57
64
-41
13
75
7
118
111
75
-113
-87
-9
120
-119
-59
-50
0
-100
-255
129
-3
60
-285
54
-81
5
-233
14
20
92
14
1
47
-104
-82
25
119
15
27
61
-55
15
-25
32
15
-156
2
26
-84
-131
6
33
-30
-51
39
49
123
111
-87
90
-88
106
8
-216
-83
-54
7
-124
-162
-43
108
43
-84
122
-114
119
316
109
-53
1
139
-4
-102
7
295
-101
165
-79
-219
-1
110
-231
126
23
-71
-50
-78
-71
-31
-82
-83
-38
22
-126
-71
40
8
-36
122
-11
109
-199
57
9
10
52
-46
37
-627
-52
-23
-99
171
72
277
145
30
214
290
-102
128
110
-29
76
187
53
-46
11
-49
-24
-59
-466
406
-406
-364
76
-11
136
-44
-32
46
27
-133
17
63
10
1
-41
0
7
10
-70
-75
42
-53
-51
-239
-49
23
-258
-23
-50
116
60
74
22
84
-64
3
52
37
-67
56
-113
-54
-122
-26
-17
-57
61
-102
-38
-60
-27
55
-42
-91
-78
2
-4
51
212
-21
-29
27
56
5
36
52
1
-8
-18
32
42
-80
28
-51
-78
55
77
4
26
-312
-80
14
93
-6
18
-17
108
-24
-54
383
18
-21
-9
-117
18
-27
-15
10
20
77
-38
-51
-64
-13
-202
9
21
23
-97
-148
1
-29
39
1
25
57
21
-31
-47
-23
126
-60
49
7
24
-25
-58
1
110
-56
17
84
29
12
79
99
44
61
80
36
-143
-4
40
55
14
-31
91
79
-12
-4
-123
-23
60
-12
-94
-82
-2
51
-54
6
-41
-15
-74
47
-304
26
-283
-24
-78
1
-49
33
90
25
-20
-52
-129
-291
-138
52
7
24
0
54
-45
-166
9
90
-93
-404
-57
-136
54
-97
9
15
32
-50
-25
81
-61
38
74
-47
26
-30
53
-104
-110
40
-30
70
-16
78
-7
166
379
-94
-28
71
-135
190
32
-15
22
86
56
-17
-137
15
71
-83
75
97
49
56
-77
-110
13
-61
49
21
-117
103
30
-39
-70
-54
-267
-132
8
37
21
-35
-1
-101
23
-528
-32
-116
-56
-45
-84
126
71
43
-2
47
-77
40
148
-7
94
1
-26
-60
116
65
8
185
26
-39
-170
94
27
50
-9
-34
60
-108
46
51
-6
30
58
-47
36
83
425
-34
-48
31
18
-168
-15
-34
