-21
43
-21
10
66
-18
5
53
-2
-14
-28
52
35
4
-14
16
43
-15
-18
-5
4
-65
-18
-32
-25
37
-21
16
-119
4
42
-8
41
7
3
29
2
18
-14
-27
-5
8
8
12
-5
-16
8
49
18
-78
-26
-29
30
-85
15
20
43
-91
1
-37
27
81
-85
-56
31
61
-39
-23
8
-3
-94
32
-4
7
12
-7
-13
43
7
23
9
-9
-3
23
24
-84
-20
21
1
38
1
-47
62
-35
52
-39
44
-29
-25
-56
13
12
3
5
59
-87
3
-24
-33
-52
-7
13
-61
-4
-36
21
-30
-1
-16
3
-31
34
-21
-3
85
-122
-5
25
-35
-19
4
-25
-18
-28
15
-12
21
47
-25
32
-22
28
23
-16
-19
-54
51
31
-40
105
2
61
-105
14
-22
-56
37
50
-2
-74
-2
5
-12
28
-8
81
20
-70
-40
-26
17
48
-53
46
25
4
-2
-9
8
-11
8
3
-11
-5
3
-5
-8
58
1
-19
12
3
-16
-55
103
54
-8
81
-7
1
-55
-1
71
-13
-5
7
10
-14
-10
16
7
-37
24
17
53
70
-75
-10
39
-37
22
31
-28
5
19
-6
25
30
4
18
29
0
13
3
-9
9
-34
46
-42
-25
-3
-29
-13
-2
-4
-11
-86
-40
-3
-92
-17
12
-3
37
18
-10
-74
23
10
-2
6
-39
17
64
-25
-21
4
19
36
12
-2
-15
-44
70
2
-23
-59
16
21
-23
32
4
-37
-53
-6
14
24
47
18
4
-21
-63
-75
-42
31
-61
24
48
26
-1
22
32
11
50
-7
-24
-53
26
-311
2
-8
7
10
34
-5
9
6
-33
-32
75
-35
-2
35
-56
16
-12
6
-15
-4
38
28
-96
12
36
11
1
-69
-64
-10
23
15
-23
-3
30
-15
42
-10
-1
26
26
-21
-27
-13
-49
9
-26
17
-6
20
23
32
-19
-11
6
26
40
-60
-20
-14
-61
-50
52
-37
37
3
14
8
-36
-44
29
20
-96
-1
-23
6
17
-36
29
-65
-59
30
-30
30
-69
45
-13
-36
-76
7
2
-15
50
-18
-10
-4
-25
8
-37
-1
11
-7
42
-2
21
-51
24
-78
11
13
43
15
-45
12
13
-8
50
20
-15
-27
12
1
-56
-25
39
-43
21
-43
-38
-6
-76
-49
4
43
8
-15
13
10
32
-23
-82
-2
-7
66
9
2
24
24
1
-70
-26
-8
-131
-27
-11
42
25
-50
-31
-34
60
-18
-28
47
-22
-6
-58
-66
-5
-57
-48
49
-15
-72
-83
-2
-25
28
-10
-49
21
-27
8
-10
36
-20
-4
-3
20
22
25
26
-15
-25
30
1
23
1
0
-51
29
-6
-20
64
-23
-21
83
-29
-81
-36
-6
26
9
17
29
-64
3
-51
-3
20
17
42
1
-9
-19
14
-23
-33
15
-47
-53
-53
0
-15
-3
-26
19
20
-12
35
21
14
-20
33
-1
-5
13
7
-8
13
12
-24
44
-18
-10
8
8
14
4
30
39
2
13
26
47
-19
-4
-8
-98
7
19
-137
29
78
-62
-20
-11
58
0
-23
20
-23
-8
12
84
-19
-38
-4
37
12
-7
18
30
-26
41
24
14
0
54
9
24
-6
3
3
-33
-99
-7
-38
11
-9
-28
48
47
-8
23
-26
75
44
-21
-26
20
60
4
25
66
-25
12
-13
32
25
22
13
8
6
-9
-1
21
25
-4
-5
37
20
55
24
65
-66
-23
18
-12
-7
-69
16
1
3
-16
8
-3
33
20
-30
13
-40
13
6
-21
26
-76
24
32
14
-25
-4
-29
60
17
-24
11
27
7
12
2
21
-36
13
31
6
44
-40
-24
-38
-19
17
-29
55
40
17
22
-42
-43
38
53
-24
72
6
72
-32
38
-9
-10
-2
4
-6
-20
13
-11
33
16
15
-23
22
20
22
46
17
9
80
-61
-3
41
18
32
0
-17
18
47
-42
37
-33
-53
72
2
28
-6
-12
60
-64
75
-96
-29
53
-5
8
42
-6
-28
-44
-18
17
14
