-202
125
-181
-639
298
10
369
192
293
24
643
340
5
-586
307
7
-189
131
223
77
205
-242
470
-3
541
13
204
-425
-37
-310
545
-266
-384
-314
-173
447
173
381
294
-366
-222
401
-255
513
439
413
-133
-61
-239
-70
177
-2
364
-145
-21
-272
253
515
79
244
233
-158
439
399
154
-9
54
-87
-18
33
46
45
-150
-52
-383
28
4
-187
31
-3
417
60
-38
-8
0
-89
-52
19
17
113
-24
9
-135
13
-76
-55
148
115
-141
97
-18
-101
402
242
-74
160
-41
-59
116
-106
1
-73
82
299
-99
-81
86
87
-30
0
-125
-76
454
-17
-47
-127
52
16
-79
2
-63
68
-39
86
-29
-58
-102
4
-49
-15
123
-22
2
77
99
10
-89
-44
-46
-43
63
7
-35
-14
63
-30
33
39
-38
-34
-15
6
-164
13
-59
24
27
-13
-35
7
83
-67
15
183
30
-70
21
41
13
-3
17
30
55
-23
37
-24
-4
-40
102
-4
-14
-52
-20
-31
9
-46
15
-16
36
18
-35
-12
48
-35
-10
46
-6
-61
-37
-62
29
12
-22
-6
-6
21
-27
-5
9
-31
-14
20
-23
-51
-8
86
-13
55
-7
-17
30
0
-27
32
12
-87
-5
-72
23
9
-29
9
-9
-7
-2
-54
12
15
-60
11
45
28
11
-3
-60
-28
-45
-31
-146
-23
137
-12
45
-117
-57
14
-21
18
9
-76
-129
211
91
-85
-78
-5
25
-132
-92
336
28
-158
37
-65
141
-161
-70
-90
45
-34
11
51
-166
-23
64
367
17
35
79
-87
-20
-23
-8
-6
-239
-51
46
-96
30
193
-153
-45
-21
7
-25
277
73
211
-22
11
10
103
50
4
-118
1
58
-88
62
-46
-35
-56
-19
-79
42
-11
-16
-7
-28
-61
-15
-47
37
-21
121
106
91
-79
6
-10
29
-73
43
-53
-40
50
14
-7
92
54
121
-51
-68
-93
20
-140
24
82
167
52
-24
-36
55
25
6
78
88
35
85
38
37
-43
33
-33
55
11
85
57
303
257
-56
107
48
-481
16
-485
30
-114
-22
-49
-91
6
-52
217
-21
-19
-25
-71
3
118
-30
-31
-7
26
-163
-38
19
11
-17
208
16
33
362
-3
-53
-74
-40
2
156
37
-177
1
113
409
37
-28
45
13
-82
-34
-51
159
-29
5
-384
192
-119
145
-42
-127
-44
-144
70
-19
25
41
-7
39
-51
-70
31
87
-166
-11
16
36
18
7
-17
186
-29
-62
-60
-25
-118
-73
48
54
31
-39
-28
38
-2
-51
-30
174
-23
-31
-15
-76
77
20
-138
-51
113
47
-38
-17
145
5
-32
-18
12
-27
-51
61
-61
99
65
33
101
29
-45
-10
-49
91
64
-38
-62
-36
29
24
27
13
26
73
-38
-26
2
-19
-28
109
16
-45
112
4
-3
-192
-54
-20
122
-26
-29
23
4
55
59
137
-75
-95
11
-9
-42
-42
-71
24
-108
-33
-39
-5
-7
10
-59
36
150
154
-167
-65
-44
-123
-17
-49
8
-103
64
44
127
-8
-67
-361
336
102
-168
-42
29
-205
476
-62
83
5
15
180
3
1
-26
-251
-81
142
-132
67
-188
315
-22
-80
-29
271
159
49
-43
-199
230
204
326
39
248
-136
-130
49
-143
52
-90
117
36
-23
70
9
320
-181
-207
-1
128
-6
-17
-147
-110
313
93
-58
-4
312
-43
8
-33
3
52
53
-37
9
52
-128
-135
-6
74
0
29
-26
-48
52
-179
-68
-1
228
9
-124
14
21
-6
85
-37
-11
-48
37
7
67
17
38
-77
-35
112
114
13
-63
6
90
15
58
-2
89
39
-11
-64
-19
66
26
31
18
-68
47
56
-171
81
46
-26
13
-5
10
-51
59
-17
13
-10
73
-19
-5
-12
58
59
24
41
71
-44
-66
35
-22
20
15
7
-29
20
-19
30
5
418
49
2
-21
-32
-42
-66
27
-65
-51
53
-42
-52
-60
-42
62
55
-11
-75
-29
29
81
-6
-29
-28
27
-11
-47
12
-9
19
33
-1
-55
87
-2
