-309
-426
139
316
-449
503
-768
-542
-277
-272
-214
-577
296
-848
-7
-87
290
372
-102
-1085
-406
715
-680
-245
199
-480
-407
224
331
-317
-50
-219
-531
305
-406
72
89
-297
-381
430
-247
298
-92
-397
94
306
280
-54
-528
-32
521
-372
-932
853
-540
435
-11
585
-325
466
6
-127
519
749
62
-175
21
-186
-237
51
-124
-119
649
449
-567
-415
-181
-713
-304
-222
-90
-252
-266
-238
-330
-384
221
-498
-170
-185
-148
21
-877
-2
-227
-80
-791
484
-168
-16
-101
-487
-14
-14
-408
-180
554
-230
-289
-121
-176
-383
895
451
-165
-165
-382
-388
-315
-421
457
1672
115
-280
-144
-43
175
-455
-384
-46
-176
-573
-221
-282
-8
112
317
241
527
592
-11
-249
-18
-153
-289
762
-47
323
-323
-297
-352
-400
175
-312
-180
-322
-774
-659
-277
-277
-47
-175
-49
-231
-214
-371
-70
443
1366
-91
-205
-517
-374
-788
-528
-266
-137
-386
-444
-144
36
8
-427
-633
-460
-320
-653
-760
-377
161
450
179
-899
219
31
-231
35
-434
91
-55
140
-775
-519
-766
-160
-360
-693
-25
-126
-57
-295
218
-751
-318
-67
96
279
-25
-558
-307
-222
-736
-609
288
-501
-227
-190
-109
-96
-158
-586
-65
-486
-49
-223
-352
-291
-384
-84
172
292
-128
-318
-507
-286
-224
460
-29
-65
365
-512
-351
-62
-13
-28
215
132
345
-114
-82
-524
-32
-505
-486
-882
-518
-161
-185
-333
-173
-420
-134
-83
27
389
6
-130
129
113
102
-421
-280
-119
-7
203
153
-396
-457
-714
-270
-251
-255
176
-150
-443
-101
311
-941
120
263
-337
282
-33
-405
-411
-687
-31
181
-2768
104
-123
-474
-42
159
-427
88
-374
-167
-107
-757
-98
-44
-228
-52
-282
-552
-302
-229
-67
-270
323
352
118
-548
127
-31
-229
-130
-374
-718
218
-668
16
-328
375
-693
-230
178
46
564
90
-729
-62
-226
38
371
300
-55
112
-128
-572
170
-71
-182
67
-232
-75
-70
-179
-319
347
-250
-427
-381
335
-18
-85
-33
84
-182
-75
1137
-406
575
-146
-194
239
-443
-191
274
67
12
-655
-183
-223
-375
86
200
-180
-206
-228
13
156
28
-358
423
-455
-226
-201
-70
361
-7
-249
-403
-51
-42
-163
-375
-373
-86
34
431
-656
39
155
-165
-326
-21
-29
41
-363
-124
-104
-47
-211
-474
169
33
73
360
-450
-150
113
555
-158
-203
161
-232
-116
95
139
-338
-773
286
-362
-214
-248
-282
93
164
-452
-90
-234
-652
-516
461
493
-466
-337
-306
55
-108
-49
-181
-328
-339
257
-82
234
156
197
-545
-157
-105
-140
-441
-181
-714
462
-43
-250
67
-704
34
594
269
995
-262
108
-54
45
-205
-234
-268
-437
121
-538
0
427
-323
-298
155
-730
-294
358
-494
289
206
361
-79
-199
-389
-380
-37
544
4
-123
-109
-163
80
-5
-200
-422
155
-102
424
297
-399
-356
367
-509
1167
119
-491
-264
252
374
409
-607
-621
-47
296
-229
-514
-396
-88
-126
-525
-541
58
6
304
286
50
-71
-111
-156
-13
-46
-101
-432
-261
-39
-54
-235
-213
-234
348
-142
-149
150
332
-783
-193
-122
-227
-966
-345
31
-40
-289
69
-209
120
-395
-26
-315
-110
-384
-279
-337
-401
262
-360
-135
-702
-275
-667
-76
-226
-28
-231
-57
-78
-257
-262
-314
-44
-552
-702
-363
77
-107
-141
-96
-211
-629
175
-31
-191
-221
-268
304
-612
-484
43
-358
-364
-162
-645
188
-228
-502
11
7
-239
-596
-62
-129
-405
-198
-214
42
-296
1212
-85
220
143
-200
-289
-449
189
-351
8
-218
25
-81
348
-314
-252
258
-397
-253
36
-124
26
-1059
-514
-408
35
-224
20
-775
-12
54
214
-458
267
61
-189
-513
-518
-134
-392
219
-921
383
78
-117
88
-350
58
572
-495
179
-263
-666
-307
-489
-117
-69
-717
117
-426
393
-613
198
-147
-188
13
210
16
-270
-147
-514
-141
-160
-23
397
-531
11
-682
-200
-200
-609
-109
-361
-45
449
-193
-32
-105
-607
-31
-401
-524
45
-71
-307
-203
-221
428
237
-831
-91
-357
995
-324
-127
-264
-219
-351
-179
298
31
-199
-103
-192
