-183
-173
18
6
133
-80
311
101
358
-144
-39
37
-84
-85
-137
-65
-87
-48
53
536
86
-290
66
106
-7
104
130
106
-2
-3
-190
178
124
26
-125
51
70
-61
303
-90
52
100
-219
-9
32
-456
-5
-8
-28
23
-345
78
-76
-51
120
-79
44
204
231
118
-81
-395
-21
-58
103
61
197
-142
-11
10
37
119
44
20
-17
-8
25
68
40
77
-70
47
-39
-96
-79
6
-72
-59
-157
279
-24
41
-74
-78
-289
-151
-59
-32
-48
-99
-51
52
84
32
-78
50
-184
168
85
9
42
-88
131
0
-53
-5
189
93
112
29
50
1
-107
71
5
70
56
39
80
-145
78
135
159
243
-318
85
-10
-51
-108
-6
16
-23
66
7
-56
54
-20
33
-24
-13
77
5
92
13
-217
232
45
153
-40
-44
-5
65
-246
-55
31
147
-1
0
27
66
166
39
142
52
-3
73
-148
-322
-100
18
-38
-8
32
-25
-346
-12
52
-6
-39
-298
99
19
-78
126
156
-111
197
-11
-78
152
-34
-2
-79
275
-324
-61
17
-84
12
326
329
-56
-376
-169
-250
-185
-76
-500
-19
-24
130
-232
6
-51
44
-84
-82
-189
-231
76
318
-56
-48
34
134
113
42
-53
-219
-15
27
147
-20
-267
92
60
19
37
-66
72
49
19
126
26
-8
-71
188
-22
-121
-52
329
193
-23
0
10
-51
159
1
-158
-99
6
-15
-178
8
-62
55
-6
-168
-141
-62
-8
-112
-200
-110
-116
-155
73
-6
-14
30
-367
22
-488
-160
66
22
112
121
-61
71
64
-16
53
-5
143
-117
-134
107
-44
121
-162
47
-7
45
-6
41
-38
-220
-39
30
-57
-42
41
39
70
24
-74
-106
16
98
-147
-120
-53
-18
244
57
17
-86
69
-248
118
-192
-70
19
-241
-494
54
47
4
283
85
96
-417
-74
-94
-221
179
-86
-202
-143
-31
22
-116
-108
-151
115
-90
202
26
242
93
-247
51
-28
54
-39
-240
23
42
-22
-202
-243
-217
168
141
6
-6
127
-100
16
128
74
-19
139
47
-78
-192
377
-285
320
-84
-214
13
-69
-33
126
-115
-432
-9
11
62
-131
-49
101
202
-231
-87
20
-123
44
10
-24
-151
-11
94
-285
-42
-94
-143
-96
-153
155
-203
50
3
175
80
-62
15
69
45
52
-313
101
-52
250
-198
-176
-102
85
-107
392
85
70
107
51
-33
-10
-27
-42
-320
-44
-87
-70
-1
27
-35
-88
366
-62
128
2
-157
48
-130
52
12
4
10
1
-9
-54
28
-8
7
103
-24
44
-37
34
27
-24
31
76
36
3
-91
-19
-70
81
-18
-30
1
91
80
-14
-231
114
8
-43
-64
54
17
-68
95
124
158
57
-85
77
36
47
-80
109
52
-19
-133
-71
-43
62
66
118
76
-98
-103
8
-117
131
-1
-51
84
30
-47
44
-5
1
-53
-92
-190
150
6
186
-39
22
81
-66
71
-113
0
-64
41
-64
114
-121
191
116
92
-136
82
-119
-169
-101
188
14
-51
30
-83
-16
1
30
-64
45
159
-118
34
105
-12
-61
10
52
24
-12
-51
-83
90
120
-155
29
44
-106
79
-168
-74
47
-6
-1
0
24
36
-13
-63
21
2
36
16
25
-384
-17
74
-340
-77
-209
-37
106
-61
-249
29
-43
37
-10
102
10
-3
-71
-16
-77
108
117
-92
118
-12
-57
-148
-158
32
37
47
77
65
-139
78
26
-78
22
-73
160
30
60
173
91
5
211
-174
-128
-38
-23
-106
-291
-155
63
115
-15
26
-28
28
-3
32
64
85
423
-21
12
132
0
79
-399
-48
172
-41
-142
-10
-85
-47
-203
-8
19
60
50
116
31
48
4
46
4
69
77
164
-86
22
-8
-19
60
-13
35
6
-26
-16
-82
44
302
-20
113
56
59
3
-87
-54
-33
-24
-103
-81
163
95
97
98
110
21
-1
-79
37
-151
46
145
306
52
2
-40
-72
-69
16
-52
-63
88
-132
-51
-78
-60
7
200
-43
-16
-218
77
-129
149
-15
-29
-129
