-1
30
1
19
34
0
24
32
-19
3
3
5
-22
52
6
11
9
18
2
4
17
2
19
-25
7
56
23
9
-72
24
35
3
-6
-31
5
-6
-7
-12
-14
8
-1
-16
12
-12
1
12
23
32
11
-42
-2
-11
12
-25
29
40
22
-62
5
-32
-11
78
-35
23
14
32
-18
20
-13
-34
-51
7
3
-11
4
46
1
-26
-9
1
50
6
1
10
35
-37
-2
31
-18
11
11
-19
36
-22
65
-46
99
-48
-24
-34
-26
-5
1
-15
14
-25
18
-20
-47
-30
-37
-8
-15
2
-36
19
-16
-1
-14
24
-29
-19
-11
13
55
-39
-10
60
-2
-23
13
6
-10
-15
44
2
36
50
-41
1
-28
41
29
-7
-1
-34
39
10
-65
53
-29
23
-103
17
-22
-47
21
11
-5
-62
32
1
20
17
-24
54
0
15
-34
20
22
45
-42
2
7
-18
6
9
-4
-33
5
7
-37
9
-3
-33
-9
14
11
-20
-3
-8
5
-20
53
23
18
36
-28
-9
-24
-16
25
28
5
5
15
-11
3
30
-5
-26
59
33
16
20
-64
0
38
10
37
32
-3
-3
-1
42
-9
39
17
5
3
-11
0
12
-25
-23
0
12
-8
-11
33
-41
-31
25
26
16
-23
-27
4
-33
-21
7
-4
3
17
-23
-16
-19
23
0
3
-16
-18
33
11
-27
-8
-14
16
-18
-1
1
-39
18
-3
-48
-39
-14
6
-40
32
-7
-14
-40
-1
11
13
36
25
21
6
-6
-48
-41
7
30
52
20
14
0
32
13
-3
71
23
-14
-31
3
-316
18
-13
-32
25
18
-22
0
-18
-4
-28
13
-23
28
25
-63
3
-27
-6
15
11
-8
27
1
-8
22
-4
11
-45
-31
-19
-22
8
18
-17
45
5
0
6
-15
0
20
-8
-10
7
-46
22
-5
14
-8
13
3
17
-13
30
33
11
32
-48
5
5
-6
-16
35
-17
4
8
3
12
-47
-46
3
11
-140
-11
-25
14
-6
-32
26
-29
-55
13
-8
6
-35
31
7
-33
-59
-1
-10
-42
-8
-20
8
31
-15
-4
-1
-9
-3
20
16
0
8
-43
31
-54
12
10
49
4
-33
30
-15
-47
17
8
-24
-28
-1
4
-51
-9
-3
-53
1
-40
-24
9
-35
-37
1
40
-6
-8
-7
-13
0
-11
-41
7
-15
31
-29
-1
51
-18
-19
-57
-32
-4
-78
-19
-22
56
23
16
-59
-16
34
-7
-4
-12
-35
8
-39
-37
-1
-23
-64
32
4
-10
-47
-45
11
27
19
-49
-8
-7
-20
-16
29
8
18
30
-7
17
3
-9
-22
-9
-5
8
39
9
0
1
24
-41
-24
12
16
-3
53
-40
-44
-37
35
-16
48
17
6
-29
39
-12
-25
5
-14
-14
16
-29
-9
58
17
-26
38
-22
-51
-2
-43
-17
17
-32
-14
-18
54
38
11
4
-13
12
4
-7
1
-9
42
-12
12
-13
50
-20
-17
-14
-7
-13
19
3
0
-7
6
8
0
-37
8
41
13
-8
17
-75
39
40
-16
-4
-10
69
2
-3
6
10
-22
7
17
-16
-31
-2
66
21
18
26
27
-21
-29
-2
9
10
10
7
29
3
-10
17
-36
-75
-12
-36
10
20
-28
36
36
-15
25
-8
22
9
-8
-37
-10
42
3
7
56
-15
-4
-5
32
58
7
-51
38
-2
-37
-15
4
12
35
-24
25
9
6
-6
24
33
-3
32
17
22
-64
37
-9
1
-1
-2
0
23
63
6
-23
13
6
27
-33
18
-5
19
7
3
-18
-5
-25
67
-10
-5
-13
32
22
-11
-11
21
-5
18
7
3
20
-41
16
-32
-3
8
-49
39
38
7
47
17
-41
41
28
-9
26
6
27
-31
27
-18
-8
0
24
4
-7
0
-15
12
7
3
-36
-2
49
21
37
25
-18
30
-57
2
31
5
-3
7
-11
-17
39
9
14
-1
-30
57
-1
-4
-28
-13
43
-47
41
-78
1
68
-20
-40
15
-24
-18
-30
-9
-18
11
