-27
24
5
27
45
1
-6
38
-13
-6
-14
33
-1
24
-26
-9
-5
0
-6
-17
-6
-35
-23
-28
-10
34
-2
9
-65
22
37
30
-15
12
7
13
-21
-2
-24
8
19
9
18
-6
-9
-20
18
57
-4
-42
9
-26
1
-46
13
31
12
-56
10
18
23
86
-32
-2
7
37
-35
-3
-22
-5
-46
2
-14
11
-14
15
-14
4
-17
0
25
4
-2
13
7
-67
-3
-9
-32
30
10
-23
37
-40
44
-16
106
-7
-13
-26
2
-3
-16
28
26
25
12
-22
-25
-32
-26
5
-50
-6
-18
14
-38
-5
-25
15
-22
25
-11
-17
51
-88
4
19
-34
-14
9
2
-28
-18
42
14
11
32
-8
8
-5
29
21
1
-40
-28
63
10
-18
9
6
49
-58
9
-38
-65
42
21
2
-52
-10
-13
10
-11
6
66
13
-24
-16
-25
11
22
-44
-1
21
-17
-44
-5
2
-59
22
4
-3
-18
17
-19
-40
39
-5
-2
11
8
-26
2
51
49
5
50
-20
-26
-22
-23
48
-14
3
-7
9
-11
5
61
24
-10
11
26
25
24
-65
-2
42
-17
12
37
-22
-4
15
-30
-19
-2
8
9
-7
21
12
17
-23
22
-14
-2
-10
2
25
-17
-16
21
3
9
-26
-36
9
-19
-18
2
26
9
24
-7
-37
22
-7
-21
-2
-48
21
28
-3
4
-18
15
19
1
2
-11
-49
39
14
-51
-66
-4
44
-23
32
-19
-47
-55
-6
13
22
31
-7
4
-8
-17
-15
-35
-21
-46
25
11
27
5
12
14
-12
31
-13
-14
-34
4
-176
0
-19
-14
16
36
-10
-21
13
-51
-32
12
-50
11
15
-50
-8
-6
22
-12
15
1
13
-64
13
19
28
2
-25
-46
7
-7
6
-31
-29
33
0
4
16
11
0
29
-5
-15
4
-79
1
9
36
13
52
-7
16
0
-4
-6
-4
32
-24
-17
20
-45
-25
56
-26
27
2
4
-3
-54
-35
21
36
-48
-24
-10
-3
11
-29
14
-30
-39
25
-12
16
-73
8
0
-15
-56
9
16
-37
-1
9
-7
51
5
8
-27
-17
-4
-7
44
-8
15
-42
7
-59
11
31
37
2
-1
25
25
-21
48
6
9
-18
-15
9
-32
18
37
-45
9
-33
-30
0
-26
-34
14
42
-42
-19
-17
37
6
-20
-45
-1
-12
24
7
7
33
2
-2
-48
-34
14
-54
-21
-21
35
23
-22
-77
-37
49
-17
8
8
-17
22
-27
-48
11
-45
-18
49
-22
-33
-44
-20
-8
24
-1
-32
5
-22
20
-25
23
7
6
40
38
42
-2
32
1
9
24
21
22
-4
3
-30
28
-24
-17
33
-5
-33
51
-43
-72
19
35
4
23
9
11
-15
14
-22
-7
40
14
37
9
-29
-27
28
-27
-25
9
-37
-17
-19
-2
-8
20
0
29
-2
29
-2
13
36
-9
-19
-2
5
3
-9
3
-9
16
-7
31
-5
-15
9
30
-6
-4
18
5
19
2
10
-23
-14
-12
12
-43
-16
27
-114
38
34
-52
-34
-8
12
11
-31
1
0
-20
-9
60
-23
-42
34
45
-14
0
29
30
-7
-5
4
-9
16
14
8
23
-1
0
-5
-25
-100
-12
-32
4
3
-35
24
39
-18
38
-22
23
5
-9
-42
4
23
-18
2
70
-15
-13
6
13
18
8
8
9
-7
-36
-23
-1
21
21
-6
4
12
15
6
22
-26
38
-13
-17
3
-68
26
-13
-5
-6
-5
-6
14
35
7
9
-17
23
-12
-4
27
-53
2
20
16
-17
-8
-28
31
24
2
20
7
12
2
-14
21
-18
-7
11
2
43
-28
-10
-4
-23
14
-24
61
41
-5
28
29
-17
9
40
0
24
-13
62
-12
39
-9
10
9
16
-6
-30
-5
1
10
7
-4
-18
41
21
39
-3
25
14
35
-53
5
32
31
15
-5
-7
4
69
-18
-5
-23
-39
61
-23
22
2
-20
23
-50
53
-33
-29
42
-14
-5
25
-19
-8
-38
-30
-25
5
