-23
-5
-8
-21
25
15
18
16
-14
-18
5
12
-15
31
-5
37
44
5
0
-6
16
3
12
6
-10
14
25
12
-26
9
22
-9
15
-28
-20
7
-23
-7
-19
-11
-4
-29
4
25
17
3
3
6
-6
1
-38
19
32
5
32
24
3
-7
-14
-40
7
16
19
-29
10
20
-23
20
-22
-18
3
13
1
-13
2
-30
-14
30
19
22
1
2
1
26
-9
-42
-16
-1
-18
25
-32
-12
26
1
8
-4
29
-7
16
-26
14
-11
15
-11
-23
16
-7
-21
-9
-11
-11
39
-7
-14
-5
19
-5
14
-7
-2
6
23
-3
88
-3
-16
-6
17
-25
-3
-1
17
-7
-4
-19
-15
9
4
2
15
-17
4
-10
12
38
-7
1
-45
-29
14
-33
1
-24
6
-23
15
8
15
-17
-10
7
-8
11
-11
25
22
7
24
-15
9
-6
-4
-3
-17
-16
-22
12
6
31
13
-164
16
-1
-11
6
-7
34
-3
16
3
-16
14
17
-20
17
-3
-24
11
1
-1
-17
-13
10
-25
-20
30
-11
12
-1
30
-31
-12
12
42
10
-3
-21
-15
9
-33
17
12
-20
15
-4
34
20
-14
-1
-5
-27
2
16
-19
-10
1
6
5
20
-21
31
17
-9
29
-7
-16
2
-7
-11
-3
-41
1
7
-3
14
-24
1
-12
21
30
17
11
-10
0
-3
-24
7
-20
19
16
27
36
-15
15
-4
-11
11
-5
-11
-11
-6
31
-16
-4
-35
-28
22
-21
-14
-2
-13
13
-23
-27
26
9
-2
-12
5
-6
-16
12
0
18
17
-13
6
-15
-157
-12
-21
-16
18
17
2
-7
-20
3
-2
8
-3
18
18
-37
4
-20
2
28
13
9
-26
3
-1
10
-18
-1
-12
-11
-11
-17
22
23
10
7
-3
-16
0
-23
4
-32
-22
-12
32
-15
-4
-13
-24
21
7
6
21
-26
28
8
10
27
-32
8
-13
-9
-37
1
-5
-18
-23
-11
-6
-12
-42
4
8
-75
-1
-23
25
-25
-14
0
-15
-13
-5
26
8
-14
-14
4
-26
-13
27
-3
-11
-30
21
0
-19
3
-23
-17
7
-12
-12
10
-17
-1
-12
7
14
-10
-6
-5
4
-14
15
-35
8
27
4
-31
1
26
-27
-17
-2
29
-8
4
20
-13
-9
-8
33
9
1
-22
-6
-27
-15
15
-10
-7
12
-11
16
-4
21
-4
2
0
-49
-5
-6
-30
-9
30
21
1
29
-39
15
-9
4
-6
-9
18
-17
-25
-13
1
-18
-5
0
-11
-30
10
-12
-1
-5
24
-3
3
-12
12
10
11
-8
-3
-6
10
-7
-12
7
15
-26
-25
-13
15
-24
24
-32
-2
-12
-23
-7
-11
10
35
-6
-1
-23
7
-5
14
0
-19
-11
-8
6
-13
6
-1
13
2
-11
13
2
-18
14
-4
16
-52
6
10
-2
-3
-8
-20
10
23
17
5
4
4
1
31
6
-11
8
6
-5
-16
1
17
13
-15
-32
9
-11
35
20
7
-19
6
37
-18
5
-4
6
-39
26
-32
-11
2
27
44
-8
-16
14
-24
-26
7
-6
-24
5
-17
2
17
-24
-4
0
32
-2
0
-23
20
27
22
8
12
-20
6
28
-4
19
12
24
-32
-14
-11
8
-16
28
-11
-8
2
13
3
23
-1
13
3
32
9
32
21
-3
19
19
28
30
1
-20
24
-27
-17
-3
-28
5
32
11
23
20
18
10
38
-10
-10
28
17
24
-12
19
-6
15
-11
23
3
-4
11
23
39
48
-6
-14
-17
41
-11
15
8
-16
-12
4
-19
37
-16
9
3
-3
20
-7
-5
-14
-33
5
7
26
-3
-31
-13
4
-18
35
12
-18
20
26
3
21
18
0
15
-33
8
-6
7
-6
2
-28
8
14
3
-144
7
-5
-4
11
-17
-3
-33
-3
-10
7
14
-11
-4
41
-5
-2
37
-29
5
-15
11
-24
-16
17
9
1
-6
3
29
-24
-13
-10
21
-18
-22
-40
21
13
-8
7
-12
34
-4
-15
8
5
1
