-26
101
11
14
22
19
-27
29
10
44
-5
19
20
-55
-64
36
119
-27
-24
-20
-32
-50
-7
-31
9
8
-77
45
-57
-25
26
-11
20
-3
1
62
8
31
-25
10
-13
21
-6
-17
14
-26
16
58
30
-57
-40
-11
49
73
2
-16
-18
-16
22
-87
-28
24
-127
-63
-5
31
-55
-13
-2
56
-72
22
-16
-13
36
-1
10
57
44
45
24
-25
-6
47
25
-69
-6
22
-26
27
-20
-23
-128
-38
41
32
86
5
19
-16
-8
4
3
-4
41
82
-14
10
-41
-64
15
-63
9
35
-50
26
-35
22
-23
-5
-25
172
-40
14
36
-25
21
16
-3
65
9
-44
65
-10
24
17
34
-36
4
166
-4
34
39
22
-31
-99
37
74
-18
39
-13
26
-31
39
-6
-40
16
12
28
50
47
-17
11
36
-8
49
48
-39
136
26
9
19
-14
13
12
77
-1
-44
-32
-33
23
11
-36
7
-25
32
-3
9
-10
-29
-16
24
-32
4
24
21
-11
-7
-41
4
10
-22
13
-18
24
-43
-13
34
15
42
69
-8
0
-23
-9
-25
-94
-8
-18
-30
-12
-2
-27
-9
62
-81
10
80
-20
-25
20
-28
41
26
10
3
-5
-7
-13
81
-11
-19
9
10
-9
-228
-66
-3
41
-92
1
22
-30
32
19
15
-7
39
-10
-13
-9
-38
47
2
-33
22
-23
13
27
7
14
-25
12
54
-12
-50
-27
23
16
19
-32
-12
-27
-137
1
39
0
-17
2
17
-14
-29
-26
3
49
-33
-55
-20
-4
-5
27
48
64
8
-36
39
-47
3
32
17
-48
67
-16
48
-42
25
-2
4
-30
78
22
30
24
-73
2
-42
-23
-19
-28
-7
33
-270
20
49
-24
-4
-4
-40
8
7
-86
-23
-34
35
-23
121
-13
11
96
-3
43
12
-21
-131
3
46
3
-6
-3
-36
20
-4
-42
-10
13
-17
-47
-18
2
-54
-20
68
-20
42
2
40
4
-46
-21
0
9
19
-1
-30
41
30
-43
26
-47
-4
-19
-29
-6
-92
21
-7
-25
-41
55
47
-29
68
-36
-36
-31
-33
-6
-25
-25
-51
-3
35
28
45
-12
-6
12
55
20
57
12
-63
15
32
48
25
-41
-16
0
10
19
11
-35
-66
-25
5
-42
-12
-14
-8
-12
-9
39
38
22
17
1
45
14
-64
-34
1
13
4
8
25
-10
-16
-14
-5
-13
23
-54
-13
-8
19
-13
-71
-49
60
-8
-4
9
9
-25
-40
-47
-1
-14
-14
19
-29
-205
-75
-50
3
30
-13
-61
25
1
10
-31
58
0
-52
-56
-14
25
42
-19
15
-7
-8
48
-18
1
-4
-66
-9
8
-1
6
3
-39
6
-68
44
11
-10
39
-27
12
52
-27
24
-25
-22
2
77
25
-27
-1
-45
-16
-19
15
16
-7
-55
-11
23
9
41
-35
-73
15
0
2
-7
-26
-10
-6
4
-4
-5
-41
4
-17
6
-8
12
0
16
-16
-7
5
-5
-5
18
64
51
15
15
4
12
5
-109
17
30
-89
51
30
-77
13
-51
-2
28
9
93
-1
18
-29
25
-3
-51
6
10
18
-31
0
28
20
49
1
8
-38
131
11
27
14
49
50
-59
-170
28
9
4
-49
-52
20
39
-37
-3
-44
65
51
-28
23
37
17
-66
-25
29
-54
-9
-31
44
-67
48
-4
-46
35
-76
32
20
-13
-49
-1
23
60
36
50
39
60
-66
-47
-25
32
-40
-6
20
-28
20
-4
6
10
-1
0
-22
-113
1
1
-51
30
-72
-5
13
8
2
-33
-19
-4
7
33
-4
-22
22
-10
-42
0
-44
28
33
63
-1
-31
-4
-94
-103
11
-51
-7
31
0
-36
-4
-80
19
27
61
21
-33
36
-70
17
41
-29
28
6
-25
2
-26
-36
25
-5
20
-59
51
-12
-3
13
38
51
15
-21
18
10
24
-32
33
11
6
38
-13
21
-30
-99
35
-17
48
-28
-44
34
-37
31
-34
-16
107
-58
8
70
7
-22
-28
17
-5
-5
