5
51
-13
-12
-24
-46
206
28
-16
-26
2
-74
-39
-22
42
-53
-28
-51
-54
60
45
-8
20
-76
14
-10
-48
43
-29
46
44
19
-44
28
64
19
66
15
-23
11
57
22
7
-5
95
0
-24
61
17
9
-9
93
38
42
-3
15
-27
9
-33
-2
21
45
-44
4
177
-12
-68
34
25
-10
-19
-4
161
-9
-106
-13
176
-105
8
120
-43
-69
49
-145
53
-23
14
-66
100
66
57
-125
-1
96
-117
-57
-17
-67
-109
37
187
-147
-53
-121
0
-108
19
56
-85
123
-46
153
-41
-176
-22
6
170
420
151
118
199
-11
-87
190
149
-70
-91
-78
32
2
2
-46
17
-12
12
-1
5
-30
34
-18
21
13
-13
18
-12
0
-28
27
-43
-9
9
18
78
-9
56
-8
-33
31
-5
22
-3
8
-64
52
38
8
-34
-19
17
-27
-29
-25
13
51
27
-16
-12
22
-34
-25
5
-18
29
-2
7
-14
-47
-24
-8
-11
8
-14
74
13
16
-38
17
16
37
-13
20
-29
11
8
-9
-38
13
-18
36
-43
2
22
-15
-31
19
-16
2
-62
19
54
-50
-15
-25
20
-5
51
-59
32
1
-34
0
4
46
5
6
-3
-29
20
-8
14
17
-19
26
-55
-7
-48
-2
-6
33
1
-15
-65
26
-17
8
5
188
-97
105
116
116
-134
-196
201
-86
-143
234
-235
-68
-5
-92
180
66
69
-49
-39
57
-34
-20
-70
-23
-127
-16
-169
78
-75
-208
288
95
-1
30
300
79
172
-389
112
125
-270
-28
-53
-111
-13
-3
-48
169
-140
-114
198
-127
52
45
-381
86
-267
-28
119
143
-52
107
57
18
-19
14
10
10
16
33
-30
4
-10
38
9
-8
-34
9
18
-4
11
-17
-29
-23
65
-14
-16
47
1
-20
45
-2
22
33
-16
12
12
-62
-42
0
64
19
-2
-49
-23
8
27
-29
-76
35
26
-40
-68
11
-74
-26
-11
27
30
-19
-7
63
-166
3
7
-88
3
-983
-2
122
41
137
15
-331
33
7
-63
133
-67
-48
38
-65
-720
-7
48
93
63
-76
-6
162
14
35
23
5
-13
-93
229
59
124
64
-8
-10
-36
-255
512
-111
-78
50
10
-42
95
-11
107
-63
-11
17
128
-40
245
49
-71
142
-195
9
62
-42
16
-15
-137
-168
-83
-12
50
33
-6
-72
7
-12
-19
-66
44
28
55
-73
32
11
-77
-12
4
-69
-24
35
-8
-40
36
49
-6
9
-30
36
89
-13
24
8
31
-48
-11
55
8
11
9
57
11
7
19
32
6
-18
13
-51
-80
9
-42
-24
-9
-6
35
15
-1
-42
-27
-13
-20
17
17
-5
-5
-41
0
30
20
-15
9
-39
-23
-3
35
10
9
7
-27
-52
-16
-17
14
19
-50
-64
-24
-7
108
52
18
-28
34
3
23
-13
-11
7
-15
-19
-4
15
14
18
13
-61
35
55
16
-24
27
21
17
-9
-3
-105
25
86
-6
1
-24
-52
31
-28
50
-5
36
-6
54
-18
-9
-25
-34
-50
-14
-16
-8
1
26
31
11
-16
11
20
13
-79
-12
-7
99
48
9
14
-35
95
-35
34
-152
21
59
-14
37
-13
22
5
27
-15
83
-2
23
-20
-28
11
27
37
-51
24
-24
-6
-14
-9
13
7
-1
13
16
-22
-20
19
-11
-22
1
-21
-45
-76
-17
23
52
74
47
26
-38
-5
-33
3
-28
1
-20
52
27
-16
7
-3
-47
6
-5
-34
-15
-27
-9
-4
-16
83
-26
28
40
-27
17
14
39
10
-21
38
-9
-2
45
-41
18
44
85
62
35
-100
27
-42
-13
-44
9
-60
46
-68
-5
14
45
55
8
36
76
-49
30
-103
27
-35
4
-73
-58
-115
-37
103
133
39
-54
-42
71
159
94
84
-32
44
-36
26
-127
-30
-21
-115
-26
-85
-28
-41
36
-7
120
11
-92
93
38
-28
-18
124
-6
-178
-65
18
-56
106
-244
-117
5
-133
-7
0
96
-6
-51
46
-77
-71
-62
67
39
