-246
188
359
-590
-226
-42
1028
371
-335
-702
171
448
-612
101
-362
1210
800
397
-278
2
719
-27
-194
408
195
360
-25
-117
-733
307
-1
232
833
-406
-352
418
-867
-598
-207
-436
-724
-453
-178
374
252
-166
221
375
-398
-202
-539
267
968
116
349
343
209
-1053
-210
-830
195
738
-9
-389
-202
526
-453
43
-501
-497
-334
504
-378
-267
131
5
-366
74
509
246
-2
-145
531
469
253
-539
-116
-409
-765
344
-492
-847
865
-84
66
-91
277
-242
332
-656
-175
-439
649
-346
-10
-97
-251
-657
-424
165
-315
73
-310
-370
-380
105
-241
-506
-87
76
-85
96
184
891
467
-1140
206
227
-744
-110
-340
36
-553
-54
-795
-184
568
-78
-7
-99
-304
-141
-263
480
548
-741
-116
-411
-809
708
-786
540
-686
-9
-643
201
-30
-24
-223
-91
-244
-450
-243
-428
400
66
656
352
-848
74
-315
-550
-279
-342
-178
510
417
-303
100
-110
-340
-17
-258
-526
44
-491
75
-547
674
-115
-492
-566
533
-794
466
-184
-204
681
-148
-402
-675
-115
67
-824
-407
-9
-223
-48
95
480
-578
-406
87
1027
-419
-145
-1121
-308
985
-712
174
488
-276
260
-598
1488
280
-725
211
-68
-1042
131
714
-501
-389
89
71
-586
516
-692
25
752
-1163
59
-299
28
-135
-253
-400
-107
-735
1054
370
-384
600
-108
-778
-824
555
237
49
-67
-219
-114
-403
-1298
-62
-251
225
-11
-306
387
-690
384
-26
-15
0
51
-171
-617
-410
500
-762
-271
-319
-104
57
-527
-405
-356
-39
24
-538
-55
422
-35
111
534
802
-491
-486
403
-339
547
1136
-451
-373
-612
-1145
-686
-569
-822
531
185
-130
174
-240
-284
-408
-165
-148
319
375
-1251
-420
-549
340
-151
-486
-392
425
25
330
19
-741
190
-472
-334
-350
-850
315
-46
392
44
171
-699
-67
-1186
-38
-737
-627
-741
245
-406
-211
-201
-311
750
-254
196
-367
-95
214
396
474
310
-266
172
-642
-230
-437
-633
-148
-332
-753
-228
72
-654
-705
-526
-72
-7153
-547
-734
453
-302
-442
289
104
-801
-388
248
7
-733
-229
-241
-287
-204
634
-558
-523
-79
500
-187
-1325
-516
-140
-820
667
-371
-279
-191
-500
-306
-342
475
-115
-959
-205
-166
-71
-557
278
-702
-284
384
-217
-1158
-636
280
-926
-1000
-800
557
-42
276
507
-585
245
-109
108
-292
-83
-676
-287
-28
-636
282
54
-145
202
-310
56
-360
750
394
-524
62
-1229
-559
-341
-617
233
653
637
-191
452
-1389
381
2
-132
-126
30
661
2
-572
-72
-315
-221
-1066
64
253
-856
-171
-700
-306
60
600
20
-32
-525
-392
-176
-181
33
-25
-218
23
31
308
370
746
-717
-1058
-326
202
-179
249
-662
-494
-611
-266
-334
-532
51
1055
83
73
-267
-202
-323
-24
515
-757
-128
-665
-749
-425
-47
262
407
-490
-462
-30
232
-1022
368
-423
265
-819
43
69
144
1
-368
-351
-168
-179
614
457
-119
-170
-56
47
118
-674
-82
505
-22
-287
-205
-12
474
-583
-467
256
78
119
205
-95
-261
8
708
-100
-312
257
350
-1047
322
-1247
-542
346
79
-157
-594
-549
835
-312
-583
-349
-246
-445
122
52
130
120
-351
204
-263
542
-219
3
-630
-32
398
477
-58
411
-453
145
-97
-653
-99
433
-379
-385
-286
-122
-411
-666
449
-222
-193
316
93
85
820
-153
169
-233
168
420
501
1028
-55
124
550
-193
591
-425
-351
423
-281
-1004
-398
-900
-126
189
298
1238
139
74
542
606
-205
-284
534
563
379
-687
133
-887
560
-593
123
-362
-302
697
709
358
929
-356
-706
-75
605
-13
491
119
-507
-343
-174
-657
385
-404
-218
424
237
511
-535
-127
112
66
-500
-449
-44
183
-788
-357
-566
-390
588
16
-289
75
633
414
1077
-86
-147
188
-230
34
248
321
-236
240
-460
-26
388
-229
-725
25
-349
-368
505
-452
-303
-540
193
-569
-94
329
-51
-442
872
-404
-51
1309
-510
-113
-191
155
-583
-327
-151
385
83
-605
46
539
-326
-351
-226
614
-822
240
-360
323
-337
-531
-170
-306
354
-511
-971
7
-351
-218
