109
12
-19
87
-67
-235
-31
-83
192
187
311
-109
122
-119
36
-56
43
-151
-35
-36
145
81
-150
1
35
-143
-202
-153
51
-100
-297
16
-212
7
263
233
173
-129
138
155
13
-93
175
-133
-2
19
132
47
40
382
99
-153
-41
-233
35
-3
168
-387
-211
-122
-199
-29
-305
-94
10
-82
-224
87
-190
-140
62
77
-5
29
54
341
-354
89
-107
-176
-250
55
120
7
222
36
192
-158
-126
-172
142
-80
-106
-263
-1
309
-129
8
-206
139
55
37
-66
120
177
55
-57
145
42
334
297
-157
105
-172
234
-221
-147
89
26
-10
-166
-361
84
-150
-57
-12
-259
-70
-8
214
-95
-249
-99
115
-56
67
-174
132
-203
202
74
171
159
4
117
182
186
137
284
-179
92
-163
109
84
-80
-238
-295
-8
62
3
-245
182
51
189
-61
-147
-240
29
1
-44
62
76
18
-66
77
45
-108
-166
-162
-173
344
-132
113
-81
40
-118
-154
89
83
-38
40
110
-274
154
87
-62
145
-135
-87
-342
266
145
-327
135
121
-329
23
-38
-169
-129
44
125
-206
-44
-93
74
128
-119
2
51
-460
120
-7
-126
22
-223
74
-66
-292
193
70
49
186
63
-130
105
-188
35
-16
-203
-476
-40
302
-334
220
54
-164
-55
209
-130
18
101
157
-88
22
69
94
94
-64
-215
165
91
68
-44
-11
9
11
208
-224
-77
38
-101
-4
252
-109
-150
56
77
136
-128
-154
-226
-66
190
120
177
-299
314
67
-293
58
-56
-28
-143
-39
24
148
36
216
-12
9
-74
185
-12
-46
-54
24
112
510
-85
88
-79
74
-63
-61
293
154
-93
88
-115
-13
-133
-4
76
61
89
-265
-253
-7
-42
270
-115
280
-182
39
-14
53
10
0
-49
-104
264
143
98
-33
-142
-32
-18
144
68
-9
-32
-226
-57
155
178
-31
-26
143
-84
-314
133
-185
179
18
-112
243
-52
-72
28
-43
-74
-17
26
113
137
-108
23
10
-24
-90
58
156
100
-82
37
-84
42
208
13
-100
-147
-121
77
96
-23
27
-111
140
106
-188
237
-127
-101
85
308
85
-104
-192
285
144
257
114
85
-153
-399
-193
-93
-218
-197
194
140
-259
195
37
12
162
60
77
-125
154
-160
76
-68
133
87
6
-169
-85
186
-161
74
93
151
43
185
106
349
136
58
-251
-157
-245
-27
69
-39
117
-106
-46
99
-38
50
25
-83
-270
35
-42
-174
-13
417
103
74
-95
-202
257
16
-281
-257
-29
17
2
48
-141
38
254
65
-226
-42
-134
62
-5
-11
-172
176
91
-17
115
-90
-145
118
176
97
172
146
392
23
213
-11
109
-126
565
-62
-152
385
-174
-143
227
-197
286
73
89
-52
95
82
-53
44
-104
228
-189
104
127
22
-297
-235
111
330
-40
-30
-186
231
-179
-196
89
417
126
-16
-2
14
-128
-189
-78
86
236
-183
-178
148
-60
-304
7
341
152
-17
-300
79
-45
-72
-134
-66
-320
200
238
-221
-99
-102
112
163
-49
74
-96
63
266
-57
-58
-163
-62
-42
-181
26
-110
-200
-63
-130
135
342
-101
-91
100
-115
-158
69
-25
-85
-147
116
-134
-132
312
-63
120
-241
-178
59
-58
213
82
166
77
285
32
145
-129
-42
86
-64
-113
197
131
134
37
106
-69
3
100
-183
-222
-61
-60
-68
-351
-234
-109
25
319
342
-171
372
8
-271
-57
-1
-37
-175
-16
-81
-90
-126
-73
83
-193
71
4
45
-135
150
-146
67
91
45
-46
36
-232
-246
19
-105
-128
99
-53
-156
-125
-249
-55
125
-41
39
-166
28
-191
-149
39
0
224
-78
50
65
-21
-125
142
125
-127
28
-230
-73
256
86
-52
-98
-52
-5
-250
-205
-16
-17
235
-76
119
115
230
-72
-175
158
-28
-27
-152
-51
-160
213
204
326
-19
-22
11
-139
-6
48
-83
199
87
-271
182
133
37
7
111
181
-238
43
61
51
215
169
67
-132
356
-8
112
122
174
-173
170
63
-280
48
-134
64
161
3
-228
-218
