-166
-84
-306
-28
-396
-264
-449
-363
18
47
-268
-330
125
-253
-192
-440
-435
-269
50
-200
-468
-119
-339
-661
-226
-361
-249
-22
15
-224
-308
-189
-459
3
-52
-72
72
-36
-284
183
-13
212
-41
-159
-160
-101
-302
-175
-119
-97
320
-228
-474
-1
-350
-361
-225
94
53
118
42
-395
-173
-160
-108
-348
-192
-248
95
49
180
-157
49
-181
-259
-94
-123
-124
-279
-436
-235
-324
-201
-326
-214
-211
-230
-114
96
-496
25
15
-519
-134
-291
115
-396
61
-294
-22
12
-164
-376
-77
-117
-172
-40
49
5
-149
-7
-31
-77
66
-97
-175
15
19
-85
-168
-44
-103
-162
-1553
-222
136
-182
-298
-46
-134
-84
-359
-4
25
31
-80
-197
18
-15
0
79
-151
-168
-470
-351
-65
-40
242
-63
-495
69
-421
198
-219
-51
-289
-162
-138
-155
-31
-246
46
27
-276
-442
-110
-551
-228
202
-176
-4
83
-216
-295
-165
-155
-437
-11
-137
-342
-796
-445
156
-138
-291
-136
-628
-206
-438
-62
-33
181
-386
-70
-347
-182
-144
-72
37
-87
22
-156
-201
-58
-51
-482
-201
100
-243
-210
9
-97
-403
-369
-143
-152
143
32
-418
-46
-264
-336
-155
-267
-46
1783
-256
124
-431
-110
49
-176
-625
26
-61
-116
-130
-132
-402
319
-162
-264
252
-376
-147
-15
-239
-91
105
149
5
-459
-54
75
-308
-37
-17
168
-109
-293
-253
-70
-101
-19
-102
335
-196
-186
-294
-89
-30
-192
61
-200
-51
-137
-210
-181
-19
38
-222
-411
-213
-3
298
-179
-557
-240
-176
-69
-135
-200
117
-155
-389
-219
-84
-323
-380
49
-76
-258
-93
-290
-572
-114
-69
38
-1705
-39
-31
25
-347
-148
-65
-338
-214
-111
-138
15
-32
-460
-271
368
-55
-38
-219
-404
28
139
-359
-296
-308
-511
-97
14
60
-112
-84
-18
-116
-299
-213
-299
-180
14
49
518
-23
259
-83
-85
-603
-110
-70
-22
-212
-294
-22
-169
-73
30
-319
-120
-283
-96
3
-104
66
-62
300
-84
-189
-10
200
-106
-368
-109
175
-196
-111
1051
28
149
-583
11
11
-346
-162
134
-121
-156
-165
184
-142
-119
154
102
-450
87
41
-120
-289
37
68
244
-306
204
-465
-16
-168
15
-91
34
-126
-297
-182
32
-237
-178
-151
89
-246
54
89
-248
122
48
278
-364
10
75
50
-263
-18
-288
-135
68
-96
-89
-206
-223
-369
146
-73
118
327
-28
-161
0
-420
-70
-433
133
-411
-451
77
-309
290
376
-207
123
-150
-325
-538
42
-338
202
-199
-212
-255
-259
-96
-458
-37
76
-93
-301
109
141
-78
-128
44
-284
-34
83
-248
-522
56
-165
18
-13
-213
-152
-284
-71
128
-219
-342
-443
-89
-269
-69
47
-150
-167
78
-242
40
-28
91
-44
-117
90
-180
-356
-58
-41
216
-142
-57
-253
-363
-56
-3
-48
-1701
-8
-309
-233
-55
-135
-66
-247
-230
205
-184
9
-293
572
-290
-48
-178
-67
181
356
-14
-52
-505
-392
20
169
-270
-119
-94
-12
-97
-444
-184
34
70
111
-471
50
43
-148
-221
-239
-38
-192
9
-249
-440
-136
78
-276
-213
292
-250
184
38
-330
-180
-117
-4
-42
-841
36
-56
-82
-153
-99
-242
47
-159
-144
-116
-203
-201
-121
-166
-48
102
-247
-346
-364
-159
-190
13
-63
-331
90
-17
-219
-71
52
39
-50
90
146
-491
-164
-301
-38
-219
-192
-453
143
-298
-238
-427
-182
-263
-609
-128
-195
-271
-254
-350
-228
171
-459
14
212
-89
312
-150
-460
-171
-423
-330
-253
-417
-321
-65
-92
-407
-348
-151
-7
-256
129
-355
-95
-151
-227
-143
-518
-448
-383
-440
-55
92
-39
-284
66
-372
-321
-256
-6
-102
-80
-239
-2
14
-119
-201
-372
129
-166
23
-75
-158
-139
-66
-245
205
-177
72
-297
-320
-54
119
-77
-399
-254
-663
-271
-179
-431
-144
-158
-407
-326
-31
-215
236
-274
-163
-63
1024
-115
-52
-147
-327
-30
76
-33
143
120
-194
-95
-107
-415
-533
-79
-85
-421
-7
-206
-164
-215
121
133
-154
-421
-259
95
-221
-239
-86
-58
-32
-303
56
-173
598
-281
-108
145
-237
-106
-312
203
118
-65
-88
-97
