-46
-130
-350
155
-564
-84
-403
-354
8
-55
-19
-124
24
-412
-153
-385
-359
-279
-51
-399
-585
82
-430
-666
-158
-604
-343
41
263
-311
-219
-120
-471
303
-385
-12
141
-196
-505
629
-72
235
-176
-133
-142
-20
-63
-19
-100
107
225
31
-662
164
-377
-283
-316
210
70
-31
39
-401
-44
-124
-115
-476
-63
-153
-98
150
190
-369
5
-68
-342
-207
-26
-103
-341
-324
-115
-262
-89
-309
-148
63
11
-172
-76
-299
-78
180
-1001
-243
-504
121
-474
236
45
-8
-20
-151
-5
-24
-166
-17
72
-50
250
-250
147
0
142
177
-55
-146
-277
-118
160
-464
113
105
-59
-321
-427
95
110
-567
-73
-46
-209
-491
70
145
-157
23
-333
-222
343
-29
56
-220
-212
-312
-327
616
-14
-171
174
-549
-191
-379
151
-240
-285
-215
-302
-321
-254
254
-284
80
-182
-383
-118
-410
-293
-296
510
-35
-32
-173
-50
-431
-105
-487
-345
-421
-436
-110
-133
-336
105
-420
-145
55
-628
-391
-519
-271
-26
355
-739
24
-306
-344
-21
-386
-149
9
84
-254
-340
-254
180
-478
-271
-17
-199
-290
99
26
-533
-300
-319
-109
156
-129
-208
-131
-284
-563
65
-155
107
-587
-354
-5
-261
130
-136
-11
-180
-220
-51
-169
-169
93
-312
269
-217
-228
-24
-272
-121
-163
109
-303
284
342
-162
-843
-52
-92
-185
21
384
-63
-209
-189
-143
-65
-67
-222
-89
148
-157
-73
-270
17
-162
-153
41
-255
58
-114
64
210
45
98
-383
-143
-99
157
75
-435
-399
-465
-310
-84
-387
-19
165
-61
-563
-260
-268
-765
-225
-97
-443
-317
75
-463
-887
109
30
33
3214
-174
109
225
-232
-89
-12
-286
-341
-320
144
-175
217
-394
-609
292
-117
-280
62
102
-102
173
-89
-342
-206
-487
74
-195
66
-23
-69
74
-159
-409
-260
-178
-215
-163
-225
106
45
241
257
-169
-385
-167
-68
116
-315
-274
-70
-58
-358
-202
-221
-207
-242
-90
42
-401
115
-165
-97
-56
-265
96
-70
-218
-233
80
48
-301
-187
-1376
-134
151
-253
41
349
-344
-45
21
-315
-399
-522
-125
-343
-179
289
201
-319
74
-78
79
-246
-217
-20
99
-230
-234
-542
197
-3
-261
-323
-79
123
-249
-84
-79
-187
-65
34
158
-187
16
263
-308
-234
235
250
-385
-206
182
257
-398
169
-332
335
-236
26
52
-202
-298
-414
-60
-52
-189
431
-207
-53
150
-262
-95
-398
42
-445
-328
107
-34
243
16
-178
300
-8
-391
-422
96
-220
-41
-295
-119
-204
82
-116
-172
-23
-31
136
-140
198
327
-270
-420
-39
-181
77
-135
-407
-309
208
15
-89
26
-318
-123
-23
-84
-111
1
-89
-251
-102
-246
-143
121
-133
-362
67
-211
-162
-297
128
-67
-193
-27
-40
-593
119
-172
516
-295
222
-570
-375
251
-113
-72
-217
212
-255
-233
161
72
-42
-170
-468
-95
24
-354
-253
503
-364
-26
104
-186
120
659
301
-299
-694
-306
64
73
-376
-328
-127
51
-131
-459
-347
-106
15
-49
-26
-306
168
-102
-216
38
8
37
8
-344
-364
-143
194
-189
37
-205
-397
37
114
-460
-414
75
67
41
-981
-5
-109
-259
-111
-122
-383
-284
-298
-72
-185
-282
-217
-404
-316
-184
-65
-207
-225
-274
-311
-384
-355
-344
-231
197
122
-134
142
-27
146
-131
-259
105
-312
-201
-348
-168
-112
-248
-336
166
-288
-161
-519
-346
-302
-619
-155
-293
-225
-248
-440
-434
200
-299
-237
38
-242
115
-272
-288
66
-170
-200
-470
-335
-287
-7
-99
-357
-142
-49
-40
-445
-23
-446
12
-207
58
-422
-359
-227
-320
-303
-231
39
76
-338
-165
-585
-444
-501
-24
-233
-215
-629
-83
260
-42
-435
-251
76
-199
40
-231
-191
-246
-286
-186
161
-178
-153
-81
-322
57
194
-173
-426
-224
-379
-242
-318
-373
-182
-103
-153
-303
-92
-380
-25
-238
-81
-242
27
-67
-122
-133
-250
-90
-9
178
72
-303
-112
-515
-332
-494
-715
-116
-166
-200
-28
-95
-140
-46
-46
-42
-207
-199
-157
37
-289
-293
-140
303
-83
-347
242
-21
225
-462
-145
-200
-321
-331
-154
367
77
-217
-107
-197
