80
146
-208
117
206
135
-139
54
-225
130
-418
179
413
-30
66
368
-129
376
-141
-171
-676
-518
-342
-36
157
-147
-4
201
302
354
305
-323
118
37
253
422
309
51
429
6
-178
125
439
-208
230
40
-79
-136
-309
-82
80
92
37
-432
153
-340
-401
-632
-350
-512
96
225
-213
92
-126
-211
52
-159
-154
-142
293
16
484
-248
-227
201
324
601
-266
-352
-89
220
-183
15
-615
-269
491
-613
-145
-304
242
40
19
591
23
124
36
260
48
-61
-236
-398
-68
501
90
-4
-62
4
117
-57
-408
-144
-288
258
165
25
-107
-137
138
11
-123
337
-450
74
190
50
195
-595
585
480
301
-358
-116
103
192
44
-82
-360
-91
-723
-130
-186
-97
298
-362
-231
36
251
258
-399
-134
395
-278
147
163
-32
-322
104
360
-836
160
-91
800
129
-405
-215
-33
-170
801
-43
390
-7
-579
-377
-154
-188
-219
32
-21
-163
54
62
-97
312
-160
153
109
-205
-54
-336
-122
116
-34
-41
284
177
115
49
-114
305
-128
-404
-326
-26
53
173
-255
215
-247
486
-162
224
-398
-62
239
441
430
161
-736
164
14
-201
-72
555
33
-339
-464
187
-344
-184
-329
-187
-414
-265
193
322
-140
210
81
749
-365
33
337
90
-181
153
-473
240
580
383
156
29
59
1
-115
94
230
-47
90
188
-57
-58
37
13
-591
419
-58
-412
-63
-80
122
306
-131
122
268
-427
133
365
459
128
168
-38
-125
-163
48
509
100
82
116
49
360
81
246
-118
114
-500
-855
248
210
-425
-62
535
383
140
-331
-5
474
-164
1149
-63
421
-587
-336
-281
-57
175
-115
-353
-67
-938
105
226
-230
159
-418
-514
-75
-22
-353
499
-4
-611
-164
-192
139
-333
-102
125
-128
-49
321
-66
-703
73
-602
-9
-118
-206
188
-209
419
-447
-138
264
258
30
136
24
-411
63
-623
-175
-394
-111
-314
137
-528
-122
-140
538
-62
47
8
14
80
225
162
78
143
193
253
22
-35
95
126
293
-412
101
139
-92
82
78
303
-282
184
-177
-179
-398
-7
-131
82
63
-541
19
47
-100
-40
-42
-92
198
-29
-119
-139
-175
-203
-80
89
327
120
-893
435
373
-441
-371
469
313
-534
-184
-145
-896
555
-7
-61
-115
-81
-211
-109
314
72
-138
278
-231
603
-265
527
21
-391
-567
139
-5
-122
-10
-170
-74
48
125
100
79
27
533
403
-186
-483
89
270
-311
330
347
-415
284
212
223
124
440
443
-76
-137
-345
-491
-18
-444
-455
-586
-457
-565
215
129
120
209
197
213
-114
-896
-244
-238
-37
-755
135
-186
119
283
-91
-256
-530
541
42
-163
117
19
-75
-85
464
257
-169
71
-101
101
579
430
67
81
-296
-3
-42
-427
231
-406
195
-352
432
610
717
51
-643
-327
-24
-225
85
-331
38
140
-135
-27
56
219
296
229
-121
-106
-441
-225
578
-9
96
-15
308
-513
562
-12
253
11
-451
620
306
269
-138
357
220
-109
-232
332
181
-14
529
-107
-182
172
165
-5
256
121
200
-217
-391
44
-36
-43
-36
-35
317
-38
-69
38
-40
2
-434
192
83
-13
-415
-189
49
196
227
314
-486
-129
933
-59
443
-153
496
309
-97
-661
-102
340
-203
162
-291
-4
401
54
382
-420
68
90
-405
-82
217
-156
-379
107
-74
-25
-44
-164
37
-602
149
-116
-469
-178
-179
176
26
197
-322
85
19
161
-512
-310
489
238
272
574
-9
153
451
-2
-357
-149
-100
-144
76
10
328
-138
198
-218
50
82
197
42
206
-181
-115
-59
272
80
-119
281
252
230
333
51
-131
-73
7
-25
-54
259
193
479
-443
661
192
97
-302
-201
181
-89
-138
14
67
50
71
341
391
586
-168
230
138
394
247
127
-95
76
12
-27
128
-240
-25
242
44
-312
39
778
14
-27
-12
-141
88
278
-524
124
103
132
-84
422
-251
219
393
216
-526
-504
-603
182
131
-7
-86
-587
598
-226
-248
667
73
24
-623
-502
552
-223
40
-128
-425
-169
-242
