-27
-12
-28
1
-40
-49
-7
46
-13
-29
-4
16
-17
53
6
-26
43
15
21
-19
82
42
32
5
58
-27
-35
-56
-46
-13
43
-13
9
-26
23
-19
-37
-2
84
8
-15
48
-14
8
-18
28
-28
6
18
-37
17
13
-9
-3
-35
-21
19
-19
-40
-27
-63
31
18
36
-25
373
228
66
-57
-36
-249
-310
-290
191
-39
-26
199
-65
-78
30
-432
300
-175
174
-79
-154
-143
-705
-408
-406
47
501
215
614
92
-318
-280
144
8
-94
-436
132
-93
-160
43
121
22
637
-379
265
-108
-196
145
-616
-307
-179
-488
-139
168
471
-187
181
59
-267
-134
7
258
-370
-29
19
-4
-115
5
66
-71
-55
-66
-136
-192
36
-51
7
124
66
82
-87
49
12
-25
-32
-121
-71
-67
-260
59
18
-228
53
-20
-13
55
25
107
-69
271
64
-13
46
52
16
-72
-190
135
18
29
-191
104
161
261
-30
-68
-103
-70
-85
-118
-77
-55
-36
132
97
-72
-104
18
-5
12
28
4
12
-117
-23
4
-24
-17
15
-3
26
7
20
4
33
-21
0
0
-1
-1
-2
-4
35
-37
-9
-29
9
15
-13
-26
3
-7
33
-37
-3
-57
3
8
8
-1
13
-23
11
-6
-8
-1
-35
17
3
-19
10
-7
7
-17
161
-55
14
19
90
-14
-10
-25
17
45
-2
-63
-105
-360
-1
-46
-50
-12
129
51
38
-348
-32
65
73
136
144
-141
-41
5
-135
-383
-361
-33
-12
89
-8
-42
35
81
-192
-26
-11
-2
-3
-28
-211
31
-216
79
66
-247
11
-140
50
81
38
25
78
200
21
-139
164
-68
6
-24
142
169
51
-52
139
-397
-128
435
148
12
-127
56
-223
205
-175
-32
-136
58
-171
111
-7
14
-345
-591
546
76
-608
581
-5
-435
-25
-87
-244
127
-54
-252
-234
-138
136
233
-79
-243
-170
-189
45
76
-285
760
111
-135
36
25
122
-202
773
-44
-87
-169
226
-329
-340
-511
-177
-443
208
-237
138
-42
229
111
-68
395
112
-20
-25
16
60
-4
-53
508
-86
15
259
-30
-133
-80
48
-93
-82
-158
150
-7
-236
-87
-188
-20
5
57
-31
-107
316
50
-111
355
32
51
19
-124
-101
-157
-85
184
-12
70
103
-212
-69
5
70
-195
4
276
317
-116
224
-18
182
-503
250
-109
172
182
85
-56
41
164
-5
9
-34
15
-55
-21
5
57
-60
37
-33
-14
-21
-64
2
-19
-19
-77
1
-43
-29
89
16
-17
143
-76
56
36
44
45
29
-34
-44
-29
-39
-56
33
19
-47
-52
-45
-5
37
114
26
-8
-3
-82
-11
14
0
-30
51
-25
-29
-4
1
3
-82
13
-2
37
63
35
-50
10
-72
-104
-68
-55
61
24
-36
39
-80
-21
58
-33
113
-27
-12
25
147
29
-87
-128
-53
3
58
67
105
76
0
68
179
-52
-92
-57
17
175
95
-143
18
-62
25
216
-68
-23
18
-80
-205
-146
16
-83
14
108
-201
-5
75
-57
5
-3
-102
92
-18
25
276
-34
-25
479
48
104
-174
779
-503
333
273
348
-39
523
-540
30
-192
-229
16
-415
-119
264
-533
-333
-327
646
10
335
682
238
-177
77
64
249
12
4
298
52
77
-252
-81
-289
132
83
-428
727
14
-448
-73
69
399
-399
-284
340
376
14
-162
207
-550
-53
47
-218
-119
17
29
29
-7
-17
22
-15
24
28
12
8
38
-30
11
19
11
-1
-12
20
20
22
6
18
1
38
-4
-3
-4
-22
-4
-20
18
-33
4
18
-16
25
-2
-2
-3
-41
-21
-3
-9
-5
-87
16
10
1
0
-4
95
-18
40
-17
-15
4
2
27
-187
13
0
-118
-2
44
37
83
-5
17
1
-28
-182
-23
20
32
-29
28
-52
107
129
-24
-29
-26
-35
39
-211
-82
8
72
-17
23
20
-44
-58
12
-7
-34
53
-33
-32
-359
32
-72
37
-148
-40
-8
14
42
-11
119
93
-36
-67
7
-314
-47
-52
-10
25
-12
7
-10
-96
-30
-194
3
-8
