-71
36
-4
-30
-11
98
18
3
57
42
12
7
-26
27
-20
-35
-31
31
-1
7
34
-10
28
91
-33
-35
29
-37
54
-27
90
34
-25
-37
-3
34
-111
-41
-15
-2
69
4
6
-34
14
-26
-10
1
-7
51
19
2
-53
-4
-37
-25
9
7
-26
-6
-16
-10
43
0
-45
13
18
4
-50
46
-6
-84
28
-20
63
-33
31
-30
74
-86
19
36
31
-56
-68
3
86
14
24
49
-8
-54
51
25
8
-39
-78
87
-46
-124
-11
-26
-30
-8
72
-29
-24
48
54
12
-11
37
68
31
16
29
13
125
-61
23
-28
40
46
37
-46
-35
-2
27
-118
-3
-22
48
0
26
-41
-86
25
-57
-17
-68
-83
-104
52
-46
-1
33
66
-66
2
-39
5
-30
-59
-10
-35
-26
91
-44
-46
-66
-59
46
-6
72
20
-71
23
3
35
11
-121
43
-33
21
30
87
13
114
-70
-4
-10
8
-17
-59
3
-16
-154
27
-118
-123
32
32
-15
13
112
102
-1
-32
116
-5
59
18
-16
-67
6
-66
-212
-134
46
-30
-21
33
-39
26
125
44
-42
-60
194
10
-134
42
114
-74
-29
77
-134
-35
88
118
91
119
54
51
59
28
8
-83
-8
57
-49
20
-66
-107
-136
36
-137
-52
-8
-71
-62
17
73
-89
-307
-123
-71
44
24
46
-70
42
-1
36
4
33
-2
2
18
89
-19
-73
20
74
-7
-59
-49
-9
-26
27
-52
22
-16
81
17
6
12
20
-59
-64
3
-29
52
-14
-60
-53
-44
-1
28
-50
-49
-49
9
77
9
-17
12
20
6
-50
-1
25
-16
28
6
-79
37
18
-24
16
-8
10
-36
11
8
39
3
-37
15
8
27
-15
2
-52
-76
-33
-27
15
39
-20
26
-6
-63
16
38
15
20
24
8
-98
0
-21
-1
-24
-18
-53
-26
-50
-8
-11
34
33
-1
31
78
-13
-12
2
-3
2
-16
4
-5
-7
14
-12
26
42
-1
41
30
-104
23
49
15
-29
16
201
249
-60
-159
102
-20
81
-71
41
204
-11
-23
104
-89
-70
-84
8
89
-107
-97
-11
-90
78
65
11
-137
247
-91
-165
-29
-56
-72
161
-111
-5
26
-269
32
6
-131
-322
224
-59
-45
53
-5
37
2
56
-69
43
44
156
17
81
-88
-55
-96
-166
125
-216
14
-32
2
37
0
2
-11
-7
69
12
-15
-25
-3
65
30
23
-26
4
57
1
40
-39
79
20
5
39
-10
-14
-32
36
-47
-8
6
11
10
7
39
17
58
16
14
53
-18
4
-10
-57
69
-58
-5
-19
14
-16
13
-26
22
27
-23
8
-14
-6
12
-3
-28
1
30
-2
-17
77
-33
14
-2
-139
5
-68
-139
-10
-15
15
-41
23
-89
70
-13
-4
-66
-42
171
30
-90
-17
31
8
-29
35
16
4
28
79
48
53
-14
0
74
41
-1
-18
24
20
-14
-2
47
11
56
117
-1
-12
-141
136
44
-59
29
-51
23
39
226
39
-27
7
114
-68
56
-94
-3
-63
-28
-31
-81
-58
136
139
99
81
57
18
96
-62
102
-102
-40
20
21
102
-148
5
-89
-86
12
82
-35
-112
-116
12
-26
-93
56
148
180
83
-6
-3
51
-152
-72
17
90
-7
-32
-146
29
126
97
-37
-228
-68
-36
-71
-52
61
0
-4
0
-92
15
18
-25
26
-11
67
62
-9
-30
-18
-20
5
-41
83
199
-48
-15
-124
-27
62
101
-67
-158
23
-79
37
11
75
156
87
68
30
91
-3
-17
87
-18
3
30
-125
-72
6
77
-11
35
-30
38
-39
96
8
170
-77
-43
-45
-71
-19
-28
-39
-70
23
-199
-27
-53
58
60
-9
-176
323
113
-79
102
-5
230
-22
-120
50
29
-133
-84
-217
103
91
290
5
-45
-86
21
31
-19
10
-114
-185
-80
210
-33
-1
18
139
132
24
-51
40
200
124
-55
70
-213
21
215
137
100
-86
-7
20
89
252
-88
16
-100
-140
65
141
42
10
-66
-126
-48
-36
