-280
130
644
-617
606
-172
624
190
-251
-66
-262
-27
-557
735
103
840
244
333
-158
305
712
-432
622
1211
330
662
407
-94
-1017
560
-79
-271
708
-761
522
-190
-520
-243
576
-1261
-223
-652
-252
-25
-84
-426
-86
-97
-378
-514
-308
-498
1076
-588
460
390
384
-902
-682
-227
-171
479
-262
41
-205
683
-279
246
40
-816
-493
326
-235
-400
295
265
-304
-82
581
207
-57
-33
179
516
26
-455
-296
-93
-458
68
-279
-780
2598
359
801
-575
868
-473
-538
-359
-413
79
-113
-175
1
-480
-507
-386
-862
119
-597
-348
-792
-526
-145
-62
190
-65
-560
531
-407
-418
-239
321
1018
-560
-527
734
-451
-247
-49
576
-479
-356
-158
-236
510
438
-860
-321
-489
134
142
349
420
-2023
-193
174
-677
916
-31
346
-1013
244
347
116
143
30
33
-1049
198
-445
-104
266
-295
332
302
378
-1549
-203
-294
-142
-367
298
-401
873
276
202
469
-279
83
392
-655
436
39
-462
372
681
556
22
-239
-1528
1185
-437
723
170
-121
717
184
-181
-476
122
418
119
-666
409
111
-267
86
429
-659
-433
734
660
38
-77
-815
-306
392
-67
295
979
-368
100
-718
1357
670
-259
197
-430
-177
-78
206
170
-131
66
-29
-757
486
-1118
267
117
-551
11
-167
-228
-376
261
-915
-964
-119
1802
-40
-82
294
-491
-1193
-305
80
-48
-257
-202
-472
155
-198
-1079
31
130
26
-540
15
-237
-649
25
-314
-212
-447
-588
-469
-360
469
122
-405
-612
-437
569
305
138
-17
92
402
18
-696
-378
683
400
278
927
576
-258
406
291
-368
445
1618
-879
-354
-463
-3736
-253
-549
-610
107
29
-168
272
154
171
-797
152
-855
530
1072
-875
-140
45
-289
-621
-222
-650
-54
512
66
614
-759
-49
-453
-394
-210
-746
17
238
130
196
403
-68
-15
-804
-207
-880
-1120
-307
194
359
-323
-489
122
275
-352
52
221
126
77
-42
42
-145
-351
508
-275
159
-38
-318
30
-475
-221
21
212
-697
-716
151
-96
-8204
-64
-609
183
-513
-1027
275
-171
-340
496
487
459
9
285
14
-926
-721
350
-718
-245
-385
-27
66
-154
-647
-17
88
791
-717
-137
-140
161
-224
-656
367
-224
-348
-151
-136
-306
-1007
5
-419
-804
82
9
-1090
-742
621
54
-733
-962
668
-710
64
-965
-13
-303
-186
113
204
702
-66
-102
303
-1007
64
-358
-745
-49
-200
137
-365
269
448
-723
-289
-702
-441
26
-1427
-362
316
216
-494
228
-388
357
-228
-43
-421
-9
45
-325
-501
-570
-140
-725
-1145
117
697
-429
-88
-283
-56
664
90
-725
-381
-104
-467
121
-65
-196
-56
-62
-334
-1
204
-123
357
-266
-706
-170
784
-247
-38
-55
96
-510
-197
-11
-221
-359
1038
-346
94
-1179
192
-738
783
450
-855
87
-96
20
-776
39
325
-298
-676
-474
130
558
-149
-331
477
133
-834
488
-216
-461
-3
-369
-1296
-829
221
1107
352
-439
-363
464
208
-317
-515
46
676
160
-136
-319
-256
-485
-127
-803
-288
139
-338
-234
-434
-328
265
433
-7
-921
82
-83
153
286
-821
-507
716
421
-585
-312
-482
1684
-470
-223
99
-102
-38
534
192
284
-314
39
244
-130
368
220
21
-415
-128
75
410
205
299
307
239
194
-895
-525
-39
-692
-269
-540
19
-70
-570
440
109
141
205
-74
333
314
-815
268
152
711
512
371
817
-181
215
83
-68
635
174
-683
362
141
-541
28
-451
8
279
-367
61
-1
648
641
272
-327
-137
306
-5
-142
-382
379
-378
290
-205
90
-604
337
505
-4
526
525
31
-567
-515
296
52
604
502
245
-345
-278
38
801
-195
-736
-60
565
398
-439
-32
-468
297
159
246
-74
119
-729
224
-372
30
287
-306
-814
41
629
439
390
114
209
317
-7
-116
119
3
-272
381
-196
12
-221
167
-235
-35
-259
-293
387
-214
-44
-588
-413
381
60
567
138
460
1105
15
-33
240
-114
-119
-51
-251
-357
-359
99
130
172
-225
188
271
-261
-776
-94
469
-989
-44
-583
593
69
135
273
308
-127
-926
-706
597
-143
72
