-9
-228
-252
247
-762
10
-338
-453
-81
87
9
-360
-5
-278
39
-275
-201
-150
82
-468
-617
196
-360
-771
-77
-597
-350
162
218
-188
-139
-155
-467
271
-220
-107
218
-438
-448
575
59
177
-276
-381
-105
238
14
125
-194
-81
360
46
-591
450
-288
-157
-197
277
-177
-26
51
-328
-13
105
-195
-309
-85
1
-110
110
316
-257
76
-1
-339
-4
97
-321
-135
-295
33
-264
-264
-508
-79
208
-75
-158
-230
-250
21
268
-1112
-11
-248
16
-460
146
-96
44
-305
-255
-129
27
-254
-134
34
22
-1
-177
173
-221
366
210
-100
-174
-257
-56
186
-417
74
171
-41
-267
-266
223
-1
-423
-37
-44
-81
-419
106
101
-28
139
-61
-220
155
105
-23
-107
-168
-172
-179
486
-24
-121
-48
-573
-257
-452
42
-198
-184
-290
-350
-581
-314
131
-204
188
-69
-304
-173
-353
-455
-11
700
136
83
-106
-121
-622
-192
-493
-191
-492
-460
-65
-45
-195
38
-452
-268
-12
-629
-404
-349
-256
-39
295
-614
-9
-268
-380
-83
-539
-183
23
333
-218
-305
-293
115
-438
-318
90
-247
-221
-7
52
-216
-368
-283
10
164
-35
-344
99
-13
-485
-49
-191
116
-416
-259
199
-275
-6
-192
-78
-246
-97
-79
-410
-93
54
-122
261
-150
-324
82
-302
-147
-124
128
-270
302
407
-193
-736
-171
-81
-62
67
345
-69
-205
-12
-242
123
-343
-164
-21
-22
17
-156
-302
-163
-214
-182
-58
-311
-27
-350
15
182
95
178
-389
-191
-53
280
314
-299
-510
-598
-320
-60
-362
114
160
-148
-508
-11
-126
-768
-177
-69
-86
-354
171
-246
-755
-104
11
-63
1652
-60
7
17
-338
-125
-19
-255
-338
-184
15
-184
181
-300
-412
482
-12
-378
17
50
-85
68
-48
-78
-216
-529
-54
-235
-7
131
-123
-129
-120
-284
-372
-18
-98
-107
-309
75
184
293
125
-247
-307
-69
-196
37
-329
-236
-158
-248
-254
-181
-131
-261
-317
47
-23
-350
132
43
66
25
-338
42
230
-230
-156
31
150
-368
-85
-1613
-294
248
-287
-1
426
-340
27
41
-237
-223
-459
23
-292
-28
193
179
-241
-22
23
196
-388
76
50
172
-325
-20
-446
118
115
-64
-249
-253
134
-197
-80
-131
-343
-89
73
205
-201
-105
209
-424
-297
203
244
-347
-235
236
249
-510
155
-458
252
-120
245
64
-283
-285
-300
121
-165
60
235
-273
-11
266
-145
-168
-526
206
-517
-168
-6
-383
59
53
-221
212
31
-522
-530
149
5
-87
-149
-164
-258
102
-13
-121
-81
-28
94
-319
239
7
-296
-368
79
-146
-42
-82
-290
-426
251
-38
-54
-216
-307
-161
-35
37
-128
-216
-60
-204
-255
-272
-102
-89
-122
-117
71
-79
146
-207
43
-125
-104
66
14
-660
89
-78
382
-262
139
-610
-382
84
-47
-20
-159
-25
-316
-390
-40
84
-70
-54
-254
102
-90
-148
-236
537
-188
-115
113
-149
90
761
268
29
-554
-444
51
97
-280
-337
-229
-48
-150
-219
-420
9
3
216
-86
-213
139
-251
-321
86
-116
-11
-103
-253
-200
-9
60
-110
253
46
-501
-97
185
-233
-421
99
153
-167
-921
-137
19
-307
-212
-13
-337
-221
-328
-137
-334
-161
-326
-180
-211
-177
116
-437
-423
-421
-406
-289
-307
-128
-143
130
-27
-182
212
-197
34
-84
-88
33
-282
-112
-478
-305
-54
-358
-638
99
-283
-159
-480
-362
-251
-623
-217
-237
-137
-320
-384
-463
19
-343
-341
-53
-73
188
-253
-118
-68
-150
-92
-471
-311
-338
151
-53
-206
-141
53
-42
-335
-158
-407
82
-261
34
-397
-361
-344
-307
-173
-272
79
-145
-306
122
-732
-466
-616
-51
-229
-72
-629
-96
206
9
-388
-59
137
-191
19
-207
-243
-192
-149
-198
203
-119
-267
108
-375
-67
21
-73
-295
-79
-498
-367
-289
-470
-157
-242
-241
-420
-149
-464
-93
-372
-135
-98
99
134
-60
-150
-333
-74
-72
-65
124
-207
-124
-418
-386
-462
-734
-108
-171
-308
-21
-184
-175
-138
-210
-63
-45
-286
55
-52
-401
-199
-168
161
25
-382
218
90
236
-409
117
-164
-218
-340
-202
236
124
-137
-169
-237
