-246
-271
-215
-13
-442
-101
-518
-328
10
93
-304
-476
153
-211
-91
-601
-330
-367
-54
-262
-531
-61
-250
-690
-230
-514
-151
124
161
-364
-135
-172
-568
-11
-80
-182
164
-160
-204
311
118
210
-50
-403
-290
1
-105
-180
-120
-160
213
-332
-486
-97
-507
-272
-326
316
-80
96
-172
-632
-244
-137
-74
-464
-31
-155
-67
85
125
-415
85
-31
-368
-153
-87
-23
-441
-518
-298
-280
-407
-399
-153
44
-120
-120
59
-415
93
205
-709
-216
-164
89
-441
-4
-193
125
-84
0
-409
-92
-165
-214
-141
113
20
-182
122
-109
50
30
-10
-207
0
-26
88
-284
-102
-153
-291
-635
-468
226
-279
-409
66
-111
-159
-362
-3
-65
98
6
-328
-228
12
21
-23
-263
-102
-598
-432
181
-204
12
151
-588
64
-668
158
-215
-70
-307
-223
-320
-178
-144
-162
107
-1
-203
-334
-226
-518
-263
425
-188
50
-3
-237
-409
-95
-446
-448
-223
-259
-247
239
-289
220
-124
-183
-39
-496
-296
-405
-88
100
204
-510
95
-382
-292
-67
-482
-87
-90
193
-94
-244
94
-3
-515
-346
-79
-283
-318
40
97
-466
-674
-210
-65
215
-88
-588
57
-331
-481
-58
-279
225
-230
-250
33
-455
-32
57
-352
-438
-61
-46
-227
-107
-86
-456
238
-289
-351
289
-432
-183
-190
-38
-138
142
155
20
-649
-254
-59
-354
-136
203
114
-390
-231
-369
-155
-145
-153
-113
448
-65
-80
-296
-131
-103
-295
169
-376
34
-132
-121
-140
-71
203
-302
-475
74
-47
73
-205
-437
-346
-42
-107
-214
-157
131
-216
-426
-222
-337
-585
-476
94
4
-390
-17
-474
-610
22
20
115
526
141
107
58
-406
-225
-173
-239
-198
-191
-119
-127
-15
-460
-316
446
-126
-2
-283
-218
237
208
-401
-169
-237
-390
40
-279
21
-43
-24
56
-212
-410
-215
-216
-326
192
-25
499
-41
225
72
63
-336
-38
-50
45
-131
-368
13
-343
-142
-271
-451
-206
-467
-311
74
-260
175
-99
67
13
-319
-9
317
-55
-243
-20
17
-65
-120
2844
13
177
-407
32
125
-401
-189
319
-145
-333
-288
82
-115
-118
131
76
-491
249
179
-149
-340
-142
430
280
-226
172
-633
134
37
38
-87
-85
-32
-400
-131
177
-246
-157
-175
35
-302
220
120
-224
-53
300
260
-393
136
185
147
-560
-19
-444
-147
-23
-233
-60
-296
-172
-350
-112
-76
-75
383
-202
-131
84
-352
-93
-376
108
-521
-424
127
-387
227
199
-180
90
-168
-603
-691
24
-436
199
-380
-224
-236
-72
-175
-530
-98
-25
-105
-204
68
368
-263
-326
146
-17
117
41
-349
-553
71
-144
-1
-55
-195
-190
-158
-104
-42
-243
-206
-322
-270
-324
112
294
-80
-286
-92
-324
6
59
59
-49
-88
107
-282
-628
8
-352
282
-194
81
-324
-576
30
-35
75
-26
77
-214
-341
-169
-27
36
-263
-409
364
-311
-97
-411
607
-256
-256
-158
-85
106
452
38
-133
-609
-526
7
69
-286
-255
-214
108
-81
-533
-322
95
-71
-114
-419
-80
155
-302
-342
-318
-138
-15
-32
-413
-449
-149
28
-276
-210
300
-410
248
129
-362
-206
-18
-32
6
-1024
-52
-38
-86
-112
36
-364
-122
-261
-88
-141
-265
-166
-423
-166
-166
233
-252
-426
-504
-222
-192
-178
-245
-238
152
-107
-441
-68
-9
-80
-106
-62
91
-413
-151
-152
-284
-289
-227
-619
162
-303
-121
-228
-409
-346
-528
-205
-254
-367
-282
-440
-228
171
-417
-105
280
-142
230
-233
-342
-218
-548
-262
-221
-376
-365
-77
-72
-424
-337
-222
49
-258
180
-467
66
-211
-21
-93
-505
-497
-183
-572
-43
-1
-134
-276
-29
-562
-261
-254
-87
-160
56
-504
-1
50
-283
-222
-304
252
-125
-170
-243
-206
-106
-171
-166
200
-227
50
19
-354
-59
5
-249
-415
-385
-614
-328
-154
-514
-191
-196
-434
-309
-97
-315
93
-307
-209
-210
545
-142
-33
17
-387
135
-68
169
-71
-8
-97
-361
-293
-243
-707
72
-258
-581
110
-105
-145
-271
-5
15
-88
-301
-135
75
-286
-437
-42
140
-91
-550
253
-285
284
-435
-56
29
-231
-310
-214
193
129
-190
-93
-84
