-23
-55
61
47
-86
59
26
-14
40
45
23
-27
54
-43
3
37
85
-18
-19
-21
61
-3
-8
-47
-17
-33
33
-26
-19
32
50
22
-21
-44
-83
23
89
-3
-95
-72
2
125
59
87
36
15
84
-4
-15
-44
-103
99
28
60
23
-19
50
-22
-54
-1
-57
76
-49
-33
-28
0
29
0
15
50
24
-6
-2
47
-10
29
-24
-13
54
1
-15
23
25
59
15
-14
-18
20
-3
-11
-49
31
29
-84
-2
11
51
-20
-21
34
28
38
-19
18
155
-41
12
29
-7
29
-1
-48
6
12
-5
9
43
10
48
0
-3
44
26
11
23
45
12
-17
70
43
-28
11
42
21
-11
-15
29
-60
21
19
129
-10
-3
-38
-10
10
-53
-38
-18
40
39
-42
-67
75
-1
-11
9
-16
-2
2
67
-37
-56
-34
-88
51
-27
17
-148
5
46
-15
-50
17
-15
-15
-74
-36
30
-25
-56
9
8
3
-13
7
-37
46
80
-16
16
15
-5
-11
67
11
-17
1
12
-95
-29
-123
28
-34
-95
36
-44
-15
-31
101
81
-49
-16
75
-149
64
66
-12
-9
109
14
-17
-59
-91
-79
-21
0
110
-29
-122
8
-4
-49
-13
92
219
7
-82
-105
-28
-16
-26
67
-19
23
-19
-106
5
29
-52
203
-13
56
-17
0
74
6
-8
-13
15
4
-8
2
-19
-44
-39
3
1
29
-35
12
-19
5
-21
-10
14
-24
-40
-26
-6
-8
-8
-15
-15
-20
-48
-7
-20
49
-37
-48
-19
14
13
-17
-71
9
0
6
-4
-18
32
-11
57
-31
23
-4
-11
7
-16
-4
38
-38
45
-36
-28
-24
12
-26
-18
-53
-109
-39
10
-14
125
20
-15
-13
-25
31
26
97
-70
-27
-111
-9
-25
-74
-106
-2
-104
32
-39
51
13
-41
38
49
-75
-4
-50
-105
27
47
-54
97
-14
-74
18
-19
-135
18
28
-91
-26
28
-77
-4
-14
-5
72
55
-4
51
22
56
26
52
50
9
30
-37
59
-27
-11
3
1
38
33
8
28
44
-15
8
-15
-5
25
-22
11
-6
13
1
0
-21
-30
22
47
24
-7
4
8
0
3
-23
13
-13
31
-13
45
53
-54
14
39
42
-2
-26
8
17
2
7
-60
49
-3
-27
38
5
12
-57
-8
55
-25
-32
7
-13
-12
18
21
39
-17
50
-67
42
62
87
-6
-29
-46
29
-29
56
20
-57
5
-165
-5
-47
13
-1
-53
-21
21
-40
26
4
-50
-26
-71
36
97
-102
40
18
49
-27
72
-96
-98
-99
-54
-28
51
36
-18
-136
62
55
38
-43
-82
-11
-58
-35
-30
7
51
-10
81
47
42
26
6
26
-54
59
-32
68
36
-14
-61
5
15
28
-11
43
-79
-8
4
7
-32
1
138
-13
-33
-54
58
-32
-26
-18
60
7
42
-4
-39
22
14
-16
-5
-74
41
33
15
-14
21
17
82
29
8
52
4
17
16
57
61
21
-17
18
-4
-25
-42
-35
26
25
69
50
-41
2
-29
4
49
77
16
33
38
4
-25
-21
19
-6
-49
-23
23
65
-108
7
-1
-10
-43
-39
-30
23
-22
1
63
-65
-139
-3
-61
-27
-36
-27
32
-12
3
-27
46
-32
-52
-19
25
-38
7
-20
-26
-53
-29
-38
2
30
45
35
-65
28
-30
-99
-6
-32
-5
35
0
-27
-32
1
-62
-15
-6
-36
23
5
23
-21
11
-21
-32
-44
58
51
8
-24
-12
-20
-42
27
12
-21
-10
60
-69
-19
-2
-31
26
-34
34
19
-21
22
-49
-49
19
33
10
9
36
40
20
-24
-21
-44
3
-28
-42
9
-11
53
21
-60
-32
-16
35
-68
-59
91
-9
-8
18
49
-90
19
4
60
-28
-152
158
17
341
-85
-43
25
149
70
106
291
-51
23
-8
-35
-1
-93
2
8
-64
-54
-200
12
-23
51
-39
13
-140
40
177
117
3
20
126
-164
-35
-217
-75
-185
-33
-131
189
27
-330
22
-42
25
93
-99
50
21
-183
94
-90
-102
120
