124
20
-114
-136
-19
219
-159
-131
-149
93
-39
-208
245
-248
-62
236
17
154
13
-152
-441
-14
-201
-48
150
-121
-78
82
188
106
100
-156
-68
-69
32
148
220
-127
158
-32
-103
78
108
-243
38
-7
-37
-28
-105
-103
248
-21
-144
185
266
-66
-160
-36
-107
-251
-70
-82
122
245
-277
-126
-28
-45
-200
64
139
-43
395
33
-160
102
192
-441
-63
-423
19
78
-206
-85
-116
-122
149
-336
-72
-102
70
4
-252
289
73
-8
152
68
163
130
-129
-189
-43
120
-168
-5
-34
-24
-58
-1
-228
-56
151
179
93
-111
19
-7
135
-95
-184
494
103
-110
97
149
57
-148
246
275
68
-251
-290
-86
-6
54
50
-106
75
-205
-14
-38
-121
154
-103
266
-30
176
121
-269
-123
49
473
-55
-30
142
-46
-226
-51
-277
-21
-51
269
17
-97
-158
-99
-36
671
45
36
-135
-153
-123
-106
-131
22
-14
140
-104
-110
25
12
7
-173
131
-76
-166
-93
-116
-1
164
-183
-183
-99
-89
-11
-126
-165
129
88
-167
-122
-90
75
-99
-105
11
-148
-11
-21
199
-149
-272
-49
200
4
135
-376
253
7
-40
-35
66
-60
-395
-193
57
-69
-36
-183
-139
-193
-23
65
34
-88
146
15
218
-230
-39
230
131
-224
272
-32
11
314
526
83
-148
-24
29
-191
-109
131
-31
118
72
77
181
-46
39
-302
106
-58
3
7
23
-168
88
74
-44
123
-278
66
130
181
115
-39
-67
-81
253
107
-49
45
-66
-17
81
-30
-28
183
66
101
-244
-461
8
-23
-195
15
96
105
65
-380
4
201
25
2139
-115
109
-276
-131
-205
53
100
-94
-24
43
-590
122
-9
-105
243
-101
-147
-232
48
-102
-27
104
-128
0
-140
98
-178
62
143
-77
-39
205
-132
-364
6
0
-313
-70
-58
-29
-75
17
-222
147
-269
102
-163
132
-25
-154
-151
-133
-109
34
-159
-72
34
-156
-149
-82
203
113
1
-2
-172
-55
78
-112
192
396
103
16
239
-132
143
-35
202
-130
20
76
-39
47
-54
56
-14
-27
-98
-159
197
-77
-42
50
-138
-4
130
130
116
-58
97
0
117
156
-119
32
-46
163
-256
86
-33
39
-397
174
287
-46
-138
268
-50
-198
120
-101
-265
148
99
-26
19
0
-101
-39
259
87
-55
285
-178
70
-2
140
-115
-87
-195
196
288
27
80
-309
37
61
23
103
-83
28
216
69
379
-100
-64
9
-347
95
-74
-18
168
-63
-26
93
54
279
104
190
-198
48
132
-222
-55
172
74
37
67
-40
-105
257
-86
72
-60
-367
-147
38
105
-98
77
-53
8
123
-21
-91
-208
300
-74
-169
46
137
-75
-42
183
70
79
67
-232
239
210
182
-6
61
-120
-5
112
-148
50
-173
72
-27
327
135
348
87
-242
-68
13
-111
53
192
72
118
191
118
-26
3
398
62
75
101
-123
-91
200
-63
21
94
53
-240
211
-12
76
42
43
346
113
-15
-76
-10
79
-245
70
102
47
-170
223
-15
-2
99
209
-74
106
192
-1
-167
-152
126
17
-192
75
230
163
-88
98
-108
148
-58
158
73
4
54
-145
-148
9
188
100
129
-211
-5
143
-36
205
-11
186
52
-186
-7
101
-79
-22
128
-133
-204
121
52
66
-231
-30
-151
-225
-129
-18
-327
-170
19
-202
59
-19
33
17
-215
98
-17
-147
-4
-90
6
17
32
-24
59
-27
71
-133
-142
-25
184
-89
177
17
86
260
-166
-131
-153
4
-44
255
-35
94
-79
39
-147
-40
163
40
49
116
-94
-82
-95
332
-4
-97
-107
97
54
353
-156
-75
-63
149
-199
3
95
3
298
-321
214
-53
26
-544
-67
9
72
-116
-124
-71
67
33
101
2
408
-183
25
-51
24
47
-176
-24
45
-89
-209
84
-80
-59
84
-33
7
150
300
57
-150
-96
-74
14
-124
-110
-123
-78
62
50
206
-100
-103
229
55
-376
-102
41
31
44
-6
137
-220
173
-23
-193
476
-1
16
-195
-100
83
-51
18
107
-147
90
-81
