26
24
200
-156
-40
-30
-77
116
157
38
81
-113
250
183
-26
-99
-72
27
205
17
76
-115
-211
156
-180
0
132
-19
85
-168
163
-125
3
119
-210
-41
-35
72
236
-116
-5
-130
-93
-8
-66
-180
178
191
-37
19
-55
70
3
69
-174
47
24
118
53
-69
57
-14
43
222
-58
139
146
-171
63
17
7
-146
-112
-21
-8
144
-595
-178
11
-12
-37
59
-39
32
-48
-4
11
59
90
78
-13
-131
-55
274
-53
-11
-23
-77
-6
57
365
-109
70
-57
61
26
153
-22
-86
88
70
27
30
278
-79
-21
-20
130
64
88
10
-151
100
18
104
208
-43
109
-6
-46
-45
98
18
-121
-208
-4
-122
35
41
47
-66
-125
55
-198
51
-233
-116
-62
-96
-17
-184
107
68
47
-17
-307
-27
-139
9
5
140
-78
-54
77
28
0
-218
-56
13
-149
5
-14
-108
-35
-119
202
26
16
66
-12
67
-97
161
-154
-177
165
194
-51
196
-48
-20
-119
-67
27
68
130
-173
72
-95
-197
0
77
110
111
73
19
191
-124
52
-12
130
-104
18
57
145
-74
-196
-11
104
30
71
-49
-11
125
-32
-53
-239
-181
-152
60
-35
215
58
128
-131
88
29
-33
82
-78
-138
165
29
117
-57
-22
-97
-138
93
-86
-19
-18
-128
-67
120
-173
-71
331
-194
72
-92
-22
41
73
-133
17
26
-94
227
-119
-38
1
-49
-292
32
140
53
-17
94
-9
-238
-62
0
244
55
-52
-88
-193
-73
-173
-194
-125
-6
0
-123
-151
48
47
73
-72
85
-147
173
-82
-162
65
-240
-32
-42
48
38
16
128
104
-34
-135
267
227
176
200
103
21
95
15
-69
-29
-14
-19
-11
2
14
0
46
4
20
7
161
-25
-78
36
-75
-87
-88
56
-15
-14
91
-43
60
151
27
32
-67
-83
-83
-6
126
57
10
-50
-10
117
-39
1
-140
-78
-1
4
50
-131
4
103
14
-3
74
81
-44
-106
-19
28
-66
-64
10
-7
-32
52
44
27
-72
-13
-11
-54
-87
124
32
17
186
1
-27
55
-80
39
-4
-16
50
-4
11
25
14
-66
17
-47
-14
-75
-20
-114
58
13
-25
50
25
2
66
34
39
-3
21
8
-26
52
234
41
-1
-52
-1
54
-29
53
-52
-4
-40
26
1
42
-2
-11
-17
12
-43
-50
-28
-80
-84
28
40
-46
-52
17
-1
-46
-26
-37
8
13
19
111
21
68
-84
-50
-42
41
74
-21
40
-63
100
24
-67
47
-22
0
-23
0
12
-88
-38
75
10
77
17
-54
14
-19
-43
-11
5
42
26
19
46
89
-13
67
-4
-40
-30
-5
10
-12
38
-54
14
8
-9
173
4
-19
34
52
57
154
-25
-12
-94
-8
5
40
193
-45
-31
-5
-65
-58
26
31
22
-11
-15
-40
-5
22
-15
-51
2
-60
3
-20
-53
0
45
3
32
32
-33
-80
53
31
-20
-34
-2
108
-89
13
25
-87
8
-65
-8
-9
74
74
-41
-16
-81
16
153
-106
34
-97
-136
91
-58
86
-58
174
58
-30
-260
-104
137
22
-56
-5
33
55
-136
-148
117
-51
-117
-42
-145
6
-187
-198
-176
30
-4
-27
-83
165
95
119
157
-13
313
0
-99
-130
3
-26
251
131
-29
-24
108
192
112
4
212
-83
113
80
127
-22
-37
154
-56
-11
-124
136
69
-33
33
44
-31
-48
73
73
-15
-70
107
10
-12
-1
-31
115
-73
14
36
-2
-62
50
-71
-10
-23
58
37
26
12
-26
-81
-47
2
116
-15
13
14
-14
-19
54
-86
-61
-26
14
-87
-33
27
-61
-5
100
68
-41
-56
-35
-25
-95
-5
21
35
-117
10
65
-68
-77
0
31
59
33
26
-1
27
-5
99
43
-38
-43
15
-56
118
-13
33
-126
-21
63
-115
-11
64
23
36
-50
-7
-58
-65
-46
42
43
-56
-6
26
-76
47
-71
-4
-3
-14
-101
13
-9
-37
-17
-29
27
-33
93
-27
10
-201
-40
64
-100
-77
23
-1
-46
56
18
