-178
-318
-57
208
-497
31
-494
-303
-122
71
-22
-479
-57
-287
-134
-224
-63
-82
-25
-676
-550
276
-426
-451
-102
-552
-293
239
253
-165
-140
-195
-534
307
-334
-91
-25
-437
-419
562
-67
289
-139
-314
-164
77
-86
-4
-259
128
288
-41
-638
364
-223
-58
-262
321
-222
62
-6
-138
127
91
-240
-304
-180
-59
-199
125
406
-322
-26
-34
-395
17
-124
-283
-189
-222
-71
-229
-169
-429
-155
-34
80
-350
-162
-263
-103
150
-1011
-22
-270
-42
-273
105
4
-74
-282
-250
-222
115
-134
239
63
-69
-53
-247
-40
-180
256
194
58
-178
-209
-138
89
-421
35
397
-31
-225
-251
67
17
-277
-197
0
-237
-232
87
101
-161
147
-51
-228
260
144
18
-212
-165
65
-319
611
-104
-104
-6
-653
-94
-398
295
-145
-257
-162
-348
-553
-279
7
-167
-17
8
-301
-8
-416
-294
89
866
14
-58
-218
-99
-739
-237
-476
-221
-291
-181
-294
-21
-277
-15
-461
-283
5
-494
-333
-453
-62
0
162
-521
-23
-264
-285
-25
-414
-76
-5
257
-208
-158
-292
112
-351
-272
-113
-262
-37
-52
66
-282
-282
-297
12
-5
-26
-243
95
-74
-322
-101
-183
-50
-566
-332
-60
-379
-153
-274
22
-193
-77
-153
-228
2
-171
-146
251
-63
-174
-59
-154
-217
-145
250
-245
261
525
-232
-414
59
8
-70
67
118
-71
-193
-77
-238
3
-316
-140
-164
-78
-187
-187
-276
-181
-224
-98
-70
-30
-38
-352
65
148
99
168
-350
-189
-262
-16
137
-142
-410
-486
-473
-86
-315
21
207
-57
-417
-10
-23
-634
-141
-66
-243
-253
91
-285
-745
-131
176
17
824
-98
-100
-50
-104
-38
-137
-200
-164
-326
8
-345
46
-199
-414
213
-151
-328
42
-49
-133
-186
2
-144
-135
-580
-140
-187
73
72
-75
-251
-138
-381
-239
-33
-52
-408
-106
157
50
281
64
-339
-135
-355
-220
90
-231
-87
14
-164
-224
-44
-80
-273
-111
55
-28
-272
62
-105
19
-100
-238
-17
-3
-196
-212
-153
-19
-238
-20
-341
-269
309
-112
-73
247
-329
-59
183
-143
-98
-392
-197
-436
-116
154
88
-158
-55
-80
44
-116
12
106
279
-264
-126
-409
-73
34
0
-281
-302
30
-179
-81
-144
-82
-43
-86
408
-138
59
154
-294
-277
74
145
-395
-142
142
205
-319
-72
-403
197
-115
122
279
-212
-79
-196
-42
-83
-173
161
-291
71
315
-154
-189
-461
195
-310
-83
-191
-187
-43
18
-170
194
-27
-427
-443
51
29
-264
-209
-132
-275
209
-92
36
49
-39
47
-194
123
13
-161
-382
22
-107
-169
-152
-333
-417
270
-40
-135
-113
-345
-87
65
-2
108
-93
-92
-377
-159
-121
-105
-163
-6
-78
105
-133
-12
-169
7
22
-207
-127
66
-573
29
-3
400
-110
136
-409
-247
170
169
-78
-212
-101
-205
-210
14
-103
-160
-76
-175
-23
-59
-147
-202
163
-168
87
135
-241
79
480
167
-22
-446
-252
20
11
-486
-258
-336
36
-215
-165
-387
-39
88
162
99
-160
62
-162
-279
7
-126
-102
-111
-197
-182
-260
63
-118
38
98
-339
-188
137
-66
-476
-87
-135
-153
-878
-200
-131
-115
-142
-97
-267
-104
-479
-211
-67
-106
-298
-162
-145
-238
144
-289
-203
-353
-243
-423
-225
-21
-112
93
-66
-127
8
-151
-31
-170
-221
-157
-257
45
-290
-154
7
-413
-543
4
-298
-255
-449
-497
-221
-460
-228
-255
-138
-237
-253
-520
155
-296
-347
-207
-97
20
-433
2
10
-215
-174
-442
-248
-337
129
64
-266
-178
-35
-187
-205
-69
-403
93
-234
-13
-328
-186
-173
-271
-185
-143
-67
23
-294
17
-568
-386
-584
40
-204
-14
-581
89
18
47
-361
-11
12
-131
-46
-259
-280
-210
25
-337
161
14
-174
25
-391
-59
104
-152
-239
-159
-256
-292
-297
-342
177
-396
-310
-308
-70
-278
-165
-369
-247
-56
43
139
-173
-25
-341
-151
-89
-90
102
-264
56
-347
-405
-326
-652
-120
-296
-139
-83
-81
-264
-124
-340
5
-124
-507
27
-68
-227
-210
-121
160
64
-324
86
-23
404
-410
30
-224
-188
-377
-268
298
-103
-125
-175
-210
