-127
199
120
-79
118
-84
-189
-99
-223
-329
75
-61
-71
-15
85
56
-81
58
24
-51
-1
167
88
103
-56
112
0
73
101
-115
69
-57
-142
-138
74
38
-37
-48
-273
-53
-73
20
62
-111
-145
23
67
7
-88
20
65
-408
11
-138
-77
310
-96
15
40
8
44
-91
-112
-20
33
47
-34
-102
19
84
59
-85
-21
-73
-7
13
-35
74
-20
-2
24
56
-61
19
-8
5
34
114
20
-271
15
-37
-102
-29
75
-62
1
12
27
28
74
5
1
78
20
-49
-129
-90
-9
4
30
44
25
-8
21
-21
37
-86
-45
-29
-30
-77
44
-79
17
-15
40
24
-41
74
-22
-12
-6
38
25
225
-4
21
26
35
39
-27
-32
-8
212
21
121
135
51
4
2
15
-43
-65
23
-110
-9
-26
-61
21
-31
-5
-24
-30
6
35
13
15
45
25
-12
-18
9
-23
-52
-21
-3
56
15
9
-2
-15
-9
14
37
-1
-32
50
-44
285
-47
57
7
-74
56
110
22
-44
-39
107
-10
44
-23
48
299
-70
-14
65
-51
-106
143
-49
145
-7
-35
175
99
68
-46
-52
23
25
-89
73
31
-31
-199
56
13
-38
130
-43
15
25
36
-8
-17
-18
-12
-40
4
-95
-44
-27
-122
53
-148
-17
428
-23
-265
99
6
-43
-328
385
11
-387
-60
-201
-37
-60
-96
-38
294
-68
21
-34
-188
66
-16
77
181
-17
-57
-84
-7
-128
-294
-52
-78
10
-51
-52
-64
43
1
-8
-130
-118
-154
61
-220
80
-6
-8
44
-52
41
75
-99
59
-435
-25
52
-42
31
-83
39
-112
81
75
-34
129
101
-29
84
5
-135
54
-45
38
-55
16
10
-100
-51
97
80
156
124
-14
18
-35
-54
-49
-164
155
173
22
-99
54
-14
-207
41
133
-252
-129
-111
-31
-55
-161
50
-16
-116
-4
2
-66
236
26
-51
-83
-39
-276
57
-60
-32
31
-28
-92
46
228
-70
20
147
-186
-141
-59
-58
-37
-1
-128
211
-107
326
18
-50
-232
68
-24
64
71
-29
4
-20
87
88
46
99
146
-9
-25
-215
-44
-112
-13
-62
-74
93
-16
52
-18
-41
22
-1
-14
-27
30
49
131
-32
54
-14
150
-107
-5
25
90
59
17
109
17
8
28
45
12
6
77
38
17
-9
-3
-68
6
24
376
84
-29
7
42
-73
16
-63
23
-82
37
1
6
-10
-43
26
-93
-134
-41
15
-4
-3
43
-17
86
8
29
46
-82
43
-10
-61
25
-63
-32
111
20
19
-14
52
81
-46
54
-7
34
-118
-1
2
15
-39
-20
-36
8
-45
-44
-82
-59
-44
35
-3
-14
92
1
35
4
9
-71
-29
43
30
-29
19
128
4
117
-8
-68
39
12
-81
-121
-43
148
-60
-8
-90
-27
20
-81
-29
39
90
5
-13
70
45
-36
-35
118
-115
-31
-105
-53
-72
80
-98
-16
20
42
-140
27
-65
136
110
-37
105
-53
-13
31
-77
-32
174
25
65
47
-99
66
97
-12
49
-36
-50
21
31
-80
-170
-7
-19
-117
6
-79
1
-16
100
-34
22
12
106
12
-21
51
94
-38
-41
33
-46
-25
17
73
-2
45
14
24
23
-108
-92
30
-37
-46
4
45
-14
-4
17
8
-87
-173
22
-261
-118
141
-57
7
-216
-163
72
4
88
-28
-20
-108
105
-77
27
90
-27
-10
-85
-9
103
79
-13
43
-41
6
-20
-48
191
24
-38
81
-24
-11
40
92
-55
132
-47
-72
28
65
25
-69
-19
46
-3
-1
27
-43
-72
40
-406
-43
7
117
-9
37
85
53
-6
56
-47
33
73
-106
-334
-26
-48
266
-130
-62
49
74
5
-37
335
43
-37
99
8
-12
173
-14
-78
72
33
27
115
1
18
-2
23
-11
6
-18
25
25
-33
4
-84
31
-86
27
35
36
-6
-19
99
117
-6
-46
-30
-16
20
11
16
-121
-31
-84
36
166
-45
18
38
-14
52
-7
-340
-6
-17
-135
5
68
-17
-17
-35
-125
-7
-57
-1
35
-1
-253
