-585895
-43226
856292
388838
-110204
-42980
430100
169704
640791
-1653569
408333
-354657
1086955
-847902
1088440
-275380
-60738
17479
193734
-522119
756184
-238841
781944
56789
112780
-670011
-213030
1094235
1143672
732941
-428986
19251
-1359438
-36823
689178
-956628
-112269
-419500
-101421
-120784
-1101411
14172
1237155
-393042
37816
-211579
-148473
40443
-926299
-862629
-693546
-631713
126115
-3542
20771
44077
-143677
-17333
826
-293521
-269868
74247
414726
-799362
-636822
-1222607
-96238
107791
96792
73492
362516
-28138
435050
-822711
-834339
82048
-169372
302621
-119036
-1259337
-517502
-889243
168839
1025560
-1146481
-354453
-161249
-52445
-1439695
116566
174779
61395
-698382
126963
735260
-105445
20219
454538
57861
-107073
-129164
-28931
143200
-6955
40952
-182647
-243820
-248966
-679046
140397
123946
-77758
-50038
-879788
123165
-30276
-1406677
-322750
-1454616
584439
106483
-221131
1121756
609039
48087
-88262
702938
-158239
116070
90496
457876
-31664
-1208518
-1263157
167833
1101899
74501
1159533
-94895
967849
663348
258873
-508558
-242095
76670
297591
-530337
123592
-159518
-283971
-68615
-54422
778172
-996898
-126461
1012015
381988
1133515
1076733
-100205
-269499
683090
140317
33669
421545
24879
-1020556
70892
-578687
315903
38435
-57879
824999
-1267354
-58050
307132
1376158
806496
96562
-431522
-192266
-429376
-1187618
1241768
135811
11195
91860
-263890
-772303
-794320
350407
195338
-769450
-98792
-127360
-20869
80048
579815
113398
-163506
-50644
1154155
474511
568373
-261745
212658
-785778
-511294
-2328
71226
14209
1412079
229410
68163
-863458
-1356897
8505
-900455
-155049
-438601
179632
74185
-777599
79777
-702616
-806234
-41252
-158518
15795
-108441
263999
-597836
-485070
425787
1117996
534754
-862625
605842
-105460
483665
-210904
932085
-223529
81864
-1030797
711113
-624345
862599
-18342
-1289516
-1081169
208883
-44578
1149142
-140152
565924
-406346
-1155496
-155366
451113
-1354520
-550287
-26437
-250031
-71710
-158533
-1183425
596647
-32841
760528
-170336
-419919
190228
-1142787
-31630
76468
840105
-121135
-994176
47783
446418
159817
927588
659090
234654
1178819
841554
561996
179286
-249755
1730628
541790
-172011
-1027153
-193732
615931
-238479
-215416
28455
-981976
-682540
1069554
600913
-176652
730420
1117101
-336269
-493639
-153463
982708
-182109
312249
48362
23600
751255
-590393
488006
496675
-151744
89191
-328746
-1004226
113442
-114872
-433756
-1088591
-73233
-475956
110857
61243
12047
-649202
-21756
-855680
166379
243752
-467310
-363024
210716
-493578
885590
-1155914
1047749
-26385
-668461
408180
-63919
-864457
97823
96976
-33543
252766
-55169
-1228669
-281531
-289280
105616
-51237
1315456
18599
554228
132772
1323256
-1266865
-582047
-742376
-1204121
1104131
1093413
34688
-739104
-35424
1025823
-140337
-845157
95305
423977
-177812
974807
-426366
-214490
-100211
72979
261639
-395884
85984
-250609
-19632
-121416
-262140
-1229239
-155447
215208
361964
-183545
663619
-131099
-230076
15909
154282
-218928
-619288
-435612
-524271
-1257236
536388
2333
-67114
53963
-32437
14461
-301673
-864433
46523
244239
-888807
1260813
-46287
128864
494676
917162
-266347
-28165
-46799
-1008272
105180
-1072235
1151645
-601869
160653
125135
-128275
171055
-178233
323509
-158388
535025
325236
-505041
-223551
32160
987817
-89107
-35266
-1066498
-926935
-313058
-774358
-1230489
690284
336873
153754
114837
-77101
-151001
-405337
-58572
-1091036
826636
-299262
211566
-101387
83275
-1061631
1224469
193666
34125
109998
-507095
287151
-467444
508004
-67179
215690
-203174
-858263
668601
372079
90459
108497
-796842
13469
1196085
750412
-304166
-148117
235059
-67866
-1243784
871413
214194
24912
13667
125210
686637
-36607
-66010
-457065
40407
-54900
-118128
203818
-21218
-3308
-1240030
390105
-664809
184851
998959
-857580
204663
-152889
26818
301699
-111675
-120733
8640
93932
1066705
-246822
-1242029
-561975
-37671
-1050351
-370116
-48483
75894
-57683
-85027
357215
-63837
-1082639
-17511
-10506
1227313
32685
-194367
-880570
-603189
-51961
720658
-1030985
1193795
-1080016
37846
172829
80480
-608327
24859
-378878
-26466
48212
254200
-1035454
-5362
-121222
114670
-70830
-63952
710078
48895
-202448
-37158
-28804
53267
229194
-249778
24868
62212
-15906
-764300
-41974
-19020
62720
461142
-212412
-257308
-1115900
-137468
956703
304799
-142155
-869173
769628
989702
440587
-42188
483350
-741369
64677
9250
-32171
277914
680037
-171013
79139
-7418
-266611
-568926
-29194
-100855
223858
-544962
-1102848
102808
-173107
-773815
286286
-48259
-154546
492894
1003250
504073
-194376
202639
-123017
-262799
100577
-735402
1472479
284002
565180
5811
32558
1041951
85528
434837
41221
286036
106181
-922730
245602
-1099475
-47931
-938114
139860
64379
1033192
-11865
907927
703515
-83516
316830
894767
-6750
-1052247
-1310870
-1355336
130682
-92587
14993
260645
128425
103674
202400
-350314
993976
115010
-1108074
1315123
-241472
118781
237903
-1323168
-656209
34734
39655
509592
261985
875650
-58665
-163549
-170591
491801
-308424
-1469789
63756
729800
-553770
1256060
-713975
-50432
997394
353504
567129
645158
403305
9941
520670
960459
720788
1294830
837844
453305
463478
102407
279495
-1122000
-41412
146970
604615
15347
15914
-617736
395750
-34175
214507
-220095
95193
-204927
-197038
-528017
-40276
202189
155639
998123
-152672
-111540
-97597
116360
1240231
-964124
327030
-68940
1108019
-273556
-160594
311206
-696898
-18671
-54239
-607009
668371
-219349
-75241
-286203
327289
58558
-32387
948598
979471
-80887
41105
102110
-39131
-306314
-33838
511372
-851775
544129
-735347
368186
-930261
-22774
-22
-314596
-211291
118380
114424
384596
-528057
771997
-217418
933275
247721
280419
-336154
817689
