-17
29
19
9
46
17
33
70
-9
4
31
33
-35
14
-7
15
62
23
-24
5
-11
-7
20
-3
15
52
-39
18
-71
51
20
-29
21
-30
3
20
-28
-8
-37
-38
-15
-21
-13
17
-15
4
18
72
-14
-32
10
-21
38
-68
10
71
35
-88
-5
-34
23
68
-60
34
10
22
-10
-8
-32
-12
-25
6
3
-2
12
-2
17
-30
-14
20
42
6
19
34
26
-54
38
13
-47
42
-51
-52
79
-56
40
-59
104
4
4
-18
4
-29
54
-36
23
26
32
-31
-51
-44
-50
13
-58
11
-12
39
11
-4
-35
5
-17
9
5
16
62
-65
-8
26
-20
-3
14
-6
-46
11
-2
-5
19
38
26
-46
-14
51
15
2
-5
23
7
3
-67
35
-11
25
-46
-13
-47
-22
33
22
-20
-12
-2
-10
-1
-34
-49
43
45
-5
-55
-30
22
11
-25
-19
7
72
4
-3
-22
-39
-22
23
-42
12
2
-48
-11
0
-8
-25
-16
-8
24
-36
41
-9
36
76
6
27
-55
-49
30
-51
-20
-7
17
-1
22
5
-3
-1
28
55
-21
24
-29
-9
124
-23
47
58
0
-21
-15
58
-50
11
49
16
-53
31
33
-5
-27
3
-20
28
-21
-41
45
-45
-27
57
51
39
-9
-31
-31
11
-60
1
13
31
35
-38
25
-23
-2
-16
19
-18
-12
32
-10
-72
-24
-23
25
-27
-7
31
-35
39
35
-90
-9
11
45
-44
24
21
-42
27
-8
6
23
12
-27
-2
-35
-19
-42
-40
15
9
77
28
29
1
36
39
18
40
39
-43
-8
15
-266
-24
-31
-31
12
36
-6
41
-16
-25
-13
66
-20
34
-11
-70
9
-60
28
61
-20
-5
36
-35
-39
76
-13
-7
-53
-22
-37
-7
45
31
2
40
-13
-59
33
-29
16
-2
-32
-57
-2
-74
49
-3
-13
-12
11
47
37
-15
58
20
58
19
-64
0
-4
-18
-17
9
-20
-24
-35
-12
-7
-50
-43
27
2
-282
-20
-61
5
-13
-36
24
-14
-38
3
-19
-1
-42
34
-1
-40
-37
-24
-15
-45
-20
-22
3
-48
-20
-15
-19
-15
1
-22
4
13
32
-45
29
-49
-46
23
13
33
-117
4
-4
-34
2
-5
-10
-12
30
-3
-23
10
15
-64
17
-2
-50
9
-13
-13
8
4
4
-1
-30
29
4
-23
-20
0
-3
9
3
21
74
33
25
-24
-32
17
-29
-23
-10
66
15
28
-41
-21
26
-5
-17
28
-20
21
-38
-4
10
-40
-65
25
-2
-41
-89
-44
-29
46
41
-36
5
-11
11
-25
43
2
-24
8
-4
26
20
16
2
-45
-13
20
53
32
-8
-46
0
-19
-40
3
-3
34
84
-33
-3
32
38
-14
5
24
24
-31
24
-38
-30
4
72
56
8
-37
-18
16
-53
-8
14
17
-56
30
-24
5
-7
4
23
-21
40
17
34
-23
17
30
6
-28
-14
-46
20
-9
-35
-25
15
-2
-14
-31
32
11
10
6
-15
-14
17
9
31
-38
-1
28
-95
-8
17
-60
43
63
-23
8
-14
82
25
-17
5
23
-48
9
25
14
-45
-14
37
-7
17
38
33
-12
15
32
9
12
-9
-14
23
1
-7
21
-6
-60
13
-21
11
19
-18
47
38
-12
27
-37
35
39
-51
-50
-29
38
22
20
47
-43
-27
-8
15
10
-38
-44
30
-11
-38
2
-2
16
51
7
63
26
-8
18
32
-46
-30
28
-27
5
-23
20
-16
12
-16
-9
-6
28
104
26
7
50
4
-9
17
32
-10
36
-10
-5
6
-17
-19
57
3
28
14
18
50
-8
-36
-10
-34
30
-8
31
11
-53
2
-58
-45
39
-39
53
26
11
35
20
-19
58
19
19
44
59
28
-29
2
10
-4
18
-11
-48
-9
-30
-15
56
-9
16
-51
-7
33
54
24
18
-4
96
-96
3
85
2
28
-1
5
-2
29
-44
25
-10
-33
66
-14
-24
8
-38
47
-75
10
-60
14
74
-68
-38
42
-31
16
-34
16
-3
2
