-23
19
31
-25
15
-27
25
43
-43
-7
9
54
-49
-1
-21
15
84
37
-19
25
6
29
-10
-14
-27
51
-19
20
-33
26
26
23
21
-26
-25
19
-57
1
-37
-73
-5
-47
38
-4
26
24
-3
77
-2
-15
-20
26
35
-17
63
3
76
-107
-4
-80
27
100
0
-24
-1
20
-14
17
-50
1
-30
38
-23
-11
-2
-21
-15
-47
13
41
44
6
41
-12
4
-36
-49
6
-21
48
-25
-79
27
-69
-6
-25
70
-27
34
-31
-11
-54
22
-25
15
45
65
-18
-42
-37
-21
3
38
-17
-28
24
-15
-35
-26
3
-40
29
30
61
45
-84
19
5
-15
-17
7
-26
-53
-16
3
-32
53
26
-15
2
-34
32
13
26
30
-1
18
-11
-89
48
-75
45
-21
5
-77
22
28
26
-56
36
-2
-18
-15
-15
17
29
35
-1
-36
17
39
18
-21
-27
9
8
60
-1
-39
-19
-12
-6
-46
-17
-21
-17
-16
-38
26
-5
-12
29
27
-22
2
-20
-1
46
-31
-27
-59
-32
53
-64
22
55
0
23
-12
-17
-4
-12
39
107
-14
5
-26
21
87
-8
52
22
-31
-34
-28
103
-10
-8
52
4
-55
35
29
-5
-38
-6
-6
25
8
-17
54
3
-40
-1
12
76
-54
-68
-49
21
-28
-7
36
14
52
-10
16
-26
39
12
16
-12
-22
33
29
-93
-37
-31
39
9
-23
66
-54
53
3
-61
-42
30
29
-33
-5
31
-34
29
-3
-9
-7
21
-7
-8
2
-16
-45
-34
42
1
28
21
11
-31
10
9
-8
90
2
-29
-30
-5
-325
-51
-30
-54
33
-14
3
38
-2
-39
33
23
10
37
-8
-78
0
-70
16
30
-36
-17
70
-11
-52
32
-14
56
-47
-7
-55
11
56
55
40
21
7
-30
39
-35
17
13
-30
-59
51
-106
35
27
-30
17
16
39
32
-10
93
54
92
67
-64
-34
-35
-31
-22
23
-1
5
-40
0
4
-17
-25
-23
17
-381
-35
-66
55
18
-6
26
-6
-22
-13
-21
9
-51
15
10
-54
-10
28
-11
-38
6
38
0
-122
-22
-19
-45
10
6
2
30
-29
2
-31
-8
-50
-91
-7
29
29
-38
41
-56
-60
-17
-10
-53
-50
22
-62
-38
-29
6
-11
21
15
-31
32
-14
-18
-30
-25
-46
-3
-7
-11
26
21
15
75
-9
47
-34
37
47
12
5
-94
-30
7
-18
24
-1
91
22
50
-76
-4
34
2
-34
-10
25
19
-26
10
-40
-5
-79
28
-43
-76
-67
-100
19
34
36
8
30
-38
26
-37
32
11
-32
25
21
14
25
6
-7
21
-38
-8
13
14
46
-56
-2
14
-50
15
-9
42
84
-33
33
29
-1
6
-19
53
2
-52
-9
-75
-28
19
67
-15
19
-12
1
23
-73
24
-5
44
-86
31
-18
7
15
-21
-41
4
19
26
49
-36
-18
12
12
9
-38
-11
37
18
2
16
64
50
-32
-26
67
32
58
14
5
11
-3
17
-46
-65
28
53
-82
10
1
-42
34
50
2
-45
-12
105
20
-23
8
-3
-54
13
31
-28
18
17
33
-19
69
-11
20
-16
44
45
28
26
26
-40
27
25
-26
38
3
-48
2
-2
-34
-1
-39
57
30
-10
18
-1
29
66
-20
-18
-26
37
51
4
80
-16
15
-10
44
41
-21
-38
42
-10
-44
-6
-29
-3
78
9
94
9
-23
7
50
-22
-5
38
-3
-13
-18
36
-29
79
-20
1
6
-3
86
77
-35
69
-13
51
1
33
-9
56
-24
-23
-14
-4
-47
90
-37
-6
41
6
37
7
-20
6
-7
-40
-17
79
-9
-85
-51
-79
-56
53
-54
56
44
51
14
67
-48
42
33
-30
1
31
30
-35
-9
-16
5
50
14
-107
9
-13
-41
33
-18
-5
-56
-13
-5
3
70
34
-44
98
-71
11
90
-21
28
-10
24
-34
26
-30
2
-6
-13
25
5
-29
-7
-21
47
-73
22
-75
13
53
-83
-48
54
30
-2
-68
2
-19
-27
