92
111
13
14
24
-127
-79
104
-56
-30
155
3
-46
-81
-65
0
71
-10
-4
-120
-170
19
-63
-40
-120
264
-47
84
-38
-43
13
13
49
-55
78
25
-115
101
-114
-115
-55
55
69
188
-82
-42
-58
-34
72
-141
37
-40
62
-19
-223
62
85
-48
181
14
-73
49
-8
-29
-46
-67
-20
27
-46
16
-5
-21
55
2
-26
29
-22
19
36
-15
-30
0
-55
24
12
-9
-16
18
4
-4
57
40
-11
-32
-33
-39
17
-35
-18
-66
0
-28
-19
-17
30
-15
-1
9
31
7
-32
-5
41
26
-17
27
15
-33
-6
10
13
-16
24
-22
37
-17
20
-33
-60
8
15
41
27
-24
27
1
81
-1
-35
-28
-6
50
64
19
51
-39
-56
-13
47
-52
-64
-60
6
19
-20
16
20
19
80
26
21
51
35
26
-32
-55
49
-27
17
3
22
-40
-22
4
27
57
-65
16
24
-20
-13
-37
23
-19
-6
22
73
-67
-8
-37
-33
-34
-13
-35
-28
-123
23
-75
19
8
-12
-75
2
28
16
-37
-58
23
-7
14
1
16
-7
-18
-37
56
13
4
34
44
57
31
16
-18
52
16
-21
-23
-12
10
61
-23
31
-37
0
-18
-11
-21
-12
-43
15
-10
29
87
-77
43
-15
29
71
42
-31
-32
-37
-35
-9
-27
-61
-2
28
20
-10
-2
34
6
38
-23
14
41
-17
29
-15
7
-12
18
-12
15
1
14
-41
-33
20
10
24
42
50
22
5
50
-44
-6
32
40
-54
-2
40
12
-21
1
29
11
1
31
16
-18
48
-24
-38
-40
18
7
-18
17
37
-15
-54
9
9
23
-31
1
85
184
-48
-183
-38
-33
87
-79
54
-82
-1
-59
33
10
26
160
14
-19
-43
-6
7
-37
73
-15
-34
-33
-242
52
55
-72
464
128
-56
-136
164
-24
122
59
-19
84
1
71
-531
64
143
-81
-50
76
37
107
151
-16
67
11
93
-117
48
119
-151
-14
-37
11
-90
189
-34
-52
71
12
-32
75
38
-87
-39
33
41
114
51
-12
-3
9
-7
-48
70
-15
64
73
-24
-39
-52
32
-35
-9
0
7
-5
-18
37
4
65
28
-68
38
26
-46
-19
28
9
31
-56
-54
54
-64
7
-45
-27
-52
51
-43
-28
32
66
33
57
25
7
9
-19
-76
32
70
-66
139
8
-29
-45
-23
-2
11
-3
1
-47
30
-44
26
3
19
17
-15
29
-64
15
-10
18
8
-23
-53
-75
19
-32
2
0
22
3
19
40
-14
-28
45
-57
-57
-26
-60
89
-40
45
35
17
20
116
-4
28
-8
-37
-35
3
130
43
22
-31
-8
-15
-16
30
-2
-22
23
-32
-15
-4
17
-6
-40
-6
-4
9
3
-25
-55
-58
29
29
6
-16
-4
44
33
-10
-19
-23
47
-4
-34
-36
-21
-49
14
-5
10
-12
-22
50
-4
40
7
-28
-57
-34
-6
-28
-21
-24
-31
60
5
-44
-5
5
-34
-14
-64
-13
-19
9
16
-16
-21
6
-90
80
37
36
-274
28
85
-62
82
-146
63
-54
-204
-84
27
-150
57
217
101
144
-110
-22
-153
112
84
-114
138
55
-19
16
62
-91
42
36
43
654
53
-100
-143
-17
-81
69
183
1
4
42
-34
90
96
-78
-68
57
-157
270
-17
102
9
82
-57
82
-47
-97
99
-8
11
-4
-9
-30
-4
8
-39
33
1
-20
14
-10
-9
-16
-61
19
19
15
-39
-18
-4
43
-6
-26
4
-1
4
-15
-30
-13
34
-8
-1
21
-74
37
-23
15
8
-6
25
57
66
-62
-23
-28
27
-27
0
23
8
-12
34
32
14
9
-10
-66
63
-30
-24
-16
20
-84
-95
-32
-61
-53
-4
-62
26
-25
-8
30
-143
50
53
41
22
-17
99
-12
-14
89
-53
30
7
8
5
9
29
-45
-19
1
-7
28
25
25
25
137
43
-66
64
35
-25
33
48
-74
-40
6
127
-77
-31
-52
113
13
69
46
-62
-16
-14
103
-53
12
-19
3
-74
