-5
28
-6
-9
27
32
23
21
-22
-30
-20
4
-12
21
20
66
39
28
-1
-13
27
-19
12
43
13
-7
34
0
-12
7
6
-24
33
-22
2
12
-23
-7
14
-1
-16
-8
-6
34
10
5
-19
32
-31
7
-15
23
49
26
30
35
-30
-27
-15
-20
19
11
25
-32
14
6
-12
17
-23
-15
3
6
-11
-9
35
-15
-39
48
15
38
0
13
33
1
10
-22
2
-11
-42
18
-34
-12
17
23
18
-23
22
0
13
-23
1
-8
24
6
-27
-1
-51
-33
-15
7
9
37
-38
-26
-13
33
15
-16
-5
-13
19
28
1
20
12
9
13
10
-33
-17
-3
12
4
5
-36
-12
13
-10
4
17
-10
-21
-36
15
39
-19
-4
-52
-12
30
-24
5
-25
-12
-11
23
6
21
6
-31
7
-1
8
-26
15
30
17
21
-20
3
-24
-14
-5
-25
-7
16
3
10
42
-3
-300
17
-14
2
1
12
48
-17
21
-9
-21
-12
16
-34
48
-17
-33
38
28
-12
-40
-24
2
-34
-40
-11
-13
4
-8
39
-23
-22
14
24
11
-7
-28
-30
29
-49
13
17
-30
18
-9
66
44
-22
13
-7
-22
-3
36
-28
-5
34
-14
-18
34
-50
17
50
-17
32
-32
-7
22
-24
-12
-3
-39
28
18
-25
0
-13
-18
-20
15
44
4
3
-7
-14
-18
-32
-4
-40
14
-8
32
18
-27
1
3
9
9
21
-11
-11
-5
23
-22
-37
-43
-23
29
-33
-15
-15
-31
30
-11
-9
28
34
-2
3
-5
-5
-19
22
1
14
37
-17
-18
-26
-218
0
-37
-28
21
3
13
-25
-14
12
-12
-8
-25
13
47
-6
-22
-3
-11
13
16
-3
-17
22
24
-6
-43
2
-23
-34
13
-49
10
-4
4
1
27
-36
-2
-47
-20
-30
-43
-18
43
0
-14
-31
-21
54
11
1
23
-27
28
22
14
25
-5
44
-9
-5
-49
-40
24
-29
-12
-23
27
-4
-51
-5
-1
72
-8
-21
35
-18
-29
10
-15
-20
2
61
-7
-10
-5
-8
-29
-21
38
-12
-11
-36
18
14
-28
-1
-7
-16
9
-11
-20
-9
-17
-25
-28
20
15
-33
-6
-6
7
-19
26
-14
1
34
32
-16
9
21
-34
-17
-8
48
-12
5
39
-38
-10
14
33
11
12
-23
-4
-27
-24
42
1
6
-4
-1
22
14
22
-21
1
9
-36
-1
2
-45
-15
13
-7
14
34
-57
-3
-1
-15
-7
-7
22
-41
-14
-20
11
-10
-32
-10
34
1
27
-28
-6
-9
25
-1
4
-23
7
29
-12
-14
-22
-15
-12
-13
18
5
15
-31
-39
-18
33
-10
15
-12
-14
-18
6
-2
-17
17
37
15
19
-26
-22
1
7
16
-4
25
-20
-3
-7
-11
-20
11
-35
-46
5
3
-25
10
-13
9
-45
14
28
22
0
7
-15
-27
25
35
14
2
-21
-1
12
14
-13
19
13
6
-19
-25
20
6
-5
-24
6
-6
18
14
-12
-17
4
28
9
17
17
16
-31
10
-53
-17
15
17
-5
-5
-22
13
-29
-8
-8
-13
-16
34
-18
11
21
-21
17
-14
28
-20
-4
-33
16
30
32
0
28
-7
1
45
-16
23
43
21
-20
-30
27
8
-38
10
-5
-6
24
13
5
16
20
5
7
43
-1
40
39
-1
8
48
17
9
-29
-5
43
-26
-22
3
-30
4
28
18
47
5
18
13
11
-19
-19
20
30
17
-7
-1
-31
13
-24
29
10
-11
-3
12
48
56
-4
-33
0
37
22
7
18
-13
-11
12
-5
38
-21
-21
10
8
2
-28
6
-22
-36
-4
1
10
-9
-4
-25
21
-16
25
26
-24
27
38
28
39
30
13
25
-26
4
-17
44
-5
3
-19
2
2
-9
-18
14
-31
2
39
-13
-7
-41
3
2
18
14
-5
20
17
-2
-16
43
-19
22
-6
0
-35
-9
11
11
-3
-18
-3
32
-9
-36
-12
4
-42
-31
-29
26
-4
-9
29
-26
44
-23
-24
8
9
0
