-106
296
-238
-22
-190
-8
205
209
-64
288
-336
179
-3
118
-120
82
-121
-143
-344
10
-234
-149
-218
-547
-182
-348
232
340
-311
-170
115
298
35
-122
226
21
253
158
290
-154
70
35
79
89
-141
20
289
274
-33
-53
200
-48
-90
180
-102
2
-253
43
-30
199
-312
278
254
65
-153
-218
319
13
193
-156
-255
-179
91
-39
-57
210
-28
-28
-70
-141
-207
-116
-89
201
-339
62
-33
188
218
-154
-24
-233
28
90
-33
-103
8
437
41
244
-78
-216
99
103
76
21
-17
-204
263
0
133
418
-96
-40
-252
-95
100
-29
-179
-126
-196
-80
-180
42
45
-9
219
3
198
-80
-43
-45
141
-72
38
-52
121
72
49
-67
-5
75
61
-44
-73
70
-19
133
79
-26
7
32
53
-137
4
71
-114
72
-124
-4
27
77
-182
-50
36
42
-323
-136
-8
-64
-89
134
0
-69
-12
62
34
47
-57
-199
60
-2
25
226
-30
18
-78
-255
67
99
-1
-6
56
-19
-87
-61
5
29
-131
182
7
98
172
203
44
4
36
22
66
211
-2
31
47
-61
195
-5
-70
-159
-103
300
42
-49
118
50
-92
-89
-127
41
-55
-56
-116
-62
36
83
-129
-68
8
48
204
13
333
105
-30
-86
-157
-106
61
-57
50
177
8
26
121
79
51
-23
-85
106
-212
-133
-69
-56
202
-15
-98
200
113
233
106
69
-41
-236
-308
532
-19
-39
84
289
220
-64
203
26
126
-95
-210
-88
-185
180
189
-35
-91
165
345
297
89
64
95
-120
127
-81
85
-85
-12
71
165
240
43
68
119
-105
98
168
60
-65
20
-117
62
-150
-145
-22
-18
32
-19
-89
1
112
69
-33
-58
-107
194
122
57
22
6
54
153
127
50
-22
-50
57
75
73
50
74
-6
85
-168
-288
54
-137
-22
219
-72
47
-229
33
-150
82
-93
-26
-64
59
-38
-40
-49
-38
19
-41
39
9
-50
-27
108
-46
-25
-48
14
-37
-1
-88
59
-89
-152
215
-281
56
-4
-65
-6
222
138
6
-134
-8
268
-159
-189
278
145
-211
-148
-203
33
-98
2
-1
427
195
-129
36
-11
112
51
111
269
-124
-175
-144
162
-189
-512
73
31
-49
-118
-70
-333
122
59
-509
118
124
38
-76
-198
-63
28
105
208
-83
243
-26
92
21
-363
-189
-22
181
-119
28
-52
-140
-235
208
90
367
365
33
309
-175
-33
207
-226
-10
218
-11
-17
125
115
28
-172
221
-190
69
-316
-163
305
119
-206
-230
-97
208
-116
-111
-29
-62
-88
171
53
-45
-52
-212
-112
-105
-216
132
118
106
-41
-110
99
146
-257
230
211
-19
-248
208
-77
-165
-15
-10
-27
14
12
9
-11
-21
-15
-23
51
11
23
-23
19
-1
-41
43
18
37
-83
6
46
-5
-45
-44
17
-21
-126
53
33
44
-7
60
3
-72
-41
79
10
-4
37
-27
-6
-4
-23
10
32
15
40
15
77
0
1
-13
21
19
12
8
5
35
-14
52
37
48
-93
-144
61
-131
288
-4
554
-121
68
-141
-76
-125
46
-215
255
103
36
87
26
-86
-348
31
-20
160
-40
-128
351
158
107
2
46
106
-36
-5
-205
-416
-68
-106
-282
170
-44
-82
96
-29
-103
-32
-96
-7
18
-21
3
-281
128
154
229
90
-7
47
-404
109
375
89
-24
-263
-55
-102
106
-40
-120
-6
88
149
246
-67
-48
129
114
14
23
-3
-68
22
68
-109
-142
-23
-317
-140
59
190
-165
-92
-9
-10
1
39
117
101
65
-21
-96
-120
6
118
24
84
64
-5
-58
-88
8
14
167
36
298
-57
139
155
-256
148
37
158
21
-308
-6
-90
-35
131
-14
5
26
-73
71
10
41
93
-28
14
72
2
-52
-1
-83
-3
50
79
-24
1
103
17
15
-51
1
-15
48
50
-57
-24
-7
-67
83
7
103
-40
7
43
27
57
-99
40
8
-59
-15
-45
16
18
-75
23
-3
23
-33
64
-56
-31
-27
-90
52
66
33
-5
-43
-13
