-367
-261
277
-404
343
383
665
690
-493
-665
53
54
-820
268
19
993
821
278
-366
-197
816
-93
-142
378
16
369
286
-521
-385
-140
548
-3
564
-593
-362
216
-671
-358
-194
-663
-402
-702
-363
355
131
-74
644
354
-129
-94
-1197
-130
814
-317
398
519
-229
-570
-650
-652
-263
347
-146
-454
54
599
-132
80
-740
-205
-394
260
-375
-257
448
-83
-531
253
201
132
-132
384
-156
330
-56
-456
283
-427
-755
473
-515
-604
351
-356
321
-44
356
-246
226
-514
-455
-329
443
-307
-330
149
-347
-730
-430
151
-319
-61
-280
-705
-313
171
-151
-441
-323
-231
-233
-328
8
4279
105
-1125
-146
268
-464
102
-36
105
-293
-324
-672
-83
110
-272
-293
-335
-422
24
-41
445
587
-215
-345
-1123
-433
363
-254
468
-414
-247
-507
220
-56
113
114
-695
-83
-429
-172
-51
761
188
313
431
-518
-173
-336
-605
-269
-328
-145
219
389
-82
201
227
-1852
437
-158
-180
92
-22
1150
-271
375
70
-606
-18
578
-595
110
-422
-373
-184
-75
-92
12
58
-121
-612
-375
164
-199
-388
53
135
-675
-166
-18
456
-119
-170
-826
-204
487
-546
45
626
-306
211
-188
1687
209
-698
396
-266
-666
-301
1330
-557
-374
-161
-214
-59
392
-1249
203
316
-864
546
-224
-382
252
15
-415
-293
-779
598
-207
-442
43
-372
-261
-557
-193
425
494
-32
-173
-130
-90
-1004
16
0
125
114
-108
241
-523
167
-182
-366
-7
-8
-314
-352
15
445
-143
-424
-1157
-257
628
-207
-133
-468
-259
-16
-752
-121
744
132
-301
38
472
-278
-450
529
-63
296
365
-193
-416
-557
-4233
-15
-622
-424
526
309
-551
362
-199
-277
-218
-354
-109
685
252
-1142
-327
-484
-60
750
-107
-354
279
323
219
701
-212
-432
-574
-114
19
-555
53
432
278
209
-169
-706
-54
-940
-374
-1079
-253
-416
939
-290
-70
-278
-414
520
103
25
-76
-865
456
72
235
61
-418
21
-671
-435
-1132
-217
-119
-824
-1081
-85
481
-666
-884
35
-257
-6082
-455
-707
1014
-206
-379
322
-226
-721
-573
-35
14
-715
-421
-250
-765
-629
736
-309
-145
-518
408
-396
-558
-238
121
-788
338
-250
-211
31
-77
-358
-200
211
108
-492
-37
-116
-85
-321
93
-575
-44
68
-418
-802
-579
360
-560
-623
-316
375
-335
139
191
-753
-144
-237
223
60
47
-697
-430
-1435
-784
377
154
-400
250
-450
552
-458
746
478
-184
226
-1419
-1127
-72
-726
78
499
861
-354
567
-1326
-13
-215
61
-264
-393
433
-488
-691
-255
160
-661
-327
-195
-261
-484
389
-651
-463
-207
538
-97
-188
-685
-447
10
71
-188
-426
-716
-121
79
460
170
460
-363
-599
-191
-14
-624
177
-881
-312
-427
-286
-139
-379
-141
702
-83
-460
-789
65
-210
256
134
-364
-77
-433
-443
-241
66
140
56
-129
-611
-38
185
-606
-81
-552
44
-1384
128
-194
176
-269
-629
-433
-403
-21
535
365
-403
-382
422
-115
25
-224
-303
523
-48
-349
-531
-343
607
-433
-539
43
-83
231
-214
108
-521
-21
633
-95
-456
236
133
-1223
84
-1083
-301
230
254
117
-625
-568
816
-320
-542
-273
-273
-446
120
-279
-169
204
-551
-123
91
250
-1
-214
-498
449
220
583
-93
80
-826
30
217
-467
-228
83
-151
-562
-761
-201
-413
-733
787
-65
181
-119
13
278
623
-264
63
67
514
-20
499
1034
-155
44
431
152
418
-68
-482
828
-642
-990
-177
-1292
31
931
303
782
427
290
592
337
-285
-411
336
421
-40
-426
85
-368
383
-316
-40
60
-144
834
561
721
524
-232
-669
-284
769
-388
320
106
-131
-256
117
-345
296
-282
-144
-176
124
611
-669
-132
-363
-381
-213
-1
172
-96
-826
-279
-251
255
703
-33
-435
-29
701
155
1107
311
-82
129
-371
288
221
167
-390
-47
-867
98
190
-178
-2768
-56
-378
231
403
-633
-341
-550
-369
-279
197
50
-355
293
964
-256
-447
868
-463
208
-147
-114
-957
-581
169
319
74
-859
282
317
-344
-342
-327
619
-674
-190
-1211
281
-366
-637
258
-563
222
-660
-683
-208
-292
-277
