-86
-55
11
4
101
-55
-86
15
7
5
-14
35
-22
-49
-23
-12
32
-69
-81
-45
-7
-86
-170
45
-124
-26
-45
-36
-10
-17
-14
-23
49
-67
57
-71
37
-47
78
-29
119
-69
71
36
-5
-48
-45
32
-73
113
-40
92
44
-96
91
-4
-34
23
65
99
8
-39
-43
60
61
-130
-3
-3
-50
-74
41
124
20
-22
39
28
-29
16
17
14
-14
-29
37
72
-4
-6
-22
91
40
52
28
1
-21
-25
-25
58
11
18
-126
12
-87
70
-42
49
-10
57
15
-56
38
-41
-31
-33
-41
-31
43
-4
-16
-17
-31
26
5
18
42
42
-44
41
48
-28
11
-93
-67
26
-45
16
-21
-18
-6
47
-65
-31
-2
-5
52
12
-53
40
44
44
31
-57
-17
-23
-40
-30
20
47
33
19
46
50
5
-18
-8
42
31
83
-20
38
11
-54
-66
-71
56
16
72
50
-72
-74
-17
-9
23
28
-22
-14
12
21
69
8
30
30
-102
-26
-81
-121
-2
-58
-87
90
-46
-116
55
-27
-126
66
41
238
-102
32
16
-183
67
0
13
-88
104
-131
166
156
-55
23
-213
-57
23
35
12
-147
-78
79
-2
216
102
102
-363
-19
-183
4
101
-12
-197
117
11
245
-227
-65
-74
106
149
21
-141
-14
-116
-17
19
-251
32
-77
-6
-73
-10
-29
-29
16
10
23
39
-38
1
-48
-43
9
-72
3
37
37
79
97
-75
70
48
26
-75
-34
29
85
-19
-7
-76
5
41
49
-28
38
-73
21
-31
82
49
61
-45
11
-32
-22
44
57
-25
-62
37
-9
20
-4
-81
-38
-5
10
7
-18
-46
-73
-24
116
102
10
8
-18
7
15
-35
35
40
47
-36
31
38
40
-29
21
-2
-37
-23
-32
-30
17
3
18
-1
22
-5
-45
-4
42
-19
-26
-35
-1
107
33
4
-10
-59
44
-40
-52
8
-5
-89
-18
-26
-6
-50
24
8
5
62
17
19
-1
-25
-12
77
-53
48
-34
12
10
-24
-13
-168
59
24
-28
-143
62
-9
41
-53
-20
-59
-63
7
77
48
37
114
29
90
1
-20
-35
35
135
-3
13
-3
-61
75
73
117
5
72
-92
-93
93
136
125
-13
-72
177
42
35
9
-54
-9
-26
115
-48
91
-150
-19
64
-36
-34
-98
-26
28
107
-161
-491
-67
-30
85
-49
-54
14
48
-75
45
58
-95
69
-22
-39
46
157
31
-39
-30
21
-43
124
-18
-147
-24
39
76
-89
37
-15
-21
33
99
-158
-39
42
56
-107
-6
-10
96
25
-33
22
-12
76
-11
40
84
89
6
45
-45
39
69
-11
24
-26
101
69
-28
-100
-15
32
-8
-34
36
-2
69
-44
109
191
-8
10
-5
39
-167
-13
72
-4
52
61
13
-35
-180
-315
42
-26
38
16
-13
19
61
48
-94
-30
176
36
12
-6
239
-18
-54
79
-15
-6
-61
-14
40
4
45
-11
48
37
50
-20
41
-22
71
-13
-287
45
9
29
3
42
20
-24
87
41
-144
-168
-176
-61
-295
-32
59
-234
-35
-201
-46
102
118
-314
-31
8
-107
87
198
18
59
-19
-203
15
73
164
145
63
-93
50
54
9
524
66
-110
68
-444
-124
-106
-23
-11
-23
88
-173
-104
-44
-28
-57
126
105
159
-36
-142
-163
-39
56
80
46
41
-47
-11
-25
-68
-59
14
45
-6
-100
20
1
107
-9
-46
9
-54
-19
-42
-27
38
21
31
75
-25
-108
-3
-23
-116
54
-10
30
77
-74
-34
-123
85
-13
76
32
-69
-25
49
102
-33
70
-28
21
-23
-93
-75
16
113
-5
51
-105
18
128
-3
-44
4
-7
-43
-47
18
12
-39
-20
23
-2
3
-11
43
-46
42
-5
-2
33
-12
-30
-6
32
29
-65
28
259
-92
-9
128
7
30
64
-31
-44
36
-28
-60
-21
37
82
-114
37
-23
-37
-8
-17
-49
21
-4
-32
46
32
36
-13
35
20
-170
26
-4
60
29
-11
19
-22
8
23
-33
-57
-23
39
-22
-35
-41
