90
59
215
132
40
72
91
-279
132
265
-121
-282
-257
-72
-236
-103
232
282
36
-13
-83
-13
-88
-6
148
-223
-92
-419
553
68
-122
4
-82
-161
216
196
134
-346
71
213
-136
-241
63
-61
-268
165
4
204
90
208
139
-237
-140
321
-57
-153
-5
-459
-460
-395
-317
211
-168
-7
44
112
-114
317
-308
189
169
210
-31
285
-56
340
-467
-111
55
-272
-21
-64
114
-82
168
392
-82
211
30
-504
325
-134
-190
-218
-128
333
291
59
-237
-100
-77
-38
331
118
384
-2
-8
7
-233
455
-132
-136
-4
-167
290
-36
-282
-50
-428
377
-494
-521
301
-176
317
189
-269
-216
-322
28
-136
-119
120
139
73
21
-87
-444
-98
552
204
-246
-52
369
157
-20
31
-174
-105
-126
7
-207
324
-175
-113
136
-205
41
40
-78
-245
247
303
262
215
73
105
54
-231
-117
183
281
-42
-194
-53
151
77
94
-100
-238
238
-5
-10
59
-114
314
-259
-199
222
-47
-107
-33
92
-74
272
77
11
-8
18
-658
145
357
127
247
411
-214
109
-142
-231
124
462
119
-211
-29
-264
250
3
149
12
-121
-227
16
-258
14
186
-133
72
237
-54
308
-91
57
65
-286
-76
-6
-176
10
-50
-326
-298
-191
243
-233
372
373
63
-130
-174
-26
303
-114
216
-297
-75
234
290
99
-154
-597
-211
-350
60
301
-396
109
55
-40
-122
-200
-163
-33
-170
186
-30
59
89
236
-80
-211
246
-217
101
537
221
217
-113
282
242
-490
206
-78
-9
11
79
50
109
-22
222
-155
-338
-69
225
-135
-143
6
-169
-297
675
-194
97
-99
128
-161
-75
178
215
56
262
-318
27
88
-21
-14
-157
194
-449
-266
184
-390
402
242
361
-129
-52
-122
387
164
-48
-233
21
29
-394
155
135
-244
-121
-115
406
219
160
-239
-179
-120
-146
-128
-20
49
258
334
-298
145
-156
-2
-105
-24
56
-210
-70
154
84
-192
187
-52
253
14
265
286
293
-232
-161
-286
115
300
158
10
-70
174
429
-317
-46
27
-57
210
320
-112
158
0
209
96
-311
186
13
-236
17
361
311
-45
-24
244
-9
115
106
21
-161
-305
-132
-243
-207
54
174
117
121
439
29
-35
145
333
231
298
-138
-37
70
-333
237
90
-268
76
-240
246
-176
-63
-67
-366
-281
-46
126
647
79
316
-102
-62
-62
4
252
-62
71
12
-15
-98
-218
96
-156
-189
-269
143
62
-136
-105
556
8
91
70
-85
255
-130
-13
-32
108
-333
-237
99
-162
-143
53
79
52
62
-386
-110
-219
-93
152
203
139
162
251
-37
-325
263
-11
-27
376
390
437
201
33
274
275
-15
373
168
95
46
58
-182
105
-168
-53
-13
2
247
543
-155
94
-200
-155
299
-216
13
315
-339
-333
75
447
-145
34
-148
122
181
241
-44
-28
-96
272
-256
-353
-83
-416
143
-180
-230
55
-120
-130
112
-96
-334
71
11
-3
181
-189
-73
-179
-37
70
-289
-138
226
572
-432
-123
28
186
317
-114
95
13
-80
186
-79
-321
-23
-30
-360
-53
253
390
-537
-256
-496
220
474
8
-200
-92
-274
-251
164
-204
-163
-257
-35
-175
-84
413
71
118
-170
340
-111
140
167
6
76
-129
189
-325
130
-295
-232
144
-45
113
130
-143
483
-228
186
114
-22
155
-46
116
81
143
129
-408
-205
-227
-237
146
310
-311
459
145
-173
62
246
-43
-287
263
-270
-71
-63
424
-44
-207
251
-158
-490
-77
57
-141
285
258
-228
140
-114
-255
-137
-46
-48
-65
-296
-268
-155
-148
-47
261
23
-170
-42
-105
-100
-131
-154
-452
253
167
190
51
-69
62
-272
84
168
-7
-589
-140
-51
76
-232
-187
112
230
374
-405
-389
138
204
251
78
414
72
634
40
-159
-76
-203
-36
2
151
-8
92
355
154
-225
-40
-39
-19
-7
-19
-200
151
-28
-222
242
-231
-56
42
-82
77
-259
-46
-287
41
84
305
12
-125
215
34
-148
197
235
144
-43
-22
-358
113
-68
-321
20
147
-360
-542
