-414
-14
183
389
-432
325
-768
-358
-88
-183
-166
-420
563
-853
-496
75
591
313
-322
-1059
-512
251
-726
-512
242
-552
-710
112
165
-98
-126
-78
-652
248
-407
159
-79
-110
-324
618
-14
249
-131
-301
153
147
64
190
-204
-267
242
-208
-1019
1359
-269
23
-291
581
-25
95
84
-203
709
531
100
143
-226
-322
-130
23
-268
-221
394
226
-319
-622
-351
-244
-126
159
-239
-198
-356
80
-352
-439
50
-90
-354
-111
-298
170
-1702
-300
-97
-232
53
195
-196
44
30
-362
24
33
-403
-72
361
-80
-522
-250
175
-625
886
433
-400
-160
-485
-414
-37
-221
92
884
17
-334
-310
-46
17
-240
-341
149
72
-645
233
-336
129
267
556
186
476
952
-68
-137
-36
-212
-545
1713
74
184
-283
-327
-331
-457
80
-205
-163
-126
-605
-573
-301
-731
348
-485
-87
-171
-354
-318
128
296
527
166
-334
-443
-559
-545
-175
-1219
-114
-466
-511
-102
-14
108
-877
-675
-536
-186
-565
-1031
-269
-83
393
501
-1266
429
195
-166
39
-427
26
-313
-157
-858
-608
-617
-75
-474
-622
200
48
122
7
30
-559
-457
-231
660
24
58
-932
-459
-471
-687
-450
537
-330
-306
11
327
-88
-294
-363
-1
-369
-64
-321
-390
-387
-537
-328
380
120
-251
-289
-617
-25
-787
426
-235
290
-139
-638
-1016
127
1
-102
164
536
144
-350
-178
-444
-87
-374
-293
-1067
-517
-126
-298
-161
-168
-384
64
-106
-48
-47
-420
-123
247
-110
159
-370
-230
-123
-246
83
436
-18
-291
-286
-203
-131
-800
258
-54
-123
-66
-35
-1227
-51
33
-253
279
-39
-411
-1002
-273
-558
189
-5425
117
-310
-245
129
144
-598
170
-323
226
-163
102
-185
4
-355
-78
-394
-588
-257
-195
-118
-328
29
-406
317
-193
-154
-416
-102
-514
-140
-489
-316
-409
166
-454
242
-293
-182
351
359
210
-9
-238
-103
-699
41
266
215
273
159
16
-528
132
-71
-160
-11
-430
-46
-156
-179
-680
332
-156
-366
-373
26
-11
-39
29
40
-187
-290
589
-376
365
127
-46
219
-289
-179
237
-104
-143
-827
-696
-423
-386
-375
-121
-214
48
-493
252
-205
-68
-508
64
-344
96
-227
-179
338
20
-29
-90
150
-63
-297
-113
-322
-78
417
201
-386
190
106
-263
-332
6
-319
-13
-291
-45
-38
-201
-280
-329
-194
-157
177
60
-232
-191
-16
1138
2
-353
302
58
131
-183
-6
-259
-735
189
-243
-53
-239
-230
182
168
-491
386
-436
-462
-612
584
327
-742
-479
-42
-322
66
61
5
-346
-524
446
30
192
0
290
-394
-837
-193
-97
-235
-214
-488
266
95
154
381
-542
338
628
11
1041
-258
199
-138
48
-356
-206
-260
-297
12
-617
-32
341
-269
50
349
-847
-256
268
-533
69
-92
387
-79
183
-406
-257
-28
201
-234
-238
-147
-238
62
47
-4
-433
95
-19
-31
215
-542
-283
-575
-657
1003
86
-438
-209
-136
593
498
-478
-806
-268
80
-280
-322
-262
-83
-412
-493
-270
62
-248
448
476
122
-285
-235
-266
-131
255
-120
-333
-11
-87
448
-457
-135
-264
287
-101
-272
-297
246
-822
-418
-105
-436
-922
-231
199
52
-210
391
-400
-322
-534
-199
-303
-328
-252
-281
-307
-449
-9
-60
-235
-548
-641
-402
-263
-160
-216
-328
-186
-262
-794
-173
-472
-70
-382
-699
-215
90
-341
-204
-120
18
-154
48
-241
-31
-291
-191
-39
-154
-400
-101
-232
-286
-409
-434
66
29
-384
-192
299
35
-709
-164
-161
-426
124
-133
136
-383
1558
-286
134
34
-142
-417
-106
42
-383
-349
-328
296
-207
685
-302
44
531
-684
-147
35
-144
-518
-929
-509
26
469
-393
-157
-827
-118
-206
237
-416
221
-63
-252
-314
-769
-57
-22
98
-682
71
-50
-262
-85
-564
-298
669
-555
217
-379
-402
-609
-96
260
89
-501
244
-108
-32
-574
97
-170
-111
-357
-105
233
-466
-288
-568
-136
-3
-266
338
-303
34
-365
134
-284
-890
-324
-181
329
245
-240
84
100
-685
128
-351
-184
-154
-228
149
-402
-100
149
24
-829
-62
-372
528
-456
315
-502
-392
-174
61
173
-277
-431
22
124
