35
85
157
63
-148
163
-249
46
-302
83
206
-78
152
47
-66
-45
82
-140
-10
-180
52
-151
-132
-16
40
-31
228
-122
264
20
-67
-32
-89
78
33
41
186
78
-166
-115
-151
-207
-122
125
20
-63
-94
0
101
-107
-108
57
-179
100
-353
-27
57
-393
130
-180
-61
147
-94
122
245
-387
195
112
188
-49
-78
49
4
-130
-7
-89
20
68
-88
-127
8
-106
39
-52
-76
-59
89
89
209
-177
50
-113
38
159
-49
-215
141
-15
-26
-90
86
82
35
211
-122
64
-42
132
84
-81
-100
-96
3
26
-165
-124
-27
102
117
-100
333
-11
189
174
-236
-74
-6
-95
129
-5
-24
7
28
-3
-9
32
-42
-5
23
18
19
3
-53
36
-49
-23
-39
13
-11
-18
-15
-18
-39
61
4
38
-51
23
39
21
-29
-12
-15
-52
44
-23
-14
-20
-40
-23
-17
35
-50
7
44
11
33
-30
-19
54
-9
47
-6
-36
49
-9
-7
10
65
-25
9
-44
-205
-160
54
-140
-174
-150
107
-150
-77
-242
216
10
-26
-38
128
-113
321
-249
43
-351
-125
404
-138
-124
-48
334
85
-79
18
66
-244
70
82
181
175
-24
82
-98
80
139
208
26
-67
-14
60
-216
317
-226
193
-175
73
0
-58
-197
-6
7
173
-215
61
24
142
-46
-18
63
-182
114
172
288
81
-128
-251
-328
54
-54
-3
133
307
16
-142
-61
-152
-289
-118
-75
121
106
-157
-80
52
-129
2
-110
-183
-168
144
-138
-43
-18
-293
96
-3
-199
-100
46
197
139
-94
-11
279
108
73
483
115
92
116
103
-54
-287
12
-25
104
93
-82
32
-106
48
22
-37
250
9
-87
-263
9
-84
401
462
-67
41
12
-140
423
108
-159
60
255
-153
87
-111
57
-183
-38
301
100
63
547
207
4
115
-318
29
-209
-131
551
45
145
188
-132
-100
130
72
2
271
-53
-40
576
-271
329
281
-337
-226
-70
81
126
-125
190
363
-155
-101
93
189
92
12
13
145
-3
-37
-28
126
103
190
-180
-151
53
57
-65
69
-3
70
-44
13
-38
2
-7
-103
122
11
58
104
-58
-32
-95
63
-82
47
-21
-37
-50
90
-7
-87
-53
27
36
-173
-53
368
-54
-91
-54
148
-24
-1
-9
-156
153
30
-4
230
-129
-21
-13
-188
-41
165
40
36
320
-49
12
120
142
60
401
-105
-287
-12
244
85
-261
-334
-80
141
-62
126
-144
26
69
-227
194
95
-55
-400
-144
-137
175
-230
23
-192
43
106
192
189
122
220
25
74
221
-73
253
567
377
1
-5
-299
-353
-324
241
-82
-288
278
-171
-50
-73
-113
-230
106
-31
-391
-11
325
152
61
-312
-602
-165
-152
173
-116
-266
61
4
-39
88
385
100
-80
-58
-151
-124
65
-40
8
366
66
194
-218
-298
126
-35
197
-333
81
55
-142
65
-21
224
94
-356
78
-230
-16
-62
361
181
115
132
265
-68
-364
-369
174
-138
-143
171
172
260
-103
-184
-104
378
-200
42
126
-18
44
-14
51
138
-106
43
161
-57
-33
127
55
121
-49
-168
123
-15
-26
6
-70
-171
-111
-34
189
83
130
-30
-121
178
40
-39
-67
-83
-86
-125
-33
92
63
87
-143
-25
29
-114
243
83
19
-102
-112
66
26
28
-61
76
58
-90
-59
21
163
-169
87
47
-82
155
51
111
250
-204
412
-84
179
-51
-203
-88
81
-121
-34
17
236
-163
-60
-423
-29
212
-171
-389
72
-136
179
-79
-59
-54
27
-187
3
-167
70
77
153
235
-100
-110
221
31
58
2
264
128
75
109
-219
-133
-94
95
-7
47
-4
-126
152
307
-146
68
135
-168
234
-13
-12
21
-141
35
75
308
170
320
-27
82
-7
171
-77
-92
218
475
133
-8
-76
-205
361
-69
-112
-38
59
-302
140
42
51
8
-36
265
60
296
330
236
342
178
6
-104
-594
-178
-57
113
-150
-428
112
41
87
-83
-111
315
-110
6
330
7
120
44
38
-59
207
71
-112
-143
189
133
110
