1055
-122
-1137
-1594
1510
-1902
2128
804
36
9
231
988
-2109
2538
578
-694
-1720
-1715
373
2490
1236
-2074
1451
1158
-1561
1077
1433
-927
-948
205
-556
-52
1542
-963
487
-1003
-687
433
877
-1857
-510
-1451
-382
583
-345
-667
-918
-895
777
60
-1732
646
2341
-4395
831
-1101
150
-1879
47
-1149
-273
516
-3097
-2346
-888
-317
334
121
245
-811
415
160
-2409
-1184
658
1319
465
425
330
-390
168
63
610
-133
968
601
-834
215
404
454
-57
-349
3411
130
403
241
725
-796
-92
-442
-341
967
-131
-337
413
872
-1713
-297
1315
-417
-354
1325
-3274
-1589
365
404
596
653
-331
373
-808
-8946
-782
479
299
-143
-388
375
687
-393
-241
1316
-529
482
-827
-1347
-1544
-1012
-1554
-3047
-405
166
-668
752
861
-9509
-546
-1029
404
827
628
872
-688
286
265
231
1564
1317
938
1718
-520
681
135
226
370
313
-10
-1214
-6989
-562
-68
1018
1206
2054
712
2117
-113
714
798
186
-525
-644
1387
1815
1489
161
1889
2294
240
-88
-1274
-1755
2457
-1003
-823
235
-353
716
-949
509
-385
1922
1002
1529
80
724
2008
-523
-269
-532
239
-927
1155
817
173
-1732
-920
-391
2994
682
482
1702
969
-1435
476
520
-405
-772
-83
374
866
-321
975
-401
598
1070
842
803
357
-1037
-1114
212
161
1287
-49
1010
-1963
161
-631
-411
1290
1929
-421
-177
32
-332
-1195
-940
630
78
1058
-218
1328
451
2505
1267
-235
608
270
90
494
-296
-26
-386
-1019
656
-96
-1017
-178
-617
302
473
91
145
-679
-1587
48
586
577
291
3
1754
-1110
58
195
-422
-1511
2989
-581
-809
-50
-1045
-18
707
1858
1180
342
-1141
-17223
-1039
384
1736
-581
-1313
1191
-824
332
-436
327
509
-157
-68
439
-128
386
1355
534
-166
-340
577
-657
-539
-947
784
-260
468
313
331
-59
1578
-63
885
-846
781
-1287
1706
-163
-1489
-1331
-1697
-404
1265
-467
1191
-691
-1554
-1144
-735
-743
-196
1276
-663
-116
66
-355
246
-167
-99
-435
787
-1475
-25
594
552
-1353
-473
-217
-355
-328
-105
112
-3110
1062
-1796
-320
-342
-1007
744
118
-1222
-430
-206
1551
947
370
36
29
-11
232
-643
625
-659
46
-693
743
-1128
1108
-671
318
-70
-1471
-989
9
89
-701
-40
492
428
609
-312
-1013
-671
937
-1037
-431
542
228
-222
-339
-1172
990
-335
-471
-256
594
722
-217
-392
-504
-986
559
333
-91
-4144
-388
657
-1870
10
-377
-167
-506
557
2035
-923
352
-130
183
440
-810
-1013
698
-591
252
1525
1164
-2018
-1457
1123
1060
150
798
-728
-660
-360
418
1056
-1263
-293
-578
-481
-1000
877
911
203
-109
546
-6
1328
-1058
-526
-495
-1490
1267
-1209
-2271
-834
-4269
494
-880
-252
-583
406
49
356
501
-920
919
-43
-1186
125
-441
-1026
2202
8
-1161
924
-635
-41
-1442
-301
-746
982
662
19
-1290
228
260
164
260
80
-182
-534
710
-461
-357
-943
-1108
971
793
-537
1379
-8361
-515
1021
154
-2370
-1676
-1948
872
1635
67
-530
484
778
573
-214
756
1154
270
-491
-385
-1756
-1277
-973
572
414
222
-285
-294
-215
1072
-212
113
-1286
650
204
9
-1765
387
76
-385
-1132
1633
441
326
707
2337
-201
-811
-707
121
-1304
738
-115
1024
-145
574
248
447
385
143
858
-910
57
170
1441
974
1496
307
174
-59
588
170
288
1104
43
1164
-474
667
1374
374
-656
280
162
-17
-145
663
-1233
169
-102
386
146
-535
286
918
-276
741
351
354
1391
-1042
-125
617
1
-653
-205
1306
-423
70
1168
-711
99
-451
620
-8952
327
-1128
-802
138
433
94
-820
361
-6
372
-1198
115
-2135
328
-320
-2121
1256
-17
-720
-67
506
2412
1067
114
-1422
479
-257
2202
-169
-243
-1016
641
-1462
-878
467
307
1774
230
148
-1244
1636
-643
-611
-70
-482
1059
-4
-2674
669
-1128
424
1559
865
100
-741
-92
1122
-339
299
-602
1183
-398
579
-216
828
-169
-924
543
290
903
69
21
374
-1382
64
-582
963
-490
747
1549
469
602
-774
-1371
462
-515
-184
1450
-829
860
396
-242
166
-283
373
143
-1072
-564
1902
-309
1133
-2938
964
-781
584
815
343
-310
-1099
282
673
-371
-510
