-47
-23
29
-50
61
34
25
66
-37
-5
-11
21
-55
51
-14
52
124
40
-5
18
-6
23
15
10
-32
26
22
38
-44
22
40
3
63
-51
-22
27
-55
-32
-47
-55
-13
-52
17
4
21
20
16
75
-24
6
-46
21
78
-2
49
26
44
-33
-21
-50
-11
34
-9
-48
24
42
-42
44
-63
-17
-29
37
-4
16
19
-21
-31
64
22
32
26
6
-2
48
-15
-63
-19
-31
-36
35
-37
-57
65
-66
15
24
105
-13
52
-42
-3
-25
26
-20
-15
74
16
-33
-40
-26
-10
29
51
-59
-16
30
-42
-17
-30
-5
-16
35
2
221
38
-90
3
1
-17
16
-38
2
-27
-3
-3
-8
71
-2
-14
18
-31
11
-2
47
64
-25
5
-70
-63
48
-77
-14
-46
19
-58
33
33
14
-34
15
-2
-15
9
-9
39
47
66
42
-30
18
6
13
-62
-62
-9
-20
42
4
15
-19
-89
19
-11
1
5
-23
34
-36
42
36
-29
-7
70
-52
3
-24
-38
3
-33
-7
-23
-3
25
-64
6
59
-24
-17
-29
-1
-53
-2
27
99
-22
31
-91
-13
39
-44
49
28
-27
-16
22
136
40
-31
0
-19
-83
-1
60
-39
-20
3
37
29
24
-28
66
21
-17
-2
5
-12
31
-22
-46
21
-35
39
2
-23
28
-30
30
-34
5
35
12
-18
-32
-3
8
-88
0
-46
26
0
-15
45
-6
64
1
-41
53
23
-6
-20
0
43
-12
15
-53
-1
13
2
-24
-22
-20
-10
-46
-31
43
28
8
11
16
-47
-27
35
11
56
17
-14
-31
-21
-415
-38
-24
-52
48
39
-9
52
-9
-63
-10
-3
32
62
56
-91
-16
-45
26
39
8
16
25
35
-24
24
-41
2
-37
17
-30
-39
72
19
43
30
-13
-16
50
-47
38
-16
-4
-48
73
-85
30
17
-31
22
21
29
30
-65
52
53
82
53
-34
8
-32
-16
-56
-16
0
-37
-11
-9
14
-21
-69
-3
9
-375
-37
-65
66
1
-32
27
5
-25
-15
-2
30
-58
-18
-13
-58
-23
80
8
-26
-24
62
-24
-36
42
-27
-68
28
14
-9
74
-21
-17
-25
-4
-39
-46
-28
8
-6
-58
23
-40
-7
28
-4
-50
-33
41
-56
-65
-20
38
16
9
21
-27
17
15
24
3
-27
-60
-15
-54
-36
48
-6
15
30
-34
30
-65
38
23
25
-6
-155
1
-7
-73
-7
5
45
22
92
-84
-13
6
2
-21
6
34
11
-17
-29
-38
-68
-63
-3
-45
-75
23
-65
-5
15
27
-10
28
-56
-14
-14
44
5
-16
-2
-13
-8
22
-1
14
19
-38
-21
34
-36
54
-76
5
3
-69
-24
0
3
78
-11
-42
16
57
11
15
42
-10
-25
-24
-75
-34
26
31
3
26
-17
14
9
-27
8
5
30
-72
19
-32
-1
-15
-4
-39
-17
19
19
32
-18
12
5
33
4
-22
21
27
-6
-22
12
21
57
-36
-37
28
0
62
2
55
-5
6
34
-54
-43
-18
39
-99
13
-55
5
37
55
40
-68
-12
79
-1
-69
5
-9
-61
1
9
-6
58
3
16
-9
64
17
13
1
61
46
50
31
33
-68
35
74
3
19
-10
-9
-31
-42
-27
-31
-60
78
-10
13
10
3
21
47
3
32
-11
84
5
50
59
-3
53
43
31
53
-26
-62
37
-32
-61
5
-59
-7
103
-2
120
9
30
47
89
-51
-17
54
20
4
-11
-4
-45
55
6
7
5
-1
63
70
53
61
2
12
-15
54
-2
34
4
-51
-8
-12
-37
49
-21
15
13
10
73
-20
-6
-11
-31
-19
-20
67
20
-84
-56
-34
-10
80
20
9
24
64
22
46
10
18
9
-22
-4
27
20
-4
4
-27
3
57
1
-198
7
-13
-9
33
-13
-21
-57
-28
8
18
60
-9
3
104
-28
-6
88
-41
40
-17
0
-74
-30
2
26
29
-49
32
6
-35
5
-16
41
-29
-14
-30
39
33
-71
-48
3
25
-37
-39
-20
-19
-39
