-11
70
-172
65
24
54
-158
56
-159
-23
41
-15
340
-205
-5
103
236
13
-39
-254
-228
79
-203
-178
262
-94
-267
140
36
-36
193
57
-128
-55
-158
112
226
-116
-113
-134
-33
-37
69
-171
227
-70
-11
63
-27
-161
188
-70
-165
213
142
3
-116
-126
23
-106
65
-41
274
38
-136
-130
5
9
-129
28
111
11
196
143
-160
235
228
-201
-250
-235
168
-71
-18
174
46
-150
104
-76
-82
34
0
-116
-390
196
153
213
-130
261
74
67
-17
-128
-85
121
-97
187
10
-18
-99
-20
-113
61
-21
69
-7
14
27
16
8
-247
-112
354
168
-209
-27
46
129
-46
90
369
139
-120
-128
-212
-33
17
57
-179
-71
73
44
207
-80
45
-154
549
136
109
-190
-53
-112
44
-200
-57
45
-25
-23
-160
-153
-360
-137
7
254
119
-23
0
-135
100
631
121
-13
56
-29
-144
-32
200
60
-31
225
-123
-189
0
122
-165
-93
19
-150
-113
-170
-118
10
133
-87
149
141
-35
-88
-337
-156
275
85
-308
-332
-290
-78
-90
117
-18
-44
43
-113
143
31
-226
-57
57
57
66
-442
48
49
-42
-77
-5
-47
-294
-106
152
-44
24
-42
54
-35
0
-57
-78
-145
67
-82
112
-162
-146
157
45
85
192
-262
-164
125
210
-69
-180
18
23
-155
-56
52
137
83
120
267
69
-101
189
-93
-36
-22
20
-7
64
-94
37
71
-30
81
-202
40
201
166
105
-86
-113
-74
111
129
-96
-57
-98
88
25
-123
-38
108
28
-19
-63
-174
-61
-51
-176
35
132
59
-44
-412
-121
81
49
3163
-153
-37
-291
8
-21
-42
226
-71
-181
-53
-251
-16
-115
-17
180
151
-200
-341
120
-75
-130
201
-472
65
-63
162
-59
51
-31
48
27
56
-129
-236
36
-28
52
-150
-43
13
67
108
-98
64
-447
41
36
-5
105
-51
-200
83
-130
-42
-29
-127
111
-243
-251
-100
4
37
111
-142
79
-39
52
56
102
158
-46
10
274
-182
228
-57
154
89
-103
76
-222
70
-227
10
-186
-93
1
133
190
38
58
173
119
0
79
-2
113
10
-118
28
58
92
86
59
90
-188
26
-71
38
100
-378
175
309
-73
14
230
-152
-114
-179
40
-315
124
55
108
13
-69
-31
60
121
-4
-223
130
-36
51
228
71
90
64
-49
163
166
-51
65
-29
-31
27
129
76
-121
-59
44
-61
248
-10
-9
244
-143
14
122
-81
279
-27
7
12
142
-28
30
-169
-128
171
-41
33
-164
316
-104
80
-94
-104
-124
165
-268
-26
24
-274
61
54
66
-392
61
-36
-40
12
-76
54
-206
95
-68
-105
12
66
-61
-66
-6
166
-1
82
-208
16
-35
20
-15
-7
-159
48
91
-60
157
-7
-104
-53
-92
214
72
-105
-179
4
-18
-125
-122
33
32
28
65
98
-50
16
313
180
65
16
-52
13
351
111
3
124
53
59
122
-83
12
-35
93
86
97
-121
-80
-17
160
-14
84
-18
163
211
283
82
-5
83
-16
-30
128
71
11
-98
-91
140
20
-286
6
170
151
-116
63
-46
67
128
83
-68
104
-93
-87
5
41
173
14
-189
-435
-98
321
-11
218
-121
233
80
-210
-92
116
78
-15
177
107
-147
-21
-9
-92
-76
-49
-120
-176
-22
-25
-297
-262
257
-148
-45
103
17
18
-288
90
26
-145
57
-368
161
-108
34
-5
323
115
58
-64
-73
230
-16
-151
193
48
91
192
-217
28
-129
158
-104
-41
-75
2
-130
56
-418
-157
86
-6
38
-26
-131
-69
46
71
-112
26
-29
25
70
205
-266
-57
71
33
-16
-110
8
38
158
-85
16
-101
95
-40
-63
-46
95
-127
-133
-147
-84
16
132
6
331
4
68
132
55
-39
-90
-4
25
-29
126
-117
-184
43
209
20
232
-10
190
32
2
-69
-168
-87
-137
105
-136
-17
36
-102
13
-188
-9
147
9
-209
-145
-230
3
32
-88
-62
-101
-30
223
72
173
6
159
28
-176
60
-92
-66
166
-19
-25
-99
