30
-12
-1
5
-13
17
-23
-10
2
-10
-2
7
-12
6
31
-8
14
17
18
-18
22
-10
-28
-14
9
12
25
5
7
-12
20
3
22
3
-19
-3
-9
32
-6
18
30
2
-12
28
32
-22
-13
6
11
-8
28
14
-16
-11
23
26
-5
28
7
20
7
-6
7
-4
41
23
45
-5
-61
134
40
-6
96
79
-31
-34
-22
15
-5
3
-53
8
-4
44
-39
90
-67
40
50
-91
-3
-44
-40
89
-146
-42
26
49
46
16
87
24
-110
-82
-66
-66
-55
25
14
67
-39
-24
-69
-9
-15
6
-43
3
45
61
17
30
18
-87
-53
50
20
156
14
-35
-1
-36
-27
-11
62
-24
45
-3
-18
-15
24
-26
-22
17
15
5
45
32
-25
16
42
11
-11
36
11
-23
80
13
-17
-18
-35
-34
22
-35
-4
42
23
-31
19
19
-33
31
-12
69
-24
-22
45
-10
-18
10
39
-202
-93
-43
-27
-52
-5
22
-12
22
-4
41
-46
-43
-13
-58
-17
-31
-15
-32
20
-13
40
-8
22
-17
-25
30
59
5
-16
0
-5
40
83
65
51
39
-14
29
44
-12
21
104
12
0
-46
26
-21
11
54
-61
0
66
29
24
-24
-84
-71
-16
12
13
-47
21
-26
-18
23
16
-14
56
26
24
-5
36
25
79
39
-5
-21
-49
14
16
26
42
-16
0
5
-22
30
-86
49
0
8
-37
27
6
-44
-33
26
-24
30
0
27
9
-17
-26
-35
-74
-23
-1
4
49
-8
-42
1
3
46
3
55
12
-51
26
-7
-67
39
-39
42
-45
10
-46
-49
34
25
50
-6
67
32
-33
-38
9
-121
-11
6
97
37
54
-33
17
101
35
-87
36
116
24
-33
-26
45
18
106
78
-72
-55
-93
75
-64
31
-81
-11
-37
-56
-26
-9
78
-122
-17
98
-39
-20
-55
15
10
-1
-9
-50
75
-34
19
36
52
-31
-41
-78
13
-24
-25
72
92
3
1
23
24
-36
96
-71
-1
17
-13
0
-19
-23
21
24
-13
16
25
0
22
-30
9
9
12
-48
-7
1
3
-22
-12
50
-22
14
88
26
17
3
-15
-26
-18
5
-5
-16
-32
18
23
-21
-3
-2
10
17
-35
30
-32
-7
-1
15
-11
-34
37
9
41
15
16
9
-39
22
0
27
12
23
32
-39
26
24
-5
-60
83
4
-12
0
6
47
-76
40
65
8
-65
8
48
16
-20
1
-2
-24
6
22
-15
-43
38
41
44
-2
-5
33
12
-9
-11
-22
-3
20
-9
-9
5
-23
9
20
-64
-20
-48
16
-73
-24
15
-10
-3
-2
61
-56
22
31
39
31
28
55
-5
105
-87
55
-37
31
-59
-45
-74
-26
22
-12
45
-16
-116
-33
5
-28
6
-3
-15
-63
92
43
-24
-49
-71
4
-18
-43
-67
84
47
79
-27
9
-21
31
-67
-20
-78
-37
40
87
-27
-13
143
-113
31
-53
-3
-24
32
115
-49
-1
-64
-7
-20
-43
-143
-256
47
-2
-45
-26
-72
-5
24
-25
-93
-46
22
38
15
-12
-58
-43
7
11
15
-28
4
-4
-37
2
17
12
1
16
-32
35
35
-10
6
26
12
-87
0
34
-12
15
-48
0
-21
37
23
-16
12
29
-5
36
-27
-36
-1
3
-22
-27
0
0
17
187
35
-9
-15
-31
12
24
-48
-1
-19
19
24
-28
25
-14
8
-10
-15
-7
17
-30
4
8
12
-8
27
-3
13
64
57
-39
-22
-5
-32
35
-4
34
8
-6
-3
39
-12
-18
16
-24
-19
13
-1
17
-45
-2
31
-25
38
-40
16
34
1
-8
22
-8
-13
50
-3
10
18
5
-18
-36
-14
-32
74
-1
3
-3
39
-43
33
27
-14
-50
23
17
-47
7
66
-30
-92
-10
-4
33
11
-51
8
10
60
2
-27
-91
21
3
-24
73
0
-31
-7
-40
-30
9
5
41
5
-10
-9
-26
-45
-13
6
5
14
-29
40
27
35
-7
6
-45
3
3
-32
-19
-11
6
-35
33
