-117
183
235
-196
661
-107
711
403
-67
-397
196
314
-660
90
6
1199
645
449
-347
69
773
-496
28
1145
468
452
-24
-210
-1175
508
-176
-239
760
-150
105
337
-707
-355
-152
-568
-601
-650
-523
629
-99
-645
144
290
-420
-383
-246
-440
1032
-650
572
601
310
-1073
-172
-559
307
320
-188
188
-364
314
-339
151
-18
-730
-261
304
-224
-801
348
-129
-440
285
383
402
177
-147
487
857
10
-689
473
-422
-833
-46
-797
-955
1544
-177
414
-346
424
327
47
-259
-212
-250
716
-276
-203
-3
-84
-557
-808
-131
-546
-237
-1419
-262
154
70
-106
-51
-338
-39
-271
-361
43
518
510
-913
-68
787
-553
-231
-270
-220
-428
139
-1233
-186
367
483
41
-421
-123
55
53
388
534
-717
-243
-104
-733
851
-630
720
-520
-158
-144
138
105
-69
341
-373
-62
-614
-186
-500
-96
216
877
287
-1157
-580
-387
-342
-463
182
-325
1390
75
-183
388
-429
-307
147
-476
10
278
-647
141
527
147
-375
-510
-1007
1025
-676
502
48
26
1316
201
110
-623
-120
358
-1062
-364
-221
40
-234
564
394
-662
-511
45
1149
-435
-761
-825
-649
1796
-1168
385
833
-377
158
-503
1025
96
-619
339
-16
-734
11
1090
-601
-174
537
-342
34
289
-1045
283
333
-857
822
103
-324
-42
-55
-655
-361
-563
1432
248
-49
568
-540
-723
-394
138
123
101
-205
-249
-230
-59
-1453
-8
-224
-305
-454
-155
164
-581
542
139
-271
59
-61
-275
-578
221
494
-498
-183
-544
166
488
-290
-952
74
-169
-27
-513
-368
664
25
323
600
911
-515
-428
482
-299
-94
1299
-628
-275
-356
-2312
-623
-207
-383
460
429
-66
186
-341
-205
-580
319
-788
353
574
-1332
-347
-422
142
59
-375
-526
380
-285
-216
790
-798
-9
-608
-407
-219
-930
512
112
571
352
-169
-1185
133
-1081
5
-964
-761
-931
0
35
-162
-579
-162
366
-121
505
-100
-170
161
48
475
-35
-478
665
-485
-184
-365
-468
-177
-835
-1112
-235
180
-625
-996
22
-231
-8390
-247
-712
227
-399
-973
37
-175
-666
97
126
107
-292
-56
-533
-1143
-545
127
-783
-518
-433
279
-397
-1063
-897
-80
-648
541
-432
-456
-712
-42
70
-401
723
-443
-745
111
-206
-333
-1446
-4
-473
-422
243
-120
-983
-799
215
-55
-828
-591
995
-579
272
-101
-928
203
-148
385
-121
86
365
-145
-430
-351
230
-278
-994
-288
-231
-70
-377
227
478
9
445
-666
-365
134
-1637
-354
411
322
-200
145
-857
124
-122
-75
-90
126
-49
-66
-209
35
-13
-960
-768
-71
636
-645
-707
-296
-463
425
393
-966
279
-223
-273
-29
211
170
-206
-199
-211
-59
-126
241
856
-730
-779
-53
366
116
-43
-1103
-656
-410
-521
-242
-221
-132
1247
-263
280
-458
-103
-386
66
392
-271
-71
-379
-678
-262
-207
805
1011
-496
-805
-188
94
-1179
-157
-96
77
-1048
247
-168
160
-323
3
-368
-624
-298
836
662
-764
-231
348
-118
-330
-490
-331
682
28
-760
-418
-477
-133
-597
-788
139
596
-263
95
-157
-52
102
400
317
-718
114
-79
-1311
299
-1231
-758
398
475
-347
-201
-680
1286
-443
-647
15
-76
-184
592
185
207
-689
-231
46
-501
151
-66
41
-865
184
310
619
172
-273
-228
-51
97
-449
-67
225
-454
44
-205
136
-378
-401
1003
108
-203
807
-267
474
902
-689
89
-264
267
401
661
860
-337
-90
237
-142
529
-286
-522
389
-4
-758
-39
-716
185
278
105
830
209
494
940
621
-891
-444
646
52
322
-623
-80
-689
1
-585
-13
-293
127
881
213
589
553
-297
-1227
352
317
-672
813
114
-295
-50
-367
-351
581
24
-313
81
118
472
-979
-333
-399
-130
371
-107
-232
345
-702
193
-805
-204
455
126
-627
218
246
452
357
152
-106
116
364
60
935
-49
-356
393
-123
18
42
-322
-449
195
-644
-536
718
-529
47
-315
-216
-34
533
325
-149
-105
1175
-513
-79
1169
-192
-42
71
99
-243
-419
-445
521
-168
-278
259
437
-475
-151
-155
714
-1137
259
-164
515
-289
-221
-107
55
-7
-180
-929
438
102
-65
