70
-140
30
129
-58
173
-82
-58
99
-176
142
-233
25
413
-44
-19
70
-36
-149
-1
218
35
-22
173
140
77
201
45
-126
34
13
-438
283
-57
117
-96
28
-131
-268
-72
179
-363
-92
129
194
-24
28
-169
-160
-557
-102
-23
109
16
-83
371
-43
78
165
-43
114
220
11
-125
18
24
-34
82
-8
-179
147
37
59
-28
-68
78
-42
40
48
-17
1
-31
-28
-37
-79
24
-30
-79
-53
6
7
-53
-64
2
-48
-17
-6
49
10
70
-27
48
-71
49
54
80
9
34
31
-55
-8
-30
-12
-73
-107
-33
-74
-11
-28
54
29
-71
-14
145
-110
-49
-73
-63
-2
-84
33
-26
47
-57
-19
48
-59
-125
-29
18
29
20
104
28
1
-36
22
26
-57
40
-24
-1
28
91
-63
29
72
-54
-2
26
32
31
-13
-56
43
-31
56
37
15
26
43
26
-90
16
39
38
-27
52
0
-42
-9
-33
35
26
-13
0
-78
27
-23
-26
7
23
-48
5
-14
5
186
-21
15
-19
-54
35
56
20
-47
-5
11
98
85
-11
-103
-129
9
96
59
79
-4
38
17
3
1
17
149
69
-26
-129
-8
0
12
-1
-36
-8
-68
-50
85
9
4
-8
53
40
-63
-47
11
-26
-45
16
13
-7
-54
68
-21
-38
-23
-2
-98
-11
-28
64
-8
5
12
34
-23
46
16
120
15
58
17
2
35
-17
37
23
18
-15
3
52
-15
116
17
61
18
-38
23
60
83
25
-16
60
19
-65
66
68
-9
-62
6
7
-56
5
-40
-61
13
-51
-50
16
9
80
-66
74
-38
26
-26
33
-63
-19
-11
19
-18
-4
64
204
-183
-12
-12
-2
-25
-25
-81
40
-10
-8
65
53
-95
-154
-23
-100
46
-70
-93
73
10
-33
-64
-5
-175
40
74
-3
-73
70
42
-81
139
-109
44
-33
-55
-25
20
-40
21
-23
294
17
23
30
-6
-24
-67
-26
29
51
-6
22
69
-32
-47
-219
-165
-299
-317
54
-181
-60
-24
126
-76
16
-149
-10
26
158
-91
27
43
1
-61
-125
-47
-73
20
-132
34
-29
-46
-111
-29
-24
-178
4
95
-6
62
-210
200
78
29
-113
-71
-125
-31
-48
-42
-1
43
96
-53
51
-63
60
8
22
-53
13
-83
12
49
-159
0
-18
-234
9
58
-25
-106
52
-1
33
185
-340
-49
347
188
255
283
-251
-142
-71
64
-42
-120
109
-282
-148
-169
-159
-62
-109
-146
-195
-92
-124
157
-112
-175
155
-183
310
1
29
-339
-22
153
116
1
135
-100
248
-411
-200
-366
205
-427
-508
208
241
-130
157
15
-219
73
-130
-81
52
-288
-74
-76
57
-43
-384
48
25
-40
-46
-22
4
34
-50
71
26
-15
-29
27
-80
-76
-7
-15
-51
-23
-86
-38
71
-49
-44
23
-107
-13
-45
2
-7
-94
34
69
-20
-25
-20
21
-21
-13
-9
-61
-41
32
42
-17
13
-53
3
-11
56
-5
115
42
-15
73
-16
-24
39
20
39
-13
-21
37
39
21
-203
-130
-27
58
-69
193
38
380
16
-20
-85
59
-4
90
35
95
-51
-55
-56
-55
-96
-315
-264
-18
-2
-8
-22
12
-2
79
-75
-46
46
16
-77
-78
29
-6
-4
-106
-22
4
40
-176
-164
-122
-7
21
0
-173
-76
-74
3
254
-91
-2
15
-94
140
68
-13
48
6
3
52
39
55
53
-104
-23
-66
71
-45
-85
69
3
-21
50
79
-29
61
-19
62
-10
91
-14
-36
30
14
24
-44
-42
26
91
-20
15
0
-8
-88
38
23
80
100
-6
7
-86
-16
70
-82
-30
82
54
55
-12
-19
132
-14
-263
43
25
-133
-40
6
-8
7
88
42
32
91
-39
-211
-18
-26
-204
-2
14
-14
26
72
-22
105
20
67
12
-50
-6
-131
55
109
9
10
-24
-52
-20
2
-221
9
11
-49
-33
-17
24
31
-1
5
-40
-24
2
-7
-55
7
-74
-129
42
-5
-6
-3
-104
20
96
-33
2
35
103
-48
33
21
24
-21
7
44
