-55
100
167
83
1230
241
-105
-133
-61
-86
160
165
6
363
-103
-322
-47
31
49
-49
-394
-164
106
67
-67
237
190
-244
473
-27
-269
-83
151
-113
-309
-151
234
169
-284
170
247
33
-115
-81
109
137
-232
88
-531
342
374
115
-78
-57
-192
-17
89
-24
-204
-65
84
-93
-54
145
17
-16
58
-26
12
-20
18
-26
29
1
-24
25
-56
0
-14
12
24
34
-38
-5
-9
28
-6
-19
-42
40
31
-19
25
-42
5
11
-113
61
-47
94
-2
0
-64
39
44
37
-44
-34
15
34
8
98
-45
-41
74
9
-124
-28
11
32
46
-5
-31
12
73
-49
-18
47
43
53
28
3
-79
36
14
-19
-17
55
2
-3
-52
-72
-42
-62
-17
-33
20
59
34
-5
-16
-6
30
-139
-26
-22
-19
49
-59
52
-24
-8
-33
-6
46
-8
-3
17
50
-124
98
5
-92
-9
60
51
28
-48
15
-4
-5
-13
-17
-59
40
-155
11
7
-5
21
-39
-161
28
30
31
59
-60
-69
5
29
15
-15
-12
-34
9
61
18
-34
9
-25
-80
-10
31
-44
19
-33
-32
3
-20
-40
-66
17
-31
-4
78
49
-2
-17
-29
1
-8
61
-8
12
44
41
20
-20
-49
37
-48
-8
7
-8
26
65
52
-15
-1
-30
49
23
-3
71
7
32
109
135
30
-13
1
-26
27
36
10
-93
52
10
-23
18
25
48
-9
-29
-95
-26
168
-63
-59
-31
10
78
30
21
-25
44
-23
-21
-11
-41
-6
-22
21
17
5
18
-21
1
-87
17
58
1
25
54
17
46
5
-76
120
-65
-19
72
56
26
21
-2
-8
7
30
72
-35
57
2
64
12
3
23
-38
-29
9
-30
-83
-72
-137
62
123
0
-14
4
7
18
17
45
126
31
-53
-32
30
64
40
34
-11
-12
34
-10
17
-53
68
45
-12
36
-6
3
-46
-15
-29
-35
-37
19
21
-44
-5
22
30
70
-21
-12
-71
-63
32
-25
15
29
37
-105
-5
115
138
48
-24
-103
87
58
-80
170
-61
61
171
-51
-175
13
254
34
-37
18
-7
154
-29
56
-21
-124
-74
-114
-279
-120
89
60
36
-240
222
-94
-239
152
-14
90
91
-10
-153
72
286
94
22
230
172
-160
26
195
-246
146
205
53
46
-73
63
216
-190
124
-41
-72
-20
-23
-59
14
-13
-24
-37
-102
20
-32
-36
53
-53
-62
14
-1
16
-75
-13
-38
70
-12
-52
-27
20
-48
-49
21
13
3
1
16
-15
4
-14
-43
18
-41
21
-35
27
13
-29
25
-6
34
24
60
17
-1
24
-10
43
43
-26
17
14
-13
37
62
-11
-32
4
8
-13
-4
-2
10
20
25
-34
-35
8
6
2
41
-32
1
-19
-67
-7
10
-40
11
-39
18
56
25
2
-3
8
-20
3
-79
-12
-28
44
-22
-28
-11
-12
-61
96
-3
13
-7
-85
24
-21
-80
27
-75
-50
15
33
-33
-8
-99
1
-7
7
-61
-8
36
-63
-49
-57
248
246
119
-16
-277
227
166
406
108
-139
257
511
1019
-334
125
-100
-113
93
-305
173
202
160
-117
11
2
185
256
515
-179
-55
-126
187
164
-236
314
-221
-221
193
209
-311
519
141
-87
59
-398
-577
120
-300
-73
-111
256
-249
415
-22
224
0
174
-38
25
390
-218
-10
-137
-122
6
-48
9
28
-20
10
18
42
34
-4
31
-25
46
-28
2
-14
-18
-18
-33
9
-39
-8
-29
49
238
88
66
1
24
-11
-7
8
-6
81
108
-9
-35
47
-30
-24
20
-71
34
36
5
-6
26
-76
-18
18
-74
-25
-41
-33
-41
6
-19
-12
-26
-22
30
9
-105
-25
11
-29
-29
2
27
-17
-24
-3
-7
40
31
-14
-94
-55
-30
-14
18
34
45
96
37
22
-10
-34
-36
2
50
-7
36
-33
-27
53
-15
9
27
-23
24
-23
-41
-9
14
32
43
5
-26
9
0
-46
23
-60
-19
-74
-10
9
28
-26
13
8
13
10
32
45
-36
-55
