422
-239
-312
268
-216
296
10
212
167
-94
98
326
-73
78
311
408
21
-33
-229
-88
2
1
1
340
-19
-46
-53
424
-305
-2
231
-16
-101
-175
41
-58
-54
-92
389
-57
-183
-295
-270
-100
-519
-339
-97
-262
21
151
309
-3
486
-129
215
-212
297
57
-130
-200
468
43
-241
125
2
-229
58
-17
155
125
-195
-298
58
139
-36
-95
-145
-49
115
-103
44
-200
-46
167
-204
138
166
188
-65
163
252
-175
-112
-162
100
101
-63
2
-133
110
28
-44
200
128
561
-177
-181
104
3
-83
7
206
128
53
81
-484
84
55
-65
-184
108
-54
-65
-89
-124
55
-156
144
143
581
-391
-9
-7
75
-56
172
-113
-42
-149
-167
133
-41
184
-575
-70
19
141
-37
-59
-225
161
614
173
165
-384
204
183
58
-113
488
413
-378
287
190
-434
302
-5
-507
-153
-34
-341
-498
104
251
-129
-54
-502
-180
-92
611
-362
413
324
46
219
-71
-473
-136
414
-83
-359
-213
-582
79
118
-113
71
-12
350
-61
26
51
62
431
-64
-214
76
-115
85
104
352
1
164
-310
-197
-385
-404
-43
575
-45
-73
237
-761
96
9
-68
109
-67
73
457
474
42
-106
-256
-160
-144
-137
216
16
47
-311
52
-97
60
-78
-58
5
32
86
178
-502
-10
-24
89
-83
-114
-121
26
-171
-4
-75
265
230
-44
23
-159
-171
25
153
199
-38
-271
-89
311
-24
214
29
9
-73
103
225
132
268
259
-364
235
-33
-29
-39
-174
150
-85
96
-1
-244
7
-362
23
-1
-92
315
214
-177
138
-191
-171
-165
121
44
-165
-95
98
-156
14
333
131
-104
-130
85
250
-243
-195
274
-170
154
-222
-140
123
154
-186
70
-113
192
-20
61
325
24
-427
49
-62
-13
293
-322
-156
-150
-25
-347
71
88
-8
-327
19
137
-226
-292
-236
-451
288
113
2
-281
147
-8
-246
336
97
131
279
21
-79
-175
129
170
-98
-195
96
-214
-257
-82
75
6
299
-137
48
181
144
125
-222
-389
-73
-449
42
-81
-247
-246
-253
-455
-119
-150
-381
464
139
136
228
53
230
-142
127
-177
319
54
132
-190
-177
-13
-354
76
228
295
63
-121
486
-232
-212
-59
190
-173
188
-3
60
61
12
34
34
-49
-14
177
-114
308
213
-380
-27
122
135
-338
-294
-76
390
-71
-62
120
70
133
17
217
86
-28
-20
-7
-100
-48
-11
45
-62
-225
48
-17
9
-134
386
-251
-122
155
-98
-184
109
97
230
-258
-283
40
127
-30
-254
-247
86
70
51
138
-22
-104
-18
250
-13
-45
-93
87
-71
131
-93
120
255
-255
-76
8
-52
-13
-202
-23
-64
121
53
-30
170
53
233
-70
-91
-110
2
88
32
120
114
-56
70
-88
307
90
424
-70
-133
143
-120
-94
41
-298
-294
-166
-88
-22
214
-182
355
-67
-12
131
123
74
94
-116
-66
-9
133
-106
153
58
-104
-44
-202
-265
144
-55
387
163
272
-149
-240
-139
-172
60
80
-18
-10
-216
560
-251
-227
21
-72
259
136
62
57
-118
-332
82
149
-181
213
-15
-202
103
-129
-114
153
391
-93
25
-330
459
319
-97
174
-157
7
414
4
-13
61
174
-120
-13
256
-309
-146
228
160
-24
-16
322
-216
-258
69
-137
-288
193
190
-370
90
38
-115
397
-151
-270
125
301
295
-86
-248
-163
192
131
153
588
-239
217
415
153
208
81
86
-438
-156
67
-210
390
39
54
89
-86
50
-278
86
623
-6
-32
125
-98
204
28
52
448
48
-40
146
183
-156
-370
305
320
45
-255
63
-133
80
68
469
157
-235
120
51
10
72
-145
95
-68
-477
28
-20
-336
294
-55
304
92
174
-52
-237
-8
-84
-102
277
-189
-33
-73
-223
252
140
7
-87
98
-157
-22
236
240
-58
38
-44
-118
-226
18
-52
264
-186
195
-369
65
23
-101
-49
-156
-193
-255
37
-103
152
346
-30
170
153
146
91
-11
-109
20
108
-7
-116
-98
-12
151
38
226
11
-164
132
-81
-56
