51
-97
-38
-1
89
-18
-1
-4
-59
-160
-55
74
71
-113
-31
26
-49
-47
82
-24
81
-125
75
13
28
-113
11
-2
-27
59
-41
-167
-34
-59
82
85
-1
-19
37
12
-51
-102
54
26
-33
-70
206
35
78
15
14
67
-109
-42
17
74
-17
27
69
-82
23
-22
-35
-33
22
43
-84
-42
40
24
106
-39
24
-46
35
26
80
-106
43
-17
38
144
140
32
-25
-52
7
72
23
-61
-92
63
10
-53
148
104
115
159
26
63
69
49
42
17
-100
87
-73
-146
29
137
-17
28
-174
16
6
13
-49
-83
146
64
-6
-119
-219
60
-229
-122
94
-21
-192
298
87
-139
91
160
135
66
302
152
-174
100
38
274
-359
145
-298
101
233
-124
25
-61
236
-197
-267
-100
94
182
-1
-64
122
-351
-46
-68
-269
-195
-83
361
-59
-300
-24
-189
77
-44
-84
77
255
216
-28
173
-37
320
93
-54
-327
-99
-159
-28
50
-13
-99
-112
83
43
191
-149
-87
179
-86
309
-149
-230
-84
-63
100
-80
15
451
261
119
-215
99
-522
7
-135
5
144
-124
-34
115
111
102
76
9
-205
101
9
-5
-25
-15
-154
101
182
59
115
-40
138
68
-233
134
-412
-54
188
24
-12
168
-84
65
13
8
7
27
171
-45
77
15
54
194
-21
-12
67
20
-75
47
-56
-59
60
-6
76
50
66
46
32
-90
-57
34
-106
176
-41
-23
191
-76
-39
-225
-11
-127
247
11
250
267
98
-15
-103
-108
55
21
66
-39
-34
99
91
-17
-156
140
-13
83
-16
98
55
-130
-65
-135
-61
20
-27
64
-57
-218
55
-63
31
160
30
-10
-98
16
-12
-52
-112
15
-24
-47
27
-123
-24
-56
-14
-17
13
20
-27
-65
-377
-34
-191
34
153
69
-57
-46
-6
-120
5
-10
3
57
46
-81
-81
-201
123
170
-37
321
-17
139
-52
61
-34
-33
49
84
-20
-180
114
-59
36
7
-15
50
18
-20
53
-121
8
14
33
-113
90
-26
-117
-69
182
101
155
-94
40
-21
-159
16
59
-123
146
24
273
-13
-208
35
129
-50
124
-4
80
-48
-112
-20
27
-10
-58
142
-81
106
62
44
-15
-91
-52
99
-3
-55
-77
247
-38
25
72
131
68
-56
107
-43
-88
3
-30
-112
65
-217
20
-159
-223
12
13
70
364
20
-34
-248
-178
-28
-146
59
-267
-106
105
54
76
-9
161
-149
279
181
201
-63
-35
-100
-186
89
-98
-145
64
-53
107
-1
-23
-264
273
-102
2
-34
160
-10
17
154
5
215
-63
-62
139
230
55
101
-210
-27
-38
51
75
56
58
47
0
-38
-82
-5
243
-95
-20
-65
9
28
60
45
-19
23
-84
-33
31
45
13
5
-77
7
10
-22
65
46
35
39
10
-33
-12
10
-27
26
12
64
-8
-13
-15
-80
-60
80
9
-32
-12
-7
20
-13
-19
21
-55
8
16
-15
-251
7
-47
5
28
-13
2
2
-56
84
-24
-15
-16
-6
-31
16
-26
-50
-58
45
-65
-25
78
86
-7
22
-25
13
-32
-3
-24
-26
-53
-27
6
-25
34
38
29
-9
9
-59
-31
-38
-2
94
-47
12
-29
-23
-7
-28
30
9
44
43
48
37
-69
32
40
-48
28
14
28
184
21
-88
61
-1
7
16
-37
73
-7
-48
23
-32
-20
-8
-3
-67
-189
89
19
61
-27
352
-23
-102
-39
21
-28
15
76
-28
-15
-18
36
-14
-16
-10
-49
-32
23
-59
-72
-6
-26
-40
-23
-176
12
-41
28
-39
50
-122
33
-11
32
-79
-39
-79
36
24
15
282
-8
-216
11
122
-8
-17
-11
28
-19
34
-74
-62
-1
78
89
90
8
34
70
-31
30
14
276
-20
44
-5
5
-453
-9
-95
-120
29
-70
85
-239
-98
-57
47
-35
33
-46
-56
-19
-12
9
13
-91
-17
65
-53
-42
-15
-51
-229
-79
1
148
-1
-43
-18
-56
101
-28
26
25
8
53
39
-14
-2
34
19
-144
75
65
78
-48
41
-4
198
