-34
21
6
1
28
24
11
-30
-11
-52
-51
26
-38
44
31
62
6
1
13
-18
11
-4
2
7
15
-4
28
32
-9
-9
-1
23
17
-40
12
-15
-17
-3
12
-31
-3
-10
-22
5
24
24
-46
39
-53
-41
1
29
40
0
-13
31
-15
31
19
22
-8
-13
34
-6
-12
-29
28
38
14
24
-2
16
-20
-41
54
-34
23
12
27
44
38
-17
13
4
1
-33
-46
-15
-10
49
-39
-3
43
27
20
-78
6
2
43
-17
-33
-21
0
-2
-70
-41
-30
-38
-41
-48
-14
11
-47
8
-28
7
20
24
-22
-17
26
74
20
-2
22
18
27
-12
-9
-40
-6
33
4
-3
-8
-41
21
7
44
-19
-27
-22
-60
18
35
3
-41
-53
-49
60
-35
35
4
0
-22
45
-4
17
-6
11
22
-4
27
-20
1
13
16
-10
23
17
-37
-3
-13
-30
-15
-6
-2
-2
-39
-5
-83
2
-18
-29
-31
12
28
-12
38
9
23
-52
27
-1
31
-40
9
20
33
24
-47
-13
25
-49
10
65
11
16
19
10
5
-27
-3
4
51
-43
-14
-60
20
-46
23
20
1
2
3
27
11
-19
23
-49
-30
10
17
13
22
36
-8
17
60
11
70
2
9
49
-48
-6
26
-1
-15
10
-6
-31
-1
-26
-3
-18
-43
-24
26
56
-38
-16
-14
-10
27
-4
-39
-24
27
45
39
7
4
-66
14
48
2
-6
-28
-13
4
11
1
-6
-37
-18
37
-43
-34
43
23
-8
-13
52
17
3
1
36
-26
-2
1
24
-5
7
10
-43
-39
-40
-294
-32
-45
-10
23
-15
-8
-9
-16
18
-29
22
-22
4
20
32
-43
-19
18
58
-6
-28
-7
-16
2
7
-34
-4
-38
-13
-22
-1
14
-40
34
-3
11
-17
20
12
-26
-2
0
-35
13
14
6
-15
-13
36
-32
-21
27
-2
6
-2
-30
7
18
38
-8
34
21
-19
33
9
28
-8
49
-30
-2
-30
9
-58
-11
-7
-11
-20
-10
24
-61
15
55
41
5
-21
22
-53
-1
18
9
-13
3
-24
43
5
3
-47
-10
-29
2
-16
15
-33
-43
-22
18
43
13
-37
26
-8
-19
-29
35
-30
-34
14
10
6
-23
15
-50
15
-9
30
-7
12
-28
-4
22
-7
16
-72
-12
-56
-24
4
-6
9
18
11
21
28
28
36
6
-16
-3
8
24
-9
40
-18
-4
-42
38
0
-8
-7
-6
-32
-25
-12
-11
8
-29
-24
-7
-2
27
-31
-18
14
-6
-10
-23
28
28
23
26
0
12
38
5
-8
-17
-10
-22
18
37
0
0
47
-36
-11
-31
0
-21
-6
-30
-21
-92
6
-11
-18
56
47
-9
-12
-37
-18
1
13
19
2
-14
-10
38
-76
28
-14
-44
-37
-19
22
-4
-54
8
-1
23
-52
23
29
68
-17
-8
32
-11
46
25
-12
-4
-9
-39
-4
1
-33
-4
42
23
0
-7
13
-9
44
3
7
8
18
27
-1
-31
8
14
48
-15
-21
14
21
13
-27
-7
38
13
-22
0
-13
14
5
62
19
-12
46
24
-7
13
7
-10
35
-13
30
-7
-6
-25
-44
26
55
-28
-4
-10
18
9
23
15
-22
27
-24
-28
-10
32
-77
4
1
-29
5
13
-8
-3
8
5
-12
4
-24
35
20
-3
-14
20
31
34
-9
-32
12
-35
-50
0
-63
-15
7
3
22
16
2
6
19
-31
-15
-10
5
18
-34
-31
-66
-5
-19
20
-12
10
-41
7
46
46
-1
-13
-14
40
24
4
40
-30
25
28
-14
27
15
-10
-8
19
15
36
-15
-29
-47
-5
-37
5
37
-29
-35
48
-36
32
26
-35
16
28
39
-6
39
63
44
-17
-10
-36
32
-10
3
-2
33
70
-21
-18
12
7
31
38
1
-36
-23
-1
-26
0
-4
12
21
35
-17
17
49
11
-5
9
-22
-30
-12
8
-12
-17
-49
-42
-15
14
27
-99
-30
-47
5
-22
42
10
-25
-24
7
19
-1
-34
28
14
23
