-33
31
-16
4
32
-9
1
46
2
24
10
24
13
12
-51
8
72
-30
0
-20
-35
-45
-33
-41
-12
20
-37
44
-60
-17
28
1
1
20
-29
43
6
-8
-36
-4
-8
1
5
-7
2
-40
-14
59
8
-39
-36
-43
34
-20
2
33
-4
-77
-3
-53
2
41
-26
-56
7
34
-47
-24
19
5
-89
25
-7
-5
5
15
14
-5
-19
71
20
-19
-11
53
27
-95
-20
13
-17
49
-16
-40
4
-16
49
-43
82
-5
-3
-44
23
2
11
26
69
50
-15
10
-27
-87
-10
-18
-26
16
-19
44
-31
19
-23
-21
-13
125
-47
-18
83
-75
26
-1
-16
27
4
-49
7
-13
20
9
52
19
1
80
2
6
5
5
-41
-10
67
40
-37
73
-11
39
-80
1
-7
-69
29
17
-30
-13
17
-16
1
21
-23
77
16
-54
14
-16
28
61
-24
15
3
-53
4
-12
-7
-20
12
9
-31
-21
6
7
-15
31
-15
8
-17
-9
-25
-35
70
34
-11
59
-21
-5
-18
-19
16
-64
-17
-2
8
21
-5
26
41
-27
21
6
24
70
-102
-8
34
-44
41
15
-26
18
50
21
34
24
9
-17
24
-2
8
10
-8
-33
-11
55
-52
20
-20
-19
-17
-9
11
-45
-89
-46
18
-102
-13
10
-53
34
40
-2
-43
9
3
16
9
-35
15
73
11
23
-12
-10
48
20
-5
-2
-21
70
18
-54
-86
59
51
8
18
-14
-37
-96
-15
8
-16
21
10
30
-9
-48
-33
-37
34
-93
20
8
10
-5
8
44
56
26
-26
20
-43
46
-187
-8
-33
-4
-20
57
-22
57
-2
-20
-51
69
10
20
16
-75
24
-15
-26
5
-4
18
50
-136
-20
27
-30
15
-61
-48
-6
15
-37
-23
-41
58
-54
75
-7
4
80
27
-18
4
-27
31
19
-7
-15
2
31
-4
23
-29
27
9
30
17
-54
-8
-10
-87
-50
39
-10
67
14
15
10
-65
-16
23
21
-31
-12
-33
24
47
6
17
-41
-39
23
-30
19
-88
51
1
-26
-100
24
17
-19
63
-7
-9
11
-33
-17
-25
-48
0
4
44
-12
26
-50
13
-41
29
30
27
38
-14
58
35
32
36
-29
2
-12
9
-16
-18
-13
-32
-60
7
-39
-6
7
-40
-60
-16
59
21
17
-9
17
34
15
-53
-25
-19
46
-9
8
36
16
2
-72
-24
-25
-89
-14
-28
37
27
-30
-75
-43
53
-28
-14
19
11
-18
-55
-73
-4
-26
-29
64
-10
-36
-88
-30
0
25
-4
-22
16
3
39
-22
53
-21
-14
26
33
32
18
11
-4
-18
-3
-2
25
6
1
-54
-3
-6
-14
28
-31
-35
25
-60
-67
9
-15
26
6
16
78
-48
-10
-37
-25
10
21
36
-1
-8
-50
-5
-40
-17
-19
-17
-63
-42
-28
0
-10
-31
22
33
21
18
33
14
28
28
-6
-6
-15
3
-7
11
16
-13
67
-1
-7
-6
8
23
35
9
-5
22
28
34
50
-6
-22
-8
-105
3
18
-143
65
54
-47
-23
-31
31
-18
-7
51
-12
0
5
71
24
-54
5
22
3
-28
15
20
-1
10
30
-38
-16
87
15
39
-1
9
51
-74
-92
16
-24
21
-19
-53
88
98
-19
23
-30
49
41
-36
-9
15
38
-28
-7
56
-41
3
-25
25
-16
42
38
-30
28
-5
-6
38
15
3
-18
30
42
17
17
60
-40
-26
-11
-17
4
-21
-3
24
-58
-2
-10
-6
3
34
-28
-19
-57
4
6
-7
25
-74
-10
0
20
18
-15
-28
18
8
-18
8
5
12
6
-30
4
-53
-4
52
35
12
-37
-25
-29
-46
-14
-46
54
42
2
9
-7
-85
23
36
13
21
-13
69
-96
26
24
-48
0
50
0
10
-12
-34
34
-7
16
-37
56
23
8
55
42
20
73
-39
10
3
33
-1
10
-14
9
45
-29
15
-35
-65
54
-8
32
6
-18
24
-57
81
-74
-46
114
-10
-16
43
0
-14
-38
-39
-38
-1
