71
503
-237
277
39
8
-213
86
-140
167
95
25
358
-807
165
300
51
-418
130
-424
-729
-92
-85
-466
-165
-169
-636
276
63
231
359
-637
270
8
161
523
490
-322
-154
-50
-165
57
54
-175
327
-498
-30
112
132
-35
229
-54
121
209
453
-429
-536
-275
-155
-53
445
629
-158
-20
-126
-314
-189
-309
-483
-163
-94
369
-7
-642
8
-478
184
-581
20
-474
153
161
-8
-155
-110
-338
496
-518
-123
-13
-211
11
-424
382
82
-134
565
678
363
-241
-341
-70
-326
668
164
-1711
40
-10
-270
-335
-21
-111
447
413
153
336
-453
231
-80
-646
-640
211
-34
488
756
189
763
-345
272
1094
151
-22
1139
-230
312
7
-122
-288
179
-114
68
-223
-270
598
-435
107
232
395
-310
-45
-196
299
-350
-123
341
-51
65
-445
148
-164
355
-38
591
139
-90
-193
38
-210
1689
45
383
629
7
22
-44
569
353
-52
383
-698
22
76
261
-85
-133
717
251
-72
-596
-505
-589
145
188
-142
510
290
-251
-292
-721
586
309
-281
-1133
-139
-96
-387
-155
-9
26
522
-106
-52
-168
-377
172
1089
-79
55
-991
276
271
-268
-73
-87
-59
-516
-606
883
-430
-243
65
-43
191
-170
167
-252
-1068
-417
-151
-463
-734
288
423
598
-42
-896
26
-259
120
600
162
218
-31
80
35
-459
-41
527
118
215
14
15
128
3
-55
124
-231
32
-219
65
23
141
-190
399
191
-319
245
570
346
675
-451
-158
-40
884
84
62
-313
-65
58
307
-18
516
357
-213
-88
-301
-522
185
99
21
33
377
501
271
31
-304
-94
-133
593
-70
507
-572
-100
58
-359
849
-107
-106
19
929
233
452
212
-127
-195
-476
128
-265
-311
-267
432
-1538
269
-195
114
-373
-506
73
94
18
-359
-165
-574
155
-327
-982
-212
-148
169
-280
48
-33
-199
-507
243
19
92
-254
-54
205
-373
266
108
-161
-254
-22
-1041
61
-194
599
-644
548
-40
90
-256
147
40
434
460
355
275
-19
-235
170
53
82
-156
-101
-470
62
-376
-390
206
-185
-182
-26
-433
-367
277
-64
374
200
-58
260
-96
-10
45
-432
-84
-74
43
-192
-131
348
-226
-116
523
298
-212
461
545
563
240
526
885
-18
-566
-191
-144
-756
489
370
-356
-361
-45
-416
209
406
-13
-418
399
-142
110
-247
78
-29
-143
-521
725
-382
-168
-59
347
10
-23
83
121
180
-162
402
400
705
-170
-212
64
-220
174
-121
-688
411
-50
-16
-430
-12
-83
-141
-60
-503
87
223
205
-390
12
-458
243
77
-672
-152
-237
146
126
160
-1151
-30
-208
-441
321
159
-5
39
106
150
-60
-264
933
7
-31
347
-478
-178
367
215
254
-160
-280
-210
-232
-131
337
-260
393
53
29
1064
-611
499
-751
-141
-186
1023
-157
246
-37
-325
-490
16
-131
131
240
-388
-514
33
43
-22
-81
-57
228
-42
404
-76
-161
562
-164
187
-363
-122
-422
87
-138
-43
140
-347
3
298
324
-325
363
295
-28
101
763
176
-79
-1147
-229
-177
181
-1103
55
311
-154
313
-62
-97
292
11
213
195
-28
682
544
227
19
217
-292
-476
-155
36
-194
-451
-330
156
147
202
97
-80
-237
621
44
8
-18
697
119
-657
398
-199
-12
-383
56
-252
397
362
-123
-115
-456
3
191
-813
547
465
129
-1206
72
-14
-244
-73
-231
651
-663
409
-280
-302
-162
-294
317
479
125
-384
585
232
9
-222
-31
325
-1204
-460
253
44
190
273
-317
-189
-39
122
-49
451
-44
-97
-194
241
-327
186
-15
-239
173
-312
238
336
201
408
3
24
378
166
91
554
-213
-348
-268
-87
-34
-126
216
242
268
-544
425
-176
-235
-503
42
149
42
136
-232
-245
-611
-449
6
12
1161
48
-58
74
332
483
107
-543
-130
-630
19
121
-83
-268
10
-24
-216
-56
955
-280
-102
185
89
410
84
-235
-241
309
16
408
383
-101
231
289
-5
-352
-287
-283
42
-87
65
-218
-865
401
-215
154
173
145
343
300
-205
473
-3
-237
74
-334
394
33
