-30
-86
192
64
-171
-51
-35
-145
108
-144
-250
119
71
50
-12
-204
3
-384
35
52
-246
-29
19
-187
21
-172
-197
-213
-380
-163
-114
-195
-53
-316
-176
-242
-119
-315
29
-246
220
-87
-192
-284
-450
-81
-554
-2
-453
-486
-93
181
141
-107
-365
-33
-6
-253
-1
-285
178
-348
83
201
-182
-200
0
-246
133
6
93
-93
-278
-224
-56
-348
199
-197
167
130
142
-141
-212
73
-237
-149
120
-51
-199
120
66
-318
215
-67
-168
-479
-164
-61
117
-39
-335
-312
-376
-115
-444
-78
-110
202
-207
-90
-151
-161
54
87
-84
142
-18
151
-11
-26
144
478
-9
-134
48
208
40
-15
-141
-522
-20
-10
-23
-137
263
-451
-189
-8
161
-150
-51
-23
164
-119
-64
-351
-154
126
-271
133
23
234
299
-294
71
337
-62
-284
-485
-56
95
214
-76
210
-270
-296
16
-393
-205
-221
-101
-74
78
-18
-320
239
381
-138
-205
-326
537
65
-76
-154
-58
-249
-259
29
135
37
-136
-456
-47
-2
177
-207
43
497
-31
114
-181
-109
163
211
-355
178
179
-251
176
-256
-56
-279
176
-368
-17
-119
230
-282
-204
25
136
-261
-76
23
-314
-485
150
-421
-133
5
-224
-184
-418
6
254
-85
-33
-142
178
132
-174
-6
-200
74
-10
-132
178
-312
-318
-176
-241
-399
-97
-118
319
-333
-199
34
112
-239
-251
-139
-131
-525
-209
-267
-790
-208
6
120
333
-127
64
-296
-135
-222
472
-4
13
-274
-175
-41
203
-364
270
-98
58
-397
-489
43
67
181
-114
-215
-45
-140
-95
369
-272
57
158
126
-387
-179
-64
-125
-56
7
924
-222
-88
20
-105
-101
268
-63
-13
139
-112
178
-125
-143
-41
274
-317
-123
-183
72
-332
-131
-111
-172
-376
276
-157
-1
-202
-66
-205
297
-100
-60
-60
-215
123
-186
-130
63
-63
-182
-339
152
-445
-288
-97
-78
144
-291
-227
-44
-217
253
-393
-143
-404
-30
12
-380
-150
-32
-153
-129
-387
47
151
-146
53
260
-113
-254
-208
-83
-95
68
-233
-424
-40
-19
-231
69
528
228
30
-207
222
-9
-120
240
103
-312
-246
-54
100
433
-71
-267
118
-263
343
-186
-6
-198
-110
-100
-209
-216
25
-135
71
-26
-35
-707
-66
-139
-273
-118
31
-27
-312
-60
-332
-109
-617
93
38
-104
-3
-85
-156
-64
-106
-284
146
-7
-202
245
196
-421
-107
-180
-87
-166
-58
-10
-273
-253
-187
-34
301
-195
-63
-150
-575
-384
-52
-226
-244
226
-161
-369
-228
-87
-60
166
-117
-66
-216
-305
234
-261
-224
20
49
134
40
6
389
162
-10
-107
-26
-40
-184
-242
-114
38
-178
265
201
-166
-192
-61
-193
-69
3
395
53
-74
-99
19
-254
-278
133
-219
380
-428
-374
20
-164
-307
-189
-43
8
-408
-239
34
-197
1
149
-23
-521
-114
118
302
-47
-121
409
40
146
167
-149
277
-346
5
-213
-36
-269
51
-147
6
-145
-261
-209
121
-35
-7
74
-272
-68
100
93
-163
50
-336
-100
-201
-206
-194
-147
37
-193
78
-440
298
-141
-561
-274
154
61
35
210
167
218
-245
-104
80
-27
-18
154
43
-302
-185
-197
-40
64
-393
45
181
-86
89
-94
-86
-382
-206
147
-110
-17
-81
-31
219
-223
-377
-376
-214
15
-473
-100
-54
151
41
-242
-76
-407
-530
138
-269
-443
-100
43
-367
-237
-76
124
-351
-196
136
-102
44
-88
559
-348
21
14
110
-77
-128
-324
-91
-389
36
-121
-164
-57
-228
151
-248
-174
37
-94
109
-336
-253
22
-31
-398
-115
-268
-166
-69
-135
-10
43
-124
-112
-89
-172
49
134
81
-213
-264
117
-168
120
304
-152
-59
289
263
-149
26
-94
-98
-421
-132
309
-280
71
-179
-368
-466
-230
-266
-424
-436
-10
-114
-29
67
-127
91
-159
53
79
-86
-77
-234
283
154
-22
-226
-7
-91
-479
-47
66
104
-457
-377
-172
-38
262
-42
263
-311
-88
-3
-72
64
-257
-126
-31
320
-458
-391
-232
76
-177
-230
-311
243
86
-287
-325
-3
-91
-421
83
303
-157
-296
-81
29
-189
-33
63
145
-68
