609
508
-795
-1088
1344
-1087
1016
255
-299
89
51
1272
-1094
1656
-142
164
-684
-537
-554
1745
1637
-1550
734
914
-483
912
877
-739
-957
283
-374
567
666
-796
1
-418
-927
1187
1154
-1506
-217
-1250
-242
981
-184
-256
-644
-484
521
-292
-1227
406
954
-1168
37
-582
186
-1439
436
-807
-740
34
-1962
-1117
-102
541
356
-135
369
-522
-574
36
-805
-615
842
43
55
1020
124
778
-316
-227
231
1110
189
253
-934
968
368
173
73
-550
2763
-1022
410
-63
1324
-937
-208
-292
173
594
-187
-773
677
1398
-437
-118
483
889
-234
172
-1196
-1530
-595
-175
296
105
-688
1039
-440
-2411
-683
229
-451
-513
-264
517
-31
-1015
541
483
-179
-218
-707
-1233
-287
-154
-819
-1059
-21
366
77
123
62
-3706
-245
-419
-220
1157
-85
446
-497
326
366
-734
744
1481
698
-55
77
32
-587
221
208
958
505
-809
-3166
-185
-585
436
298
1516
382
1920
203
21
-617
334
-298
-20
-202
1444
888
-486
1304
593
930
-17
-337
-1896
838
-219
-83
415
130
843
-327
-368
-714
570
757
339
-330
662
502
-56
332
-124
300
-742
669
961
-5
-1320
-665
-262
1229
-84
-66
839
472
-179
4
716
628
-384
306
-192
500
-221
475
34
-24
626
226
544
-53
-337
142
-411
-289
-212
-435
38
-1119
344
-543
-1839
193
1080
-329
-283
-293
-337
-1136
-466
327
71
718
-883
768
-72
847
412
-286
159
528
48
103
121
120
-400
-696
616
-470
-886
-184
-1113
1171
635
294
-931
-536
-24
441
1187
621
-142
259
272
-863
81
941
288
-3
1478
-221
-489
-359
-221
-274
127
1203
1083
-965
-632
-8264
-576
-137
669
275
-757
126
-759
-158
-301
-125
-147
60
-296
343
-448
-86
722
-151
-223
-371
214
-178
-412
-405
811
-499
109
41
-342
-3
257
-250
355
264
-344
-251
2088
-270
-816
-522
-787
-107
764
-365
-504
-170
-293
-304
300
-995
208
336
-438
-522
82
444
-421
-20
228
-521
-320
-433
-324
398
-48
-895
-71
-116
-198
-973
-92
-89
-869
803
-958
-268
-28
-852
819
420
-960
44
127
687
78
749
-245
-307
-435
-143
179
-188
-609
50
-596
-229
-1586
754
-46
299
-372
-1178
-824
-61
-43
-400
553
16
-272
535
-440
-421
-1405
434
-854
-996
459
-3
-647
-695
48
-41
-475
-427
156
465
856
-1274
-481
-466
-685
219
224
343
-1239
58
-158
-1256
376
-444
-1021
-92
76
827
-1446
648
-204
-380
323
-96
-640
-114
-1280
191
1205
526
-953
-712
114
644
168
346
-963
-177
-251
-60
21
-339
-58
-712
-395
-103
409
-367
73
-720
25
794
694
-1239
-296
-228
-417
1001
-435
-611
71
-2413
310
-559
32
-88
116
127
89
-625
-583
-429
-126
-445
59
-45
-529
275
-60
-996
993
-789
759
-1091
604
-639
448
788
-745
-387
-209
465
71
439
134
-830
-562
262
-87
120
-71
-401
417
-83
-684
428
-643
-448
232
-301
-2508
-755
-943
350
702
-360
-1193
307
392
897
-495
529
615
580
-228
-501
-409
-522
-346
-234
86
239
-793
-67
-147
206
-71
140
521
138
168
-449
437
519
139
-567
-337
413
34
151
428
1616
-259
-378
-395
-71
-896
-52
-347
795
-57
461
71
556
416
507
183
-667
288
180
342
166
645
-85
-364
-544
-272
157
119
-467
198
-55
-193
154
350
101
-619
-200
-448
-309
320
1151
-488
-56
-369
155
976
-638
748
1179
76
352
46
294
967
-884
525
217
236
-98
-422
8
-421
-150
1044
-218
136
80
816
-665
-125
-467
-453
32
-551
64
-325
311
-481
131
-439
32
-192
263
-408
-81
758
-301
-719
260
-376
1036
230
429
-490
477
-345
964
-658
-48
-870
825
-474
-608
-18
-78
535
285
349
-607
947
-893
-384
252
-986
455
-73
-767
-163
27
275
1290
799
212
-39
-596
416
228
413
-956
164
36
795
472
566
-550
-855
8
-409
462
-92
-131
123
-911
397
-1114
582
384
456
895
176
967
-202
-649
-429
-657
51
369
-684
244
516
-297
-677
449
-39
-128
-802
-271
350
-411
182
-1894
722
-472
-88
97
635
146
-1040
-180
-15
-446
-35
