-125
51
-188
-124
331
213
52
-86
-450
-475
-350
106
-477
67
-125
151
236
193
-42
-323
-106
-141
281
130
139
-120
40
-233
-428
-53
249
-304
-7
-128
-560
-301
-209
-62
-214
-418
-578
-260
-294
-60
-341
-196
-593
153
-334
-148
-434
290
133
261
115
-64
-573
-65
-276
-321
-34
165
437
-185
47
243
67
75
-452
-496
-444
-390
-253
-128
-296
-506
-106
-78
65
385
-289
-97
-139
-93
-177
-350
-369
387
-244
289
-407
60
54
435
32
-553
481
-312
-166
-53
-382
-320
18
-187
-550
-398
-289
-366
-223
-49
-409
35
-269
-307
-665
373
278
-463
-383
-65
204
254
-102
1361
-61
-189
6
229
-448
-448
-92
482
-10
-408
-280
-602
-239
-443
-16
-155
-214
-408
-339
-264
-244
-157
-133
-423
-98
-252
-237
5
-629
-664
-259
218
276
-172
-378
-125
125
-277
-263
-431
153
96
337
262
-445
266
-292
-377
242
-297
-344
-281
273
102
282
-59
-2542
178
-417
65
-213
-124
516
-81
-62
-285
-611
-475
-84
-187
152
-16
-458
23
-196
172
-530
-428
244
-310
-540
140
152
-185
-140
9
-176
-175
284
-197
155
97
-231
-96
7
-293
144
-156
-221
-36
-189
-539
-15
-269
308
-152
-307
20
-184
-224
-134
-283
-66
-385
244
-407
-10
224
-65
503
-325
-259
-137
36
-478
-577
-225
-526
-170
-163
-252
-338
-65
-95
54
314
-271
-80
-60
-256
-501
-694
-104
-396
31
-145
-26
229
-369
159
-461
-211
25
-42
-252
-103
-76
349
-404
-351
-460
-625
238
-579
-31
-10
-304
172
-324
155
-2
208
17
-59
1
-210
-231
-31
-276
105
-467
-99
-71
-609
-9251
152
-82
-432
-42
-317
93
-517
-241
151
65
-281
-196
170
-26
-379
-93
-177
61
94
-242
-667
-547
288
-92
203
-309
-219
-416
-290
-170
-414
-58
-83
-326
-367
-7
-73
-507
-451
-427
-288
-208
-54
664
-405
-293
-471
17
223
-72
-8
285
-317
229
-191
-27
-70
-496
125
21
-357
-496
-520
-127
-602
-545
-405
451
215
-258
295
-337
-1144
-61
-527
124
-204
50
-7
-450
-373
-147
193
-31
-321
-195
111
-178
-360
56
-293
-164
-407
176
107
-280
-180
35
-10
165
-612
-342
-274
-281
-169
-360
235
228
-232
92
-92
-28
-311
266
-389
168
305
40
117
-69
283
-426
-11
-416
-46
-336
-254
258
32
-230
-436
-93
225
73
-203
-578
-799
-406
-399
-329
150
140
-57
543
31
104
54
-373
-5
-107
-247
-17
-199
-355
238
342
14
-246
-289
128
-431
-355
-179
-38
482
-345
-282
-58
542
-170
-389
-349
-44
30
104
-499
-446
-130
-21
-284
-426
-377
-40
601
-498
-356
-492
-481
-150
164
-40
-97
-294
-351
-589
-219
63
-324
53
-117
-77
-537
160
299
-832
140
-169
-308
265
-460
-276
-308
104
-52
-83
-63
-266
601
-528
-172
-468
-81
-469
-126
196
-252
-319
0
-589
-148
-509
169
331
-363
-321
-333
-403
-349
-66
78
206
-69
-487
-321
105
120
-362
-346
412
-190
-661
-537
-171
242
51
-530
-255
-353
-120
2
-307
-427
-35
192
-136
-180
-218
350
-296
101
-144
-472
-117
-82
94
-226
-129
448
-567
-405
-54
-379
-140
47
-830
-51
134
-448
-104
-76
-57
-73
-244
-95
-209
280
156
-481
168
-357
241
453
-7
-106
222
-203
-572
-506
22
62
-482
84
-47
-333
-247
38
-516
21
-274
28
-209
359
132
-117
47
-36
143
-155
429
217
47
-149
227
-728
-379
135
-436
-135
79
233
-73
-377
392
-305
-106
-108
-184
117
-124
117
-126
-115
-367
21
-240
194
-104
-423
-203
-246
69
494
-218
-330
-200
34
-180
-178
-29
256
249
-415
-273
-30
-264
-105
-81
-249
-101
-141
-306
-546
-687
-547
-153
92
-411
-334
-319
203
-602
247
-49
-453
-411
268
64
182
77
198
261
-280
125
-128
364
-204
-416
-667
62
-180
-273
-2113
61
-311
-30
101
-190
-58
-685
24
-139
-3
27
-343
397
132
-205
-503
87
-345
-289
-365
-172
-524
-618
323
25
-355
-256
-239
-36
-250
-386
-251
-220
-222
-465
-758
-89
-190
85
388
-485
-19
-532
-178
-180
223
105
