36
23
-120
-918
1161
-420
862
212
34
-415
-395
877
-268
409
63
327
-460
-117
-324
996
1009
-946
461
1248
-95
1082
527
-1001
-1014
265
-199
130
993
-801
333
-58
-607
955
689
-1655
-341
-761
-65
455
36
-570
-433
-396
85
-455
-978
-214
936
-1628
165
-300
327
-1036
-5
-315
-237
202
-871
-616
100
433
-94
-267
64
-806
-1357
373
-370
-476
405
-250
-161
653
187
235
-41
49
314
568
18
-323
-354
239
3
367
-135
-646
2967
-320
263
-352
470
-593
-300
-301
271
456
92
-531
51
-846
-460
-432
-38
118
-425
25
-1236
-642
-339
52
-132
52
-460
505
-397
-1212
-339
206
288
-803
-310
365
-184
-319
-13
182
-458
-386
-37
-476
-180
406
-898
-804
-469
41
9
-47
208
-2499
49
129
-422
1651
-42
694
-1181
65
272
-71
435
896
410
-415
177
-352
-496
290
-471
329
520
-395
-2853
-456
-562
28
-188
1600
183
868
183
397
180
437
-80
160
-488
602
336
-292
880
637
559
-144
-162
-1032
712
-101
467
395
-335
767
-84
-455
-1025
128
296
526
-540
524
272
8
315
-23
-152
-616
289
537
412
-374
-194
-300
277
-876
-254
419
-155
224
-351
1499
517
-272
334
-117
336
-305
175
-237
127
510
-423
-38
-28
-977
-189
245
-307
-51
129
-197
-1056
235
-926
-2065
19
942
-315
-421
-31
-361
-894
46
148
-151
-9
-386
348
15
-161
-334
111
237
190
-46
157
-160
-364
-184
-344
542
-610
-580
-637
-590
526
144
101
-405
-742
19
756
956
567
-162
244
-358
-636
-83
547
-490
-277
1076
325
-153
-138
274
-522
231
1452
-186
-1105
-408
-5310
39
51
-225
-40
-69
-79
143
91
274
-294
832
-751
248
666
-939
-215
409
-240
-530
-159
126
-308
-170
218
719
-196
105
-571
-543
-50
307
-1
54
214
-171
-156
962
-86
-874
-424
-1250
-465
427
-38
716
70
-327
110
-24
-343
390
141
-15
-205
314
-58
-579
-343
430
-561
-112
-493
-87
262
-300
-577
44
16
-35
-432
225
-370
-4479
395
-1171
145
-320
-997
414
-272
-623
-52
-162
490
-29
260
-160
-755
-726
209
-456
-64
-473
75
-532
-601
-917
370
-299
810
-265
-287
-618
130
304
-464
96
-110
26
-85
-230
-265
-1424
159
-464
-781
569
231
-607
-780
536
198
-915
-1095
671
-281
447
-832
-218
-637
-777
294
-209
432
-324
-28
89
-939
362
-376
-1296
-62
56
673
-812
235
-199
-72
397
-194
-325
134
-1018
-304
670
709
-283
-445
173
136
16
7
-988
-47
-434
-592
-332
-641
175
-855
-260
196
511
-720
-80
186
21
333
595
-1046
-215
-162
58
275
-155
-403
-408
-600
77
-195
566
246
121
-345
92
-273
-43
-737
-107
-453
-139
-459
-312
160
-303
-481
1049
-380
-402
-1334
-112
-568
870
230
-775
-614
-129
146
-70
288
365
-286
-245
-7
-281
20
-349
-246
24
48
-1022
-53
-356
-708
217
-561
-3008
-687
-389
831
323
-357
-244
635
208
148
-404
94
198
388
-290
-692
-1044
-539
-19
-304
4
469
-236
-73
-24
-34
-4
150
377
-600
-253
-562
-643
648
-240
-659
-27
514
-276
7
34
1657
-206
-232
-77
185
-60
393
100
833
-50
-101
-27
385
-135
-111
201
-737
184
212
764
159
748
-21
-217
-43
-569
-389
16
-529
-153
-145
-51
-330
-29
313
-272
357
214
-403
955
1037
-750
507
449
735
962
191
585
131
308
-49
159
154
748
-711
643
480
20
-196
-453
594
-476
-363
175
26
710
342
539
-662
-404
245
60
-262
-104
233
-106
357
-731
295
-353
344
152
67
332
239
3
-488
-414
223
-572
1101
784
919
-454
11
-531
1062
-365
-502
-220
547
-406
-578
-50
-171
186
483
271
-507
329
-676
-390
17
-373
374
49
-548
15
337
6
436
315
253
624
-667
453
645
506
-84
452
13
497
144
-318
-396
-814
-154
-190
429
-65
-297
-96
-323
-12
-281
434
682
575
1156
-182
455
250
-145
93
299
-48
219
-317
-19
762
-392
-308
292
46
133
-598
-453
616
-897
-137
-1195
467
-465
291
88
779
192
-1047
-409
-52
149
36
