59
-220
-253
18
97
-299
-120
19
-55
-122
167
-5
119
-113
88
-426
-291
-312
106
-113
-325
96
-254
-218
50
-159
142
-116
163
-225
6
-51
-336
225
1
108
0
229
-133
-21
107
76
84
-126
175
-6
-30
-171
255
-45
215
-62
-395
15
189
-63
-160
166
37
299
-81
37
89
-344
-124
-40
77
-58
-37
195
99
-251
-62
190
-325
464
261
-345
-280
-223
-258
100
5
-211
-232
-26
15
44
29
147
-5
122
-632
-140
181
25
57
9
-137
62
86
-43
-352
261
-10
30
36
-86
344
-42
15
226
25
23
91
-101
-15
208
-138
-285
-113
265
64
-420
-195
99
-13
-65
146
364
25
-46
-307
-318
66
55
-443
-114
-87
-413
86
-18
-95
22
-253
211
-51
217
-42
-201
391
92
51
24
94
-133
-137
-154
-72
-356
-135
10
84
207
-11
74
-246
21
315
4
-128
120
149
-11
-59
-140
-117
107
245
174
-20
-93
111
-3
-34
218
-172
114
-425
31
112
485
-255
169
-152
-486
-165
-418
-193
235
292
-279
-65
394
97
239
175
-190
-30
-135
-202
210
36
-255
-69
-25
423
232
-246
274
121
-158
-156
-314
-45
-378
-109
284
-264
102
280
-62
-222
262
9
-104
-192
241
-377
158
-123
-331
469
83
280
-62
-241
229
197
-109
46
-784
-239
-115
-455
313
140
127
-356
133
161
155
12
80
-21
422
-102
134
-119
85
11
-38
-108
-204
-24
-237
-179
8
-316
169
108
-154
-76
360
80
-146
-79
261
136
137
-320
-442
10
40
-166
-85
-117
-110
-222
-117
-65
0
-30
44
-801
301
-34
-59
4978
127
167
86
-17
29
-205
-251
-143
-105
103
-123
-26
-205
-263
455
34
87
-232
174
-47
202
-155
-128
5
-192
342
45
-174
96
83
195
-250
-72
-436
20
84
181
40
157
-90
-17
152
244
22
192
-68
52
-111
-340
219
-119
279
-132
-86
-160
-165
-106
-202
-310
-146
2
118
250
-28
90
-139
-130
80
49
286
-5
-147
925
34
124
58
-94
238
65
-150
186
116
-48
-213
54
-214
87
192
90
-156
-66
299
7
-439
-33
268
55
-108
-46
-22
61
72
77
93
83
108
-116
-65
271
46
-203
-45
283
-163
251
87
-211
-116
62
333
-50
255
120
285
-233
-82
-105
-229
179
34
-224
111
29
-34
391
-121
3
10
-70
260
-145
-225
183
-107
149
-33
-107
178
-37
220
32
-82
435
12
46
146
-307
-110
280
27
118
102
-161
55
-116
-33
224
-116
-23
128
221
159
-23
117
60
41
-5
-225
-198
103
-180
281
3
-12
88
85
-109
-58
94
-325
-67
7
-338
-14
212
70
-141
87
37
195
-105
92
-38
355
183
236
-503
89
28
43
380
15
-69
-31
178
40
206
187
111
-97
-275
-5
97
-100
-277
-26
300
-295
194
-208
175
-119
-44
-9
148
30
229
-24
8
-175
13
147
172
173
4
267
129
-114
-167
-82
110
65
109
6
116
-119
-43
-18
195
-130
86
-83
219
-293
-34
106
-320
-34
390
128
49
231
-313
-109
256
235
125
-310
98
-53
11
121
151
-28
125
-66
53
-191
67
125
-62
-198
34
65
-169
-20
-145
68
68
-110
-28
53
210
142
89
219
185
96
10
131
210
-297
235
65
-4
166
42
-264
-337
-347
147
-141
-174
-138
-437
22
-43
-180
48
-483
122
-138
-132
-47
96
277
199
52
136
198
-272
-121
-9
-212
96
-125
189
-460
-142
-99
133
-83
160
-440
187
-42
-27
-47
101
-412
-203
-422
-50
268
-40
-119
261
-242
-473
118
16
-41
77
-174
135
54
40
-273
-113
57
102
-164
-122
267
144
95
-182
223
-73
199
61
105
-114
279
-98
-169
-209
-145
-57
-2
53
170
179
3
120
54
-246
-31
9
-60
159
35
-170
-178
131
-239
69
412
-38
80
96
-19
-75
-25
-138
-95
282
119
-237
61
132
154
-154
242
96
-186
-281
-6
-47
43
-325
-6
112
252
-90
232
205
-88
-176
130
212
39
90
-438
177
398
-132
72
-26
