-14
50
-15
18
5
11
-31
55
-12
54
21
-1
11
-14
-32
8
73
-29
-10
-5
1
-28
-23
-31
-29
25
-43
33
-45
-21
-3
-7
-8
11
-32
18
8
-12
10
-25
-17
0
-9
8
-12
-15
18
62
4
-22
-30
-25
27
11
3
9
-3
-37
13
3
9
28
-53
-21
0
49
-61
-18
-3
35
-43
26
-16
-16
24
-22
33
38
-24
58
20
-13
30
12
7
-55
-38
7
3
26
-22
-43
-17
-27
46
-35
120
24
27
-25
8
36
-12
14
61
71
7
10
-18
-62
-3
-20
-1
17
-33
6
5
11
-15
-8
-18
100
-43
-9
32
-45
-12
-1
-9
30
-20
-42
77
-18
16
1
8
-2
17
75
24
19
41
17
-14
-38
48
28
-43
45
-18
20
-45
26
-20
-49
23
-32
15
-10
33
-23
-7
36
11
48
22
-35
72
24
35
44
-13
5
20
-9
9
-28
-34
-19
18
-5
-27
-10
-4
20
-28
38
0
-14
-23
2
-7
-18
20
18
1
45
-11
-18
-4
17
-8
-12
27
-9
14
-41
5
48
40
-7
-1
-10
33
28
-59
14
18
-34
20
1
-18
-5
67
5
20
48
-7
-19
1
-7
28
24
-12
1
-8
41
-61
20
18
-37
-23
-41
-35
-84
-57
-3
4
-36
16
20
-39
42
15
-28
-58
29
-2
31
-2
-28
51
37
18
-4
8
7
52
23
30
-30
-14
60
11
-13
-66
30
27
22
5
-14
1
-110
-1
8
-7
16
2
42
-23
41
-17
-16
30
-27
11
13
22
-2
-3
24
27
20
-11
11
-54
23
-157
2
-27
43
-9
48
-30
52
12
-9
-39
46
-1
-14
8
-41
26
-28
-22
3
-9
23
44
-148
-19
16
-21
-24
-23
-25
7
5
-14
-50
-29
42
-13
135
-15
-13
99
29
-25
-2
-27
-49
23
18
-4
6
-6
-4
20
-5
1
8
24
1
-61
-2
24
-56
-27
34
-5
33
15
-10
-23
-32
-5
15
7
-11
-19
-17
40
21
-5
9
-31
-11
-1
-22
26
-49
34
-1
-19
-51
34
18
-23
46
-34
-28
-33
-39
4
-34
-34
-3
-14
27
-8
33
-8
-3
-14
15
26
-1
26
-73
10
48
14
22
-27
23
-16
28
5
8
-19
-39
-54
-4
-48
-40
-14
-24
-60
11
48
-3
37
25
32
39
7
-62
-30
-16
23
-4
-12
42
-14
28
-50
-12
-18
-81
-23
-10
-5
16
-11
-60
-62
35
-22
-22
-7
-5
-34
-30
-17
-28
-16
13
32
-11
-54
-39
-40
-16
36
-26
-36
16
-15
14
2
49
-27
-42
-32
-18
23
6
-15
-2
-8
-6
22
-12
-10
-11
-78
17
-3
-16
15
0
-21
28
-66
46
-12
-10
42
8
1
59
-27
7
-32
-22
-15
28
-17
-15
14
-15
-16
-2
1
17
-33
-23
-42
52
-9
17
-33
-22
19
-8
-1
22
-11
-26
-8
-7
-3
-2
-32
-9
-18
-4
6
27
-4
-2
-9
-4
13
11
-6
37
38
33
4
-30
0
-7
5
-75
7
24
-86
19
49
-38
-15
-28
17
17
-2
39
-18
-4
6
28
3
-35
-16
5
6
-33
8
22
-15
21
22
-11
-18
64
-2
-10
-13
-5
18
-37
-79
24
-33
18
-12
-11
46
53
-21
4
-21
77
42
3
9
15
57
-34
2
27
-30
-1
-27
30
-12
27
-28
-12
15
-57
0
24
-20
-1
-18
23
44
14
7
56
-50
-53
6
-8
-4
-38
-3
6
-28
10
-2
-6
19
13
-26
-36
-78
7
30
-45
-6
-76
3
6
16
-29
-14
-11
-6
11
3
12
8
10
-19
9
20
-22
18
35
30
6
-28
-19
-56
-50
5
-34
-18
49
9
-30
-12
-79
24
14
55
25
-34
22
-60
31
8
-8
2
2
-15
3
-23
-36
22
-4
10
-35
37
0
-21
37
18
20
68
1
-6
-7
11
-13
44
-12
18
12
-36
19
7
-62
20
-15
26
-8
-12
26
-47
70
-54
-30
65
-37
-11
46
27
1
-5
1
5
-14
