74
81
-35
61
-100
-30
0
164
-35
-41
142
-62
-152
-1
-52
-72
39
73
-104
-13
74
10
77
-71
-82
20
-53
-114
24
94
72
46
0
40
4
69
1
89
-58
40
-17
-27
28
-79
-33
13
-23
-64
-77
-112
-11
-28
70
-101
-63
-4
-140
85
-35
-45
-32
5
60
-92
-90
92
-134
15
-81
101
-81
3
20
-15
7
36
-35
-118
-98
-11
-17
14
163
-106
4
-79
-90
-78
-38
102
-34
113
87
-63
-70
30
15
-13
36
-66
1
50
29
15
-125
-47
-56
13
82
-42
-64
24
-24
34
27
-18
17
47
21
-2
149
84
73
94
-49
-23
59
-63
-10
48
1
-26
-163
63
-75
33
26
162
-61
70
-46
-132
186
-9
70
8
-178
-118
-40
67
-15
58
-73
47
38
81
19
-81
131
-8
-41
-31
-128
-92
-86
154
50
-144
25
12
-64
84
17
-123
139
93
-9
-32
84
9
-192
-83
-124
-64
10
-34
-63
-120
15
17
-165
44
82
-178
24
28
67
50
68
63
22
3
-93
1
-35
-53
55
70
138
-106
-43
-43
55
72
-121
166
75
1
-22
-25
77
-88
60
63
28
-69
-117
-27
-39
26
17
176
-82
-23
-118
15
5
-66
-42
-9
-99
-38
-121
-53
14
-85
0
-70
-24
-44
50
-106
-70
66
34
23
-23
19
69
-31
61
-93
70
-26
-93
25
-29
27
131
-13
-85
-1
-181
-25
-117
-48
-159
42
-51
74
59
-125
52
99
-69
-90
-82
-53
-133
21
-16
-9
-27
110
95
5
-101
-31
55
5
76
-6
-58
-8
57
56
59
-85
-49
-68
169
-60
11
63
-11
-6
28
-30
-85
205
-153
47
-59
6
-39
-1
-76
-133
39
79
-8
-81
-132
30
2
-9
-113
109
-27
-32
65
-19
-108
145
-79
-15
-5
35
23
34
-100
55
50
133
100
7
101
105
64
31
185
-27
95
42
-163
191
-63
1
-202
-128
-68
-96
52
69
-1
35
-43
-197
-7
-93
-66
81
1
-41
140
-37
-49
10
-133
36
-139
-10
61
75
21
7
-164
-56
-16
58
75
-42
-58
16
99
-37
-17
-104
-1
74
-62
-82
-85
0
38
-84
77
16
-14
-43
43
-51
116
37
11
77
-85
-13
40
153
8
106
-92
-81
-49
-133
22
95
-39
8
-13
-88
-28
-123
-71
29
129
-8
105
62
-53
10
-222
20
42
39
0
-118
-35
11
115
-19
-123
41
66
132
11
-30
-32
90
-165
35
24
12
-48
-216
-69
59
44
-30
-107
-88
67
-2
-19
115
-15
101
-96
-72
-27
12
57
7
-47
-57
-25
-13
83
-118
29
-36
-36
73
33
45
-61
-34
-70
32
-85
-91
51
-86
22
0
-113
-1
-111
-99
60
15
-88
-34
59
-86
-21
-75
8
-2
50
10
83
85
-4
55
104
-1
13
88
-38
-73
25
0
14
-6
-46
147
72
-25
-87
49
-4
-33
89
-3
133
-67
-36
-64
67
25
32
28
97
65
-80
16
87
21
161
86
-85
-8
-34
83
45
-90
-57
96
10
164
-84
-6
-147
-91
67
203
-51
139
46
-126
-233
51
72
52
-56
-53
-41
-22
-23
-67
-122
-29
53
-124
62
66
-31
-98
-14
36
102
-1
-165
52
-33
83
15
71
9
-141
-12
180
-24
54
-14
-38
80
-107
30
12
-23
-65
-9
87
-25
-35
21
-228
-89
47
-31
43
-59
100
159
-64
59
-69
118
55
23
57
55
39
-110
41
44
180
68
134
16
-55
1
9
64
123
-34
43
-93
-33
26
102
-213
61
-14
-59
-120
118
-81
19
37
-45
107
118
173
9
50
11
104
238
34
17
-111
44
83
-79
-41
19
8
34
11
-22
-56
-81
-105
-96
-167
-72
-76
-40
68
-146
-12
55
-24
-109
-80
44
48
89
65
135
-65
-66
43
-150
-98
67
10
-174
36
-18
-67
-285
-149
57
115
-30
80
77
-104
-17
48
142
-15
26
-137
42
-35
49
22
-56
48
-34
-153
-39
40
29
-6
-28
-87
-16
-118
47
-7
-114
